{"policy_state_dict": {"net.0.weight": [[0.03226662324405522, -0.03381902513374386, -0.03402184361030817, -0.14535592169843597, -0.015691723418969985, -0.06790864836258806, -0.13428158150165473, -0.049614012241732446, -0.037146404989661326, -0.009157124904096012, -0.00013944626789467112, 0.0449555057890397, 0.06270690334780292, 0.13609071845675996, -0.06055615493557603, -0.011563527026898049, 0.08201543523975094, 0.041882482902604636, 0.08586053509033437, -0.01899031852631977, 0.026687454040067008, 0.040227041556304244, 0.05568169445881988, -0.14421201271508974, 0.03450862748824799, -0.030417321400939352, -0.0030298506897588747, 0.10417631274369332, 0.00602774720212532, -0.15181350060955603, 0.012702052112170788, -0.043204288806839984, -0.0730307942170333, 0.04997044879642213, -0.05401580425220789, 0.05005682742041898, -0.0874559051722669, 0.018060819243555428, -0.007241310219365681, -0.032773203102390534, -0.08498867924228674, -0.022790821787057575, -0.053130046526546154, -0.023547439709006215, -0.05634160795224025, -0.060416284779632144, 0.03223475623260473, 0.03105075260538826, 0.020679960398853, 0.18461026580410556, 0.09023573989121228, 0.06458995681867416, 0.09600169330893582, 0.0037437207107240376, -0.07130081213864467, 0.04590637483675353, 0.002604570788099219, -0.04058238624273562, 0.15977873458831038, 0.03324088836342356, -0.16506098253458368, -0.04317568398113918, 0.024290703249924293, 0.020430814241569156, -0.021471980625012363, -0.07565573375140945, 0.12508975134568204, 0.07014037313305081, 0.028714586687740292, -0.0765622138759072, -0.0022302916204305838, 0.11218999962465728, -0.19860588271861587, -0.056889523036137805, -0.054942895300419334, -0.13764158915752425, 0.08586981278406247, -0.17146413952335174, -0.01383760447256758, -0.06738148116437871, 0.11443094734942459, 0.10759248993601572, 0.04855896923851787, -0.003858735303804179, 0.017517764534468138, 0.11445406964309547, 0.08912663409373976, -0.01702078977424707, -0.04096016160966042, 0.049846666040273976, -0.006462766589026903, -0.1969979613029324, -0.05414049235131207, 0.07405390510857301, 0.06304071458293842, 0.10645595301910485, 0.03561015231930524, 0.1739784882949289, -0.0304232984970607, 0.04242186138810659, -0.03654488327505719, -0.06449729543088478, 0.11079342196007001, -0.08586764182162146, -0.06484827608692903, -0.051628074195526626, 0.04088847240904497, -0.04271227211520623, -0.035027582258551716, -0.03244403612504773, 0.0011091524605158789, 0.15256852530616796, -0.16705522585445687, -0.06544570978231691, -0.05675837746476509, -0.21008531760661212, -0.042823922439201745, -0.03993388466713638, 0.001228517657365459, 0.0074630089880413746, -0.004043376576123232, -0.022417612073099488, 0.017515512045734562, -0.07506500423267144, 0.010093813370720529, 0.03245530824768366, 0.07949475036631981, -0.07877363804540342, -0.015170838744232825, 0.12464106603047215, -0.015336162426920699, 0.025031339874460167, 0.10329730515691447, -0.031179360530134963, -0.1145563812838203, 0.03550284930429037, 0.011758156336704146, 0.0386649180551982, -0.02986060998360193, -0.14221766849067854, -0.026259136759679152, 0.07203790354948278, -0.025102760181201018, 0.017058686134228083, 0.08008007947702604, 0.12305783101783756, -0.21064548788416423, 0.10044329740269639, -0.006836373681748515, -0.11327825153076368, 0.010794863583342001, 0.07568635800107593, 0.0975373646994646, -0.03609561566861291, 0.004107454199977102, 0.034488822767883016, -0.023734334222967116, 0.0944250366594701, -0.10427157623584511, -0.04104078585161227, 0.05569119980275113, 0.01764875262032995, 0.05358542845325568, -0.01492154729432829, 0.02177976298616798, 0.01588450314484889, 0.07033038788634596, -0.09342456380734838, 0.02924775478200806, -0.08921901608921173, 0.003594134618805467, 0.013503147447880785, -0.11402202788984944, 0.05892960334523878, -0.01555855477104426, -0.09777080299119535, 0.0181732030545145, 0.010880885259726617, -0.020780215816727864, 0.10453273504345939, -0.02006070457043688, 0.013801465100462528, -0.03732545595307191, 0.06332735829021537, -0.009634301879893302, 0.07779538018009223, -0.04361630669932429, -0.032965987524233756, -0.10501612968815713, -0.06582166760081203, -0.04529510734843503, -0.03896326467025505, -0.02107816500609066, -0.015420493495832042, 0.02501901486697121, -0.11864772584844846, -0.00039094682898486646, -0.007513862128582151, 0.06497688114012402, 0.0032384296066811586, -0.05145812238516844, 0.026842915049026066, 0.05427860299915697, 0.002986217878008842, -0.12165448754757616, 0.06125044653763591, -0.08875060351842762, -0.07569519444858343, -0.03383379133933305, -0.053651298289612424, 0.030340301650911394, -0.017392204125183813, -0.04407587381401999, -0.013313027011031741, 0.07290429148137118, 0.11563593836261117, 0.0031258856017997434, 0.09892251130985762, 0.052633534893161055, 0.058427424734701985, 0.05302123806732822, -0.05045117972227844, 0.07727423479974346, -0.10526015433480379, 0.15665134641157602, 0.12281807843556093, -0.05864163339188161, -0.019476957176377988, -0.07459908650301947, 0.07428952552459495, -0.0399098827565524, -0.1221349692933556, -0.027436936221244945, 0.023777080192285624, -0.0018124486996327661, -0.041186423343213874, -0.08220709321932619, 0.10015141205976127, 0.08854396955909245, 0.008790785230334625, -0.17935049798833116, -0.12355526146084289, 0.09952203872002928, 0.06367817678564104, 0.14834800546287705, 0.013129082813009244, 0.0034694265016049987, -0.03689851373397762, -0.10934784872866779, 0.010650726850437154, 0.028958549904357596, 0.22513398931405454, -0.029074148628622384, -0.0853627254346561, 0.048412425884521146, 0.14826916877617322, -0.04346207496124634, 0.11101636031378702, -0.06641203655343313, 0.20724988034670602, 0.10869930850242228, -0.0907785861477611, -0.029570199925752653, -0.11360068524896878, 0.0850454989135534, -0.006437082633623557, -0.0025227004003784545, -0.12594486886892142, -0.13289382634636, 0.08127549758297524, -0.005015270157849237, 0.02263821001888446, 0.004372711067039247, -0.06093402096881235, 0.0076249924544644215, -0.03924636582911147, -0.06275871185253111, 0.2379409067879492, -0.08486880602713284, 0.024410868356932174, 0.025858949382953977, -0.008038747911880284, 0.04834477014557119, 0.005428821679814454, 0.019640776158277966, -0.18000991138624048, -0.10913309436986653, -0.029098353242599916, 0.011628594594935194, 0.0076382750359172856, -0.228102861520598, 0.02893684493603735, 0.0426422153447469, -0.009376326469827619, -0.028575713715942915, -0.09539290989172268, -0.015647937665545588, 0.07312740304521162, -0.06669382619224995, 0.004847575861091636, 0.11036872564936928, 0.017163268225176755, -0.08400044288815034, 0.08058103473704997, -0.06889411667450474, 0.04345869917950921, -0.06876839582637519, -0.016355074681636807, 0.028547541519943185, 0.06865444043591172, 0.03962268878598146, 0.0627294744215941, 0.0813918909102112, 0.18253916077245003, 0.15815525165805275, -0.027678441492122695, 0.0709234799275252, 0.06301725778078865, 0.052671117965046366, -0.005566939069404958, -0.020448247920801705, 0.06023459150612359, 0.057063165630572246, -0.05677857667046744, -0.09551052929865754, -0.08629021632170987, -0.07321977561157804, 0.04899002390841931, -0.11280370032400419, 0.03991524485408811, -0.09182875442580603, -0.1753917631851668, 0.05545425686874637], [-0.0827793181594802, -0.025081531748643634, -0.03513644885751385, -0.1057613983116709, 0.07407318440430731, 0.019313656579531897, -0.10067198218295133, 0.17395105500590363, 0.0663580514891321, -0.03535210761853272, 0.052672507445250025, -0.11512438858571772, -0.03662154233871978, 0.03913449557003065, -0.027556380181591015, 0.1051421900627078, -0.030343674286162383, 0.052106717818036066, -0.0837610894888105, 0.03741441609355886, 0.00841441314476521, 0.04661095709255167, -0.0007884748824815761, 0.02498573240112745, 0.03390618032622383, 0.034711812759609405, -0.06004465464408398, 0.06170004549276586, -0.02808420839664296, 0.07827389465653778, -0.11732047099719989, -0.03250152297775414, 0.014462113609083392, 0.05101895593007508, 0.051521620630918634, -0.04094394769775733, -0.006576001101062687, -0.054149440438273515, -0.0033933163509670262, -0.0424226717218945, -0.16176431660854382, -0.036239259682447796, 0.12645551082125028, 0.007024773659899296, -0.03478257116791467, -0.027304768262854703, -0.046135167211468306, 0.06794218595383732, 0.046896787083759106, -0.011964809978898799, -0.03624517636709643, 0.07932167303346598, -0.08251261501164243, 0.05244255697177313, -0.13718295159146995, 0.03578571008694155, -0.08093252219029555, -0.05906521183776264, -0.07617225949079123, 0.08779973694952703, 0.08638680292254619, 0.18189770814706782, -0.059798630726326865, -0.05532592538431431, -0.0753573190552614, -0.00170832992800398, -0.07993670972401383, -0.16163523088755194, 0.02753815123291939, 0.09490355670246359, 0.030175557292719948, 0.09129573548456972, -0.02037402111362316, -0.051820333029331075, 0.007226402605617375, -0.07214759535852537, 0.013215693875269557, 0.09269145632861514, -0.1631139175119178, 0.043113534594042276, -0.07527189088277222, -0.005866043200789978, 0.0007509724929378962, -0.01916436188410817, -0.056507980234223425, -0.09871199070714815, 0.09144044313385076, 0.07885022067809577, -0.009759640722610735, 0.11444833341599625, -0.0579260928389199, -0.050704995485762426, -0.14474422698200623, -0.06072843849964753, -0.08360792699565339, -0.0505296413268373, 0.03750988033040496, 0.0960300365223042, 0.006614660844128133, -0.13425392670904163, -0.0117583198142316, 0.06910848058956094, -0.11143843883172039, -0.08347410956535593, 0.09385431906243452, 0.1009077554597047, -0.1488636533672452, -0.14089846068470274, -0.05864912746038975, -0.10217856037056218, -0.053133413126718584, -0.03999346885977997, -0.013501847122472576, 0.04075428282510396, -0.006853165731855964, 0.007255083201167174, -0.030675786541117588, -0.023771820116877607, 0.03771696731940976, 0.020013793871765433, -0.06557603468754307, -0.020364877793004027, 0.05499739146813015, 0.073538754488986, 0.06415839520514467, 0.040837753133098544, -0.07188869750328461, 0.06060915192008908, 0.012391720704643602, -0.042826814392065114, -0.06714571335128058, -0.06497853632350757, -0.03435311557754384, -0.03346425208039428, -0.1039106129103099, 0.03793778315793784, -0.06050308272280924, -0.01370129587815539, -0.053847289059407444, -0.0622242440311328, -0.02707259841530006, 0.02146636490244058, 0.020338165719347833, -0.05722195879360044, -0.03755120650033942, -0.057537966198669306, 0.04010356419704717, -0.19054685932997922, 0.06350447239123444, 0.01903193049627079, 0.047432201411103825, 0.12204231327564119, -0.06340427942176462, 0.005105014050521671, -0.015422905337787481, 0.006904011531120924, -0.007212080086691869, 0.07246350260005757, 0.07900596438104623, -0.1376255578527703, 0.036472106309191794, -0.1107002219122704, -0.029594749100647928, -0.0869626466583373, -0.04805606852617913, 0.02135278204731585, 0.046231379341755675, -0.017400055916059472, 0.016618072714204277, 0.0008334189153975347, -0.06838908413475982, -0.09941912307671791, 0.07390976553682536, -0.10323213325269252, -0.0012099199598603924, 0.06704019189672605, 0.006170320190939581, 0.07181678988618892, -0.0027509744021109194, 0.12018300323325773, -0.11534422220231305, -0.018564710474752198, 0.03376802872839768, -0.028450789187605952, 0.06483846818158784, -0.13118029831908518, 0.14766603679145524, -0.12609896283159563, -0.04535495110421913, 0.008080732055647832, 0.03062398072052105, -0.11252759638173923, -0.0005529749037903155, -0.03126009618659066, 0.010069314098021882, -0.027193213685570407, -0.014614364567769954, -0.026832061233632763, 0.06698339142641332, -0.002197336262990797, 0.18141479559676466, -0.12676092151120788, 0.005084913953099605, -0.002374928929141084, -0.001027276886734003, -0.015504675068423422, 0.1382710157648266, -0.08891777894922882, -0.02129227541509934, -0.10462181727147339, -0.041930875123209074, -0.01034778409483155, -0.050083334573526664, 0.09516502905327656, 0.09293967401032197, 0.09420249698641783, 0.13408636028003662, -0.0346763710098356, 0.04176603851939743, -0.026696668248230703, 0.002605600817893091, -0.11756740109485955, 0.0029641261919391717, -0.10516256880125141, 0.0705424411621197, 0.06180566781858879, -0.08645369916051135, -0.0361466803585215, 0.0908985730823423, 0.05367535075876115, -0.09366637039057996, 0.0939527446720423, 0.08937505425404017, 0.09436431940634857, -0.02152243448592994, -0.023768866122968066, 0.07005407884904263, -0.030615521424930677, 0.0312151464635873, -0.013998946998933203, 0.005993601530232406, 0.025113111957546834, 0.030378854872344742, 0.07949895606411184, -0.009225691999431272, -0.009704012582771237, 0.05197241386150103, 0.08668292644494195, -0.024366335576647146, 0.11418815603213087, -0.08378853315849072, -0.10414902457107104, 0.07721102063984916, 0.10650871469611296, -0.10470274279387642, 0.06174703314750502, 0.19171228331904946, -0.026213796150962573, 0.02366322893094668, -0.030432504193284943, 0.005178455070819746, -0.11964419864833845, 0.05611798098086156, 0.12000218383359747, 0.10891576827325372, 0.1169522646980412, 0.05929480218958105, -0.062418048712427024, 0.14959121122048302, -0.01136249227198381, -0.09955541233486816, -0.012643423783890762, -0.042745166680369956, -0.024010674254720022, 0.043072932297808425, 0.017134018295737453, -0.10876683905797735, 0.04931305736176747, 0.02258166796113515, 0.08396153901941188, 0.09936471141148763, -0.04771395054112848, 0.05642107417345502, 0.0029473213193411483, 0.05844895032950445, 0.0070070979787487005, 0.04778999718800125, 0.03679347222942591, 0.048178402628649364, 0.03541063713903062, -0.13985808591371154, -0.031208533786068776, 0.1191087221626702, -0.02102609928180619, 0.06306398454962343, -0.02178908636739396, 0.07461670807722473, -0.0667331880048576, 0.03313451009198121, -0.02552866601838883, -0.028334346554415864, -0.04241673559466282, -0.03696178517337197, -0.09959985295945044, 0.0916577724327578, -0.049621193880051706, -0.08018569566848131, 0.058899544792470296, 0.022300198865135446, 0.0029153326460410254, 0.02306528771287377, 0.055200782307630626, 0.006887638198088366, -0.04038419532340353, -0.01983785537049987, 0.04872828705837961, -0.1823992521568614, -0.03024078746779441, 0.004484873337285453, -0.06730701827863851, -0.07482364742071616, -0.17184810078659532, -0.05399200361125135, -0.18929775428322027, -0.14078818038741744, -0.13945755530021547, 0.1323070229642746, -0.10825797519216245, -0.029521602791233243, 0.052418125243913045, 0.05474194615456902, -0.03729613779685802, -0.03043296832075876], [-0.044056032423898855, 0.06710160751625423, 0.053468101705027665, 0.004694881514900646, 0.04541533656158787, 0.09626665698929011, -0.056393797501512674, -0.028755476789585552, 0.03379178917868549, -0.011637129771121925, -0.13735085366299232, -0.1640303190046373, -0.06897315362990336, -0.08072392990254366, -0.11170610565336281, 0.059694296976243254, 0.026466949695727406, 0.22867494665423924, -0.0431774431796436, -0.14229549804937375, -0.08470929110456656, -0.10124854343328976, -0.001505907374549562, 0.1414682126612489, 0.05004100751287705, 0.015837149443205776, -0.05230279454648234, 0.04194750206226213, 0.007716710987103733, -0.0568819946458108, -0.014016411787717132, 0.034419881472055644, 0.09578942068117056, -0.07513092697511714, 0.05900310559988846, -0.02264891790592706, 0.01135334930599624, 0.07998721334414732, -0.06328803090533117, -0.01360472883639922, 0.03727903932438798, -0.05676766772013696, -0.06445719970356323, -0.03741920776999418, -0.06350232119311015, -0.1256585602943316, 0.10421376517127154, -0.00968031516355381, 0.031145015616255663, -0.06213200619603408, -0.10147023874273063, -0.021098595229048053, -0.02032060981551936, -0.06598618124556524, 0.04366554809416438, 0.008919755075259446, 0.10658510644650228, -0.022298709516769002, -0.0029824580425697037, -0.08373919455534236, 0.04143341191404976, -0.02431017482964481, -0.012880795138738927, 0.03915003419847489, 0.09049556504133795, -0.03762914471328199, -0.10694088785827441, 0.047411831748294074, 0.05571123036787969, 0.06806471101826775, 0.019910683832854312, 0.19454428671808727, 0.06870594771690976, -0.08756731945697217, -0.06817420486524695, -0.06349419561683148, -0.028964135380261172, 0.12576933677977248, -0.05919417770474111, 0.020779820588945494, 0.15979083187711532, -0.014946756152537386, 0.13437562946914025, 0.06279968771056402, 0.08211616059303163, 0.07679238907037128, -0.02322312262047315, 0.11948675663232008, 0.0512493161784313, -0.0405042322713571, -0.05609673904532627, 0.056876870971629544, -0.02980998933686198, -0.024785596153206937, -0.003475346179378505, -0.029301279176303846, 0.193671284826333, -0.025149262424342008, -0.12439017277748564, 0.07531431996723183, -0.058357831859263534, -0.057097084777973796, -0.016530673211839545, 0.12405465902498014, 0.04876706036923602, -0.06190050748867619, -0.006027246152496397, 0.04911391185852402, 0.09223984645724119, 0.04236910224087049, 0.10930939246873751, -0.18937929207954296, 0.004553764009261099, 0.08193981052804927, -0.08443546164417096, 0.013398188862993602, -0.02220957743097584, 0.04236310243828688, -0.03411910172328119, 0.05106329412969002, -0.06308681753128796, 0.11368975231821983, -0.15953235274137398, -0.018060507908252074, 0.06223225474357018, 0.10184566665595554, 0.12800699261650195, 0.04991616919997345, -0.03052872069892236, 0.003295380255544258, -0.0822438504409813, 0.056136057184490995, -0.07076650487000785, 0.033316627419757015, 0.0490774315241728, 0.09484215799395773, 0.1596192707584857, 0.06128448157757668, 0.11952767004528213, 0.056548812151048504, 0.06530010299837756, -0.011888757338149519, 0.06119925857273341, -0.2282051932149131, 0.1568309686208602, -0.07489719359884703, -0.0052962206227074645, -0.03483098776503489, -0.024406453078577472, 0.022535757684135457, -0.03833480550713811, -0.06253336748747425, 0.036626063856792915, -0.03959920161561725, -0.002898071067634347, -0.021286254160194355, -0.09053614517893932, -0.05673737632395044, 0.17663656692938953, -0.040629430081395676, 0.12510353725895526, 0.11775330712595625, 0.006580646274712075, 0.05103304109866995, -0.053783878879520734, 0.03731246758100221, 0.053308711089535624, 0.025834511074027622, -0.11188565374119021, -0.046520612397664265, -0.021653997167641593, 0.09897434542413676, -0.05943571295922186, -0.009804395843403113, 0.016548853971540486, 0.14622484764225582, -0.04222660362358954, 0.11452065155690486, 0.09337077207237889, -0.07607347860717792, 0.03128415677023018, -0.021954809679010617, -0.010351500231350804, -0.08763543981527532, -0.11859585971291108, 0.14165118283176809, -0.013138049593387342, 0.1107674706670544, 0.0749186055978336, 0.05090711236424166, 0.08304905697004585, -0.09004242937724076, 0.12277848754972844, -0.08193915588230241, 0.06361874205996756, -0.06974465109015145, -0.08769221177766469, 0.08323982940461884, 0.13043988142715185, 0.010275236166930855, 0.09878220353463475, 0.09721335297273885, 0.038564383799191776, -0.05720503231886674, -0.005949184495435284, 0.06245984651295097, 0.043451972476036875, 0.014702311547100996, 0.04231522464742007, 0.014609703281974881, -0.06008635290096489, 0.03895463580170441, -0.0686153422321952, -0.05811776632110991, -0.1229199801536958, 0.13173392440893872, -0.011232881070120186, -0.06863945139968514, -0.09334504100786985, 0.13374800318581145, -0.017822426420200398, -0.007867437538840224, 0.023997929927664845, 0.017648189653872673, -0.017275912842758527, 0.12340950944614232, 0.047613991823972704, 0.09230290091934404, 0.04075110360797924, 0.1664122841767746, -0.15585923436404037, -0.03171757746182898, -0.0941590523653787, -0.004393339658721283, 0.028298196238161537, 0.051732412133174976, -0.03374892250403083, -0.07953119144194361, 0.032403694443317775, 0.01560547296997166, 0.061329721325379, 0.0901631185520104, -0.014267855960778963, 0.12429772960163757, 0.00941841978914853, -0.059586674170849806, 0.003831675186195848, 0.08638263105379536, -0.15960731682250362, -0.07468290746266798, 0.10716676374783539, -0.0249833694686522, 0.019974129607691182, -0.06455465012361182, -0.07886760280972001, 0.13973515697399064, 0.0596593616882682, 0.011881558130901412, 0.11326716636151996, -0.1568833472235659, 0.022013384324509187, -0.029886890184610826, 0.04838901578995453, 0.035698924985376954, 0.004490216963651771, -0.050458076004933676, 0.08535503476149812, -0.008617638608335346, 0.06226829337531795, -0.07673918401375183, -0.002627588046105649, -0.03840143451988889, -0.030589556157410828, 0.020124621840962732, -0.09543937421382535, 0.0977779043867138, 0.021281769899382134, -0.003937870627573471, -0.013156581028696148, 0.10777751251854444, -0.06362106733512321, 0.15857687893425534, 0.06850190082769135, -0.08997765534499899, 0.14971339532278657, 0.004435707474655278, 0.18288394239975084, 0.12588852195990455, -0.15830751045774313, 0.10005737699714108, -0.05256782350346845, 0.02047842046174519, -0.0701764473145467, -0.04675257772142444, -0.0589284018654897, 0.028532351902123804, 0.05291040289986518, 0.14617899538898865, -0.07596038302609187, 0.06500398552070967, 0.0018124050183760674, 0.12628432793509842, 0.09166863542721994, -0.04794200627776577, 0.005852931648533064, 0.1320961260131704, -0.046834180717574066, 0.02895549381631129, -0.10542163624904738, 0.21453441784323288, -0.06863576205565607, 0.08593894654713252, -0.1369566068321823, -0.04384263459995724, 0.040205758256096014, -0.10147151110070288, 0.09600091313064565, 0.17244371362875058, -0.05993388913349325, 0.04749310918424486, 0.08054883438657197, 0.007732334858782231, -0.02691537856775009, -0.08396094210259546, -0.09161791059740429, 0.024725494558637644, 0.08222790927837892, -0.0005254579622860613, 0.0886408193567439, 0.04684253507959259, 0.015142564396178847, -0.026290300214394356, 0.01217703276791221], [-0.13270010193659457, 0.05804085713554689, 0.13518503949567087, -0.06893388918940575, -0.216528883190932, 0.007712260441391432, 0.04197569441561957, -0.009135448036470725, -0.06023110815638734, -0.04541722124399618, 0.025781490052704165, -0.015010232050877927, 0.08943717790937467, -0.017844432763404035, -0.04171360895568262, 0.10057756150851829, 0.03741060787348042, -0.049579032232160945, 0.07438980551528632, -0.05930790935290771, 0.020847275878832065, -0.07747855211578256, -0.16664255066313474, -0.08887859277596949, 0.11017897586737202, -0.011792529273056284, 0.012282397733841672, -0.08545273546544926, 0.02212546949514249, 0.14292932310525266, 0.15437268970166296, -0.15331817425039973, -0.045099001236664854, -0.01941805792239736, -0.18072340609241044, 0.04045957715447332, -0.0417435144813422, -0.09290931466465313, -0.11656808219305469, -0.039919123709399255, -0.0023138603086119043, 0.0566612676750277, -0.007565137487188263, -0.011707717028251657, -0.07282796774766198, -0.15050303014439675, -0.020532185003953922, -0.00649764498434723, -0.057881995583115534, 0.12415646725503957, 0.041309833966648044, 0.07649109878430517, 0.11584738392254598, 0.06556821108592187, -0.015428173648571047, -0.057658974733147905, 0.009187275375528292, 0.09460094840676042, 0.038257185914989486, -0.06359094505614264, 0.08179405433593691, -0.10156515032327446, -0.008832961451043578, -0.18098793502688185, 0.08521345390515722, -0.03967036190002755, 0.12756055651228818, 0.03735537791177943, -0.008233660064093491, -0.03055739522850958, -0.07356844526227004, 0.05434908059378249, 0.0026922973210475143, 0.03514841571806308, 0.05631336949575194, -0.012601583496376191, 0.008169520429113003, -0.1012317952772383, 0.030077763566425244, -0.17286484434329744, -0.1349301291338284, -0.11553620327468346, 0.03321321185152485, -0.01236175844937866, 0.02088137417003187, 0.005765946838045399, 0.08971244866341364, -0.08461335783221281, 0.03844804285978877, -0.11911001084317127, 0.048576993573125685, -0.10248845929561229, 0.11006813729735176, 0.037105571102933374, -0.14883005425803, 0.06678153970276283, -0.004015984248851633, -0.0328086013366609, 0.10122290921018211, 0.0990663110116495, -0.20915218398695012, -0.008712742299846175, 0.13996906888435057, 0.05712418281719343, 0.08023710003659036, -0.0682871664459091, 0.03606820143936797, -0.05724530275632077, -0.06251866148455001, -0.027483613443897503, 0.05212994116038488, 0.015114034787052045, -0.0030316551239555714, -0.1350971721737273, -0.09512839567462152, -0.07425053813536686, -0.06707889398210985, -0.037902075493589385, 0.002378357175176133, -0.009565736603339333, 0.024561435679349916, -0.01238424628453479, 0.057552679733882436, -0.001250873145191173, -0.09705205303866327, 0.00946717464199259, -0.03641397125520506, 0.04314624510008434, 0.01923306236369368, -0.08708556940467262, 0.015400595383933117, 0.06545565420120006, 0.049285526755426315, 0.029762081246740676, 0.06425150681814377, -0.081363342270668, -0.09831356312851128, -0.0806360965683725, 0.16699841428978565, 0.03894961656229224, -0.008200311806377966, -0.1354368028974799, 0.058583690852125454, -0.04026673613831196, -0.10068986194667966, 0.05564006245935402, -0.03384207415068755, -0.13540686272830602, -0.02673900255028974, -0.09137507243778632, -0.10946925478404587, 0.14426470029016664, 0.02030762827315948, -0.11714968468895184, -0.08343439607452646, -0.005499933465132703, -0.1135566946667408, 0.11073927276384048, -0.03240978533241727, -0.008513332158007026, 0.02038878996723065, 0.11502416503477281, -0.07366193832648321, 0.056587771454968606, 0.016992741735997276, 0.05348512564882567, 0.01039472128330872, -0.01703968972702055, 0.029391189924269447, 0.0658702458447467, 0.09358634519587053, -0.004546338373383999, 0.0027072521624245194, -0.1553058496232687, -0.04995809631307089, -0.011997892512418822, 0.03753729235068772, 0.011445817585302057, 0.07985385468033639, 0.16744930115053464, 0.028270992596921413, -0.012141542246212795, -0.134934756445318, -0.04817284407500216, 0.027404417725932873, 0.027670640564879515, 0.037803091862432914, -0.02642481042458799, 0.06775685442643115, -0.04264612648945149, -0.09585655425931525, -0.014888095963136191, -0.07938907451296168, 0.015145426167399684, -0.04875792487324961, 0.06900954814905007, 0.0905943274785091, 0.06849633744877386, 0.04879987520103666, 0.01541071753861797, 0.03155330038790091, 0.017709218884379034, 0.16320019514039688, -2.0212234482002197e-05, -0.061060547641218654, -0.08487791877081971, -0.14138045987627323, -0.11202826364823298, -0.014408838981396367, 0.0512540878666424, -0.032273575103699145, -0.024922778585900078, -0.08076300339804886, -0.14982073101279916, -0.06959966448427045, -0.04163410508839132, 0.12440855222745126, 0.037375953678586885, -0.019653716507507135, 0.09549742479669897, 0.115845451496224, -0.12076316329624379, 0.08439598851284251, -0.023477612462745646, -0.13168952931440908, 0.03385188149533296, 0.04472123691289627, 0.06835895137772297, -0.07018139460526486, 0.007473641129571559, 0.05627104576401542, 0.054205533980369904, 0.005644565875888787, 0.07267021155920886, 0.11342893089243272, -0.11277226369836106, 0.030199427567726568, -0.03308851357835651, 0.12720501622945968, -0.1062808687784057, -0.04406598573725342, 0.06660904312099358, -0.07951413139933326, 0.0887572439078208, 0.016597541271127704, 0.05231964526824184, 0.05685077982476362, 0.055911269891885294, -0.13595596900887902, -0.06119664771538434, 0.07390554740368886, -0.06084388817723471, 0.06381291495192645, 0.12416693645438023, 0.011257384919350546, 0.0626805267876511, -0.051567918611567835, 0.11262152413270125, 0.02832668994526988, -0.10051554707833237, 0.022840608613551965, -0.019138224633555984, -0.1146901150613731, 0.042372652524571404, 0.2323927388264066, 0.07582990775960738, 0.10619043356390538, 0.025472682162524782, -0.06407313507714602, -0.05367199358069918, 0.14921932632227133, 0.16556036365133875, 0.025364849218573078, 0.05201474809476173, -0.04728572609074767, -0.09432925810719908, 0.10839436025231709, -0.0032624700011650684, -0.009699917576139711, 0.0019813718373241063, -0.20819968925184903, -0.03463713113069416, 0.02317110437638585, -0.051277616634695926, 0.0029390383904614437, -0.026107348330578664, -0.03461655238119213, -0.04992927335593574, 0.07656124509764477, -0.21218151689314352, -0.03384338227892258, -0.03758322359066027, -0.012415365351802687, 0.049093142351166054, 0.10122742320114707, 0.09494665861315463, -0.05938424030752258, -0.039642645832837345, -0.11007487881893546, -0.18230015586924517, -0.10928351017311762, 0.02713949188401569, -0.12590853236942537, 0.14058640695553998, 0.006558815009118995, 0.07523196276201456, 0.013894217480187194, -0.03277499233004937, 0.009825310914444826, 0.13636540997027727, 0.08709880830739071, 0.0015068558212587627, -0.03954766429844547, -0.07326777376942124, -0.0055451301127487276, -0.05477434654784862, 0.023540702225447813, 0.16090962919148138, 0.07943674762441881, -0.05554793520543831, 0.009633133328214348, 0.06317747407402625, -0.016474950428164367, -0.08232839525272335, 0.0690546026045103, -0.012940249646946848, 0.021015347437881672, 0.13234641468464883, -0.05206217622020565, -0.09457136696150648, -0.08402375914900198, -0.06893817630479833, 0.12606118127154461], [0.013092048988347404, 0.03477289713407317, 0.14115613542914057, -0.010933353262836381, 0.1286772904263186, -0.051583983479020906, 0.0031032819056385657, 0.12839782278771325, -0.013890746474203047, -0.10321723052317784, -0.08018267583611989, 0.16838642391333758, 0.008870882249887848, -0.02442778899270627, 0.2149901376121326, -0.012938056080731413, 0.01583887772827816, -7.049275556372978e-06, 0.01754780076559183, -0.03545098318355868, 0.022830694521888805, -0.03913387971437018, -0.018266228070265213, 0.011838344697248126, -0.1371262703802705, 0.1193100822110611, -0.03715729046844477, 0.032065784204753374, 0.008446351188179069, 0.06312863235388107, 0.08872290524735287, 0.002305023805986992, 0.14802669379866928, 0.11589158100122707, 0.1424091745407668, -0.08024374565877215, 0.04762597754991198, -0.058782151350419726, 0.03479750733342603, -0.00894203795407601, 0.02087936299279191, 0.11106102840270114, 0.13504478466828929, 0.03404631990083152, 0.06998356783784983, -0.0007698113190860691, 0.06198078986075574, -0.15684601192973063, -0.02020833961251572, 0.11469961147212182, 0.14577923292533063, 0.024774402289918236, 0.0036279757992691464, -0.047358381311834376, 0.007624537963876342, 0.004165181536779564, 0.1045019486304618, -0.07973236850473825, 0.017858992151887302, -0.05934907881950774, 0.0947600241117589, 0.1333347940284207, -0.011502415715099884, 0.13551068947486083, -0.07315628386264597, 0.015655186578566346, 0.06752634632267222, -0.09796462945132205, -0.026905132746644092, -0.13794994715511444, 0.010518401120882023, 0.04644908245333995, -0.02055908776121058, 0.09048209184012175, 0.06580342439919112, 0.042686589365759205, -0.11861345236255617, -0.017960597579718088, 0.0471503923423363, -0.09166716816416301, 0.00035237121939898447, -0.053387876775021006, -0.033229849430094466, 0.052102331618158804, 0.06202507654442836, 0.02194234647692616, -0.027809108615347203, -0.15378086978713662, 0.14084972845278143, -0.05600676919631219, -0.07512889432754176, 0.130577148055873, 0.16068153485004721, -0.03294286155649636, 0.18810858316875712, 0.024589346166262602, 0.0165778374072725, -0.06509851691309411, -0.037564268653313124, -0.16310425452785282, -0.05996212702245853, -0.04250275455886812, -0.020789844575487038, -0.02815314995828094, -0.07053011855773847, 0.16368654052631493, -0.021097075247293207, -0.03200060049615815, 0.1091225255497938, -0.018882790798867635, -0.0365914219944641, -0.06604270352759412, 0.008447374997552616, -0.03547789680929639, 0.08489221416616369, 0.03992609031000395, 0.09962781142726733, -0.047885835099628106, 0.041982997200891575, 0.0017810376299583928, 0.00942812401617654, 0.12647805332720596, 0.14581224994890976, 0.05494190454551073, 0.11524568741126358, 0.07393122447864836, -0.08235637811702626, 0.037586390072971085, 0.10283955582324175, 0.01953572515727032, 0.07110536197434014, -0.074416006869346, 0.026326051706803338, 0.10482109097717773, -0.02323295713683874, -0.009836046114910867, 0.003517916310098769, -0.07240176888867303, -0.031005562185362726, 0.18488511605582125, 0.02924007874848875, -0.03957655164980969, -0.05243351502896584, -0.011563668614408974, 0.10979205246068782, 0.060168194131605617, 0.06705458313963779, -0.1260242968535861, 0.05295485331617222, 0.02394571359631472, 0.0753442208045048, -0.05310051525717678, 0.12727118562602607, -0.03164677810687104, -0.08381096408307105, 0.0409679840096976, 0.11336142031890213, 0.0018234917329243343, 0.11074842630508148, 0.0009011640250649544, -0.10789406324718231, 0.02263075235869228, -0.02331628966146799, -0.07542067902463578, 0.004590924676624609, 0.04824639640766986, 0.13285080880067335, 0.07975182444727826, -0.03737189224990674, -0.02867485657909906, -0.07686539997149902, -0.10092629835065539, 0.11486120354000029, -0.028483667099592394, -0.055403278184116, 0.027143722144178085, -0.06866786992192817, 0.0375472129308865, 0.02104520053252071, -0.12689536199146276, -0.013896102056010575, -0.1713947313272278, 0.08284930802549371, 0.15985061407176876, -0.04233789229907695, -0.020582862591029764, 0.03937429269130944, 0.07457032797231673, 0.046854427086430846, -0.06836452594277961, 0.06496359417089932, -0.1091576859553441, 0.06102137508804531, 0.1643690681648439, 0.04663957361133993, 0.12110648460229849, -0.11652347439901276, -0.1064948082659285, 0.01825703037273401, 0.043115821490946823, -0.05243865695447619, -0.0354212140380175, 0.0623939641073303, 0.013680816273557491, -0.03561764282117675, 0.18455402293356732, -0.07819829627312987, 0.12795021081037677, -0.024150162780523454, 0.013236025411842918, 0.10049846644018051, 0.0001118980247347705, -0.07859387150551216, -0.12061463821976245, 0.03507997060401022, -0.00019884320522301833, 0.022266565481024198, -0.10834032612981617, -0.09998522310065011, 0.08517547436627784, -0.12150136306034774, -0.01711358646820451, 0.03665933432230138, 0.009151921187173015, 0.11518787865382063, 0.1443419287403963, 0.12474583500580098, 0.06353888364307851, 0.007853577130300955, 0.12665406922226224, 0.0964131363933526, 0.16878605811196704, 0.047964571406394596, 0.00042043899119544644, -0.05659509045033093, 0.027131166156161395, -0.14998225175826824, -0.04067700885422444, 0.014026046704496172, 0.09079745652434029, 0.02285635439953411, -0.03797902559899039, -0.06674477502626279, 0.05310524466044715, 0.17246759623623784, 0.05637442166544087, -0.0236956915386093, 0.07176335387114789, -0.059757604671891125, -0.01192777074528945, 0.18703059646395087, -0.07269390304858708, -0.01660342621708268, -0.13501437671927147, -0.13620313548281762, 0.11654050243717111, 0.050778349486634414, -0.10732483711974478, -0.0693855629195151, 0.005820369352131862, 0.003702397828050564, 0.05543783218373402, 0.09969772635398987, -0.06783395179372843, -0.022260852153005956, 0.0007895456739126051, -0.10654887581923544, 0.05154088766455917, -0.12814802029954098, 0.09030179248467889, -0.06489483414070228, -0.009438226482657715, 0.07963893177521748, -0.0049773148313669744, 0.04533729103227917, 0.07568678557905625, 0.014973440403017898, -0.023261395801261225, 0.05399409631020654, 0.08957094600064953, -0.11022455383821163, 0.054808576152893626, -0.11735159493412264, 0.04177931369959463, -0.02095803608517134, 0.006404272108670904, -0.05417119224416202, 0.09640053990781429, 0.11408114228605154, -0.08546670456488793, 0.051718946569138655, 0.020952445112306074, -0.18127656995924493, -0.023868128632536074, -0.06761232757241273, -0.06801422955130719, -0.018956028802240354, -0.023885272426693183, 0.11070384391912447, 0.10530525646928057, -0.07456937457101037, 0.012221849915557224, 0.05032030984019915, -0.04270331685260523, -0.15949952262905204, -0.020798735515867743, -0.1303848767272625, -0.029821432979680425, -0.020754644936018696, 0.027108249315758205, -0.008469464882801024, -0.06082468716235135, -0.018872701579795533, 0.11261771516309434, 0.028316742121272793, 0.0676979310021724, -0.05816304253939676, -0.07172957346965543, 0.05419739042301819, -0.02410276161341955, -0.05472531507255157, 0.0006053665511163395, 0.13140166780337978, 0.11757780405793178, 0.10202218221360206, 0.0024776930845270572, -0.1538660770057457, -0.061454442497595706, 0.05976738776018447, -0.02060997857511529, 0.11913920106765533, 0.07347711119246578, -0.07757009797877643], [0.11877039214463034, 0.02054349871808405, 0.052730201725088174, -0.08542735217239078, -0.0696418776027209, -0.0089369357966709, 0.12711020023509362, -0.046691179908020956, -0.04644668688494015, 0.14503525495857364, -0.04828822503699595, -0.08865875277738298, 0.04964541535097159, -0.001692939342839122, 0.023627798371430364, 0.0914229718157987, -0.10695498920170242, -0.0679311534922393, -0.07667332487022298, -0.029220943974938088, 0.08182746164293987, -0.18010430223971455, -0.008165028233986122, -0.011802573367199462, 0.03867537285745617, -0.011644221048788782, -0.10683735467009024, 0.004375106792869853, 0.011065216424987975, -0.021016442522335622, -0.004973525895420974, 0.11935129495935161, -0.06124777874267091, -0.018688659957693022, 0.019857329171402597, 0.12406549995960797, -0.05786361194399942, -0.12092897018682176, 0.061586299055945024, -0.019523030104581597, -0.12536945872784477, 0.0016817558085355196, -0.04563129779201849, 0.08419285025075923, 0.0040836584501215386, 0.19985828654591015, 0.14100704290386146, -0.056549319835140284, 0.0930750218768184, 0.034570976800197946, -0.062039027311283745, 0.0014828155144327396, -0.051807453099568204, -0.009141156507382795, 0.11333336261101701, -0.016524528861983544, 0.07315364673288569, -0.05529932910494258, -0.025344202285231952, -0.040049355387072424, 0.011783196464677341, 0.11186050699575809, -0.06023005901880171, -0.0707498490100281, -0.0777886872843934, -0.08610788713605821, -0.127705622200295, -0.0336681916052141, 0.05388818718900596, 0.05272791319037482, -0.11846283462322542, 0.022831760162913113, -0.05027707473160159, 0.015931991844258656, 0.10465307160113069, -0.012389306358793097, 0.13490636333904682, 0.03887905303686135, 0.03936703066155422, -0.04485240889837065, 0.0176607025989853, 0.04822996400883704, -0.05721654270949914, 0.00987523749344103, -0.05831239042324959, -0.014235280610971462, 0.04858171153375567, -0.012039676219231289, 0.014301390085893723, 0.07453091556069937, -0.0036314143020230146, 0.07944083722805417, -0.020882128528064512, 0.006428978063726618, -0.009951961494365006, 0.05961398674498713, 0.0371238124761415, -0.07292009645820831, 0.07207399440108671, -0.08225468577618669, -0.03285739970974588, 0.01553244751537095, 0.09758451541247416, 0.003826598417589948, 0.04037624615768215, 0.004022625039601529, 0.10541400451757282, -0.07965577633276828, 0.009125142023630545, -0.08139618067533222, -0.017461769204107323, 0.06640986932802787, 0.004839556145930835, -0.11259221588599304, 0.0803185523248307, 0.23992900084995028, -0.06808950680250771, -0.09347885755174978, -0.06644993213096097, -0.05986566893104873, -0.08048668598353607, -0.10693440835068338, 0.018735792094266266, 0.20741748641719454, -0.0435254381989773, -0.09241126474481108, -0.0880603859671071, 0.07296503354692972, 0.0485169537277241, 0.025967564402121113, -0.09644321160331283, 0.04925164907759895, 0.03299266289793816, -0.03709648832832271, -0.014955172483311291, 0.07195845157288945, 0.06415121374703486, -0.05895583546976429, 0.0010500076555719463, -0.021307284327512888, -0.08406584092353919, 0.1231238712881718, -0.09491619904734104, 0.09985804201701927, 0.005684507395881498, 0.03468817836764064, 0.0002774018587020662, -0.06827819561508829, -0.05791976494494701, 0.0816433899859537, 0.06437255509966135, -0.0418450847706406, 0.05700579899641375, 0.054984284952561815, -0.06142652334092196, 0.08547188237683545, 0.04303817366255234, 0.02208511421461605, -0.0672376720148312, -0.12967273132196475, -0.09649918817791392, -0.03778189741315065, -0.05395110038762752, 0.014779068476698473, -0.01639756245564187, -0.07007888840470011, 0.12669774212836135, 0.03041546018567406, 0.05594802781855807, -0.0035386990085971245, -0.015800468621537292, 0.07320888877922761, -0.004618077248038164, 0.03126706758853998, -0.11286372695679535, -0.05244057768322621, 0.0969411871814264, -0.004199071611927967, 0.045276250670181234, 0.04179389236118409, -0.06075428951732448, -0.017891330967323968, -0.014318166823595919, 0.14206821195452085, -0.11219608021262187, -0.02774298575017403, -0.03607111306728568, 0.07484547990879341, -0.0009550816064002425, -0.020642094065726608, 0.030274693468049695, -0.03478488708261434, -0.1452559601605014, 0.012727345023783561, 0.055178178803082845, 0.1446307069131724, 0.22886517424166455, -0.04319632164179696, -0.10946881702449435, 0.05417335823015967, -0.03910926262401274, 0.060499644707055225, 0.0016424573263674061, 0.053534719232331746, 0.1142925191680358, 0.13444676130867342, 0.035979788903510224, -0.16002111054813942, 0.10980836142555611, 0.06763798204365977, 0.13205828234633984, -0.03763786435094533, 0.06220193517177026, 0.08852148531747342, -0.045038060301695965, -0.00028927290190102183, -0.01914986719359357, 0.017866421212869896, -0.07261638316646198, -0.013388036534231826, 0.012196373532871223, -0.06005907675076189, -0.06163368446210264, -0.001930895241832742, -0.09057248318069439, 0.05346312462332857, 0.11413909875246483, -0.03964778682738526, -0.03136105270217372, 0.013045091321332417, 0.021496207444827057, 0.05276893931352681, -0.033516440839290326, 0.0962327604383346, 0.05692437468885157, 0.042195462382618266, 0.014265922379257273, -0.10174680806267503, -0.12442395465067926, -0.06086080183240368, 0.03791344809762422, -0.07189344208420272, -0.04430430894563554, -0.06654869808039647, 0.04342842661113517, -0.08574813121966027, 0.1298364517611358, 0.07777110167502778, -0.0035281143327763787, -0.020640225184482528, -0.045963271865924755, 0.08531565309825907, 0.00672469603730681, 0.036804055614287866, 0.07800642166769979, -0.015325456912970558, 0.008350141630148931, -0.06747695003334932, 0.10032223217992484, 0.07528525272224887, 0.05708092420374449, 0.09232996280864852, -0.08904999940841392, -0.147889659373678, 0.01933228711659725, -0.1297089978736087, -0.12948110993444992, -0.02012595726544928, -0.12170917211876221, 0.02924110370207983, 0.048797616949519125, 0.036252969921967, -0.03645944649972474, -0.1295614268555302, 0.0049082812556343796, 0.019534270694175515, 0.04309085457442379, 0.028690247372364898, -0.015751827795277038, 0.006434852024229894, 0.07710677194603656, 0.06093316707721221, -0.03288536533658242, 0.1346998123456849, 0.014822765220290034, 0.057406830279193966, -0.042871774470161224, 0.0593776245868972, 0.02152431326010814, 0.06106278746147679, -0.07146313465839388, -0.05204349351846658, 0.018949359973575254, -0.09533390281834493, 0.01070499937892869, 0.13681645756985522, 0.014182379310209502, -0.06766032449039386, -0.04651401131915539, -0.004270375082237906, -0.011662196114929895, 0.10503162497475305, 0.06780962903295693, 0.001015481597484105, 0.07717494103541257, -0.048717066023317296, -0.021828996105920546, 0.040361674675196905, -0.02563563245489685, 0.044111232127445166, 0.07816848437281977, 0.008141459976328393, -0.021869161336610692, -0.07847880769411963, 0.030647379594757836, 0.003281386626237982, -0.017990882137239615, 0.012549938727701743, -0.037159523635401655, -0.05632930556743703, 0.0411664294613813, 0.08216043112711359, 0.0869006540217433, 0.07251990117588496, 0.04423338177101745, -0.05184769025127973, 0.03435247604056377, 0.10522715726729706, 0.03884250306473711, -0.015844482127094318, -0.07687232739507864, 0.0393220851834999, -0.024986692028610768], [-0.0600585553699882, 0.020060382039905032, 0.07834136981213524, -0.04605078275435587, 0.05625504089553269, -0.0494249704394223, -0.04933876532953867, -0.05077498371170531, -0.05907595775489165, 0.04585914059217905, -0.04549408985019032, -0.03217534962406872, -0.007329530555712031, 0.05345295378286161, -0.025479493372647006, 0.048152839713713376, -0.035185756761625366, -0.06011725798420456, 0.03392524077400362, 0.008003081323209543, -0.07906067144217245, -0.057060332254270985, -0.031438578120643476, -0.0006484228399523487, 0.058017162230950096, 0.03500303241891593, 0.08498538974794788, -0.008796487238012726, 0.06904387683622577, 0.035207534289435585, 0.0025722453847516736, 0.11351380782338229, 0.09744081723719436, 0.11236321067095924, 0.13225093150729653, -0.10323466392417772, -0.04925103948445846, 0.06718253626423407, 0.049089186277328556, 0.06831663623561841, 0.04193748743641885, 0.02916448903439515, -0.1070254501926771, 0.05406888533447588, 0.04006959343256792, -0.0793070296965594, -0.012053907217076647, -0.05112216560200212, -0.018236558755575366, 0.043814436594561204, -0.1669608803976242, -0.04879928121384784, 0.0933825330438919, -0.03969172979537445, 0.04167749812004161, -0.04885704498154869, 0.09928717606477006, -0.038673629360375675, -0.03246545650137769, -0.005035958032311577, -0.07541157495645785, 0.04977496933047254, 0.041332895032321626, -0.12904888282067767, -0.05814256729923877, -0.07327414911420749, 0.07443225873824545, -0.01932235002013142, 0.0060894549836124825, -0.02921435287064107, 0.04439651341968392, 0.03190533499368891, 0.04460323074119469, 0.004014780162819037, -0.055977834282058034, -0.016225833301072256, -0.0621562157342977, 0.08097417407134413, 0.15650262909006807, 0.03933986265386877, 0.05301910934980159, -0.16048787870262457, 0.10285328464378038, -0.039790919633526434, 0.003721737440158757, 0.03067257044419598, -0.09456625329485321, -0.055504618667351686, -0.01440736951661415, 0.00041805690437992434, 0.062001163218428836, 0.05490359899354913, 0.11128247021631042, 0.05574421957156323, 0.029675308776007114, 0.003175444888051432, -0.0657101559177911, -0.14570804841388682, -0.013590294661912373, -0.09200867222994746, -0.07485679421818625, 0.01128982911825433, 0.09909266842265946, 0.16113464482417217, 0.09234054299614686, 0.04826320637849098, -0.11573964779196609, -0.03760126144067881, 0.048162932208534806, -0.0542802573677391, 0.08323272671304287, -0.09771048140395491, -0.09293992500075497, -0.07401483308422811, 0.020004979454761637, -0.11297996492976406, 0.04201429677856251, 0.14277803707114167, 0.06145684501982279, -0.09351495747137484, 0.09958175818007313, 0.00016596138443564557, 0.08927103375671015, -0.016557983743659768, 0.07692663507114599, 0.0281455766780651, -0.1114658038744222, 0.06430296593991396, -0.00876768575173053, -0.07520303689208073, 0.04340028876387804, 0.04574706942437438, 0.013106696132026079, 0.08051612474036074, 0.05061931868081551, 0.06519487453283251, -0.017384283551328917, -0.019021074291214725, -0.1454162632723506, -0.03335509665119302, 0.02671201712911728, -0.029635259747381796, -0.0913255311945571, -0.04167136659399382, 0.08775580352227728, 0.08194580771568646, 0.03574316434482808, -0.13537421584897227, 0.05393451167237879, -0.06280129111959176, -0.09817667793146373, 0.09654551860772768, 0.06914476180435959, 0.032501688051855604, 0.13729372320236607, 0.05346751760911123, 0.06674289528821994, -0.0504270914449021, 0.11202550257692738, -0.10795188229076579, -0.12897264360957214, -0.0019038571777309388, -0.06127346341689021, 0.06831432170190817, 0.10952005226290232, -0.01570352094173119, 0.186854834733458, 0.0654112151812422, 0.07320892637305722, -0.09256822759990606, 0.14629135881297597, 0.10214780467999966, -0.12871395245791525, -0.04092046609669242, 0.008594852300137042, 0.037829173002095304, 0.027685415047933364, 0.04183755168106136, -0.15473163602244494, 0.02690992515286452, -0.025580921597508112, 0.11687419838917806, 0.03422595356323746, -0.04966370748379665, 0.04998930116733537, 0.16276580791780307, -0.014310770348392636, -0.1412628006700671, -0.10203210932518961, 0.13718342572312753, 0.0855177943918146, 0.05528667070858595, 0.03212684624465516, -0.185923520358185, -0.07379578409721956, -0.02422536273844086, 0.0460160182710915, 0.0951250709194603, -0.07213525596612382, 0.024825362780877578, -0.07801499492559005, -0.04917617989199873, -0.03628938436205468, -0.13312357644406614, -0.1218549104960321, 0.0813227494510899, -0.0426911126424389, 0.101667808273757, 0.09665941632199253, -0.20005260282441792, -0.005770713895614379, 0.08558806894224032, -0.09259046181837205, 0.0359531646206872, 0.08260900155859416, -0.09170655305347515, -0.057403365020135204, 0.0394345001205705, 0.005458876407440896, 0.03383358773004097, 0.005819360903561414, -0.11872982758325884, -0.05975845896723152, -0.05456134129408507, 0.08846475608906078, 0.04763837924256685, -0.08526024425154724, 0.07782660483533897, 0.005469371825148915, 0.05324215240991835, -0.017133635199800764, 0.0038326314785548684, 0.21143149272250175, 0.07382144664896777, -0.04913102103886433, 0.11080810693427101, -0.04929760209985687, -0.024356542337896515, -0.04396171773370554, -0.13204041221253393, 0.18950708827691676, -0.053283203914479306, 0.0022810418811529, -0.062370705570457534, -0.019877997238385698, -0.0006479566855015328, -0.14987212540854894, -0.02862491156138549, -0.0032265001915498088, -0.06404338186941443, 0.10698531988271436, -0.0045921321442937806, 0.0943530477793568, -0.0437966565279452, 0.12431611285119563, -0.015481066057278264, 0.07522206240173228, 0.0880480840103479, 0.06760755364148226, -0.03989556563139959, -0.017407525350977247, 0.09977675050259469, -0.06132014003515871, -0.1295059976713575, -0.08985353769893072, -0.009569062586315923, -0.11286855467330242, 0.004390379239498733, -0.018230921240507264, -0.1850832713380031, -0.05257103519284175, -0.02100451322437288, 0.08796122264829913, 0.05910347899553478, 0.04344343630066509, 0.14169331158758025, -0.14000948525984466, 0.0019557658216665377, -0.03051404624923977, -0.10099393845483137, 0.029872309025935233, 0.07732148615005169, 0.10758876818081758, -0.03802012551066147, 0.04192229982815118, 0.08670483360283339, 0.0016528803980557151, -0.1100913539385195, 0.005188921535662096, 0.05635115336788652, -0.02607591631287539, -0.15352797175996866, 0.041894405170671764, 0.06898851931220185, 0.07947515201547904, 0.04544035720419424, -0.018563136434810716, -0.022405332573653704, 0.012346014612085442, 0.14056528200893686, -0.054126776925625765, 0.00376832365869877, 0.12433933831865655, -0.09805200564081694, 0.08440989404397768, 0.005152562938199921, -0.06864801754068858, -0.08707623777912409, 0.018936964839005723, 0.13694509212814832, 0.06441302129565249, -0.051606534984366716, -0.03358004438788441, -0.08573465009029413, 0.009772348663472335, 0.026140660442110265, -0.046574875934693005, -0.152589456306458, -0.02221994686332692, -0.18013709836841804, -0.04584959649877707, -0.09193482622745866, 0.016417167216039797, 0.00997004729286944, -0.1282131657522619, -0.13377018990217618, -0.06019220288845137, 0.006643285348950198, 0.09692187284678455, 0.09551687281277292, -0.08000178104785106, -0.04601644021460345, 0.005951660385255363], [0.08815317468654042, 0.03616138500909656, -0.09074866302738724, -0.03771417311930179, 0.042859124668243036, -0.026447170602277664, 0.0381909493153732, 0.03928742797545959, -0.022125377801130833, 0.0319235451812117, 0.06718344571705369, 0.004802453795525397, 0.1361046770747793, 0.0384252706304883, -0.0825960802309057, 0.015993639748541556, 0.03204763585374791, 0.011254746378270144, 0.028071054784818562, 0.059309625261399455, -0.11125314317301097, 0.06277778791877585, 0.05792750668768978, 0.002256799580987554, -0.11479279905053213, -0.07963331777961762, 0.06162846915653952, 0.10029011983258944, 0.04345211406920829, 0.06349349203444175, -0.023298633409620413, 0.05176873715628526, -0.10125796516679188, 0.01889467602864128, 0.1343724125936321, -0.1404250041010885, 0.13246907194690163, 0.04971567832216469, 0.03809016203248158, -0.16824678435868534, 0.009750436031254578, -0.10146461832976067, 0.023981456480859795, 0.07422208813924083, 0.05754842093191907, -0.03258643150768868, 0.05769432354889617, 0.05323506726676092, 0.039873884190278645, 0.026653159967537556, -0.0783833768031449, 0.15530352829986438, -0.05407126286909875, -0.00962312623334717, -0.03282038769605109, 0.0247858263572983, 0.10354236927330152, 0.009811342730321953, 0.035730886508584477, -0.09793102779682611, 0.021904803695144612, -0.0932589856149481, 0.02266785446981909, -0.13125912536798773, 0.1063232523980905, -0.014485947823304837, 0.04250154364811947, -0.072663275146249, -0.012785448663218112, -0.04425159815452515, 0.0926278421849048, -0.06266887039499616, -0.08853118503057626, 0.05275855130884171, -0.06364270476989653, -0.06584222020487387, -0.041203387494194145, 0.0025818455872282384, 0.02131336104145311, -0.149882150499413, 0.03287798582597698, 0.021899273552652383, 0.004694864471683079, -0.018039886338712414, -0.024494107749596306, 0.0045091017735516435, -0.0180082260915071, -0.04403668731796515, 0.03258497404882998, 0.11113903261524517, -0.021315076224859397, -0.06151890281707951, -0.03459958295760615, 0.028090540376910205, 0.022431266509027794, 0.016024264146296287, 0.08725312354998194, -0.007631876379511504, 0.10218038109296755, -0.09490979241733453, -0.008064995683378299, 0.020719551340672562, 0.08753382228823081, -0.11195014200242562, 0.07717799558861307, 0.10022846960188647, 0.003938683608379633, 0.010668693029072022, -0.067729378185011, 0.012529339475451295, -0.018951073660333228, 0.0018848746646466473, 0.02868204251998282, -0.05321216044580354, -0.07948772746386246, -0.019098131720064027, 0.055925521065385474, -0.016109308230992964, 0.0718532477016383, 0.07339493625260125, -0.11444094697013293, -0.10143663185982947, -0.13549075154028517, -0.08245919503856451, -0.07408369844047638, 0.08507631780992045, 0.003240057297169916, -0.04718991547508795, 0.0971484013217714, 0.037364819215693304, 0.01973985378282162, 0.04995665601428648, 0.06310769099863625, 0.06327127518507036, 0.004760870641325382, 0.1035476539278724, -0.12468586952094235, -0.18010944265908313, 0.013634948649897881, 0.023978198768053103, 0.05190798182779291, -0.06001883662670148, 0.005632486530350927, 0.09447550186654043, 0.02496638969259963, -0.08094031216472658, 0.041655743535164484, 0.2795769785433451, -0.12238743750745924, -0.0426270628358066, -0.12757539137079602, 0.0237342641684139, -0.028267700676296206, -0.11835397129712978, -0.009156443271390006, 0.002080272601478117, 0.019626326988234404, 0.01632958865387434, -0.06748660126063555, -0.06754603657051593, 0.07847255762078283, -0.06103165297751113, -0.04564574982527051, -0.07949917881765192, 0.1163373806065822, 0.07340723041528853, -0.005294235445024065, -0.028872819120300208, 0.11237267344024648, 0.0015880981437341977, -0.07578637180899285, 0.00939659833271764, -0.10277590523423959, -0.10204685227437905, -0.046011538895748834, -0.014436483960827369, 0.02195374815558622, -0.006921997997868297, -0.08973490335066268, 0.019117525205383623, -0.04429997517742747, 0.06766440557307761, 0.10784411438080621, -0.026577203387812172, 0.09995267167127159, -0.020948941978589354, -0.1523393780778907, -0.026342396156242606, 0.06209519453057784, 0.18767028084449655, 0.10261606165140667, 0.14958755686726508, -0.036130191715399614, -0.08745155234304325, -0.09945157220772538, 0.002577090180580741, -0.07154782943902982, 0.022805678670827677, -0.012495617485708222, -0.06056412770983496, 0.007130554916697253, -0.05684063477307694, -0.08752281363004565, 0.12451296456629352, 0.09085264574522964, 0.09651313442472324, -0.12016518482476873, -0.08286689051022982, -0.09601185728419478, 0.06594847014887792, -0.021409733487448464, -0.1809905838518854, 0.047485064862896456, -0.017129740079844694, -0.09990039163867703, 0.044013526208263785, -0.0716884380346718, -0.02603867433417445, -0.13106879159788096, -0.09323264507070804, -0.11216773290034758, -0.06805541993349819, -0.06951501249258955, 0.02084319649516605, -0.01623329393314905, -0.06622506139085914, -0.008041871172256772, -0.18761008714736538, 0.1267428910208113, 0.059613305582026724, 0.0469264867367557, -0.05925093742416569, -0.036580080036289354, -0.09170185247300107, -0.07587287066853156, 0.041798358087237815, -0.025299871611079647, -0.026586087634034666, -0.07882189818339988, -0.18346400629305812, 0.15754991225615497, 0.04037545815987237, -0.03941781763380564, 0.016137026961999614, -0.062164079213239534, 0.06142573141686325, -0.13725775383150557, -0.27545869688269453, 0.052572611598936746, 0.03156841811244063, -0.09203486543123172, -0.02538090600040715, 0.02531993439444092, -0.05135058393941337, 0.1046511455322007, 0.13272915656749315, -0.06327624588634123, 0.04886783618894551, 0.04911061415960902, -0.10477007455653906, 0.05356208608741611, -0.05678801269588234, 0.150050714684058, 0.02904487734490042, -0.028983926772596577, -0.05488735418781207, -0.1376243443142335, 0.042401268590050466, -0.02131507299521671, -0.09055580155488703, 0.06364499955048437, 0.015893009446654095, -0.08852024498309782, 0.004107029697441636, -0.039444824311752114, 0.04796914721652844, 0.0968235164213324, 0.04100483403670268, 0.033469689152000257, -0.014753383861101397, 0.035695634610802315, 0.14335923066069056, 0.03310183195930003, -0.06119232537431495, 0.03973133898298383, -0.085121969879372, -0.11958276401130397, 0.13944238083769142, 0.016539791361145053, -0.06704358276144574, 0.049890021353244204, 0.008511504902258969, -0.04000094637290239, -0.02304743484707369, 0.04475251331254302, 0.05819526799727902, 0.06277453132438608, 0.12105820256996187, 0.022997737896860958, -0.11185381067209328, 0.048808886027718136, -0.09510807928082265, 0.09739645062689126, -0.0005355903020184191, -0.06891608351988954, 0.20674184653476407, 0.16143751176827742, 0.10844337457852038, -0.1119497918332641, -0.07441869750184317, 0.018708653029831216, 0.04366382248157489, 0.08064236761112556, -0.017204627703213536, 0.03532909041747263, 0.011693452498665973, -0.10507234141276749, 0.08179271184335178, -0.1787526734947199, 0.11630566046205269, -0.036026927627780925, 0.04682436337306123, -0.05081866389294329, 0.14740258837011488, 0.04515083641789659, 0.03592836710034433, 0.13459595387332948, -0.10455076969255067, 0.10943561604866386, 0.013435245508893781, -0.020418092937141093, 0.0352182929709498, 0.10238251179541023], [-0.04474582252665715, -0.018669644528604902, 0.039814162212582715, 0.07263379760558852, 0.016972071908123436, 0.019933490804321864, 0.04744941335319189, -0.14686938206102587, 0.003303580592586782, -0.01563392983819432, -0.08312477664632939, 0.014968560664697074, 0.018301063941944862, 0.047798866192158486, -0.10592809848405677, 0.09768131840538187, -0.020419910221978282, -0.058340784476458955, -0.08946965541468496, 0.000573439801713813, -0.02098833146083903, 0.04856920460927923, 0.010506867545963626, -0.09259355914912597, 0.05617786584202661, -0.07326035387423581, 0.0717084031620878, 0.1341724550211164, -0.0008942609567112015, 0.06907682329026549, 0.04705049351054154, -0.06631530430587988, -0.04516997125489774, -0.016388292448554814, -0.10788974429474271, -0.0753273286169893, 0.08786414306107916, -0.03354063183776987, 0.05305594407705527, -0.04549359362202808, 0.033815934759247906, 0.07835402476764235, 0.034166016040363525, 0.07472891303431155, 0.03790674347381398, 0.04846412733340213, -0.12904791885188455, -0.015964714747870694, -0.05035044018534614, -0.08148907470051153, -0.0653962744402732, -0.024010731011444738, 0.11522666628299122, 0.07483668986894981, -0.031560918752086616, -0.049279375487236494, -0.031181351184917706, -0.004706739861095619, 0.03564536360340967, -0.020824823158025044, -0.15661198198975854, -0.05675655271185649, 0.11842849549242415, 0.09159475587152141, -0.02940373477211477, -0.0208116000579236, 0.032516645905992014, 0.08318604381454148, -0.08227872812158686, -0.011923175987333699, 0.11331647442789423, 0.12711919382906528, -0.043096759783865034, -0.1302017938477592, -0.053193119132150156, -0.027269827097859745, 0.10324105695198661, -0.026326535555557168, 0.09356314849712197, -0.026390277340805353, 0.002303785010047598, -0.06906771563792488, 0.02416404633551217, 0.09895937805720625, -0.025329018811055988, 0.026644947598044994, 0.14203185435980484, 0.049401971975600784, -0.1323066606626892, 0.06134138089572693, -0.05236905048618319, -0.1343590198724842, -0.045178080661510474, -0.04148666603511594, -0.16737997350667447, 0.12485490479060855, -0.04378699451325554, 0.025391270217892538, 0.12501322890009403, 0.2133844999289026, 0.0487598161813569, 0.16099553868477676, 0.03590238500252376, 0.03231962709028997, -0.023014660732781272, -0.10832866837386691, -0.025534573123042952, 0.0088699310220593, 0.0931596907083176, -0.03433254249726286, -0.0012959584041628283, 0.03960721808446334, -0.03368009227303313, -0.001499425001647336, -0.08420930000811115, 0.16292428852387394, -0.08447203397089822, -0.07588818268249552, 0.02429254988940448, 0.03100828040998589, 0.1952350855671208, 0.09087590781141672, -0.02925018074646863, 0.001614820723027936, -0.021938316391279505, 0.03100451070180028, -0.05197890887918444, 0.182606402673823, -0.03998261340389861, 0.0178081171770773, -0.09352517410402068, -0.0711363378221633, -0.07461366801425562, -0.08787152571469849, -0.03863124655179535, 0.013730063530062146, 0.04538859827958117, -0.12097295077910408, 0.04269167421773407, 0.0033062363195827536, 0.06633647851276551, -0.01729465951610301, 0.07367193300246076, -0.04133962329766105, -0.07911774915293118, -0.07957066256059193, -0.142649736844728, 0.19171830524485595, -0.05898849186952304, 0.04320805133289391, -0.18528560582266312, 0.0559456590145633, -0.07711097301405397, 0.05556491568297815, -0.0207320174721523, 0.08077485726932736, 0.09076762102611087, -0.09165123084925732, -0.1269383212494661, 0.06950049029046279, 0.0628112688452454, -0.11158181407019382, 0.12447149233017972, -0.0959798150149474, 0.10897747944740806, -0.03952110259515118, -0.022836165709582617, 0.01484472224424708, 0.16971512030242822, -0.061892131404893753, 0.03233688547629414, 0.0637131367575236, 0.01693064310483684, 0.06605504113199155, -0.11806961332798475, -0.05374570157546565, 0.036092413942219466, -0.07139906801186731, 0.06686701866646212, 0.0010517095228910415, -0.04748167834327072, -0.033595438021423014, -0.04425876679775711, 0.040055079070150906, 0.02983497179497098, -0.08525138266489438, -0.0687709115571342, 0.04317321232093379, 0.01382555225074177, -0.054603462943870695, 0.001121913292596023, 0.17337821050485017, -0.13388147142516782, 0.11881073704117802, 0.01933083465171883, -0.06488436876199634, 0.019206830800497166, -0.03516873547018882, 0.01592024243003931, 0.007434822324313485, 0.08107922830857694, 0.014600762610107051, -0.10078010404987311, 0.09247530062857803, 0.03804990497779618, 0.08613174056911774, -0.11710238675587789, 0.12035637594420726, 0.004562609449834899, 0.16447396050408256, 0.06851162040666092, 0.02156966652296733, -0.08567105590784851, 0.01309243210681585, 0.15425591026479243, -0.07977513635837136, 0.015526770012117122, -0.037345046225527104, -0.022122951055070266, -0.10755159432692735, 0.03414773125660905, 0.10878068858577163, -0.10576306374386354, -0.05217514752489289, -0.045184218832092324, -0.1214788607798952, -0.15390396438725434, -0.03334157278878408, 0.007682884486130585, -0.10729731235844993, 0.09445390436252903, 0.0648116083779356, -0.10856006565321276, 0.08518346604250893, 0.05676781586922463, 0.033382473978009856, 0.009054030516308462, -0.07725242532769358, -0.048776228081301325, -0.082914458201807, 0.08013071818134812, -0.11207496078759217, 0.02533457010017892, -0.0009978203195509293, -0.04538437206004772, -0.026723025164592573, -0.015132346212393864, 0.0841762456863831, 0.1238436274740256, -0.0009821223462333382, -0.027190307716519556, -0.01936028013099365, -0.051065151489343125, 0.00041074772222547765, 0.07837280616818848, -0.09748254916254599, 0.12795897544773996, -0.09481495463202055, -0.012100856738129875, 0.04413702076222438, 0.021896084170997757, 0.006110490791938622, -0.04490874491037339, -0.12000808673350322, 0.0671734571147938, -0.043814835455780486, -0.02527698146507696, 0.040973390703868455, 0.0771093370977609, -0.005756040151751795, 0.03676804323895522, -0.0915329681245807, 0.051717834651093496, -0.03428278884459032, 0.010284426557485262, -0.09124844227678888, 0.0421192300377101, 0.023401588148954808, -0.0733685156735725, -0.022289574998776852, -0.012790074033569868, -0.02038124369885737, 0.09475760956939282, 0.034019559017650206, -0.007103847884070605, 0.055163400916199076, -0.03957199313386783, -0.06550846933025653, -0.03835221934826272, 0.07697246155324795, -0.09756217907030529, -0.09624841770941593, 0.07028955344961155, 0.1115200925281198, 0.03441387125814995, -0.07407130760285753, -0.08741623832508724, -0.22283727492691502, -0.101985642821104, 0.05083702599009241, -0.016413630560359275, -0.001666741046666455, 0.0729124046473664, -0.09240801089746595, 0.058736358445184, -0.07287018208694825, 0.01408675532805066, 0.12047307719175274, 0.049912763433857796, -0.032838238895489646, -0.07127963364395896, 0.1273494107033009, 0.024940789159640514, -0.020939843142148123, 0.019822750272097997, -0.06634662638821454, 0.055863297920721984, 0.1557790620968278, 0.024766148023321968, 0.041819549562781146, 0.07967193605510349, -0.005078560273487484, -0.0030006786977975325, 0.002267297867118756, 0.09054500225098494, 0.10769821661411073, -0.1258613580452676, 0.010921233222762824, -0.04247734092416173, 0.029093873091152432, -0.0621629326696898, -0.10482407705301146, -0.05012819314386355], [-0.00654665267457515, 0.031092559899391223, 0.038116029690874714, 0.04130063179221009, -0.03380069304938584, 0.050889370994383336, 0.04222684702497961, -0.09662023777664573, 0.06844894336954277, -0.20771657905090032, -0.02992247754421544, 0.0212589445756043, 0.010821811511176227, 0.011783344819717026, 0.09351277144896479, 0.06192072165467184, 0.038295689439441144, -0.13196582283995087, -0.05260668412361205, -0.11793835833705513, -0.04098269912089898, 0.14336279979225922, -0.12065944526701275, 0.07330974874674291, 0.02193625577770498, -0.05472001343449475, 0.06765476469526192, 0.04570102089600613, -0.08583352943223936, 0.04860020580168825, 0.02855545122597975, -0.029860788210095614, 0.17426257821631758, -0.07918841419038901, -0.11794385427649749, -0.033700191147057926, -0.021070565325989474, 0.028628555834410766, 0.01903151686539639, -0.019022114389947584, 0.028184623850797126, 0.056160338852939404, -0.022591306621911177, -0.01252259687008565, 0.01596890412931388, -0.04812991529321698, 0.049428610847635265, -0.0370954857807994, -0.004763116786360769, -0.028634967417853822, 0.14131543316872835, 0.04554176787979918, -0.0639260440674619, -0.1554120666110126, -0.24047292404320084, 0.048318972153868614, 0.04586629138315034, 0.0012006786284485126, -0.042613441776109366, -0.016678491150742096, -0.043492196146861485, -0.026798158982751154, 0.021329221452958805, -0.07737348429531793, 0.04633418115794998, -0.03897189339177884, -0.004464275166991074, 0.06344675199928437, 0.12308131186193746, 0.06159890612378711, 0.09213620214668197, -0.07700306941626874, -0.07302740717265231, 0.1293524605785146, 0.05669998492114846, 0.07524897983104807, 0.03609228913006596, 0.04453203010339668, 0.12300567979860634, 0.026657945220208652, 0.10171881385844123, 0.019885909059965616, 0.04713984156510944, 0.0007120815422662982, 0.03680033183432122, 0.024828649749306746, -0.034753156894756436, 0.050084536006769056, -0.14342594634033795, -0.016531650432080974, -0.11357436402760895, 0.014999532711543381, 0.11024132403309585, 0.06614710077145922, -0.11166523842291742, 0.08613899793533224, 0.011383153271911427, 0.04419616458517502, -0.07607807453718161, -0.050839741074689596, -0.01816631232106185, -0.050616170370717174, 0.03042898775245887, -0.03410147985718524, 0.14035240329451912, -0.11966886799732265, 0.09358306872118477, 0.15823072986618367, 0.004475870795264123, 0.026174286069121203, -0.02826985817071416, -0.019737361923977265, -0.047182133450397366, 0.041093726060187775, -0.03740078322555761, -0.0021404733845251218, -0.004756759085965634, 0.029473827208913467, -0.010030705608284035, -0.17830585275381164, -0.00881147340167423, -0.15669500359867497, 0.08910726102066209, 0.1718568713393117, -0.0895781116269024, 0.008932876391473535, 0.03455781271805195, -0.01334985446835552, -0.024442762447656436, -0.031072941344607665, 0.0537148647109971, -0.028922743831336705, -0.054074826634958426, 0.04458769869204846, -0.07213849225544611, -0.0066890301174248054, 0.07684508227500693, -0.061919530176950684, -0.04825601186503162, 0.027886225354318984, 0.040312242810058414, -0.06629370441173926, -0.15570641960028345, 0.14432206153511132, 0.10495560661295472, -0.07074209765153222, 0.08054722109546253, -0.03377941487081864, -0.022040153871460088, 0.013446100202393677, -0.009227713179356676, -0.10927922862011649, 0.04723909840595048, -0.03327618134373955, -0.003158474909323829, -0.13980156189104445, -0.013370820142819847, 0.11573032437302698, -0.03280817517423185, 0.03564860501073057, 0.02469372140656356, -0.14800684259840124, -0.02918359625363189, 0.031493025900554195, 0.07060905772627123, -0.130040890994149, 0.14889856565237833, 0.01641231551085939, -0.11349534928860057, 0.038612752004001064, 0.12712073906600105, -0.04429270444245737, 0.15788748288805138, 0.09056434410074983, -0.09168665154462918, -0.14507116995579802, 0.059241816742157116, 0.04663147084463306, 0.011013783065585247, 0.04449796114993842, -0.11645210882449039, 0.13509682762918465, 0.0441369721484898, -0.03457487939268379, -0.03039563663001398, -0.05382871113042062, -0.05913772599623338, -0.07450683801136979, -0.0631989215849565, 0.13505101312491533, 0.04325391425783461, 0.04610818884041444, 0.0011465187140517535, -0.05507531833783069, -0.011890901999003715, -0.07585248849136435, 0.10240450900244351, 0.10273116332347153, 0.014691367149997176, -0.014836314734960552, 0.10530115676217641, -0.030182950496970375, 0.011568730811891921, 0.08836758652892215, 0.052669306497682915, -0.12614737062597298, -0.06910169752611231, -0.049189453615447576, 0.058451131690750655, 0.0416521486229434, -0.07745137375732215, -0.13707052667355255, 0.13122098633764978, -0.15698341381515626, 0.05860799146721918, -0.033595548094432444, -0.009168190409316204, -0.06958779029976257, -0.03923168954367116, 0.05609963984291387, 0.049146008626719376, -0.006643417710588615, -0.008493409952823815, -0.0800333203019655, -0.1616935732502619, 0.04232441048511672, -0.050157549743630694, 0.014120010784208253, 0.05150408269252676, 0.07107385593043605, -0.09634388731025124, -0.0021582447657888916, 0.09524874661879155, -0.10881227401708096, 0.10460305985700544, -0.11107422570120459, -0.06516408821266026, 0.09527932382064853, 0.03899951576168081, 0.02410032058584978, 0.0019117650646490523, 0.07607319331630077, -0.09304578686766961, -0.05637473185615117, -0.007051848761694027, 0.08125743920199853, 0.007553187005445555, -0.009215582535163988, 0.011971530056141282, 0.10933504900217977, 0.08454110440063049, -0.008767170072192723, -0.10320797478544728, 0.045500991635546106, -0.09650879138915168, -0.03786992100611173, 0.001118147409979719, -0.06580468858634239, -0.011181942871851404, 0.047885522811581885, 0.009087215117659168, 0.13136893090894228, 0.13286581771339773, 0.17982304403344276, -0.00828848652034967, 0.020157527266518736, -0.11738181363377351, -0.010092601218447772, -0.13276863101177885, 0.15308484685168336, -0.02321208832907688, 0.02072158426609987, 0.030449158482487998, -0.00782786642242034, 0.038052933640216585, -0.08999623947042529, -0.0801320630278671, -0.13807836227400921, 0.07062617133665065, 0.019669622503128297, -0.01659653736135657, 0.08966002173995404, -0.03472459287680042, 0.04149694701642735, 0.11888468390296246, 0.06007133573774822, 0.03768666415967096, 0.005909113435667005, 0.007265064582053397, -0.024030785880188567, -0.06335443435465905, 0.01572374702364496, 0.02358169901752563, 0.04573433743614573, -0.16430051269716858, -0.25834592710546284, -0.16600268311213523, -0.08607484088405494, -0.001992983892086874, -0.07925451909650119, 0.15424856375668108, 0.08081648321480639, 0.03087476622270487, -0.042447440530648396, -0.023199203702077925, -0.11273647962374589, -0.00768788090475028, 0.029650671306964988, 0.0334556749233569, -0.10335638367878958, 0.04788125106678481, -0.054432284713805255, -0.004596296934738555, 0.04881136630859969, -0.013588864359018234, -0.017270772218599004, -0.1116729274772806, -0.052997881014017825, -0.003139057357178763, -0.030025925562288475, -0.07884500483315489, -0.04158243149319798, -0.13268980439489317, 0.006108377815228596, -0.056564173206313566, -0.08862642010023235, -0.031640616597914555, -0.03400384687651225, -0.08826003033332873, -0.034627613466326826, 0.0999870866029228, 0.011986953528873629, -0.07610555275466059], [0.04705667719995769, -0.049165078079431886, 0.04452908513642469, -0.019483273804863494, 0.046967980048363875, 0.06269524016890489, 0.15384798485716975, 0.14028889338548114, 0.02261001728715339, -0.041626694436769245, -0.008693191946651739, -0.0484947731162985, -0.08108848935652638, -0.08020190465302313, 0.009176843793734195, -0.06034347736227606, -0.0223344441565077, -0.08975354028007669, -0.0015072786594489196, 0.009040850105873712, 0.13616264557341112, 0.19435381589685205, 0.08922089385488056, -0.04662277561255739, -0.05848625639730907, 0.04213682154260193, 0.045473806730325465, -0.0016091944261146236, -0.13850152365431653, -0.06218338535639603, -0.08265943385899625, -0.06962135210711248, 0.0017184201356058128, -0.011153103714945583, 0.04159838165030142, 0.05353862982330232, -0.0012108760391888985, 0.060919437667285706, -0.0729072481885929, -0.036495159514779545, 0.03166861068415422, -0.06129107849320524, 0.020505551143075812, -0.00633026312506266, 0.09467442445488992, 0.13784342780453085, 0.04051912366955771, -0.0022938603097471875, 0.023597751280585933, 0.011534501487680543, 0.027233188166047063, -0.12259486946937546, 0.015323055131940166, 0.05267396226452725, -0.050085006277008404, -0.039987981767093915, -0.08715074443836629, 0.13163504166415874, 0.12817432864058306, -0.06734139324607738, -0.02033420823312839, 0.10762890349250684, 0.09338170815741711, -0.01774957501891271, -0.0005134156517863911, 0.17894505161057797, -0.1919825799647339, 0.06391686688115199, 0.13399000483623258, 0.02669907594385516, -0.062232935474178845, -0.050506469083071985, -0.17146545598739898, -0.25145878845612424, 0.006683178499470789, 0.027574845143346682, -0.06673552440637298, 0.1566884292880884, -0.07056078724013645, 0.13828826693258028, -0.034539230688531555, -0.0377077356331626, -0.11001432900110278, 0.04587240401731163, 0.036414279019259914, 0.002860986982480479, -0.03187891206239642, -0.004635106959165842, 0.004599358095066288, -0.06907609632205403, -0.01688111232888422, 0.060979844788877746, -0.0007244897049079306, -0.12590000878568683, -0.1659819667016287, -0.0032922700549479393, 0.15849612972930446, 0.0838084494680142, -0.0729930861165873, 0.04055832906969362, 0.14523398469792312, -0.04690950396968505, -0.044172473619131285, 0.023940356254645145, 0.004859157879625492, 0.036058100698076315, 0.06607276234541261, 0.006109231859881017, -0.06565666382339878, 0.02894700897549033, -0.09032304821359417, -0.013679160832579924, 0.03809013395713715, 0.1375322686400938, 0.025410502691482924, -0.06555024709817407, -0.029725867294438362, 0.07803810880049741, -0.009130518322933906, -0.01681920180636927, -0.08407160566118638, -0.09193681451461827, 0.03880530332745175, -0.04273605837809177, -0.13404869116969276, -0.18317370897106305, -0.031201014255909904, -0.07329654764037268, -0.02533606204004354, 0.10216942725167692, 0.10235199174932673, 0.0838900589710013, 0.010908144338637349, 0.02154334091399502, 0.08056173803714031, 3.7769274193792736e-05, 0.0160044404890021, -0.046602625991577884, 0.1059438778630882, 0.007289474826676116, 0.03470466664137678, -0.13184975944900254, -0.02833447802221796, -0.07313752047406573, 0.07169535283013542, 0.008541276432883702, 0.0894935952264215, -0.2074582237422892, -0.01008031222023265, 0.016665005043845008, 0.032634518830631586, 0.03551174796775583, 0.03301332487361849, -0.002383594859599637, 0.00538859120854463, -0.10431151440504643, 0.06496703316639538, -0.00016373826210416313, -0.028747000433816602, -0.0627743961683819, 0.08579734924658437, -0.001366527326815076, 0.026015746148868906, -0.03650712801455839, -0.08048731273404615, -0.001385112212059334, 0.10372827139755378, -0.11368155585185254, 0.09406168743679554, 0.04096393209605091, 0.02556276168936536, -0.03130186062714302, 0.06774482209584394, 0.04053581927067964, -0.08254770865388542, 0.10298747001020474, -0.10345726898148168, -0.014273984555954803, 0.06379139725204162, 0.1409121406191153, -0.028650504969711322, 0.03355081412330622, 0.1515784881554846, -0.0049850582238545734, 0.006704526925711939, -0.07681009178086665, -0.05972355912314623, 0.00896816332768816, 0.0015649898605364137, 0.021477741866603686, -0.006123950158676412, -0.10174893819774838, 0.12526009293932477, -0.015649988555876976, -0.05633836441089809, 0.06210218499672076, -0.16662465258524076, -0.011294951912606363, -0.05390912509767798, 0.01313185003598852, 0.07846634670999952, 0.06094632616850281, -0.037177692556298554, 0.11861053449074355, -0.00968699430508569, -0.03914456897050646, 0.1154256678421775, 0.0529543350088088, 0.08102774705118594, -0.103846562198993, 0.0031888873198592897, -0.016135943905044667, -0.08204933935203827, 0.11065356541989475, -0.08189974810080021, -0.09881713503354944, -0.02288408760951135, 0.12361603688853356, -0.007510347652272918, 0.027565888383397238, 0.11295658399171973, 0.049041608542177595, 0.08371461152700603, 0.13924133117256732, 0.14081971211972694, 0.014480528595594643, -0.02952207568580494, -0.0808604486749329, 0.005003218119741493, 0.03693240597855794, -0.026968657112153287, -0.08669831132871329, 0.09915162397528202, -0.05484322182148675, 0.12575581919373968, -0.04635793573051253, 0.025768652271706605, 0.02015670692443862, -0.00835831384043573, -0.025311074172111002, 0.031399992296999656, 0.002274216609598048, -0.03861594760347463, 0.02499429970034557, -0.09408932197652417, 0.07654155701455817, 0.07509307840490938, -0.1371373791565817, -0.065544518598532, -0.043143164966803496, 0.01855011001423351, -0.019594020751161043, -0.07282033353207024, 0.055435732614543494, -0.005108710631031483, -0.1388307188156258, -0.01866661493166195, 0.03192393908982138, 0.07288067503529617, -0.1495826586452714, -0.14731450621194314, 0.07977525408383225, -0.06897060919188804, -0.05126691519355709, 0.021522760444409386, -0.10765921741014559, 0.03303884342766688, 0.09726222691980332, -0.07391968628691713, 0.0018522752986708769, -0.040303601219031725, 0.023152941629680422, 0.11300591260504078, 0.005612444073088615, 0.10030782988986257, 0.0010246205873510872, 0.01394801818793392, 0.049257072711003276, 0.061568109445249944, 0.07081455032062536, 0.07539521620661126, 0.0973347095922373, 0.006272656609732575, -0.03155356907329556, 0.07239379488153154, 0.024866855966198132, -0.03750155905389075, 0.0335838727137184, 0.06716080899804688, -0.056748347919708, -0.019531245865405975, 0.007356628752553339, -0.005411390102501443, 0.12159133755037545, -0.04013594601832362, -0.1856568953695536, 0.029754442055125653, -0.07383454527164858, -0.09676697903458936, 0.05451251157905679, 0.023416983482599147, 0.0020200729781793365, -0.07588434391773917, -0.06150577696358919, -0.053332148128881506, 0.09229542061634097, -0.05067946264191811, 0.005411403728872453, 0.06911211751016971, -0.04682615882730667, 0.022360790704445244, -0.006232457713905276, 0.11631475623411913, -0.0850664539544446, 0.015567061039660799, -0.01063558265378543, -0.002842112506287271, -0.004363955027207547, -0.031362598026082183, 0.033298938011914435, 0.010407991428856973, 0.11833218874486422, -0.06314030044960053, -0.057049078267064214, -0.000965671204416854, 0.07812605556259242, 0.026109196710981025, -0.09584156058519466, 0.1331439690007899, -0.017029503688193805, 0.10733448359011458, -0.06737561375522795, 0.033998937557302204], [-0.0285536206997578, -0.04899462095079075, -0.026753541500294686, 0.19375838735411455, 0.006789363078904015, 0.010439689452428822, -0.09502424768087175, -0.09286437402756498, 0.10805038568047583, 0.05545083544651083, -0.15681101964230415, 9.320788726276442e-05, 0.021317978944224727, 0.12183258071014769, -0.014995039073029836, 0.025383292164107462, -0.006499183798956813, -0.0953986819619917, -0.033395938048553245, -0.0995985244287631, -0.029771654378634976, 0.10027762394070931, 0.040708847345577406, -0.02553380622507007, 0.05262437344460651, 0.09070406440863356, -0.10296483716060573, 0.16980564637587175, 0.032614128334196184, 0.014662319495884405, -0.010365079617930492, 0.0014788404713496127, 0.08451430923802401, 0.10430332754328403, -0.11982499205858373, 0.05087978112525631, 0.08413006107708164, 0.014403628613740801, 0.009353097960318265, -0.004246415956428786, -0.04395121716506257, -0.04522366072073765, 0.020256054624173552, 0.03028918603043119, 0.04818038830126074, -0.03073962912504041, -0.12558182571284396, -0.1430705493696774, -0.09255813788880801, 0.04608835221537329, -0.032877301948936385, 0.025084971390308176, 0.10969746549308561, -0.03335024645977059, -0.10121644900451292, 0.009035058632480738, 0.037042578276830926, -0.0685960846847152, -0.10829065958107142, -0.04768134372506607, 0.08468767460838018, 0.023241561323843533, 0.007299260742543184, 0.014669065477973805, -0.015493741920961528, 0.003466071514775866, -0.018226870202386485, -0.02534573617052293, -0.09499589078537522, -0.13183430894564904, -0.058276568623967184, -0.02459491728153973, 0.024838912999555325, 0.029030378918221463, -0.045920110535394694, -0.06134720052332742, 0.05723363501888952, 0.004730998493239557, -0.1359361745964584, -0.04393409900854842, 0.010687767746967553, 0.015533888929558285, 0.033057299312096576, 0.1833073420713563, -0.08708378510298848, -0.025400879726163464, -0.018104778894054367, 0.01082152291158388, -0.027470260933840918, -0.05328459272757581, -0.008767265952615419, -0.0018368928241283453, -0.015986178001882175, -0.06279741975147417, -0.05624733878062831, 0.025540718271599688, 0.10748251974647667, -0.08336305690554065, -0.003669545845923172, -0.08282300920026778, 0.011873691380954255, 0.11707551321547711, -0.03890054139412622, 0.15693834508013962, -0.05987256573467821, -0.0313091225941257, -0.05658971783189639, -0.038654641191027975, 0.022324532149651168, 0.009818576138917482, -0.04171857287049153, 0.04265775636890407, -0.06478701388871708, 0.09865643075130694, 0.013029754932682526, -0.00025334014754072205, 0.0390939126063507, 0.06565369239683166, 0.1448592974240032, -0.05347720804151505, -0.047165236247910435, -0.04306847542506197, 0.12434562324376477, -0.08001286442885382, -0.08873613460006408, 0.006043133655810968, -0.13078675914969082, -0.06768982384749095, 0.05772318637588089, 0.04233242338588077, 0.014230288384687451, -0.06497235431121669, -0.09120402179581535, 0.030741949918093578, 0.1514241728212185, 0.09268186890936585, -0.07778611646645278, -0.0328365190448443, -0.16598319389593563, -0.03956933637955239, 0.03362438614869125, 0.13481206571515394, 0.15852026556591536, 0.01670855658084713, 0.05132466541836416, -0.1447359617602623, -0.0913636797619629, 0.026715530038271835, -0.02962381844379866, 0.2606613735364647, -0.01882659807312301, 0.014752098975810351, 0.024935573676766323, -0.06378188594421152, -0.0900167293399069, -0.025867836003482407, 0.09489144619106604, 0.19591179516963425, -0.04212919252153524, -0.14204245550445202, 0.1220964780546201, -0.030231009905948108, 0.042261301709012364, 0.1729635855433413, -0.06841085640482568, 0.033823159492657705, 0.18229777302963085, -0.022566231112031244, 0.13427621715674745, 0.039375976207756985, 0.055249288057645264, -0.08406764936662572, -0.023448527640825743, -0.02165984656151029, 0.0394772279548198, 0.21400191204062444, 0.0019329716274421682, -0.1500039252295006, -0.10810899354921137, 0.028959022492635562, 0.06791530944541745, -0.02978868424421157, 0.0759359497669706, 0.03807075034348224, -0.04695175710605651, -0.07737480029526314, 0.2163721509167526, -0.027895145292423762, -0.12609989819424622, 0.12296638365908533, 0.028783107088450416, -0.06581028241804289, -0.09049272929734088, -0.014779018752468837, 0.05945441908602598, -0.00781101906952718, -0.10394150643319264, -0.05431565662506165, -0.06131728206441925, 0.10265689434352297, -0.03980277963800867, -0.08867017489360307, 0.024140044334860482, 0.08976395908779644, -0.04334615904923484, 0.11401044647987213, -0.13001380183907035, 0.14792930377567584, 0.034562274640517525, -0.04512606369053505, -0.0009311177004403953, 0.10982489579191623, -0.05589074254667502, 0.03689996717143382, 0.0723420128428398, 0.012442655009091436, 0.09753732178426885, 0.06583238705099714, -0.056995000466406646, -0.12698701361634832, 0.16637404124650432, -0.0976457750215697, 0.06874981074833643, -0.1718294287999171, 0.0058063618909796, 0.028455399221540112, -0.14846863740465413, -0.07740707326946684, -0.08446007425730952, -0.05548887634191552, 0.003775253117453791, 0.07299985339766014, -0.034446188103346355, -0.07775100040945918, 0.015820664060747572, -0.021245629170438176, -0.010921091315282279, -0.004276476234109044, 0.0021058545884467825, 0.015734251069388774, 0.03222505138855212, 0.16099697726555998, -0.06511838622996714, 0.15748670730018915, -0.029020529277629395, -0.057861999680752056, 0.02359268393947001, 0.008741565685319743, -0.09482685751716437, 0.0054416775332636535, 0.031964665300847496, -0.06494597043435765, -0.049532976479932524, 0.03341114535805567, -0.026747240691689284, 0.034559346458920566, -0.048076670109473724, 0.013747282900825795, 0.05325529429055936, -0.008002327521557788, -0.005455275861930693, 0.07747833688147238, 0.07093125511502334, -0.04083237527471015, -0.06299904804556107, 0.019606230208589488, -0.07198839991076497, -0.1541114742179602, 0.0434297637657008, -0.0036351914300154714, 0.14800838688656542, 0.03150303501712456, 0.008921388858729323, -0.05984482779559613, 0.05830473970704175, -0.04557577255287762, 0.02408073852699269, 0.10085464145403708, 0.10315592325381097, -0.07586954576559118, -0.030615859594810953, -0.06958997057702189, -0.1607058260020037, -0.04113684420250075, -0.01726623313762217, -0.06098851648893153, -0.007920152946770608, 0.03302891610535066, -0.08238326372769095, 0.08084651375763192, -0.05922976638192479, 0.02053159932186313, -0.001585770083462095, -0.08594951853116385, -0.04266986889670225, -0.09825432811808449, -0.03700772165182, 0.020699560881155127, -0.00891598175016603, 0.04715207640296929, -0.08458707831161855, -0.06007888799958025, 0.007134610212496457, -0.037144270793265516, 0.06362467530904177, 0.010540699862351777, -0.1368323945781272, 0.06731871829094717, -0.007900583513141124, 0.019768802034972676, -0.043517595441065, -0.04945676343639581, -0.00574736066916557, -0.07487788018367204, 0.09771984576303065, -0.0834885907952061, 0.09802057009235725, 0.14001695308751644, -0.013939512557031939, -0.17505411325297865, -0.053521115404371496, 0.04788724963503495, 0.12704508786883226, 0.014004732399660722, -0.19988155738287305, -0.032622810867250246, -0.03417833701771424, 0.046105718080446056, -0.10577246907183374, -0.022308588805728398, -0.026241470780954936, -0.08528407903384905, -0.09005025054166722], [-0.03885787020716771, 0.07669475831506971, 0.030212233599097076, -0.02262494814442301, -0.08076770171609686, 0.11177751268437684, -0.04523220146060052, -0.013825507894385051, -0.09572612233594538, -0.035655151831976935, -0.004971276987202672, -0.07179090119403997, -0.08548987153483255, -0.13273489800349392, -0.10255093633988781, 0.16668104795243652, -0.022727901234558985, 0.06573014266237096, -0.03073849071217657, -0.0767001925739413, 0.03662489576402711, -0.06542132018213734, 0.12166679995722307, 0.08937329158868518, 0.01115918724627138, 0.007298152285589554, -0.15796486124860717, 0.018220816363341767, -0.053338160107062244, -0.02368413764437598, 0.03965652611429286, 0.009655988671476264, -0.013633673290126005, -0.07449972542285574, -0.12283885461328561, -0.02395842890375999, -0.04236847327523467, -0.027468167410889692, 0.0977707180671048, -0.031426711465556575, -0.00681557095009892, 0.12418937380445935, -0.07661983224659363, -0.04184401702793847, -0.01735752042937443, 0.048611269853887654, -0.0309313102408957, 0.05784199782218274, 0.11697672487482978, -0.10819481995805978, -0.03869140846588118, 0.02223473916434867, -0.02786621575217737, 0.0670703667302112, 0.030376974383208348, -0.08656608572517001, 0.07731573749497483, 0.05121913810290144, -0.07737362119120467, -0.07537127495755781, -0.039320282603739154, -0.021674054155420692, 0.15444175143147795, -0.12235462674001044, 0.0683198264847831, 0.04288776278212294, 0.10493573595944991, -0.02277869035757796, -0.025068677870228977, 0.1222776602160874, 0.02214969417393237, -0.032584330941290075, 0.04675668756963932, -0.09820380163533948, 0.04218739647438266, 0.016517416720063422, 0.04879967843723719, -0.03899374191383373, 0.03626022133441923, -0.04071094616645806, -0.020774733853965825, -0.032148890760179474, 0.05384053465371104, 0.09734401752536402, -0.1355172047745875, -0.03497779315931074, 0.07324043788050727, -0.016072395417635874, 0.07268732598650303, 0.09723976684998631, 0.051371487802715915, -0.07301185800690985, -0.11182830355139742, 0.09268780762309442, 0.020538442973393613, 0.0279281250255925, -0.1079287157457459, 0.0636060690765647, 0.009261416996227559, 0.1641275653393745, 0.003025159749772214, 0.031481984591349335, -0.04964995100030625, 0.16759302041784943, -0.19328987492467012, -0.0014558084808035164, 0.10128736223733394, -0.016712264755980772, 0.007633140517474395, -0.008312086673097014, 0.10583989666331248, 0.12709386203512812, -0.14055422796428732, -0.04614211786927354, -0.06642461400981617, -0.04922982963101964, -0.1525751578926346, 0.026608828483438252, -0.027732816834044344, 0.051600887515223605, -0.0864635839377885, -0.09257170828375232, -0.047235760518238475, 0.10865079220242238, -0.06802025080994092, -0.05257645922996435, 0.01630882702460097, 0.025749676704263882, 0.16012440342531511, 0.0064231563060311615, 0.05842322308675218, -0.013280461661059258, 0.009135235899966083, -0.09836745404494539, -0.03158072900603241, 0.06728105607757272, -0.09145520121003517, 0.06873774638968728, 0.0756642956719652, -0.026685782464365284, 0.08986550300571622, 0.05912763176969111, -0.00048329774071823175, 0.10723156174621869, 0.052492227990169435, -0.052695707725191304, 0.14649529116581703, -0.09351264147967799, 0.04709073900557889, -0.11605551851543426, -0.10951516998140168, -0.14260890383427674, 0.020252337258513917, 0.03775051187906655, 0.07485045757660143, 0.01266903775011016, 0.029908496030385767, 0.038932007116816485, -0.012866232667863834, -0.10464998271905696, 0.0353746797097575, 0.03397946232717965, 0.009213036317791327, -0.06848545336649195, -0.03396416186336717, 0.0062245167156059515, 0.1636083239956933, 0.0018236316775451186, -0.049390184339150454, -0.06325977821063376, -0.16848857681141147, 0.07480460798725697, -0.19682161159233572, 0.06758337200737506, -0.05207452685830546, -0.021110828647614873, 0.06529737785912296, 0.09906286553262116, 0.000426290040125296, 0.06735632149870381, -0.11803515261871823, 0.010117305895352285, -0.03619372777792511, 0.0036858502486625325, 0.13012553543532177, -0.048108508232088905, -0.05725512001243172, 0.12506700080052255, 0.0013686858451194218, -0.047662309916837724, 0.012222559193326812, 0.16384721386751847, 0.04706534830294216, 0.04434433168436763, 0.11798234997175087, -0.03012897614997365, -0.015044833045581048, -0.017410609021972487, -0.037110363200553, 0.003190899901731926, -0.018179208379103404, -0.05202306055566012, -0.045127464365562815, -0.011873585415083574, 0.017035105202957444, 0.050306445309100944, -0.0410219155887402, -0.11208705901820563, -0.06968828861027672, -0.11421694321486096, -0.06453473835553651, -0.002947607587798273, -0.011273742116743824, -0.12604202798265343, -0.0005841182060943743, 0.08843530225778713, -0.015398097888310987, 0.1266765850577948, 0.10998219818224148, 0.04652698004747486, 0.1332991527889622, 0.05535413924701874, -0.042588760970661284, -0.049627244396980505, -0.025328186788149663, 0.15458996548695988, 0.02883719058332101, -0.03791491080236737, 0.07130286438900474, -0.03812025385943699, -0.031822086279876906, -0.03197287830076118, -0.016518905351801148, 0.0928059938489421, 0.033397836319255914, 0.06425694694846029, 0.12211904087793572, 0.12980908225070859, 0.11868163150937167, -0.0588735080218249, 0.12398348903697881, 0.00290141817599793, 0.03963380393852665, 0.09376594788113357, 0.026550996557632812, -0.04096323819545231, -0.009260823901362429, -0.007612699992802012, 0.014325318797816662, -0.06566771084644554, 0.062290220747863494, 0.10937618609658804, -0.03760263555850103, -7.467470693506756e-05, 0.10903322456564178, -0.009915829813046373, 0.017546740286245106, 0.08994728895037749, 0.06796205915197202, -0.07605946326669301, -0.02589899032944206, 0.030677603614781564, 0.015224140344733956, 0.0743470069951504, -0.06591720648034324, 0.037296427283161064, 0.060200061048297344, -0.016078464707219402, 0.0887820321556139, 0.044380871525983134, -0.040015895613842, 0.022936452101435904, 0.14797516080543535, 0.02349032029517265, 0.009700950670671058, 0.1386469239348516, -0.0019414289505827486, 0.014067535928260905, -0.08324934031443226, -0.06822596166919873, -0.19396098510418366, 0.0791559350556886, 0.039338375382225316, -0.07867711422195629, 0.013593104071133304, 0.017043068589973866, 0.06074412872880332, 0.07099176810509267, 0.076646724473851, -0.04422334702452314, 0.028084930663249325, -0.048382256129044655, 0.0470672638377593, -0.07082388912912307, 0.12281375883842374, 0.19679356373141066, -0.005967336946183678, 0.15221910255348176, -0.10843455290549492, -0.06403183361466136, -0.045826678758624256, -0.09794071396993036, -0.07658505269075444, 0.03708406828233495, 0.04367696647824997, 0.03568197681886279, -0.1102558848545719, -0.14928667784386918, 0.13046110949578935, -0.06471812057986462, -0.051143369923965204, 0.0988953892640762, -0.10501453953053985, 0.16313359296502927, -0.10605853926043574, 0.01325604444538091, -0.04133078089109446, 0.18216125321260093, 0.09474144192489233, -0.053939183474978676, 0.09380012256248213, -0.07561731097834404, 0.05664630713347957, 0.177022775099781, 0.16506325191091467, -0.14060968515817932, 0.0023246046753076064, -0.04844175766865406, -0.038243805673587476, 0.04225838645325965, 0.060662088516526665, -0.040790475161790095, -0.0019921245674761907], [0.07559612194038844, 0.04244400618398767, 0.054961241987911066, 0.12213420943406567, 0.14749192567449088, 0.010034856836339274, -0.043807101463167256, 0.06391679645401181, 0.12576352771978172, -0.04354500401976822, -0.058861694481922425, 0.06670420489213082, -0.0822722015792613, 0.03598193681287721, -0.1267241401599698, -0.054625622642399126, -0.01748031063764195, -0.14024335811392594, -0.027676701781332462, 0.0022045840178369857, 0.024512456326849164, -0.06242924775058627, 0.049213865451841844, -0.043326482360547536, 0.04087292844247492, 0.007117125629358702, 0.033437993022296816, -0.0037045493736299305, -0.098011966782293, 0.036485236024381314, -0.052687593578702625, 0.0067185854003754195, -0.0512921237994363, -0.0034227994481095675, 0.09379338465798498, -0.02682495211445952, 0.025238951875860654, -0.026020717773478596, -0.04860608989920609, -0.024884646183931745, 0.03562107015809586, -0.08571864149112415, -0.042369838219200935, 0.0042621671058385765, 0.014146531647781783, -0.08080739132525164, 0.061683089759039245, -0.20545651774942725, 0.0008683644999405285, 0.052680218277180835, -0.0001339265518598943, -0.029591443456252933, -0.08717980164713897, -0.056933700732639696, -0.028517149917621967, -0.05616361093192418, 0.18720838960633945, -0.02266287748352695, 0.03527166280996043, 0.006611550154248287, -0.024585730856022902, -0.08465680043491368, -0.07685982024807025, -0.014935080271771073, -0.09351687930189885, 0.09753885094960951, -0.03168957687184483, -0.015850921695840018, 0.01788820987671053, 0.13128236056117504, -0.06204179859314688, -0.12810971407836277, 0.022660285165500473, -0.10716888526758492, 0.02943184695292452, 0.045621242960793354, -0.12166605305828314, -0.05410288550686774, -0.0034007761647036217, 0.12440326084808012, 0.03156317034570539, -0.038491153115626106, -0.05294948385951833, 0.008955026745500439, -0.027527452545146845, 0.09672569791501148, -0.13595936623761104, 0.13856049245040122, 0.017446523823670363, -0.09567228515931257, 0.07544886714733838, -0.143809657356738, -0.04778345963246965, -0.018832206148097105, 0.06451286251430575, 0.11105632820188964, -0.074577996400403, 0.09912425296200715, 0.10283217086735381, -0.017562370675880623, 0.011032273099130338, -0.023651340382997276, 0.06629274906992497, -0.16082782292813821, -0.05227928216406371, -0.15830910547340613, -0.004577011738833441, 0.0909179417312019, 0.13284114137141773, -0.1042002685515264, -0.07214346553801815, 0.036678035853328184, -0.12205448454901197, 0.07472578052255814, 0.04181641729717316, 0.009374432339098791, 0.03188977987528875, 0.11751913249802173, -0.01735863275472598, -0.03673266236695673, 0.19844426089040793, 0.016619102527440602, 0.022197872165389022, -0.014190422206593277, 0.024707790250785826, 0.06705618620216165, 0.0967722539752248, 0.03689510443047945, 0.04945936013309396, 0.003333374649808802, 0.035743767668350815, 0.08092337972889965, -0.001852374837722646, -0.04234531928338508, 0.11100474397596773, 0.0391906056895164, -0.01001183465857699, -0.03070820207377692, 0.024195320781629743, -0.04542169524997082, -0.056739472024144144, 0.11877940172053361, 0.020048245102881435, 0.027634515046899212, 0.03130162796061275, -0.02333470012767433, -0.07741965947700097, -0.06722688812906237, 0.10818828096340904, -0.08474058639163022, 0.03651444684809552, 0.04492902295460777, -0.05221285273446659, 0.02698670817203925, 0.09534411631213334, -0.02997434795202296, 0.007544105937309517, -0.0016613175736689112, -0.03912274968911885, 0.07146626512338897, 0.0929252695799191, 0.08428067786297648, 0.0978264643900313, -0.037020404616004206, 0.11629028158151156, 0.1009678880936174, -0.10674454617118714, -0.09886997890390432, 0.07917880151872797, -0.08472186591247627, 0.07853947135675834, -0.09967155058664603, 0.08257401181133253, 0.018394208554177335, 0.05173432308227332, -0.06703301154392134, -0.015590144996538179, -0.027723242739219, -0.12314395983878228, -0.0876632106953878, -0.03226820287203507, -0.11350614376420166, 0.0357611827570641, -0.02577936510770045, 0.20265108275702576, 0.1402067309090307, -0.09413175816539304, -0.04903368555502711, 0.04604712431212626, -0.1036955904278641, 0.05719010552491178, 0.13454992218004416, 0.007601653794721091, -0.01876923730752767, 0.07803550352360028, -0.04234028724430186, -0.14553091167784443, 0.007569777604665712, 0.024261438315082068, -0.11707642048027911, 0.061138301614206886, -0.05999100767110975, 0.11136229563686892, 0.0868517594952866, 0.10632326770613455, 0.0014565374613515912, 0.05026804389344064, 0.006450051210226643, -0.029484460918565783, 0.0034043735846833816, -0.1162268168100084, 0.029027450956863328, -0.10552602068245229, -0.06274358950599632, -0.026086783082667316, -0.01583013997101538, -0.07807929517941285, 0.05899661314689062, 0.11169445079802628, -0.09221166301473535, 0.0683119188361411, 0.0107429209083237, 0.11385559205643427, -0.006124756262243489, 0.09686075874133114, 0.02587716386750648, -0.09673896711254364, 0.02274784411050724, -0.034376292406521236, -0.0970626915257954, -0.024388064170218503, 0.0456705386510345, 0.19520337673676647, 0.03891955228418086, -0.042090206438235495, -0.024786940619872837, 0.04178454928587306, -0.06526013251881305, -0.050410355385704014, -0.018481966260594392, -0.09253924913208478, -0.06475536274172669, 0.016484698350446095, 0.12615254941896653, 0.03976698249742619, -0.045073881067553244, 0.15314129286003633, 0.11999960402316417, -0.03369486968626292, 0.007089405002729481, -0.03266869114247019, 0.0781607983091922, 0.001374445074595396, 0.15204183226542106, 0.09473838691540151, 0.00567626273781919, 0.036595200276695716, -0.08074735996900728, -0.08113847802804991, 0.1179378697346626, 0.024481668321708193, 0.01926561996172632, -0.012016920342069764, -0.05622929805774916, -0.06345308265895871, 0.0008231292209374169, -0.09931163288259641, 