{"policy_state_dict": {"net.0.weight": [[-0.08914162306110641, -0.035583424367852105, 0.06364000706830814, -0.060822369828899485, 0.06426834140144132, 0.034842113610128796, 0.0360093194490411, 0.03631643422470377, -0.09858796365000462, -0.010231874588724129, -0.16895843520116424, 0.02563959168578176, 0.04157138493756955, -0.1594324852599207, 0.10054652129274629, 0.07046826324925917, 0.05583060361062481, 0.008682624282664935, -0.029737833486049647, -0.07575270678305794, 0.006912266528550168, -0.013926290146866952, 0.037801474879127835, -0.08641835429102718, -0.018192303757337106, 0.04435599105166934, -0.09212663838412016, -0.09351369593532713, 0.02477672165639714, 0.05985980560267862, 0.03130736506933256, 0.008366335298560066, -0.09246089155639071, 0.1504557332548198, 0.02483608225917322, -0.0745967290438294, -0.04565729757896976, -0.054571120703032126, -0.07286411276653601, -0.15572629181770983, 0.010191600009332159, 0.07209567230713733, 0.07644603653210445, 0.07865336737164708, -0.0014491428610989064, 0.00891717804228214, -0.00673957081390104, -0.1184726343943558, 0.11017073637537637, 0.011529478039292157, -0.01244411995928382, -0.07670144536840073, -0.0055193159416071485, 0.20139418259538974, -0.093389739168206, -0.09936297643231944, -0.21482640613276496, 0.0001841209775461356, -0.0030228585681748056, -0.008757506198440347, 0.03635446195731458, -0.028440905755229156, 0.002155192523449228, 0.011817206128314486, 0.0068367758788798055, 0.08133398109030726, 0.10188980975657551, 0.056583691092395985, 0.028234764899529516, -0.01999700494705985, -0.03533511517129851, 0.053132384258746654, 0.08007050116335061, 0.1323656386979483, 0.09939075951238109, 0.01604083810099522, 0.09520686732710373, 0.009594381312682124, 0.006121379572977541, 0.05583492260272379, 0.06659370381490991, 0.028368304635038217, 0.03990270209273545, -0.09032842163344186, 0.049558990208248055, 0.049280649860663966, -0.0003662436930139156, 0.15979100701981963, 0.009096314935630683, -0.08414086859241644, 0.0893430670605088, 0.003133844821862193, 0.019733044140062852, -0.013510765579352157, 0.09135880033919126, 0.09996083164238412, -0.12052000336343477, -0.011027423223582564, -0.17530546546106496, 0.003576465447347982, -0.09652055884048145, 0.13926038069326072, -0.01793921088326296, -0.012732465436891936, -0.02650200630445615, -0.101027311286084, -0.07519052557769278, 0.03723012938089975, 0.019067808809110735, -0.03941819776521524, -0.17585364908500387, -0.10079377401470539, -0.04570699778751239, -0.07328788364155552, 0.09254550980465276, -0.02036501177359075, 0.05770953749526261, 0.03225023304376834, 0.11447767494041189, 0.04216289181545474, -0.0966015840354672, 0.09746625448462067, -0.0166022751155017, -0.0388095086669257, 0.08665766384149821, -0.08683777617549139, 0.024562642238660125, -0.0560718390175981, 0.021247504855756154, -0.050228197784183005, -0.05929692898051695, -0.09050545906031665, -0.11450884663551622, -0.06708505995253872, 0.06339573322975246, -0.02462350887678242, 0.09755573642235729, 0.04373628106322636, 0.21389082540083645, -0.018898722514971964, 0.035538028429298325, -0.0509224927371579, -0.06314241972518413, 0.09117915221463518, -0.0708550038051468, -0.09617782707865692, -0.09016893939946664, 0.1538127720010587, 0.03399706055824196, -0.2262119899621632, 0.09958651522208378, -0.04629468786203972, 0.1080826958127149, 0.00019700111326882082, 0.052114213526056344, 0.0030659549945468234, -0.010489510054772073, -0.036391670190363, -0.04550572639644807, 0.027061864152035226, -0.0504739409176967, -0.11778891076419014, 0.08876320907321891, -0.10397485336842098, -0.09077267498469863, -0.10351159391423019, 0.09400191927566393, -0.013437561405560924, -0.051730060174923084, -0.01501683802752448, -0.03106393440400615, -0.10729081245722817, 0.20462195309925207, 0.08165652119194988, -0.05642295985129318, -0.06344122999359662, 0.052907198358162384, -0.018846837009714363, 0.06192064585913412, 0.07379356325482682, -0.08160059215470668, 0.08048054970622981, -0.04134169707535331, 0.12049048438476265, 0.08110149358099757, 0.06168407127476254, -0.005445876654103588, -0.06639352644307915, -0.10241293504685421, -0.049593088028402885, -0.043800920451727066, 0.015392926664743662, -0.07576411903054037, 0.08495215089145279, 0.07106278151427314, 0.06673203550309773, 0.13657572354080857, -0.07536492153842894, -0.12450756783474284, -0.011019276640263377, -0.09655024359721603, -0.007137134178256934, -0.01066169090039744, -0.01759228335252574, -0.10722655791459197, -0.14431825097874765, -0.04999997338582492, 0.02623128114482827, 0.02166916858370373, -0.00815387765740666, -0.0315091056895617, -0.11586535122259244, 0.044523686998468155, -0.08803530967295475, -0.1115170409517172, 0.08836146008855617, -0.05823913524236679, 0.09385282575331837, -0.06168595107512915, 0.08208196418141843, 0.018352614096332587, 0.06961158807284128, 0.06472947558876752, 0.05116112872255844, 0.10504622995424122, 0.13974977140258574, -0.062215850887715925, -0.02407722921288205, -0.006030595229800859, 0.03224486069675388, -0.08221898187674223, -0.12758278748913082, -0.025112438774102325, -0.0647937824216802, -0.014112056953186587, 0.06289134337870968, 0.0925065278279749, 0.16708915297880286, 0.01776653505099699, 0.003406986908621706, 0.022645820636154366, -0.1142071374593827, -0.05078333747027926, 0.08648882373306122, 0.055422337924609655, 0.07324180255711138, 0.027785667022304263, -0.009273898191733295, 0.08000809434938179, -0.024805950188074972, 0.12833874817995788, 0.014738416601859096, 0.03926865227815783, 0.10890663201031651, 0.002628764846072429, -0.10439574320644168, -0.009540304936300656, -0.007641529073830639, 0.13461176400203936, 0.08740196574205811, -0.0287907698569707, 0.00931529849627238, 0.007960735692211895, -0.06397247006383304, 0.09063609555619362, 0.004025820283749107, -0.02590531002541967, -0.037075885162804634, -0.03680530311523039, -0.03853113873865944, -0.0857826997326992, -0.1488229933451901, 0.14906395154048632, -0.03241723222145818, 0.042517315117683994, 0.023743636623738417, 0.10407631662530026, 0.028181915933866184, 0.00045056490592884423, -0.1251450739775978, -0.04626316593565721, 0.05419661797284204, -0.02459650867689456, -0.07352124063850347, 0.10381679072433543, 0.02825268318021791, -0.031628060080043346, 0.10170321518453697, 0.08532773113157385, -0.04835848157591414, 0.0988567369863166, 0.06244764934549693, -0.04720951693254039, 0.05730519335508323, 0.0703926162697365, -0.015805782296641827, 0.020605714929992094, -0.05504887127126416, 0.013062813629662072, -0.08446577658514627, -0.06368923264624707, -0.027570996588945157, -0.22485346475364587, -0.018423984009572476, 0.004628055970226297, 0.07469314151352785, 0.0017692747866379628, -0.07185693214003919, -0.12731889885438424, 0.09911850300800536, -0.02293321735242554, -0.1488271083357436, 0.02936191975300245, -0.08621017494171473, -0.11099006473243074, -0.06525018063583382, -0.04837975037762155, 0.043686288284787635, -0.02644247533095692, -0.1749961062101021, -0.038320602707673984, 0.019158303486996774, -0.007538071279533375, 0.07643457671796167, -0.0471822814168671, 0.05925223980839768, -0.07200067447300357, -0.08761490233681678, 0.066654937459566, -0.05065224805875621, 0.07223870306570204, -0.1397930472961747, 0.1579494584010685], [0.00019252046269800817, 0.11261977774108543, -0.010755206105354347, 0.010683697260024227, 0.12575486087310622, -0.21422145605716286, 0.05329025943468, -0.16306934534097503, 0.0933115860739995, -0.08906583811818275, -0.19671625702610815, 0.08564824897383803, -0.07890367911164009, 0.11814330684677139, -0.06788001501531629, -0.018824237526244982, -0.020781316788482718, -0.056710066513043486, 0.05386320653603934, -0.0006857139175164377, 0.004272022659627846, 0.08227729906435918, 0.023539595624249145, -0.12007265849839073, 0.0789623039472831, -0.05080902187330794, -0.11151603860583054, -0.07604122266978654, -0.0834651740154148, -0.0079025932901671, -0.049854116616313525, -0.03524332815344787, 0.16402432828336122, 0.015925471281806283, 0.12246583062123108, 0.10989985505377312, -0.06215541815290552, -0.15260019721244653, 0.03290223683995571, -0.09515732724848901, -0.14248556756859668, -0.049097320253151604, -0.10888908238525466, 0.06253694421688859, -0.10225045703493572, 0.012097496508913981, -0.012307170786974927, -0.08220017475332946, -0.007527335097867495, 0.1419105756560049, 0.10399776327852349, 0.04232437547974887, -0.09161857131655683, 0.14516037233498458, -0.010705269214875272, -0.022778296613459377, -0.05154237486117401, 0.040795691085547404, -0.10629709903061892, 0.020572858071495337, 0.08585493699450994, -0.07484369564279104, -0.057445697400476385, 0.05452447772099395, -0.01866447570519692, 0.054609859988686144, -0.06338359666480117, 0.03328271116278818, -0.024999591572493967, -0.07635760332751403, 0.09956412233962823, -0.05846241962154677, 0.0648189405526879, 0.02706245554192552, -0.029321071520804383, 0.12920266720333556, -0.07522562580482256, 0.06459963664455183, -0.09715613529513945, 0.00877581109535984, 0.03698539997796036, -0.03234731810165728, -0.017834333182105207, 0.01709494103356456, -0.07735092366265006, -0.00815970019341356, 0.01717595824888206, 0.022589653746108756, 0.022960264713288433, 0.07359520011163566, 0.04522129587288347, 0.13490146019149793, 0.010520974312793262, -0.006934528110138675, 0.12668058312050712, -0.10003059474387167, -0.06534150391469021, -0.0627827008971262, -0.06379791376120028, 0.01657737391808839, -0.06134710850560233, -0.03093989849771877, -0.021901925381260394, 0.07199488289078385, -0.0037341114206912696, 0.09278559896240979, -0.11881643946754651, 0.031437096195264545, -0.07678293915897376, 0.06834989823672787, -0.08031444070363555, -0.0670087375374085, -0.018643360228623514, 0.05334644586217713, -0.043048653880378714, -0.04218968286403626, -0.012134528105512658, -0.1312881633833804, 0.01208555605400038, -0.008692124036166567, -0.019419154225471174, 0.05832733241194949, -0.0957092818976201, 0.05805795858089678, -0.06748073769808302, 0.0754151937820706, 0.14756153282540335, 0.12771283450485604, -0.0860856261100959, 0.047272778151676735, -0.036046226792928154, -0.07648838717657523, 0.12475227885375106, 0.10938081584796103, -0.004918546258781225, -0.06338328211938798, 0.12304955293296149, -0.0724272005514491, 0.05540350265268752, -0.042460687582373514, 0.0010151352290028522, 0.02201695051273108, 0.10747249577480356, -0.08311873167744924, -0.07736214577215385, -0.07445570308770973, -0.16251092400714479, -0.021637399026017603, 0.14941160768994158, 0.13062818929452924, -0.11194641304347051, 0.04887977918755809, 0.14631986756942492, 0.11131159285924822, -0.054040971163840185, 0.04943837198450305, -0.047133675353193384, -0.2509963518153668, -0.12389047223258574, -0.11257724652909001, 0.028232738719592112, 0.01907248959684451, -0.10341774150087371, 0.0033170923966451987, -0.0524489464968836, -0.01852474041491325, 0.03712470593046043, 0.13583191541784537, -0.07614773954968007, -0.01904024875899359, -0.07090271050373231, -0.04646872848763745, 0.024711334646863023, -0.09638192858689196, -0.08472093269308133, 0.014043621704485589, 0.15596610666180577, 0.0343913497797838, -0.14946147638459853, -0.038960903917954585, -0.09752880269733806, -0.03984647983874722, -0.01364447225192299, 0.023255938829010087, 0.06993395032299676, -0.03995516987705622, 0.07287298871370959, -0.11489977654507609, -0.04903508703122409, -0.07222917610276819, -0.016991236408087255, -0.015970432064003434, -0.1521178465708341, -0.017897531950172442, -0.09094418468802802, -0.08611201233463515, -0.010115679618038692, 0.19129651110640306, -0.018529350892658447, 0.054152522815380806, 0.04643165859410245, 0.0800325845427462, -0.18348887928249502, -0.13012713154156672, 0.19577265906623162, -0.08635724228286543, -0.03943698229007856, -0.05183742056746024, -0.0613829392054345, -0.1655325739059176, -0.13138573980041915, 0.03303847238805132, -0.08114759246828208, 0.1697399241025588, 0.04696968806294638, 0.10149207294995163, -0.12279516614484627, 0.03948260174016318, 0.10197019177839092, 0.09172982069989474, -0.04372699412532384, -0.07543130122939917, 0.029026922609250088, 0.010124658815733337, -0.007563668541741229, 0.0007262221695892827, -0.03923827337370404, -0.12584595270039853, 0.07010045535784729, -0.08803080542483414, 0.12317907441502766, -0.08887428299869646, -0.019615615107128545, -0.0668953954724858, 0.07203261486009668, -0.044021235383554215, 0.035778155226911655, -0.05908445778956166, -0.12466771901417137, -0.05422603799097449, -0.14689675315829126, -0.05808987764225085, 0.11402387667830452, -0.07133171312913354, -0.05743055707896702, -0.05424405729896433, -0.13329013223296612, 0.06454066005597792, 0.03933818179725895, -0.04490234824687144, 0.04992554996063314, 0.08935888563406899, 0.02487853934070996, -0.041038814671042395, -0.14264786336834748, -0.17468131219999664, 0.1510837242522771, 2.1015549418566464e-05, -0.0028939226868805673, -0.0029914690299582014, 0.10403391505260823, 0.014660906799682828, 0.0008172685812349755, 0.0019496379914455792, -0.03744770105230169, -0.050480274344804926, -0.07378133781282627, 0.052912543051914396, -0.10360662603597114, 0.0063949822758298065, 0.02372781271746557, 0.03646079956970074, -0.00037415564041245043, -0.13499102525343748, -0.020286504281679555, -0.08950598906677075, 0.022462797064358546, -0.015693414345560264, 0.11264192739172241, 0.14890881264821218, 0.11795871238432361, 0.08758375467198322, -0.07981458200777765, -0.2224413081960095, -0.028560415127271165, 0.09876953651910944, -0.026380146556525614, -0.02775415475903211, 0.060148028807695125, 0.055530212193229136, -0.016953769890600757, 0.011793047764534721, 0.2133938315104865, -0.06458649849630621, -0.13809266788071864, 0.015322720687067554, 0.04182529978129614, 0.01089041530121536, -0.03473800792561259, 0.08515254487737449, -0.04900823634999784, 0.024808091972894877, 0.09181362129799607, -0.09527316458828942, 0.060103792056180105, -0.060960443654126784, -0.02682748821473639, -0.011429877495497315, 0.08480750860629521, 0.07156159093521905, -0.025190660956908865, 0.039133797691370674, -0.13936310591688023, -0.03482224785963924, -0.004346165028557487, -0.03131241726220055, 0.025535700830129893, 0.034363387356863895, -0.07422089076918602, -0.027141708374209504, 0.005031629420560812, 0.017276138545059567, 0.12682507113260585, 0.0627405222429616, -0.08187064744401715, 0.00985961266811838, 0.11607704420566699, -0.06475232299024482, -0.01603710463064896, -0.10115048252331035, -0.02649062037730556, 0.047728853694726264, 0.11592592632152221], [-0.05601595632532109, 0.02810213185759045, -0.09820885483675265, 0.04968996612538807, -0.12915531699711835, -0.16353560265641795, -0.13700427810578222, -0.04434113406168025, 0.07074098561518154, -0.027366893751611915, 0.12294479664955303, 0.03276491023529198, -0.026591810322798833, -0.021091362765245866, -0.04279844974033363, -0.1812719951550746, 0.004251477562536508, -0.001303025633392191, 0.0738159154520315, 0.021167308044955327, 0.12059938624006747, -0.035159897297238354, -0.030102429046905414, -0.04224354469080767, -0.10180135374439499, -0.034290186253289216, -0.06009434541945501, 0.08541281370911813, -0.07010107336723712, 0.040289521985211595, -0.03015994795842954, -0.04548526787729216, 0.09799400726796502, 0.038232662612346154, 0.07257220921547795, -0.04247798044293812, 0.0217534956929416, 0.07636177481312528, -0.001235965456986476, 0.04822065068798043, 0.03350940507587796, -0.11899959479693749, -0.04974594866307987, -0.01349246980295744, 0.0908979331176665, 0.009705326249832202, -0.029174895394818337, -0.023401237992442033, -0.012538388526755125, 0.05507432418218904, -0.07325945072261222, -0.004062265452440172, -0.25202927266757214, -0.04017778052260055, -0.025601244136107527, -0.061514870757289175, 0.012828692338987865, 0.03075848948905206, 0.12654437893850418, -0.09153010000646929, -0.03518962457464451, -0.07818168334120322, -0.029357584988365274, -0.10247909909341321, -0.004555595231888299, 0.10270280506740309, -0.08422421304687329, -0.11635192240695064, 0.039561320326019424, -0.03175135064818658, -0.07196715065340145, 0.12472787478715203, -0.04599882676527621, -0.020449262492299933, -0.09560485160439891, -0.02838562494751747, 0.07908575858896763, -0.10531179521191854, 0.06289159784569197, 0.016075575542108363, 0.06584565016454536, 0.058154687519201116, 0.06928398556831432, -0.049758634466208415, 0.07282587113741176, 0.13046768633243166, 0.09011104062186258, 0.07574360551146042, 0.07858432418280362, 0.04152999058374007, 0.014785721823525366, -0.08002615774570088, -0.01084516195110504, 0.029594595226120356, -0.05209556714322286, -0.10679751687008174, 0.049933807565105064, -0.013246570811277383, -0.10062489455368934, 0.006390171677455295, -0.1213712196974725, 0.01984132477499001, 0.14232805255366285, 0.06699963925929824, 0.04657097671380325, -0.12210749511116058, -0.049287211629096446, -0.022399711595404964, -0.02373178084056778, -0.051710868861966575, 0.07221086582658948, -0.153039261492364, 0.20768034462503332, -0.004888337362001303, -0.00189868892971967, -0.07121602473366713, 0.0036355284038554216, 0.048088991855107774, 0.08206038281640628, -0.1250361344327578, 0.005618374780006271, -0.10608748197069959, -0.007667791758352289, 0.15074494467174646, -0.06668910578179407, 0.040856942242110096, 0.005855897820839237, -0.1288638523261225, 0.038862205747814633, -0.06801241398331423, 0.028571632846155864, -0.10103338928139442, 0.037996053403226544, 0.052140092172250636, 0.0053960442792993476, 0.06456567193027221, -0.08296681270767395, -0.17843830500162464, 0.12044742563896736, -0.018105808230533482, -0.19615331145997966, 0.008955751625508363, -0.04436092543747265, 0.008676168228688294, 0.09194765269731006, -0.021888048727192144, 0.1272313652621329, -0.10466160880554758, 0.16969544608176879, -0.007584131556470138, -0.11427388699993554, 0.08286680336568202, 0.01375097113603677, -0.04991869746902997, 0.002899869687576979, 0.07433029292507674, -0.1190956481032788, -0.014058408426492492, 0.017170859363705236, 0.06491395767398118, -0.008290066847134701, 0.07617298966474863, -0.06297029385264939, 0.03496654100434469, 0.005240651191395607, 0.06155952734543519, -0.03865580085838397, -0.02338642846299936, 0.033914900737851375, 0.24578264713980386, -0.020083833873475655, 0.09535850129901148, -0.01607576137683506, 0.08050392131911423, -0.01770462988042605, -0.042882243382152435, -0.08990933313937328, 0.08318968720287306, 0.0944480366885394, -0.09445853082404582, 0.0018641146352040793, -0.0658844554115012, 0.02007968167231338, 0.01635659004271901, -0.021775789372704815, 0.09118942948044462, -0.10533512124216123, 0.17001381925557124, 0.10620101376445001, -0.02649829198708743, 0.0027148007657602424, -0.08625905733357438, 0.07895221987640302, -0.05467807691582009, 0.011507726866244577, 0.0006595555361220458, -0.004335154958181816, -0.14113672716658737, -0.1517635910909128, -0.06422319844144209, -0.008371717979954167, -0.13397789524412895, -0.030973557123327642, 0.04085907919167394, -0.10867293259790921, 0.10829929675881621, -0.07297576446543613, -0.025329077754943096, -0.013312074622565674, -0.13010580735651517, 0.05875391002265705, -0.03023024902552994, 0.034973484440287694, 0.0016693208617302095, -0.10074117789245181, 0.04538685223818901, -0.087062978334737, 0.025621526445442862, 0.049262677579619975, 0.04529936453634148, -0.029031670056546777, 0.11403179946528227, 0.07077146288488406, -0.030416827979142153, 0.017030072720508563, 0.0383464903721696, 0.028362084463981044, -0.14176572779024574, -0.21405382498412964, -0.12080756563421549, -0.09947572631543866, 0.042336846751747634, 0.027318334989794024, 0.033526218319327096, 0.025239896916041, 0.07364103422956904, 0.07624375106990547, -0.10430356404988085, -0.028903791359447203, 0.021485459645727276, -0.08247341120481784, -0.04533017227617295, -0.06193025125994074, 0.04048334381334814, 0.03349625796339202, 0.07982015065756366, 0.04296517078970625, 0.10631251624757074, 0.01944214850774636, 0.023826309544544073, -0.02180603881648928, -0.013438765637591537, 0.012284039322090618, -0.015610248924966312, 0.07733198555260816, 0.030189840829075214, 0.016472987476485578, 0.0031509522273557126, 0.05138131034698932, -0.05208853271234816, -0.19412208476717313, -0.07059416375217421, 0.016978788724135285, 0.09828952012615055, 0.07806905879801858, 0.05577308901571479, 0.046970579813161606, -0.008246809933088723, 0.09782212926551487, -0.03408020776059377, 0.024326597264481453, -0.17971000353304822, -0.05814002834478322, 0.15194524458113912, -0.09585465994552475, -0.009122262983219958, -0.01895126816759059, -0.05174359952463567, -0.02666968958329265, -0.027920506519507244, -0.05874998150945893, -0.07893906842696986, 0.0010917632077352348, 0.017894306624012053, -0.09438092352098588, 0.11599232859675632, 0.06611656921110579, 0.008019560526842271, 0.031415769662065635, -0.022420306855955925, -0.11646278209094288, 0.0809205360701783, -0.0012795198168778425, -0.018170149733413476, 0.13012323610873097, -0.003001179671941305, -0.035333371689726556, 0.08677437700821809, -0.16469632208147442, -0.04348499583754325, -0.02956713288762636, -0.07886297848326349, -0.005938921429706409, -0.1686875135880081, -0.11798783137862334, -0.03720888019085983, 0.0019280327348976112, 0.03474990364905785, 0.07424575540096459, 0.021307751995552925, 0.053936142085807715, -0.03319187572848806, -0.026159946259389402, -0.004766770698476137, -0.17432381274257464, 0.03450556942808914, -0.07788228660011345, -0.0670135981672432, -0.0426754283299863, 0.009667855242647485, -0.11492499101392602, 0.10664330639663613, 0.08575049911776367, -0.08780483012625148, 0.018784539967489997, -0.10281424168351512, 0.04752306215881342, -0.04506408557540872, -0.014943685150395184, -0.125231179158123, 0.017668603219764663, 0.04270103804631679, -0.014639366054254815], [0.06460595702841464, 0.05933526885510345, -0.11187763188382743, 0.058891609499866514, 0.023348611723107517, -0.011031933129553584, 0.024789399310637953, 0.015142613858907607, 0.1297949916348039, -0.05482469568408777, 0.02360864776643815, 0.04816355283399108, 0.015255236378605926, 0.02023763756774206, -0.0009825576228038838, -0.08255995924372665, -0.047384537008323624, 0.15004372000151625, 0.010890637955898938, -0.12249182728970896, -0.07424180691589999, -0.0013237632121260634, -0.09179178880941674, 0.00291452303796404, -0.012960418612947564, 0.04312835312013201, -0.15079483244085637, 0.06281721837034314, -0.08461866464444692, -0.05127205741042133, 0.053375714760723704, -0.12343106494916692, 0.13824789736060986, -0.06821976983292231, -0.10680582860872986, -0.04281309376550233, 0.03422253746351962, -0.06775102018323922, -0.07573246024805277, 0.07420535938944119, 0.1138815565638136, 0.05937405387220886, -0.06698692383231522, 0.12031141592982202, 0.05431096221177138, -0.011517823083727176, 0.032867184298353676, -0.02366646862157142, 0.011060389507933237, -0.05274656871273732, 0.04065927410458924, -0.062067027783387685, -0.08983863774956088, -0.07449939389973315, 0.10538915450564948, -0.14944244181306165, -0.11605068620622526, 0.036081609260975894, -0.09930818043447384, -0.09861848272350458, 0.09653997142062337, 0.02471047690261474, 0.11771312209121271, 0.0422060433689017, 0.026766245950815126, 0.052183075373298894, 0.005989278195911206, 0.06405545619235904, 0.05268146452989962, 0.053691474759477616, 0.03491631888331583, 0.08480972165831974, -0.1348677453715863, -0.07741026182231163, -0.014251692145340396, -0.007505850974255149, -0.14779331246054728, -0.11505449243911012, 0.11219627653877778, 0.1520104772264358, -0.0024264761586303986, 0.03450180652821701, -0.1280863382107265, -0.029022963128703342, 0.06669879360362525, -0.03938890203181792, -0.1415141177849499, 0.04719559757462214, 0.07724038238953357, 0.11790896048130384, -0.06227460743818144, -0.011571308716425905, -0.16345337883335706, 0.13063290298777847, 0.11486730795472193, -0.013391727474499997, -0.05721023204895695, -0.05354314260414331, 0.04992012395287255, -0.0007515177248992288, 0.051421401809661746, 0.04270628495368718, -0.1660943166650783, 0.1023217645675512, 0.0602887781832021, 0.05668856847921187, 0.12646026092122595, 0.05154724654628777, -0.040007690780852014, -0.002606993142837595, 0.019284042441740704, -0.050215506317251295, 0.06747650578901718, -0.020758048691856365, 0.009122647202999252, 0.011067512729918415, 0.05628846636099407, 0.10387065759350485, -0.06511443633149039, -0.09194202670501994, -0.05583785549415757, 0.08296922802386475, 0.09908077904471384, 0.17007119019003072, 0.08255056244097404, 0.00737826371896055, 0.009754997075013448, -0.0013815314800585, -0.047131001407857746, 0.03483251056130282, 0.08034747294399823, -0.04488943975138821, -0.12011986380762442, 0.12506211747969637, 0.01470409645254906, 0.10072116056043476, 0.0028299778043510125, 0.09357479907832793, 0.06673023396431203, -0.003560364920540222, -0.049083860930861596, 0.08053085396479741, -0.20879081046076442, -0.018761581725606494, -0.10613232733775947, -0.2851005682172211, -0.053105763411586834, 0.07254346900348231, 0.1040179758738092, -0.10627675427818267, 0.004887687001943156, -0.05989538978577601, 0.11202129870479123, 0.05365927436267933, -0.10159883070930688, 0.16739637323251463, 0.026233109026226734, -0.10575037358705458, -0.028147944305531195, -0.01924970133527607, 0.11130592967249264, -0.09617043615553696, 0.06972150829626889, -0.02155514231362774, 0.0028055777341743624, -0.014331346461558432, -0.03373485139771536, -0.05791829083405128, 0.043360698914767334, -0.008195275922043877, -0.1596494870472016, 0.0651618923812826, 0.027965248457453525, 0.045241973002306084, 0.11826813523536701, -0.10083331274460064, -0.06741385738494354, -0.012212600809470781, -0.05353757853290496, 0.019700099936220752, -0.19298032970881707, 0.13358042989572722, 0.15495844212123736, -0.04149905868036073, 0.04763243495387115, 0.06076259437976448, 0.012773864228037805, -0.04549889184155182, -0.07180790864531802, -0.03084524770243211, -0.03612331089718217, 0.01756058733634122, -0.019609254892044795, 0.028761748890198086, 0.1364272228466139, -0.04847062525570494, 0.03223805608510386, -0.09515275256644058, -0.049519277984287735, -0.04754097233687559, -0.06636038155750477, -0.0009144830302423466, -0.06287038512903835, -0.01222604089003647, -0.08782449163037155, -0.13804891058716295, -0.06926205274868734, 0.06997451948189447, -0.02652891013171165, -0.03505104077668394, -0.11549504572126316, 0.018999172651201417, 0.06130893462911276, 0.03708986333380734, 0.018409309058417853, 0.05117942185037249, -0.09327916595506291, 0.03173555637508122, 0.08841597462804787, -0.07336594076577029, -0.010385513791813416, 0.022546165026229914, 0.04584934732367812, 0.08028216247924785, 0.04954429012973462, -0.01586191263020087, 0.007494835683058849, 0.11545427338923327, 0.004609420947649089, -0.060457139989724594, 0.09144812927127682, 0.04894936825808752, 0.04321881766041857, -0.09318477457339235, 0.07194956783307642, -0.01914597763810799, -0.08373056723544445, 0.0007814177276396488, 0.06246237104549916, 0.08086624494023166, -0.03197007588964504, -0.07486863908767862, -0.0025489411510696814, -0.18851691935988257, 0.23254758172994608, -0.048015369561370924, 0.12175996165900375, 0.005596829323417703, 0.035532983180729116, 0.028119860729817894, -0.06629369660593835, -0.11470186494372497, 0.06309340760017662, -0.01674301472703912, -0.07658703505360018, -0.0016305357649877058, 0.05341249806994242, -0.011782466437026134, -0.08828735900353743, -0.004169403952935108, -0.06115569819985306, -0.03730265917145186, -0.04642803564481237, -0.06844637096170994, 0.004195222230379955, -0.05937254945940926, -0.09670915182681386, -0.05122538905622391, -0.020341577972521663, -0.009363403706645753, 0.08871348887947801, -0.10583271836610436, -0.05622727784143308, 0.030165189877730654, -0.0036918920577319997, 0.11878769660785814, 0.03541181759111201, -0.04312157523601987, 0.04521415819443937, 0.027518925421788826, -0.03135287835742546, 0.06332897077344303, 0.02586479558565489, -0.03876098121541777, -0.03395948768920141, -0.017299207533117842, 0.03108973673009355, 0.1351771209414124, 0.029009981993943473, -0.012097624166392191, -0.020883127906764835, 0.01983086343694827, 0.028936556527795917, -0.001940740580853545, 0.10926638260146934, 0.24457162144730657, -0.08604031160103183, -0.008475711410546009, -0.09174412780608376, 0.09064982188680222, 0.03496680764367826, 0.06014895884751718, -0.07254916267657213, -0.02785468763014893, -0.14379875320749186, 0.03181896867521583, -0.02111723077298539, 0.11518540769702501, 0.11322664640439094, -0.1661853326299124, 0.06709548058498849, 0.03204426051457942, -0.03943641213433561, -0.040905206740671676, 0.12141199550533327, 0.07768917487525281, 0.03293335260537652, -0.015904661145030214, 0.12501843424387468, 0.043152672660093185, -0.05025587915984442, -0.018436382565699377, -0.07480233453954173, -0.1035895774422398, -0.19788190874749734, 0.0022981641871277674, -0.14092190818538552, 0.02381365073861719, -0.02865286412754013, -0.0068494492985147265, -0.0596887372151888, -0.12698915510978992, 0.06353409709204033], [-0.006579437584877177, 0.022447505730096965, -0.00733031376667399, 0.06757933698244707, 0.11269877124792178, 0.0946428299891586, -0.14525082266605832, 0.12767539034144235, 0.0476607558019931, -0.0024677060955274285, 0.06537901640463079, -0.007823863568231634, 0.034120822005601244, 0.015282030224348181, 0.028915224548681895, -0.05458163339939524, 0.019347473281986802, -0.05681447146694814, -0.009299068495048423, 0.06869073041921826, -0.07406208683703226, 0.0101419358818218, -0.09920601957878254, 0.004085955415579365, 0.11484160405194467, -0.13748916701919098, 0.03585455216725475, 0.034586439103405635, 0.05889314170684412, 0.04502532004744579, 0.018106111587030453, 0.011150407483703363, 0.060659774184993735, -0.038877975315860736, 0.09828804557552712, -0.019573031636785924, 0.174131637027645, 0.01565207883198693, -0.005932299331939642, -0.10712382376931505, 0.04256873110645359, -0.01074022344671946, 0.11783295524293959, 0.09479736913107327, 0.11825636172598958, 0.026153388032764003, 0.0035269802609811016, -0.10642869479454249, 0.16341132917037196, -0.006034047430464491, -0.005387634762309502, -0.09144295267528248, -0.007988333478668615, 0.014618629899417774, -0.10091317383099788, -0.1304581325091238, 0.02206448144295867, -0.004496330302087317, 0.04157980531352047, 0.018979468439262313, 0.00020296045781120498, 0.06566134599286001, -0.014993627366838125, -0.02018723073317615, -0.0028188751133913625, 0.07074484832730162, 0.13561706158296766, 0.041113429414328787, 0.04143749497049207, -0.04757327881414437, 0.08491042155789408, 0.024202280148056723, -0.0005413037079953989, 0.000808892866636222, -0.06722682060273506, -0.09070443819386768, -0.05336085951920803, -0.1422381249674694, 0.025902006411265915, 0.01845554441512501, 0.0036037671819605516, 0.13886684509843164, 0.09678997363372346, -0.004909613804642951, 0.03462575696366373, -0.06724222695888132, -0.12683227500932528, 0.01243191616622242, -0.00012691542549144225, -0.12460267007364556, 0.029537974069043526, 0.015173700185077106, -0.09274381185379951, 0.03264989317776359, -0.09227328028086405, 0.11796419945464272, -0.006612543598200688, -0.0984550914120397, 0.14230834243974472, 0.06735997542781788, 0.07269806511622684, 0.07530496381826124, 0.016781497632121525, 0.07850187812399176, -0.00880150144500122, 0.042340037051561946, 0.0021678105697426286, -0.006613359519124517, 0.03244108927562927, 0.26451118852107725, 0.08954116716070946, 0.1946691835963753, 0.0009785337604430499, -0.07795211230918934, 0.02905202429628894, 0.138307997736915, -0.04784688679129099, -0.050309632713753695, 0.03239953969516251, 0.05137467816434526, 0.02768227395211783, -0.01483012299111069, -0.013293046286413337, 0.08472515122796419, -0.00430739603631934, 0.09642531807529078, 0.034012847271714025, 0.06944348974174255, -0.06047710496486423, 0.06099795702525851, -0.08773955429351221, 0.040611399981819125, -0.09569789201657865, -0.08513170380617038, 0.04510391905868382, -0.1458306836251978, 0.010494022489933936, -0.06047713240939322, -0.0635813047235632, 0.008945870052373, -0.06383156599649001, 0.005998923098578541, -0.11804111133411492, 0.01742032682325759, 0.03664334633617461, -0.07818132019356913, -0.03298719473828196, -0.10211431772045185, -0.0908527254687402, 0.10440437398651212, 0.004365370403305126, -0.026161097218652042, -0.03152476636318374, 0.0009391802236898186, 0.12928769133205334, 0.1640199518916259, 0.05748537245419597, 0.03205111690533697, -0.03936515891633646, -0.017579972354791064, 0.011679887296928506, -0.01892438455614096, -0.06840141486224462, -0.01758843965635114, -0.014267906512968751, -0.005751951849858606, 0.058060087098573625, 0.014510461650974924, 0.01187149175458495, -0.04974100166062164, -0.0120785644708487, 0.1497437785610214, -0.02888912780006236, 0.11504752693633462, -0.04756540342557509, 0.12991064502940933, 0.0070798367498355235, -0.08840305855787872, -0.0044017567840173065, -0.04991664946253498, 0.034512388132398514, 0.10438367322112166, 0.01756636380133758, -0.12695808864203234, -0.07076073770288105, -0.15105722831351076, 0.07412736286575251, 0.07202254769291822, 0.04727971732651946, 0.03685465307492449, -0.019761552958109926, 0.01498289127351791, 0.026202837059815666, 0.001833930373036928, -0.12616281376223193, 0.091143159743218, 0.004166851351548805, -0.035340754331216154, -0.06386745632332709, -0.006386406832927619, 0.11325652281196126, -0.0708226719774994, -0.07510411815458719, -0.12390551240333007, 0.0596431088746008, 0.06270693509559488, 0.052163538797251205, 0.010256689188324302, 0.028643341295687446, 0.10463975746669066, 0.0056538097510678495, 0.07914113224727361, -0.11068129337965557, -0.08755439306855248, -0.02698109969188472, -0.032227741656320696, 0.04220165267812156, 0.1260386881447069, 0.0546887827056291, 0.010548906461395762, -0.015548833857857224, 0.03753661425436673, 0.024224698133720267, -0.10511158792785542, -0.05437373808948196, 0.02352575356027227, -0.0016378587763014362, -0.015399466548216096, -0.0884616305980214, -0.050400433628135816, 0.06406039049632602, -0.08059027042968397, -0.026616993102596246, -0.027124849671538196, 0.001961338549753756, -0.03934892369746066, 0.04044029740591937, -0.08288679943414741, -0.027745215173963125, 0.044340563452255545, 0.07191167516476905, -0.033690170148199756, 0.1661295495925414, 0.0751674426317286, 0.02858434816447736, 0.036559898326573415, -0.07006185549899298, -0.006186932367960409, -0.10170572666500077, 0.0415394728846725, 0.018709594178046095, -0.011993035521979301, 0.07339818172337358, 0.051201900054695326, -0.0531806916329551, -0.07970410268882218, -0.06548235594186166, -0.19821493754585834, -0.026600148370171783, -0.033050529159918275, 0.11254226498218811, 0.1515302241318468, 0.05439000964338511, -0.11335232871178491, -0.012107122883912715, 0.09506737797249613, -0.08175146905802869, -0.155614841603838, -0.14530519931868066, 0.0865919745964357, 0.07134040411359367, 0.03623583922470906, 0.011157794513444248, -0.14250430778596143, -0.16952086831045385, -0.009971313816963943, -0.06389362218874779, -0.002318822565148673, -0.007114643736243303, -0.0025483133861821106, -0.010296149853720711, -0.22865093804259415, -0.11516942574100106, 0.04294502891504738, 0.13653185153871641, -0.08685194305498281, 0.06178041548385446, -0.010303242153756793, 0.15021310908907745, -0.004882386263118597, -0.13797770755688105, -0.0040152991146486655, 0.07989600705927337, -0.029179793902534227, 0.11787197608145862, -0.020598047135852973, -0.06124290913073345, 0.1602608300918554, 0.03623395508179749, -0.020207016645392453, -0.09839837790558258, -0.01676789482031759, 0.03925281664960344, -0.014424058540075928, 0.05390951838093828, 0.013684479027472007, -0.03035049445104638, -0.050789900005673724, 0.04322578825332588, -0.1305106900387098, -0.053526343208940654, 0.0974805405355971, 0.06131666741498968, -0.07466072072203392, 0.04599564041826889, 0.08768915608029614, -0.0035931962072231205, 0.01680897697102075, -0.06900735386981169, 0.039872231477150015, 0.0475422325125412, -0.021785096300815224, 0.009488426846407456, -0.08800658344422944, 0.00601852277008961, 0.08849495637343704, -0.020872816407582668, 0.04680401114025165, -0.071007079756901, 0.10079702176716407, -0.16458977428058064, 0.010467340168905161, -0.003995581088461255], [-0.031414499657520974, 0.11947000394001975, 0.12960953781376813, 0.09176638313955392, 0.05739208669269572, 0.04929518503803108, -0.01629105727587864, -0.037174436831207754, 0.06375103117481931, -0.05108824148171932, 0.039569769387469964, 0.024698205814753762, -0.09351676620149835, -0.03474754331438939, 0.03816983193273815, 0.009867286762595103, -0.04576313133482238, 0.09400001395784309, -0.04653960682490425, -0.027955338021556534, -0.054241316520128265, -0.008289332903187932, 0.012372059939342898, -0.12792511639969223, -0.08586946058322703, -0.0404791154587439, 0.08149150921635448, -0.017046266417137503, -0.057063680267247646, 0.021001097334489783, -0.018166879960160014, -0.049961054206367435, -0.06845398255574509, -0.049516547048724026, -0.0002719938719365813, 0.07989345619714792, -0.0691655320203535, -0.10977879278129088, 0.04380975643573278, 0.12489636541808907, -0.03416101894070533, 0.04783171677996492, 0.13085231238029535, 0.09521907912990125, 0.08891482189234373, 0.044793419869153396, 0.09781927025934314, -0.026069443369634997, 0.09865139045371199, -0.045246890811846234, 0.029616125964699317, -0.10997280125843409, 0.09383329388184736, 0.020026673587370276, 0.004479082684295485, 0.032188946070282755, 0.09002101636208246, -0.016574503938680537, 0.03946915623944808, 0.06632683439759472, -0.1174488957939257, 0.013504711343994077, -0.06968713802423837, 0.09575768459776546, 0.005824391807953381, 0.09526801172777942, 0.008351900994980043, -0.03756927867348619, 0.023937128803703012, 0.14003130957694696, -0.03824090267482614, 0.1056438508386305, 0.029343766076513046, -0.027433950725895676, -0.0836946007754604, -0.036232282334511194, -0.12518027698048323, -0.029020196530653738, 0.02331707866221302, 0.015545991066495315, 0.030501734477865177, -0.05099642563992223, -0.028106264885389493, 0.04095593445809815, -0.01711881471257647, 0.08234052153372645, 0.052334658762540835, -0.03477488860763407, 0.010183725187815863, 0.1355885832916416, 0.05623043127328886, -0.025404335331540188, 0.09101386847432202, -0.06872964520433097, 0.026864430774363172, -0.23232684156978625, 0.17998948448199473, -0.059635720480317664, 0.12198518610694888, 0.01136274912242813, 0.003007932820579056, -0.08128779131162711, -0.05715857719782569, 0.06860047092032645, -0.03686979464453578, 0.005365801682918349, 0.011436725272455359, -0.10874765136669015, 0.15000146473273135, -0.07032401632794784, -0.09650392837824395, -0.03366523202205038, 0.08941399969149864, 0.01579366728829192, 0.03417683359434607, 0.02207622956801114, -0.02217972521629092, -0.03627589707794394, 0.01426457030930708, -0.1141428006868752, 0.009624186743338446, -0.04052656332282594, -0.12943994882006607, 0.02245900358771869, 0.019059254338595583, -0.04338752337991958, 0.009078081202670852, -0.09173741011941344, -0.013004152665933721, 0.014702611182119662, 0.08196098446251611, 0.14394480375866603, -0.028178364855400997, -0.1200402036625505, 0.0281553523561748, 0.024009641401627327, 0.03701785849170596, 0.025016962768924594, 0.12619327572935715, 0.028550256885789306, -0.009325652284671714, -0.01761399076273318, 0.008848080997443572, 0.051920218062756304, 0.17164935355049202, -0.036551386134598934, -0.03030248625260972, -0.12215887420382543, 0.037601478509822664, 0.026986617692579783, 0.07324996283891361, -0.019040969228121457, 0.009315342071016003, 0.03696346898861021, -0.023505677918568703, 0.01285607787420006, 0.03517028653013523, -0.10069671309522356, 0.06612286488050793, -0.041364236039895724, 0.10776346661823469, -0.05446267046901597, -0.005600848437747733, -0.003069980805963488, -0.01779322436080261, 0.07299919388003373, 0.045679047534268845, 0.0036953190066557396, 0.11084984631553667, -0.13192192615321338, -0.08327311991678811, -0.029806506721217655, 0.16028245786340095, -0.009974193458924653, 0.014698124064884306, -0.007598542961468061, 0.09682657044954962, -0.016828388705455256, -0.08931615702533917, -0.09816930061142624, 0.10326823994568153, -0.0005950931826232527, -0.01534954225640259, 0.014026153808441993, -0.05538256148296064, -0.07379670135044177, 0.07997899007018225, 0.053568484929359984, -0.026725039793264606, -0.018879117810139304, -0.09980687071667584, 0.21448905506790486, -0.10245630448291394, -0.052120243877410495, 0.0400387659831519, 0.04321539567245191, -0.049618683802556025, 0.08589409174055336, -0.05751057728693379, -0.003876348162086522, 0.026124669309850114, 0.08495523820757298, 0.05302845780098136, -0.002999831208407804, 0.011190047198304165, -0.0402715508427726, -0.048244542854085984, 0.17488596652450078, 0.06594470170344832, -0.0024829784286376708, -0.110906341895007, 0.03559967669844097, 0.024651292367956365, 0.06381306675113933, -0.05844266423403744, -0.026118618421981363, -0.04092179961873451, 0.11087991649153879, -0.060304383353460694, -0.10581262808175596, 0.0028669123952225393, 0.09503940852342256, -0.10789285748706631, 0.022526587206775816, 0.050599634763489214, 0.01842433645824831, -0.0020494744507921613, -0.051979359134355904, 0.06058257793852653, 0.05284277520858863, -0.07761009092276927, -0.060783248125686556, -0.14396403832018545, -0.008572672179652581, -0.09755819597075441, 0.03957108603237809, -0.0074970401593045894, 0.04700422749451996, -0.01826019393640483, -0.00043136043570617344, 0.044718036131712054, -0.02788159352338367, 0.03493894181759358, 0.10439224543700307, 0.01583393270590352, -0.024060442799985125, -0.2281034914328727, 0.0020197542890431678, 0.06846822688876666, -0.024491207451803616, -0.04240764879605068, -0.013244061097726212, -0.1895164589744792, -0.01565913437210843, -0.014338189388262495, 0.02016801301571331, -0.07951637352913539, 0.11739414342985008, 0.10138297071076019, -0.057447469000331146, 0.09504798366636967, -0.033749678955216016, -0.07833703578773962, 0.03149747998141664, 0.07423643252173238, 0.032389782937408046, 0.14878153871262692, 0.10007689497734114, 0.09812284111314874, 0.012802711063952659, 0.0205392955235083, 0.18103771794822282, 0.00804655456904257, -0.019360997848806658, 0.048767036586073634, -0.057349061586859554, 0.05179131159788048, 0.11031429672486794, 0.05738232158451514, 0.18251655552632806, -0.017513202369257835, -0.06265660620240006, -0.05999048465650392, 0.06816306172054051, -0.07055236317372449, -0.07259886767117435, 0.017261416496406837, 0.028831228771452284, 0.00843955440243532, -0.24582558243632266, -0.0292392778984914, 0.07739348713196276, -0.045237172800775285, 0.05589337235383573, -0.014498895314654764, 0.07698811303245193, -0.05740979031654807, 0.06903078058401993, 0.10397073743749143, -0.06485182262617756, -0.07209713036877434, -0.023252539759280922, -0.10104163698925646, -0.08725717530948794, 0.011035033575240303, 0.028295269277790046, 0.019176209213459545, -0.006088726206187922, -0.04410217923443273, 0.0352836386440357, 0.002307606619144678, 0.07865041826391407, -0.0013985881686854596, 0.010523659719811262, -0.035297353194071145, 0.03012088852188367, -0.07584308969031359, 0.025398521782927008, -0.08516552358768263, -0.012332633089082803, 0.03965913432281748, 0.10168155033798729, 0.002857337107080049, -0.21011794633423972, 0.03304334212165479, 0.07033805012672764, 0.04683803064392753, -0.08186111770238082, -0.014241351494243238, 0.031134717334265843, 0.029943881298104113, 0.04924338482649514, -0.11556303756492102], [-0.03279248720080753, 0.0205818885464033, 0.045206751628301636, -0.21294443410482622, -0.008365957306344254, 0.05468563063563632, 0.02348114883304606, 0.1622102008245054, -0.13357686941672187, -0.02189909630631062, -0.05333899847222863, -0.1412380205554385, -0.05932098712880277, 0.03608672461879293, -0.014808365707624045, -0.005053411362670206, 0.05058738758600245, 0.011934309230513694, 0.04981742733734762, -0.016197229831262417, -0.0008097495112739612, -0.019698621829074153, -0.024632489831064672, 0.1458166674489473, -0.01545866287013019, -0.031244998324362068, -0.07374479178264934, 0.16381937043218658, 0.034177537013742924, 0.03115999994509609, -0.07027851323821534, -0.0706993149465748, 0.07180020981488403, -0.03177886589774868, -0.07374395577802648, -0.08150149074121571, -0.09166594207813661, 0.12664145156176557, -0.00525841073947254, 0.046042184471243204, 0.05048389203995681, 0.04332033244872835, 0.020997010538106355, 0.025959079490590276, -0.15449701343722977, -0.05675794692241975, -0.11273584494439635, 0.12267326959307408, -0.04087013770126045, -0.16051311005761312, -0.039841636414630434, 0.06381296334933786, 0.07151313403276027, -0.05798388987469643, -0.06671429485472344, 0.07050257032637612, 0.03520304332649319, 0.06861223223022916, 0.05941742042267084, 0.03068722528899179, -0.003461709562766194, -0.0070130213403471345, 0.04645732650770386, 0.05428099931418472, 0.04826338399275355, 0.014075426555746971, -0.04980972724961511, -0.0404439242493439, -0.044383447691614, -0.1261739210029335, 0.046259847722089784, 0.028245369892634174, -0.035921104793327864, 0.05640369964576805, -0.05188784500340092, -0.0827644269423962, -0.06452979709501329, 0.25416250634276244, 0.018993763138742185, -0.027840305790181142, 0.023276990369810548, -0.05679818299107015, -0.015752700585182886, 0.015243398246420898, 0.026497586196555765, -0.028847515586239734, -0.01882969811168424, -0.04216181294603731, 0.02854705979660673, -0.1456753067710071, -0.07549005727829819, -0.21928907174929052, -0.06429227747362654, -0.005195814827612034, 0.023953759258476096, 0.07290613087236439, -0.046818168336209234, -0.0670251555499518, -0.006825269526361077, -0.004189551943310129, -0.06251802067331495, -0.1182386717973415, -0.005833725775863894, -0.03461384084793882, 0.04244296752837813, -0.002667474693289612, -0.05062232694847315, 0.03882777969500511, 0.025842631419827483, 0.047897083333390565, 0.03909805573817404, 0.07701401845593978, -0.014828592429627684, -0.022436772442339853, -0.08089350108244787, 0.032322365366465586, -0.07258100233905902, 0.1846555061005562, -0.06801899074069845, -0.1264886629159173, -0.07107257930718941, -0.050055082432466064, 0.01833640776049919, -0.04433928398816803, -0.08013855778115651, -0.062327762718762135, 0.02210449224313646, -0.07858607789362468, 0.009516728141489352, -0.08827956240911856, -0.04239410946773054, 0.04525445699200554, 0.11441175095904138, -0.0023873381588232624, -0.14228929384295544, 0.005981657024022014, -0.04321087415879035, 0.05998050937269521, 0.022238139887196213, 0.001964271096873614, 0.04995510869178594, 0.07145213801808338, -0.10820288660369363, 0.13099820310401, -0.084878038820387, -0.12939596746276646, -0.023995769041764235, -0.06233008864912195, -0.19316838450745183, -0.09555660160794106, -0.05338660499151374, 0.14624291704255177, -0.034590550800046006, 0.0038261415461129846, 0.060458844719491804, -0.18277563261498567, -0.03097857304878109, 0.07176339971834482, -0.03343538959963211, 0.020530274053690727, 0.01748881091193541, 0.005379641768964721, 0.06962023108516954, 0.021422167943563733, 0.0757755384653334, 0.008928715003881788, -0.022172522696017005, -0.04222542173621208, 0.08664873647943988, 0.10919705042483131, 0.012130455074649665, 0.1256579674148521, 0.06593727073738445, -0.0387621428305396, -0.12819900493780123, -0.20763788773019487, 0.0009760336447905161, -0.03602220554239022, 0.06779709845641128, 0.10037053320399471, -0.0014834702634824001, -0.04798208805377077, -0.042087875099818775, -0.0813065467006229, -0.019472501550864097, 0.05733126631116894, 0.01184971474739921, -0.019227437092840787, 0.06503732257814085, -0.19701234292802222, 0.006445564262622724, 0.014845742174041266, 0.11973260251665137, -0.07448937437772421, -0.05500799518039755, 0.11277016968184576, -0.03434162716072169, -0.03829606325136258, -0.10638688819382257, -0.0016949636380234146, 0.03992066331672773, -0.0391780435383994, 0.002429544947818823, 0.16686759919675448, -0.1275385053208837, -0.01993399992979735, -0.11556881957366942, 0.03939321850511592, -0.02176605235948081, -0.10580674585316208, -0.007686208909177823, -0.01312266794718237, 0.11348091274727409, 0.01325180886367199, -0.12306587293272735, -0.031395501447102674, 0.04660465986079932, -0.04308598130931368, -0.09923643735300472, -0.04441469328904644, -0.047954491196875726, -0.1774792201330264, 0.01971556675298479, 0.07549094337758779, 0.07057430280576703, -0.20573361077272226, 0.04561938833942186, -0.05167756203508265, 0.06074354919529181, 0.1049289151886739, 0.12702323833587584, 0.06862555058858272, -0.06516047486002764, -0.005081126160959597, 0.022136836099936028, -0.09505118086063817, 0.195190333015445, -0.105473068024807, 0.00153595683465882, -0.08718475395167219, -0.08829951191008509, 0.014236334201368862, -0.04113096321779073, -0.011210095430830121, -0.05833921793603295, 0.03776059227812813, 0.09039514370427228, -0.10638190059409143, 0.03376284074046304, -0.07716175205733888, 0.08326532906754368, -0.1456187937619781, -0.04180064944886122, -8.304141102577482e-06, 0.024847859703710562, 0.07094201277343426, -0.04845529353612963, -0.031183012074718578, -0.08714725150177588, -0.1029215463615261, 0.07135680195457311, -0.136534678633289, -0.030902652194507364, 0.010594365743155141, -0.04355613247862587, 0.02298196624885022, -0.01802093512982542, 0.04138194501454604, -0.06355169837485292, 0.09282272205985453, 0.015855798130727766, -9.7437049008132e-05, 0.004909351415691415, 0.0962977432053629, 0.0395512178493724, -0.0009635637436469563, -0.08719757927096483, 0.0026019147159635904, -0.0679742044432624, 0.10606709273738825, -0.020867836247482324, -0.14612127298588373, -0.015328505813799293, -0.10564927708746304, -0.1369817655503932, 0.009980449633266853, 0.10007704916814184, 0.10326631590825455, -0.1121576405854811, 0.03529242637925461, 0.12282351660764232, -0.01218041876613007, 0.030133181359977945, -0.01247138811717659, 0.03456064190890253, 0.043910335916305124, -0.05743635500959056, 0.13572564926953246, -0.09098525128694282, 0.031371466232375286, -0.008663731994641226, 0.03381641553110074, 0.08455494606304091, 0.07849607103258627, -0.04367076493799172, -0.04481364594883049, 0.05267720185866935, -0.013011927349738401, -0.07796811092257858, 0.11053360744973113, -0.14801320837514234, -0.023468280231823655, 0.020321627776799522, 0.04536784671182711, -0.11422390598525783, -0.025534475584323004, -0.13464789055938248, -0.008615908451374547, -0.048065754244900546, 0.0894827596564623, -0.011763063976028634, 0.11241045121041499, -0.054933811209532085, 0.07493471346457363, -0.05556200089853549, -0.00939683096131394, 0.06140565566185589, -0.126687254110096, 0.026785227119230308, 0.06394479943573134, 0.0648702577970003, -0.0668351505172694, -0.02009982979516768], [-0.006016774985505301, -0.05851420831657923, 0.02094612770866565, 0.044733665121026125, -0.038652029581250746, 0.055223547828663795, 0.12145480911176737, -0.011208840477009055, -0.10143298584470813, -0.08979363620527431, 0.013460703712438364, -0.06101627337564402, 0.16816000878565882, -0.051616275958251745, 0.04575379746627638, -0.005757068272337761, 0.1480687008835287, -0.051093623834900646, 0.04099626200704975, 0.10110553809165328, -0.04542008828058909, -0.0360670007687843, 0.1307580140435495, -0.043585866143681, -0.12232988886856788, -0.10051287922770458, 0.11326840333161638, -0.047485748990055844, 0.007061171854099942, 0.05933036907952686, -0.009485047350595627, 0.020022002713972496, 0.03873759406971964, 0.07972226091963142, 0.001132353073702749, 0.08751909959212395, 0.012629852419956839, 0.08004386803682459, 0.020400214024586374, 0.012478161688152325, 0.12333937460840284, -0.015013151355183756, 0.02948686993432563, 0.06429959279383224, -0.03139337030667267, -0.08041235629519117, -0.02656894592804238, 0.05710597195726492, -0.08914533522686684, 0.1064552409187034, -0.11176705081415284, 0.0022590341152444755, -0.17052547452126154, -0.0010482139108322402, -0.012419860359772177, 0.03720834571702255, 0.0129310944166401, -0.04066464333095373, -0.10089813576041101, -0.0492036622783876, -0.08431653467237583, 0.026168402148815835, -0.10416848876341796, -0.05207539239129557, -0.036976275302931585, 0.03237586178287688, 0.1228615904900687, 0.012215974814358408, 0.0023138584948126924, -0.14894787718068106, -0.05912985968198435, -0.11745907890397342, -0.13678645819253607, -0.18694520397595665, 0.09594565768395245, 0.017418278355184426, 0.008692862709726112, -0.07048597451741544, 0.10212117311991785, -0.07406268152356965, -0.023360301153190925, 0.11135016075738029, -0.0673707112277493, 0.02544622478919022, -0.17808292803833903, 0.10025144733760796, -0.058317097697143175, 0.1444432068361068, -0.06468008239388574, 0.04738050163743629, -0.03375337386765125, -0.14080381389725766, 0.03579848839750863, -0.11271608626251975, -0.09507706083970172, 0.0448565332369873, 0.08740202062598484, -0.05600742808310524, -0.017180125967005397, -0.15023287915351172, 0.015161955688453558, 0.006291954393453738, 0.12726259238535362, -0.0014931456085150745, 0.1594992922012012, -0.01465681426321068, -0.05828166448214004, -0.008805601107921102, 0.029671862940041944, 0.04513548805972629, -0.03274835253303716, -0.034983396518378035, -0.13671158610551426, 0.002101557012120582, -0.03220666985678949, 0.025483239352556808, 0.006913377022403847, 0.04277104947943999, 0.00420832702178867, -0.02846139796720057, -0.02897150209920934, -0.025684732304451126, -0.046187156520294606, 0.048195216238442376, 0.00973716909314253, 0.016240401603851668, 0.03847523573790655, 0.10304233599763703, -0.08414744725010975, 0.01205193100045203, 0.00819631744594669, 0.11716410867155261, 0.118226070641889, -0.015188339684799537, -0.03657884411574761, -0.117539097745167, -0.029143728457979957, -0.07924834147979082, -0.01826749275264447, 0.07098791188748346, -0.09027252816898042, 0.11893170293355838, -0.041861584478440995, 0.026549439465786622, 0.1969734245197939, -0.06639983551336925, 0.12017685499169356, 0.12169630268898088, 0.10729889462025935, 0.08086026115203498, -0.19527831323018557, 0.013122761245317317, -0.05016181636537827, -0.04111078278872195, -0.08059089498274483, -0.028891490078158198, -0.01287926112430398, 0.09544555002990214, -0.028185904789023372, 0.03390799686476797, -0.10755556195988066, 0.010857508590675963, -0.00222888051987384, 0.0069963411941484565, 0.08645883886908393, -0.11180901221616843, -0.11038750347846568, -0.06358463191439066, -0.15966564260243293, 0.06191623087517962, -0.028977406319908406, 0.08393053427766592, -0.06091883578994997, 0.00518613288110692, -0.04421958211936032, 0.18615863923101145, 0.014150608407249354, 0.05625159334256275, 0.03743005030811459, -0.07175680012468556, 0.08921265670502851, -0.0030010512655560726, 0.03734772486739228, 0.025494865551478674, -0.029839506786634044, -0.07726251921348629, -0.09583789359905268, 0.017239770986292063, 0.049524764132396475, 0.06920502385620855, 0.09028432800459915, -0.04675522032194513, -0.00012148917856001926, -0.23415587100832552, -0.03939639973683977, 0.04603282046991884, 0.011160217109631648, 0.08638812074233941, -0.16409099976426697, -0.09148931993113879, -0.0897261667463951, -0.00915021083729294, -0.11935375599960495, 0.05428342023140031, 0.16328265517659846, -0.053683608674364336, 0.049659723116086976, 0.0694393808094488, 0.11857721836152184, -0.005111369297879125, 0.08911038005635175, -0.04923908260594596, -0.022565500886685814, 0.06382597254773899, -0.09500896474251068, -0.11076321314356184, 0.10108871919763389, 0.021395134221611586, -0.05357977930416455, -0.04872825798442474, 0.049195406952494525, 0.10338056190024035, -0.1718882246249775, 0.08660157504034517, -0.015907682517528502, 0.00020751647240706186, -0.07747920995933967, -7.324290893071483e-05, -0.10558379422534273, 0.06089897921566196, -0.1331380183666172, -0.08369307911277944, -0.12985940926026301, -0.008956178483100015, 0.054246575529177, -0.12984462515088074, 0.0953291730093298, -0.10314437125554306, 0.11110562650477492, -0.18481348524924202, -0.05677708550905862, 0.042460263758724415, -0.0020527033352924547, -0.037619832270556, -0.08548415253050169, -0.027537137008802306, -0.08661429852254829, 0.14567066193252906, -0.12814090428725264, 0.07223893827031508, -0.12186302447621414, -0.09979980500807101, 0.07388801782741021, -0.02085662187212445, 0.006552701349727397, 0.003042507573205232, -0.07866803616360624, -0.12340770981078863, -0.13645846284346755, -0.08560551818319441, 0.018253040228080494, -0.010178085836091037, 0.00640473156797131, -0.027247867792360457, -0.07899591741915885, 0.16617911806393135, -0.13640629281034047, 0.09078153387998912, -0.02842036665336501, 0.0097493838768379, 0.056787364912632136, -0.023551860957598925, 0.022276778673284366, -0.04243277234034271, -0.07407655893070417, -0.021224161671580772, -0.013582211828455669, -0.16033631012467883, -0.008811244996725358, 0.04234061832515251, 0.10490342679634193, 0.05842472463955607, 0.0007500996944482039, 0.005996991228977467, -0.021893333707956677, 0.10632056966320426, -0.029374217774294, 0.0025456014092752185, -0.16409816810857394, -0.05247697188155569, 0.001904562832065202, -0.01102906506024226, 0.042293037703196985, -0.08594394308721173, -0.041584091209654075, 0.02486461912830785, 0.10609277505400312, -0.0987468822914973, 0.04817830181276493, 0.03884993555905797, -0.02755245596234714, 0.03705891443685544, 0.07013545066822807, -0.15473633747285573, -0.11987447293117541, 0.051715154911646966, 0.0349936905695213, 0.004971401098176965, 0.05075519522984289, 0.025361614642983466, 0.027357282385699806, 0.1147170909096066, -0.004945266349222295, 0.058720118866373794, -0.05790147771194948, 0.02496732558351712, 0.006826698937771778, -0.03051082648122189, -0.129124371635034, -0.0979761957872048, 0.022912946110637558, 0.06654739878087947, 0.006166767452534461, 0.1327102881115972, 0.06387810412858491, 0.04676622675256437, -0.0096621189700647, -0.002308359297056044, 0.18211176485471356, -0.16499961172080022, -0.013328126192967452, -0.10021022026858482, -0.06214961091163773], [-0.07915090945436244, -0.04604072811815003, 0.03935581102510884, -0.03395558454185219, -0.1381385903455294, 0.02642873872726061, -0.0013259252717531926, 0.04730523689074159, -0.14459037820947435, -0.0047432934430027785, -0.00988839320740205, -0.0030896475751015316, 0.0611088707194286, 0.051780921965095886, 0.04413122256560545, 0.055069825821614495, -0.04377777285017638, 0.10439916630173757, -0.008820273162991785, 0.00701310407303892, -0.059678167985430144, 0.13833386325087668, -0.052990230156012876, 0.032409193177202596, -0.08814346389867235, -0.13975839597201278, 0.019999554622897826, -0.018826923247914636, 0.08623946229900513, -0.02948100419855362, 0.1564221047251005, -0.10799414025700271, 0.0069896412124881655, -0.07296512009150762, 0.03296423804129371, 0.09793494762428108, -0.023728506758989354, -0.0531022996322267, 0.0457447069127582, 0.0987826605810831, 0.11172608337972652, -0.06527890074185724, -0.13249152362499664, -0.018810897968725603, -0.04391040353827288, 0.14405428563091258, -0.10280187521799407, -0.06421155255719725, -0.044955313559312364, 0.09752075729606052, -0.02778519993689338, -0.006000009833730922, -0.050630411708133725, 0.034150923256358566, 0.025564162919693698, -0.005091869235462126, -0.016833265026384017, -0.03544344667659527, 0.03686268287676567, 0.052607493570247264, 0.025687616441461128, 0.09066263819602877, -0.1054278531696143, 0.01158478873603845, -0.011047106421278161, -0.017757340640115585, 0.0461530834480823, 0.10596697194631949, 0.08167068353718306, 0.04210019472665507, 0.02380822719830105, -0.017315165154898914, -0.01441362292919614, 0.09649963323205403, 0.11070698930584999, 0.0612653369436039, -0.009101965981782659, 0.009810988190372526, 0.04002313635807389, -0.061491340144695386, -0.13447431377785046, 0.12047239113735746, -0.09847139886828268, 0.033886737552959595, 0.14200115576849526, 0.1321788467068564, -0.009685202115311473, -0.058719658585249544, 0.07137499575730434, 0.0035911185213325487, 0.025822832041586544, 0.0023721367293863802, -0.0444490561086662, -0.05071776653107127, 0.06536361820881659, 0.07605893548756729, 0.07087238799400494, 0.028123063362860752, -0.10309797852532265, -0.05131319638472905, 0.03367231137681218, -0.08476343954549356, -0.10301295781755442, -0.0030711453079481457, -0.16772910150566395, -0.01063647951740996, 0.01942254217080089, -0.054695191666238624, -0.04626503346933057, 0.013976873373770588, -0.0720372041274177, -0.012526621336225929, 0.031982622267695826, -0.006457905960495714, 0.026376457603436192, 0.004426516877339258, -0.019891919499500386, -0.02830764170399252, -0.1116071926740971, 0.052775003852016486, 0.017572961608761047, 0.0050907644158543494, 0.062115286912273235, 0.0909266842061893, -0.08130991956370606, 0.011047565931521197, 0.10489188043655627, -0.046800598765677714, -0.058579541082063785, -0.09162947242345428, -0.12536259841249822, 0.01825578895909463, 0.007699584232221759, 0.07076972981410583, -0.10769490614676833, 0.039668268625641906, 0.09067135843567639, 0.1561465521339557, -0.005221018908502256, 0.11068693305777004, -0.03919199500745321, -0.03150574155141214, -0.03164221627166743, 0.10449001693009526, -0.10766229203736538, -0.058822328687220975, -0.020955142025218067, -0.0957203562726731, -0.059094437517012134, 0.017544376188563374, -0.0004947466018538166, -0.08152543651287524, 0.0747756648073194, 0.05557382761485443, -0.12767203940830288, 0.03824352031181188, 0.05394880486192029, -0.1880962495398314, 0.05949537650470687, -0.01114968761562789, 0.04841053956451091, -0.03750853561619089, -0.03370672362103257, -0.03854508729453049, -0.01981490092716099, 0.01217762791450273, 0.06106294729692017, -0.05647427625987403, 0.017858315496620644, -0.05211605603125723, 0.0089306137197844, -0.02306657027051777, -0.10247853494160351, -0.033911135917761404, 0.08490751120433955, -0.0682435335699167, 0.06427416680138541, -0.11551134577145884, 0.05181670136984045, 0.0020183950560047643, 0.19630411440690804, 0.0009718435008787083, -0.14464208389696456, -0.07271889991327417, 0.0010962695832279785, 0.10453866584240099, 0.13186708897831528, 0.06882158833732875, 0.1265954583918107, 0.030949562019062474, 0.025247447757579856, -0.046133179812246725, -0.029502045122300844, 0.004052759928037194, 0.04204600581574071, 0.027861861070726364, -0.008442947099787082, -0.054688869151814846, -0.005587812174416799, -0.12789219352462713, 0.10958189428912106, -0.03961143795188122, 0.14688835161437871, 0.017252808414674067, 0.14387384509022713, 0.08628914066438936, 0.013434235830075046, -0.04071936269574885, -0.09571229967194621, -0.048698228824552756, -0.0025851927869406897, -0.07806973029130815, 0.026697597719937113, 0.029942562947778997, 0.12274975032871445, -0.006957744628530672, -0.1210118729999608, -0.0280626932561192, -0.02609379793758958, 0.05567363833431786, 0.07963268864249533, -0.08599380500049641, 0.05473493292677434, -0.03172329456446834, -0.10734972572747385, -0.03278047662075442, -0.05899393724349783, -0.11635092103777978, -0.16219136941779305, -0.05494367491355483, -0.054365877339563905, -0.005484785685502582, -0.04763742338091263, 0.10443424301955599, -0.08536888996257319, 0.003721697279766797, -0.00813818323418094, -0.005496003041267184, 0.03849526674260329, -0.015175355892212958, 0.08032517585431694, -0.018724015283053855, 0.11082365078647125, 0.06896095014564486, -0.051881319053118435, 0.06440330025908585, -0.0898528715622887, 0.041552088591960856, 0.013317270703665389, -0.12929545426102884, -0.03832015578535495, 0.08721184942313975, 0.061086972891307705, -0.027109753674399564, -0.045945400979959757, -0.10892379837608995, -0.06763902419363008, 0.03253644432577723, 0.04022647933899344, -0.043491761149307105, -0.0023532547082590815, 0.1012256987501418, 0.035794585153642006, -0.10667660937394972, 0.05053933331909429, 0.01698831041169979, 0.11769228675323987, -0.01642640831488189, -0.07368844472737043, 0.07926664200128836, 0.07586157400910022, -0.15098404967960616, 0.015777401004383115, -0.06787054771506991, 0.17647415753645138, 0.0022226534869456602, 0.04653827049641208, -0.05313855698534048, -0.03781545568884589, 0.04930867893285069, 0.07342174303142414, 0.04893261734226308, 0.022917959355615698, 0.025680033072753943, 0.08972789254132328, -0.04413743508986414, -0.07968513369711204, -0.1395440622466294, -0.005560302427504143, 0.0007381875455650158, -0.06506799842553644, 0.10123988947441737, -0.0542324271372393, -0.06651668536391103, -0.11190748962892791, 0.08149434487248358, -0.1519507598422461, 0.038391888731350174, 0.0759785497231563, -0.07148459661898199, -0.07163981926998816, 0.020283974866485265, 0.027832436776499485, -0.07658982901866726, 0.03746270595934806, -0.05400790708732765, -0.021408736865597734, 0.03309600488006978, 0.0400718529665077, -0.021963497935249415, -0.008072466184890718, -0.13148595855290493, -0.08924629997330295, 0.002302277291267669, 0.01737354654501203, -0.07610381929101963, -0.0519668351854799, -0.0160740331478931, -0.01759543210932774, 0.12473275743015394, 0.018866279613683035, -0.02020138772084627, 0.031945615594023404, 0.008052160906094048, -0.15006827284710766, -0.04282309921471167, -0.03480104991362853, 0.038700728631610226, 0.03233994260518345, -0.03148340043161764, 0.01215632475175151, 0.043085650561808096, 0.0816943484211748], [0.03288349273163333, -0.11253448872774781, -0.05632115506967918, 0.00029433371413269566, -0.03618244612301493, 0.1776634451861222, -0.08513176215350694, -0.02043130342437401, -0.0012089997695693235, 0.005382678826006785, -0.10940608409255415, 0.07001387484785361, 0.17909744825670734, 0.13740602610666516, 0.06270661611903507, 0.04072435999201141, -0.0623270408377656, 0.1695952817991556, -0.07706664592912847, -0.11621217702754524, 0.11417567734998126, 0.006046526933931802, -0.10352820081453286, 0.016639300794899767, 0.07312928134354393, 0.1260957111777627, 0.10217933366199754, -0.00173442624916315, -0.042051961332047486, 0.017196969040566296, -0.024974017314073307, -0.07871811564134507, 0.007580647355440264, 0.11888901258232853, 0.00898010885653273, -0.03422845294260265, -0.033509060033696816, 0.07989792624462033, -0.12142515028963433, 0.2654242131545866, 0.015609156663770591, 0.1144311567712301, 0.006869475788682344, -0.05542051852103549, 0.05479338097807348, -0.03382043875182599, -0.04160159261290295, -0.07564091726573345, 0.06739359861953735, -0.06214093765566263, 0.0051419421668408676, 0.008278453559954232, -0.049086819065275906, -0.024672128061979107, 0.052281782412343124, 0.022228536626739594, -0.01572450045439207, 0.0012486726642292883, -0.04012670099778401, 0.05834222944182876, 0.03137512219134444, 0.17603367916303733, -0.0858562111905586, 0.05729768700499729, -0.0008883886686731892, 0.02746598868156172, -0.016523115648173898, -0.039965753277561, 0.03786247127917459, -0.01725563420265897, 0.0020646846036043117, -0.007176555121175959, 0.02704936057177636, 0.06560059607086613, -0.04419641240194551, 0.020954751500116775, -0.003601385389058491, -0.036931534654464304, -0.09729086812702357, 0.09402768473781549, 0.07123290632276637, -0.0763989137283972, -0.09309421368541114, 0.03504416439165255, 0.0396929690823503, 0.010995459761290776, 0.07430318260803155, 0.10850291508498068, -0.056184747060695414, 0.024985931632190518, 0.03238430116519608, -0.0067484994981640515, -0.04968377713375589, -0.03639700213548065, -0.09794557987707322, -0.09303031843204039, -0.03709276864334448, 0.05329651462823521, -0.03267405990573433, 0.08991089593475778, 0.033072127958791685, -0.13160905029880168, 0.08629915738052814, 0.012796379805466251, 0.03869550108924434, -0.014222222383735363, -0.13360884498072328, -0.05502404977886385, 0.014916778311251013, 0.019102341151615403, 0.08079507420573352, -0.0999122949266759, 0.011813886173509031, -0.11514794388107427, 0.006676730541537096, -0.1696519760019443, 0.05671532954534187, -0.08814565274158744, -0.055968603879902185, -0.1226042660616473, -0.09053294139945556, -0.08460857617336776, 0.01323900856405873, -0.10953909163121352, 0.011352808340406164, 0.10771195455448118, -0.08229304196131557, -0.06477799503211572, 0.1002308522262264, -0.09656862194021666, 0.07028814705750001, -0.03544296267793029, 0.008796046719690727, 0.033247395200158965, 0.09546218812033873, 0.022837891839378493, 0.146059793862809, -0.02898015469428392, 0.03414260117447331, 0.10073600164947408, -0.08345555333748432, -0.023012573396117786, -0.02504101366070181, -0.021178212809708243, -0.006450702458639268, 0.14064188106023062, -0.05003318622492688, 0.02331291308431645, 0.1306778988698216, -0.12690186002142478, 0.09176049554190951, -0.07178931491088184, -0.06025513757242828, 0.031579862292642216, 0.036715598898694995, 0.04645011287066784, 0.05631899819748567, 0.001134646683356426, -0.010611749111350932, 0.03774958223132288, -0.10213569963332313, -0.008245701195983928, -0.01971315280430777, -0.03312471833484447, -0.06531070742115845, 0.10220262985812267, -0.0395991771804329, 0.022149122625216112, -0.011705102264311476, 0.0340816168244013, -0.03474520521414389, -0.034869331461159336, 0.08286589340676508, 0.16060142956674753, 0.010538275867371785, -0.20113041917344024, -0.002891936179397981, -0.04414743377398768, 0.1223408886915127, 0.03785421368028566, -0.04592578713318046, -0.08154500994529652, -0.03417240928353527, -0.07131422686737564, 0.04198162126792607, 0.021476372923862085, -0.01216146664060641, -0.03866024957506648, 0.10782158675582698, -0.04011652786973234, -0.010362558830197424, -0.02126689074398337, 0.0236938038442071, -0.1196954973121616, -0.0673221465964086, -0.06516189893084208, -0.052137134018011025, -0.07018839020330775, 0.021952387965217462, -0.10642624247518301, -0.03921041299113342, -0.11058675359864316, 0.1824841733625376, -0.06327521853684745, 0.0049620733965726905, 0.0519202381768239, -0.1178363812354032, -0.05265965712590193, 0.027085445664143205, -0.06045311541702989, -0.06196516464063957, 0.0036960786317173245, -0.07081153544843045, 0.17977481047726482, -0.03921859237885881, -0.017905857023047346, -0.05963353257676737, 0.1063646387139743, 0.08423387339716483, -0.09409168899926224, -0.0034046081571389524, -0.05892927153741159, -0.09273612994492599, -0.031244133157591204, 0.002913314986355882, -0.01149046896087381, -0.09452909212693976, -0.04241401208688355, 0.058353922039672594, -0.12648677771267539, -0.05385447439242462, 0.11327329984914085, 0.04901470649764274, 0.12024010993397667, 0.15444174599559898, 0.09651223022453086, -0.021888812286202677, -0.05860281267258533, 0.01682723891240546, -0.10306792915439955, -0.03980342892464321, 0.06972545017206506, -0.08969507096583937, 0.07191935886763211, 0.05053145686261993, -0.006201289475816572, 0.04996703314189988, -0.11226402962798793, 0.05666445166790957, -0.014234274134404763, -0.002321665573714652, 0.2165283216017832, -0.0409658657375244, -0.06371648564104448, -0.0024617888229764707, -0.0017936557752777256, 0.12188571686063059, 0.001301099297946744, 0.0029040748444598176, 0.0741396378769871, -0.09155568935343578, -0.13540490091729457, -0.07872848996870635, -0.021335250271751482, 0.06067210363788535, 0.002600086003441854, -0.06338017544399845, -0.02896174044684921, 0.011931732913742658, 0.003501275989254819, -0.10413184623580762, 0.0663628205311971, -0.060697234236035756, -0.07263938566875341, 0.024663852963914306, 0.03089080291456986, -0.049223200387177625, 0.0738279197383263, 0.13252686106492662, -0.09071301998195812, -0.09845294618829006, -0.06665383850202682, 0.06409704183856815, 0.032671472349735754, 0.015350716030957206, -0.09908305496021454, -0.04904534534735692, 0.05062405580041433, -0.08639973077701214, 0.12649694605616774, -0.050121154184401, 0.03178972596141682, -0.013724112065857058, 0.0022953106571091883, 0.05593605579537002, -0.0037103894045036156, 0.07820005373308817, 0.06823661267529942, -0.12007732242709011, 0.044448667034054395, 0.0006014410482455309, 0.02848591379947005, -0.049639007696260125, -0.04681811458453736, -0.10492161067682253, -0.11249979995241505, -0.017959392867622784, 0.11104341682732612, -0.0020615802879353383, 0.012452649604113835, -0.11536932342260299, -0.0312011430717629, 0.11202512061570824, 0.16055965729690397, -0.08738880073627946, 0.11713186572001018, -0.009158069607825885, 0.04452843538008319, 0.05057708532663069, -0.09556916312362296, -0.05749694597630936, 0.01568789556511278, 0.10269661357837445, -0.05356727560784851, -0.04126912397499562, 0.04714255260108076, 0.05582253796559033, -0.01637536560292811, -0.11275249982400616, 0.12054858393811645, 0.062327188633924814, 0.004177760225558438, -0.015858323993619788], [-0.07100400215192795, 0.09493738009079866, 0.06850691904478498, 0.0009749965048113493, 0.016313206760158627, 0.04660077871259291, 0.04140444065651948, -0.02213128467411212, 0.063619644930797, -0.20473209489837924, -0.050910836521737474, 0.15302015690682164, 0.0433424745988912, -0.04835781241233206, 0.00636303491960412, -0.02893592516732372, -0.12045058049872956, -0.11201905636191324, 0.04261632477426709, 0.05635669393257864, -0.04439650913541278, 0.10998559113845598, 0.04860614490282625, -0.08187620314665521, -0.13097475072602033, 0.0706345248664446, -0.0031062748219952132, -0.10958098164297747, -0.04834430841084255, 0.14081972953678787, 0.0198280391747398, 0.1172643169302424, -0.0623791521867141, -0.037093880605644655, 0.019195466249987702, 0.015567995906571963, -0.09157383112915284, 0.03421358807826251, 0.019199459721153476, -0.08983171274309575, 0.024459273158125537, 0.04252285758728372, -0.04376982676464732, 0.005389131297207836, 0.05954996648522222, -0.015121844818478924, -0.05796746751962517, -0.04461531811659568, 0.022588320228284275, 0.02170947920639412, 0.0034989492925516716, -0.014881581557385665, 0.03546363176633257, -0.00588818819494111, -0.0031081913490053166, -0.09422634674737092, 0.10061775509133743, -0.033724376134686526, -0.15445166869350757, 0.06191480062425101, 0.06189276191263418, 0.012648034120277676, 0.037812942864699946, 0.03286103857968892, 0.09085890540023334, 0.011056859271741316, 0.0014873178871137053, -0.09280205253567728, -0.05739538178581116, 0.05302666944502192, -0.11622711010746258, 0.01693135169204327, -0.0498834563318823, 0.08830085979937173, -0.16901148015387063, -0.06137633555819508, -0.012874527023276594, -0.2295025599076571, 0.04056349306850486, 0.000586023063438637, -0.06013161816233022, -0.0551709796793492, -0.004831339133088905, -0.009373934562695594, -0.017298894032494017, -0.0895234643242742, 0.22257563459690755, -0.04362438468674816, 0.0909105401745866, 0.031501304845190155, -0.02322416902924362, -0.12466945347703201, -0.010363153204329572, -0.01017570837530526, -0.1164849190162261, -0.026402359344066026, -0.10289193669890279, -0.04123223684464132, -0.2207466516705086, 0.008917017682411705, 0.15879531426780286, 0.010445285772630097, 0.05054427655768145, 0.031464083827665766, -0.051275455197528304, 0.08923212752877589, 0.07987025972596193, 0.078102940705754, 0.06927330996105643, -0.048924269823122354, -0.1271543510750446, -0.04743776215143424, 0.0896232739094518, -0.02014375743020942, 0.043800709609720115, 0.04983432532027278, -0.11969347135987615, -0.03251558154172651, -0.03843540023815164, 0.15481903359453034, -0.10088068018150813, 0.04048162332563395, 0.06872715761985511, -0.046743604381504836, 0.03322629553532564, -0.18377251690206425, -0.01013043360752197, -0.012813129875916922, 0.016186397553718448, 0.10906099410672905, 0.025182329202587308, 0.12049407696798987, -0.031088453504239787, 0.0706570575961531, -0.06514050707106647, -0.012433768503175856, -0.0425648048817943, -0.03763233306470062, 0.05069737634778949, 0.027338408788544807, -0.07091339011698988, 0.008623718512291675, -0.007387209307123748, -0.045558339973474804, -0.1843680246248977, 0.07882384806037136, 0.03701673442184439, 0.0345502614146917, -0.07807949819984887, 0.01255381871803678, -0.09863519875149447, 0.0225911112350964, 0.0027166346411470694, 0.11734223055682082, -0.10148413941399351, -0.03468881155991076, -0.02567889241916171, -0.06589489703492225, -0.04427122476354369, -0.03435291685110402, -0.004634696941571808, -0.013802120276972382, 0.04887206633745258, 0.04276020691370214, 0.007851293911206734, 0.14611129752933524, -0.07107694980709328, 0.02146282006099809, 0.026397694804590408, 0.004507366339529273, -0.10720343815788956, -0.07466154196408041, -0.04528687223673986, -0.12328991416754716, -0.004795967176773655, 0.07685402863469658, 0.04855424988444477, -0.018354304205508345, -0.0006894964839763976, -0.051690927046977274, 0.013698243344659812, -0.060637955513556246, 0.07481508311634458, 0.10973645084046031, 0.013214362653205563, -0.044938751853766, -0.08476694355576435, 0.04044124274422347, -0.04852911013443512, 0.0713426725020218, -0.03262760922654883, 0.012194747288011768, -0.03490285353272399, -0.062091204867430506, 0.060363581248158785, -0.07582112316803204, 0.11475113870166129, 0.10737305084578787, 0.10095819310371623, -0.0066179333944281415, -0.027721889412339277, -0.2077016552529798, 0.08284561508186579, -0.03780776200085758, 0.005660956393085045, 0.09279477082922587, 0.02928487618072276, -0.01849198533278584, -0.06966373670927933, 0.10353071229099538, 0.073055051239851, 0.030524636297466674, 0.12302390974771908, 0.06413453890109311, -0.034468580075771436, 0.0069033366364348705, 0.13948701173118971, 0.1319848752424678, 0.02809835629951606, -0.024337498919085564, 0.026023904763057458, -0.053456478826014155, 0.050636065491939795, -0.014395061166756673, 0.07588111883018483, 0.02579389493822169, 8.777765001319321e-05, -0.1306851835530971, 0.13598990432455246, 0.013970285595436888, 0.10102970979600708, 0.07313810303423725, 0.10493360586464466, -0.14912728950690662, -0.16061445800040627, -0.13689410920731324, 0.08073375846208533, -0.047874443224432225, -0.10690832321739566, -0.05385562142683354, 0.10307166858121872, 0.1210070575346397, -0.01567910177027633, 0.14882333101163653, 0.053420072686935736, 0.1392623351381424, 0.0026429142169259916, 0.04376739538784419, 0.04742011990717094, -0.114917542197855, 0.16865900879486784, 0.03768820522964772, 0.06449553133184922, 0.030041683083365113, -0.015388084677194113, -0.07844891857724742, 0.06564230437470822, -0.15076391648904475, 0.06480586663286103, 0.04926794959069639, -0.02087159134768032, 0.15572632935488276, -0.10126539130403586, -0.012346777907711404, 0.020430087466315576, -0.0474630959118574, -0.04063490947232577, -0.015473602441313473, 0.16156369828538836, -0.027590945892872278, 0.008467265164737493, -0.03826833788233458, 0.06083114406594222, -0.06288498403063911, 0.2186870549124962, -0.1278411121119708, 0.18521227653942657, 0.008431434256500886, -0.044449679779202146, 0.09605486728853711, -0.03384114559629625, -0.023783810061313422, -0.05599748977773406, -0.057848255961722446, -0.17808857539596165, 0.06346513973453288, 0.05214224344848772, -0.10575492403357213, 0.14410634209741488, -0.014024519460426205, 0.07133212812728608, -0.0370711038322482, -0.019989652939797913, -0.14495452434808573, -0.014486826868817679, 0.11110670651814882, -0.005213897856432668, -0.07363348530109175, -0.125704746248678, 0.07014256168588472, -0.10133765677286889, 0.06506119547606296, -0.043115214170102764, -0.03146710668874608, 0.001973460456024453, 0.01177003372271845, 0.018930062134833125, 0.05321479165793426, 0.079636742493254, -0.02686426513332601, -0.0748851909734911, -0.032479068490446905, 0.02734992995288958, 0.003207789844468655, 0.10082073886440968, 0.044812050473947165, -0.06855605593955548, -0.16068646110899015, 0.00574604113341126, -0.0047874343754051646, 0.10424249905965223, -0.1076704301394703, -0.09737150379877235, 0.01924892898486855, 0.00591389592492223, -0.16787931303331077, -0.07961746288346261, 0.08592905891290183, -0.03826423594321203, -0.0060789972876808505, -0.04493624979792842, 0.07641325780043282, 0.07248442250900752], [0.03842443997763171, -0.05495353578166275, 0.1274650207381296, -0.008235990819407875, 0.02709668533690413, 0.042228132045334876, 0.02489846497133997, -0.040809469947160754, -0.008474105423425327, 0.0007854886610569493, 0.09707510388234043, 0.11627524308040238, -0.01722550834824446, 0.09256524147156132, 0.12174332248489035, 0.022064080012732575, 0.11931551940069458, -0.11932799641185356, -0.08766936924089916, -0.11261789977052922, 0.051173017211195625, 0.009541147719815873, -0.03358215951567964, -0.05076396416218353, 0.02868836797566142, 0.11286764633274526, -0.13378368747902655, -0.1701809348592481, 0.0638981842351439, 0.062094153951457016, 0.031320302563811984, -0.0670164504640554, -0.05830745592703736, 0.07971258966954986, -0.0838639127714916, 0.06892366633460938, -0.031151829244691665, -0.12269260231441136, 0.03172542688129421, 0.15534450416602985, 0.0469182955536956, -0.03408947311877553, -0.08935790452843055, 0.041861917419870845, 0.011778305608513234, 0.07739818915585835, -0.02756452238942387, -0.04640756851028421, 0.007058545832419195, -0.056571585022770314, 0.13344840157411947, -0.011559566219504795, -0.08507202811407734, -0.06334637319023785, -0.011571473570744605, 0.04828529107895501, -0.07039144911417548, 0.0521347791775219, -0.10515700349882685, -0.09560721089075847, -0.025894749267808492, 0.0029830623682314938, 0.05913641899830847, -0.02552294448251916, 0.04188768126773994, 0.006766380393480876, 0.06190604133782405, 0.08738556255803913, -0.02183259245072979, 0.05038331012661909, 0.007398184426912352, -0.0600803453586484, -0.061958442863613315, 0.036049485362226526, 0.007139774862435853, -0.1066595096755332, -0.06060392094431199, 0.01831216404800139, -0.12011545646774119, 0.20804896936520917, 0.04290151084682308, -0.16062409192497587, 0.02066376521699442, 0.03657582497547691, 0.04672029271602718, 0.00021628074541964795, 0.010848924835631536, 0.06240330849051541, 0.0245179909906085, -0.004537404081299286, -0.1560223596979328, -0.010799871071517851, 0.04932850382318475, -0.0961428155955682, 0.03153579803287867, -0.09750244957260304, -0.0032944892360284718, -0.07752432217145286, 0.06324349066704721, -0.030919703947648886, 0.028197638873001817, -0.021918365462736056, 0.12436789195286582, 0.018604610818806978, -0.03858446886070074, 0.012410073605527898, 0.05341671322801098, -0.11537673466697737, -0.11761320542710596, 0.06049971186730666, -0.03950023826031058, 0.05920411822495509, -0.03672510334511731, 0.05196517209401988, -0.013757402047384671, -0.046382398588261646, 0.02533971664595962, 0.1312597243836932, 0.009937242887918403, 0.09372213224919398, 0.10865923874602164, 0.10953707971208533, 0.04073500170085366, -0.014583849984202552, -0.09371022084273259, 0.0007589633766237126, -0.03032381131757916, -0.005691677620194732, 0.04125561828109323, 0.13238965030689193, -0.009421519989199044, -0.05920022141850201, 0.00400228541327022, 0.017401823009712714, -0.058581922305866084, 0.10733666690458424, 0.07273385477463364, -0.03692431192526823, -0.0058417732554050285, -0.015615749388780013, -0.0956760948823048, 0.018058251899836193, 0.05774756677821707, 0.035457324115298436, -0.0491655004785779, -0.13754105465140687, -0.03340648453846831, -0.006139993787123576, 0.021668067950424443, 0.04110976716787438, -0.034016142941819434, 0.023725703731701995, -0.03101667320872949, 0.020897093959441348, 0.08946698439028809, -0.0030392374873419365, 0.007171064918485858, -0.04040437168588504, 0.04953178168682166, 0.10601316935330421, -0.12521486619356184, -0.07100322972907944, 0.07545208024683703, 0.19307657838832742, 0.04416746834761033, 0.07873466714701176, -0.053567864460712995, -0.03966204233694101, -0.04196621664488718, 0.07796393411937076, 0.08619971064566419, 0.051528385543149556, -0.08178352932884154, 0.04592475220767012, 0.030038183251806103, -0.16840351393221906, -0.02438759917237987, 0.07770067145051639, -0.01784840967091116, -0.082646774363819, -0.10510657376134572, -0.017276355834520928, 0.012411409258749811, -0.005205735335297248, -0.11685617721205822, 0.05753226305499578, -0.025130744031326237, -0.11277249903757507, -0.01168452091912598, -0.0153048013853406, 0.09620493854153159, -0.04255645067730272, 0.06296438100821632, -0.007718871156007016, -0.029036862867328338, -0.03653127420985887, -0.07035525878299223, 0.13852932897311696, -0.07028566597732826, 0.028442213966236717, -0.0725529674417971, -0.028489244509069343, 0.010523451019533682, 0.11671380722504174, -0.025059464752482875, -0.07646491341753682, -0.026010017147232698, 0.1436078481434131, 0.05048549060534961, 0.05134724989001655, -0.0027296754710045873, -0.0025772726198316103, 0.06477080976344997, 0.07935827086550795, 0.08406074549119621, 0.011409302785227846, 0.04665584148624628, 0.10138839125621829, 0.014116591466457913, 0.048951682171901156, -0.13071337716786022, 0.033425030417538644, 0.0359616039442013, -0.02216934746408705, -0.03807750999345629, -0.055960536321880826, -0.12708272775298018, -0.006717778457543309, 0.017434946750898312, 0.039574088315321845, -0.0002831573987301518, 0.040792203406489445, 0.0016704493995004413, 0.035295825708671624, -0.036393501609669116, 0.032913062089617987, 0.038043097987398286, 0.15695100348567176, -0.03472835302446054, 0.003956383252752549, -0.002101086948426051, -0.05787159967068423, -0.03601822253554727, 0.24349697558332806, 0.10849066663019075, -0.1721691404228599, -0.035328967233236565, 0.02343352139737841, 0.03192167544479782, 0.04592592030102855, -0.11377016912364965, -0.009150629688020983, 0.012862942231779551, 0.12335525703694009, -0.02565128301143403, 0.05813215072366391, -0.07481693214075388, 0.05131015896133336, 0.09997008592307612, -0.0010946820705194278, 0.034294792160273965, 0.05591294619117662, 0.057218695893554654, -0.0016724719903674547, 0.07094694331550543, -0.040907255195200554, -0.03110312842186858, 0.10247128345923072, -0.00752389287763631, 0.18492825269497068, 0.04701020428321904, -0.06312365757863517, -0.047176760047859534, -0.11290397776763253, 0.01014719823836809, -0.10360044682982898, -0.053898796447985065, -0.02297622405843453, -0.03826605238121066, -0.09519108000576448, -0.05229903299258914, 0.034467084271536004, 0.024220213546879546, -0.09617545715043212, 0.000561896569436793, 0.03675052624027574, 0.14716525128243652, 0.06759821374694215, -0.005245894371255234, -0.06705121947994665, -0.044054494418152186, 0.05607877139781758, 0.0710026514542417, 0.01995016679081929, -0.05861542575279123, 0.07814219663492103, 0.1942058871657636, 0.1573414201418558, 0.019448627970111217, -0.03751699372335158, 0.061015382141418294, -0.006845170458191725, 0.0462061404726172, 0.09385962793735869, -0.011997452445550788, -0.06452337799262757, 0.12624652407675654, 0.01196493777327511, 0.054114919145378984, 0.03069018997235475, 0.10242420732761287, -0.008231195173402955, -0.0434556212555341, -0.08546000182466972, 0.037286381173973746, -0.02751154349192779, 0.11068318792531243, 0.07625459921616796, 0.003600531471963448, 0.038222732667561266, 0.07646248274392725, 0.025156953653936564, 0.09881604993315943, 0.055731121296001926, 0.10624027103131904, 0.02563156805949457, 0.033698015683022435, -0.02851197498570198, 0.08303300751097137, -0.004673162767932354, -0.23080391041330134, 0.15680103102379744, -0.11548185621768678], [0.037063492163953674, 0.009220252709685236, 0.03374913496342816, -0.006618829238789765, 0.020398041622706115, -0.09487056447854482, 0.12565184808773647, -0.005963643986021725, -0.07741570270722427, -0.053950651867000605, 0.08117381235120792, 0.029919950745258356, -0.06353400651276281, 0.11366321541015775, -0.007143017976871412, 0.11546111361384113, -0.054124463818776496, -0.031046401662586057, -0.01601564516025122, -0.0680016626808422, -0.023678487868097266, -0.062370023801542177, 0.07960483650812177, 0.020085083631893298, 0.08659508106738717, 0.12815377672245026, 0.04780033272063357, -0.03389739642637641, 0.014100570213439325, 0.016100150128419755, -0.08184104227758607, -0.07698724270546844, -0.035277657348811185, 0.022508015831989442, -0.08113079459188903, -0.08759467913369555, 0.028614432119183825, 0.15496783183525595, 0.05115783606046529, -0.0341945952778016, 0.1125725072788004, 0.0722745196011829, -0.01618482442645989, 0.0003818368730052863, -0.1261583150556423, 0.15092431734666595, -0.05622424915693716, 0.08631225167247213, 0.04840090010535664, 0.031606179181664265, -0.20021082624298556, 0.07103686803421337, 0.06162502944075591, 0.019912493256289666, 0.05664586738324323, 0.10653066906015884, -0.06034103232766894, -0.0854115455589217, -0.008808113158957713, -0.08511872777155757, -0.07976578793515592, -0.03761793775621229, 0.02976617324772867, -0.1128590991230409, 0.03616379905612659, 0.059228289949115706, -0.0641548158688384, 0.03184999786544924, 0.005561490512434971, -0.011145475693888624, 0.12067817226469353, 0.08782737556793939, -0.09774199549005753, -0.0005141348147140182, 0.03847669838224993, 0.12429953140918819, 0.06663780635474083, -0.03162513669760101, -0.021132662709767852, 0.04906000957035491, 0.08691908027955128, -0.03170489537938377, 0.196138010865213, -0.00571868758775202, -0.07187467582498473, 0.18634732759141284, -0.07845760562457652, 0.013123291392926216, -0.04614348309288943, -0.040988026334752986, -0.19703013613919507, -0.0507242585230763, 0.017262685362425284, 0.03046009236672831, -0.09099483395124644, -0.13244295119631155, -0.1558875619434835, -0.10097805677838156, -0.09518312967171225, 0.12643199069455643, -0.0030751298786518863, -0.059545637993802074, -0.09274621137498366, 0.04020450111471137, -0.1555223952267318, -0.010657009682813471, -0.026304351540110394, 0.09544496536412458, -0.060217287269233664, -0.1354855562346908, 0.13233378981190258, -0.08717076830494858, -0.048367813638789704, 0.004265501015317044, 0.13378500441306218, -0.07579402675882278, -0.017788752490483523, 0.04991980842984766, -0.04806264589128105, 0.14988398328861507, 0.04833305484999863, 0.12822483131942447, -0.08833496950676865, 0.04667069471485343, 0.12476327552075969, 0.12725671902673355, 0.04612019576837015, 0.08767465177329518, -0.0727188295115027, 0.003740476369911306, 0.029368038985572754, 0.1090900556351378, 0.022557606889565665, -0.0042341493271314595, 0.03482912020857503, 0.00222719417785022, -0.09331228507277577, 0.09113913635703846, -0.10820699031486154, 0.017880103914907335, -0.06133719278275044, 0.03860322627185288, 0.06580438698886905, -0.047770110633649845, -0.06794935371299526, -0.13063924015312142, 0.13538130659466946, -0.013264798426450565, -0.07044211341599356, -0.08960843937961058, -0.032746645850652616, 0.1381092097638406, 0.06454110904213772, 0.03667345549285101, 0.10987696858258224, -0.0063574875959346465, 0.029983707021073464, 0.06208299407902341, -0.043851737807465305, -0.024811879419572774, 0.0030515972910004807, 0.0025526593930524366, 0.08221142112664873, 0.10954831552409207, -0.06441802714947392, 0.012361481738796403, -0.060860369686618704, -0.05149298934780533, -0.04296151322941401, -0.043936710334680495, -0.148316404471279, -0.042941529232849204, -0.05931223470527186, 0.04088695778598328, 0.16233909539358926, -0.02669792105153931, -0.03499990236266669, -0.043872178479402356, -0.009253608549509709, -0.052788742290926144, 0.0370029383024508, 0.039972677166867435, -0.045964968460372825, -0.006973257079313219, -0.18920848639421983, 0.03821943184728639, -0.023153951959769426, -0.12199196155049288, -0.1527000988133136, -0.04244608466529784, 0.06184391157035135, -0.02685241973265918, 0.041404412097867105, -0.01474967676124113, -0.03351159434326556, -0.10128465737352091, 0.1676260185544122, 0.07720129015518445, 0.06567722701432115, -0.021298526686484593, 0.21288518524753267, -0.005117878375350069, 0.02557236321931281, 0.0771015413134726, 0.013992807999605275, 0.0015074826972422965, 0.08430998759495997, -0.026065080426982985, 0.015586988164936378, -0.11901506529345639, -0.03768600813828014, -0.07507474748494189, -0.07244570224198782, 0.189029019038216, -0.022027930269822013, 0.0923392385138077, -0.09838208697035872, -0.036709649873351353, -0.13840791620101234, -0.019335593301411297, -0.026344798911742146, 0.051120538580881114, 0.009051904341407235, -0.16023835241951984, 0.008193330553681521, 0.052659802045475095, -0.026371436141849832, -0.11483168497478753, 0.07863992672618968, 0.07808987064593194, -0.09057397412942739, -0.09754913878522335, 0.10375473067100945, -0.05861246969347117, 0.05059498663067791, 0.14669777177626647, -0.10666753318288867, -0.07476148604062996, -0.11859719718179969, -0.0047032415705832225, 0.02044334248167818, -0.04006879682997851, 0.055722546258992096, -0.1895900346677722, 0.004858305855666823, -0.011738240997521581, -0.16214809501235128, -0.055818774801099466, -0.06955326949717776, 0.013625238773306202, -0.021744329688497002, 0.028332856001914545, 0.06354625342139517, -0.08527731685206429, -0.14995121164146138, -0.04517549283168844, -0.1665931081066348, 0.1051463424442737, -0.04899719772305941, -0.1651326873555901, -0.1088296015520142, 0.08993023849752481, -0.04471976097546278, -0.06739198996776571, -0.0296716302267362, 0.09782668029572326, -0.06944307067784841, 0.005571303433388336, 0.04861287705102047, 0.11161432058021402, -0.04753416285453047, 0.05748564196518247, -0.020966874657013763, 0.04765696627711069, 0.075579742458312, -0.004521289969245407, 0.030634433524299814, -0.076726361296982, 0.14084285641647232, 0.061815471915003445, -0.11554464661533095, -0.19975469070512103, 0.05068959751621433, -0.05959897399039489, -0.08242216859341346, -0.030075695585254317, -0.03263942652262597, 0.05461450470700592, 0.018054731034325613, -0.03448468475989326, -0.06880439568366757, 0.06673501219541608, 0.04763091460930823, -0.088771615105674, -0.04537972249662522, -0.08606271648173253, -0.040837392488720155, -0.02902396275321321, 0.015665898311111537, -0.006413243262359089, 0.049631880569205054, 0.1337422547962053, -0.03316279268612502, 0.1004244110530551, -0.03430627010934981, -0.07115556560911661, -0.08407173850957174, -0.015602445336209029, -0.001634775997647563, -0.09916437250566079, -0.09072464236995822, 0.05373494567247049, 0.05157261409566005, -0.10515313511914258, -0.017871517914937768, 0.04715571050302648, -0.0366982896633843, 0.04186899568036184, 0.0448966263235263, 0.05208648954993285, -0.023818931448532064, -0.01803787022703538, 0.006869595306091424, -0.15444304195900718, -0.1051436793240076, -0.04255898153794858, -0.02163123487982094, -0.03953481163447092, 0.013506379001728243, 0.08649237529298065, 0.04495419195268488, -0.019983022450324964, 0.036215124031065374], [0.14822765805632074, 0.022211123891912012, 0.12254459878570112, -0.12660095808176022, 0.018559337418933963, -0.08914220559859118, -0.04728276468497214, -0.07064622540417509, 0.009927210224109846, 0.16871769027088362, 0.06637492214672698, -0.008883883894023519, 0.00930124510338896, 0.07538639230158592, 0.08937729481773385, -0.049956167786672674, -0.025872440937948646, 0.05859477015438659, -0.049090737747023556, 0.008861816954689001, -0.0015642203533292652, -0.03691340891350872, 0.3284175888938618, 0.007654500049105476, -0.07156962113451593, -0.0846276652208686, -0.059658427409931915, -0.13427587973329938, 0.05002325914984494, -0.1304345305760128, 0.02813818250437605, -0.01968540145315256, 0.06650407744724923, -0.12519571908608967, -0.05465618045198775, -0.07883111659977574, -0.0625799433621296, 0.008609377344753071, 0.018773303440015494, -0.07594264113328426, 0.03628645853891121, 0.05102813084294151, -0.0351711094276392, 0.23354649242605477, -0.034830860495971026, 0.1503760143005888, -0.13295784307341396, -0.07892083070130411, -0.13955500037244287, 0.04755442336220657, 0.07372814337383886, 0.19067520072493438, -0.07454626356933786, -0.0624079118130705, 0.14258336258546198, -0.06616249787452229, 0.19426506227423834, 0.1803951849817172, 0.015467119590946226, -0.030750509268117097, 0.04990451444312874, -0.008166012585155256, 0.031295878360035355, -0.17724306435609413, -0.029429741503901846, -0.09335175276681254, 0.0007642717302790483, -0.048341081048459855, -0.05708613171640415, -0.10179078185897887, -0.06648678027297289, 0.14929334752288687, 0.043526634515194375, -0.10221740990616983, -0.063127830294856, -0.043536355382057884, 0.05393456018698456, -0.05429760321479996, -0.10493309989630438, 0.005229847625733062, -0.0981082047133506, 0.020313981390950597, 0.14127422382654853, 0.07525664499703474, 0.04744622838595648, 0.0019462943538825041, 0.03051100316577203, -0.03671013294827057, -0.012193860116372088, 0.2000565207495689, -0.005707438168459298, 0.0689201268326219, -0.02981019660982081, 0.23287931763171607, -0.13179658193340882, 0.02724255323941727, 0.018537383861718774, 0.02843652356447529, -0.10194927711648047, 0.07254561425977242, -0.1001435579468131, 0.14811975563541896, 0.0289958817569883, 0.07910968999705295, 0.05465110043351307, 0.009497413963958333, 0.12345916265855138, 0.0679193313279248, -0.026050669493422, -0.06384173744952516, 0.009831960750925295, 0.0311870227747958, -0.021832766860816637, -0.11435510280062662, -0.009226240223968068, -0.012870421742407347, -0.007217018505631648, 0.12441465664809112, 0.057291777114419656, -0.03615789211450696, 0.05093004853943454, -0.08477515437220128, -0.1483102277905227, 0.07433658298137734, 0.06548262110318764, -0.00034246907795308954, 0.13421638245480494, -0.07849593791090527, -0.029910025430456427, -0.13369883414173334, 0.0488065261330406, -0.10750294437165324, -0.014982111540676418, 0.06916379016025298, 0.08110211637499232, -0.047962901331915185, -0.04932261344116689, -0.013148508955626526, 0.06530909284245502, -0.13734532479715408, -0.04075060984190638, -0.0696630444988366, 0.16196408368017465, 0.14967181765872856, 0.008246312302219734, 0.04916987436434653, -0.07439609921164404, -0.0768664589701594, 0.04947222890047264, 0.07087415388911911, 0.07368797987050904, 0.12307008909934043, 0.04529462607757154, -0.1953242186862963, 0.036515673668213455, -0.08492043328395184, -0.11048250275633759, 0.07956811635276803, -0.07596261856491139, 0.013579757439706961, -0.02053454342411799, -0.032025900964950206, 0.05901200029327309, 0.02160513857186775, -0.10250276183879764, -0.05422215197982039, 0.07953609356840144, -0.06874989913303774, -0.02710629984030128, -0.05311283192392646, -0.05341028200476309, -0.03832389025772762, 0.06947144443315258, 0.04510249852047645, -0.06463228593052353, -0.10285055041740361, 0.039429385520968044, 0.022022506657688328, -0.12042653579559363, -0.071710891618134, -0.0008132088937159988, -0.1730473708845738, 0.012819510959851007, -0.11874942832940695, -0.006357853660808372, -0.034998552018192436, -0.0027380817432221937, 0.05122782594084493, 0.12832566809649137, -0.0495524731501974, 0.1666984528036097, -0.1252217474675335, 0.009635913211834449, -0.0020524299660169376, 0.06702507214858965, -0.0014388966196800554, -0.08010340104774628, 0.11307614022013039, 0.1618114306720266, 0.02221302813381946, -0.05988070532785006, 0.048579705290444794, -0.0635925020164688, -0.008255276941745954, 0.10291886046786794, -0.01122281774159152, -0.005874310680218713, -0.12250599627144607, -0.06340730888219297, -0.008827082436558895, 0.1898190894321271, 0.008363977988368245, -0.18973130223096568, 0.01816643689588554, -0.04366038786046732, 0.13279793705116266, -0.1064761518982855, -0.035872752182666424, -0.12016660913765798, -0.046960422690526714, -0.011461656850766083, 0.07570061506534867, 0.046563426590754804, 0.14806133634556798, -0.031277937935217624, -0.007272566073404063, -0.028640928752931737, 0.02380636445972866, 0.08660287659762105, -0.048063371755174666, 0.1031126538574117, -0.11332512007248519, 0.01930839213854957, -0.0570100288436946, 0.1197070666699065, 0.035584822623696735, -0.0037548756902127983, 0.02622261530504157, 0.19793706879186232, 0.007444537956411218, -0.10434464087696993, 0.1493883596368749, 0.03955867006643764, 0.1470051880393556, -0.1375862810303583, -0.014068772499507656, 0.009025405582843954, 0.08477832259645965, 0.015930953837077037, 0.01826897655283621, -0.16453618853354374, 0.00035774991312015813, 0.00860851078200703, -0.05260345874289949, 0.07231855561005579, -0.012530639776348346, 0.018260504853841425, 0.044973595985436494, 0.03855852299402666, -0.05038594448436799, -0.05532961916959484, 0.011346772699714007, 