{"policy_state_dict": {"net.0.weight": [[0.03136251271421609, -0.034145559875385534, -0.03430005863634011, -0.14544322178370925, -0.016410094517973473, -0.06922528996711261, -0.13522306157618125, -0.05093065384625704, -0.03798487668214721, -0.010370758126580093, -0.0009779179603805616, 0.043518763591032725, 0.06188552386675894, 0.13475698464079336, -0.06139462662806191, -0.012880168631422573, 0.08117696354726492, 0.04056584129808004, 0.08503915560929043, -0.02032405234228625, 0.025745973965540674, 0.038893307740337744, 0.05496332335981638, -0.14564875491309687, 0.03379025638924449, -0.03185406359894629, -0.003851230170802802, 0.10296267952120915, 0.005206367721081391, -0.15314723442552264, 0.011880672631126884, -0.044417922029324104, -0.0739722742915597, 0.04863671498045563, -0.05483718373325187, 0.04872309360445248, -0.08829437686475292, 0.016847186021071353, -0.008182790293892024, -0.03420994530039751, -0.08570705034129031, -0.02400445500954165, -0.05407152660107251, -0.024864081313530732, -0.057162987433284226, -0.061629918002116264, 0.03139628454011885, 0.029734111000863744, 0.019841488706367108, 0.1832936241995809, 0.08929425981668589, 0.06325622300270753, 0.09506021323440943, 0.002427079106199501, -0.07212219161968861, 0.04457264102078703, 0.0017831913070552913, -0.04191612005870212, 0.15894026289582439, 0.03202725514093944, -0.16589945422706967, -0.04461242617914616, 0.023572332150920805, 0.019097080425602677, -0.022293360106056294, -0.07709247594941646, 0.12437138024667849, 0.06882373152852626, 0.028560687714712808, -0.0765622138759072, -0.0017861542813374048, 0.1123151834881115, -0.19983858105314664, -0.0577721946654099, -0.056069572590856494, -0.13764158915752425, 0.08586208083528114, -0.17150639379421442, -0.013754268728525334, -0.06785791587903418, 0.11245925200415724, 0.10781012552604702, 0.04918159929143776, -0.004176128874720717, 0.017194115307934455, 0.11460620713740345, 0.08947055329299974, -0.01702078977424707, -0.04104934564117204, 0.049846666040273976, -0.007928404673751579, -0.19753723504028292, -0.05420579100363347, 0.07396665488075269, 0.0624435591147885, 0.10705266610448524, 0.035667187323179333, 0.1735864049770422, -0.03162942845188261, 0.041992571532518404, -0.03680773575868753, -0.06496723060274648, 0.11001999893829088, -0.08586764182162146, -0.0651447551989209, -0.051713863625441434, 0.04047513262225936, -0.04344484951104788, -0.03727860951637193, -0.032005100978761435, 0.001482468560273351, 0.15114261703698198, -0.1666459612098045, -0.06598527221741994, -0.05657365477130916, -0.21003707639299835, -0.043504119723637866, -0.03994156093980323, 0.0013625821677892844, 0.0072896611912520795, -0.004382000325818932, -0.02250056059465262, 0.015853667383966492, -0.0736774388206781, 0.010311237350255641, 0.03245530824768366, 0.07826844093394372, -0.07879092290427066, -0.01527914953996718, 0.12464106603047215, -0.01523796967693939, 0.0241962407700341, 0.10307559587290498, -0.031179360530134963, -0.1144386284881, 0.035517228188398114, 0.011491610864962367, 0.03855607200494578, -0.030244509140411307, -0.14221766849067854, -0.026334321860277773, 0.07203449173237648, -0.025060610316215228, 0.016870089845983486, 0.07965595232690074, 0.12312171064677517, -0.21061051418389054, 0.10034171605724553, -0.006907062489033803, -0.11321879222078099, 0.009971368090329724, 0.07568635800107593, 0.09751126331884473, -0.03609561566861291, 0.003856838703310787, 0.03435262171592689, -0.02384016929980263, 0.09440581729865785, -0.10449645660032049, -0.04111477944030099, 0.05569714706388475, 0.01753636325512226, 0.053338157191710915, -0.01506213007445916, 0.021814922305954394, 0.015750793100397207, 0.07012392831780026, -0.09342456380734838, 0.029169938947355506, -0.08900074390319111, 0.003476536318835812, 0.013381330966231465, -0.11439885029681039, 0.058961148346429744, -0.015623758241536412, -0.0979392170735588, 0.018137697387627702, 0.010707838287284808, -0.020912610956092585, 0.10449794721936419, -0.02026841426879127, 0.013821452771850559, -0.03727264909360235, 0.06330768625620425, -0.009791267652599108, 0.07774707630525328, -0.044171360452584164, -0.03269521924543501, -0.10518198871715384, -0.06582166760081203, -0.04560389406610024, -0.03898754223705429, -0.021240086849492166, -0.015420493495832042, 0.024786044853713454, -0.1186657420579912, -0.00039094682898486646, -0.007101897798919572, 0.06356625189164908, 0.002842875069445966, -0.05171784278851695, 0.026709351068647517, 0.05483657938420209, 0.0033972664334285005, -0.12169267664055812, 0.05974281169460124, -0.08877732243140316, -0.07643441677637494, -0.033854241910632264, -0.0536313496084462, 0.030225248581252126, -0.01974996583445266, -0.04411428077562655, -0.014143536148986162, 0.07290429148137118, 0.11756225847867388, 0.0031258856017997434, 0.09886753248229718, 0.05177888490670489, 0.0573124692258338, 0.05291101147889657, -0.0495554004309001, 0.07733183163212845, -0.10533080562064251, 0.15519545997984846, 0.12196225589078036, -0.05871678767095182, -0.020122307819346326, -0.07361383268306765, 0.07423321187993392, -0.03974620308301284, -0.12272376360876142, -0.027436936221244945, 0.023639970949180765, -0.00255735154826094, -0.040895411971644674, -0.08255111272134057, 0.09938536579807301, 0.08855474192023895, 0.008821454335577102, -0.1797543292485284, -0.12403877908788129, 0.09983369276498832, 0.06457455757302306, 0.14848858739303275, 0.01344679712371825, 0.0032822744142288565, -0.037564027550024436, -0.10995904804794965, 0.010559700292754721, 0.029975608019646147, 0.22381397864193253, -0.029632294387820293, -0.08544414138870021, 0.048412425884521146, 0.1465637421782422, -0.04362604487099554, 0.1100806885608887, -0.06641203655343313, 0.20652806206412172, 0.10869930850242228, -0.0907018977028265, -0.02987591461707563, -0.11370067971513129, 0.08488256465586021, -0.006518597333947972, -0.0024045790687623964, -0.1259049302197938, -0.13289588078183062, 0.0809999145623755, -0.0050197233100118255, 0.022470984552310953, 0.004352965101034857, -0.06092162486912038, 0.007618463696334355, -0.04010619646370401, -0.06275749775153668, 0.23767876723682863, -0.08486880602713284, 0.0246415375351209, 0.025858949382953977, -0.00825699155087327, 0.04814364594047908, 0.005277221858571442, 0.019618000125008694, -0.17990159259755722, -0.10912364024230053, -0.02908921273461496, 0.011413336204375056, 0.0074590412112988036, -0.22813303635857404, 0.028799743143222045, 0.0428792625256247, -0.009398780198034095, -0.028484225197601368, -0.09546511024450408, -0.015647937665545588, 0.07301684403875386, -0.06696677035616774, 0.004870826923142106, 0.11032075248216236, 0.016967670250692186, -0.08417469241295643, 0.08057239379447699, -0.06895077752716094, 0.04303087392065062, -0.06864677243166906, -0.016335342377355806, 0.02839603738390393, 0.06875960545937204, 0.03957210071969244, 0.06259682242283188, 0.08125206881444426, 0.18247316766117455, 0.15830478017396798, -0.027890019017655143, 0.07074375642639966, 0.06288504068846958, 0.052671117965046366, -0.006219133548143599, -0.020479505737658013, 0.05998582565116055, 0.057063165630572246, -0.05713258525322541, -0.09585809243054108, -0.08669905975404371, -0.07340064800714395, 0.048846839647709354, -0.11280617773110681, 0.04013966035763407, -0.09203678590398831, -0.17576194878094126, 0.05405157334198751], [-0.08220682553502413, -0.024985382554008256, -0.035005784883212446, -0.10567938192260849, 0.07451731726123664, 0.019935173356698387, -0.09983530215585057, 0.17457257178307006, 0.06706893328275358, -0.03485638907484554, 0.05338338923887171, -0.11423612287185905, -0.03605161124831118, 0.039896963050410184, -0.02684549838796932, 0.10576370683987431, -0.029632792492540687, 0.05272823459520251, -0.0831911583984019, 0.03817688357393839, 0.009251093171866138, 0.0473734245729312, -0.00034434202555218784, 0.025873998114986238, 0.03435031318315316, 0.0356000784734682, -0.059474723553675383, 0.062195764036453036, -0.02751427730623434, 0.07903636213691717, -0.11675053990679128, -0.03200580443406696, 0.01529879363618432, 0.05178142341045461, 0.052091551721327234, -0.0401814802173778, -0.005865119307441013, -0.05365372189458634, -0.002556636323866105, -0.0415344060080357, -0.1613201837516143, -0.03574354113876062, 0.12729219084835114, 0.007646290437065787, -0.034212640077506073, -0.026809049719167435, -0.04542428541784662, 0.06856370273100383, 0.04760766887738079, -0.011343293201732291, -0.035408496339995474, 0.08008414051384537, -0.08167593498454168, 0.05306407374893957, -0.13661302050106133, 0.03654817756732108, -0.08036259109988694, -0.05830274435738311, -0.07546137769716975, 0.08829545549321427, 0.08709768471616768, 0.1827859738609265, -0.05935449786939753, -0.05456345790393478, -0.07478738796485279, -0.0008200642141452029, -0.0794925768670845, -0.1610137141103855, 0.027141963682163546, 0.09490355670246359, 0.02973563593936602, 0.09177102436610851, -0.02005621107790461, -0.051584816449871604, 0.0074745646500366855, -0.07214759535852537, 0.012997335462854967, 0.0925970208840786, -0.16292098599413884, 0.044177470912146924, -0.07512711982765775, -0.005670184927306458, -0.0003104965632353389, -0.019213952098351045, -0.05651908403860625, -0.09871007116503432, 0.09238610369854391, 0.07885022067809577, -0.009742824825636048, 0.11444833341599625, -0.056359919734499414, -0.04972138818210823, -0.144414704486281, -0.06054470862003076, -0.08348331533940134, -0.05095995985101317, 0.03709452840270731, 0.09612970383932373, 0.007908297306164129, -0.13415047568189467, -0.011582521519775447, 0.06983039598477896, -0.11142942117699127, -0.08347410956535593, 0.0946120149941194, 0.10165034540902096, -0.14887165156107715, -0.14032891544768952, -0.05746033865036866, -0.10116437779263641, -0.05286486011063724, -0.03944890631495238, -0.013799985316130216, 0.04080967853488061, -0.006834986037376188, 0.007368499085305398, -0.031028287901136885, -0.02382720914367011, 0.03796094616849329, 0.020017765942237434, -0.06552457921263248, -0.019956117614094607, 0.0560173066180321, 0.07147857904094793, 0.06417214465791825, 0.040837753133098544, -0.07148718863475978, 0.06045863405825057, 0.012954135815305407, -0.042826814392065114, -0.0670040675690821, -0.06319178383797122, -0.03425235500107911, -0.03346425208039428, -0.10396182766333407, 0.03798350899312057, -0.060423158635903744, -0.013636913840083162, -0.0537846976234139, -0.0622242440311328, -0.027086444392510976, 0.021456258235679, 0.020386037222037648, -0.05688345649643829, -0.037510870304931665, -0.05748909384856106, 0.039963779404662815, -0.19051306378132055, 0.06352527588062369, 0.01902583047446424, 0.04819385715130822, 0.12204231327564119, -0.06340456772006763, 0.005105014050521671, -0.015258416705677976, 0.007208833167739641, -0.007064553959166487, 0.0725219734345707, 0.07905384321601173, -0.13767506142905914, 0.03640493299023934, -0.11063638189076888, -0.029358711929178202, -0.08683929856975864, -0.048061706606835806, 0.021475646072747025, 0.04623210706787205, -0.017400055916059472, 0.016783725412067112, 0.0009514547019584286, -0.06837493460271211, -0.09929719478232184, 0.07410916002808283, -0.10280506228537804, -0.0011435552831230286, 0.06711728711406584, 0.006172962849413503, 0.07205748852557353, -0.0026527718892872866, 0.12020533606808578, -0.11537473339648306, -0.018607504858419076, 0.03380271570684692, -0.028437518750968532, 0.06490059906547058, -0.1310212191558448, 0.14810383788901674, -0.12643578021647395, -0.04528747923878818, 0.008080732055647832, 0.03080399913026419, -0.11246246880538996, -0.0005365767433237709, -0.03126009618659066, 0.010193755751491755, -0.026887381539548744, -0.014614364567769954, -0.026748951172761975, 0.06925026420756068, -0.0017658292209792685, 0.1810802426668616, -0.1266371678818366, 0.0046832689833693755, -0.0022664031849656285, -0.0005739890291307712, -0.014416857286303136, 0.13882377090840584, -0.08867470358805499, -0.02112322713704755, -0.1046694986741066, -0.0418062480771747, -0.0080318512005373, -0.04909103633822459, 0.0963576476493296, 0.09293967401032197, 0.09313412038312045, 0.13408636028003662, -0.03393635755872182, 0.04228382503940191, -0.026784964481523444, 0.002975402495570037, -0.11739263134738642, 0.002994962718283, -0.10516707729194054, 0.07196544035832092, 0.06232421354451796, -0.08634026018885241, -0.03544950924412371, 0.09013683588809349, 0.053894613779253385, -0.09300924133460477, 0.09594870521857375, 0.08937505425404017, 0.09405960534022205, -0.020671925382669064, -0.02368277950986728, 0.07026995239631072, -0.030518074693866408, 0.030982058540821086, -0.014069379824546683, 0.007433146032930167, 0.025351633646544636, 0.030551983310046597, 0.07932348815842252, -0.008587103824403199, -0.009707283864452127, 0.05214939255422045, 0.08668481947213892, -0.024353504868392415, 0.11395460556152726, -0.08451698195419718, -0.10404405335947785, 0.07765741945197441, 0.10682168145338573, -0.10470274279387642, 0.0624818600024063, 0.19214078131616152, -0.02613199164271497, 0.02366322893094668, -0.02961811801100365, 0.005178455070819746, -0.1196182623754795, 0.05668428484705914, 0.12013766299734144, 0.10902677936007076, 0.11696298059981013, 0.05922472667625798, -0.06243559550405975, 0.14967852094149106, -0.01132998171855898, -0.09947470422575201, -0.012594794775461987, -0.04259393634302772, -0.024028680420690913, 0.043101742753628755, 0.01760664378031412, -0.10863445257179077, 0.04958631011877766, 0.02258166796113515, 0.08379087860382556, 0.09936471141148763, -0.04745777850588034, 0.05655932313472957, 0.0028901414506136798, 0.058579352360034725, 0.007037742699339313, 0.047830840143541, 0.03679492073482029, 0.048490696040426516, 0.0354914268536749, -0.1398329788512449, -0.031055530061645357, 0.11890798874114178, -0.021011328696284668, 0.06320301016991449, -0.021508548643622925, 0.07461670807722473, -0.06675222930988746, 0.03349074396166928, -0.02553204674572486, -0.028331480900485297, -0.04240425384848908, -0.03683268727167721, -0.09959822369522324, 0.09188026330121696, -0.049589348199389816, -0.08013681509604278, 0.05886495943676664, 0.022522852345308146, 0.002911459119542455, 0.023098860675325808, 0.055123858294751214, 0.006911048666081993, -0.04040392602615436, -0.019912965922595685, 0.04874357819608439, -0.18216913556212808, -0.030143628457685253, 0.004484873337285453, -0.06712515998367856, -0.07477179295552082, -0.17186161162495028, -0.05399200361125135, -0.18907520358321406, -0.1405294700323842, -0.139333826619886, 0.13263239880605734, -0.10817502495796838, -0.029580310140280404, 0.052267093836105526, 0.054959008688398155, -0.03720596097131342, -0.02934861971378495], [-0.0446002763722884, 0.06688096473203393, 0.05326796110780561, 0.004586572321699932, 0.04489187351509363, 0.095303685796853, -0.0570702837280601, -0.02971844798202252, 0.033184371231639934, -0.01253103268405702, -0.13795827161003787, -0.1650772450976258, -0.06956568495589957, -0.08170178771603018, -0.11231352360040842, 0.05873132578380627, 0.025859531748681896, 0.22771197546180216, -0.0437699745056397, -0.14327335586286036, -0.08538577733111412, -0.10222640124677627, -0.0020293704210437337, 0.1404212865682604, 0.04951754446638282, 0.014790223350217424, -0.05289532587247844, 0.04105359914932701, 0.007124179661107653, -0.05785985245929724, -0.014608943113713203, 0.033525978559120526, 0.095112934454623, -0.07610878478860365, 0.05841057427389236, -0.02362677571941348, 0.010745931358950729, 0.07909331043121216, -0.06396451713187873, -0.014651654929387572, 0.03675557627789375, -0.057661570633072076, -0.06513368593011079, -0.038382178962431165, -0.06409485251910636, -0.12655246320726676, 0.10360634722422593, -0.010643286355990813, 0.030537597669210152, -0.06309497738847115, -0.1021467249692782, -0.022076453042534472, -0.020997096042066777, -0.06694915243800235, 0.043073016768168285, 0.007941897261773002, 0.10599257512050607, -0.02327656733025542, -0.003589875989615226, -0.08463309746827752, 0.040825993967004204, -0.025357100922633137, -0.01340425818523309, 0.038172176384988446, 0.08990303371534174, -0.0386760708062703, -0.10746435090476866, 0.04644886055585709, 0.055929048243174434, 0.06806471101826775, 0.019926649803429154, 0.19428949759505157, 0.06684398359062468, -0.08784162412168578, -0.06920677788146361, -0.06349419561683148, -0.029021620898963728, 0.1257892552574549, -0.0590481221268581, 0.02050021018057612, 0.15844570811111913, -0.015218355614311022, 0.13497488377123587, 0.06263129824170158, 0.08154393265691817, 0.07661582397280926, -0.02486924184623921, 0.11948675663232008, 0.05134505752642187, -0.0405042322713571, -0.057501123736743875, 0.056039521583528665, -0.030234522939666574, -0.02479612857444068, -0.00419443372880161, -0.029459570030648693, 0.19339596654400648, -0.02536443117083305, -0.12508997132691668, 0.07511786691239994, -0.05828288251626543, -0.05705220429775618, -0.017189283655350034, 0.12405465902498014, 0.049042696041242936, -0.06224598422238016, -0.006113692253641008, 0.048763523096808425, 0.09094340132235404, 0.042662342390834294, 0.10905186827505658, -0.18945275322639138, 0.0035352597161230344, 0.08157422335415286, -0.0858427787447793, 0.013281803817676036, -0.022680140379087346, 0.04220671779327629, -0.03424045622614976, 0.05107158781621979, -0.06357316948748178, 0.11351145463914862, -0.16110760345535646, -0.017739298596863146, 0.06189037991108049, 0.10184566665595554, 0.1260431399095572, 0.049938470815675304, -0.03116165207904755, 0.003295380255544258, -0.08235061681495424, 0.0556304289032358, -0.0707822522533084, 0.033316627419757015, 0.049001625666537395, 0.09479709021706767, 0.15929174723525, 0.061190547030155966, 0.11934084493770321, 0.056548812151048504, 0.06525741214755275, -0.011892022919082562, 0.06124879744938207, -0.22827777760117737, 0.15645622518499952, -0.07496443549895351, -0.005251778025567653, -0.034843267667023906, -0.024629060612545738, 0.02251277760117985, -0.039184671654986854, -0.06253336748747425, 0.03664750257975361, -0.03959920161561725, -0.00321383339442346, -0.021407104267643393, -0.09063960985609441, -0.05674864995344086, 0.17644163614705635, -0.04069839587500947, 0.12499019927972059, 0.11766502039496216, 0.006450046264718606, 0.050909194393845766, -0.0537919582105166, 0.03729244711463616, 0.05315166102842922, 0.025834511074027622, -0.11187484061689379, -0.04667566970293009, -0.021694845708092686, 0.09886200228237518, -0.05967575458105904, -0.009787037867665866, 0.01632757228673246, 0.14622272566070538, -0.042399349385577954, 0.1143890524632824, 0.09306624258655219, -0.07610062613355312, 0.031155981037957522, -0.021993953677438446, -0.010524807130999988, -0.08763418568117766, -0.11876846868796839, 0.14154050068709337, -0.013695569619168419, 0.1107737152001441, 0.0747002240278944, 0.05090711236424166, 0.08277999615851632, -0.09008611697268136, 0.12267092932393768, -0.08193915588230241, 0.06355081197382775, -0.07000814802336293, -0.08769221177766469, 0.08346657081194035, 0.12898237321311795, 0.010207317376788832, 0.09871676014679494, 0.09680915628221425, 0.03867927132487657, -0.0567259415337018, -0.006306849621645288, 0.062076552310051596, 0.04311342741441948, 0.013413273349593377, 0.04228133283771403, 0.014694617057172694, -0.060034972247281125, 0.03598833913097463, -0.06902734508846885, -0.05853963072456293, -0.1229199801536958, 0.13243077986266777, -0.011232881070120186, -0.069597199618426, -0.09373813477706451, 0.13351162363345506, -0.01780833186986605, -0.008032522865049968, 0.023906190797212786, 0.017637493600835066, -0.01791812092186297, 0.12196750666461628, 0.0474362729174023, 0.09085274637931029, 0.04092042155042363, 0.1656717463446868, -0.15596230060875824, -0.032165605812021755, -0.0941590523653787, -0.004378554352697317, 0.027836779049197798, 0.05210125949631596, -0.03380186760557712, -0.08011219881694094, 0.03233248331739999, 0.015494526866762877, 0.06041541217341328, 0.08945348209252545, -0.014694361244373944, 0.12423316167171992, 0.009426244209112832, -0.05966237763403353, 0.003602668396350806, 0.08615271951371695, -0.15964878387843093, -0.074717571172132, 0.10754420060310269, -0.02495496979254093, 0.01960602900368245, -0.06480530594371814, -0.07886760280972001, 0.13888163318659347, 0.05932009097737797, 0.011540913253393648, 0.11326716636151996, -0.15770778996423615, 0.022013384324509187, -0.029854114531088664, 0.04809291418712915, 0.03568732347191701, 0.004486313123698145, -0.05058205186608004, 0.08535548268331554, -0.008462546164510991, 0.062209758722271004, -0.07677499407831165, -0.002678188810816132, -0.03875289494923674, -0.030594917382610075, 0.02012557958745399, -0.09544677502907903, 0.09687065557256597, 0.021185476042468968, -0.004094232774575667, -0.013156581028696148, 0.1078740820497891, -0.06362106733512321, 0.15829271760984967, 0.06838359464910265, -0.09008170483935272, 0.14968529502072034, 0.004299715738185317, 0.18286914800990306, 0.1258775534838101, -0.1585387889479656, 0.09968849422654395, -0.052635336659318056, 0.020097185205217805, -0.07008255098016673, -0.047087692937481405, -0.05895691848387462, 0.028461435430796017, 0.05291040289986518, 0.14621129574084163, -0.07611656416278899, 0.06501627870100621, 0.0017632941841317488, 0.12615183004362404, 0.09157501545564788, -0.04797019682551079, 0.00565388287895814, 0.13178318983947737, -0.04694136314287312, 0.028854655720796624, -0.10551471550595394, 0.21452465748983068, -0.06872874632689566, 0.08584122960363746, -0.13697684352707912, -0.04390642488407243, 0.04027032398191114, -0.10137615243593279, 0.09581942052771909, 0.17225170393966432, -0.05993388913349325, 0.04717092207183161, 0.08046330033206785, 0.007641165523974758, -0.02691537856775009, -0.08438599825908175, -0.0917747802688526, 0.024356810566705377, 0.082179766300411, -0.0006587134074910919, 0.08864022741112032, 0.04686384671937917, 0.01495743829171968, -0.02646586781053292, 0.011373482159036398], [-0.1326059466953248, 0.05805661301281849, 0.13513657593502368, -0.06892167772784934, -0.21647138594433968, 0.007881792262124949, 0.04199171296742446, -0.008965916215737212, -0.060228148237343966, -0.04526074805602423, 0.025784449971747433, -0.01489523755769338, 0.08950773378872856, -0.0177424969029811, -0.04171064903663925, 0.10074709332925187, 0.03741356779252379, -0.04940950041142748, 0.07446036139464021, -0.05920597349248469, 0.020863294430636933, -0.07737661625535966, -0.16658505341654242, -0.08876359828278489, 0.11023647311396421, -0.011677534779871736, 0.012352953613195525, -0.08529626227747739, 0.022196025374496362, 0.14303125896567553, 0.1544432455810168, -0.15316170106242782, -0.04508298268485996, -0.019316122061974424, -0.1806528502130566, 0.04056151301489634, -0.041740554562298825, -0.09275284147668125, -0.11655206364124977, -0.03980412921621471, -0.002256363062019633, 0.05681774086299965, -0.007549118935383388, -0.011538185207518144, -0.07275741186830809, -0.15034655695642485, -0.020529225084910653, -0.006328113163613705, -0.05787903566407216, 0.12432599907577314, 0.04132585251845294, 0.07659303464472807, 0.1158634024743509, 0.06573774290665545, -0.015357617769217194, -0.05755703887272488, 0.009257831254882146, 0.09470288426718332, 0.03826014583403286, -0.06343447186817076, 0.08179701425498012, -0.10145015583008986, -0.00877546420445131, -0.18088599916645898, 0.08528400978451112, -0.039555367406843005, 0.1276180537588805, 0.0375249097325129, -0.008258387589216754, -0.03055739522850958, -0.07345505247104792, 0.05426313820093385, 0.0034393668028356106, 0.03510967159140389, 0.056821546551146455, -0.012601583496376191, 0.008147519036384339, -0.10145750395052129, 0.030114680397352513, -0.17278041396767443, -0.1349627250202533, -0.11553620327468346, 0.03344549169370874, -0.01239568372615215, 0.02088137417003187, 0.0058667656125532715, 0.08927643441965857, -0.08461335783221281, 0.03845581550286566, -0.11911001084317127, 0.04826833731699842, -0.10230029772405366, 0.11004318178617672, 0.03715127520483749, -0.1487700576647275, 0.06607574941762612, -0.003961505320851007, -0.032603129294651347, 0.10123196181448445, 0.09864021002062737, -0.20912420354702763, -0.008667702674324687, 0.14030873776676697, 0.05712418281719343, 0.08039814303600826, -0.06838607922977061, 0.03611951040320841, -0.057380696454887734, -0.06247707159348375, -0.027855531007151157, 0.052463525349544356, 0.015148397217758151, -0.002678732681966694, -0.13512080211476912, -0.09505316586403932, -0.07425818952840742, -0.06686105580617242, -0.03798019305150018, 0.002640531756480287, -0.00955683309643359, 0.02455779460036325, -0.012517972829454093, 0.05826754986191484, -0.0019999438848907697, -0.0972507265427701, 0.00946717464199259, -0.03628660317961728, 0.04328540044576498, 0.019211288290186534, -0.08708556940467262, 0.015783448001783926, 0.06537065867869854, 0.04928655664547565, 0.029762081246740676, 0.06429841801046017, -0.08139192138460272, -0.09815837409517172, -0.08064230163505448, 0.16709415161542215, 0.03894961656229224, -0.0081667012299675, -0.13547205393995398, 0.05859107421831091, -0.04021130621318864, -0.10069274490282518, 0.05564006245935402, -0.03379486306827223, -0.13541257366718545, -0.02673900255028974, -0.09137702390779112, -0.10957176393114784, 0.14426470029016664, 0.020308812862388954, -0.11714968468895184, -0.08350314478347867, -0.005446267780206489, -0.11357201027902208, 0.11076493172221986, -0.03236732784943014, -0.008642409227867928, 0.020413505773338926, 0.11511482849517747, -0.07364947399519807, 0.05652625403788377, 0.016986926164717735, 0.05348606039758105, 0.01046002500154941, -0.01703968972702055, 0.02946077168086046, 0.06572931538236046, 0.09359680734300943, -0.0046140352226674815, 0.002705961725964677, -0.1553357779282604, -0.049838894099264626, -0.011991020026277601, 0.03758710115179369, 0.011463921419014811, 0.079878308420716, 0.16744279983564367, 0.02831183531914002, -0.012170878601486934, -0.13486164058041775, -0.04817136015718454, 0.02740926053610783, 0.027712416827342597, 0.037980235623355854, -0.026615535760549182, 0.06774607732841638, -0.04264612648945149, -0.09577718446475243, -0.014834487504986695, -0.079474807471283, 0.015145426167399684, -0.04861663444513439, 0.06894564964522507, 0.0905943274785091, 0.0685407975136211, 0.04879012720377494, 0.015568852960620121, 0.03117784802131275, 0.01789918913088238, 0.16331855184428581, -0.000255584155320803, -0.06101998068952029, -0.08484260542556675, -0.14138045987627323, -0.1119074675005418, -0.014407490195303418, 0.05126421608982995, -0.03223941582728954, -0.024398738762134765, -0.08034788704625136, -0.14976256392141787, -0.06959966448427045, -0.04243396953488337, 0.12440855222745126, 0.037386190193954436, -0.019550636192289646, 0.09558136218856673, 0.11573082908910279, -0.12069693734218467, 0.08454198283269465, -0.023415625622818424, -0.13162539089650852, 0.03331670053324775, 0.04466899263901973, 0.06876425806670768, -0.07079889681425862, 0.007492696834406044, 0.05577164072293235, 0.05474483041251319, 0.005644565875888787, 0.07284122372171047, 0.11359671151541914, -0.11272963769704572, 0.030115457829099593, -0.033045997141898174, 0.12674931052373947, -0.1062808687784057, -0.04388604785160962, 0.06668591736177511, -0.07948032713900706, 0.0883804548700077, 0.016366646831008705, 0.05230282406537845, 0.05698645038635556, 0.0559321344330101, -0.13601946370985338, -0.061205628090823715, 0.07336057845271073, -0.06041382669953285, 0.06420374480362748, 0.124519213923888, 0.011257384919350546, 0.06326806431270132, -0.05136670882044927, 0.11258005776772713, 0.02832668994526988, -0.10033655707916905, 0.022840608613551965, -0.019117955639835964, -0.11468738362450903, 0.04240212501614733, 0.23234155757805053, 0.07586735509236044, 0.10619418672750107, 0.02543055209783862, -0.0640636474152615, -0.05366693115298291, 0.14921932632227133, 0.16558393964913384, 0.0253814222256042, 0.0520198122063555, -0.047278579099457076, -0.0941809972015484, 0.10844900502182112, -0.003216543286827827, -0.009699917576139711, 0.0018879168053188744, -0.20819968925184903, -0.03458531582284208, 0.023199247103805155, -0.05126345784902987, 0.0029400666290281137, -0.02609337836137668, -0.03457536329808863, -0.04992152500094484, 0.07659347114913274, -0.21228686785596523, -0.03383661580897326, -0.03752352771984581, -0.012529420615517421, 0.04912232627918808, 0.10112388362555323, 0.0950259381174652, -0.05938424030752258, -0.0395504499941407, -0.11007109730437102, -0.18228967546129674, -0.10927595976632741, 0.027149954031154593, -0.12600493490978198, 0.14058640695553998, 0.006581375198139539, 0.07536536337825782, 0.013897930464080978, -0.0328288919833858, 0.009807118658643503, 0.1363625225752311, 0.08712775049227274, 0.0014861877064458067, -0.03955631816176802, -0.07327463190894216, -0.005608062371875253, -0.05471999417853065, 0.02362627551727955, 0.1609744928959705, 0.07943674762441881, -0.055426538176549266, 0.009663362204683078, 0.06317434104464706, -0.016474950428164367, -0.08230052538039584, 0.06914223607179922, -0.012996743350811009, 0.021068780612516526, 0.1324466859399812, -0.05200526972661375, -0.09461361271500962, -0.08403270784415477, -0.06901373804994167, 0.12623835258133387], [0.013304103388603966, 0.03486849246712392, 0.1411665254818138, -0.010934188971122232, 0.1288511536065123, -0.05115588874026037, 0.0030953823797377576, 0.12882591752647377, -0.013797251672382174, -0.10268774145669551, -0.08008918103429906, 0.1687341502737254, 0.008943351102359998, -0.023978668304596936, 0.21508363241395362, -0.012509961341970815, 0.015932372530099034, 0.00042104546320421694, 0.017620269618063962, -0.035001862495449364, 0.022822794995987994, -0.03868475902626086, -0.018092364890071395, 0.012186071057635773, -0.1369524072000768, 0.11965780857144866, -0.03708482161597267, 0.03259527327123559, 0.008518820040651218, 0.06357775304199031, 0.08879537409982509, 0.0028345128724692635, 0.1480187942727686, 0.11634070168933631, 0.1424816433932388, -0.0797946249706629, 0.04771947235173286, -0.05825266228393751, 0.03478960780752523, -0.008594311593688364, 0.021053226172985728, 0.11159051746918347, 0.1350368851423886, 0.034474414639592055, 0.07005603669032205, -0.0002403222526037985, 0.06207428466257662, -0.15641791719097012, -0.020114844810694848, 0.11512770621088246, 0.14577133339942994, 0.02522352297802757, 0.003620076273368339, -0.04693028657307384, 0.007697006816348492, 0.004614302224888888, 0.10457441748293403, -0.079283247816629, 0.017952486953708175, -0.05881958975302552, 0.09485351891357974, 0.1336825203888085, -0.011328552534906059, 0.13595981016297037, -0.07308381501017375, 0.01600291293895399, 0.06770020950286613, -0.0975365347125614, -0.026557290623378537, -0.13794994715511444, 0.011575130106569461, 0.0463488328140617, -0.020779362719758443, 0.090824443124245, 0.06624660375186824, 0.042686589365759205, -0.11850546187914977, -0.01812149339722711, 0.04725041684336954, -0.09174668511150427, 0.00028763608971217543, -0.05321430689782743, -0.0325456205246418, 0.051737070560008536, 0.061786549263168046, 0.022109589163442942, -0.02723079631449462, -0.15378086978713662, 0.1407628005196513, -0.05600676919631219, -0.0750728383804365, 0.13085711765205352, 0.16095210215975092, -0.03293518611888058, 0.1884653453052501, 0.024619839239586425, 0.01705363761135077, -0.06550339231580114, -0.03824516170820855, -0.16330361072546698, -0.059513756034510104, -0.044237731550167296, -0.020717411546999864, -0.02815314995828094, -0.0707322639525633, 0.16348599078217682, -0.020778618934553295, -0.031986290074369914, 0.10899573443401916, -0.01903306138218724, -0.03604117187150691, -0.06567414062080403, 0.008399148235378233, -0.03559291442477561, 0.08506263050839508, 0.03980519977919653, 0.10023794237002277, -0.04759658217804973, 0.0418614296497985, 0.001267544509701881, 0.009919791871650027, 0.12601290424263517, 0.14675549944462535, 0.05442154052056574, 0.11538513454343732, 0.07393122447864836, -0.08232578180680478, 0.03755240291687183, 0.1034900984591172, 0.01953572515727032, 0.07081202131934475, -0.07478351074051466, 0.026424930722185432, 0.10482109097717773, -0.02285878880533995, -0.009861323796873895, 0.003477077372833732, -0.07237029198214744, -0.030977616427029106, 0.18488511605582125, 0.02926631238586224, -0.039632757832236264, -0.05243021576631994, -0.011557382678390113, 0.10984167195453194, 0.060220517527946424, 0.06716918479892901, -0.12614339893949336, 0.052905852129416, 0.023932324813930955, 0.07539687038153571, -0.05310051525717678, 0.1272517283801756, -0.03164677810687104, -0.0838119354698033, 0.04094757280045561, 0.11337690525322515, 0.0017769786814274095, 0.11084041607135474, 0.0009390620761038986, -0.10771212074277871, 0.022551819641898806, -0.023441412383527774, -0.07552074901767566, 0.004657806336543279, 0.04785685536486148, 0.13290350995187122, 0.07975182444727826, -0.037398409247034234, -0.028860406439299133, -0.0767927675709255, -0.1009191955665346, 0.11479808223415444, -0.028572005698608578, -0.05537048309393628, 0.02720033288436097, -0.06862732753703545, 0.03753111104743877, 0.0211996514526746, -0.12688992897815102, -0.01376853296911754, -0.17133332723266864, 0.0827924083695464, 0.1597596592973422, -0.042340627752728545, -0.020667656749407733, 0.039511261179235695, 0.07442991790700719, 0.04692662100180585, -0.06836452594277961, 0.06495637706253894, -0.10916799821563142, 0.06098487890168957, 0.1643690681648439, 0.04652614322613946, 0.12092326941093785, -0.11652347439901276, -0.10645394054713253, 0.018172468160759292, 0.04303816437453159, -0.05272117602529974, -0.035286557344172104, 0.06227535055109994, 0.013527801900183803, -0.03573031042861655, 0.18501448835353682, -0.0783375141991867, 0.128104430962166, -0.024286383394810367, 0.013515469645891474, 0.10051783957978486, 0.0006109674058870679, -0.07854423753451228, -0.12018345580655368, 0.03507997060401022, 6.708671213491429e-05, 0.022266565481024198, -0.1090377103026591, -0.10073427117098815, 0.08557680218521656, -0.12191673636452752, -0.016924264278428622, 0.036552932987693854, 0.009561839273324227, 0.11436061898911469, 0.1451354169649931, 0.12452867723843303, 0.06396913075636347, 0.00780386649325012, 0.1267929151431857, 0.09493450578616096, 0.168846158271796, 0.047964571406394596, 0.0009269140833900195, -0.05634014059431235, 0.027165943724744367, -0.15014479049495025, -0.04037429529666685, 0.013783153716662984, 0.09090440746868562, 0.022689822369396265, -0.037117234087977624, -0.0665231775465617, 0.05365104178764534, 0.17158350859332003, 0.05616866522323242, -0.023946376934322798, 0.07202487725665441, -0.06057174458444867, -0.012077655180153097, 0.18761652554240116, -0.07261025232353112, -0.01673424215262214, -0.13599437057441938, -0.13620313548281762, 0.11707575653571384, 0.05058934929613369, -0.1076129429890018, -0.0693855629195151, 0.005802160203473694, 0.003702397828050564, 0.055444879143881784, 0.09955391300861127, -0.06780598806851128, -0.02219804426879483, 0.0008483937204295144, -0.10650655543581021, 0.05160786797803761, -0.1282004100451751, 0.09032759081038642, -0.06491349360999067, -0.00941819956048908, 0.0796360236344421, -0.004928483476213353, 0.04536908926771187, 0.07571580774873628, 0.014981165997122452, -0.023173271683431158, 0.05399409631020654, 0.08967113717557816, -0.11022455383821163, 0.05471606535807111, -0.11754560827000272, 0.0418410369533076, -0.021033142661596588, 0.006453937822194875, -0.05417416939657893, 0.09644143512151657, 0.11380921817408826, -0.08539849789449958, 0.05165267857443442, 0.02104282473970231, -0.18133099030280872, -0.02391988977232805, -0.06790350287223224, -0.06799149824128398, -0.018956028802240354, -0.023700378300386755, 0.11064741945575128, 0.10533285310827464, -0.07455341280971274, 0.012357931228552447, 0.05026145068307916, -0.04268371835034805, -0.15947563114961025, -0.020598381949293355, -0.13030883656219971, -0.029754876102305993, -0.020910866059806493, 0.027079334905060665, -0.008567266784908736, -0.06080007525784045, -0.01904781523263851, 0.11260146103164191, 0.028432293184585736, 0.06770063504461275, -0.058142251062748854, -0.0718820560555486, 0.05419739042301819, -0.023992644710818155, -0.054813034441085304, 0.0006112031970172297, 0.13140166780337978, 0.11758303630443148, 0.10205124876275837, 0.0026661946949801067, -0.15391803355805153, -0.061458598093902125, 0.05991346231816636, -0.02081285606145898, 0.11938640069351751, 0.07347298484435551, -0.07729495269312588], [0.1188097998557857, 0.020734136938897644, 0.052797514234857734, -0.08537677188955084, -0.06943062081823874, -0.008643609603249272, 0.1275073113378309, -0.0463978537145993, -0.04610624272491502, 0.14527191420928295, -0.047947780876970825, -0.0882362392084185, 0.04991333907816604, -0.0013270927165868023, 0.02396824253145552, 0.0917162980092202, -0.10661454504167725, -0.0676378272988178, -0.07640540114302861, -0.028855097348685778, 0.08222457274567724, -0.17973845561346244, -0.007953771449503872, -0.011380059798234936, 0.03888662964193841, -0.011221707479824256, -0.10656943094289588, 0.004611766043579283, 0.01133314015218243, -0.020650595896083312, -0.0047056021682265175, 0.11958795421006091, -0.06085066763993357, -0.018322813331440712, 0.020125252898597058, 0.12443134658586026, -0.05752316778397429, -0.12069231093611246, 0.061983410158682355, -0.019100516535617097, -0.12515820194336252, 0.0019184150592449448, -0.04523418668928115, 0.08448617644418073, 0.004351582177315996, 0.20009494579661946, 0.1413474870638865, -0.05625599364171863, 0.09341546603684357, 0.0348643029936196, -0.061641916208546414, 0.0018486621406850591, -0.05141034199683087, -0.008847830313961167, 0.11360128633821137, -0.016158682235731234, 0.07342157046008005, -0.05493348247869024, -0.025003758125206797, -0.03981269613636297, 0.012123640624702487, 0.11228302056472259, -0.06001880223431946, -0.0703840023837758, -0.07752076355719904, -0.08568537356709371, -0.12749436541581274, -0.033374865411792444, 0.05468800887778952, 0.05272791319037482, -0.11801147255697798, 0.02293225120244451, -0.05003421444763873, 0.01676722522545412, 0.10437990554371585, -0.012389306358793097, 0.13535182011823513, 0.039370698401207625, 0.0398298836099761, -0.04504490240992185, 0.017817019100473334, 0.04839470384068724, -0.055785890022891534, 0.009959466794689351, -0.058378239294627134, -0.0141482384609552, 0.050193161890051824, -0.012039676219231289, 0.014271471843871371, 0.07453091556069937, -0.004007824192869627, 0.0787288412771213, -0.021106442413862933, 0.006528535899754752, -0.00980512490955082, 0.059832230296911766, 0.03718167933805495, -0.07270881107937259, 0.07227360219901671, -0.08215140376559772, -0.032543586279265235, 0.016760187381397354, 0.09734223258776145, 0.003826598417589948, 0.04030256077689739, 0.004221364673311706, 0.10578505608375201, -0.08002453931215, 0.009206033960275471, -0.08120594731952692, -0.01743218509002613, 0.06571792924334852, 0.005756123528732563, -0.11171106592510148, 0.08044373131707577, 0.23999893336033376, -0.06815138234767112, -0.09338393278936793, -0.06636230803565829, -0.05960262943640014, -0.08044093851181428, -0.10709423064920327, 0.01855595126927231, 0.20899163750491812, -0.043480524598319525, -0.09241126474481108, -0.0881967341344459, 0.07317493496421054, 0.048413839760761364, 0.025967564402121113, -0.0962946551969303, 0.049727497975747416, 0.03311838617236794, -0.03709648832832271, -0.014653531380587611, 0.07203073963650358, 0.06420399837986027, -0.05875863226602391, 0.0009052540384398889, -0.021307284327512888, -0.08399068731707257, 0.12322882887232846, -0.09478491953696336, 0.0997942086634816, 0.005699408743623395, 0.03470457054694168, 0.000751134879532536, -0.06823624781158356, -0.0579362271627914, 0.08167572251862804, 0.06445357250841771, -0.0418450847706406, 0.05699566850041177, 0.054984284952561815, -0.06129008160226405, 0.08539728085433214, 0.04298327727863192, 0.022108510194094533, -0.06724320254464144, -0.12966367362573192, -0.09642793741452539, -0.037754797263460434, -0.0539112564434353, 0.014836379688035794, -0.016215012878338073, -0.06988007482835393, 0.12665726808310382, 0.03041546018567406, 0.05593274158221398, -0.003462825520631088, -0.015759407276898126, 0.07315209610787879, -0.004600499267892187, 0.031262856969060795, -0.1127859530109126, -0.05252753459734611, 0.0970640184019649, -0.004092322083755342, 0.04530661154676919, 0.04180217371570198, -0.06079826222972704, -0.01785188804994699, -0.014317610859371322, 0.14211795869443247, -0.11220282392443981, -0.027810600772588758, -0.036212325339603786, 0.0751376505185461, -0.0009424830652011187, -0.020642094065726608, 0.030197671622433357, -0.03475594894100838, -0.1451728584403367, 0.012727345023783561, 0.05514242279448948, 0.1451474296592892, 0.22886517424166455, -0.04314487119836833, -0.1093626856976555, 0.05454555779446442, -0.03817855567819528, 0.06048180556366656, 0.002203026746170239, 0.05410347210703485, 0.11437563025697482, 0.13451672011975765, 0.035979788903510224, -0.1599452861223567, 0.10992749791955012, 0.06768626690655817, 0.13201786444234764, -0.03743371067777176, 0.0629074578860672, 0.0883436744031548, -0.045038060301695965, 0.0010336988678886615, -0.01914986719359357, 0.018393793723005543, -0.07295839799313834, -0.013527350108723076, 0.012476605867723528, -0.05969496227971882, -0.06154336668880424, -0.0016910740537207176, -0.0908635760291327, 0.054211725203007, 0.11396345206899816, -0.0390002138936082, -0.030812817690078143, 0.01316721149082294, 0.021556055247531722, 0.05191500437568605, -0.033516440839290326, 0.09655827574439421, 0.0573156108652963, 0.04218745440817132, 0.014216555179038354, -0.10183445556088858, -0.12415589429218034, -0.06079875505388307, 0.03797004623374225, -0.07164831444788786, -0.04361201102868386, -0.06658605191747938, 0.043417647527916874, -0.08574262687028857, 0.12999892168253133, 0.07799599349830429, -0.003513303417797036, -0.02014880119970618, -0.045380244525765355, 0.08520502959809016, 0.006480397332327618, 0.03740511557524445, 0.07800642166769979, -0.015494355611582578, 0.008359888944098613, -0.06752789348463799, 0.10032223217992484, 0.07539460418258839, 0.05708092420374449, 0.09238618474954735, -0.08890476983863002, -0.1478235127176949, 0.019448527475697423, -0.12971059610065488, -0.1293669384069384, -0.019956059454331425, -0.12170862883356942, 0.02924005541907773, 0.048797616949519125, 0.03629404934722225, -0.03649647883811009, -0.12955585174216736, 0.004910448796856577, 0.01966427215845729, 0.04325883561767238, 0.028628870242987655, -0.015751827795277038, 0.006687653670523041, 0.07710677194603656, 0.06107068613066475, -0.032953365018760485, 0.1346783195903162, 0.014888330845777498, 0.05747333261002463, -0.04284699311251171, 0.059428878984700666, 0.02171274979067637, 0.061451622919986036, -0.07147897886580351, -0.05186106780431253, 0.019032147528212993, -0.09529519132968266, 0.010761184099623754, 0.13669369611399163, 0.014182379310209502, -0.06754378614641542, -0.046444691235793235, -0.0042934353475321, -0.011629435531309337, 0.10501654466862648, 0.06782554517709397, 0.0010288070270637053, 0.07718775643097639, -0.04872965794131371, -0.021592730765127337, 0.04031805135722638, -0.025857534835812337, 0.044165168014494556, 0.07827136305373066, 0.008217032224655488, -0.02187269415519077, -0.07831315910714835, 0.03077298307222285, 0.0033180931680325673, -0.018043320055362893, 0.012671710305412514, -0.037159523635401655, -0.05638860432065189, 0.04125368037138913, 0.082155587847044, 0.0869006540217433, 0.0723205686611158, 0.044211986789320985, -0.051849836668428226, 0.034195420774935856, 0.1053099532986037, 0.03915746660725272, -0.015665720413223335, -0.0768234215360412, 0.039299768270206564, -0.025558923103985838], [-0.05987668713848812, 0.02029672249131501, 0.07842257846654942, -0.046038096048201284, 0.05648033646033995, -0.049058203608402275, -0.04890534888038168, -0.05040821688068528, -0.05876683789148992, 0.04610161083744382, -0.045184969986788594, -0.031724758494454226, -0.006979938405149533, 0.05377924832672085, -0.025170373509245274, 0.048519606544733404, -0.03487663689822364, -0.05975049115318453, 0.034274832924566144, 0.008329375867068795, -0.07862725499301543, -0.05673403771041175, -0.031213282555836216, -0.00019783171033785, 0.05824245779575736, 0.035453623548530426, 0.08533498189851038, -0.008554016992747946, 0.06939346898678828, 0.03553382883329482, 0.0029218375353141745, 0.11375627806864705, 0.09787423368635138, 0.11268950521481852, 0.13260052365785913, -0.10290836938031844, -0.048941919621056734, 0.06742500650949883, 0.049522602726485544, 0.06876722736523294, 0.04216278300122611, 0.02940695927965993, -0.10659203374352008, 0.05443565216549591, 0.04041918558313044, -0.07906455945129463, -0.011744787353674922, -0.05075539877098209, -0.017927438892173634, 0.04418120342558123, -0.16652746394846724, -0.04847298666998861, 0.09381594949304892, -0.03932496296435442, 0.04202709027060413, -0.04853075043768946, 0.09963676821533256, -0.03834733481651644, -0.032156336637975964, -0.004793487787046803, -0.07510245509305608, 0.05022556046008703, 0.04155819059712889, -0.1287225882768184, -0.05779297514867625, -0.07282355798459296, 0.07465755430305271, -0.0189555831891114, 0.006134723037295171, -0.02921435287064107, 0.0443143819759733, 0.0320709905982968, 0.04496339166563288, 0.00367124736056646, -0.05635187428225903, -0.016225833301072256, -0.06212588531482607, 0.08117924145676719, 0.15684376186993768, 0.039424637701275474, 0.052743299704165074, -0.1604637848171674, 0.10274454903512352, -0.03958386224060473, 0.003643988127150241, 0.030787792368950632, -0.0942861740064393, -0.055504618667351686, -0.014326684354093658, 0.00041805690437992434, 0.06150568429615361, 0.055394518830821304, 0.11182113688839264, 0.05582782750651812, 0.02959150967195337, 0.003017691098088318, -0.06594458788355166, -0.14567786635745025, -0.014188589810898598, -0.09205424849088395, -0.07430698336926571, 0.011447471898536883, 0.09939569574639243, 0.16113464482417217, 0.09217998244187586, 0.04902331724481263, -0.115833082976636, -0.037571186639969605, 0.047845439894042815, -0.054174415826371794, 0.08313889643358768, -0.0974890721831592, -0.09214185790410863, -0.07401110107993901, 0.01983879321208366, -0.11269438799509084, 0.041390555447526636, 0.14271067723729794, 0.06193699710273915, -0.09351495747137484, 0.0994720515371971, 0.00025358025966362057, 0.08982398127650988, -0.016715833094031126, 0.0770784878199918, 0.0281455766780651, -0.11143780564483959, 0.0645091459242237, -0.00860502050094958, -0.07520303689208073, 0.043598556607928704, 0.045485013993478554, 0.013082309527530181, 0.08051612474036074, 0.05057444723339542, 0.06526018082410232, -0.01727330769335156, -0.01907700125273664, -0.14547150028419273, -0.03335509665119302, 0.0267418027958491, -0.029587948404016063, -0.09125026734345792, -0.04168030145222804, 0.087720877802687, 0.08196571150273574, 0.035709160505736505, -0.13527311735673234, 0.05391550873339741, -0.06278029273206127, -0.09819155260691646, 0.09654551860772768, 0.06916392150696216, 0.032501688051855604, 0.13725404879048636, 0.053549190771445675, 0.06679785190037253, -0.050401956532347636, 0.11206893254924886, -0.10799583608322731, -0.12906158650326147, -0.0018994136408259444, -0.061367894363081946, 0.06830560053750348, 0.10965421461405245, -0.01564371827160731, 0.18692167254451403, 0.0654112151812422, 0.07319086899222622, -0.09238693196686032, 0.14627810021090593, 0.10216284208035427, -0.12875037901132416, -0.04098673593154003, 0.008621923856310654, 0.03787345484625445, 0.027808941957798317, 0.04180779638348009, -0.15478318131437516, 0.02695920573104109, -0.02568553944125415, 0.11688595838837174, 0.03435358426760239, -0.04966370748379665, 0.049977390023248094, 0.16275278377039415, -0.014186060822830016, -0.1412677483525301, -0.10205644526801808, 0.13718342572312753, 0.08561725000868647, 0.05532432562410557, 0.032202829312891854, -0.185923520358185, -0.07376965330496155, -0.02421366661854987, 0.0460160182710915, 0.09521573722839383, -0.07214908290430273, 0.02527968511872908, -0.07783746807211324, -0.049117738999929286, -0.03587222592577024, -0.13261958445415176, -0.1218549104960321, 0.08089521402364735, -0.042713366091261896, 0.10154506812907105, 0.09688624614117171, -0.20006185130919205, -0.005721091558296084, 0.08673295845750767, -0.09263695185549868, 0.03588537331486024, 0.08260900155859416, -0.0917104888111094, -0.057403365020135204, 0.0395088335607775, 0.005413069857026248, 0.03371355677569699, 0.0057868143701055455, -0.11836508335498411, -0.059728332029399804, -0.05446756408416062, 0.08820307229354067, 0.04831606811114034, -0.085196019302675, 0.07758487156674271, 0.005594946584458478, 0.053166732519764656, -0.016447421725493818, 0.00366050468724687, 0.21143149272250175, 0.07346161772463829, -0.04912709044097318, 0.11112765245727083, -0.04930354523596121, -0.024433787850032175, -0.04398880666340749, -0.1320744112062333, 0.18920521467312704, -0.05332843734339686, 0.0023432533697172915, -0.06280634902063244, -0.019591899139451318, -0.0008051994624964778, -0.14987125681824295, -0.02825112213599098, -0.0032933819371835037, -0.06424374563282238, 0.10680172174992918, -0.003910751437145543, 0.0941144200515913, -0.04369074982750636, 0.12431611285119563, -0.015408408801460842, 0.07529008790322676, 0.08823846423704183, 0.06760755364148226, -0.04017842091657658, -0.017407525350977247, 0.09979104974094603, -0.06124064844387249, -0.12944752981066293, -0.0897663520217818, -0.009577105282646214, -0.11280018367326415, 0.0045355951328452295, -0.018230921240507264, -0.18512608059637586, -0.05257421425695932, -0.021059192651105393, 0.08801007816508338, 0.059098675862965334, 0.04347189894778673, 0.1418754654167962, -0.13997755872383724, 0.0019364825527004989, -0.03051404624923977, -0.10099234634454061, 0.029872309025935233, 0.07735321860937219, 0.10762958017304229, -0.03804201606323961, 0.04195721640668668, 0.08672998349795569, 0.0016644087051588866, -0.11009630791028821, 0.005090184780844933, 0.05646463015487796, -0.026069180276406173, -0.1536227129514488, 0.0419526983459589, 0.06894714134105759, 0.079598624820064, 0.045421510572313424, -0.018563136434810716, -0.022517359175714097, 0.012273465817225547, 0.14061974854425818, -0.05412912180548477, 0.0037272492068402435, 0.12431989227153804, -0.09806226135140345, 0.08442825330815655, 0.005218273195312412, -0.06857388728230955, -0.0871616694833285, 0.019071052991011462, 0.13687181412437907, 0.06441345559080548, -0.0515299851357736, -0.03360429650217155, -0.08584465510412183, 0.009762275656842035, 0.026199880677884594, -0.04664484560830761, -0.152568305285838, -0.02221994686332692, -0.18007133229732256, -0.0458209045657377, -0.09191739743420137, 0.016417167216039797, 0.009903739256317963, -0.1282363328080644, -0.13386514468239186, -0.06009077737272289, 0.00674657174758266, 0.09705020620045442, 0.09569863221220243, -0.079974832232963, -0.045989480731319365, 0.00576349531443473], [0.08795655228299168, 0.0357824225514909, -0.09086690721311635, -0.037734731406013015, 0.042509165975486894, -0.027079112953852964, 0.03765934342615783, 0.038655485623884406, -0.022543311527823996, 0.03140527499215864, 0.06676551199036068, 0.004102536410013086, 0.13564104621950135, 0.03783902540749812, -0.0830140139575987, 0.01536169739696628, 0.031629702127054654, 0.010622804026694863, 0.027607423929540256, 0.058723380038409274, -0.1117847490622262, 0.062191542695785695, 0.057577547994933635, 0.0015568821954752507, -0.11514275774328818, -0.0803332351651299, 0.061164838301261265, 0.09977184964353634, 0.042988483213930034, 0.0629072468114517, -0.02376226426489872, 0.05125046696723219, -0.10178957105600711, 0.018308430805651123, 0.13390878173835416, -0.1410112493240786, 0.13205113822020856, 0.049197408133111624, 0.037558556143266204, -0.16894670174419743, 0.009400477338498421, -0.10198288851881376, 0.023449850591644474, 0.07359014578766551, 0.057084790076640815, -0.03310470169674175, 0.057276389822202914, 0.05260312491518574, 0.03945595046358539, 0.026021217615962256, -0.07891498269236014, 0.15471728307687427, -0.054602868758314126, -0.010255068584922452, -0.03328401855132935, 0.024199581134308142, 0.10307873841802324, 0.009225097507331803, 0.03531295278189122, -0.0984492979858792, 0.02148686996845145, -0.09395890300046038, 0.022317895777062943, -0.13184537059097784, 0.10585962154281223, -0.015185865208817135, 0.04215158495536333, -0.07329521749782432, -0.012605041228940368, -0.04425159815452515, 0.091464878641141, -0.06210460921992446, -0.08973313539787055, 0.052897438385567055, -0.06312657478228959, -0.06584222020487387, -0.04091376031163113, 0.0022972328980988567, 0.02156755983498118, -0.14965728131773048, 0.03276058563460537, 0.021879957880193594, 0.004861329097061006, -0.01824574019180295, -0.024546254033363146, 0.004530034817807788, -0.018215266694834427, -0.04403668731796515, 0.032549471139242184, 0.11113903261524517, -0.0208812715573594, -0.061383625167642404, -0.0349838108841975, 0.0280698603796914, 0.021645015125529958, 0.0159271750544342, 0.08578780667613618, -0.007394023240947658, 0.10190094809506778, -0.0952475949730202, -0.008909575370268027, 0.019857625563094818, 0.08739400098479634, -0.11195014200242562, 0.07750633889931058, 0.10057082745003185, 0.004365102918403695, 0.010758083685317086, -0.06787292762022072, 0.01243934333526937, -0.01913508905737422, 0.0023870316965784837, 0.0275600225141662, -0.05295758581632666, -0.07988836621585894, -0.019169451576061498, 0.05445754149130066, -0.016157442981273907, 0.07185155753561573, 0.07312842938272693, -0.11480178366920835, -0.10155181308348836, -0.1356360077685436, -0.08296050957785205, -0.074184396848814, 0.08507631780992045, 0.003485577941133697, -0.047378385575991715, 0.09634443362858881, 0.037364819215693304, 0.019502681807551586, 0.04974206701016641, 0.06320038674630139, 0.06327127518507036, 0.00457733007362634, 0.10363851080241858, -0.1250268497161211, -0.1801077131795656, 0.013783504404948035, 0.023978198768053103, 0.051959325399213094, -0.06007515691512616, 0.005655313039153978, 0.09452555700472445, 0.024962282698765537, -0.08093858730326617, 0.041754533651987884, 0.27958199909877823, -0.12239591370512483, -0.04263872087938135, -0.12743688989431184, 0.0237342641684139, -0.02827213853999468, -0.11835397129712978, -0.009143054814190208, 0.0020464488164393248, 0.01958420427200096, 0.01630861829864717, -0.06759009949843697, -0.06757902128694977, 0.07819508669283236, -0.06096837869033336, -0.045634574780988674, -0.07957379873290295, 0.11613778640381665, 0.07317731831792615, -0.005352520370406966, -0.028872819120300208, 0.11244817290566739, 0.00156632521779175, -0.07572015001889523, 0.009421135015971267, -0.1028158059856508, -0.10206558626138967, -0.04608730254810134, -0.01437371433183589, 0.021764501153496936, -0.006914895920464654, -0.0897205600381334, 0.01908208562682088, -0.04451968889781598, 0.0676582957809371, 0.10787093386824399, -0.026624047461375918, 0.09987370580853608, -0.020985006996969733, -0.15232215636497026, -0.026534812414688743, 0.06209519936873389, 0.18767028084449655, 0.10273102025751943, 0.1495697760986018, -0.03622335717620555, -0.08745155234304325, -0.09942758079918158, 0.0025410850128153545, -0.07154782943902982, 0.022615634036486743, -0.012825953651307067, -0.06034843493999339, 0.007137385702334997, -0.05686166418085292, -0.08761279902473103, 0.12374763745326459, 0.09090035205296065, 0.096807117458841, -0.12007163117298647, -0.08353863717823916, -0.09594655021218437, 0.06592914811483219, -0.021281733177776905, -0.17994629566223055, 0.0475376408423254, -0.016859015062062627, -0.09990039163867703, 0.04320021152299417, -0.0716884380346718, -0.025301235038138706, -0.13111738175594861, -0.09317993528138414, -0.11246517847244576, -0.06840005748609997, -0.06953745646748043, 0.020702468493250206, -0.016612596699791784, -0.06681931575595257, -0.008196237109895232, -0.18759897449178942, 0.12643166727300115, 0.059128947558621775, 0.04665241790655163, -0.05907165260847462, -0.036580080036289354, -0.09282028778690701, -0.07564474474229094, 0.04173257092462343, -0.02529669433799975, -0.026587097215027642, -0.07854136875761905, -0.18396330203882502, 0.15790823203249818, 0.04105388735313062, -0.03924849897462349, 0.016169201501371664, -0.06269525635028637, 0.061337816988184864, -0.13743739586855205, -0.27550701195829086, 0.05282321155183784, 0.03071309118060349, -0.09210856741623302, -0.025111222396000023, 0.025486567370612234, -0.05322322150617314, 0.1046511455322007, 0.13334713142003182, -0.06320216710462079, 0.049083877412732874, 0.04911061415960902, -0.10497243961762336, 0.05356208608741611, -0.056851356469995735, 0.1499508892646823, 0.029145506534395557, -0.02898504722074257, -0.05489360158698321, -0.13762429113506816, 0.04221828524940008, -0.02130791452217455, -0.0905491747793751, 0.06365836435788183, 0.015727178450345273, -0.08850650303728393, 0.004104529914024231, -0.03939847273925383, 0.04819262877076713, 0.09679921211782148, 0.04105148275952306, 0.033469689152000257, -0.01491385047070236, 0.035695634610802315, 0.14351677343320543, 0.03309318033464578, -0.061319260896787145, 0.03968176472096747, -0.08518539255400995, -0.11958458585648823, 0.1394130262854362, 0.016356410725224507, -0.067208800921786, 0.049859250698447745, 0.008504646866274643, -0.040083375004381985, -0.02311133630205753, 0.04467587534352555, 0.058230864511172584, 0.06277453132438608, 0.12088344978078819, 0.023038972173509652, -0.11186173264468285, 0.048795381011282266, -0.0951118322985738, 0.09750604416847089, -0.0006043895481047927, -0.068825370484311, 0.20663363790857356, 0.16141879625045322, 0.10853425856993258, -0.11203685597332029, -0.07444528441305598, 0.018609117163090445, 0.04362740287871058, 0.08068265847688341, -0.01736047944428085, 0.03531827713387516, 0.011772546910616096, -0.10501678453477994, 0.0815500241545929, -0.1787526734947199, 0.11644392813308177, -0.03606198104520313, 0.04685605946113423, -0.05081866389294329, 0.14737972455046625, 0.04521412549494461, 0.03601303319066607, 0.13453109186839593, -0.10455021392461473, 0.10929581420012108, 0.01302590830513604, -0.02041584060360321, 0.03498161337382794, 0.10299700899588013], [-0.04494554608894904, -0.019208364888184882, 0.03967711146619389, 0.07254389214979161, 0.016440109187722946, 0.01920103904445391, 0.046245088638858886, -0.1476018338208937, 0.0024401441912531288, -0.016025493285062885, -0.08398821304766299, 0.01390463522389601, 0.01742821290854497, 0.047075829064356825, -0.10679153488539037, 0.09694886664551386, -0.021283346623311907, -0.05907323623632683, -0.0903425064480849, -0.00014959732608787378, -0.022192656175172056, 0.04784616748147757, 0.009974904825563081, -0.09365748458992712, 0.05564590312162603, -0.07432427931503696, 0.07083555212868786, 0.1337808915742478, -0.0017671119901111194, 0.06835378616246382, 0.046177642477141644, -0.06670686775274841, -0.04637429596923074, -0.017111329576356502, -0.10876259532814266, -0.07605036574479097, 0.08700070665974556, -0.03393219528463842, 0.05185161936272227, -0.04655751906282906, 0.03328397203884733, 0.07796246132077382, 0.03296169132603052, 0.07399646127444354, 0.037033892440414086, 0.048072563886533574, -0.12991135525321823, -0.01669716650773865, -0.05121387658667982, -0.08222152646037954, -0.06660059915460628, -0.024733768139246427, 0.11402234156865813, 0.0741042381090818, -0.03243376978548651, -0.050002412615038155, -0.03205420221831761, -0.005429776988897311, 0.034781927202075985, -0.021216386604893597, -0.15747541839109222, -0.05782047815265747, 0.1178965327720237, 0.09087171874371974, -0.03027658580551466, -0.02187552549872469, 0.03198468318559144, 0.08245359205467347, -0.08246215142592435, -0.011923175987333699, 0.112820114344363, 0.12679518131668796, -0.04387891097203884, -0.13074512931708868, -0.05320116565609593, -0.027269827097859745, 0.10213027526473721, -0.026913350688579037, 0.09366040341664564, -0.026488555420225626, 0.0032827036895506354, -0.06913781743897629, 0.023765187127751886, 0.09805024881324685, -0.025255879899220655, 0.02607513892903807, 0.1408594341366602, 0.049401971975600784, -0.1322468805829051, 0.06134138089572693, -0.052127485820255656, -0.1345739997475052, -0.04486709504112705, -0.041588144783205404, -0.16726661607853477, 0.12399412752526795, -0.04385561847659238, 0.025422167616642104, 0.12347070576457445, 0.21284900005416357, 0.04798088812302794, 0.15886203136285454, 0.036049650965278054, 0.03231962709028997, -0.023831006332855575, -0.10959225179401705, -0.0256876369557138, 0.009133270234028032, 0.09332040895845026, -0.03588653339919714, -0.0012263362325208194, 0.04017580346694983, -0.03494318730259673, -0.0025950790946951178, -0.0839472117734957, 0.16243661157876194, -0.08433125110939499, -0.07598177408545505, 0.023081617861965522, 0.03079315870913011, 0.19451749855427286, 0.09034900821590011, -0.029946969293281642, 0.0003256748892476158, -0.022467028736941296, 0.03100451070180028, -0.05160731207992444, 0.1820114085653684, -0.04004090553742706, 0.0178081171770773, -0.09408455150192827, -0.07208133046141574, -0.07462122098270135, -0.08787152571469849, -0.0388406680947684, 0.013627802015918998, 0.04526309392132285, -0.12104760465273565, 0.042723601327693005, 0.0033062363195827536, 0.06618322083429427, -0.017404713625035022, 0.07363141181300278, -0.04132462672803454, -0.07894045187969242, -0.07958818801085478, -0.14280157248061157, 0.19137325265626562, -0.05896261140975912, 0.04305067634910064, -0.1856597412038263, 0.0559456590145633, -0.07709304607184092, 0.05556491568297815, -0.020679141929814453, 0.08067652458913951, 0.09082303026198266, -0.09169951524491415, -0.1269102333711593, 0.06938824745590713, 0.06269802223802716, -0.11155252625303955, 0.12425848807006895, -0.09601656369416095, 0.10866304554425404, -0.04004293987642905, -0.022814702858100732, 0.01484472224424708, 0.16962440836252368, -0.06234516797414544, 0.0323293052293491, 0.06370790364933104, 0.016894951583840138, 0.06580681070817704, -0.11799127783284687, -0.05368637168194549, 0.03588431708501885, -0.07161429124278655, 0.06693866651148148, 0.0009434348479400555, -0.047456370341462446, -0.03362904014275305, -0.04444281441862674, 0.03999889792516693, 0.02964154384579111, -0.08532967294886458, -0.06876862009698989, 0.042989607760394594, 0.013730252692576632, -0.054603462943870695, 0.0011544584313286522, 0.17327673871448268, -0.13405770702422753, 0.11881073704117802, 0.01935174324283123, -0.06524706400202661, 0.019206830800497166, -0.035206226040233025, 0.01574091377836262, 0.006900513581745835, 0.07962207526648385, 0.014592991215645048, -0.10087672499109754, 0.09093501293182162, 0.03842594629327504, 0.08547782700167839, -0.11710238675587789, 0.11964145611167863, 0.0042983885897097404, 0.16426816425585633, 0.06834412234768486, 0.02098287948673162, -0.08574758227367092, 0.013558660923315364, 0.15425591026479243, -0.08052960485737481, 0.015526770012117122, -0.03852387669951204, -0.021701219362935346, -0.10741029776254216, 0.03393553803618175, 0.10815947730608357, -0.1058793422642891, -0.05254132783846834, -0.045221946569244525, -0.12274133449413538, -0.15413879878785205, -0.03388433695038394, 0.0071132776063827395, -0.10725848898852212, 0.09289424294111567, 0.06456034661154043, -0.10856006565321276, 0.08513961565198377, 0.05648886509321491, 0.0328801792076604, 0.0091495852978219, -0.07720239428936589, -0.049395424159768386, -0.08321145409412076, 0.07952111503476186, -0.1129103832699474, 0.025169306343214532, -0.0013389969606363416, -0.04669500863926574, -0.026773230541342792, -0.014992588633929167, 0.08392672836103146, 0.12367067951056088, -0.0010206112501774153, -0.02769675759415333, -0.01996590831363562, -0.051579186033038626, -0.00024754887204867947, 0.07837280616818848, -0.09703344572030431, 0.1275079287150385, -0.09479157392015886, -0.012100856738129875, 0.04375398275438313, 0.021896084170997757, 0.0061290379661590975, -0.045039784988409735, -0.12019569149399015, 0.06694141789227218, -0.04381638874896782, -0.025303302635439628, 0.040569179620872184, 0.07721444206664657, -0.005886163081354942, 0.03676804323895522, -0.09165900799384118, 0.05169366859197677, -0.034361329415628465, 0.010177332943650719, -0.09145923179156891, 0.04206660363490308, 0.02353437302606748, -0.0733685156735725, -0.02241028350179136, -0.012790074033569868, -0.02049091367465048, 0.09483501279234213, 0.03406352378542766, -0.00718021244702213, 0.055064446484701914, -0.03960128553854188, -0.06557571733819029, -0.03845790189121795, 0.07650427373343649, -0.09761862832253333, -0.09634002524942875, 0.0701869567906711, 0.11154235595913271, 0.0341210300714138, -0.07416089743832968, -0.08741623832508724, -0.22291963774074214, -0.10221895961676494, 0.050729496904420385, -0.016441646376989295, -0.0016518474691807593, 0.07284717647312897, -0.09245139967797453, 0.05858087119862028, -0.07304137602285653, 0.013821584286285608, 0.12033415182379713, 0.04964806555525313, -0.03290473119358101, -0.07126910051628721, 0.12715190824625378, 0.02494969317123279, -0.02091831445802989, 0.019764726797084943, -0.06654628133509768, 0.055749333291085564, 0.15570249133095063, 0.024766148023321968, 0.041968424111922815, 0.07956393017724567, -0.00508888224150043, -0.0030006786977975325, 0.002253548950985212, 0.09038201514388895, 0.1075739201351903, -0.12601131797870224, 0.010900375132087376, -0.04267019058372199, 0.028908118351261707, -0.06220731416311854, -0.10500691499080629, -0.049152757070622666], [-0.006564992990565911, 0.031136513171280147, 0.03817818484183326, 0.04128683537565469, -0.03379924334440619, 0.050698706135210256, 0.04241206147699673, -0.09681090263581878, 0.06864395734365485, -0.20789744438797841, -0.029727463570103366, 0.021261843985563654, 0.010813461694060967, 0.01179604375177132, 0.09370778542307687, 0.06173005679549876, 0.03849070341355321, -0.13215648769912383, -0.05261503394072734, -0.11792565940500085, -0.04079748466888186, 0.14337549872431354, -0.12065799556203302, 0.07331264815670221, 0.021937705482684644, -0.05471711402453542, 0.06764641487814668, 0.045520155558927994, -0.0858418792493546, 0.048612904733742524, 0.028547101408864475, -0.030041653547173724, 0.17444779266833474, -0.07917571525833474, -0.11795220409361273, -0.03368749221500365, -0.0208755513518774, 0.028447690497332655, 0.01921673131741352, -0.01901921497998823, 0.02818607355577679, 0.055979473515861265, -0.022406092169894046, -0.012713261729258685, 0.015960554312198606, -0.04831078063029512, 0.04962362482174733, -0.03728615063997248, -0.00456810281224869, -0.028825632277026874, 0.14150064762074552, 0.045554466811853454, -0.06374082961544479, -0.15560273147018555, -0.2404812738603161, 0.048331671085922887, 0.04585794156603505, 0.0012133775605028035, -0.042418427801997304, -0.016859356487820207, -0.04329718217274942, -0.0267952595727918, 0.02133067115793847, -0.07736078536326366, 0.04632583134083469, -0.03896899398181951, -0.004462825462011396, 0.06325608714011133, 0.12347777562394074, 0.06159890612378711, 0.09150077385099797, -0.07709539722752543, -0.07309499070201833, 0.12977190174517725, 0.05633708846621557, 0.07524897983104807, 0.0361544318366323, 0.044584085876375336, 0.12310580335246656, 0.026522174721641516, 0.1010442336307674, 0.0200578975839478, 0.04678743440538347, 0.000771557632972961, 0.03672040259417767, 0.024595339505056532, -0.03481239739336369, 0.050084536006769056, -0.14343930418269848, -0.016531650432080974, -0.11380461095762283, 0.014767786798440315, 0.10991869364385426, 0.0661963366800737, -0.11183767000246886, 0.08608782335026066, 0.011292274362939362, 0.0442175499217008, -0.0762350151106158, -0.05088634273011813, -0.018861314129171733, -0.05024206119678108, 0.030417340664662017, -0.03410147985718524, 0.13954608423226214, -0.11939811715343036, 0.09339931266333788, 0.1582111814567726, 0.0043856867196250164, 0.02572839176447633, -0.028582533644709782, -0.019737361923977265, -0.04710947421021043, 0.04209736749861218, -0.03720105803082303, -0.00205691938814505, -0.004986529680631996, 0.029496839720356435, -0.010299420889779712, -0.1783292000860597, -0.008433242200017987, -0.15666007001700114, 0.08868147337309377, 0.17322449777004723, -0.08981378184795027, 0.008932876391473535, 0.0343977275050968, -0.01343972730556149, -0.024663472334195854, -0.031072941344607665, 0.053297375580237345, -0.028875265089579237, -0.05402761234643309, 0.04458769869204846, -0.07232406433698851, -0.0066827956228347205, 0.07681029227846649, -0.0617973225077059, -0.048411441752005444, 0.027886225354318984, 0.040279806613316274, -0.06628349802168619, -0.1556845377709166, 0.14430709950469686, 0.1048528978670425, -0.07069910052053667, 0.08066754412297691, -0.033718460313195295, -0.02205014502647803, 0.013413320252829534, -0.00933142415202964, -0.10927922862011649, 0.04723642683747837, -0.03327618134373955, -0.003160946158316934, -0.13984138758271916, -0.013425209351564042, 0.11573459491988926, -0.032829530053804554, 0.035634695387729176, 0.02463915847467527, -0.14801892753565113, -0.029214373035639285, 0.03149926255757098, 0.07046953730853787, -0.12995543892723638, 0.14889274210847991, 0.01641231551085939, -0.11357868386925947, 0.03868674338825444, 0.1270962361080568, -0.04430247864716289, 0.15786076744444924, 0.09049599970919905, -0.0917571072348584, -0.14507116995579802, 0.05924003606382913, 0.046819566421881995, 0.011037646562935852, 0.044497613866313415, -0.11652845247093165, 0.13510611502829598, 0.04409780413492346, -0.03457954885913341, -0.030286475054223026, -0.05380693162168193, -0.059283008667269266, -0.07428123266009205, -0.06326810706784637, 0.13505101312491533, 0.04316832640665202, 0.046087121525845605, 0.0011108243285039188, -0.05507531833783069, -0.011970366096761866, -0.07572768937247322, 0.10240450900244351, 0.10232861575937816, 0.014853828993867259, -0.014770556529090508, 0.10616259868861166, -0.030353828764851667, 0.011814529971255748, 0.08817100853517768, 0.052782843953527114, -0.12628080809331316, -0.06910169752611231, -0.049452404766489204, 0.05852383538625243, 0.0416521486229434, -0.0774478198653006, -0.13712741002812026, 0.13147176496042617, -0.1571057182554275, 0.05860799146721918, -0.033368777731988944, -0.009168190409316204, -0.06908393488678063, -0.03906937803223212, 0.055169788865634416, 0.049223875718768385, -0.0066468645010668995, -0.008620570683808521, -0.08018305930445764, -0.16148760933627287, 0.04234365092284728, -0.050170290734230946, 0.014164846143192026, 0.05144239902719817, 0.07122103697870588, -0.09633306908677194, -0.0021947284357634327, 0.09524874661879155, -0.10900915501655985, 0.10480919343577373, -0.11113962892449192, -0.06520914282960123, 0.09516093320102895, 0.03928248826118471, 0.024009515333692204, 0.0023296049509912977, 0.07529689040889563, -0.09287087869590632, -0.05624902550270742, -0.006779645561186493, 0.08129085828535472, 0.007637277225981496, -0.009248741225392635, 0.01205176794704395, 0.10904383392995018, 0.08476038015788692, -0.009261308454212946, -0.10294140416424442, 0.045469173468099096, -0.09650879138915168, -0.037625288763171325, 0.0012186495428725796, -0.06586352908788347, -0.011181942871851404, 0.04727118562249429, 0.009087215117659168, 0.13128705810069005, 0.13291570649158405, 0.17976238419138751, -0.00817608019224733, 0.020129047555205188, -0.117329991522361, -0.010198010937955793, -0.13272936108931857, 0.15306891720321567, -0.02321208832907688, 0.020691996612253696, 0.030446930279517937, -0.00782786642242034, 0.038039913617396164, -0.09003710180478942, -0.08008534550823611, -0.1381174258432287, 0.07062617133665065, 0.01972425470724617, -0.01659653736135657, 0.08972958269976186, -0.034706055752703954, 0.04132585035961513, 0.1188896492336886, 0.06007090759580114, 0.0376670005324936, 0.0058522062120100315, 0.007262911982999785, -0.023919813257857116, -0.06336331709947869, 0.015720062442280247, 0.023550857184861336, 0.04572759357555495, -0.1643187425331684, -0.2583515119509329, -0.16600268311213523, -0.08619644259572355, -0.0019158966763214943, -0.07927854934765165, 0.1542251912882799, 0.08078913546642011, 0.03091419792502975, -0.042465046177582594, -0.023107547596871007, -0.11311506416529651, -0.0076572884057976125, 0.02969386377527604, 0.03354093144199599, -0.1034080819417126, 0.047902269057521395, -0.054404608816161666, -0.004580894552963136, 0.04878433881563175, -0.013555914074620331, -0.017490356645415976, -0.11160922055104706, -0.05298989163198659, -0.003139057357178763, -0.03001892154493135, -0.07880011954153927, -0.04162844146635198, -0.13268980439489317, 0.005880931663682056, -0.05656473537121694, -0.08865667815712151, -0.03173969891188088, -0.03394326108212882, -0.08817382696879861, -0.03462850136577127, 0.10001256783474737, 0.011948372983298136, -0.07624881046994442], [0.046563427773800944, -0.04904740558995383, 0.04433011266273231, -0.01956641022659828, 0.04667539057954092, 0.062330412014319846, 0.15371076955220003, 0.13992406523089587, 0.02209707703526941, -0.04236724753826848, -0.009206132198535727, -0.049079952053944526, -0.08100535387843523, -0.08116280853758326, 0.008663903541850208, -0.060708305516861065, -0.022847384408391683, -0.0901183684346617, -0.0014241431813577115, 0.008079946221313458, 0.1360254302684414, 0.19339291201229178, 0.08892830438605749, -0.04720795455020342, -0.05877884586613202, 0.041551642604955905, 0.045556942208416745, -0.002349747527613897, -0.13841838817622534, -0.06314428924095619, -0.08257629838090512, -0.07036190520861171, 0.0015812048306360553, -0.012114007599505839, 0.0416815171283927, 0.052577725938742055, -0.001723816291072875, 0.06017888456578647, -0.07304446349356265, -0.037080338452425574, 0.031376021215331215, -0.06203163159470448, 0.020368335838106048, -0.006695091279647711, 0.09475755993298106, 0.13710287470303148, 0.04000618341767374, -0.00265868846433224, 0.02308481102870195, 0.011169673333095485, 0.0270959728610773, -0.1235557733539356, 0.015185839826970405, 0.05230913410994225, -0.050001870798917124, -0.04094888565165417, -0.08706760896027514, 0.13067413777959844, 0.12766138838869923, -0.06808194634757661, -0.02084714848501237, 0.10704372455486093, 0.09308911868859403, -0.018710478903472952, -0.00043028017369518015, 0.17835987267293182, -0.19227516943355683, 0.06355203872656698, 0.13424544746378134, 0.02669907594385516, -0.06189927582256898, -0.050934708151577586, -0.17176696577229503, -0.2517116615272289, 0.005975852170599714, 0.027574845143346682, -0.06684502448205216, 0.1573068852186803, -0.07047085347297939, 0.13720220610392028, -0.036123486883475525, -0.037545635766521514, -0.11056943537901928, 0.046571861014483344, 0.03615462106977501, 0.003352457741034955, -0.03341138875284524, -0.004635106959165842, 0.004594054393534268, -0.06907609632205403, -0.01836409291768312, 0.06000264939592672, -0.0012788980460417976, -0.1252695376161636, -0.16672459922123312, -0.0029498565320639552, 0.15897777063514826, 0.08422229740507876, -0.07308845237855568, 0.040432009466105166, 0.1445334321473195, -0.046878899887055285, -0.044513374986124114, 0.023940356254645145, 0.004155671320324684, 0.03678616196759027, 0.06542666947389175, 0.00556998974038168, -0.06688176408043094, 0.02870755039489975, -0.09042272923665554, -0.014425162817188593, 0.037451876822758016, 0.1368554816292469, 0.02468621702833833, -0.06572313950134125, -0.029554697674995526, 0.07783765738730623, -0.009759716259965709, -0.016975603857872865, -0.0842142790207811, -0.09120349935594542, 0.03794504676088962, -0.04122364555499329, -0.13369900848486854, -0.18317370897106305, -0.03306203251913434, -0.07255492931888245, -0.0264977768364961, 0.10216942725167692, 0.10270316484848176, 0.08349807227897053, 0.010840924857160986, 0.02154334091399502, 0.08042748493560868, -5.7289578081296536e-05, 0.015846350258209824, -0.046683342826087756, 0.10570706869008438, 0.007289474826676116, 0.03458800163379424, -0.13174281531317192, -0.028321979281529075, -0.07340536604547164, 0.07137342791541627, 0.008580532360706909, 0.08935690173534676, -0.20718601920078167, -0.010210141194975104, 0.01678582813399718, 0.031670576224284944, 0.03551174796775583, 0.033011804884343035, -0.002383594859599637, 0.0050456424730156435, -0.10451893910742975, 0.06480433148378428, -5.8154799697594724e-05, -0.02900636506610078, -0.06282950018498208, 0.08581619779046067, -0.0012709121634863479, 0.025910134871179255, -0.03657445381333576, -0.08043422966617027, -0.0013613307498884163, 0.10363600415942661, -0.11368155585185254, 0.09391349227101542, 0.04125757703596701, 0.025434261267727496, -0.03142462401230272, 0.0674890696095704, 0.04039082185679129, -0.08255707986781397, 0.10289628963210827, -0.10350188028471326, -0.014586400963210594, 0.06364406809945335, 0.14088759722889949, -0.0286838182729434, 0.033496811157213556, 0.15123048565897823, -0.005009279901022564, 0.006597678095593496, -0.07672482081668204, -0.06011148467569159, 0.009160447099359858, 0.0016839857393728672, 0.021477741866603686, -0.0065522025207013865, -0.101661656522743, 0.1250189061604437, -0.015649988555876976, -0.056521146996758906, 0.062077843624452705, -0.16662465258524076, -0.0109486557835994, -0.05496530784379511, 0.012783183913574681, 0.07806588601514257, 0.06099538003170569, -0.037351468285186824, 0.12066710829879744, -0.00990798028372312, -0.04001688699355284, 0.11475327047034273, 0.05338314240531441, 0.08135860136643877, -0.10386772319320366, 0.0033434043662167053, -0.01987747986405105, -0.08296410590089222, 0.10981842067966448, -0.08189974810080021, -0.09842705417080812, -0.02288408760951135, 0.12291554836057184, -0.0076747470198266715, 0.027196910032267423, 0.11288126692463454, 0.04878270972006903, 0.08399660678526444, 0.13900436287662105, 0.13985755983272752, 0.012863202421480384, -0.02920643889376923, -0.0821950625313399, 0.0050685246600257125, 0.03630811350186118, -0.02653494474228624, -0.0875208694530007, 0.09915162397528202, -0.05484892637770002, 0.12542580211420168, -0.04632513446989614, 0.025716399835413736, 0.01991798290075503, -0.008665341486574532, -0.025321536578958817, 0.03027482622852842, 0.002220088224749706, -0.03885442710574872, 0.024738934484650175, -0.09440632233202809, 0.0765456390206698, 0.07472592110464976, -0.13756927372542968, -0.06579262196261641, -0.042701297915691876, 0.01898301668870915, -0.020448461312075304, -0.07351472928965846, 0.056171421036946084, -0.005108710631031483, -0.13943021843886266, -0.018040954249847505, 0.030910454623120264, 0.07288067503529617, -0.15001101071306874, -0.14731450621194314, 0.07979104669469923, -0.06902690839694828, -0.05135969757422269, 0.021312154393320997, -0.10765631293926982, 0.03303883098944892, 0.0976016299707648, -0.07394403291613391, 0.0017091038910262719, -0.04040029821063324, 0.023258614363835257, 0.11295944267792185, 0.005601863575983288, 0.10042445727031925, -0.00016529719442603415, 0.0138023198682103, 0.048994582494540785, 0.061568109445249944, 0.07086841786168237, 0.07539521620661126, 0.09703030526889792, 0.006274127228340021, -0.03153946699118553, 0.07237830271084503, 0.024809411215869614, -0.03744998282855743, 0.03351082712331429, 0.0670051596762605, -0.056930567984895604, -0.019474208142622247, 0.006969095659103618, -0.005406605332725858, 0.12136471557436489, -0.04007319109449022, -0.18576971961822875, 0.029754442055125653, -0.07399190030583666, -0.09684675087245483, 0.054505641855903765, 0.02343691689404069, 0.001949238157602976, -0.07608856395014983, -0.061515636869528906, -0.05351749580329439, 0.09230700194323428, -0.050637012564064283, 0.005265969987081308, 0.06902251832893908, -0.04680644485399369, 0.02221539543771323, -0.006258980155890733, 0.11626665582950166, -0.08506897430647362, 0.015600574615834467, -0.010893981939435178, -0.003056788853166662, -0.004423659196815312, -0.031362598026082183, 0.03298920740942247, 0.010513537810210988, 0.11814447881562552, -0.06314030044960053, -0.05718694781155415, -0.0013915922306376415, 0.0777767248421532, 0.025918012418505117, -0.09552399893034613, 0.13317168138328325, -0.01656796290948412, 0.10698517404925786, -0.06745186192893295, 0.032517624147457916], [-0.028440943192793534, -0.04919427082565355, -0.02679048372846794, 0.1937495509089353, 0.006711213816095238, 0.010334381347144383, -0.09530873733563601, -0.09296968213284947, 0.10792124599733403, 0.055500877312848834, -0.15694015932544605, -6.309063835478457e-05, 0.02108447970979352, 0.12183163215615261, -0.015124178756171737, 0.025277984058823026, -0.0066283234820987014, -0.09550399006727618, -0.033629437282984405, -0.09959947298275817, -0.03005614403339932, 0.10027667538671424, 0.04063069808276864, -0.025690104750687642, 0.052546224181797746, 0.09054776588301602, -0.10319833639503694, 0.1698556882422097, 0.032380629099765024, 0.014661370941889282, -0.01059857885236171, 0.0015288823376876123, 0.08422981958325976, 0.10430237898928896, -0.12005849129301494, 0.0508788325712612, 0.08400092139393985, 0.014453670480078793, 0.009068608305553933, -0.004402714482046338, -0.044029366427871336, -0.04517361885439965, 0.019971564969409206, 0.030183877925146756, 0.04794688906682958, -0.03068958725870239, -0.12571096539598586, -0.14317585747496184, -0.0926872775719498, 0.0459830441100889, -0.03316179160370066, 0.025084022836313058, 0.10941297583832135, -0.03345555456505498, -0.10144994823894413, 0.009034110078485615, 0.036809079042399766, -0.06859703323871028, -0.10841979926421322, -0.04763130185872807, 0.08455853492523839, 0.02308526279822596, 0.007221111479734407, 0.014668116923978682, -0.01572724115539274, 0.0033097729891583163, -0.01830501946519524, -0.025451044275807366, -0.0953014443516073, -0.13183430894564904, -0.05930129795705105, -0.023965182700490993, 0.024358518101730307, 0.02890582445924486, -0.044975655675338, -0.06134720052332742, 0.05628851264228839, 0.004370322572197529, -0.13595249063612377, -0.043654615383933275, 0.011235942037256625, 0.015230809612791694, 0.03300796901680287, 0.18306806672626175, -0.0868704576239792, -0.02564673649796717, -0.01918437279200349, 0.01082152291158388, -0.02735098818375179, -0.05328459272757581, -0.007208831445881495, -0.0020875904553709595, -0.015944088525006533, -0.06258959670395327, -0.056212799675086925, 0.02567378840984311, 0.10703993165497735, -0.08332951834750547, -0.003870627046173298, -0.08346208737467235, 0.010940224859068292, 0.11632356401576455, -0.038169762239382926, 0.15693834508013962, -0.06038395981270852, -0.03204033087415065, -0.056579031000786185, -0.03852799371230719, 0.023409114028150955, 0.009505418159435841, -0.042374176264983854, 0.04278476003818301, -0.06539735974322418, 0.09802397197196454, 0.013005617953330717, -0.0004707057528323845, 0.039384690703148414, 0.06559376325373134, 0.1444154986088492, -0.05366934298998005, -0.0471173654979956, -0.043087661385719164, 0.12422993857002576, -0.0806100270761928, -0.08893659541020066, 0.006043133655810968, -0.13005250714555977, -0.06778073422277757, 0.0571046870949408, 0.04233242338588077, 0.013792607627071492, -0.0653125774769781, -0.09118909257404272, 0.030741949918093578, 0.15120858814537597, 0.09280021013108142, -0.07784404644791706, -0.03279578851366457, -0.1658006948592773, -0.03956933637955239, 0.03349793845777986, 0.13474131258468086, 0.1584989317358615, 0.016767273256710315, 0.051503624472698274, -0.14482456943171418, -0.09137183852138331, 0.026546587878157852, -0.029595084150353952, 0.2606148037775801, -0.01879743388579418, 0.014752098975810351, 0.024952675560252848, -0.06378188594421152, -0.08973294690770492, -0.025951431408133472, 0.09491961487162771, 0.19597093411099897, -0.042045145352520116, -0.14200254691511963, 0.12198776013773105, -0.03021350336151351, 0.042283631014314725, 0.17282346619320405, -0.06867384718401302, 0.033676147976586183, 0.18246832593365991, -0.022566231112031244, 0.1341881590657803, 0.03921085601003844, 0.055270111058196014, -0.08403569618651487, -0.023239660188451854, -0.021646407852100452, 0.03944683788773177, 0.2140120052333486, 0.0018322620840166696, -0.15008978192255254, -0.10805637311558468, 0.028902654144734426, 0.06798638295173728, -0.029815312656088618, 0.07590916731392586, 0.038017659383738606, -0.04686982218312067, -0.07737364196792744, 0.21646169909728577, -0.02800054467411395, -0.12601165733272907, 0.12296638365908533, 0.02895148008457877, -0.06582557065868352, -0.09052973479125621, -0.014779018752468837, 0.059489597448827654, -0.007961886238314855, -0.10394150643319264, -0.05469628591665211, -0.06135208981465155, 0.10259233875906937, -0.03998548582971335, -0.0884673751282606, 0.02406950288448274, 0.08892822955851637, -0.04321816305978415, 0.11432679376752444, -0.1298451781422671, 0.14749721670024393, 0.03447383616212996, -0.04542250672415029, -0.0010212901495719236, 0.11152733414161785, -0.055633643323023514, 0.03648869045144129, 0.0723420128428398, 0.012212169546294458, 0.09753732178426885, 0.06694170947223003, -0.056825779465596755, -0.12678775981895246, 0.16629633385049788, -0.0980607723676294, 0.06868191269658984, -0.17190506638186284, 0.006062335172094262, 0.028630644551125847, -0.1481161203321099, -0.07740380077849235, -0.08447118359525796, -0.055354970978545553, 0.003348214825236914, 0.07356170385539335, -0.034446188103346355, -0.07817344410424265, 0.01595540233085702, -0.02153601756741709, -0.010937288791625673, -0.003978332719698318, 0.0021336019204081826, 0.015741718107554377, 0.03239772683021546, 0.16099948055523283, -0.06504090160352148, 0.1575924155207808, -0.029818326134022008, -0.057966067060658315, 0.02369905537385808, 0.008921385153447401, -0.09531656948639253, 0.00527441612117489, 0.03173533317065614, -0.06462469279676497, -0.0494313337068058, 0.03243889741038998, -0.026747240691689284, 0.03500915770224002, -0.04804740669522416, 0.014446990024062495, 0.05325529429055936, -0.008694562188533097, -0.005455275861930693, 0.07739245670257248, 0.07090162659356376, -0.04088008294049309, -0.06304265744548339, 0.019675256208590952, -0.07204660234668465, -0.15435056773751885, 0.043464406424323074, -0.003633388045039367, 0.14803218366858498, 0.0314378228312965, 0.008904608112196873, -0.059915130906101705, 0.05823593667549875, -0.04512640752708469, 0.02410320915890654, 0.10081967028100085, 0.10315592325381097, -0.0759319405133582, -0.030615859594810953, -0.06937308343265775, -0.16066515541217666, -0.041165129215255725, -0.017307014477302887, -0.06101937371769254, -0.007935603127605027, 0.03302222516196567, -0.08234096669568418, 0.08071186955759818, -0.05919189640160492, 0.020506200524463492, -0.0016232060290688822, -0.08585196367419089, -0.04268820329742579, -0.09818647199592391, -0.03700772165182, 0.020656577338270195, -0.008901430434473582, 0.04713354678400705, -0.08461234867661342, -0.059970630335134625, 0.007170872808051775, -0.03714335532727548, 0.06357517254145895, 0.010399964401917908, -0.13689565432866116, 0.0673566451631266, -0.0080050138223006, 0.01973312171124027, -0.04353386291312613, -0.04939893052938838, -0.005839625003948694, -0.07485317497549432, 0.09765825775973498, -0.0835183757575107, 0.09803854339873945, 0.13986366175761172, -0.013939512557031939, -0.17484890728003197, -0.053566438977511135, 0.04803147676065463, 0.12704508786883226, 0.013943669127764733, -0.19990160966614443, -0.03247213721157096, -0.033942696879591186, 0.04612945361981015, -0.10584458666547435, -0.022646473043047295, -0.026338917917397512, -0.0853229256419597, -0.0890485008120668], [-0.03924560753499651, 0.07661858785690195, 0.030121187525875025, -0.02267742721910927, -0.08108419253603974, 0.11109843412841618, -0.04542186757549125, -0.014504586450345722, -0.09599651623981321, -0.0364149581769147, -0.005241670891070452, -0.07242388283392559, -0.08572563456579838, -0.13344860743235668, -0.10282133024375564, 0.16600196939647582, -0.02299829513842679, 0.06505106410641029, -0.03097425374314234, -0.07741390200280397, 0.03643522964913638, -0.06613502961100001, 0.12135030913728019, 0.08874030994879956, 0.01084269642632857, 0.0066651706457039085, -0.15820062427957293, 0.017461010018404038, -0.053573923138027994, -0.024397847073238672, 0.03942076308332711, 0.008896182326538549, -0.01382333940501674, -0.07521343485171841, -0.12307461764425144, -0.024672138332622683, -0.04263886717910246, -0.02822797375582742, 0.09758105195221402, -0.03205969310544226, -0.007132061770041739, 0.12342956745952163, -0.07680949836148442, -0.042523095583899176, -0.017593283460340198, 0.047851463508949886, -0.0312017041447635, 0.05716291926622203, 0.11670633097096195, -0.10887389851402045, -0.038881074580771904, 0.021521029735485975, -0.0280558818670681, 0.06639128817425054, 0.03014121135224258, -0.08727979515403268, 0.07707997446400901, 0.0505054286740387, -0.0776440150950725, -0.07613108130249553, -0.03959067650760694, -0.022307035795306313, 0.1541252606115352, -0.12306833616887311, 0.06808406345381728, 0.042254781142237255, 0.10461924513950703, -0.023457768913538617, -0.025455278880111887, 0.1222776602160874, 0.02134257504926855, -0.03248622455811682, 0.04585414513607776, -0.09854925755981833, 0.04121235767242556, 0.016517416720063422, 0.049115356004197606, -0.03896838885514958, 0.036113295834310034, -0.04095880303339584, -0.02143356066709745, -0.03207848722387497, 0.05403976061857697, 0.09714402163012957, -0.13556710917072556, -0.0350688080352915, 0.07297745860663606, -0.016072395417635874, 0.07261911451382873, 0.09723976684998631, 0.04887620284558215, -0.07321257329523172, -0.11227480924492693, 0.0932539074021473, 0.020096322131860828, 0.027870244872290225, -0.10832967332439289, 0.06402972628049988, 0.009271775470432437, 0.16427669719001833, 0.002138262308949763, 0.03227021875644699, -0.050086500581927866, 0.16759302041784943, -0.1938064792879507, -0.0018142304191362875, 0.10051921284917266, -0.016791673662063335, 0.0067103245158332174, -0.008349058328010896, 0.106071818589108, 0.12717445443703415, -0.14087753100881625, -0.04655233728525216, -0.06665483943404683, -0.049264109429626696, -0.15281651351848796, 0.02657848563815268, -0.027352556529774554, 0.05175259402556972, -0.08690476855260783, -0.09272995619394292, -0.04807533446921409, 0.10917119602125369, -0.06874965810313359, -0.05257645922996435, 0.015708682069227695, 0.025755669253717917, 0.15958315893454322, 0.0064231563060311615, 0.05831805091508463, -0.013769905802299027, 0.008938784865297467, -0.09836745404494539, -0.03188028777463717, 0.06727130161638892, -0.09169583788088159, 0.0686289694534191, 0.07542240243967144, -0.026685782464365284, 0.08984935158926391, 0.05917065238678546, -0.0004755607727307878, 0.10716211797144232, 0.05220892906248933, -0.052692258680981124, 0.14646241880461214, -0.09341180257929517, 0.04707720523861584, -0.11612447633529442, -0.10954887424485024, -0.14260890383427674, 0.020245825750333485, 0.03775051187906655, 0.0743297031944032, 0.01270102211039199, 0.029777810577218983, 0.03902877158358545, -0.012965695545445481, -0.10467706241921863, 0.035244512182317424, 0.034101728430234624, 0.009128434025242818, -0.06846884516857002, -0.03416636195067292, 0.006563914862592336, 0.16347531982431712, 0.0018236316775451186, -0.04946461905511356, -0.06313615901236452, -0.16863062658728384, 0.07479260188229472, -0.19703050982142414, 0.06745993071570805, -0.05211936835878834, -0.021090363283909966, 0.06522445464302228, 0.09890317110119869, 0.00032063938352187897, 0.06736497139167166, -0.11813061529409899, 0.01011535575193627, -0.036105489690274155, 0.0037246794684021598, 0.1299127220855919, -0.04818273666528002, -0.05733750511241149, 0.12539227596138625, 0.001166516912636776, -0.047662309916837724, 0.012108576487826032, 0.16384788317117208, 0.04698731927485263, 0.04434433168436763, 0.11791575842165845, -0.030209598407724192, -0.015044833045581048, -0.01739108426198284, -0.037247990463482525, 0.0024363967241022057, -0.01795189049738867, -0.05225645673267313, -0.04508814314963092, -0.010955868350144407, 0.017208260823840815, 0.04935776634596594, -0.04121323413403004, -0.11155836569561281, -0.06963161260167507, -0.1143902857120702, -0.06438502782810643, -0.006223635594498208, -0.011939550253377732, -0.12635403679493848, -0.0005841182060943743, 0.08877556345502076, -0.015398097888310987, 0.1259888564592225, 0.11032188140482166, 0.04583670663182979, 0.1334364518308991, 0.05507598435855127, -0.04266699809249468, -0.05027468358741087, -0.024864876355223234, 0.1537504151397757, 0.028941827193612022, -0.038562152077805854, 0.07174948857999719, -0.038465150223528866, -0.031102084289159046, -0.03228602343938593, -0.016518905351801148, 0.09160582588435136, 0.03262287312389257, 0.06428210940732017, 0.12261271864779494, 0.1293945694798164, 0.11867144632068906, -0.05913841332318773, 0.12388756410706236, 0.0017781348179834017, 0.0396805019089446, 0.09392883886338252, 0.02762541966522415, -0.041038224695282614, -0.009129085027764756, -0.008479488547212243, 0.014423097758696112, -0.06603732670919857, 0.06212595733954823, 0.10888424706485145, -0.03749771774018416, -8.665348633309422e-05, 0.10903322456564178, -0.01046526051840836, 0.017920497951745395, 0.08948994101761049, 0.06796205915197202, -0.07586492682423758, -0.02589899032944206, 0.03069471223658224, 0.015434648680933766, 0.07423853425085047, -0.06599050479181248, 0.03719660630207803, 0.06018865238637671, -0.015927106380270336, 0.08885664400681911, 0.044223449641729064, -0.04004333875208609, 0.022983069659042784, 0.147890374101241, 0.023442766240521305, 0.009706701463060801, 0.13788109627457254, -0.002058156431262255, 0.013997982765315607, -0.08324934031443226, -0.0682242739529752, -0.19396098510418366, 0.07896876063974671, 0.03945379219837295, -0.0787794018115637, 0.013606171195159703, 0.01697703574783739, 0.06072924947283151, 0.07090768313683851, 0.07661306350891457, -0.04435271818896538, 0.028137208014238923, -0.048525717700219864, 0.04721351956413397, -0.07093023243852677, 0.12291744929083229, 0.19675312297468073, -0.005967336946183678, 0.15198377925786502, -0.10868784909124084, -0.06404626930775151, -0.04577091512934251, -0.09807125869433582, -0.07661938559894851, 0.037033668887186795, 0.04367571060864553, 0.035417536479769605, -0.1103171959760216, -0.14933482592830705, 0.13067773389965215, -0.06472884776364683, -0.0511459404487352, 0.0987485433133589, -0.1049658494736318, 0.1630057752599986, -0.10615008720025298, 0.013149979768446212, -0.04137291558493525, 0.18208959060745697, 0.09474144192489233, -0.0542514093456456, 0.09385678187840055, -0.07575714313890287, 0.05664630713347957, 0.17696714479772063, 0.1648918982336164, -0.14063260652922843, 0.002118919421359799, -0.0484124231872588, -0.03826140259940482, 0.042388215368699494, 0.06048873936470979, -0.040991713818581264, -0.0028096222846254095], [0.075338720850819, 0.042392946445724715, 0.05486262980343887, 0.12206877449763427, 0.1472555700374447, 0.009487587688153136, -0.044094118428307155, 0.0633695273058257, 0.12560172995682958, -0.043967053965766716, -0.059023492244874645, 0.06623149361803853, -0.08263377641849515, 0.03563444474097264, -0.12688593792292194, -0.0551728917905853, -0.01764210840059418, -0.1407906272621123, -0.02803827662056626, 0.0018570919459324187, 0.02422543936170926, -0.06277673982249085, 0.0489775098147957, -0.043799193634639785, 0.040636572805428775, 0.0066444143552664555, 0.03307641818306299, -0.0041265993196283905, -0.09837354162152685, 0.03613774395247674, -0.05304916841793645, 0.0062965354543769595, -0.051579140764576197, -0.0037702915200141323, 0.09343180981875113, -0.027172444186364088, 0.025077154112908423, -0.026442767719477057, -0.04889310686434599, -0.025357357458023984, 0.035384714521049715, -0.08614069143712257, -0.042656855184340835, 0.003714897957652436, 0.013784956808547986, -0.08122944127125005, 0.061521291996087024, -0.20600378689761362, 0.0007065667369883021, 0.05213294912899466, -0.00042094351699980035, -0.0299389355281575, -0.08746681861227901, -0.05748096988082587, -0.028878724756855764, -0.05651110300382875, 0.1868468147671056, -0.023010369555431516, 0.03510986504700821, 0.006189500208249827, -0.024747528618975133, -0.08512951170900597, -0.07709617588511641, -0.015282572343675634, -0.0938784541411327, 0.09706613967551722, -0.031925932508890975, -0.01639819084402615, 0.01748370445166901, 0.13128236056117504, -0.06252620312123647, -0.1281340174871178, 0.020967654445004587, -0.10741257618120778, 0.028744525599439057, 0.045621242960793354, -0.12139054307072866, -0.05419106892125705, -0.0033936060988899648, 0.12413455965390123, 0.03137834069097672, -0.0384935391365908, -0.05255139185044507, 0.008734641510207896, -0.027599847463295354, 0.09675536515187377, -0.1364631535779772, 0.13856049245040122, 0.017395022856041838, -0.09567228515931257, 0.0738148626045078, -0.14415514265098647, -0.0480120654944945, -0.01910852357603574, 0.06350587878790215, 0.11114335903642816, -0.0750253776075507, 0.09897940388836599, 0.10258795862288214, -0.017554376270799917, 0.010863167415657068, -0.02318986136637498, 0.06602928414891977, -0.16082782292813821, -0.05217745347629703, -0.15825857398885887, -0.004936115842635072, 0.09024240738177312, 0.13225311778446253, -0.10447620418743582, -0.07288508938756252, 0.03608328155977944, -0.12217063661567673, 0.07522368557700809, 0.041417261059451725, 0.00928386379311545, 0.030988706649944086, 0.1176084696987365, -0.017035608693452647, -0.03667973028443761, 0.19752650665106608, 0.016568996401021243, 0.02082421660380531, -0.013577093448775586, 0.024458881570267134, 0.06705618620216165, 0.0963448318378783, 0.036611181004349215, 0.049996559547347205, 0.003333374649808802, 0.03547438596805868, 0.08082923868523749, -0.001972750411681844, -0.04234531928338508, 0.11075075566507925, 0.03916821417476884, -0.010336271351155875, -0.03077311734040594, 0.024019217167709512, -0.04542169524997082, -0.0566902999499455, 0.1187737623846215, 0.02004914136110814, 0.027529403182494784, 0.031213787051791737, -0.02332775699867475, -0.07735504580681865, -0.06727200410967422, 0.10817923159864049, -0.08470134134948323, 0.036107317930039955, 0.04492902295460777, -0.05221717854877957, 0.02698670817203925, 0.0950104791900896, -0.030052992591291405, 0.007505762513845327, -0.0017718445448443635, -0.03927966533902823, 0.07144166492287599, 0.092785218921518, 0.08420203948041519, 0.09772894142495188, -0.037065769546497714, 0.11622107127321359, 0.10116252839050076, -0.10681851883576401, -0.09886997890390432, 0.07922158149718758, -0.08485635549665672, 0.0784647687364052, -0.09977636233942837, 0.08244579867875627, 0.01828462858024189, 0.051529451417440045, -0.06710537131824468, -0.01560691126778719, -0.027611957692232965, -0.12317992201250058, -0.08767048159230413, -0.03242112951554564, -0.11350368725765543, 0.03582380137099719, -0.02577054309394727, 0.20249576611881528, 0.14011865615756572, -0.0945525299025826, -0.04887281745046715, 0.045929511959199636, -0.1036955904278641, 0.05709165156608984, 0.13443816432548236, 0.007652810201680512, -0.01876923730752767, 0.07791088400326325, -0.042282457683227345, -0.14553091167784443, 0.007567269734614602, 0.023697088913255202, -0.11738897607961978, 0.06141867560538943, -0.06010820023998254, 0.11162006712271283, 0.08663678752399202, 0.10593941135706325, 0.000763215202196289, 0.05005459578216079, 0.005495499569503915, -0.02932979744057112, 0.0034043735846833816, -0.11619498193360032, 0.027852293954358592, -0.10556346209928835, -0.06301815501031864, -0.026086783082667316, -0.0161110525958351, -0.07807929517941285, 0.05843259499773194, 0.11129565448148415, -0.09249431147795643, 0.06802634365864263, 0.010623001405957528, 0.11369088161748654, -0.0064851310672427755, 0.09732336277080754, 0.02545466465836489, -0.09701532832695979, 0.02219067197290878, -0.034384373892822964, -0.09735359285260324, -0.02393390959474708, 0.04545729067424945, 0.19520337673676647, 0.03866916694123896, -0.0427333762036981, -0.024825936374207994, 0.041675515941540744, -0.06575310427790218, -0.05037357349574152, -0.018538879783379994, -0.09240570565268713, -0.06560377161988107, 0.01628597749541794, 0.12693689229267888, 0.04065627586022947, -0.04521410252722752, 0.15289686299208327, 0.11956361121737413, -0.03362150137578904, 0.006928816388077749, -0.03280269661544018, 0.07758165282151179, 0.001764308283214744, 0.1515814691063121, 0.09473838691540151, 0.005523486135937621, 0.03621366144415042, -0.08104146861664883, -0.08113847802804991, 0.11672418664328278, 0.024481668321708193, 0.01926065632390767, -0.012274800112472953, -0.056325473810276215, -0.06342046727767353, 0.0007729594236377371, -0.09925673180833063, 