{"policy_state_dict": {"net.0.weight": [[-0.08914702450765899, -0.035462815387879564, 0.06366916008672875, -0.06080468583590027, 0.0643534917889326, 0.03497464252553516, 0.0362818271263197, 0.03644896314011013, -0.09846504140293719, -0.010248931103528957, -0.16883551295409677, 0.0258098924607643, 0.04180612075527199, -0.1594117699151494, 0.10066944353981372, 0.07060079216466551, 0.05595352585769221, 0.008815153198071293, -0.029503097668347206, -0.07573199143828663, 0.0071847742058287895, -0.013905574802095609, 0.03788662526661908, -0.08624805351604468, -0.018107153369845846, 0.04452629182665186, -0.0918919025664177, -0.09353075245013197, 0.02501145747409958, 0.059880520947449944, 0.031542100887035, 0.008349278783755238, -0.0921883838791121, 0.1504764485995911, 0.02507081807687566, -0.07457601369905809, -0.045534375331902355, -0.05458817721783696, -0.0725916050892574, -0.15555599104272727, 0.010276750396823428, 0.07207861579233249, 0.07671854420938307, 0.07878589628705342, -0.0012144070433964583, 0.00890012152747731, -0.006616648566833601, -0.11834010547894946, 0.11029365862244381, 0.011662006954698515, -0.012171612282005194, -0.07668073002362942, -0.005246808264328527, 0.20152671151079596, -0.09315500335050354, -0.09934226108754812, -0.21459167031506257, 0.00020483632231748026, -0.0028999363211073647, -0.008774562713245176, 0.036477384204381985, -0.028270604980246618, 0.002240342910940493, 0.011837921473085829, 0.007071511696582253, 0.08150428186528975, 0.10197496014406679, 0.05671622000780235, 0.028256258719856348, -0.020002776151875443, -0.03615882412083535, 0.05320589135382823, 0.07961962026318939, 0.1338331247122003, 0.09966101338244028, 0.01604083810099522, 0.09493827316802117, 0.010455141017313346, 0.0059807715763768, 0.05628625063614506, 0.06641570711408519, 0.028274607673574276, 0.03996261452404292, -0.08979189262351865, 0.04954745547460735, 0.0496348139309769, -0.0006829027639633059, 0.15979100701981963, 0.008986305755626912, -0.08414086859241644, 0.08915320813930312, 0.003392300472355032, 0.02006352672941337, -0.013090477397903567, 0.0915576339992066, 0.09959861068499475, -0.12061722931717288, -0.0109449117480303, -0.1747886147423491, 0.004318524368918386, -0.09658106859132494, 0.13925310991344564, -0.01808253759223703, -0.012732465436891936, -0.02691998076850413, -0.10099518764735103, -0.07514259777860606, 0.03724148165754012, 0.01907713623826681, -0.03950468451716938, -0.1761108068030918, -0.10078213225352985, -0.04583280374816835, -0.07322082943561527, 0.09193207494578293, -0.019818724388391905, 0.057401571428854894, 0.032341654298537206, 0.11424016562056157, 0.042539549749077005, -0.09611620193860303, 0.0981608028680457, -0.016084777289643398, -0.03905672674215288, 0.08689927892311224, -0.08683777617549139, 0.02466231793888368, -0.05574659094045634, 0.021045277013052102, -0.050228197784183005, -0.058874595453253464, -0.090543945559202, -0.11451020033247143, -0.06709294747110868, 0.06319671313194307, -0.024620740287307756, 0.09747428560108888, 0.044001953957804055, 0.21396994806250327, -0.018898722514971964, 0.03547308056058701, -0.050718086777194235, -0.06318183377271043, 0.09119599385524693, -0.07054956750087434, -0.09620422572457325, -0.0902293949989588, 0.15392863234656814, 0.033991293191421613, -0.2261677194533741, 0.09944689019225045, -0.04629468786203972, 0.10812319128092068, 0.00019700111326882082, 0.052035613702304674, 0.0031231033991444817, -0.010449116988610816, -0.036337426821767806, -0.04545002353161184, 0.02701757383841221, -0.05049770942016764, -0.11771830676899601, 0.08880228590704209, -0.10388209600322468, -0.0906294672810742, -0.10348601695304958, 0.09399521970484853, -0.013437561405560924, -0.05182492143966349, -0.015011894926530848, -0.031053393631138865, -0.10728854200190009, 0.2046079597235467, 0.0816344727511801, -0.056473122690996684, -0.06343540911300885, 0.05289119094987061, -0.0187408366673983, 0.061676909913620674, 0.07389846713854448, -0.08175111579010756, 0.08049719299498413, -0.041379679192923735, 0.12053258146178135, 0.0811571260075929, 0.06193020953645037, -0.005363290547795328, -0.06643374362336084, -0.10240166443378479, -0.049593088028402885, -0.043780769051670776, 0.015544375869364694, -0.07580976294273016, 0.08495215089145279, 0.07120796734549126, 0.06671617058247052, 0.13657572354080857, -0.07468471190308801, -0.12475811375440726, -0.011062185047981395, -0.09655024359721603, -0.00776248000460378, -0.010788821815173313, -0.01720396079007844, -0.10722503615293366, -0.14475301583708267, -0.049998468517848775, 0.02681650689593901, 0.021743183789701914, -0.008312984723714138, -0.031596473642859904, -0.11583143516448981, 0.044883237534312385, -0.08801887796049282, -0.1115170409517172, 0.08869891307413529, -0.05823913524236679, 0.09391039778868993, -0.06178667628390304, 0.08230886949949012, 0.019016399972899587, 0.06956114183745502, 0.06513168016198774, 0.0515763876320271, 0.1051142720824584, 0.139618209241038, -0.062026157607505475, -0.024306677772431316, -0.005942607249502071, 0.032555276181324304, -0.08177553887698606, -0.12778205512539675, -0.025112438774102325, -0.06482464969939508, -0.014262815668840825, 0.06258425168250578, 0.09250113989475667, 0.16695160367124698, 0.01776653505099699, 0.0036089520102683507, 0.02272118133239202, -0.1140349757689729, -0.05037299799602499, 0.08665379960132892, 0.05586726918781403, 0.0736105460485452, 0.028313270687955708, -0.009575522851695755, 0.080607192274459, -0.02505991361520037, 0.12832958793050672, 0.014610994051301875, 0.03931472521759232, 0.10925922989733147, 0.002628764846072429, -0.10443199581897473, -0.009595944449341904, -0.006988483096476296, 0.13461176400203936, 0.08622541348697367, -0.0287907698569707, 0.009471696388466355, 0.00788862927668525, -0.06384553665085616, 0.09063609555619362, 0.00389483103819602, -0.025921201389766654, -0.03704252684919053, -0.0368115063143244, -0.03860284129491471, -0.0857882261663222, -0.14865838392855654, 0.14906910354506195, -0.0324969545905503, 0.04249828013224537, 0.023768132372409413, 0.10416245459982708, 0.028195434359008054, 0.00045056490592884423, -0.12508174655236456, -0.04626316593565721, 0.054145615196931104, -0.024587343927485482, -0.0734768503471635, 0.10391964751302828, 0.028200649529992752, -0.03146606811619063, 0.10176612413105156, 0.08549743530305683, -0.04843609073716636, 0.09890034230609282, 0.062407906694095294, -0.04716901245371849, 0.05734399529065454, 0.07057149245755785, -0.015853714389937906, 0.020605714929992094, -0.055053088849117325, 0.01303376617284899, -0.08452850336925362, -0.06369117841507362, -0.027622094800347757, -0.22485346475364587, -0.01837307810059627, 0.004626641051713017, 0.0747656716084848, 0.0018910947722139537, -0.07180784996445735, -0.12718548201232502, 0.09919361706198615, -0.022819518612072952, -0.14886750617975852, 0.029498888814511313, -0.08642168727130146, -0.11099189678232095, -0.06526709162806414, -0.04836439273114339, 0.043773057678450765, -0.02644247533095692, -0.175002434877349, -0.03834229906189049, 0.01909291259628738, -0.007538071279533375, 0.0763383015126123, -0.047219618188351624, 0.059366292207703036, -0.07204335274506393, -0.08756985346520428, 0.06669428926894927, -0.05064161842663578, 0.07225682297612852, -0.13976993410049515, 0.15776283776424366], [-5.976221019695936e-05, 0.11249832761868392, -0.01081622228229964, 0.010648545318002727, 0.12551319647764925, -0.21462348383149998, 0.05279437405340632, -0.16347137311531215, 0.09298862066196562, -0.08929494592328015, -0.19703922243814206, 0.08516492018292392, -0.07931826347633698, 0.11783289802509714, -0.06820298042735018, -0.019226265300582177, -0.021104282200516643, -0.05711209428738064, 0.053448622171342566, -0.0009961227391907547, 0.003776137278354139, 0.08196689024268493, 0.023297931228792115, -0.12055598728930485, 0.07872063955182607, -0.051292350664222004, -0.11193062297052743, -0.07627033047488394, -0.08387975838011169, -0.008213002111841415, -0.0502687009810103, -0.03547243595854531, 0.16352844290208754, 0.015615062460131966, 0.12205124625653418, 0.10958944623209886, -0.06247838356493948, -0.15282930501754388, 0.03240635145868203, -0.09564065603940312, -0.14272723196405365, -0.04932642805824904, -0.10938496776652841, 0.06213491644255143, -0.10266504139963262, 0.011868388703816563, -0.012630136199008869, -0.08260220252766672, -0.007850300509901435, 0.14150854788166778, 0.10350187789724974, 0.042013966658074525, -0.09211445669783058, 0.14475834456064746, -0.011119853579572087, -0.023088705435133687, -0.051956959225870784, 0.04048528226387306, -0.1066200644426528, 0.020343750266397922, 0.08553197158247605, -0.07532702443370516, -0.057687361795933444, 0.0542140688993196, -0.01907906006989373, 0.05412653119777208, -0.0636252610602582, 0.03288068338845102, -0.024925967737932715, -0.07649465588813291, 0.0996238880094158, -0.05855410209253975, 0.0648189405526879, 0.02741888539870471, -0.02942430899087199, 0.12920266720333556, -0.07516333031534181, 0.06500318799734833, -0.09720654007056571, 0.00881232936979271, 0.0369148319068426, -0.032310799827224415, -0.017797429342385554, 0.016793384713492197, -0.07735092366265006, -0.007965070179373928, 0.017259198140425487, 0.022589653746108756, 0.022712586235663777, 0.07359520011163566, 0.04523739193416783, 0.134636833096662, 0.01057811389825378, -0.006639966413828151, 0.12668058312050712, -0.09984975984553553, -0.06534150391469021, -0.06282060965453978, -0.06378530453345564, 0.01627768490295402, -0.06180732345396269, -0.030869514997303397, -0.021901925381260394, 0.07199488289078385, -0.004161101400195348, 0.09246707404228152, -0.11881643946754651, 0.031232385080941828, -0.07679046914063539, 0.06795888262966467, -0.08031444070363555, -0.06708005003699574, -0.018786106724302778, 0.05310663882116202, -0.0429983175538599, -0.042208683485206455, -0.012087431593416758, -0.13114054802450179, 0.01208555605400038, -0.008395754226312072, -0.019486556915105778, 0.05806612667684699, -0.09566892604436394, 0.05804895140789683, -0.0673858094629126, 0.0754151937820706, 0.14632125959052952, 0.12697840090498203, -0.08605406558320314, 0.047272778151676735, -0.03610052039743324, -0.07654410967231841, 0.12475826208510155, 0.10934655270780631, -0.004905989668421602, -0.06340154166314575, 0.12304955293296149, -0.07251580270687862, 0.05529691761390809, -0.042460687582373514, 0.0010307091013730379, 0.022015367187600634, 0.10746416701465109, -0.0831126452983771, -0.07756590312919329, -0.07444961670863759, -0.16249247208728496, -0.02173791779937506, 0.14941160768994158, 0.1306525180462842, -0.11190797401652192, 0.04887977918755809, 0.14629434353855295, 0.11131159285924822, -0.054024875102555825, 0.04935566861490867, -0.04708893486989433, -0.25095953160332796, -0.12389047223258574, -0.11254474365032943, 0.028232738719592112, 0.019015336791743224, -0.10341143688700138, 0.0031757914364726946, -0.052714891004715284, -0.018494555361767757, 0.03712470593046043, 0.13583191541784537, -0.0762751435473667, -0.019213932025279885, -0.07090271050373231, -0.04651990626621813, 0.024708824652975813, -0.09645779480019549, -0.08472093269308133, 0.014007965454691957, 0.15587153016202596, 0.03422159207362811, -0.14944469760909226, -0.038964070688149624, -0.09751310385997275, -0.03982802791888739, -0.01364447225192299, 0.023254815112986698, 0.06991846993716072, -0.0401788660587248, 0.07288105988436082, -0.11489692705263078, -0.04912996970135671, -0.07222917610276819, -0.01714091986839386, -0.01619618833093631, -0.1521020663073877, -0.017897531950172442, -0.09102448603562054, -0.08611671699864105, -0.010115679618038692, 0.19134716431890547, -0.018449846809446082, 0.05437255975895641, 0.04608344403573607, 0.08011666013309766, -0.18348887928249502, -0.13014182515230968, 0.1951668342077579, -0.08626466688572833, -0.03943698229007856, -0.05181542805151234, -0.0615966303244856, -0.1655325739059176, -0.13139504029777835, 0.03288397149454166, -0.08117464056241482, 0.16983218370185793, 0.04696968806294638, 0.10182232712661378, -0.12279516614484627, 0.0395929732231102, 0.10189924629512122, 0.09184727212843866, -0.04426122973329345, -0.07541243900616991, 0.029142635424130654, 0.010124658815733337, -0.007814112838671089, 0.0007194563568520194, -0.03911802677772812, -0.12584595270039853, 0.07012840837943796, -0.08803080542483414, 0.12312477744395924, -0.08904564670747128, -0.019615615107128545, -0.0668953954724858, 0.07106267551731572, -0.04396653988498864, 0.035778155226911655, -0.05908445778956166, -0.12466771901417137, -0.05465491587265116, -0.14689675315829126, -0.05828287296236591, 0.11286536221205397, -0.07124787147808821, -0.05823771131534319, -0.05409031148733618, -0.13377977996786056, 0.06427194942662831, 0.03930134782678572, -0.04521974274641425, 0.049942318290842204, 0.08935888563406899, 0.024909164018714076, -0.041074679985922964, -0.14264786336834748, -0.17468131219999664, 0.15087609759666448, 3.46266139895564e-05, -0.0028939226868805673, -0.003346633012034604, 0.10403391505260823, 0.014660436327510386, 0.0008371446020380672, 0.0016753683119326058, -0.03750573681202942, -0.0504677177544453, -0.07378133781282627, 0.05292379299812555, -0.10368235414328035, 0.006413749993527609, 0.02372781271746557, 0.036355893515616314, -0.00037508407896565897, -0.13499102525343748, -0.020279962862815065, -0.08954129295662398, 0.022439004203344593, -0.015674962425700437, 0.11264192739172241, 0.14896591320144711, 0.11795871238432361, 0.08754790698594701, -0.0797990712195184, -0.22242452942050323, -0.028709924365682964, 0.0987883987423387, -0.02637308943131719, -0.02775415475903211, 0.060097647883014804, 0.05553832831909891, -0.016908036553709586, 0.011793047764534721, 0.21341569815300504, -0.06458649849630621, -0.1380873262665099, 0.015274185445395135, 0.04182529978129614, 0.01089041530121536, -0.03497917302721549, 0.08516827336169858, -0.04900823634999784, 0.024808091972894877, 0.09181362129799607, -0.09540701237238532, 0.060103792056180105, -0.061078602887272404, -0.027096779118280657, -0.011413109165288248, 0.08460012813279529, 0.07158595772730132, -0.02525145900509271, 0.03910179793385722, -0.13949395102572967, -0.03489181050273914, -0.0043136164349020355, -0.03131241726220055, 0.025560239129061864, 0.034349085710393676, -0.07422089076918602, -0.027141708374209504, 0.00494576382750607, 0.017330174222345795, 0.12682507113260585, 0.06241185650895321, -0.08218706615809064, 0.009932685412487652, 0.11592458784073459, -0.06485508492946092, -0.016087230191462104, -0.10110634311753598, -0.026498083537072115, 0.047757538492470275, 0.1156745494875817], [-0.05605167608731703, 0.028098016817528063, -0.09821426402776531, 0.04968449485491503, -0.1291821371711959, -0.16356494530041243, -0.13707040996964936, -0.044370476705674816, 0.07068986773694344, -0.02738122240997751, 0.12289367877131493, 0.03271126988713686, -0.026633644482505353, -0.02112998912777202, -0.042849567618571734, -0.1813013377990691, 0.004200359684298395, -0.0013323682773867455, 0.07377408129232498, 0.021128681682429172, 0.12053325437620041, -0.03519852365976453, -0.030129249220982975, -0.04229718503896279, -0.10182817391847256, -0.03434382660144434, -0.06013617957916151, 0.08539848505075252, -0.07014290752694365, 0.04025089562268542, -0.03020178211813606, -0.04549959653565778, 0.09792787540409796, 0.03819403624981998, 0.07253037505577142, -0.0425166068054643, 0.02170237781470348, 0.07634744615475968, -0.0013020973208535448, 0.04816701033982531, 0.033482584901800415, -0.1190139234553031, -0.04981208052694692, -0.013521812446951992, 0.09085609895795997, 0.009690997591466601, -0.029226013273056458, -0.023430580636436587, -0.01258950640499324, 0.055044981538194475, -0.07332558258647928, -0.004100891814966328, -0.2520954045314392, -0.04020712316659512, -0.025643078295814047, -0.06155349711981535, 0.012786858179281357, 0.030719863126525904, 0.12649326106026598, -0.09154442866483489, -0.03524074245288261, -0.07823532368935832, -0.029384405162442836, -0.10251772545593935, -0.004597429391594808, 0.102649164719248, -0.08425103322095086, -0.1163812650509452, 0.03949899405204836, -0.031857189910048926, -0.07185980195563192, 0.12471349132498735, -0.04607579598336196, -0.02060207171326693, -0.0955582334886175, -0.02838562494751747, 0.07909102946510094, -0.10531179521191854, 0.06290628393530423, 0.016066643240801384, 0.06583077546659712, 0.05818432664118119, 0.06918123468783081, -0.049758634466208415, 0.07282762809612287, 0.13046768633243166, 0.09021697685264501, 0.07574360551146042, 0.07848991303967287, 0.04152999058374007, 0.014772893620511075, -0.08002615774570088, -0.010735427253488219, 0.029594595226120356, -0.05212785089937187, -0.10679479408153202, 0.049993119804560095, -0.01326935916488314, -0.10066185889056967, 0.006390171677455295, -0.12129967300063663, 0.01983223520498762, 0.1423969189130964, 0.06699963925929824, 0.04653644891116853, -0.12211270162307095, -0.04925810998069318, -0.02250555085726731, -0.02383107341981679, -0.051729460755417574, 0.07220067628698654, -0.1530777124271168, 0.20762000556625704, -0.004933489274975114, -0.0018769629829501174, -0.07121602473366713, 0.003679098394886387, 0.04807931914751372, 0.08203896687376105, -0.1250361344327578, 0.005465966258380112, -0.10608748197069959, -0.007667791758352289, 0.1506425695608935, -0.06664878001163728, 0.040856942242110096, 0.005743144878210677, -0.1288638523261225, 0.03887444518514314, -0.06801241398331423, 0.028554215755770846, -0.10103338928139442, 0.037985665690898035, 0.052113632356785046, 0.005412216949387549, 0.06454580264516263, -0.08297964091068823, -0.17847954690084336, 0.12045868405886716, -0.018105808230533482, -0.19615243298062415, 0.008955751625508363, -0.04435908327912637, 0.00866114129883043, 0.09196837303958617, -0.021882730141445362, 0.12721312953542951, -0.10466160880554758, 0.1696963245611243, -0.007584131556470138, -0.11425266689248617, 0.08286680336568202, 0.013719597859738194, -0.04991869746902997, 0.0028870414845626885, 0.07433029292507674, -0.11907448307234964, -0.014058408426492492, 0.017161598244169744, 0.06491531906825604, -0.008284660451767503, 0.07616919160581435, -0.06297380571057196, 0.03496654100434469, 0.005265901112850882, 0.06155839114918489, -0.038647759648244906, -0.02338642846299936, 0.03390717768239404, 0.2457774406278935, -0.020078013543795004, 0.0953320414835459, -0.01609110096720888, 0.08049772402129723, -0.017705034052838093, -0.0429045852600956, -0.08992740654538012, 0.08312608439329743, 0.09444603916269374, -0.09445853082404582, 0.0018648696749866622, -0.06589720381366873, 0.020076622251935492, 0.01635659004271901, -0.021798622658314965, 0.09118942948044462, -0.10533512124216123, 0.17000016666421716, 0.10621995140285166, -0.02649829198708743, 0.0026576840859888445, -0.08625905733357438, 0.07893855216093733, -0.05467807691582009, 0.011494579310570978, 0.0006595555361220458, -0.004335154958181816, -0.14115977023256032, -0.15173131718092742, -0.06420644846969895, -0.008530476872747685, -0.13401711423342708, -0.030973557123327642, 0.04084154251343688, -0.10867293259790921, 0.10824299814000156, -0.0730736567219087, -0.02528336773529524, -0.013409929164002143, -0.13012659632707801, 0.05875391002265705, -0.030253833686210162, 0.03486838654088502, 0.0016741616692545385, -0.10074117789245181, 0.04544825206231998, -0.087062978334737, 0.02546165988263526, 0.049262677579619975, 0.04535768189809421, -0.029031670056546777, 0.1138800636780911, 0.07077146288488406, -0.030387738132980912, 0.017032587021190808, 0.038307252037235506, 0.028362084463981044, -0.14174635433409646, -0.21404432400888643, -0.12080756563421549, -0.09947572631543866, 0.04224691361638214, 0.027318334989794024, 0.03353236767481593, 0.025066466463700268, 0.07364103422956904, 0.07624375106990547, -0.10434748588954382, -0.0288625324637329, 0.02146098428270416, -0.08246252005061898, -0.045250906083299375, -0.06197426058454061, 0.040491512178997296, 0.033423080371168146, 0.07983881528723162, 0.04286007289030357, 0.10629055412633308, 0.01944214850774636, 0.023737007391678135, -0.02180603881648928, -0.013461630021240066, 0.012293540297333875, -0.01576937789503232, 0.07733198555260816, 0.030162134895205073, 0.016472987476485578, 0.003031428782565485, 0.05138131034698932, -0.05220009516496684, -0.19412208476717313, -0.07059634887365175, 0.016985243506132366, 0.09829559308344858, 0.078042598982553, 0.05579426819196745, 0.046970579813161606, -0.008255578272207253, 0.09782212926551487, -0.03407776900065974, 0.024288536011546617, -0.17970582989822534, -0.05817184321649865, 0.1519427214779672, -0.09585465994552475, -0.009130906760716269, -0.018966282153219542, -0.05173875871711134, -0.02666968958329265, -0.027904880718987914, -0.05874998150945893, -0.07896227763282813, 0.0010917632077352348, 0.017905970096362602, -0.09438092352098588, 0.11596682458022846, 0.06611656921110579, 0.008024547694819688, 0.031410340795123295, -0.022451452101319894, -0.11646278209094288, 0.0809296547001278, -0.001274201231131063, -0.018170149733413476, 0.13012323610873097, -0.003009988897144033, -0.035333371689726556, 0.08677525548757364, -0.16471688776898083, -0.04348499583754325, -0.02956713288762636, -0.07887029878987398, -0.005933027301747223, -0.168690573008386, -0.11798646998434849, -0.03720553081329551, 0.0019219080022762447, 0.03475126504333271, 0.07421179630459988, 0.02131053906766157, 0.05392112810017876, -0.033198954357427604, -0.026159946259389402, -0.00482388200200874, -0.17432381274257464, 0.034499198019644885, -0.07787696801436668, -0.06704565418979488, -0.0426754283299863, 0.009665727247983926, -0.11492499101392602, 0.1066215322390309, 0.08575049911776367, -0.08783740088766484, 0.01879454310719312, -0.10280781358013691, 0.047508402867815665, -0.0450937398102218, -0.014962484809487942, -0.12524382944866994, 0.017626837523204347, 0.04274849562709117, -0.01468720055295829], [0.06434544569673413, 0.05917371283213517, -0.11202598021239486, 0.05886251499800849, 0.02307650575636889, -0.011462698207226523, 0.02422507705332991, 0.014711848781234669, 0.1294094388122609, -0.055076691326995636, 0.023223094943895194, 0.047619340900513826, 0.014804360977102197, 0.01987219506902988, -0.0013681104453468532, -0.08299072432139969, -0.04777008983086661, 0.1496129549238432, 0.010439762554395209, -0.12285726978842114, -0.07480612917320813, -0.0016892057108382455, -0.09206389477615541, 0.002370311104486759, -0.013232524579686197, 0.04258414118665475, -0.1512457078423601, 0.06256522272743527, -0.08506954004595076, -0.051637499909133515, 0.05292483935921996, -0.12368306059207479, 0.13768357510330184, -0.06858521233163449, -0.1072567040102337, -0.043178536264214515, 0.03383698464097663, -0.0680030158261471, -0.07629678250536091, 0.07366114745596385, 0.11360945059707493, 0.05912205822930099, -0.06755124608962336, 0.11988065085214898, 0.05386008681026764, -0.011769818726635019, 0.032481631475810686, -0.02409723369924436, 0.010674836685390265, -0.05317733379041026, 0.04009495184728118, -0.06243247028209987, -0.09040296000686902, -0.07493015897740618, 0.10493827910414565, -0.14980788431177397, -0.11650156160772909, 0.03571616676226371, -0.09969373325701682, -0.09887047836641245, 0.0961544185980804, 0.02416626496913747, 0.11744101612447404, 0.041840600870189516, 0.02631537054931141, 0.05163886343982164, 0.005717172229172568, 0.06362469111468601, 0.05278758757196595, 0.053499722497638826, 0.03503811389907734, 0.0841983629549134, -0.1349306995222797, -0.07799247098029072, -0.014295453291459582, -0.007505850974255149, -0.14779933458234146, -0.11515244967526017, 0.11203695693255733, 0.15174622002882732, -0.002928984719740134, 0.034775784195719875, -0.12823495290395795, -0.029022855373182225, 0.06669879360362525, -0.03924997053050639, -0.14129079165947678, 0.04719559757462214, 0.0770126429655967, 0.11790896048130384, -0.062495550154373615, -0.011764236720271222, -0.1634360381088238, 0.13073976058871256, 0.11527781326842511, -0.013685148500245556, -0.057250285191289406, -0.05358037583494136, 0.04972657906900525, -0.0005659080047011803, 0.05111004671984359, 0.04270511704193981, -0.1660313078595425, 0.1023217645675512, 0.05957585444563996, 0.056684007547331494, 0.12659519243051928, 0.051733316569414094, -0.040030305421080256, -0.0028079586880182333, 0.019348126150910566, -0.05052647909706944, 0.06707434903169224, -0.021117212909573836, 0.0091559695574887, 0.011021236780473186, 0.05620664526270262, 0.10325323617215912, -0.06521402585136729, -0.0918343309886292, -0.056155027671211756, 0.08204869516221157, 0.09930850720620593, 0.1701401701942753, 0.0821997264558579, 0.00737826371896055, 0.008796650088498939, -0.0023070946048584996, -0.047167670982022354, 0.03483251056130282, 0.08031467483374062, -0.04516318077455154, -0.12013499110265871, 0.1249768553152947, 0.014794009750997806, 0.10067038386519452, 0.002767023653657607, 0.09336444749921151, 0.06666845961796729, -0.003560364920540222, -0.04908988305265578, 0.08041469399138716, -0.20883590797028528, -0.01884068897353521, -0.10612601070414208, -0.2850812070052358, -0.05311570304531968, 0.0725229721888939, 0.1040179758738092, -0.10625938784051872, 0.00495004858610724, -0.05989538978577601, 0.11197144973858432, 0.05365927436267933, -0.10162203412626941, 0.16731631436724947, 0.02625512734094674, -0.10573938936863575, -0.028084231114057685, -0.019300861898157842, 0.1113241621404388, -0.0960835870337026, 0.06972326771589443, -0.02154694711947476, 0.0027011403813292957, -0.014313361385460022, -0.033718409211182375, -0.05791829083405128, 0.043188746167250734, -0.008229882668690807, -0.15962517620707303, 0.0651964503861272, 0.027972331340520417, 0.04519687465915578, 0.11832770629483871, -0.10096042835970317, -0.06750995681790571, -0.01250412688878162, -0.0535357550885505, 0.01969399676927954, -0.1929491956162425, 0.13343439444589408, 0.15494622831278082, -0.04150714359366277, 0.04760104229621139, 0.06060009474833361, 0.012791518569964027, -0.04548752660788981, -0.07195625022153747, -0.03084524770243211, -0.03621584845024976, 0.017332127083763048, -0.01960141258944317, 0.028761748890198086, 0.13635226170834555, -0.048547886974450775, 0.03223805608510386, -0.0953393178857858, -0.05014614937803097, -0.04777339046139138, -0.0666123127205192, -0.000943681608931966, -0.06282188405226444, -0.012288320509516197, -0.0877906721912995, -0.13779920136492138, -0.06922953350711983, 0.07005656997700264, -0.027432192992286386, -0.0347796686918204, -0.1160396769504237, 0.018788630208590344, 0.061367791975542665, 0.03708094512852344, 0.018409309058417853, 0.05092560747560351, -0.09327916595506291, 0.031179464089019494, 0.08860316457033558, -0.0733203606119164, -0.010494388080272173, 0.022501723065828344, 0.04574338134024674, 0.08041912280746698, 0.04899157931314763, -0.015722849465688332, 0.007346984633241262, 0.11539758102509001, 0.0042498148135955505, -0.060457139989724594, 0.09158452178248493, 0.048789338281359944, 0.04321881766041857, -0.09315961499943191, 0.07161778779896714, -0.019155397996658226, -0.08374808105772398, 0.0008680881592739675, 0.0623746898430768, 0.08055629311165056, -0.031952268044354276, -0.07513900776247046, -0.0024061728042181364, -0.18830060708143326, 0.23237017656887216, -0.048238545937032494, 0.12190286130317057, 0.005709374547384679, 0.035559290317943505, 0.02742782982026951, -0.06629467578485768, -0.11482888241765749, 0.06304373223467939, -0.01690914295115231, -0.07658703505360018, -0.0017740291443160076, 0.05317731942506323, -0.012106748128297588, -0.08828735900353743, -0.004669691242319956, -0.06115569819985306, -0.03730963642813636, -0.04653363662060952, -0.06864815991917904, 0.004151737428894311, -0.05940224477157346, -0.09669945161145908, -0.05121480448296588, -0.020326132318303748, -0.009361865024699654, 0.08872957783154564, -0.1058045573741358, -0.05632459567603741, 0.030210960520107646, -0.0037586233895013574, 0.11873560518351464, 0.03541342506741129, -0.04316463762045099, 0.04521415819443937, 0.027448274777117115, -0.03135287835742546, 0.06321983379845635, 0.025885844303187997, -0.038749586176954294, -0.033947589565431854, -0.01729279176397902, 0.031030103412117774, 0.13522432034643456, 0.028861003937171045, -0.012087559494832392, -0.02093979837465833, 0.019815368693630493, 0.029070177645369618, -0.001940740580853545, 0.1092935252190772, 0.24448166615960326, -0.08604031160103183, -0.008467324885892531, -0.09180500381041586, 0.09063096083981675, 0.03496272364286635, 0.06017360495694432, -0.07256744059712904, -0.027923167682785462, -0.14379236385701907, 0.03179133470465837, -0.02114827441415918, 0.11526900256170496, 0.11301650977801621, -0.16627304110977253, 0.0671120181816435, 0.03210102652497418, -0.03948275041624048, -0.04115286919550811, 0.12145360797280975, 0.07767102952183388, 0.03293855299119079, -0.015921659940916974, 0.12501843424387468, 0.043136659624784725, -0.05035409868909847, -0.01851589423444838, -0.07480233453954173, -0.10378981598250042, -0.19802263316266458, 0.002102683004574882, -0.1410684181184583, 0.023855459166090855, -0.028695150856449685, -0.006830821462654887, -0.05975993942765286, -0.12699759883443398, 0.06335572768438913], [-0.006204545997970655, 0.0224839239058189, -0.0071171382582090985, 0.06762172759273147, 0.11298557102623383, 0.09503354426611815, -0.14464635919991448, 0.12806610461840198, 0.048130440859969384, -0.0022117702267353367, 0.0658487014626071, -0.007250264011607837, 0.03454240019208047, 0.015720851372804632, 0.029384909606658134, -0.054190919122435836, 0.019817158339963042, -0.05642375718998874, -0.008877490308569186, 0.06912955156767477, -0.07345762337088863, 0.010580757030278254, -0.0989192198004705, 0.004659554972203158, 0.11512840383025671, -0.1369155674625669, 0.036276130353733976, 0.03484237497219772, 0.05931471989332335, 0.045464141195902245, 0.018527689773509683, 0.011406343352495458, 0.06126423765113733, -0.03843915416740428, 0.09870962376200648, -0.019134210488329487, 0.17460132208562132, 0.015908014700779016, -0.005327835865796048, -0.10655022421269122, 0.0428555308847655, -0.010484287577927366, 0.11843741870908323, 0.09518808340803282, 0.11867793991246894, 0.026409323901556085, 0.003996665318957355, -0.10603798051758294, 0.16388101422834828, -0.005643333153505051, -0.004783171296165908, -0.09100413152682597, -0.007383870012525017, 0.015009344176377214, -0.10049159564451851, -0.13001931136066724, 0.0224860596294379, -0.004057509153630865, 0.04204949037149675, 0.019235404308054396, 0.0006726455157874569, 0.06623494554948384, -0.014706827588526233, -0.01974840958471971, -0.0023972969269121227, 0.07131844788392544, 0.13590386136127952, 0.04150414369128819, 0.04154823480314982, -0.04748284721747348, 0.08481546259654407, 0.024168368278115693, -0.00027035191382877535, 0.0011654502488767252, -0.06749158471446004, -0.09070443819386768, -0.05326887482952227, -0.14231448362396204, 0.02661428630596897, 0.018698663369945412, 0.0039646372730244555, 0.1387488230825423, 0.09713002874984375, -0.004553096915195929, 0.034623293567438325, -0.06726287449052844, -0.12722294309115503, 0.01243191616622242, 0.0003036564988355413, -0.12460267007364556, 0.02986733171018401, 0.015143362180092644, -0.09295452168561114, 0.032760727076855, -0.09268422375320859, 0.11783134327800779, -0.0064223880802880455, -0.0984065778543458, 0.141700425115946, 0.06764842177162576, 0.07264581701763727, 0.07507572468296285, 0.016514448739805974, 0.07850187812399176, -0.008532717251617892, 0.042940733908408635, 0.002073102848099625, -0.00650183972861863, 0.0317318304966156, 0.2653933185318751, 0.08932298205441021, 0.19474793192401335, 0.00035718428799738834, -0.07844952655332303, 0.028881502863930777, 0.13845940366318607, -0.04789434454186813, -0.05024998374957939, 0.032354468406455596, 0.0511644588151282, 0.027397668640724245, -0.014804199769206813, -0.013043117049894751, 0.0844066168322587, -0.004447268816051852, 0.09642531807529078, 0.034521778171992125, 0.0695872847462423, -0.06031042802313598, 0.06099795702525851, -0.08735880817446032, 0.040273708571268545, -0.09565330264159333, -0.08503450814146056, 0.04516960043318581, -0.14579345403838084, 0.010530763679297468, -0.060064996023626395, -0.06361073972467834, 0.008945870052373, -0.06380462678643299, 0.005929775305664264, -0.11785595651019395, 0.017568233676114216, 0.03707467467765161, -0.07818547459711436, -0.032783747569157515, -0.10205577383169302, -0.0908539571668529, 0.10440179304505623, 0.004403216348547622, -0.026161097218652042, -0.03139326240798084, 0.0009391802236898186, 0.12936747191902045, 0.16397961222767563, 0.05746086107419818, 0.03210419813632476, -0.039434712691321795, -0.01753216130373431, 0.011785893098057785, -0.018879475204260764, -0.0684929477690981, -0.017391650663271408, -0.014086329541771726, -0.0057891722667343425, 0.05801041736505535, 0.014510461650974924, 0.01207914935465858, -0.049538586565028866, -0.012085156668292733, 0.149764362844721, -0.02901051427271131, 0.11523612729821094, -0.04765252524920362, 0.12994852774196514, 0.006968576915264176, -0.08845350031266923, -0.004445720041189112, -0.04989256118832173, 0.0345612445121401, 0.1043883417895044, 0.017568676231542426, -0.12695777598816108, -0.07078941914967257, -0.15067220667848838, 0.07417389094768333, 0.07206109184168502, 0.04735412741061166, 0.03685465307492449, -0.019820296558269005, 0.015107392451640656, 0.0262157918252, 0.001833930373036928, -0.12609032759223684, 0.09115723755185709, 0.004166851351548805, -0.03570381616203101, -0.06396556504442288, -0.006724106000372266, 0.11334185648132952, -0.0712317464043057, -0.07508530095378417, -0.12385944071409083, 0.060740952791455735, 0.06321890624368748, 0.052037736483310414, 0.0096980404647276, 0.02890609688091739, 0.10482459196924111, 0.005622368425644231, 0.07926254241097733, -0.11043474120972757, -0.0875806305324998, -0.02698109969188472, -0.03201345130090122, 0.04220165267812156, 0.12586686257060936, 0.054911995417841565, 0.01024866479194424, -0.014477566708543244, 0.03738395511228725, 0.02429256498202674, -0.10574237569884319, -0.05410154325013988, 0.02289270616097496, -0.0022762933488008324, -0.015405488794434562, -0.0884357189080822, -0.050341426984028936, 0.06434300908264245, -0.08055930886829504, -0.026616993102596246, -0.0270384193823228, 0.0020063585185260556, -0.03932331260793958, 0.040642453788978045, -0.08309241671586699, -0.02787624580416725, 0.044934156049521994, 0.07262883128082812, -0.033657526660670525, 0.16756313300345288, 0.0755062468377066, 0.02981106062548404, 0.036691838128974454, -0.0687843387348217, -0.0060396621973128626, -0.10179432529501126, 0.04223718368046887, 0.01869716851047819, -0.011800549597678602, 0.0733396428100894, 0.05112630241853716, -0.0531806916329551, -0.07950855688531279, -0.06531168932114848, -0.1979243658210849, -0.026600148370171783, -0.032607194064500404, 0.11254226498218811, 0.15145497340364564, 0.054359114852504546, -0.11333284057101067, -0.012101434559704772, 0.09500145392167701, -0.0817530565778132, -0.15556690322403455, -0.14515303550307282, 0.08670895658998459, 0.07131997590998465, 0.0362142398690756, 0.011204365985132567, -0.14250869835808216, -0.16950269117915645, -0.009962984334993333, -0.0638473932591886, -0.002299360308777227, -0.007114643736243303, -0.0024126767911517286, -0.010296149853720711, -0.2285877955199449, -0.11513057967159966, 0.04291521432738628, 0.1366415592710669, -0.0868782383204739, 0.0617960593711831, -0.01043048460811903, 0.15028128038710642, -0.004981178361053879, -0.1381269483245804, -0.004041953440130037, 0.07996918008312458, -0.02917241807202087, 0.11793726658519291, -0.020528433364963235, -0.06124290913073345, 0.1602785815113247, 0.036329571391821906, -0.020169401606952245, -0.09837330964048994, -0.016764240209106735, 0.039235528793241006, -0.01419204052785027, 0.05411945002332651, 0.013805499369013272, -0.029983495065031104, -0.05069923329850895, 0.04338371757158603, -0.13046858226445449, -0.053396980767725956, 0.09747310847190532, 0.061382811192136205, -0.07469407609526871, 0.04600152486112988, 0.08775392226690165, -0.0036337190984202963, 0.01675034226540788, -0.06900735386981169, 0.04002010019066649, 0.047631030023524416, -0.021750355309610562, 0.009488426846407456, -0.08758865569398529, 0.006351960019525214, 0.08868092672267058, -0.020621827371158852, 0.04704735653987475, -0.07078124218235538, 0.10031688621392842, -0.16476322753605788, 0.010454948924980358, -0.00324112063307162], [-0.031301635737319505, 0.11911940501189151, 0.12970297321071322, 0.09177337486438707, 0.0572889052643918, 0.04925193826617048, -0.016332900178019052, -0.037217683603068354, 0.06348473366176852, -0.05135594286449042, 0.039303471874418995, 0.02449184295814615, -0.09339549301889179, -0.03517836078190753, 0.03790353441968718, 0.009824039990734485, -0.046029428847873345, 0.09395676718598232, -0.04641833364229767, -0.02838615548907456, -0.05428315942226873, -0.008720150370705998, 0.012268878511039092, -0.12813147925629967, -0.08597264201153075, -0.04068547831535154, 0.08161278239896104, -0.017313967799908524, -0.056942407084641065, 0.02057027986697176, -0.018045606777553423, -0.050228755589138536, -0.0684958254578856, -0.04994736451624217, -0.0001507206893299842, 0.0794626387296298, -0.0694318295334043, -0.11004649416406193, 0.043767913533592315, 0.12469000256148133, -0.03426420036900925, 0.04756401539719382, 0.13081046947815517, 0.09517583235804049, 0.08903609507495029, 0.044525718486382294, 0.09755297274629235, -0.02611269014149561, 0.0983850929406612, -0.045290137583706834, 0.029574283062558906, -0.11040361872595221, 0.09379145097970684, 0.019983426815509662, 0.004600355866902086, 0.031758128602764626, 0.09014228954468902, -0.01700532140619856, 0.039202858726397116, 0.06605913301482368, -0.1177151933069765, 0.013298348487386426, -0.06979031945254209, 0.09532686713024734, 0.005945664990559982, 0.09506164887117158, 0.008248719566676237, -0.03761252544534679, 0.02368574659256286, 0.14037958704306358, -0.03914180228277243, 0.10532977859379372, 0.02991799520847423, -0.02796551083243608, -0.08375400550151567, -0.036232282334511194, -0.12434522605993048, -0.029228674999057232, 0.023672568998746618, 0.015256122079386536, 0.030939196026571334, -0.05138809545767473, -0.028084984444070447, 0.041406158818506664, -0.01697630580070915, 0.08234099586380801, 0.05213864823078277, -0.03477488860763407, 0.009985480867738906, 0.1355885832916416, 0.05639423089814652, -0.02562616029040065, 0.08927881969087297, -0.06867026480825382, 0.026270479040236328, -0.2326118518649049, 0.17985418014294208, -0.05929350842338488, 0.12124839734146382, 0.012399691553147397, 0.0011982751537521748, -0.08187171184568069, -0.0575865354436153, 0.06860047092032645, -0.03695443005988404, 0.005262578505214931, 0.010710102065584563, -0.10848860516681709, 0.1477603783572079, -0.07027325144101558, -0.0971344464000819, -0.033455147117986986, 0.0882428596598468, 0.01426521414306935, 0.03306141456915132, 0.02256564104796471, -0.022105637655731585, -0.03627782266084697, 0.013957634026517536, -0.11402604103519155, 0.009490687041273585, -0.039809992744356336, -0.12816071279137164, 0.0216907325691763, 0.01882627247380015, -0.04338752337991958, 0.009015673696859775, -0.09158354594403531, -0.013198735582164015, 0.014702611182119662, 0.0836011079015855, 0.14332540930223606, -0.02821317641062952, -0.11992214291403318, 0.027780571005035604, 0.023825780160365566, 0.03707733946528538, 0.025097943787268442, 0.12626257972131646, 0.028550256885789306, -0.00911803044661422, -0.01758219587386886, 0.009042137879075023, 0.05190146601217401, 0.17284645438210036, -0.036610551884148176, -0.030204590753354837, -0.12207270421323482, 0.03767273296575633, 0.026986676983839976, 0.07320202648527714, -0.019040969228121457, 0.009266900674052978, 0.03696346898861021, -0.023385226309941574, 0.012810494312592622, 0.03488228593049428, -0.10067751433306521, 0.06605798672531353, -0.041386997289032085, 0.10789452472045832, -0.05427866526351796, -0.005740850351071598, -0.002940705926986168, -0.01793125191737027, 0.0729154264183897, 0.04563728285271933, 0.0036953190066557396, 0.11084120913094794, -0.13185474446759857, -0.08342681358361734, -0.029747677253242916, 0.15994533510792108, -0.009969228131612249, 0.014490034624141486, -0.00750167507413856, 0.09664214897196964, -0.016894350555582145, -0.08960144202340188, -0.09805779716950011, 0.10314550193135016, -0.0005821743005184846, -0.015384433953386964, 0.01408914987806723, -0.05541787030161783, -0.07353696514632374, 0.08021469437524757, 0.053526984693388666, -0.026686468554663133, -0.018879117810139304, -0.09996616156792079, 0.21464705911011842, -0.10252392184720877, -0.052120243877410495, 0.04029732865254368, 0.04309423983513714, -0.049618683802556025, 0.08677949902449122, -0.05778108034180234, -0.003314491720621527, 0.026446823341493984, 0.08449733767506673, 0.052988707306990665, -0.0025820570123392954, 0.011228804857861322, -0.04030606665347079, -0.04854268000726405, 0.17566082855299534, 0.06596396630494876, -0.0018956200976040487, -0.11125708216889456, 0.03571520024154392, 0.024906713483687705, 0.0635593530997022, -0.05844266423403744, -0.024466981831099993, -0.04092179961873451, 0.10931123406207845, -0.060354027066336365, -0.10563293928085259, 0.004084920670576272, 0.09509126165063003, -0.10763895786830849, 0.021888470783360547, 0.051451938562511686, 0.017991527391056538, -0.001863349187602599, -0.052410349859187806, 0.059997627887554715, 0.052562671433346336, -0.07769565203665249, -0.060599862450931, -0.14396403832018545, -0.007863617979574397, -0.09703021526211948, 0.039284399037062434, -0.007299875464751492, 0.04634118821477467, -0.018304492562083944, 0.00023631565911046756, 0.04544543227854039, -0.028124691794476634, 0.03546817214577257, 0.10431908047958494, 0.016405345118658814, -0.022914239733371082, -0.22728321378431632, 0.0011931443225811813, 0.0692360268753362, -0.0243527739798734, -0.042368579525580284, -0.013428462367716549, -0.19037095865907824, -0.014699072373383264, -0.014338189388262495, 0.019468391760205143, -0.07964711887836175, 0.11845703820209527, 0.10138297071076019, -0.057852107166261775, 0.09504798366636967, -0.033603656622295405, -0.07847135063447323, 0.03153067991836915, 0.07425177950698138, 0.03230999630888881, 0.1487648681267733, 0.10022332385542598, 0.0981329808510029, 0.012644483543232572, 0.0204872796216569, 0.18125159923673348, 0.00787161442287874, -0.019250302929924648, 0.04872892530685374, -0.05737480310314407, 0.051837042135127645, 0.11031784100868083, 0.05738232158451514, 0.18282487527879795, -0.017513202369257835, -0.06299771709668613, -0.059992974772908894, 0.06820625185736368, -0.07043331423799977, -0.07264206968823968, 0.017404143108441673, 0.02861832034888059, 0.008584191540152263, -0.24584676411093756, -0.0291854149409348, 0.07722048963642432, -0.04526426882462985, 0.05585835938193044, -0.014476811760521163, 0.07711846426384006, -0.05740979031654807, 0.0691610721031351, 0.10415487951324827, -0.06493241504999268, -0.07206647835636883, -0.023421866222363058, -0.10104231802911391, -0.0870636952100954, 0.011132662436648153, 0.028277036841645502, 0.019454981837542212, -0.006108796571853521, -0.04406152788330679, 0.03530364614030639, 0.0024538944175745573, 0.07850645339163106, -0.0012339007242552305, 0.00997700001309512, -0.0352878559627119, 0.03013223745271307, -0.07608367768235029, 0.025540164165204125, -0.08516552358768263, -0.012390183658956038, 0.03961026820894716, 0.10191139967309801, 0.002857337107080049, -0.21016873069534442, 0.03346492473248552, 0.0706447059869115, 0.04722912287105628, -0.08191678071795325, -0.014247778147174789, 0.03017642168149334, 0.029848880222305554, 0.04903307766881908, -0.11420643921663189], [-0.03296106299418605, 0.020538003430942055, 0.045187697216757666, -0.21292609450975736, -0.008445392057774398, 0.054531681000645864, 0.02334917964430632, 0.1620562511895152, -0.1336612240360218, -0.022005431371861308, -0.05342335309152865, -0.14139689005829864, -0.05944803644967272, 0.035975469685372394, -0.014892720326924038, -0.005207360997660646, 0.05050303296670243, 0.01178035959552324, 0.049690378016477674, -0.01630848476468295, -0.0009417187000136962, -0.019809876762494686, -0.02471192458249481, 0.14565779794608716, -0.015538097621560333, -0.03140386782722236, -0.07387184110351913, 0.1637130353666362, 0.03405048769287298, 0.031048745011675555, -0.07040556255908513, -0.07080565001212559, 0.07166824062614433, -0.03189012083116921, -0.07387100509889627, -0.0816127456746364, -0.09175029669743659, 0.12653511649621518, -0.005390379928212271, 0.04588331496838293, 0.050404457288526605, 0.04321399738317763, 0.020865041349366616, 0.025805129855599834, -0.1546240627580996, -0.056864281987970465, -0.11282019956369634, 0.12251931995808357, -0.040954492320560476, -0.16066705969260334, -0.039973605603370196, 0.06370170841591717, 0.07138116484402057, -0.05813783950968689, -0.06684134417559323, 0.07039131539295543, 0.035075994005623244, 0.06850097729680847, 0.05933306580337082, 0.030580890223441102, -0.0035460641820661753, -0.007171890843207412, 0.04637789175627365, 0.05416974438076419, 0.04813633467188361, 0.01391655705288667, -0.04988916200104532, -0.040597873884334355, -0.04444466839024265, -0.12620456311286196, 0.04620434168733654, 0.028314083288064777, -0.03605493378569666, 0.05677595016787247, -0.051811003331834596, -0.0827644269423962, -0.06454046169288737, 0.2542385149650289, 0.01876601212662818, -0.02807206558083108, 0.02339441576650195, -0.05683019189691529, -0.015789706837906516, 0.01543932107141885, 0.026496029503609825, -0.02866246263268051, -0.018867950011286615, -0.04216181294603731, 0.028768781924152758, -0.1456753067710071, -0.0755041184349566, -0.2193035293445101, -0.06427911270386824, -0.004959915086456783, 0.023956885466882887, 0.07303894318970892, -0.04669236294878836, -0.06692332553414843, -0.006827810972806201, -0.004092612203136288, -0.06201157693167673, -0.11819425284676545, -0.00581584840873981, -0.03461384084793882, 0.0429962498465515, -0.002509914174737972, -0.05058578045699345, 0.038807016790256964, 0.026671713811822744, 0.04825999244544615, 0.039063370884122414, 0.0768029638498113, -0.014570229362881455, -0.022157025608228652, -0.08076212580490241, 0.03237066300350709, -0.07244915098401024, 0.18472971500564406, -0.06799872732551464, -0.12640128699202216, -0.07090628678817443, -0.049937331522159775, 0.01835008346545677, -0.04439571867421238, -0.07972143236856971, -0.062327762718762135, 0.02201817025809191, -0.07832913299973049, 0.009722388605113876, -0.08827956240911856, -0.042203214978141425, 0.045335664769131506, 0.11440947054748934, -0.002399511358655076, -0.14230062131213644, 0.006066213609133259, -0.04325084659564917, 0.05998020531069992, 0.022265670365385726, 0.001964271096873614, 0.049949276682212364, 0.07151571888069586, -0.10824622070444252, 0.13093472515084106, -0.08483337947590368, -0.1294278558158897, -0.023999480329989154, -0.06230155560112391, -0.1931691628539248, -0.09553346998874616, -0.053410322604426436, 0.14624291704255177, -0.03455220201487336, 0.0038261415461129846, 0.0604447835628334, -0.18278286141259548, -0.03099035674727248, 0.0718077026384058, -0.03342014127197012, 0.02055696871613972, 0.01751279898692896, 0.005420986592004213, 0.06964432651529784, 0.02143428541108546, 0.07592936909018007, 0.008950924479169812, -0.02216904266779559, -0.04222542173621208, 0.0867581278184186, 0.10922065845807928, 0.012148586980118588, 0.12565277668866506, 0.06606429094079234, -0.03867037738354801, -0.12821203795884123, -0.207698926353684, 0.0010234648578349166, -0.036073158321354416, 0.06784247523925507, 0.10038019273140301, -0.0014752170878749016, -0.048033456458163336, -0.042084980326221086, -0.08128663633445046, -0.01944251461509378, 0.057305697185075576, 0.011859816437218264, -0.01928280997761036, 0.06512125253756874, -0.19701234292802222, 0.00649874189987027, 0.014914415977760111, 0.11976961988333013, -0.07448937437772421, -0.05495420933188674, 0.11279806038326734, -0.03434162716072169, -0.03823640012852211, -0.10629324963070721, -0.0015758389554039933, 0.03970371958803029, -0.039114742237959785, 0.002581353568974991, 0.16681381289925568, -0.12760266184532357, -0.019763662408814966, -0.11543503123249468, 0.039767524163938216, -0.02177292546140096, -0.10561516393353668, -0.00771435151577502, -0.013042462588580923, 0.11347123492071955, 0.01325381329228088, -0.12306587293272735, -0.03143707104247372, 0.04660465986079932, -0.0430961968360613, -0.09922817367469484, -0.04429456686639776, -0.04787913172461678, -0.1774857889265937, 0.019567701776270464, 0.07556405256622635, 0.07040775426351638, -0.20582936532294446, 0.045751095512990635, -0.051677622311443586, 0.0606797098165316, 0.1050906163487653, 0.12728317528499422, 0.06867061691790849, -0.06516047486002764, -0.005089750032867497, 0.022614855791483614, -0.0950725663687848, 0.1954001051926894, -0.10540485559496235, 0.0014086445276094608, -0.08723388910495651, -0.08817687088280836, 0.014489507079967875, -0.040804041095649994, -0.011069488853056883, -0.05789286313409918, 0.03797277749981334, 0.09074310312189048, -0.10636316708886459, 0.033986547402721785, -0.0771039112000267, 0.08326112956819631, -0.1456187937619781, -0.04168486692695077, -0.00012504694366825115, 0.024847859703710562, 0.07109441426613583, -0.048466218659790394, -0.03127058864782746, -0.08714725150177588, -0.10309925937892307, 0.07135680195457311, -0.13651522918488465, -0.030877242995406028, 0.010657430700686666, -0.043531601760786146, 0.02299292720246952, -0.017990573405594186, 0.04134304916601442, -0.06356239112892621, 0.09291168306140149, 0.015902603024881057, -2.531730026551072e-05, 0.005027002788851786, 0.09632746218281821, 0.039543380223587776, -0.000948220634348824, -0.0871957805799228, 0.002560679581641798, -0.0679742044432624, 0.10607496202491395, -0.020867836247482324, -0.14613922610679128, -0.015324373974644355, -0.10562676217347974, -0.1369745764516367, 0.009973880839699517, 0.10006237165656615, 0.10327907163078401, -0.11221637973413132, 0.03528521186770569, 0.12286175776450459, -0.012180479042491001, 0.030156346937676354, -0.012451175472165163, 0.03463231346763276, 0.04391358717393415, -0.05743635500959056, 0.1357240770614102, -0.09089970648509874, 0.03136077347830197, -0.008634113067242955, 0.0338338409516041, 0.08452311798627857, 0.07847953412507358, -0.04362836038162016, -0.0447565420079929, 0.052749025167993, -0.012970670024792061, -0.07779024063106713, 0.11057166536678598, -0.1479624014523714, -0.023472919557954552, 0.020361832225766992, 0.04535983522486069, -0.1142258477499999, -0.025534475584323004, -0.1346223336977192, -0.008629710818174088, -0.048065754244900546, 0.08951229871991438, -0.011760481750499801, 0.11238072769330902, -0.054933811209532085, 0.07494780124636063, -0.05560254866266133, -0.009471163632339219, 0.061417929419226705, -0.12675146220916073, 0.02674780175230683, 0.06398331606318615, 0.06485983818360276, -0.0668178768904183, -0.020286987041414947], [-0.006184028662481543, -0.05907498644462278, 0.020813861129072894, 0.0447137090767138, -0.03904258911953035, 0.05445889504538296, 0.1211317530571551, -0.011973493260289922, -0.10184001167626591, -0.09064225876550076, 0.013053677880880448, -0.06179739245220317, 0.1678534190243251, -0.05248136481175657, 0.04534677163471845, -0.006521721055618623, 0.14766167505197064, -0.05185827661818148, 0.04068967224571581, 0.10024044923814855, -0.045743144335201345, -0.036932089622289124, 0.13036745450527, -0.04436698522024015, -0.1227204484068474, -0.10129399830426379, 0.11296181357028237, -0.04833437155028235, 0.006754582092766003, 0.058465280226022036, -0.00979163711192958, 0.019173380153745968, 0.038414538015107386, 0.07885717206612669, 0.0008257633123688071, 0.08665401073861922, 0.012222826588398922, 0.07919524547659813, 0.020077157969974124, 0.011697042611593144, 0.12294881507012333, -0.01586177391541028, 0.02916381387971338, 0.0635349400105513, -0.03169996006800661, -0.08126097885541762, -0.026975971759600297, 0.056341319173984085, -0.08955236105842462, 0.10569058813542245, -0.11209010686876511, 0.0013939452617396395, -0.1708485305758738, -0.0018128666941131005, -0.01272645012110613, 0.03634325686351773, 0.012624504655306148, -0.04152973218445855, -0.1013051615919688, -0.050052284838614104, -0.08472356050393362, 0.025387283072256635, -0.10455904830169747, -0.05294048124480039, -0.03728286506426552, 0.03159474270631771, 0.12247103095178918, 0.011451322031077541, 0.002019655402325627, -0.14864382158458123, -0.06028067517908093, -0.11720683052800075, -0.13673868211495685, -0.18691493036617687, 0.09518632315178885, 0.017418278355184426, 0.009269725143902712, -0.07054694281017479, 0.10202507338475483, -0.07414676766626294, -0.024147190004953377, 0.11128594271192754, -0.06744239640258404, 0.02563631866070322, -0.17790217222417473, 0.10025144733760796, -0.05851176969782881, 0.1444432068361068, -0.0644011633023466, 0.04738050163743629, -0.03381649704446243, -0.1407677792391074, 0.03394952927313069, -0.11272287936848441, -0.09581944027397842, 0.04470368943659069, 0.08743278642966011, -0.05603713678100609, -0.017530068728249394, -0.15024144570353332, 0.01303989564171103, 0.006360377413885792, 0.12704088219759913, -0.0014931456085150745, 0.1596407594524431, -0.014947799383709232, -0.05856885684165122, -0.00880319872350796, 0.028372035588679352, 0.04586583407416867, -0.03365159299159654, -0.03474637293533621, -0.1371182737904607, 0.002249718846260596, -0.033057236199532436, 0.02548361570930492, 0.005807572932813096, 0.042748964430103384, 0.004364948541263166, -0.028399777390288372, -0.02883210295758255, -0.02561406717335076, -0.046355980484053254, 0.048209252925519454, 0.00959050381396227, 0.016240401603851668, 0.038710100455605356, 0.10313966143333919, -0.0839465817172204, 0.01205193100045203, 0.008184559134262718, 0.11738316152032521, 0.11818538733108681, -0.015086573941807329, -0.0369080768205913, -0.11752150642849339, -0.029137153529693142, -0.0792033558805188, -0.01841395113984287, 0.07098791188748346, -0.09012961445585033, 0.11892676936255646, -0.041791360072778644, 0.026525387634227415, 0.197217505108234, -0.06641053852094471, 0.12011558160165707, 0.12173143096144168, 0.1073892725273415, 0.08086026115203498, -0.195331653525912, 0.013122761245317317, -0.05007229620667392, -0.04111078278872195, -0.08060474752407533, -0.028880207950286427, -0.013245318491767102, 0.09544902464605279, -0.028264346343197053, 0.03385881639179111, -0.10750351701376762, 0.010867211355675553, -0.0023035251492781353, 0.00696632670289019, 0.08608326719747747, -0.1117969225890868, -0.11041335302978074, -0.06358463191439066, -0.1597508522029284, 0.061847966436563, -0.029136589252187307, 0.0839311348737692, -0.061128746326823344, 0.005357676475703058, -0.044450097478617216, 0.18627475500016505, 0.013988153201404771, 0.05630565365046265, 0.03731845419742195, -0.07175673739856087, 0.08904785153112858, -0.002956960477232209, 0.03736926902240576, 0.02552612589487714, -0.029854044789252798, -0.07719024022234153, -0.09585630627942034, 0.01724989615803564, 0.049521196161276995, 0.06920502385620855, 0.0901290882312646, -0.0467089050124418, -0.00011009487070712877, -0.23415587100832552, -0.03947680394443726, 0.04607590011983299, 0.011160217109631648, 0.08638401287076748, -0.16398430702384667, -0.09205274097892634, -0.08966351996618033, -0.00933486044525596, -0.11935375599960495, 0.05398301040278109, 0.16317310588716472, -0.052963756251361585, 0.04958969964276443, 0.07008892550936333, 0.11859974802961763, -0.005289711581693825, 0.08918961344358652, -0.048842797233493725, -0.022551854608441897, 0.06364889927568998, -0.09500896474251068, -0.11086776761328809, 0.10108871919763389, 0.02049083288178732, -0.05343869203671286, -0.04939491233654154, 0.0490313454437489, 0.10333221846205433, -0.17172539159513622, 0.08627464930929084, -0.015826450056072, -0.00012348386489769163, -0.07749186178676168, -0.00029635821444711413, -0.10541832150247331, 0.06027265460355514, -0.1333341173519547, -0.08338063989517999, -0.12985940926026301, -0.008309745045151562, 0.05485529819622376, -0.1298320479232899, 0.09543785399268756, -0.1030362838531712, 0.11110562650477492, -0.18510550004711915, -0.05677708550905862, 0.041067598154163894, -0.0019850632147988684, -0.03797471193554789, -0.08558426454604046, -0.02745142857902261, -0.08667740850994296, 0.144699849175903, -0.12812832309523267, 0.0730492411407317, -0.12188711011332438, -0.09963405505546945, 0.07347348518230709, -0.02068296109774022, 0.006552701349727397, 0.0039040637249725153, -0.07871940527655774, -0.12317288631431081, -0.13645846284346755, -0.08577377027706932, 0.018253040228080494, -0.010184469275460982, 0.006423193645284452, -0.0273065174533067, -0.07900824124322328, 0.16616717185082794, -0.13640629281034047, 0.09071016568085415, -0.028434060314544228, 0.009790961706583954, 0.056761361534027624, -0.023480412290965817, 0.02231182344944635, -0.042536497054338346, -0.07406063589832287, -0.02115142241945241, -0.013568565550211749, -0.16037172477908862, -0.008811244996725358, 0.04231096081465714, 0.10490342679634193, 0.05820076599791223, 0.0007975850079158048, 0.00588176830567646, -0.021891649081247116, 0.10629359022127585, -0.02932428481592057, 0.002406644413386654, -0.16407122015008277, -0.05254948044835609, 0.0019003455562578652, -0.011143320907633064, 0.04234084082183026, -0.08602223366372508, -0.04162216511382506, 0.025077602476099567, 0.10609277505400312, -0.09865640163869234, 0.048328280091732255, 0.03884151515506539, -0.027534342465120848, 0.0370348847909445, 0.07013545066822807, -0.1547986104259769, -0.11987447293117541, 0.051471281707444125, 0.034985204348777985, 0.004878390568459044, 0.05070864749205892, 0.025346518394768428, 0.027347722458957967, 0.11446550710354948, -0.004900709436411589, 0.058339981541285474, -0.05793302936789452, 0.025039587071651975, 0.00674418365954779, -0.030523265956093754, -0.129124371635034, -0.09788823174786361, 0.022891258519260653, 0.06674229418340098, 0.006166767452534461, 0.13260604723077066, 0.06385457001553087, 0.046817130393939616, -0.009670542535814331, -0.0022776398096472396, 0.18204326689310754, -0.1655409774558151, -0.01352951741353631, -0.10022974987793459, -0.06138806157096311], [-0.07946623313762169, -0.046393505075521466, 0.039225126018850566, -0.03398400485839099, -0.13852425483906255, 0.025730133918924137, -0.0018851343913039475, 0.04660663208240513, -0.1450487668817377, -0.005341077804051878, -0.010346781879665432, -0.003860976562168101, 0.06062238577860793, 0.05111041342531672, 0.04367283389334207, 0.054371221013278036, -0.04423616152243976, 0.10370056149340104, -0.009306758103812452, 0.006342595533259727, -0.060237377104980894, 0.1376633547110974, -0.05337589464954618, 0.03163786419013606, -0.08852912839220574, -0.14052972495907956, 0.01951306968207718, -0.01942470760896373, 0.08575297735818442, -0.030151512738332827, 0.15593561978427986, -0.10859192461805192, 0.006430432092937416, -0.0736356286312869, 0.03247775310047304, 0.09726443908450179, -0.024186895431252735, -0.05370008399327579, 0.04518549779320745, 0.0980113315940165, 0.11134041888619313, -0.06587668510290645, -0.13305073274454748, -0.019509502777062076, -0.04439688847909355, 0.14345650126986348, -0.10326026389025754, -0.06491015736553378, -0.045413702231575745, 0.096822152487724, -0.02834440905644414, -0.006670518373510115, -0.051189620827684475, 0.03345231844802211, 0.02507767797887305, -0.005762377775241319, -0.017319749967204662, -0.036113955216374435, 0.03640429420450229, 0.052009709209198174, 0.025229227769197747, 0.08989130920896216, -0.10581351766314769, 0.010914280196259256, -0.011533591362098828, -0.018528669627182175, 0.04576741895454899, 0.10526836713798296, 0.08170314325703024, 0.04212241016757734, 0.023403616599533408, -0.017381829236965542, -0.014473172246186668, 0.09617502352275918, 0.11046254479459186, 0.0612653369436039, -0.009106156206160988, 0.009255311654742948, 0.03960561333497503, -0.061604332889535145, -0.13500489208190702, 0.12046293846075036, -0.09847245137493597, 0.03398731712696037, 0.1420023496502273, 0.1321696245639033, -0.01007921908802577, -0.058719658585249544, 0.07113442953876457, 0.0035911185213325487, 0.025833601581658126, 0.0025632829415625554, -0.04465148764609371, -0.05079680520383717, 0.06511219814889337, 0.07514025202965313, 0.07096562418886089, 0.028095842209718246, -0.10324826742765957, -0.051243542890864587, 0.03346745833403293, -0.08471935865041907, -0.10303383458285027, -0.0030711453079481457, -0.16783887254949056, -0.011127474240573518, 0.019382409412726533, -0.05466389220738725, -0.046355200027776745, 0.01378526965646545, -0.0721360287083795, -0.012526621336225929, 0.03162301816191193, -0.006564378713959583, 0.02611077815714097, 0.004533826034504677, -0.020002912489513233, -0.028681562827904673, -0.11164244805168135, 0.052299058228028134, 0.017443874587753448, 0.004490915083376998, 0.06232284454029114, 0.09117759854279538, -0.08158080797453512, 0.011047565931521197, 0.10404936765460919, -0.04666784235948735, -0.058417931825521754, -0.09162947242345428, -0.12554767895810318, 0.01811443201599121, 0.007717706962642067, 0.07077174012321892, -0.1077939301678375, 0.03961463393832425, 0.09063627548458038, 0.15604536157374962, -0.005243968450500714, 0.11068693305777004, -0.039193042563547796, -0.03161163878526429, -0.03168545028866015, 0.10447414901157864, -0.10773974838852667, -0.05881265708732347, -0.02097427694070257, -0.09568178137618877, -0.05909384057614612, 0.017543223420694237, -0.0005756011512550484, -0.08152543651287524, 0.07463547522884692, 0.05557382761485443, -0.1276612698682313, 0.03828306298829498, 0.053858118373018855, -0.18811163883334173, 0.059467515782643116, -0.011328445001141225, 0.04846490212774099, -0.03749254854344449, -0.033744941473107484, -0.038552098053875654, -0.019877371093802103, 0.012183326091793146, 0.0610599649018779, -0.05647427625987403, 0.017720000536178383, -0.05215537952863278, 0.00893011872858126, -0.023058963369960217, -0.1024999445916885, -0.03398022958557268, 0.0848066348159034, -0.0682435335699167, 0.06427093547374171, -0.11553660867679441, 0.051765983873625465, 0.0020364145587636155, 0.19625163291142578, 0.0009297749973990416, -0.1446491349724814, -0.07283177277064136, 0.0010552324385841188, 0.10441509497700545, 0.13189218951244377, 0.06885651324336797, 0.12657757271038, 0.030949562019062474, 0.024963552410345764, -0.04603864010978173, -0.029479392477442093, 0.004052759928037194, 0.04195963560687944, 0.027802456185641162, -0.008442947099787082, -0.0547224829156515, -0.006129992695629279, -0.12872855128470392, 0.10967692247210077, -0.03980102407269226, 0.1468319430102439, 0.017174714091493914, 0.14362610843376108, 0.08629498762147361, 0.013446441791625999, -0.04062628975922977, -0.09581673594006063, -0.048680489796352325, -0.002944389703829075, -0.07822858936229762, 0.02697487466147577, 0.02970106159033478, 0.12274975032871445, -0.006984353404462622, -0.1210118729999608, -0.028589889224322727, -0.02600319216688882, 0.055691021815072385, 0.07940006726204919, -0.08603194333183374, 0.05442740378924641, -0.03188447970684841, -0.1073961460074078, -0.03287184967122751, -0.05907934108560337, -0.11640408874610651, -0.16221535316513913, -0.05494367491355483, -0.05456158667326079, -0.00530852136267059, -0.04763742338091263, 0.10446415505307674, -0.0851183260096734, 0.0037174539382170556, -0.008114802460293277, -0.005582279171015253, 0.03849526674260329, -0.01556009848572821, 0.08033626756414604, -0.01914993636005971, 0.11094174757738057, 0.06871337176304215, -0.05189431398487371, 0.06402142003215737, -0.08951790532608907, 0.04114749798486258, 0.013299868698995146, -0.1295131682637008, -0.03833001335894175, 0.08734040075146926, 0.06103191566350122, -0.02696018338238244, -0.045945400979959757, -0.10913496468928909, -0.06752849132652415, 0.032058336179867614, 0.04022647933899344, -0.04346868962012588, -0.0023532547082590815, 0.10121729530918264, 0.03567750041845319, -0.10680287893719462, 0.050553870922939455, 0.016918807758597058, 0.11768523567772302, -0.01646777785891536, -0.07373123072298357, 0.07928584728624463, 0.07586799302145616, -0.1509556010917822, 0.01565506787031088, -0.06785208327805793, 0.17638195309093815, 0.0021748322758510285, 0.04657301009388475, -0.05318819638825562, -0.03781545568884589, 0.04930757550842732, 0.07342174303142414, 0.04877331843415169, 0.022912233110704113, 0.025695235876918562, 0.08967748800129859, -0.04417557342120147, -0.07975409223099099, -0.13959779062742275, -0.005606896584062522, 0.0007012235082042378, -0.06509583859135366, 0.1012002921827034, -0.054245534953767584, -0.06651668536391103, -0.11195339332898256, 0.08149615425237901, -0.1519507598422461, 0.03839697353085138, 0.07605008910666604, -0.07151243141371227, -0.07163689667325221, 0.020262890506329276, 0.027832436776499485, -0.07664837654151195, 0.037454282184371177, -0.05405279716156223, -0.02145591755755379, 0.033043181191453934, 0.04007261223583426, -0.022080444630584985, -0.008025146708415434, -0.13158052448159321, -0.08921238205952087, 0.0021225856215819176, 0.017363688971425227, -0.07606292387620683, -0.052018067557985465, -0.01601894467608178, -0.01759543210932774, 0.12463990842228623, 0.018865465300880267, -0.020336896023743885, 0.031945615594023404, 0.008144438879573525, -0.15003383488259345, -0.0430239420331986, -0.034848392630949715, 0.0386081509603222, 0.032383477443178155, -0.031677367542383233, 0.011969773146192882, 0.0429576306956528, 0.08184812041171628], [0.03333544440846489, -0.11217533934908452, -0.05608639634076702, 0.0003618000117056595, -0.03564976829364137, 0.1782695608469987, -0.08412361608239505, -0.01982518776349738, -0.00021708194232537777, 0.00597256624301553, -0.1084141662653102, 0.07107923050660073, 0.17964635432994863, 0.1384551535215444, 0.06369853394627902, 0.04133047565288802, -0.061335123010521624, 0.17020139746003207, -0.07651773985588703, -0.11516304961266607, 0.11518382342109315, 0.007095654348810973, -0.10299552298515936, 0.01770465645364681, 0.07366195917291743, 0.12716106683650968, 0.10272823973523898, -0.0011445388321543988, -0.041503055258806085, 0.018246096455445473, -0.024425111240831927, -0.07812822822433635, 0.008588793426552072, 0.1199381399972077, 0.009529014929774126, -0.033179325527723465, -0.03251714220645284, 0.08048781366162905, -0.12041700421852243, 0.26648956881333363, 0.016141834493144103, 0.11502104418823882, 0.007877621859794159, -0.05481440286015888, 0.05534228705131488, -0.03323055133481723, -0.040609674785658974, -0.07503480160485679, 0.0683855164467813, -0.06153482199478602, 0.006150088237952683, 0.009327580974833391, -0.04807867299416409, -0.02406601240110248, 0.052830688485584525, 0.02327766404161877, -0.015175594381150672, 0.002297800079108463, -0.03913478317054003, 0.05893211685883752, 0.03236704001858841, 0.17709903482178432, -0.0853235333611851, 0.05834681441987647, -0.0003394825954317944, 0.028531344340308764, -0.015990437818800385, -0.039359637616684394, 0.038440774112044794, -0.01690748983246478, 0.002026865351533478, -0.006786564350885604, 0.027299129734381276, 0.0653916965463712, -0.04419100985497057, 0.020954751500116775, -0.003659889400667228, -0.037298486662513015, -0.09809732135881946, 0.09486199245422258, 0.07124198964449605, -0.07565869182582337, -0.09163800671844556, 0.03454432132465099, 0.03971083664335028, 0.010915503634968498, 0.07465939483295439, 0.10850291508498068, -0.05528908790620929, 0.024985931632190518, 0.031992315178424977, -0.006839678413657713, -0.05037538141275387, -0.03655342042833159, -0.09738828560357769, -0.0923136822405293, -0.03746777297452596, 0.05386457672545716, -0.03217726464745416, 0.08974129371795483, 0.03299371869139091, -0.13163788763578352, 0.0863697131426171, 0.012796379805466251, 0.04002202607029883, -0.01355897834501789, -0.1337159300413444, -0.05423234533609484, 0.01478949833365788, 0.019751574670479714, 0.0812873618333459, -0.09936451251426852, 0.011244247642917328, -0.1149289947647407, 0.0065837103679908145, -0.1698229309392123, 0.05707148484718807, -0.08796023025329268, -0.055745613306434516, -0.12275969126718089, -0.09062785296129595, -0.0844699880256884, 0.013082881405815122, -0.10834491792529514, 0.011234515700763056, 0.10771195455448118, -0.08048593278084351, -0.06481352158372265, 0.1007013072936416, -0.09656862194021666, 0.07083798507557494, -0.03518882739275449, 0.008932786349731369, 0.03339675202833678, 0.09526692915435081, 0.023241495462033166, 0.14605431222378473, -0.0286692764747223, 0.03416533750201234, 0.10073600164947408, -0.0834341046415244, -0.023129312730081317, -0.02514123070810475, -0.020894582879990888, -0.0066023516787659655, 0.1407961041351788, -0.04956873839472831, 0.023256430270839065, 0.13068683265032158, -0.12691185453721507, 0.0917460020129266, -0.07178931491088184, -0.06007904575145828, 0.031579862292642216, 0.03672547877257866, 0.04644318871904254, 0.0563114198202537, 0.001083350848596564, -0.010562043538964502, 0.03795028417168424, -0.10214781196977175, -0.008123011182471301, -0.019548579123609484, -0.033151781394660906, -0.0652665897620424, 0.10218937895067334, -0.039649665510504965, 0.022149122625216112, -0.01118699416740741, 0.034214374957755526, -0.03479556637534322, -0.03469555933366686, 0.08286935475082771, 0.1606794282563255, 0.010682065544740412, -0.20086670070646065, -0.002913205437876394, -0.04380553394350959, 0.1222606760111099, 0.03781493030722848, -0.04589098020662635, -0.08143682470512965, -0.03413820580458317, -0.07131922533053811, 0.04206578229761898, 0.02126176031794103, -0.012181842240598461, -0.03832215797398644, 0.10787178619189781, -0.04011652786973234, -0.009710554770351487, -0.021267599199233985, 0.023741663609903964, -0.1196954973121616, -0.06717246899922477, -0.06502704193815942, -0.052137134018011025, -0.07055489076433237, 0.022598269226560042, -0.10671761420330354, -0.038467526825160636, -0.1106030536006874, 0.18260695226384704, -0.06331932085678399, 0.0052209817584894826, 0.05249742386231918, -0.11719955358088877, -0.053266364480613726, 0.028214914962057754, -0.06074351054200352, -0.06235901327224862, 0.0038834966345618386, -0.07033673626927713, 0.17976836910570376, -0.03921859237885881, -0.01760542887539084, -0.05963353257676737, 0.10550907349000571, 0.0842666366479919, -0.09498467931212985, -0.003701531127842049, -0.05865488476817364, -0.09308524794390502, -0.03166896600073128, 0.0037598278217359036, -0.011367279693804265, -0.09451011520155836, -0.04261903379654523, 0.05875095732671315, -0.12647758255435793, -0.0539722448720265, 0.11409187629832829, 0.04901470649764274, 0.12035349241817817, 0.15552071481323854, 0.0967520959826492, -0.022212484518090155, -0.058922189261893784, 0.017068171283610472, -0.10339618777978632, -0.03866823699595411, 0.06959070196397737, -0.08973457647285792, 0.07302236413615953, 0.05324889462032958, -0.006441342147166331, 0.049815096231685604, -0.11150474277159265, 0.0565955224271922, -0.013248200466479853, -0.002298873185954104, 0.21609978359173326, -0.04124463784133624, -0.06296021055991372, -0.0024617888229764707, -0.002344273542701024, 0.12197875735544317, 0.0010708185151886004, 0.0029040748444598176, 0.07493851808817333, -0.09155568935343578, -0.1355032617541413, -0.07853850643422787, -0.0213928254067998, 0.06077153962083545, 0.0025589614366293757, -0.06336501399931158, -0.028986636587255706, 0.011972168133976625, 0.0036187482331378877, -0.10400553828969786, 0.06617003172974904, -0.059863323846305466, -0.07263471759423461, 0.024596590539858167, 0.030968682463540495, -0.04915909047785629, 0.07384059552958974, 0.13252686106492662, -0.09055151865943376, -0.09845294618829006, -0.06675406156169163, 0.06408670713046227, 0.032529194871737555, 0.015393077602196222, -0.09904219920899077, -0.049073865628865565, 0.05058340688582181, -0.08630694375308409, 0.12652447695620442, -0.050120350677077596, 0.03179369007139346, -0.013235464805136437, 0.0022964600518988725, 0.055900861136084376, -0.0033998580089777772, 0.07820005373308817, 0.06828513704500891, -0.11980858169390142, 0.04447128675017581, 0.0005681555689188115, 0.028427238920591638, -0.04959171509463931, -0.04686336405829891, -0.10461325966678839, -0.11249305488870676, -0.017792267708556082, 0.11135047884257701, -0.0015599577472321295, 0.012252158164242135, -0.11537785158168438, -0.031020078723873197, 0.11201708281010546, 0.1611700178503923, -0.08737268281285414, 0.11707786098961431, -0.009182000080203928, 0.04470483115921279, 0.05057708532663069, -0.09580687957919562, -0.05749383684665772, 0.015595433071009199, 0.10269661357837445, -0.053281775242458626, -0.04069040743924471, 0.04748240756835797, 0.05586385236922797, -0.016180470868213618, -0.11257753935987845, 0.12034087363682139, 0.062233870716643304, 0.004214402997374182, -0.01554403762123223], [-0.070328938617294, 0.095268115895591, 0.06877121358171619, 0.0011030108525146485, 0.017045020482089765, 0.04807064120533458, 0.04273426758084549, -0.020661422181370393, 0.06434522360384869, -0.20386648065691174, -0.050185257848685716, 0.15448378435068383, 0.044678536572096604, -0.047498433219744035, 0.007088613592655853, -0.02746606267458199, -0.11972500182567787, -0.11054919386917153, 0.0439523867474725, 0.05721607312516666, -0.04306668221108677, 0.11084497033104403, 0.0493379586247574, -0.08041257570279291, -0.130242937004089, 0.0720981523103069, -0.0017702128487898112, -0.10871536740151001, -0.047008246437637145, 0.14167910872937586, 0.021164101147945202, 0.11812993117170986, -0.06104932526238809, -0.03623450141305663, 0.020531528223193103, 0.016427375099160008, -0.09084825245610115, 0.03507920231972993, 0.020529286645479455, -0.08836808529923344, 0.025191086880056675, 0.043388471828751135, -0.04243999984032131, 0.006858993789949543, 0.060886028458427624, -0.01425623057701146, -0.05724188884657341, -0.04314545562385401, 0.02331389890133599, 0.02317934169913585, 0.004828776216877657, -0.014022202364797622, 0.03679345869065858, -0.004418325702199401, -0.0017721293757999145, -0.09336696755478287, 0.10195381706454278, -0.032864996942098504, -0.15372609002045576, 0.06278041486571848, 0.06261834058568591, 0.01411166156413997, 0.0385447565866311, 0.03372041777227694, 0.09219496737343869, 0.01252048671560361, 0.0022191316090448506, -0.09133219004293557, -0.05658119050781782, 0.05318599538381789, -0.11692688720790145, 0.016333380493925697, -0.05004223158842871, 0.08753297739894722, -0.16870000430680132, -0.06137633555819508, -0.012874527023276594, -0.2297527994175692, 0.04076104902118733, 0.0005397294586782401, -0.05831556191596238, -0.055237768794181054, -0.0039680969818403165, -0.009581438707252976, -0.017298894032494017, -0.08959557518516947, 0.2237535996145463, -0.04362438468674816, 0.09165178554093872, 0.031501304845190155, -0.02322016429359631, -0.1243112713987673, -0.010137662062000253, -0.009715005616869598, -0.1163852929918187, -0.02643611193723005, -0.1023540629976913, -0.039525322312182275, -0.22009895745632144, 0.009789871021646364, 0.1600343863923629, 0.009528515878280882, 0.04978253794394769, 0.031464083827665766, -0.049370641955923875, 0.09083327324888314, 0.07981759986622255, 0.07821768458131943, 0.06837651619823622, -0.04783470114682641, -0.12714361155431234, -0.04741517358753962, 0.0889744020784034, -0.02109510004155914, 0.04320039283783429, 0.050291268021331256, -0.11961812751210106, -0.03254232865472945, -0.03894090360616882, 0.1543326837677403, -0.10101921774261642, 0.04286649370843402, 0.07169503662951345, -0.04663382719219169, 0.033026030914951286, -0.18377251690206425, -0.009273864464239561, -0.011754478775169042, 0.016044473898615578, 0.10906099410672905, 0.02670971308879485, 0.1199977152719538, -0.030947806281268912, 0.0707184642727664, -0.06525591883695933, -0.012438594295896027, -0.04272489686403563, -0.037251276797998036, 0.05089664576864985, 0.027338408788544807, -0.07091339011698988, 0.008694792139880331, -0.007271498099438927, -0.045538005223368976, -0.18300535883650618, 0.07883842080912973, 0.03727766491933629, 0.03454698565586216, -0.07807949819984887, 0.012544804860424872, -0.09843733095640154, 0.0225911112350964, 0.002885983174788243, 0.11734223055682082, -0.10148013467834618, -0.03460766075128181, -0.02564743119984169, -0.06582342249416043, -0.044250069146796224, -0.03426547214907223, -0.004498734148060384, -0.013183615570880734, 0.04902391161772379, 0.043172189188219995, 0.008499859827172421, 0.14596183788432182, -0.07118485248326661, 0.02146282006099809, 0.027137986757577975, 0.005068342347555932, -0.10717521007930639, -0.0746347439039995, -0.045408774552663296, -0.12311252101345929, -0.004793813203580242, 0.07686850446866772, 0.04861404466143704, -0.0184169209323281, -0.0009304166933529831, -0.051592567341667984, 0.013764204690969216, -0.06064551448270901, 0.07476071884123256, 0.10977925638553056, 0.013195472678396538, -0.04426764167283917, -0.08424116195261512, 0.040514102502195094, -0.04833209596277782, 0.0713426725020218, -0.03249475991892256, 0.012626751861188567, -0.03493926048005419, -0.062091204867430506, 0.06086963869536269, -0.07585308704248667, 0.11475113870166129, 0.10816535593626259, 0.10171629001288666, -0.0054914627269326294, -0.027622438995333374, -0.2083318831033649, 0.08277960182087751, -0.03724607480649588, 0.007532455484273892, 0.09396399696652705, 0.029464074688477254, -0.01804851264059458, -0.06900755541606499, 0.10424927211385099, 0.07269391614401895, 0.030536760835858885, 0.12448272921182135, 0.06411070284432728, -0.034468580075771436, 0.007461261377526207, 0.13948701173118971, 0.13229227674952196, 0.028319109476052852, -0.024337498919085564, 0.028240476119433398, -0.05346797578369606, 0.049924691894429975, -0.01427658707761746, 0.07742764468150969, 0.02607169074489553, 0.0005282851983447524, -0.1304274499497509, 0.13580643326295383, 0.013970285595436888, 0.10109835255326606, 0.07482664350770148, 0.10493360586464466, -0.14912728950690662, -0.15929914058338432, -0.13693313512710317, 0.08071865708033484, -0.04786646124527913, -0.10690832321739566, -0.05207323922542925, 0.10357285973944146, 0.12097446281576947, -0.013460738215575136, 0.14927827950260456, 0.05671504287998236, 0.1392435449397569, 0.005154720343427883, 0.04352896168246318, 0.04860983247219726, -0.11526770961720306, 0.1687239502677846, 0.03819329035335008, 0.06429209303945439, 0.03093850849696972, -0.015388084677194113, -0.07836496373474557, 0.06654370159608358, -0.15033945278719885, 0.06480586663286103, 0.0509806742122984, -0.02087159134768032, 0.15585045084629873, -0.10111872691652408, -0.012158277235623178, 0.020433305759125515, -0.04754986851675473, -0.04064878746398087, -0.0153719721027529, 0.16182634324051323, -0.027384688660198924, 0.008519967347223966, -0.03808696891084703, 0.060920928196800936, -0.0626349071217118, 0.21864515764437065, -0.12784420638814636, 0.18544746280169824, 0.008405464743106333, -0.044449679779202146, 0.09618436635237422, -0.03384114559629625, -0.023557975736297518, -0.05592315143584754, -0.057848255961722446, -0.17769243283510353, 0.06341383907959995, 0.05208370688854316, -0.10574069162220875, 0.14438271034391598, -0.013944694974891666, 0.07141088406026092, -0.03704506499182724, -0.020012405749906148, -0.14495452434808573, -0.014514649746513347, 0.11155537728331216, -0.005213897856432668, -0.07363348530109175, -0.12533186064820848, 0.07016369494337057, -0.10131782908198948, 0.06505826017262266, -0.043115214170102764, -0.03106740483965668, 0.0020398210050305353, 0.012038716840276058, 0.019878384360864074, 0.0532922062742167, 0.0803472620015325, -0.026954628336212087, -0.07458333587242989, -0.03251720812450111, 0.02755378574775698, 0.002959467044432991, 0.1008352094124528, 0.0450114195492582, -0.06861671722677785, -0.1603938324618432, 0.00574604113341126, -0.004788650529485165, 0.10448171892638275, -0.10748357443456119, -0.09737150379877235, 0.020039578828502862, 0.00647580769094761, -0.16739881920835825, -0.07938621816234406, 0.0861342591007321, -0.03805304578469082, -0.006304826334179249, -0.04493663202810352, 0.07641305586252066, 0.0737756947531805], [0.03825567664147543, -0.05550246614552144, 0.12737549876498858, -0.008286116212472843, 0.026689102824234878, 0.04132982553477772, 0.024729359061818907, -0.04170777645771791, -0.008798546450875935, -0.00026815296742977183, 0.09675066285488977, 0.11546007805506384, -0.01747775574298415, 0.09159474132829314, 0.12141888145743969, 0.021165773502175418, 0.11899107837324392, -0.12022630292241065, -0.08792161663563873, -0.1135883999137974, 0.05100391130167456, 0.008570647576547808, -0.03398974202834891, -0.051579129187522034, 0.028280785462992168, 0.11205248130740672, -0.13403593487376628, -0.1712345764877348, 0.06364593684040433, 0.06112365380818896, 0.03106805516907229, -0.06807009209254214, -0.05847656183655842, 0.07874208952628167, -0.08411616016623118, 0.06795316619134119, -0.03147627027214231, -0.1237462439428981, 0.03155632097177317, 0.15452933914069142, 0.04651071304102633, -0.03514311474726224, -0.08952701043795157, 0.04096361090931369, 0.011526058213773534, 0.0763445475273716, -0.027888963416874493, -0.04730587502084136, 0.006734104804968587, -0.05746989153332747, 0.13327929566459845, -0.01253006636277286, -0.08524113402359836, -0.06424467970079495, -0.011823720965484305, 0.047314790935686954, -0.07064369650891505, 0.05116427903425384, -0.10548144452627752, -0.09666085251924521, -0.026219190295259116, 0.00216789734289298, 0.058728836485639195, -0.02649344462578725, 0.04163543387300022, 0.0059512153681423605, 0.06149845882515478, 0.08648725604748203, -0.02169292021245795, 0.0506680836807847, 0.005827867853819179, -0.06035058685515394, -0.06180412106254276, 0.03474343235060133, 0.007365022280964339, -0.1066595096755332, -0.06046338563207207, 0.01745887761082365, -0.12021139622360935, 0.20775746836718362, 0.04144917338136836, -0.1606152408560756, 0.02061033628801622, 0.03650559837311166, 0.04673481307835631, -0.0002231472808095267, 0.010845820349144462, 0.06240330849051541, 0.02367807935720836, -0.004537404081299286, -0.1561284761968436, -0.010730859912404352, 0.04540816953051712, -0.09692550080975847, 0.03110157243940026, -0.09751858321719231, -0.003664294655830193, -0.076806032300833, 0.06168228621156349, -0.030460279129145593, 0.02543090355647985, -0.02296793905073094, 0.12299772467427995, 0.018604610818806978, -0.039189139851805985, 0.01290066417643383, 0.05302994863976163, -0.1149851029092088, -0.12044815972566571, 0.06149336605457742, -0.04066834961080077, 0.059702683341232604, -0.03782866408229403, 0.0506456203227292, -0.01564567860758042, -0.04618916842989331, 0.023096006153797578, 0.13148065575123927, 0.00938949808051287, 0.09294938242437313, 0.10814307458030316, 0.10962573920523865, 0.041024109304342464, -0.014261941763888408, -0.09419261658933697, 0.0007589633766237126, -0.031194229383928566, -0.005136065258752767, 0.04122807376538629, 0.13238965030689193, -0.008542026682228487, -0.059774958733663404, 0.00397159578953877, 0.017546995566581736, -0.05910629940680042, 0.10732781251050005, 0.07273142722355702, -0.03677390231540079, -0.0057418404424178626, -0.015615749388780013, -0.0956019115872376, 0.01796613450180456, 0.05782422754008676, 0.03554212691587398, -0.048941117965716756, -0.13747680288261346, -0.03326619325296824, -0.00609528573990326, 0.021675328131589008, 0.041054838664595736, -0.034019936552020166, 0.023725703731701995, -0.031211446983281033, 0.020897093959441348, 0.08947608709423024, -0.002996120965809155, 0.006385667762257344, -0.040535065687980355, 0.04945398345537367, 0.10605161001796175, -0.1251308928050279, -0.07083966742192929, 0.07525529268820706, 0.19318468209118192, 0.04376379651261887, 0.07853607411579396, -0.05377790186715735, -0.03966204233694101, -0.04188671376512231, 0.0780859161254103, 0.08602391202540269, 0.05161599589496575, -0.08218955759118017, 0.04609093933492062, 0.029771921882816386, -0.16820069347077904, -0.02458081933911061, 0.07761023291330067, -0.0185354005815018, -0.08261432171252106, -0.10564145810285738, -0.017140846520582467, 0.012332922199268426, -0.005269879267982717, -0.11692388806156973, 0.05741671640171021, -0.025086809884267015, -0.11259860408355377, -0.011693323643126644, -0.0153048013853406, 0.09580300630209776, -0.0424792396524286, 0.06293135938346676, -0.007718871156007016, -0.028869610460549318, -0.03659404694846609, -0.07035525878299223, 0.13849938159173383, -0.07001106193108922, 0.027355177881924604, -0.07186066826336855, -0.030113916198467393, 0.010492039237964454, 0.1167585937003116, -0.024472388695605952, -0.07707033809845934, -0.026002560109160536, 0.14298428966777643, 0.05044137662383593, 0.051245023164285496, -0.0024977306495748684, -0.0030023501974852057, 0.06483152233569543, 0.07929162002634041, 0.08406074549119621, 0.011863062443269949, 0.04665584148624628, 0.0988391619686664, 0.014055937908634804, 0.04818944046853953, -0.1304259467589992, 0.032866798057860684, 0.03531910227845322, -0.02293058255069861, -0.037821458114361196, -0.05765565971807993, -0.12713991444373188, -0.00693694047386392, 0.017309040575585712, 0.039292756535786275, -0.0005703298315447291, 0.04100957537327007, 0.0016704493995004413, 0.035350333513003915, -0.035993170959832996, 0.032769082613191065, 0.03766645094664465, 0.15653004289759745, -0.03460359591704435, 0.0037600226252442427, -0.001392923511297533, -0.05851706086803826, -0.036058778693947316, 0.24348171700752647, 0.10967398787034263, -0.1727762813434976, -0.0351573589182419, 0.023479816293158998, 0.03199266981613984, 0.04506316149673472, -0.11377993558627383, -0.009429495161237976, 0.011780531013858384, 0.12287943352324657, -0.02565128301143403, 0.05724245900043752, -0.07458293467429183, 0.051466456477939036, 0.09997008592307612, -0.00186602321115391, 0.034294792160273965, 0.05585959361167059, 0.05725841540691467, -0.0019777233010656124, 0.07104425038762423, -0.04135201098573113, -0.031114658189488737, 0.10248555241190183, -0.007443289304060059, 0.18476237665345407, 0.047019206601708476, -0.06320338399977678, -0.0469967870814863, -0.11291980936591492, 0.010164432979703373, -0.10375047131936692, -0.05391471101456403, -0.02298244245327452, -0.03826605238121066, -0.0950941512931906, -0.05229903299258914, 0.03392050093012419, 0.024218205382044385, -0.0962766356154738, 0.0007691425603439797, 0.03653877659661734, 0.1470996627592089, 0.0674207522597838, -0.005339489856517879, -0.06745307449990258, -0.04408351494559167, 0.05600827584751867, 0.07104893656061102, 0.019915000318377344, -0.058690101709171216, 0.0783237358643345, 0.1942058871657636, 0.15735175721827022, 0.019488195064963933, -0.037537160527805265, 0.06097714766937062, -0.006941187669890268, 0.04624100945098354, 0.09388805081146544, -0.011828057106175927, -0.06459943322222, 0.12631248468324408, 0.011970136155825165, 0.054254316930763644, 0.030380506473528215, 0.1024803577819784, -0.008257120226848826, -0.04343177951155082, -0.08603253613206226, 0.03728636870262025, -0.027513581993850875, 0.11048695708416416, 0.07619389938186917, 0.003600531471963448, 0.0380759360130187, 0.07654341280680732, 0.025205820138976362, 0.09881604993315943, 0.05562681235547483, 0.10686168493006101, 0.025749475639511115, 0.03390707126822404, -0.02859895265756234, 0.08292014557982152, -0.005790488384867263, -0.23106366729014893, 0.15661441103129156, -0.11419211667634026], [0.03706490002609129, 0.009222716556713433, 0.03378105791815939, -0.006600946950565933, 0.02043961066898209, -0.09478533311263948, 0.12564429313096956, -0.005878412620116328, -0.07737622693430161, -0.053818389771405836, 0.08121328812413058, 0.030003088837810363, -0.06353946819617624, 0.11379338423239918, -0.007103542203948842, 0.11554634497974647, -0.05408498804585394, -0.03096117029668066, -0.016021106843664683, -0.06787149385860078, -0.02368604282486413, -0.062239854979300804, 0.07964640555439784, 0.020168221724445306, 0.08663665011366324, 0.1282369148150024, 0.04779487103722011, -0.03376513433078164, 0.014095108530025893, 0.016230318950661203, -0.0818465039609995, -0.0768549806098736, -0.035285212305578045, 0.02263818465423089, -0.08113625627530247, -0.08746451031145412, 0.0286539078921064, 0.15510009393085095, 0.05115028110369843, -0.034111457185249654, 0.11261407632507647, 0.07240678169677775, -0.016192379383226752, 0.0004670682389106773, -0.12616377673905577, 0.15105657944226095, -0.056184773384014605, 0.08639748303837747, 0.04844037587827919, 0.03169141054756963, -0.20021838119975247, 0.0711670368564548, 0.06161747448398905, 0.019997724622195078, 0.056640405699829775, 0.10666083788240027, -0.0603464940110824, -0.08528137673668028, -0.008768637386035122, -0.08498646567596273, -0.07972631216223326, -0.03753479966366034, 0.029807742294004645, -0.11272893030079947, 0.03615833737271314, 0.059311428041667655, -0.06411324682256232, 0.03193522923135459, 0.005685063547914464, -0.011042469377065364, 0.12102976730248974, 0.08782927703010675, -0.09746991403897298, -0.0006262835561158346, 0.03858999854371117, 0.12429953140918819, 0.06672729855790062, -0.031969369903686706, -0.020717137222555485, 0.04851712422529917, 0.08783795135552518, -0.03176874768246042, 0.19623986866950002, -0.005718391357315192, -0.0718886248072369, 0.1865022254023462, -0.07827178055184207, 0.013123291392926216, -0.04650970370022243, -0.040988026334752986, -0.19694386094066027, -0.05057250591451192, 0.016464208933072655, 0.03063771909522935, -0.0909486056122965, -0.13217029675669512, -0.15577954320096252, -0.10098664273441134, -0.09566396988711422, 0.12650929075975054, -0.0034615577360326043, -0.059691190987817416, -0.09307534014705843, 0.04020450111471137, -0.15533401201198518, -0.01021343566812949, -0.026250950954725415, 0.09544095745852162, -0.060197870068599606, -0.1353323150147591, 0.13226025591554738, -0.08725529078920849, -0.04867005949603774, 0.004062187385796703, 0.13347994724195414, -0.07582033380801362, -0.01746977171878272, 0.050006570308855275, -0.0481647485221507, 0.1501460954985354, 0.047979851078147125, 0.12774638829081264, -0.08819236647823699, 0.046454431106490994, 0.12476252486762285, 0.12725671902673355, 0.04625546751515345, 0.08716993263113014, -0.07232900153619437, 0.003740476369911306, 0.02964098917381529, 0.10903126323791465, 0.022579866071737786, -0.004198776636773649, 0.03481275872423741, 0.0023348753410217613, -0.0933128312628734, 0.09112432387532196, -0.10810351686328284, 0.017880103914907335, -0.061318059834854236, 0.038494384277862066, 0.06595230899938619, -0.047835575578353114, -0.0674657494912843, -0.13065294540965716, 0.13549622825318958, -0.013261192076412843, -0.07044908790711966, -0.0895890771532439, -0.032717928370659385, 0.1381092097638406, 0.06449201154990192, 0.03667345549285101, 0.10996324378111703, -0.006343057417166113, 0.029910782330933142, 0.06210569132793027, -0.04383492066731556, -0.024748179747215666, 0.0031582405652875846, 0.0025581663976212174, 0.08222344741054001, 0.10954228817839146, -0.06439106207436027, 0.012362122253254334, -0.060928113811809285, -0.05149298934780533, -0.042885878543511564, -0.04381227674764198, -0.14827715827178603, -0.04294209465673431, -0.059319848561954464, 0.04092165611155473, 0.16237763859054793, -0.02672702469924808, -0.035061621767856044, -0.04396417592279833, -0.009303067705099142, -0.05279400370076432, 0.03712187647466487, 0.039975813313487235, -0.04597641013803383, -0.006915624154236427, -0.18928440490928508, 0.038157905857747615, -0.02311987694297946, -0.12203773096552065, -0.15265089002992355, -0.04244608466529784, 0.061899502639415974, -0.027012651093978646, 0.0414636903853944, -0.01474967676124113, -0.033471076950991246, -0.10127086481715875, 0.1676260185544122, 0.0769168336150369, 0.06546074443999161, -0.02081491189108321, 0.21284615565170767, -0.005334973650894575, 0.02567757585467222, 0.07695474883814818, 0.013962799579703158, 0.0023131689992732306, 0.0846423314932277, -0.026317684775732392, 0.015725336256431677, -0.11892199516414852, -0.03795469407377803, -0.07501009372006905, -0.07238422949125764, 0.18906246868208584, -0.022027930269822013, 0.09261934018161795, -0.09838208697035872, -0.037125222156902886, -0.13852971540009262, -0.0198330807848076, -0.026141310200111983, 0.051306577236415477, 0.008743409841824215, -0.16047839926794893, 0.008186391144038078, 0.053205340507575194, -0.02667312058633879, -0.11482564616843731, 0.07849544209948542, 0.0781278834512593, -0.09079302477050952, -0.09734910342797204, 0.10375473067100945, -0.058427148192692555, 0.05093397712432217, 0.14662994671350327, -0.10666753318288867, -0.0746796970458238, -0.11868964220391996, -0.004524755916380076, 0.020441277759761116, -0.03989902138763371, 0.0559341981730328, -0.1895304548441858, 0.005153207678320393, -0.01105769565852722, -0.16221967403346793, -0.05542997421517507, -0.06950361090897249, 0.013920939949874773, -0.021769557701826057, 0.028437897289757458, 0.06365745865635979, -0.08552938293897977, -0.14995121164146138, -0.04518320117606288, -0.16671962185512765, 0.10510835178557687, -0.04899719772305941, -0.16493017716362376, -0.1088296015520142, 0.08984975145344955, -0.04476706598255645, -0.06737337186602126, -0.02967642575988817, 0.09783681917589884, -0.06942791935300044, 0.005563592249827563, 0.04862446459255925, 0.11176855579885615, -0.04745191025409101, 0.05751910540337023, -0.020831870727942247, 0.047688472404110636, 0.07553850545304515, -0.004500012897715325, 0.030653145405554052, -0.076744807469049, 0.14084285641647232, 0.06191521038943607, -0.11554464661533095, -0.19972681145543647, 0.05062869791667417, -0.05966158761996861, -0.08238659715220029, -0.03003178199159111, -0.03271432331189846, 0.05459565410281578, 0.01802774429699502, -0.0343514486180079, -0.06888732485528565, 0.0667280118289687, 0.0476364418106411, -0.08876686350500808, -0.04544239308203092, -0.08601915059973059, -0.040837392488720155, -0.02897763237801856, 0.015785873053363028, -0.006434503261158503, 0.049631880569205054, 0.13375869098385995, -0.03318010730322122, 0.10051867146310968, -0.03430157023694524, -0.07111810345719724, -0.08398687369204624, -0.015595210943360591, -0.0016373152312431525, -0.09910680698818944, -0.09072519741958748, 0.053833425374472686, 0.05160726663044824, -0.10497516552814802, -0.017870160397648265, 0.047175340442383105, -0.03670382552485982, 0.04183272516441051, 0.0448966263235263, 0.052117239137367044, -0.023879705288358304, -0.017996767835094005, 0.006869595306091424, -0.15436299395515815, -0.10495867781835641, -0.042469115589599, -0.021433857430806655, -0.03958320564479612, 0.013489400675117332, 0.08617917113532042, 0.04489919681205723, -0.01993855762556403, 0.03629941294488949], [0.14835485102450907, 0.02236038456669794, 0.12257297680323358, -0.12658542784043333, 0.018712063070776233, -0.08891230619598477, -0.046849527206798455, -0.07041632600156868, 0.010155487777030368, 0.1687426297482365, 0.06660319969964755, -0.008578432590338938, 0.009658930680484425, 0.07548688368001738, 0.08960557237065442, -0.04972626838406637, -0.025644163385028153, 0.05882466955699289, -0.04873305216992811, 0.008962308333120391, -0.0011309828751555717, -0.03681291753507731, 0.32857031454570407, 0.00795995135279005, -0.07141689548267358, -0.08432221391718397, -0.05930074183283647, -0.1342509402559465, 0.05038094472694039, -0.13033403919758157, 0.02849586808147149, -0.019660461975799404, 0.06693731492542297, -0.12509522770765824, -0.05429849487489231, -0.07873062522134427, -0.06235166580920905, 0.008634316822106212, 0.019206540918189158, -0.07563718982959963, 0.036439184190753524, 0.051053070320294686, -0.03473787194946552, 0.2337763918286611, -0.03447317491887558, 0.1504009537779417, -0.1327295655204936, -0.0786909312986977, -0.1393267228195225, 0.04778432276481287, 0.0741613808520126, 0.19077569210336562, -0.07411302609116412, -0.0621780124104642, 0.14294104816255745, -0.06606200649609083, 0.19462274785133382, 0.18049567636014843, 0.015695397143866724, -0.03072556979076394, 0.050132791996049295, -0.007860561281470686, 0.03144860401187767, -0.1771425729776629, -0.029072055926806405, -0.09304630146312791, 0.0009169973821213313, -0.048111181645853554, -0.057058344122684755, -0.10157595850599428, -0.06660230010107653, 0.14931639533119057, 0.043197961543292876, -0.10213060989735837, -0.06305480514563383, -0.043536355382057884, 0.053828833944129816, -0.054059260897726884, -0.10480632755860124, 0.005408869741799445, -0.09826382864834529, 0.020328946731653124, 0.14074634333844116, 0.07551859156697868, 0.04742443572140859, 0.001943556072908812, 0.030634332164462187, -0.03671013294827057, -0.012389533456046672, 0.2000565207495689, -0.006027737317307351, 0.0688882099231768, -0.029895654950248384, 0.2330709386670403, -0.13147578560155068, 0.02752478348021687, 0.018370269686820925, 0.02876375791206114, -0.10152984315521407, 0.07280493538632207, -0.10026790016656117, 0.14833355521627775, 0.028942231862401576, 0.07910968999705295, 0.05462813606281464, 0.009801707162003764, 0.12325063542316476, 0.0679679757236167, -0.026129742476005916, -0.06343062302967663, 0.009610769766220374, 0.0312633444940958, -0.021495689442890927, -0.11412913186815372, -0.009698063216421667, -0.012693498655173852, -0.008253559179500046, 0.1248439441260393, 0.05727427128143321, -0.03586265205116147, 0.05105199220200287, -0.08430965009850921, -0.14856344308520528, 0.07443722909223247, 0.06584987053442562, -0.00034246907795308954, 0.13523610725933838, -0.0780243938363381, -0.029931813824394395, -0.13369883414173334, 0.04870500704644241, -0.10752656965407842, -0.014960637674586344, 0.06920911632809844, 0.08108522182305036, -0.04797061183778766, -0.04934401515352207, -0.013063252062922508, 0.06534129142354596, -0.13734532479715408, -0.04077253443941638, -0.06955736183520278, 0.16188787476304226, 0.14962834912374742, 0.008247396133746055, 0.04915629717387035, -0.0745338179304665, -0.07679500350383428, 0.04946133256819869, 0.0708738116039974, 0.07371426049224647, 0.12307008909934043, 0.04527782610284233, -0.1953242186862963, 0.03637554577751382, -0.0849228890887341, -0.11055655832605546, 0.07959820063714194, -0.07591210003768244, 0.013600089135308907, -0.02064156379545136, -0.03196741488974495, 0.05901337336926034, 0.021648795339907167, -0.10240076528590882, -0.054186868959936435, 0.07952731390226064, -0.06874989913303774, -0.027124748847733936, -0.05304231587703326, -0.053476824273013396, -0.038306111891077584, 0.06945229295544682, 0.04518977162362408, -0.06456298522110623, -0.10277890822117813, 0.03949970077618597, 0.022296712063335007, -0.12061334466130912, -0.0716800380327419, -0.0010416510403228353, -0.17301688776371427, 0.012817329033807548, -0.11865831154428458, -0.0063538794267927095, -0.034687269555557634, -0.0028008475190265413, 0.05122161390644407, 0.12842452873911275, -0.0495524731501974, 0.16680803407395164, -0.12509059501916425, 0.00961079101082586, -0.0020524299660169376, 0.06715989663847338, -0.0014442306945577298, -0.08010340104774628, 0.11306423393952264, 0.16173650766491807, 0.02190999677699117, -0.05979763717204773, 0.048162492817974314, -0.06356207593626673, -0.008177389518134189, 0.10290406341958151, -0.011438964234251765, -0.005838559118691147, -0.12223293798128573, -0.06312325935048843, -0.009095828018818631, 0.19013335164654768, 0.008409623881073629, -0.18967026307015042, 0.018256389862852575, -0.04366038786046732, 0.132730742965902, -0.1064761518982855, -0.03575181333072921, -0.11995306736556326, -0.04695434212133503, -0.011427212144593161, 0.075147026579686, 0.04703551119299971, 0.1479465090784275, -0.03123009899485679, -0.007555002447759409, -0.028507266844993422, 0.02379393964089564, 0.08662165109216766, -0.04806156829632201, 0.10315345662751052, -0.1136667596161018, 0.01930839213854957, -0.05714472982844125, 0.12038841103983315, 0.03569208539401831, -0.0036610761440089954, 0.026308195466364318, 0.1978583201287116, 0.007404871746353183, -0.10447127066082768, 0.14942186467392776, 0.04031929115989672, 0.14716508184235008, -0.137049197757118, -0.014530045017938071, 0.009340219433249693, 0.08501002775302867, 0.016159747585342204, 0.01800758668031195, -0.16455020312401145, 0.0002834564806609197, 0.00877750620086774, -0.05195722421941976, 0.07231855561005579, -0.012442172137606339, 0.018368859154507578, 0.04523349401008703, 0.03855852299402666, -0.05091946049237834, -0.05532961916959484, 0.011351085642837704, 