{"policy_state_dict": {"conv1.weight": [[[[-0.08653844892978668, -0.03983268514275551, 0.08088430762290955], [0.14758065342903137, 0.000163894088473171, 0.18953394889831543], [-0.3252227008342743, -0.07246273756027222, -0.06425361335277557]], [[0.07343154400587082, -0.28120893239974976, -0.06636583060026169], [0.0912676602602005, 0.028646865859627724, 0.05042257159948349], [0.15254202485084534, -0.0695890486240387, -0.10250767320394516]], [[0.1650913953781128, -0.10663487017154694, 0.11332062631845474], [0.04044482484459877, 0.2046447992324829, 0.3194607198238373], [-0.18340371549129486, -0.12914656102657318, 0.20131711661815643]], [[-0.07079369574785233, 0.011121884919703007, -0.10770174860954285], [0.020940175279974937, -0.08446718752384186, 0.07243289798498154], [0.030813634395599365, -0.02242879569530487, 0.1536625176668167]], [[-0.04848571866750717, -0.2566163241863251, -0.18526767194271088], [0.08669386059045792, -0.098497673869133, 0.06382772326469421], [-0.007898109033703804, -0.032008666545152664, -0.08937817811965942]], [[-0.24224764108657837, -0.17513935267925262, 0.3127107322216034], [0.012180743739008904, 0.12584319710731506, -0.022035734727978706], [-0.06017233058810234, 0.27961206436157227, 0.075310617685318]], [[0.03043370321393013, -0.10750390589237213, 0.2748871147632599], [0.17123955488204956, 0.1058088019490242, 0.20134299993515015], [0.1577790528535843, 0.1266116499900818, 0.021684952080249786]], [[0.008948051370680332, -0.009856029413640499, -0.06970370560884476], [0.1617453694343567, 0.05744205415248871, 0.1148795634508133], [-0.01955798827111721, -0.03494672104716301, 0.06099335104227066]], [[0.2186271697282791, -0.13665319979190826, -0.07922393083572388], [-0.01624649204313755, 0.06649667769670486, -0.10335136204957962], [0.14146845042705536, -0.1176057830452919, -0.12269964814186096]], [[0.16202150285243988, -0.2400609701871872, 0.01108661387115717], [0.1628587543964386, -0.36612313985824585, 0.03724970296025276], [0.02689501643180847, 0.004861419554799795, -0.10665833950042725]], [[-0.04876510426402092, -0.042001623660326004, -0.15102939307689667], [0.1550416648387909, -0.0031404467299580574, -0.00011105337034678087], [0.021840432658791542, -0.04153420031070709, 0.08469220250844955]], [[-0.1063261330127716, 0.06739065796136856, 0.18363353610038757], [-0.12977886199951172, -0.06639104336500168, 0.08004560321569443], [-0.1064138188958168, -0.1568070501089096, 0.019861919805407524]]], [[[-0.07852470874786377, -0.08165207505226135, 0.009064648300409317], [0.08509937673807144, -0.19018839299678802, 0.08884132653474808], [0.06945843249559402, -0.03908925503492355, 0.13515704870224]], [[-0.133769690990448, -0.04435928165912628, -0.26488086581230164], [-0.10106562823057175, 0.2043052464723587, 0.031022068113088608], [0.030088134109973907, 0.02569406107068062, -0.050021130591630936]], [[0.037804752588272095, -0.23135238885879517, -0.2090800255537033], [0.005086035002022982, -0.1397191435098648, -0.08160220086574554], [-0.18958204984664917, -0.2188587337732315, -0.009886524640023708]], [[-0.05364220216870308, 0.04767361283302307, 0.26666736602783203], [-0.021744418889284134, -0.09575435519218445, -0.17648690938949585], [-0.013997782953083515, 0.005523559171706438, -0.3516329526901245]], [[-0.05269401893019676, 0.12211409211158752, 0.07680433243513107], [-0.2599574327468872, -0.16079950332641602, -0.06989648193120956], [0.01133201364427805, 0.0361446850001812, -0.14659766852855682]], [[0.07173090428113937, -0.08185693621635437, 0.008616296574473381], [-0.008384895510971546, -0.1997004747390747, -0.10901330411434174], [-0.10674336552619934, 0.21957525610923767, -0.15835118293762207]], [[0.10369566828012466, 0.05713146552443504, 0.194905087351799], [0.1386420875787735, 0.022263051941990852, 0.04057987034320831], [0.061381444334983826, 0.20918424427509308, 0.05853215977549553]], [[0.0021383005660027266, 0.09647903591394424, 0.15371492505073547], [-0.22923849523067474, 0.35401055216789246, -0.043689873069524765], [-0.29911500215530396, -0.41612282395362854, -0.15413367748260498]], [[0.2003210484981537, -0.08668971061706543, -0.05776195600628853], [-0.1386943757534027, -0.03814571350812912, 0.22850744426250458], [0.007191039621829987, -0.1437206119298935, 0.03803512081503868]], [[0.015235241502523422, -0.30886110663414, -0.22316992282867432], [-0.011668032966554165, -0.1599138081073761, -0.12280533462762833], [-0.03276590257883072, -0.16520695388317108, -0.11866439878940582]], [[0.14884737133979797, -0.31590843200683594, -0.13244470953941345], [0.07580813020467758, -0.08553686738014221, -0.047835614532232285], [0.07511506974697113, -0.07168622314929962, 0.0252564437687397]], [[-0.3572794795036316, -0.33288219571113586, -0.04576120898127556], [-0.13865290582180023, -0.42687344551086426, 0.007137213367968798], [0.057302989065647125, -0.11153470724821091, -0.062320321798324585]]], [[[0.03425769507884979, -0.0788969025015831, 0.012632826343178749], [-0.03350592404603958, 0.1058584675192833, 0.050543930381536484], [-0.14181192219257355, 0.1905306577682495, -0.07996859401464462]], [[0.15800218284130096, 0.1635669618844986, 0.03186038136482239], [0.2113548219203949, 0.10182588547468185, -0.24839356541633606], [0.42867016792297363, 0.15027333796024323, 0.23687799274921417]], [[-0.1413988173007965, 0.13791897892951965, -0.2930869460105896], [0.12268000841140747, -0.08578302711248398, -0.2084762454032898], [-0.030007824301719666, -0.3367023169994354, -0.13116945326328278]], [[-0.06474925577640533, -0.14797821640968323, -0.1593640297651291], [-0.05295867100358009, -0.2005411833524704, -0.03154521435499191], [0.12699848413467407, 0.004404124338179827, -0.011438689194619656]], [[0.23011435568332672, -0.22109729051589966, 0.030275579541921616], [0.18040059506893158, 0.12225338816642761, -0.03982071951031685], [0.20602689683437347, 0.12740612030029297, -0.09385394304990768]], [[-0.26394134759902954, -0.012474899180233479, -0.05684947595000267], [-0.19224005937576294, -0.08414717763662338, 0.06376130133867264], [-0.0699818804860115, 0.24248448014259338, -0.07616335898637772]], [[0.10436200350522995, 0.10977275669574738, 0.07458242774009705], [-0.026863228529691696, 0.0031112495344132185, -0.05957468971610069], [-0.09236808866262436, -0.1243104636669159, -0.19828596711158752]], [[-0.04957737401127815, -0.14822371304035187, -0.08428838104009628], [-0.10099679976701736, -0.05404961481690407, -0.05168329179286957], [0.13852457702159882, -0.3047195374965668, 0.16217465698719025]], [[0.20299118757247925, -0.07774733752012253, 0.17314329743385315], [-0.20236782729625702, 0.11429014801979065, -0.18337714672088623], [-0.055267974734306335, 0.19295501708984375, -0.055347178131341934]], [[0.15169104933738708, -0.1843516230583191, -0.007870838977396488], [-0.06307673454284668, -0.034703437238931656, -0.07594583928585052], [-0.16665180027484894, 0.05902105197310448, 0.049520496279001236]], [[0.0067864349111914635, 0.08937151730060577, -0.21713843941688538], [0.029118012636899948, -0.05434698984026909, -0.15810127556324005], [0.14586615562438965, 0.09300234168767929, -0.10515996068716049]], [[-0.1620299220085144, 0.10745356231927872, 0.3403770625591278], [0.08717276155948639, -0.05115286260843277, 0.10419469326734543], [0.015392987057566643, -0.03697817400097847, 0.03193195164203644]]], [[[0.020312786102294922, 0.10354289412498474, 0.07357637584209442], [0.006915379781275988, -0.2269754558801651, -0.15674655139446259], [0.1292441338300705, 0.17462791502475739, -0.03214109688997269]], [[-0.07302409410476685, -0.02684972807765007, 0.11905939131975174], [0.08256798982620239, -0.016768045723438263, -0.13167187571525574], [0.05393976345658302, -0.048249002546072006, -0.05367346853017807]], [[-0.0576048344373703, -0.0733744353055954, 0.05475670471787453], [0.239618182182312, -0.18945850431919098, 0.19693611562252045], [-0.10145287215709686, 0.13777633011341095, 0.06406477093696594]], [[0.21493002772331238, -0.11311652511358261, -0.06600762158632278], [0.11745063960552216, 0.03212716802954674, 0.04437442868947983], [0.06628917157649994, 0.3263610601425171, -0.027219606563448906]], [[0.17644068598747253, 0.07657623291015625, 0.09690909087657928], [-0.1166471540927887, 0.09407161921262741, -0.2475297898054123], [-0.03267940506339073, -0.005688624922186136, 0.1105407252907753]], [[0.17421375215053558, -0.154636412858963, -0.13435779511928558], [0.09104681760072708, 0.04519113898277283, -0.05420537665486336], [-0.09303213655948639, 0.08761691302061081, 0.08444090932607651]], [[0.0342467799782753, -0.030856093391776085, 0.07891969382762909], [-0.06956149637699127, -0.2585030198097229, -0.09217865020036697], [0.036538850516080856, -0.034036118537187576, 0.03512740507721901]], [[-0.016629071906208992, -0.02444547787308693, 0.3201688230037689], [0.04767186567187309, 0.03830758109688759, -0.055039625614881516], [0.13911540806293488, -0.0605764240026474, -0.016242261976003647]], [[0.11270225048065186, 0.19652096927165985, 0.05026689171791077], [0.0450964979827404, -0.17332632839679718, -0.0896487683057785], [0.09950317442417145, -0.07344765961170197, 0.025063926354050636]], [[-0.013944805599749088, 0.1901535540819168, 0.013569154776632786], [-0.05484312027692795, -0.057153526693582535, 0.0609903447329998], [0.1571178287267685, 0.1489047259092331, -0.1842295080423355]], [[0.08451789617538452, 0.08359820395708084, 0.050232455134391785], [0.0016243151621893048, -0.01961814984679222, -0.12021733820438385], [-0.11782977730035782, -0.023213889449834824, -0.23979634046554565]], [[-0.05463786795735359, -0.039482083171606064, 0.01091801654547453], [-0.11474406719207764, -0.008501294068992138, 0.10015066713094711], [0.15063844621181488, 0.1266593486070633, -0.004790610168129206]]], [[[0.016898060217499733, 0.1949068307876587, 0.1936415731906891], [-0.06795112043619156, -0.19411927461624146, -0.08364371210336685], [0.08085312694311142, 0.028180787339806557, 0.10096998512744904]], [[0.09556163102388382, -0.04317338764667511, 0.009912352077662945], [-0.05850410833954811, -0.12105893343687057, -0.1391000896692276], [0.004973537754267454, 0.1947597861289978, 0.2074822187423706]], [[-0.0642072856426239, 0.028343524783849716, -0.11494135856628418], [-0.08953201025724411, 0.15036338567733765, -0.008800490759313107], [0.11461789906024933, 0.05250053480267525, 0.19732393324375153]], [[-0.014731933362782001, 0.19517594575881958, -0.3620580732822418], [0.1599017232656479, -0.024302074685692787, 0.24470044672489166], [-0.006825496908277273, -0.08428000658750534, -0.20252807438373566]], [[-0.07001698017120361, -0.016122816130518913, -0.18824627995491028], [-0.340080589056015, 0.003320719813928008, 0.10480156540870667], [0.05063038691878319, 0.14121465384960175, -0.01947200484573841]], [[-0.13675208389759064, -0.11556848883628845, 0.06167282909154892], [-0.098298579454422, 0.12254483997821808, 0.17460128664970398], [-0.03032599948346615, -0.024163104593753815, -0.002940186532214284]], [[0.0030981479212641716, 0.1038382351398468, -0.14000742137432098], [0.08620123565196991, 0.1768396943807602, 0.25072476267814636], [0.19570299983024597, -0.008748787455260754, 0.10357557982206345]], [[3.744395507965237e-05, 0.2679530382156372, -0.20867696404457092], [0.04223847761750221, -0.001242332742549479, -0.26048940420150757], [0.05969696119427681, 0.19616669416427612, 0.023014521226286888]], [[0.053422655910253525, 0.007685364224016666, -0.04726719483733177], [0.05683936923742294, -0.25794440507888794, -0.27398961782455444], [0.19245217740535736, -0.06154262647032738, -0.0580170601606369]], [[-0.09412039071321487, -0.021114854142069817, 0.040775686502456665], [0.14869749546051025, -0.03124239109456539, 0.03384236991405487], [-0.18984687328338623, -0.3316228985786438, -0.2249450832605362]], [[-0.08354046940803528, -0.04628213867545128, 0.07122167944908142], [-0.01481440756469965, -0.02523469366133213, 0.09628371894359589], [0.12713465094566345, 0.04979577660560608, 0.047580838203430176]], [[0.04080924391746521, 0.041837748140096664, -0.12787728011608124], [0.10885705053806305, -0.06322132050991058, -0.0448664128780365], [0.019800374284386635, -0.016420703381299973, 0.031160123646259308]]], [[[-0.13928984105587006, 0.14578811824321747, 0.13823412358760834], [-0.12677010893821716, 0.11002525687217712, 0.19871674478054047], [0.10079792141914368, 0.19541916251182556, -0.09111267328262329]], [[0.2569773495197296, 0.0007212929194793105, -0.08075971156358719], [-0.054927993565797806, 0.018537135794758797, 0.23122385144233704], [0.030670031905174255, 0.20815511047840118, -0.16191081702709198]], [[-0.15201450884342194, -0.34802427887916565, -0.08618786185979843], [-0.1141216829419136, -0.1959577351808548, 0.04824848100543022], [0.09858810901641846, -0.06212979555130005, 0.18745265901088715]], [[0.2491706758737564, -0.15980695188045502, 0.14789491891860962], [0.07045309245586395, -0.07434926927089691, -0.1281445175409317], [0.008147211745381355, -0.12658336758613586, 0.03424817696213722]], [[0.08077073097229004, -0.25537538528442383, 0.06451593339443207], [-0.04691240191459656, -0.030916741117835045, 0.054241009056568146], [-0.12587790191173553, -0.021378571167588234, -0.10754062235355377]], [[0.116713747382164, 0.12152465432882309, 0.0372135229408741], [-0.12715688347816467, 0.19326364994049072, 0.09119075536727905], [0.052129004150629044, -0.20738394558429718, -0.03933637589216232]], [[0.10232038795948029, -0.24419760704040527, -0.10538949072360992], [-0.2070218324661255, -0.10757513344287872, -0.14334067702293396], [-0.17082765698432922, 0.035595908761024475, -0.2980755865573883]], [[0.10983265936374664, 0.11636801809072495, 0.17606905102729797], [-0.03160339966416359, 0.18874241411685944, 0.114244744181633], [-0.03264438733458519, 0.07234694063663483, 0.3165099620819092]], [[-0.05248577520251274, -0.2268039882183075, 0.21980689465999603], [0.05766768380999565, -0.040988072752952576, 0.06120915338397026], [0.03934595733880997, -0.07990550249814987, -0.034071192145347595]], [[0.04901600629091263, 0.3068743646144867, -0.10317429900169373], [-0.051982805132865906, 0.08034434914588928, 0.03580613434314728], [-0.029424315318465233, 0.08246109634637833, -0.18563196063041687]], [[-0.2937135398387909, -0.09202384203672409, 0.03594499081373215], [-0.45443326234817505, 0.010610416531562805, -0.04406201094388962], [0.014015675522387028, 0.19183021783828735, 0.003984492737799883]], [[-0.10595498979091644, -0.04215516149997711, -0.015687987208366394], [-0.1525515913963318, 0.09687098860740662, -0.1506689041852951], [0.07368980348110199, 0.18369928002357483, -0.01716400682926178]]], [[[-0.1071464866399765, 0.20353084802627563, 0.054765768349170685], [-0.19146940112113953, 0.05905084311962128, -0.12252409011125565], [-0.08905413001775742, 0.11229410022497177, 0.0551537461578846]], [[0.10919687151908875, 0.027164950966835022, 0.00012984179193153977], [-0.08219393342733383, 0.019802287220954895, -0.19154122471809387], [-0.17659299075603485, -0.12826722860336304, -0.04682043194770813]], [[0.05763488635420799, -0.17385277152061462, 0.026709137484431267], [-0.1258682906627655, -0.15987712144851685, 0.25261351466178894], [0.13176949322223663, 0.11158367246389389, 0.22896499931812286]], [[-0.15024979412555695, 0.0464031957089901, 0.13709792494773865], [0.0772017315030098, -0.07524526119232178, -0.17051701247692108], [-0.01266163308173418, -0.21128256618976593, -0.013505671173334122]], [[-0.24824391305446625, 0.029986996203660965, 0.014300939626991749], [0.023209581151604652, -0.3223007619380951, 0.008236467838287354], [-0.06459716707468033, -0.1707090586423874, 0.2245166003704071]], [[-0.03940694034099579, 0.08914650231599808, -0.06137915328145027], [0.07294265180826187, -0.07443434000015259, 0.03202090412378311], [0.034099332988262177, 0.11188908666372299, 0.009164471179246902]], [[-0.06896982342004776, 0.21618309617042542, -0.15245859324932098], [0.03537946566939354, 0.11006386578083038, 0.2594255805015564], [0.055358629673719406, -0.06120879203081131, -0.2051725536584854]], [[-0.03704216703772545, -0.14270880818367004, -0.1370781511068344], [0.16246673464775085, 0.18252681195735931, 0.10625390708446503], [0.07624804973602295, -0.05456259474158287, -0.06257420778274536]], [[0.058259595185518265, -0.11500187963247299, -0.2905029356479645], [-0.08729641139507294, -0.08385813236236572, -0.16054685413837433], [-0.12555274367332458, -0.22989422082901, 0.39924901723861694]], [[0.16612115502357483, -0.0935266986489296, 0.11194160580635071], [-0.016798658296465874, -0.15193834900856018, 0.09440601617097855], [-0.0791916623711586, -0.09789764881134033, -0.10387618839740753]], [[0.13488569855690002, 0.09683504700660706, 0.29531925916671753], [0.22976242005825043, -0.03803128004074097, -0.16520407795906067], [0.05369565263390541, 0.10797911882400513, 0.07513414323329926]], [[0.2361745834350586, 0.03672940284013748, -0.1065671518445015], [0.17647001147270203, 0.08037463575601578, 0.09280522167682648], [0.1315118372440338, -0.096847303211689, -0.0974525660276413]]], [[[-0.13137225806713104, -0.17534610629081726, -0.16431012749671936], [-0.02326340414583683, 0.08634965866804123, -0.15369409322738647], [0.4591856598854065, 0.09070595353841782, -0.07648760825395584]], [[0.17428889870643616, -0.11243227869272232, 0.3159574866294861], [-0.052295029163360596, 0.035911962389945984, 0.003738225204870105], [-0.06090330705046654, -0.03572776913642883, 0.25469082593917847]], [[-0.054602693766355515, 0.059984948486089706, 0.02228083461523056], [0.015583266504108906, 0.03333773463964462, -0.13461272418498993], [-0.1554553508758545, 0.10632846504449844, 0.16682317852973938]], [[-0.11662435531616211, 0.02039911597967148, 0.010538672097027302], [0.07661037892103195, 0.17427626252174377, 0.04680949077010155], [-0.17391341924667358, -0.028499843552708626, -0.0709984228014946]], [[-0.14318066835403442, 0.07135367393493652, 0.08782105147838593], [-0.05383596569299698, 0.07220524549484253, 0.09016653895378113], [-0.09927257150411606, 0.2122989147901535, 0.045900460332632065]], [[-0.07857833802700043, -0.01567995548248291, 0.13486242294311523], [0.198980912566185, -0.023852044716477394, 0.044450897723436356], [-0.10888173431158066, -0.05894669517874718, -0.05578446015715599]], [[-0.09725245833396912, 0.23431701958179474, -0.21479995548725128], [-0.04731911048293114, 0.002050959039479494, -0.03623271733522415], [-0.06901178508996964, 0.15917490422725677, -0.07930471748113632]], [[-0.2601894438266754, -0.007998290471732616, -0.14120817184448242], [-0.1291198879480362, 0.03937229886651039, 0.09887479245662689], [0.0671997219324112, -0.17220322787761688, 0.32662898302078247]], [[-0.0012099624145776033, 0.12551699578762054, 0.05127601698040962], [0.0648217499256134, 0.02581023797392845, -0.029051873832941055], [0.13917532563209534, -0.06557799130678177, 0.25855544209480286]], [[-0.04870413988828659, -0.13658475875854492, -0.11617594212293625], [0.009498859755694866, -0.11187608540058136, -0.1381683647632599], [0.0257339458912611, -0.1281840056180954, -0.09928105026483536]], [[-0.07363496720790863, 0.04987055063247681, 0.16243688762187958], [0.4066680669784546, 0.09535899013280869, -0.13596349954605103], [0.13954205811023712, 0.08538564294576645, 0.0065394919365644455]], [[-0.06611879169940948, 0.08248966932296753, -0.14735694229602814], [-0.04307805374264717, 0.00711232703179121, -0.16375158727169037], [0.22231152653694153, -0.154922217130661, -0.12295372039079666]]], [[[0.1455346643924713, -0.03820792958140373, 0.0917864516377449], [-0.17794090509414673, -0.051578935235738754, 0.0271194688975811], [-0.15688560903072357, -0.13651569187641144, 0.04848840460181236]], [[-0.021197618916630745, -0.001297313254326582, -0.1840657740831375], [0.04633398726582527, -0.18464426696300507, 0.018371975049376488], [0.002165633486583829, 0.030760491266846657, 0.035806093364953995]], [[-0.043426547199487686, 0.06114429980516434, -0.03644854947924614], [0.03736262768507004, 0.0360843762755394, 0.0046729277819395065], [0.011742579750716686, 0.24743692576885223, 0.17523299157619476]], [[-0.031225334852933884, 0.017128296196460724, 0.04965062811970711], [0.10978497564792633, -0.13638940453529358, -0.0672859475016594], [-0.060185614973306656, -0.03214758634567261, -0.15357385575771332]], [[0.010235272347927094, 0.03027021512389183, -0.18892952799797058], [0.26393839716911316, 0.10292645543813705, 0.20602913200855255], [-0.20617005228996277, -0.1183738186955452, 0.22089722752571106]], [[-0.017585963010787964, 0.24440622329711914, 0.008310696110129356], [0.055897824466228485, -0.062399934977293015, -0.3754788637161255], [0.006705809384584427, -0.2669316232204437, 0.09516198933124542]], [[-0.022600628435611725, -0.3016282320022583, -0.06745875626802444], [0.18219640851020813, 0.06484564393758774, 0.07913979887962341], [-0.27874118089675903, 0.015300874598324299, 0.09588956087827682]], [[-0.07653704285621643, -0.10151669383049011, -0.06326635181903839], [-0.31324854493141174, -0.1273510456085205, 0.09431163221597672], [0.029115360230207443, 0.0787530243396759, 0.047931522130966187]], [[0.10426963120698929, 0.05194559693336487, -0.13033421337604523], [-0.1397639513015747, -0.12004310637712479, 0.0011546348687261343], [0.10281891375780106, -0.09390556067228317, 0.0423971563577652]], [[0.06667883694171906, 0.13253968954086304, -0.04201361536979675], [0.08195281773805618, 0.051519472151994705, 0.02811581827700138], [0.14509396255016327, 0.08898402750492096, 0.07051831483840942]], [[0.0006372905918397009, -0.09591518342494965, 0.058560628443956375], [-0.07219049334526062, -0.27982473373413086, 0.03022083081305027], [-0.0717197060585022, -0.006388817448168993, 0.024764681234955788]], [[0.004193875007331371, 0.10271873325109482, -0.2948136329650879], [-0.042970914393663406, 0.17322547733783722, -0.1420646756887436], [-0.045838531106710434, 0.044332291930913925, -0.019537920132279396]]], [[[-0.03013886697590351, -0.2034790813922882, -0.21946626901626587], [-0.11064369976520538, -0.07011547684669495, -0.0950382649898529], [-0.191402867436409, 0.006490421947091818, 0.005597447976469994]], [[0.09949692338705063, 0.04214884713292122, -0.10876540094614029], [-0.021873489022254944, -0.13545437157154083, -0.00018278944480698556], [-0.21246503293514252, -0.021138012409210205, 0.08868899941444397]], [[-0.11821956187486649, -0.19641156494617462, -0.05773133784532547], [-0.006842695642262697, -0.03062206506729126, -0.04368823021650314], [0.10628422349691391, -0.03845610097050667, 0.1577552855014801]], [[-0.0709349736571312, -0.016176322475075722, 0.14043767750263214], [-0.04763815551996231, 0.027611838653683662, -0.030180620029568672], [0.12863366305828094, -0.12398084253072739, 0.04021155461668968]], [[0.050341904163360596, -0.344587117433548, -0.09733111411333084], [0.004867153242230415, -0.048233188688755035, 0.0063050310127437115], [-0.11461044102907181, 0.02618834376335144, -0.00881872046738863]], [[0.1657690852880478, -0.2891610264778137, 0.09726911783218384], [0.13799867033958435, -0.09663226455450058, -0.12688034772872925], [-0.12962166965007782, -0.06845930218696594, 0.15151095390319824]], [[0.18061025440692902, -0.048518721014261246, 0.07099828869104385], [0.07214641571044922, -0.39958709478378296, 0.024118369445204735], [-0.14249631762504578, -0.057085175067186356, -0.14004603028297424]], [[-0.009220458567142487, 0.325198233127594, 0.15083995461463928], [0.0015711326850578189, 0.11782406270503998, 0.15525758266448975], [-0.0052163852378726006, 0.11941221356391907, -0.055076878517866135]], [[-0.09280680119991302, 0.02475488930940628, -0.044793181121349335], [-0.06271258741617203, -0.05084836855530739, -0.03729981929063797], [-0.14376892149448395, 0.11572198569774628, -0.09157834202051163]], [[-0.04694338142871857, 0.35284608602523804, -0.05132948234677315], [0.22862358391284943, -0.022343050688505173, -0.3341450095176697], [-0.022452926263213158, 0.10619319975376129, 0.045940250158309937]], [[0.15034322440624237, -0.032332804054021835, -0.08377878367900848], [0.06786305457353592, 0.01380185130983591, 0.095465287566185], [-0.11133097857236862, -0.1794651597738266, -0.10840314626693726]], [[-0.014635463245213032, -0.1221739798784256, 0.15769395232200623], [-0.03145366907119751, -0.05434221774339676, 0.06833896785974503], [0.16313661634922028, 0.05207262188196182, -0.22017665207386017]]], [[[0.12496279180049896, -0.06628073751926422, 0.06993695348501205], [-0.04015727713704109, -0.15338298678398132, 0.2924600839614868], [-0.025810133665800095, -0.021509336307644844, -0.12713642418384552]], [[-0.06769081205129623, -0.18781320750713348, -0.1132727563381195], [0.17884831130504608, 0.2881350517272949, -0.07359804213047028], [0.03188100829720497, -0.11766286939382553, -0.05114264041185379]], [[-0.048653632402420044, 0.380124032497406, -0.2145460993051529], [0.1455005705356598, -0.17097724974155426, -0.078883595764637], [0.009002245031297207, -0.009933910332620144, -0.07602676004171371]], [[-0.25381961464881897, -0.1942809522151947, -0.08032649010419846], [-0.20535437762737274, 0.014342822134494781, -0.12475805729627609], [0.03782600536942482, -0.028226880356669426, 0.020466353744268417]], [[0.1148141399025917, 0.17818044126033783, 0.09363275021314621], [-0.11825601011514664, 0.1677713394165039, -0.08779296278953552], [-0.04242131859064102, 0.16917040944099426, 0.14951367676258087]], [[0.18416748940944672, 0.164492666721344, 0.07804863899946213], [0.17956067621707916, -0.052521660923957825, -0.13580136001110077], [0.1256670206785202, -0.33231121301651, 0.025783266872167587]], [[0.0346268005669117, -0.15280626714229584, -0.15504015982151031], [0.00031615301850251853, 0.10259852558374405, 0.024482376873493195], [-0.1148516982793808, -0.16145175695419312, 0.22624146938323975]], [[-0.26244625449180603, -0.044276852160692215, 0.12738944590091705], [0.020421961322426796, 0.030361194163560867, 0.014639013446867466], [0.16295017302036285, 0.1120876893401146, -0.12957274913787842]], [[0.037146758288145065, 0.15745124220848083, -0.21739615499973297], [-0.07316166162490845, -0.10618570446968079, 0.03314953297376633], [-0.13982783257961273, -0.14783518016338348, -0.057164572179317474]], [[-0.044001877307891846, 0.09755221009254456, 0.05960956960916519], [0.08016729354858398, -0.13917723298072815, -0.050846025347709656], [-0.3656149208545685, -0.18697817623615265, -0.013630246743559837]], [[-0.22904419898986816, 0.3097715675830841, 0.12439791113138199], [0.045173391699790955, 0.03854111582040787, -0.26104527711868286], [-0.21146884560585022, -0.11831425875425339, 0.044947005808353424]], [[-0.1530890017747879, -0.4294694662094116, 0.03464418649673462], [0.021827932447195053, 0.11411631107330322, -0.022162316367030144], [-0.123331718146801, 0.04535673186182976, -0.1461430937051773]]], [[[-0.11653006076812744, 0.13489528000354767, -0.038272034376859665], [-0.14039714634418488, 0.13498705625534058, 0.10098633915185928], [0.16498853266239166, -0.06192764639854431, 0.010751580819487572]], [[-0.3064865469932556, 0.050498273223638535, 0.02252574823796749], [-0.3677125871181488, 0.19755004346370697, -0.08546677231788635], [0.15840211510658264, -0.10464078187942505, -0.3738030195236206]], [[-0.23950190842151642, -0.0404496043920517, 0.021913746371865273], [0.08668546378612518, 0.03993089124560356, 0.2860674262046814], [-0.05172000080347061, -0.08704419434070587, 0.07009169459342957]], [[-0.036415327340364456, 0.022545017302036285, 0.13480058312416077], [0.019537445157766342, -0.025421740487217903, -0.21980465948581696], [-0.010502024553716183, 0.18581266701221466, 0.11029507964849472]], [[-0.11334895342588425, -0.13342157006263733, 0.03835687413811684], [0.25928202271461487, 0.019958224147558212, -0.048353344202041626], [0.10568825155496597, 0.030116481706500053, 0.06881121546030045]], [[0.13604792952537537, 0.029010901227593422, -0.21723918616771698], [-0.17572903633117676, -0.112700916826725, 0.030654141679406166], [-0.21362945437431335, 0.21350355446338654, 0.021184656769037247]], [[-0.18071416020393372, -0.058618925511837006, -0.032063502818346024], [-0.14234493672847748, -0.0022687558084726334, -0.3854348957538605], [-0.017607221379876137, -0.061267271637916565, -0.04203585162758827]], [[-0.06602069735527039, 0.0064349728636443615, 0.0017558924155309796], [0.1748138666152954, -0.004322356078773737, 0.13736975193023682], [-0.08030811697244644, -0.14277014136314392, 0.03323034569621086]], [[0.15960341691970825, -0.01465171854943037, -0.011670688167214394], [-0.018398264423012733, 0.3607865869998932, -0.1627168506383896], [-0.08332343399524689, -0.07145106792449951, -0.13996343314647675]], [[0.09545345604419708, 0.1429632157087326, -0.20169183611869812], [0.0319003090262413, 0.16213493049144745, -0.0034455275163054466], [0.06490305066108704, -0.23521926999092102, 0.09882594645023346]], [[0.018794730305671692, 0.10516612976789474, 0.22532004117965698], [0.01403545867651701, 0.16303230822086334, -0.09021583199501038], [0.05504670739173889, 0.03541545197367668, 0.04065889120101929]], [[0.018295936286449432, 0.05285560339689255, -0.05795532092452049], [0.037787675857543945, 0.22967520356178284, 0.09446125477552414], [-0.2183695137500763, 0.02030297741293907, -0.1378055214881897]]], [[[0.058017924427986145, -0.05493764206767082, 0.09430500864982605], [-0.003875489579513669, -0.12447944283485413, 0.017869314178824425], [-0.008503141812980175, 0.012556783854961395, 0.0337129682302475]], [[0.08709605783224106, 0.1941705346107483, -0.15548162162303925], [0.17446750402450562, 0.035736843943595886, -0.15163087844848633], [-0.11143995821475983, 0.20467880368232727, -0.07849882543087006]], [[0.22091983258724213, 0.028250394389033318, 0.1482786238193512], [0.18782903254032135, -0.013696936890482903, -0.32640382647514343], [-0.04566451907157898, 0.12027686834335327, 0.17406140267848969]], [[-0.0883449912071228, 0.09648288041353226, -0.10339216142892838], [-0.27615436911582947, -0.10825783759355545, 0.01748991198837757], [0.006688126362860203, 0.04652516543865204, -0.12421873956918716]], [[-0.11653118580579758, -0.23018434643745422, 0.011659082025289536], [0.0026219706051051617, 0.018397610634565353, -0.02964182384312153], [0.17508530616760254, -0.15458731353282928, -0.1329582780599594]], [[-0.0616217702627182, 0.07773443311452866, -0.06161683797836304], [0.08725593984127045, 0.087370365858078, 0.1237017810344696], [0.19779208302497864, -0.12027662247419357, 0.057697124779224396]], [[-0.1975942850112915, -0.007946671918034554, -0.11221151053905487], [0.13218818604946136, 0.002395280636847019, 0.0949457585811615], [0.34207117557525635, -0.0818416103720665, -0.24843966960906982]], [[0.07529357820749283, -0.07004552334547043, -0.0762561708688736], [0.11658071726560593, 0.06797577440738678, -0.2222045511007309], [-0.09019063413143158, 0.0035264487378299236, -0.2836082875728607]], [[0.08935122936964035, 0.09950239956378937, -0.03182586655020714], [-0.16187214851379395, 0.10246673971414566, 0.047050591558218], [0.07169986516237259, 0.007806933019310236, -0.1772036850452423]], [[0.002699596807360649, 0.18095755577087402, 0.038593512028455734], [-0.06025484576821327, 0.28138598799705505, 0.049571700394153595], [-0.012894521467387676, 0.14144501090049744, -0.1387619525194168]], [[0.06594216078519821, -0.16413727402687073, 0.15319669246673584], [0.11253362894058228, -0.06588096171617508, 0.06066028028726578], [0.059855867177248, -0.12449604272842407, 0.02752189338207245]], [[0.009813390672206879, -0.2206723541021347, 0.17411655187606812], [-0.35282695293426514, -0.17474834620952606, 0.08626341819763184], [0.014082981273531914, 0.2923988997936249, -0.13476921617984772]]], [[[0.09571216255426407, 0.14804042875766754, -0.07150468230247498], [0.08844010531902313, -0.13707612454891205, 0.06241554766893387], [-0.048238709568977356, -0.18991614878177643, -0.0769803449511528]], [[0.07440106570720673, -0.1853237897157669, -0.12241070717573166], [-0.0594666562974453, -0.01753458008170128, 0.10139896720647812], [-0.10838333517313004, 0.05264168232679367, 0.1549496203660965]], [[0.06264974176883698, 0.03566994145512581, -0.23224861919879913], [-0.010395565070211887, 0.12147696316242218, 0.17782622575759888], [0.07848063111305237, -0.1592155545949936, 0.01858706772327423]], [[0.07038143277168274, 0.23337054252624512, 0.13962052762508392], [0.042464159429073334, 0.2008458375930786, -0.12117306143045425], [0.06664051860570908, 0.24320527911186218, -0.16535557806491852]], [[0.009732268750667572, -0.14055384695529938, -0.25211259722709656], [-0.02339441515505314, 0.16893553733825684, 0.11391418427228928], [-0.006670096889138222, -0.03908809646964073, -0.08611811697483063]], [[0.0641331598162651, 0.0862111747264862, 0.3540983200073242], [-0.04760405421257019, 0.15856805443763733, -0.007182749919593334], [0.23171944916248322, -0.20832929015159607, 0.10066592693328857]], [[0.09025806933641434, 0.09676048904657364, 0.13770437240600586], [-0.22846004366874695, -0.10067117214202881, 0.06360001116991043], [0.28687790036201477, -0.016120951622724533, -0.14883215725421906]], [[-0.029738593846559525, 0.05946977064013481, -0.0571744441986084], [0.030263731256127357, -0.08805635571479797, 0.13053396344184875], [-0.02272139862179756, 0.06156356632709503, 0.20908460021018982]], [[-0.08163104206323624, 0.3173952102661133, 0.02309892326593399], [-0.047104015946388245, -0.014499267563223839, 0.1291605532169342], [0.10795944929122925, -0.05179835855960846, 0.22679859399795532]], [[-0.17937159538269043, 0.14791685342788696, -0.14899387955665588], [-0.2287398725748062, -0.06136251240968704, 0.18273940682411194], [0.005311571527272463, -0.10920936614274979, 0.04879723861813545]], [[-0.1362731158733368, 0.09628219902515411, -0.12510532140731812], [-0.11932849884033203, 0.06874329596757889, -0.06288708746433258], [0.027602028101682663, 0.0397174172103405, -0.08692866563796997]], [[0.008585412055253983, 0.043360017240047455, -0.05307595431804657], [0.1870492547750473, -0.05222853273153305, 0.053065817803144455], [0.001413902617059648, 0.10949208587408066, -0.03466244786977768]]], [[[0.029417959973216057, -0.012654464691877365, -0.12094070017337799], [-0.05422726646065712, -0.16987107694149017, 0.03614871948957443], [-0.040413688868284225, 0.033386506140232086, 0.30905723571777344]], [[0.10676880180835724, 0.08753633499145508, 0.034569136798381805], [-0.04501770809292793, 0.17710046470165253, 0.05614522099494934], [-0.08769188821315765, -0.03222651034593582, 0.008029818534851074]], [[0.04865850508213043, -0.16613920032978058, 0.0971798449754715], [-0.009525848552584648, 0.03640389069914818, 0.29807472229003906], [0.048864539712667465, 0.08784618973731995, 0.1526383012533188]], [[-0.05828935280442238, 0.1395464986562729, -0.01631871610879898], [-0.05698907747864723, 0.03736915439367294, -0.1368388533592224], [0.05664955824613571, 0.13228324055671692, 0.1583947241306305]], [[0.10826744884252548, -0.047639574855566025, -0.020469607785344124], [-0.1692868024110794, -0.11160404235124588, 0.22872288525104523], [0.09251062572002411, -0.011919885873794556, 0.1487087607383728]], [[-0.17738990485668182, 0.19737693667411804, -0.24082855880260468], [0.0720747858285904, 0.10564623773097992, -0.30820178985595703], [0.22781752049922943, -0.188381627202034, 0.11079222708940506]], [[0.007895590737462044, 0.02932649478316307, 0.0125815961509943], [0.2099350094795227, -0.12336762994527817, 0.10087192058563232], [0.3355313241481781, 0.07988826185464859, 0.3329268991947174]], [[-0.18754824995994568, -0.01716279424726963, -0.1338205188512802], [-0.06190444156527519, 0.03037034533917904, -0.211483895778656], [-0.05887758359313011, -0.18212904036045074, -0.3369905352592468]], [[-0.06579042971134186, 0.021773697808384895, -0.010083194822072983], [0.03838595747947693, 0.18452873826026917, 0.07954971492290497], [-0.16270557045936584, -0.30555903911590576, -0.07303573936223984]], [[0.12342961877584457, 0.044825129210948944, 0.11105644702911377], [-0.049974046647548676, -0.24113431572914124, 0.06415567547082901], [-0.05784449726343155, -0.07165773212909698, -0.05906282365322113]], [[-0.08404466509819031, -0.057083144783973694, -0.09579989314079285], [-0.1048370823264122, 0.1336677074432373, -0.1081564798951149], [-0.0635308250784874, -0.08325109630823135, -0.01428668387234211]], [[0.12782533466815948, -0.01855853758752346, 0.043296441435813904], [0.07121127098798752, -0.35737285017967224, 0.0673784464597702], [0.15024887025356293, 0.04307100549340248, 0.11266585439443588]]], [[[-0.04603332281112671, -0.2625426948070526, 0.20509260892868042], [-0.022882698103785515, -0.10607466846704483, 0.14842283725738525], [0.07546655833721161, -0.08240897953510284, 0.03510100394487381]], [[0.14423313736915588, -0.041258230805397034, -0.04707219451665878], [0.05537101626396179, -0.1616564691066742, -0.27323591709136963], [0.16369912028312683, 0.1595103144645691, -0.09982644766569138]], [[0.2210012972354889, -0.06801101565361023, -0.28686901926994324], [0.03100644238293171, 0.10902433097362518, -0.0029335550498217344], [-0.024218352511525154, 0.027752717956900597, 0.06459417194128036]], [[0.0006324789137579501, 0.08212629705667496, 0.2039257138967514], [0.2669532895088196, -0.01550261490046978, -0.029859116300940514], [5.1255719881737605e-05, -0.15358208119869232, -0.3609737157821655]], [[0.12136402726173401, -0.03969477489590645, -0.07837173342704773], [-0.12991544604301453, -0.10005011409521103, -0.09170364588499069], [0.07381106168031693, -0.04125550389289856, -0.17073673009872437]], [[0.08499424159526825, 0.06412510573863983, 0.2595246732234955], [-0.05457281321287155, -0.015797896310687065, 0.09457243233919144], [-0.027926815673708916, -0.17374536395072937, 0.2350030392408371]], [[0.19058389961719513, -0.13261450827121735, -0.0431336984038353], [0.25010746717453003, 0.26692354679107666, 0.008480429649353027], [0.12126811593770981, -0.22821277379989624, 0.10913512110710144]], [[0.08562854677438736, -0.19679325819015503, -0.0878080204129219], [-0.10658898204565048, -0.044240131974220276, -0.2033517062664032], [-0.023800231516361237, -0.2430526167154312, -0.13978974521160126]], [[-0.35813984274864197, -0.19459015130996704, 0.04749229922890663], [-0.2045571208000183, -0.1966591328382492, 0.07867145538330078], [0.12393999099731445, -6.320559623418376e-05, -0.05341325327754021]], [[-0.014304807409644127, -0.20544904470443726, 0.09473927319049835], [0.0490829236805439, -0.07340493053197861, 0.07561928778886795], [0.05537194386124611, -0.24499136209487915, 0.12979240715503693]], [[0.058054909110069275, -0.14932605624198914, -0.07005679607391357], [-0.05843263491988182, -0.19181285798549652, 0.10683060437440872], [0.005144035443663597, -0.06974374502897263, -0.06547337025403976]], [[-0.0181316826492548, -0.027804957702755928, 0.009049012325704098], [-0.20433387160301208, -0.23870998620986938, -0.21699175238609314], [0.1438838690519333, -0.22398687899112701, 0.12417644262313843]]]], "conv1.bias": [-0.024907993152737617, -0.08853983134031296, -0.012968993745744228, 0.015245611779391766, 0.038953859359025955, 0.041456207633018494, 0.01994265615940094, 0.007082480471581221, 0.005475643090903759, 0.0007805898785591125, -0.021003151312470436, -0.0063803791999816895, -0.01849903166294098, 0.029221484437584877, 0.0020298901945352554, -0.03437456861138344], "conv2.weight": [[[[0.002129083964973688, 0.13961161673069, -0.16237427294254303], [-0.10013226419687271, -0.10788200795650482, -0.06187096983194351], [-0.004077686462551355, -0.05707263946533203, 0.08462502062320709]], [[-0.0980813205242157, -0.005815279204398394, 0.0637325569987297], [-0.004357653670012951, 0.15780113637447357, -0.30894041061401367], [-0.07092408090829849, -0.003620773321017623, 0.22997145354747772]], [[0.021756578236818314, 0.11491715162992477, -0.11456385254859924], [0.22489595413208008, 0.11369366198778152, -0.09837613254785538], [-0.03476420044898987, 0.09059536457061768, 0.1955559253692627]], [[0.22250527143478394, -0.11222710460424423, -0.1932908296585083], [-0.05800304561853409, -0.05147797614336014, -0.14967194199562073], [0.11963241547346115, -0.08579942584037781, -0.04691895842552185]], [[0.2721002399921417, 0.03130708262324333, -0.04166913777589798], [-0.0004825596115551889, -0.059917934238910675, -0.10932251811027527], [-0.05514790117740631, 0.11606230586767197, -0.22224625945091248]], [[-0.07171690464019775, 0.12929025292396545, 0.004544898867607117], [0.0029635608661919832, 0.028776394203305244, 0.06019284576177597], [0.020959382876753807, 0.014853715896606445, -0.14009401202201843]], [[-0.005133394151926041, 0.15905216336250305, -0.06529727578163147], [-0.04505820572376251, -0.1349368542432785, -0.16648268699645996], [-0.13303685188293457, -0.24545668065547943, 0.18339557945728302]], [[0.11268105357885361, 0.172618106007576, 0.21880708634853363], [-0.07435191422700882, -0.07588516175746918, 0.09512073546648026], [-0.09631185978651047, 0.06689120829105377, -0.22843512892723083]], [[0.07591966539621353, 0.030421121045947075, 0.10469013452529907], [0.036102570593357086, -0.11124862730503082, -0.23539327085018158], [0.18654592335224152, 0.16837799549102783, -0.021771278232336044]], [[-0.002943421946838498, 0.14865761995315552, 0.15133973956108093], [-0.00871363002806902, -0.001227889209985733, -0.10771389305591583], [0.15157850086688995, -0.2851552665233612, -0.05343814194202423]], [[-0.08894160389900208, 0.10525999218225479, 0.13237890601158142], [0.17024940252304077, -0.04720572382211685, -0.16483408212661743], [-0.11278882622718811, -0.11876823008060455, -0.020038820803165436]], [[-0.12541644275188446, 0.08747971802949905, -0.02679290436208248], [0.08160559087991714, -0.030033042654395103, 0.0017092472407966852], [-0.03250501677393913, 0.14315631985664368, -0.11222251504659653]], [[0.21304214000701904, -0.01313250232487917, -0.09496444463729858], [-0.014253586530685425, 0.19505912065505981, -0.07410810887813568], [-0.13763225078582764, -0.09677180647850037, -0.04620865359902382]], [[-0.1454853117465973, -0.02026241645216942, -0.1530333012342453], [0.06474088877439499, -0.051661308854818344, -0.22522670030593872], [-0.033171772956848145, 0.0707085058093071, -0.13656367361545563]], [[-0.0612020380795002, -0.0031918776221573353, 0.14027683436870575], [-0.11258514970541, -0.04118485003709793, -0.25543323159217834], [-0.04923650994896889, 0.10167347639799118, -0.011587236076593399]], [[-0.2502264976501465, 0.007682044059038162, -0.01429487019777298], [-0.2729850113391876, 0.003529608715325594, 0.08292669802904129], [-0.008627815172076225, 0.06664954870939255, 0.03971840813755989]]], [[[0.16158215701580048, 0.17926636338233948, 0.02383849211037159], [0.0012140829348936677, 0.03573229908943176, 0.17751643061637878], [0.11266695708036423, -0.014361046254634857, 0.1244233176112175]], [[-0.04488348588347435, -0.12351115792989731, -0.14227497577667236], [-0.22059547901153564, 0.19012245535850525, -0.20284853875637054], [0.10382908582687378, -0.004723658785223961, 0.1871744990348816]], [[0.20671316981315613, -0.06620947271585464, -0.0010286462493240833], [0.11888666450977325, -0.07491530478000641, -0.04374280944466591], [0.017829224467277527, 0.03882706165313721, 0.026231834664940834]], [[0.09196296334266663, 0.02602776139974594, 0.32243645191192627], [-0.07215716689825058, -0.12707160413265228, -0.05454924702644348], [-0.026289010420441628, 0.0202346071600914, -0.17100530862808228]], [[0.09198927134275436, 0.1540735512971878, 0.10771115869283676], [0.03252372890710831, -0.07311145961284637, -0.08696268498897552], [-0.30397412180900574, 0.1519075185060501, -0.027922416105866432]], [[0.016108764335513115, 0.011041699908673763, -0.11634062230587006], [0.04011821001768112, 0.2734518349170685, -0.18332131206989288], [-0.07221702486276627, -0.06253515183925629, 0.03184089809656143]], [[0.06515048444271088, 0.07259678095579147, -0.27084872126579285], [0.05741728097200394, -0.15213987231254578, -0.006655611097812653], [0.05128747224807739, -0.003977321088314056, -0.06117989495396614]], [[0.013295615091919899, 0.11021576821804047, 0.22409193217754364], [0.06974256783723831, -0.19905254244804382, 0.0791960060596466], [-0.03919091448187828, 0.008684332482516766, 0.2654636800289154]], [[0.22044070065021515, 0.021040791645646095, -0.06705443561077118], [0.10824724286794662, -0.01958223059773445, -0.07651213556528091], [0.08943518251180649, 0.17600007355213165, 0.1814257949590683]], [[-0.21319562196731567, -0.16020798683166504, -0.223128542304039], [0.19310696423053741, -0.15595801174640656, -0.030055133625864983], [0.04421905428171158, 0.07218743115663528, 0.06978239119052887]], [[0.03586110845208168, -0.051974084228277206, 0.11410757154226303], [-0.03997858986258507, 0.02843053825199604, -0.10002261400222778], [-0.08961866050958633, -0.02451970987021923, -0.08354035764932632]], [[-0.05574602633714676, -0.03631956875324249, -0.06933323293924332], [-0.009148994460701942, -0.2461782991886139, -0.034308191388845444], [-0.022642582654953003, 0.03160208463668823, -0.019934576004743576]], [[0.0027021989226341248, -0.1481718122959137, -0.14512133598327637], [-0.18309135735034943, -0.10079427063465118, 0.14038631319999695], [0.04148487374186516, -0.11271654069423676, 0.1079961284995079]], [[-0.2808743417263031, 0.0055234236642718315, -0.07510808110237122], [-0.16512462496757507, 0.266268253326416, 0.0007014653529040515], [0.15748076140880585, -0.03483051434159279, 0.046945296227931976]], [[-0.02888314425945282, 0.0868728905916214, 0.06622384488582611], [-0.033381152898073196, 0.06631989777088165, -0.08618772029876709], [-0.0041130962781608105, -0.03809370845556259, -0.1385878473520279]], [[0.042516108602285385, 0.029100999236106873, 0.16243277490139008], [-0.03914329782128334, -0.17804311215877533, 0.07025046646595001], [-0.06073126941919327, 0.08751608431339264, 0.07398490607738495]]], [[[0.052396874874830246, 0.11192546784877777, -0.03043217957019806], [-0.07953338325023651, -0.10701006650924683, -0.0071615492925047874], [-0.04891852289438248, 0.014514490030705929, -0.036479923874139786]], [[0.07630161941051483, 0.038367029279470444, 0.08016745001077652], [-0.06799516081809998, -0.10872174054384232, 0.0012713868636637926], [-0.023050658404827118, 0.021869739517569542, 0.10316295921802521]], [[0.023357681930065155, 0.08218947798013687, 0.019104918465018272], [0.15126368403434753, -0.020421108230948448, -0.06653502583503723], [0.0021604762878268957, 0.029359731823205948, 0.12133598327636719]], [[-0.2061804085969925, 0.04965343326330185, 0.12437320500612259], [-0.058624278753995895, 0.04322649911046028, 0.0965501219034195], [0.14891274273395538, -0.043845199048519135, -0.18544010818004608]], [[-0.22039364278316498, -0.0051112002693116665, -0.07954809814691544], [0.04641984403133392, 0.05570782348513603, -0.12141052633523941], [0.24703435599803925, 0.028839604929089546, -0.0967627465724945]], [[-0.003961303271353245, 0.03286740928888321, 0.01734115183353424], [0.168319970369339, -0.10892044752836227, -0.05197602137923241], [-0.18622083961963654, 0.08399777859449387, 0.15622733533382416]], [[0.02917739935219288, 0.09200435876846313, 0.19699351489543915], [0.26822736859321594, 0.03743750602006912, -0.06884957104921341], [0.027100618928670883, 0.2293274700641632, -0.16848574578762054]], [[0.0454721562564373, -0.24762652814388275, 0.01799488440155983], [-0.029174039140343666, -0.010456963442265987, -0.19044403731822968], [0.05733564868569374, -0.01931696943938732, -0.024322038516402245]], [[0.045287832617759705, 0.144658163189888, -0.0006617996841669083], [0.050713635981082916, -0.10985390096902847, -0.21655681729316711], [-0.01150578074157238, 0.08248227834701538, 0.2466818392276764]], [[-0.09197286516427994, -0.09684599936008453, -0.1451171338558197], [-0.046388234943151474, -0.09642905741930008, -0.11288662999868393], [0.061783384531736374, 0.07646442204713821, 0.09889398515224457]], [[-0.0017201048322021961, 0.059109970927238464, 0.0814838781952858], [0.031466804444789886, -0.23306040465831757, -0.027128256857395172], [-0.024797886610031128, -0.06543023884296417, 0.22936005890369415]], [[-0.11029481142759323, -0.0783403292298317, -0.0003171740972902626], [0.1302891969680786, -0.1243414506316185, 0.037603143602609634], [-0.016399484127759933, 0.15461184084415436, 0.24329598248004913]], [[-0.13940653204917908, -0.020169971510767937, -0.31479451060295105], [0.05401857942342758, -0.2758578062057495, 0.13286443054676056], [-0.1605588048696518, -0.14464792609214783, 0.13550491631031036]], [[-0.28969836235046387, -0.048956792801618576, -0.13631480932235718], [-0.0058348821476101875, 0.16330291330814362, -0.21499818563461304], [0.04881194606423378, 0.020247075706720352, -0.031179264187812805]], [[-0.06899784505367279, 0.10827652364969254, 0.08723798394203186], [0.07700972259044647, 0.14010468125343323, -0.11132656782865524], [-0.22053681313991547, -0.030414238572120667, -0.007498355116695166]], [[0.027668165042996407, -0.00528259202837944, 0.0477110855281353], [0.08961702883243561, 0.04221517592668533, 0.1147698238492012], [-0.08789636194705963, -0.07371293008327484, -0.17838022112846375]]], [[[-0.05446624755859375, 0.007553767412900925, 0.037258081138134], [-0.01870776154100895, 0.05557531490921974, 0.10678671300411224], [-0.002097934251651168, -0.056289590895175934, -0.13416863977909088]], [[-0.17076778411865234, -0.06784883886575699, -0.178420752286911], [-0.07845403999090195, -0.09157413989305496, 0.03321874514222145], [-0.10271459072828293, -0.1669972538948059, -0.1453157216310501]], [[-0.08980884402990341, -0.1542392373085022, 0.09318134933710098], [-0.01414236519485712, -0.11097616702318192, -0.012219111435115337], [-0.014166474342346191, -0.26016438007354736, -0.04942472279071808]], [[0.04296095669269562, 0.05409524589776993, -0.03585590794682503], [-0.005900319665670395, 0.1575433611869812, -0.12278126180171967], [0.09307058155536652, 0.06367623805999756, 0.03396565839648247]], [[-0.053531065583229065, -0.13831265270709991, 0.05997135862708092], [-0.09696906059980392, -0.06821341812610626, -0.13261470198631287], [0.03556361794471741, 0.24904553592205048, 0.00019715285452548414]], [[0.05689913406968117, 0.11273780465126038, 0.10291238129138947], [0.018269095569849014, -0.018586263060569763, -0.04211633652448654], [0.16254466772079468, -0.07640061527490616, 0.03660431504249573]], [[-0.2214975506067276, -0.12921184301376343, -0.10423725098371506], [0.18448901176452637, -0.023406092077493668, -0.10806471854448318], [-0.10722671449184418, -0.12636257708072662, -0.08349701762199402]], [[0.04147452116012573, -0.04889363795518875, 0.11525765806436539], [0.16296270489692688, 0.02671625278890133, 0.07395533472299576], [-0.09394322335720062, 0.3214828073978424, -0.0757342278957367]], [[0.14122667908668518, 0.12063506245613098, -0.13692907989025116], [0.0810793861746788, -0.08627799153327942, -0.04513181373476982], [0.09692151099443436, -0.12539546191692352, -0.06477703154087067]], [[0.2885376214981079, 0.11622364073991776, -0.15188129246234894], [-0.044772014021873474, 0.01763893850147724, -0.05761365219950676], [0.08003086596727371, -0.21288369596004486, -0.07839739322662354]], [[-0.10302350670099258, -0.05248130485415459, -0.06719236075878143], [-0.0687423124909401, -0.07505770772695541, 0.09402778744697571], [-0.025785427540540695, -0.1320921778678894, 0.0054729715920984745]], [[0.0018711870070546865, 0.0777222290635109, -0.003507304470986128], [0.007900253869593143, 0.1942978948354721, 0.05071822926402092], [0.10999701172113419, 0.031572673469781876, -0.009916641749441624]], [[0.14112557470798492, -0.07349828630685806, -0.030285483226180077], [0.04476527124643326, 0.12343059480190277, -0.15200597047805786], [-0.052303578704595566, 0.1296345293521881, -0.15845361351966858]], [[-0.09740180522203445, 0.09129054099321365, -0.025813747197389603], [-0.01352802012115717, 0.056998178362846375, -0.17162157595157623], [0.27751797437667847, -0.04696027562022209, 0.07116955518722534]], [[-0.05998825654387474, 0.0881752222776413, -0.05667942017316818], [-0.034738730639219284, 0.20827814936637878, 0.23042088747024536], [-0.058233119547367096, -0.06431851536035538, 0.010799362324178219]], [[-0.09400361031293869, 0.0558943897485733, -0.17217376828193665], [0.09089897572994232, 0.044566649943590164, -0.038236796855926514], [0.1321045607328415, -0.26600146293640137, -0.09962767362594604]]], [[[-0.09091772139072418, -0.18603254854679108, 0.03773373365402222], [0.019873160868883133, 0.052093345671892166, -0.08156994730234146], [-0.05749077349901199, -0.18308676779270172, 0.059832144528627396]], [[0.10468675196170807, -0.12117577344179153, -0.0865381732583046], [-0.045254603028297424, -0.13478194177150726, 0.05902348458766937], [0.02149811200797558, -0.13153648376464844, 0.08190885931253433]], [[-0.1303437054157257, 0.07706832885742188, -0.19701939821243286], [-0.027413835749030113, -0.10938191413879395, -0.28758832812309265], [-0.2636062800884247, -0.0008005937561392784, 0.0049924831837415695]], [[-0.025346318259835243, -0.011134031228721142, -0.19344428181648254], [-0.041854314506053925, -0.0367121547460556, -0.07315412163734436], [-0.17391614615917206, 0.07663805782794952, 0.06566541641950607]], [[0.07771824300289154, -0.11930720508098602, 0.11590795964002609], [-0.20341292023658752, -0.0722416341304779, -0.05564511939883232], [0.05875743180513382, -0.013497194275259972, -0.13458073139190674]], [[-0.11038307100534439, -0.20381586253643036, 0.11646399646997452], [-0.14016589522361755, -0.10378959774971008, -0.0542854443192482], [-0.053881365805864334, 0.03796679526567459, 0.114835225045681]], [[0.12107069045305252, 0.04026517644524574, -0.10919398814439774], [-0.14163154363632202, -0.02770543098449707, 0.281398206949234], [0.07478946447372437, 0.020637400448322296, 0.1860373616218567]], [[0.09353096038103104, 0.09021390974521637, -0.30601367354393005], [0.1526641547679901, -0.019907193258404732, 0.20611509680747986], [-0.02921111136674881, 0.02083503268659115, 0.1022348701953888]], [[0.050947412848472595, 0.11877045035362244, -0.04229365661740303], [-0.03790571540594101, 0.039925266057252884, -0.027949834242463112], [-0.00477115623652935, -0.03754276782274246, 0.4377099573612213]], [[0.04656020179390907, -0.011543864384293556, -0.014487647451460361], [-0.2924952208995819, 0.1221109926700592, -0.07435400038957596], [-0.09647306054830551, -0.21752606332302094, 0.0444386750459671]], [[0.086058609187603, 0.10173963010311127, -0.0053000682964921], [0.010998331941664219, -0.04621949791908264, -0.071672223508358], [0.1192697212100029, 0.18134528398513794, 0.039766665548086166]], [[-0.10858630388975143, -0.14058174192905426, -0.038239821791648865], [0.036656249314546585, -0.16043537855148315, -0.0178154818713665], [0.17524179816246033, -0.06799937039613724, 0.03333907946944237]], [[0.01110878586769104, 0.03444879129528999, 0.07118024677038193], [-0.09511657804250717, -0.0004828616511076689, 0.033787135034799576], [-0.2677690088748932, -0.07263510674238205, -0.24432894587516785]], [[0.014800721779465675, 0.20855286717414856, -0.19538001716136932], [-0.21123769879341125, 0.18697373569011688, 0.004298278130590916], [0.028670215979218483, 0.07350116968154907, 0.09052889794111252]], [[-0.009850991889834404, 0.12024656683206558, -0.07035044580698013], [0.012260335497558117, -0.12296611815690994, -0.05522771179676056], [0.08815448731184006, 0.13581670820713043, 0.07191963493824005]], [[0.009677289985120296, 0.20491111278533936, 0.056495651602745056], [0.0907711610198021, -0.06086169555783272, -0.11875972896814346], [-0.10784698277711868, -0.2658706307411194, -0.1738659143447876]]], [[[0.11007782071828842, -0.1209302768111229, 0.13510753214359283], [0.15836910903453827, -0.0641288086771965, -0.17428426444530487], [-0.21677571535110474, 0.0914912149310112, 0.07284943014383316]], [[-0.03726612776517868, -0.04414084181189537, -0.06305009126663208], [-0.08887311071157455, -0.006393810734152794, -0.014127528294920921], [-0.0802304670214653, 0.025884218513965607, -0.01564590074121952]], [[-0.09521456062793732, -0.03017866611480713, 0.04627106338739395], [0.041305359452962875, -0.10378517955541611, -0.0919547975063324], [-0.07039841264486313, -0.08884166181087494, -0.16202916204929352]], [[0.09105604141950607, -0.2511579394340515, 0.159720778465271], [0.06851625442504883, 0.051573146134614944, -0.0031457615550607443], [0.11372289806604385, 0.021146994084119797, 0.046876709908246994]], [[0.21586468815803528, -0.11234044283628464, -0.15008100867271423], [0.06176963075995445, -0.038462307304143906, 0.11224468052387238], [-0.10184447467327118, 0.005193025805056095, -0.212664395570755]], [[-0.138833150267601, 0.10144982486963272, -0.11807831376791], [-0.08376916497945786, -0.07355788350105286, -0.18738225102424622], [0.06761392951011658, -0.007623437326401472, -0.01977411098778248]], [[0.08178484439849854, 0.053311847150325775, 0.022940807044506073], [-0.007804359775036573, 0.06397517770528793, 0.1205485463142395], [0.09479872137308121, -0.03690222278237343, -0.0792948454618454]], [[-0.09202008694410324, 0.01721811667084694, -0.14956240355968475], [0.08700283616781235, -0.18918704986572266, -0.26424112915992737], [0.21204625070095062, -0.1339159458875656, 0.08529972285032272]], [[-0.004828386474400759, 0.10833211243152618, -0.19064289331436157], [-0.055269353091716766, 0.08285502344369888, -0.047339294105768204], [0.14985185861587524, 0.18323497474193573, -0.002074488205835223]], [[0.041196033358573914, 0.07124391198158264, 0.06745416671037674], [0.0938001200556755, 0.19622674584388733, 0.012289476580917835], [-0.07171624898910522, 0.029170120134949684, 0.04585737735033035]], [[0.0299900583922863, -0.04893035814166069, 0.16686969995498657], [0.02244291640818119, -0.1861683428287506, 0.04062214493751526], [0.2475808560848236, 0.10684102028608322, 0.045873984694480896]], [[0.08916657418012619, -0.22314439713954926, 0.1287088245153427], [-0.19036845862865448, -0.04847564548254013, -0.06218312680721283], [0.006551609840244055, 0.023449575528502464, -0.0014152770163491368]], [[0.03970718756318092, 0.0742630809545517, -0.08628407120704651], [-0.07262184470891953, -0.03487992286682129, -0.05159667134284973], [0.06346338987350464, -0.14100606739521027, -0.05694489926099777]], [[0.10162859410047531, -0.06212114170193672, 0.10806633532047272], [-0.09459244459867477, 0.17306195199489594, 0.09940432012081146], [0.04735540598630905, -0.007509551011025906, 0.021784935146570206]], [[-0.2489623874425888, 0.020633747801184654, 0.33364468812942505], [-0.019555743783712387, 0.3269713819026947, 0.013805881142616272], [-0.05000434070825577, -0.17744284868240356, -0.019751450046896935]], [[0.07209204137325287, -0.23006582260131836, -0.001819953671656549], [0.1353573352098465, 0.023602314293384552, -0.0728360116481781], [-0.2715091109275818, -0.002274596132338047, 0.019190292805433273]]], [[[-0.044805411249399185, -0.21726293861865997, -0.20928537845611572], [-0.08993007242679596, -0.21294410526752472, -0.20921123027801514], [-0.13891519606113434, 0.012599091045558453, 0.021438466385006905]], [[0.025568360462784767, 0.07611298561096191, -0.08802536875009537], [0.17920702695846558, 0.056141261011362076, 0.035235051065683365], [-0.009713777340948582, 0.02074853703379631, -0.14203672111034393]], [[0.262370765209198, -0.2229815274477005, -0.14204561710357666], [-0.15785522758960724, 0.07519371062517166, -0.10530371963977814], [-0.203558549284935, -0.059448789805173874, 0.0010945189278572798]], [[-0.016015559434890747, -0.061090268194675446, -0.04113493114709854], [0.017675327137112617, -0.08638709783554077, 0.15161427855491638], [-0.07630695402622223, 0.18261851370334625, -0.006444679573178291]], [[0.043513715267181396, 0.1117967888712883, 0.03318808972835541], [-0.1319884955883026, 0.2087050825357437, 0.11519178748130798], [-0.1039339080452919, -0.03436961770057678, -0.03647925332188606]], [[-0.010327540338039398, 0.10216165333986282, -0.10432429611682892], [0.1018601730465889, -0.06554422527551651, -0.03076576255261898], [-0.18523187935352325, 0.08668839186429977, -0.2668013572692871]], [[-0.13300122320652008, -0.014567588455975056, -0.004817010369151831], [-0.055797576904296875, 0.05721088871359825, 0.0640682503581047], [-0.13880771398544312, 0.12240772694349289, -0.11699386686086655]], [[0.05702788010239601, -0.16901305317878723, -0.08274197578430176], [0.1323738396167755, 0.008190905675292015, -0.06485316902399063], [-0.13596275448799133, -0.015389159321784973, -0.09840076416730881]], [[-0.14427807927131653, 0.038559164851903915, -0.003410802222788334], [-0.1237122043967247, -0.17419254779815674, 0.013270433992147446], [0.07698951661586761, 0.03147374093532562, -0.14222723245620728]], [[0.01984739676117897, -0.09482617676258087, 0.09771883487701416], [-0.18338581919670105, -0.0015929699875414371, -0.05254247039556503], [-0.011827204376459122, -0.09690072387456894, -0.0003935699351131916]], [[-0.06177597865462303, -0.09907965362071991, -0.02306199260056019], [0.28635135293006897, -0.055138904601335526, -0.06118767708539963], [-0.2486225962638855, -0.0064226905815303326, 0.22803045809268951]], [[-0.16013139486312866, -0.03359052538871765, -0.04054878279566765], [-0.07174559682607651, -0.14235293865203857, -0.15184277296066284], [0.04389040917158127, -0.18435083329677582, -0.21440427005290985]], [[-0.0030241343192756176, 0.070116326212883, -0.0767892524600029], [0.07053788751363754, 0.16695520281791687, -0.04099717736244202], [-0.02018437162041664, -0.020313650369644165, -0.0383487343788147]], [[-0.11146124452352524, -0.022350117564201355, -0.06987357884645462], [-0.1694052815437317, -0.03870527073740959, -0.016858458518981934], [-0.22112290561199188, 0.19778545200824738, 0.13177506625652313]], [[-0.13838353753089905, 0.06877513229846954, 0.2580096423625946], [-0.07132717221975327, -0.09835372865200043, 0.11233898997306824], [-0.14201445877552032, 0.06069017946720123, 0.08452223241329193]], [[-0.05487861484289169, -0.14854326844215393, -0.22467124462127686], [-0.058277398347854614, 0.016431454569101334, 0.06721504032611847], [-0.12428175657987595, 0.2158527970314026, -0.26778340339660645]]], [[[-0.1835326999425888, 0.062335241585969925, -0.0384180061519146], [-0.11953245103359222, 0.054107051342725754, -0.09788385033607483], [0.036403510719537735, -0.08382479846477509, 0.032722413539886475]], [[-0.012841981835663319, 0.10277124494314194, -0.09419072419404984], [0.0703798308968544, -0.11770149320363998, 0.21877136826515198], [0.03806176409125328, -0.044245731085538864, -0.21684788167476654]], [[0.10465901345014572, -0.10394683480262756, -0.14194293320178986], [-0.215552419424057, -0.014438745565712452, 0.08756823092699051], [-0.10611239820718765, -0.15574902296066284, 0.1403464674949646]], [[0.03268428146839142, -0.0683039203286171, 0.0778198391199112], [0.0671982541680336, 0.05596145987510681, 0.12010765820741653], [-0.04346230998635292, -0.06576986610889435, 0.037380676716566086]], [[0.006258654873818159, 0.1834614872932434, -0.19198714196681976], [-0.06612814217805862, 0.015070720575749874, 0.011455384083092213], [0.24101895093917847, -0.06301149725914001, 0.06094813719391823]], [[0.015937943011522293, 0.23569954931735992, -0.05485998094081879], [-0.10668287426233292, 0.15496747195720673, 0.032187893986701965], [0.008468196727335453, -0.06963836401700974, 0.09947633743286133]], [[-0.038070809096097946, 0.059816498309373856, 0.06466884166002274], [-0.07920186221599579, -0.045093704015016556, -0.13322210311889648], [0.08521337062120438, -0.19236397743225098, 0.10757757723331451]], [[0.08383096009492874, -0.1865537315607071, 0.007128339260816574], [-0.10196385532617569, -0.0657963752746582, -0.10985883325338364], [-0.09301724284887314, -0.002073334064334631, -0.1458057165145874]], [[0.03942253068089485, 0.09536157548427582, -0.04757459834218025], [0.03231922164559364, 0.11704371124505997, -0.0028018683660775423], [-0.004597731865942478, -0.0942811369895935, -0.03535190224647522]], [[-0.00495491735637188, 0.11785688251256943, 0.21461498737335205], [0.16689057648181915, -0.016877710819244385, -0.054678238928318024], [-0.028394296765327454, 0.17268140614032745, -0.11181791871786118]], [[-0.14859192073345184, -0.11280738562345505, -0.1294364035129547], [-0.11391580104827881, 0.03626743704080582, 0.18588979542255402], [-0.008739342913031578, -0.13544580340385437, -0.08637164533138275]], [[0.10953642427921295, 0.19960951805114746, -0.05914297327399254], [-0.17777904868125916, -0.18128874897956848, -0.09600404649972916], [-0.041766028851270676, -0.28959742188453674, 0.10308923572301865]], [[-0.10651096701622009, -0.0887426808476448, -0.12211788445711136], [-0.07933161407709122, 0.050797563046216965, -0.09851419180631638], [0.06535904854536057, 0.07337448745965958, -0.05070425570011139]], [[-0.1624966263771057, 0.08285778015851974, -0.15777888894081116], [-0.36680352687835693, 0.15083956718444824, -0.3330649733543396], [0.13567909598350525, -0.13641397655010223, 0.05421489104628563]], [[-0.12518371641635895, -0.21664339303970337, -0.02925151027739048], [-0.04712812602519989, 0.06261076778173447, -0.08758630603551865], [0.021261436864733696, 0.10143834352493286, -0.1489528864622116]], [[-0.045092351734638214, -0.045325879007577896, -0.12642113864421844], [0.04611511155962944, 0.10990376025438309, -0.012022050097584724], [-0.02489151991903782, -0.09047794342041016, 0.01589841954410076]]], [[[-0.13912473618984222, -0.023552142083644867, -0.004997574724256992], [0.16704456508159637, -0.0062658172100782394, -0.04500759020447731], [0.05074765160679817, 0.02919926866889, -0.08604803681373596]], [[0.11727438867092133, -0.179133340716362, -0.052783362567424774], [-0.1410464495420456, -0.12070592492818832, -0.1306866556406021], [-0.19231702387332916, -0.0021446950268000364, -0.059804707765579224]], [[-0.07237383723258972, 0.13369669020175934, 0.06879770010709763], [0.06899940222501755, 0.06380912661552429, -0.1500808298587799], [-0.0022506951354444027, -0.06708042323589325, 0.07173354923725128]], [[0.0512470006942749, 0.048292383551597595, 0.06339805573225021], [-0.04708445072174072, -0.04377061128616333, 0.12220975011587143], [-0.015250157564878464, -0.13496489822864532, -0.0822184756398201]], [[-0.04082871228456497, -0.16160404682159424, -0.11034446209669113], [0.06934045255184174, 0.1495664119720459, 0.1278603971004486], [0.03334064036607742, -0.087184377014637, 0.20063382387161255]], [[-0.0016207408625632524, 0.1096704825758934, 0.002483106916770339], [0.06769298762083054, 0.016407201066613197, -0.10553121566772461], [-0.22782191634178162, 0.08323166519403458, -0.23666194081306458]], [[-0.11346173286437988, -0.06627525389194489, -0.12036345899105072], [0.01232660748064518, 0.07385198771953583, -0.10174354910850525], [0.029571453109383583, 0.012517104856669903, 0.11904997378587723]], [[0.1033603772521019, 0.022940553724765778, -0.07352802157402039], [0.18752579391002655, -0.07673461735248566, 0.1431702822446823], [-0.08277881890535355, -0.08945327252149582, -0.10982713103294373]], [[0.07242906838655472, -0.044422995299100876, 0.1412290781736374], [-0.07647021114826202, -0.0253975261002779, -0.07562398165464401], [-0.14805097877979279, -0.1348176747560501, 0.07286413013935089]], [[-0.1168699786067009, 0.05117368325591087, 0.11894891411066055], [0.11345422267913818, -0.0390930101275444, -0.07281859964132309], [-0.0058044372126460075, 0.06880278140306473, -0.07674894481897354]], [[-0.05872269347310066, -0.1092820093035698, 0.04935967177152634], [-0.13026604056358337, -0.0373641774058342, 0.06221643090248108], [0.18907828629016876, 0.04763278737664223, -0.058275118470191956]], [[-0.02549075148999691, 0.04455295950174332, -0.1717984974384308], [0.08677346259355545, -0.15072417259216309, 0.0688803419470787], [0.10722348093986511, 0.12662670016288757, -0.001962466398254037]], [[-0.010895108804106712, 0.14662541449069977, -0.07515712082386017], [0.046079035848379135, 0.03575154021382332, 0.009805126115679741], [0.13290317356586456, -0.04564237967133522, -0.098480723798275]], [[0.0067610712721943855, 0.02598232962191105, 0.003589429659768939], [-0.07309127599000931, -0.04308278113603592, 0.041450098156929016], [-0.18172535300254822, -0.203345388174057, -0.05115146189928055]], [[0.08627377450466156, -0.11170067638158798, -0.19375906884670258], [0.07151498645544052, -0.13706065714359283, -0.05783823877573013], [-0.3377677798271179, 0.015739383175969124, -0.01560113113373518]], [[0.05659099668264389, -0.1934535652399063, -0.30219003558158875], [0.20466677844524384, 0.18760043382644653, 0.14314305782318115], [-0.21943357586860657, -0.017511053010821342, -0.10484297573566437]]], [[[0.1404036432504654, -0.05854912847280502, -0.07957366108894348], [0.3496016263961792, 0.06978626549243927, 0.10541149973869324], [-0.07580570131540298, 0.02411331981420517, -0.05026654154062271]], [[0.03820107877254486, 0.011661079712212086, -0.0015298305079340935], [-0.057128775864839554, -0.20225407183170319, 0.05739279463887215], [-0.08623211085796356, -0.06410246342420578, 0.04550310969352722]], [[-0.12367308884859085, 0.36702874302864075, 0.07629013061523438], [-0.08715946227312088, -0.15300975739955902, -0.12718230485916138], [0.06455827504396439, -0.045507024973630905, 0.0013577366480603814]], [[-0.05799943581223488, 0.16306757926940918, 0.07185393571853638], [0.0020012925378978252, 0.03614017367362976, 0.1468023657798767], [0.03634494170546532, 0.1424475610256195, 0.23690909147262573]], [[0.11459135264158249, 0.057092830538749695, 0.03632957488298416], [0.14905326068401337, 0.13867400586605072, 0.24082398414611816], [-0.16591931879520416, -0.13539648056030273, -0.2731117904186249]], [[-0.5086404085159302, -0.02485296130180359, -0.04721077159047127], [-0.08609382063150406, -0.027114227414131165, 0.2257310152053833], [0.02186230756342411, -0.02785290963947773, -0.09607188403606415]], [[0.0013884451473131776, -0.01703229732811451, -0.01888628490269184], [0.05508999899029732, -0.08157854527235031, -0.13468638062477112], [0.06952866911888123, -0.15037207305431366, -0.03656790032982826]], [[-0.013195688836276531, 0.2989747226238251, -0.15319082140922546], [-0.02907370775938034, 0.029421672224998474, 0.1323913186788559], [0.0036944884341210127, -0.13573312759399414, 0.04308662936091423]], [[4.519366711974726e-07, 0.0018289232393726707, -0.07247865200042725], [-0.01751418225467205, 0.05287349969148636, 0.004949783906340599], [-0.159556582570076, 0.08279600739479065, 0.06046745553612709]], [[0.15316353738307953, -0.06311076134443283, 0.09688609093427658], [-0.03733058646321297, 0.04110908880829811, 0.1964486837387085], [0.07157725095748901, -0.030442100018262863, 0.007881741039454937]], [[0.16041016578674316, 0.05203944444656372, 0.14889580011367798], [0.48654356598854065, 0.21817803382873535, -0.07627207785844803], [-0.08357428014278412, -0.0842224508523941, -0.007312166504561901]], [[0.0330379456281662, 0.2015153467655182, -0.24180898070335388], [0.03282732516527176, 0.11112814396619797, 0.004214636515825987], [-0.07179040461778641, -0.20350007712841034, 0.15340200066566467]], [[0.17680075764656067, -0.05558307468891144, -0.10480418056249619], [0.06270566582679749, -0.0012852669460698962, 0.15504686534404755], [-0.0027082343585789204, -0.15295758843421936, 0.06612168997526169]], [[-0.1623305380344391, 0.040571678429841995, 0.13511203229427338], [0.007371989078819752, 0.1443818360567093, -0.040864672511816025], [0.01499147154390812, -0.1297687441110611, 0.014420842751860619]], [[0.06366396695375443, -0.038266006857156754, -0.02788584679365158], [-0.0768158957362175, 0.022113878279924393, 0.006964468397200108], [-0.2793199121952057, -0.026926008984446526, 0.10070908069610596]], [[-0.1317887008190155, 0.02463022619485855, -0.07099158316850662], [-0.01616845279932022, 0.027039946988224983, -0.038489412516355515], [-0.06166856363415718, 0.002559530083090067, -0.09787538647651672]]], [[[0.007999325171113014, -0.20890435576438904, 0.050205737352371216], [-0.026611926034092903, 0.018168659880757332, 0.21757306158542633], [0.3222871422767639, 0.18345339596271515, -0.031113151460886]], [[0.007134193554520607, 0.08142600208520889, -0.045896243304014206], [0.05600926652550697, 0.0468984954059124, 0.08021745830774307], [0.1912657469511032, -0.046588800847530365, 0.07651783525943756]], [[0.18905219435691833, -0.13841982185840607, -0.07419905811548233], [0.06392443180084229, -0.19099614024162292, -0.13488848507404327], [0.08430708199739456, 0.0008191540255211294, 0.019301719963550568]], [[-0.08375519514083862, 0.04671328887343407, -0.22765125334262848], [-0.014507729560136795, 0.2452172487974167, 0.02120926044881344], [0.030862273648381233, -0.13087530434131622, 0.07642065733671188]], [[0.13320505619049072, 0.16933326423168182, -0.1637149155139923], [-0.09185753762722015, -0.08070923388004303, 0.09435968846082687], [0.07370421290397644, 0.061463527381420135, 0.010243131779134274]], [[-0.16113534569740295, 0.0890543982386589, -0.03606579825282097], [-0.11664537340402603, -0.21042628586292267, -0.07023954391479492], [-0.05654921010136604, -0.10099785029888153, -0.09006990492343903]], [[-0.17523826658725739, 0.0710136815905571, -0.1723029613494873], [0.26796647906303406, -0.059497807174921036, -0.21125175058841705], [-0.07536879181861877, -0.18400666117668152, -0.15578117966651917]], [[-0.14895515143871307, 0.019599732011556625, 0.12228260189294815], [0.052693918347358704, 0.04690953344106674, 0.03393549472093582], [0.07587818801403046, 0.11810263991355896, 0.05353233218193054]], [[-0.17375348508358002, 0.0339527428150177, 0.019232500344514847], [0.054719582200050354, 0.1657426506280899, -0.05743257701396942], [-0.10494092106819153, -0.048242270946502686, 0.041009366512298584]], [[0.09901705384254456, 0.055437494069337845, -0.07810802012681961], [0.1245613545179367, 0.04904836788773537, 0.021191243082284927], [0.03706499561667442, -0.055159103125333786, 0.0832134485244751]], [[0.07406401634216309, 0.08941126614809036, -0.030180690810084343], [-0.15590031445026398, 0.05787166953086853, 0.2648072838783264], [-0.07703769207000732, 0.10942261666059494, 0.07571689039468765]], [[-0.14537166059017181, 0.047071672976017, -0.20955415070056915], [-0.07800470292568207, 0.18475085496902466, -0.01796368882060051], [0.018268881365656853, 0.18027903139591217, -0.11611203104257584]], [[0.04563695564866066, 0.11514884978532791, 0.13904771208763123], [-0.2613593339920044, -0.268487811088562, 0.0642605572938919], [0.0033570185769349337, 0.010337335988879204, 0.18379716575145721]], [[-0.043378010392189026, 0.040652163326740265, 0.032604772597551346], [-0.0735667422413826, -0.033430468291044235, -0.11795120686292648], [-0.0013399648014456034, -0.09035952389240265, -0.24861903488636017]], [[0.03333539143204689, 0.01023958157747984, 0.04121427610516548], [-0.052331339567899704, 0.21968789398670197, -0.016994880512356758], [0.0625823438167572, 0.05238984152674675, 0.04386039823293686]], [[0.09592966735363007, 0.2636859118938446, 0.11156727373600006], [-0.1451195627450943, -0.012971632182598114, 0.2235569804906845], [-0.1380690634250641, -0.15172894299030304, 0.18259233236312866]]], [[[-0.11022467911243439, 0.16344480216503143, -0.0027060839347541332], [0.07889765501022339, -0.2922241687774658, 0.3108089566230774], [0.03339838236570358, 0.14852730929851532, 0.06165453791618347]], [[-0.2392333298921585, 0.014636759646236897, 0.06473472714424133], [0.16027092933654785, 0.04041142389178276, -0.01250915415585041], [0.15999041497707367, -0.15794633328914642, 0.011351513676345348]], [[-0.05957644060254097, -0.12459000945091248, -0.0006672354065813124], [-0.037757113575935364, -0.09039469063282013, -0.11056428402662277], [0.011484426446259022, -0.2078353464603424, -0.07177059352397919]], [[0.12944112718105316, -0.11877831071615219, 0.06000295281410217], [-0.15332646667957306, 0.06055288016796112, -0.01527381595224142], [0.12524573504924774, -0.2817249298095703, 0.10948080569505692]], [[-0.07366574555635452, 0.09757526963949203, 0.06725101917982101], [0.09925644099712372, 0.06395282596349716, 0.044331055134534836], [0.0557565912604332, 0.09269972145557404, 0.2452244609594345]], [[-0.019052475690841675, -0.007383293472230434, -0.14627011120319366], [-0.010039791464805603, -0.03589682653546333, -0.16346527636051178], [-0.09856905043125153, -0.08371590822935104, 0.04720798507332802]], [[0.039758142083883286, -0.16380968689918518, -0.056867003440856934], [-0.05426277220249176, 0.04275353252887726, 0.04399144649505615], [-0.011429104954004288, 0.12867702543735504, -0.04961507394909859]], [[0.030574508011341095, 0.02076476626098156, 0.08633087575435638], [-0.06260137259960175, -0.009117900393903255, -0.12746259570121765], [-0.06450704485177994, -0.02603059448301792, -0.029880564659833908]], [[-0.16612741351127625, 0.17066429555416107, 0.04800323024392128], [-0.14077956974506378, 0.10503946989774704, 0.024955956265330315], [-0.03802945464849472, -0.11877146363258362, 0.05714012682437897]], [[-0.008696172386407852, -0.17993217706680298, 0.14370551705360413], [0.11057772487401962, 0.01963762566447258, 0.07209517061710358], [0.13679857552051544, -0.12926849722862244, 0.18170104920864105]], [[-0.08872003853321075, -0.02594411000609398, -0.09053788334131241], [-0.12034574151039124, 0.17405511438846588, 0.09991233050823212], [0.027245348319411278, 0.03260962665081024, 0.14709891378879547]], [[0.15025769174098969, -0.0802595242857933, 0.07626766711473465], [-0.06057645007967949, -0.1827859878540039, 0.08255905658006668], [0.11037063598632812, 0.08910361677408218, -0.06280305236577988]], [[0.14304333925247192, -0.05967732146382332, -0.005755892489105463], [0.16973665356636047, -0.1744326800107956, 0.06271825730800629], [0.0417783297598362, -0.18185612559318542, -0.05610986426472664]], [[-0.07861790060997009, 0.07347309589385986, 0.008250558748841286], [-0.06489090621471405, -0.06315304338932037, -0.2412502020597458], [0.08337290585041046, -0.052284274250268936, 0.08664271980524063]], [[0.19656455516815186, 0.0005102191353216767, 0.09235217422246933], [0.1785333901643753, -0.03076600842177868, 0.029122479259967804], [-0.18561138212680817, 0.2836892306804657, 0.12410581111907959]], [[-0.10559485107660294, -0.13196228444576263, 0.11386092007160187], [0.009725094772875309, 0.27352404594421387, 0.06181299313902855], [0.09401995688676834, 0.08723928779363632, -0.020092712715268135]]], [[[0.10768604278564453, 0.0552038811147213, 0.09056459367275238], [0.03228514641523361, 0.10600828379392624, 0.05690572410821915], [0.007298539392650127, -0.0041560581885278225, 0.003026507096365094]], [[-0.10076087713241577, -0.04837512597441673, 0.028723139315843582], [-0.008124674670398235, 0.17318738996982574, -0.11562024056911469], [-0.09075314551591873, -0.018930669873952866, -0.24325677752494812]], [[-0.19861353933811188, -0.06623516231775284, 0.09511129558086395], [-0.019767899066209793, 0.11007405817508698, -0.035094380378723145], [0.18287324905395508, 0.06877563148736954, -0.17081966996192932]], [[-0.13383127748966217, 0.1475502848625183, -0.05184398591518402], [-0.0341847762465477, 0.0458042286336422, 0.030787063762545586], [0.09653777629137039, 0.0772966668009758, -0.10858040302991867]], [[-0.12318690121173859, 0.1174364909529686, -0.13529106974601746], [0.031458016484975815, 0.20303624868392944, 0.15131062269210815], [-0.16855083405971527, -0.10370703041553497, -0.033975958824157715]], [[0.16141767799854279, 0.05242706835269928, -0.04675339534878731], [0.018889734521508217, -0.01799526810646057, -0.029886117205023766], [-0.17901946604251862, -0.04709319770336151, 0.10558128356933594]], [[-0.09956555813550949, 0.04484181106090546, -0.041063342243433], [-0.06316468864679337, -0.009139830246567726, -0.3788631558418274], [-0.12656471133232117, -0.05066978186368942, 0.011137343943119049]], [[0.10752727836370468, -0.031180793419480324, -0.11531295627355576], [-0.09578495472669601, 0.1022520512342453, -0.06789301335811615], [0.03096272051334381, 0.2543722987174988, -0.24667437374591827]], [[0.044056236743927, -0.07707098126411438, 0.11185973882675171], [-0.059576112776994705, 0.03789540380239487, 0.005799109116196632], [-0.07522782683372498, 0.05460144206881523, -0.1346249133348465]], [[0.14432662725448608, -0.018913550302386284, -0.012627353891730309], [0.021290132775902748, -0.11159050464630127, 0.1304623782634735], [0.13940683007240295, 0.08662739396095276, -0.08699477463960648]], [[-0.11955398321151733, -0.07687372714281082, 0.05858791992068291], [-0.17762340605258942, -0.02421528473496437, 0.01906825602054596], [-0.15874798595905304, 0.14951403439044952, 0.1313309222459793]], [[-0.03667140379548073, 0.11253707855939865, -0.1762235462665558], [0.006812358275055885, -0.0719207152724266, -0.06975172460079193], [-0.10070189833641052, 0.09942353516817093, 0.0188628938049078]], [[0.053690776228904724, -0.09106985479593277, 0.1133483275771141], [0.0992632806301117, -0.050416965037584305, 0.28951555490493774], [0.002087769564241171, 0.11797609180212021, 0.063905268907547]], [[-0.032661180943250656, -0.2935795783996582, 0.004664381500333548], [-0.017022106796503067, 0.13447320461273193, -0.15965306758880615], [0.026028860360383987, 0.0519685260951519, 0.0671701580286026]], [[-0.0735539123415947, 0.14067696034908295, -0.07188296318054199], [-0.02570871077477932, -0.19984374940395355, 0.06744954735040665], [-0.15507975220680237, -0.13047856092453003, 0.06422698497772217]], [[-0.22801922261714935, -0.19392751157283783, -0.11651220172643661], [0.2800580561161041, 0.011918055824935436, 0.03768698871135712], [0.046770017594099045, -0.012058359570801258, 0.05467280000448227]]], [[[-0.026125924661755562, 0.08368206024169922, -0.045469991862773895], [0.09039568901062012, -0.1239224448800087, -0.20085962116718292], [-0.029620233923196793, 0.013173207640647888, -0.09329840540885925]], [[-0.020386798307299614, -0.07652544230222702, 0.1516132354736328], [-0.21983902156352997, -0.10938133299350739, -0.05460783466696739], [0.011193903163075447, 0.025066448375582695, 0.02324007824063301]], [[0.022471025586128235, -0.12222107499837875, 0.03636762872338295], [-0.04679892212152481, 0.27400556206703186, -0.06660749018192291], [0.13877134025096893, 0.03531337156891823, 0.019407212734222412]], [[0.20195981860160828, 0.15183039009571075, 0.21809335052967072], [0.17572104930877686, 0.045071080327034, -0.045237112790346146], [-0.13851284980773926, -0.09578827768564224, -0.01409031730145216]], [[-0.07170622795820236, -0.035316284745931625, -0.010320530273020267], [-0.09441138058900833, 0.2276056557893753, 0.07349033653736115], [-0.05259628966450691, -0.29254719614982605, -0.13617859780788422]], [[-0.11980539560317993, -0.24351033568382263, 0.18029269576072693], [-0.2097383290529251, -0.1023537740111351, -0.06295552104711533], [-0.04212786257266998, 0.024853980168700218, -0.022450458258390427]], [[-0.13175608217716217, 0.13409076631069183, 0.008551073260605335], [0.11921242624521255, 0.05435879901051521, -0.12212927639484406], [-0.04446444287896156, -0.12543633580207825, 0.019180310890078545]], [[0.2431969791650772, -0.03149527311325073, -0.08649732917547226], [-0.1556069701910019, 0.15047141909599304, -0.163143590092659], [-0.028295956552028656, -0.15586797893047333, 0.1172853633761406]], [[0.032058000564575195, -0.3168346583843231, -0.2847413122653961], [0.055944934487342834, -0.06725490093231201, -0.09552829712629318], [0.16250550746917725, -0.17076840996742249, 0.032174576073884964]], [[0.2096395343542099, 0.18480417132377625, -0.13777075707912445], [-0.04777100309729576, -0.12775814533233643, 0.16937825083732605], [0.018878979608416557, 0.0775441825389862, 0.30522096157073975]], [[0.0005735594313591719, 0.28770121932029724, 0.24731208384037018], [-0.004348697606474161, -0.13561667501926422, -0.09626920521259308], [0.1737416386604309, -0.05764416232705116, 0.07060308009386063]], [[0.12499522417783737, 0.16949284076690674, -0.1523832082748413], [-0.13278965651988983, 0.01116957888007164, 0.07119279354810715], [-0.31180694699287415, 0.1099952757358551, -0.10461284965276718]], [[-0.03617102652788162, 0.07740189135074615, -0.1921684294939041], [-0.011262954212725163, -0.01575615257024765, 0.3808611333370209], [-0.011672480963170528, -0.04740125685930252, 0.02205091528594494]], [[0.09401378780603409, 0.15174280107021332, -0.11468958854675293], [-0.0669914186000824, 0.04236988723278046, 0.061859291046857834], [0.024018900468945503, -0.17433474957942963, -0.18504954874515533]], [[-0.1826808750629425, -0.13589787483215332, 0.0893496721982956], [0.13140179216861725, 0.12939783930778503, -0.027630681172013283], [0.05602606385946274, 0.08906108886003494, 0.057315897196531296]], [[0.17689678072929382, 0.012600290589034557, 0.03605204448103905], [-0.05814536660909653, 0.0011070325272157788, 0.2324235439300537], [0.14765048027038574, 0.0011116837849840522, -0.3040291965007782]]], [[[-0.25206953287124634, 0.008408847264945507, -0.06565447896718979], [0.12049095332622528, 0.12937377393245697, -0.11554677039384842], [0.04498707130551338, 0.20128951966762543, -0.05723707750439644]], [[0.1692967563867569, -0.10367731750011444, 0.07187896966934204], [-0.15579810738563538, -0.028186412528157234, -0.05022061988711357], [0.059546638280153275, -0.24586153030395508, -0.047127824276685715]], [[-0.13183192908763885, -0.08563919365406036, 0.02437758445739746], [0.00808175839483738, -0.09101887792348862, -0.08136942237615585], [0.1615855097770691, 0.0216454416513443, 0.0021565554197877645]], [[-0.19193746149539948, -0.23845389485359192, 0.06376681476831436], [0.09197520464658737, -0.2610165774822235, 0.03960607945919037], [0.007196618709713221, 0.15857958793640137, -0.029475286602973938]], [[0.17215609550476074, 0.09709843248128891, -0.05132610350847244], [0.1873384416103363, 0.011925124563276768, -0.21856100857257843], [0.1270548552274704, -0.020431965589523315, 0.20710469782352448]], [[-0.12513037025928497, 0.009028512984514236, -0.10844866186380386], [-0.09585609287023544, -0.009868833236396313, 0.07169695198535919], [0.0941660925745964, -0.013041095808148384, 0.01045797485858202]], [[-0.03618871048092842, -0.012630249373614788, 0.1349908411502838], [0.09690918773412704, -0.13450123369693756, -0.24415698647499084], [0.2746148705482483, 0.13733504712581635, -0.06733126938343048]], [[0.09989156574010849, 0.022304801270365715, 0.0604177825152874], [-0.1350303739309311, -0.018726319074630737, -0.16969667375087738], [-0.24388976395130157, -0.01722813956439495, 0.0025178275536745787]], [[-0.04650046303868294, 0.15804147720336914, 0.10091664642095566], [-0.09896215796470642, -0.1907673478126526, -0.004009597934782505], [-0.12875206768512726, 0.13442789018154144, -0.09635431319475174]], [[0.059965167194604874, 0.11350711435079575, 0.013534053228795528], [0.01715296506881714, -0.04935240373015404, 0.1065492257475853], [-0.0868099182844162, 0.04362190142273903, -0.037383463233709335]], [[0.03912856802344322, -0.1971314251422882, -0.21905501186847687], [0.15225867927074432, -0.19836799800395966, -0.042670510709285736], [0.054478541016578674, 0.07282072305679321, 0.07904765754938126]], [[-0.10223778337240219, -0.08578229695558548, -0.017290744930505753], [0.33646348118782043, 0.035950228571891785, -0.13782474398612976], [0.08751107007265091, -0.0808703675866127, 0.08011584728956223]], [[-0.10860036313533783, 0.01768200285732746, 0.03275357186794281], [0.11487337946891785, 0.2541075348854065, -0.08014550060033798], [0.055626031011343, 0.02779438905417919, 0.03414482623338699]], [[-0.10782542824745178, 0.19285541772842407, -0.16503052413463593], [0.003322283737361431, 0.03874766081571579, -0.0662803128361702], [-0.0981663167476654, -0.18689590692520142, -0.06395513564348221]], [[0.013854586519300938, 0.11432336270809174, -0.17942707240581512], [-0.07109690457582474, -0.06756892800331116, 0.18498148024082184], [-0.07138574123382568, 0.061860356479883194, -0.0025043748319149017]], [[0.06126014143228531, -0.08640916645526886, 0.1896877884864807], [-0.05564069747924805, 0.12457117438316345, 0.088951975107193], [-0.02579791471362114, -0.12418420612812042, 0.17894725501537323]]], [[[-0.06585858017206192, -0.0564999096095562, 0.3192042410373688], [-0.09496285766363144, -0.23485687375068665, 0.010299015790224075], [0.11310498416423798, -0.11372673511505127, -0.03973003104329109]], [[-0.051997847855091095, -0.0640556737780571, 0.10339060425758362], [0.13245709240436554, -0.02547759935259819, -0.046576034277677536], [0.19506774842739105, -0.013003256171941757, 0.03385620191693306]], [[0.12002582848072052, 0.16878622770309448, 0.12283213436603546], [-0.10950695723295212, 0.062273021787405014, -0.08141675591468811], [0.14330726861953735, 0.05095420777797699, 0.1682862490415573]], [[-0.002246967051178217, -0.004699417855590582, 0.12557409703731537], [0.1670648604631424, -0.05636025592684746, -0.06447567790746689], [-0.051643360406160355, 0.07393596321344376, -0.14563989639282227]], [[-0.2606653571128845, -0.21615472435951233, 0.023945724591612816], [-0.0701928585767746, 0.13780160248279572, -0.04375223442912102], [-0.014294448308646679, -0.05215519294142723, -0.026736220344901085]], [[-0.08272015303373337, -0.038846950978040695, -0.030887683853507042], [-0.15440361201763153, -0.10604016482830048, -0.28263500332832336], [0.16426406800746918, 0.023963071405887604, -0.0032296543940901756]], [[-0.09942600131034851, -0.10883999615907669, 0.07388801872730255], [-0.0674930214881897, -0.11920205503702164, -0.046999238431453705], [0.054049067199230194, 0.08126652985811234, -0.15205226838588715]], [[0.18406186997890472, 0.04331103712320328, -0.16222770512104034], [0.018559906631708145, -0.17146338522434235, 0.0019170745508745313], [-0.10728071630001068, 0.09813862293958664, -0.014512394554913044]], [[-0.06470639258623123, 0.15357625484466553, 0.12829053401947021], [-0.15350548923015594, -0.11640731990337372, 0.05327621474862099], [-0.043076660484075546, -0.07067292183637619, -0.03350308910012245]], [[-0.11623357981443405, 0.08180341124534607, -0.1209745705127716], [-0.11836830526590347, -0.14027969539165497, 0.08718422055244446], [-0.012254846282303333, 0.058103300631046295, 0.025420216843485832]], [[0.03398890420794487, -0.012746558524668217, 0.002398196142166853], [-0.07105538249015808, -0.10792708396911621, -0.02664216049015522], [-0.21530653536319733, -0.020662469789385796, 0.18888811767101288]], [[0.0333583764731884, -0.09373809397220612, -0.0012091820826753974], [0.03259252384305, 0.3304474949836731, 0.05941961705684662], [-0.16880634427070618, 0.011715292930603027, 0.05173973739147186]], [[-0.07967565953731537, -0.030259761959314346, -0.023800969123840332], [-0.07332170009613037, 0.06592819839715958, 0.25579017400741577], [0.13962562382221222, 0.004284748341888189, 0.0857020765542984]], [[0.2881564795970917, 0.10946781933307648, -0.07435552775859833], [-0.01964869350194931, -0.05944706127047539, -0.07033637166023254], [-0.20462551712989807, -0.18453273177146912, 0.07405233383178711]], [[-0.010350944474339485, 0.09275379776954651, -0.07180028408765793], [0.06454072147607803, 0.054979003965854645, -0.05327658727765083], [-0.09122338891029358, 0.1030532717704773, -0.03882179036736488]], [[0.015959592536091805, -0.056019049137830734, 0.11139114946126938], [-0.1815727949142456, -0.092448391020298, 0.034961484372615814], [-0.07557819038629532, -0.032979730516672134, -0.03892297297716141]]], [[[-0.04979156330227852, 0.018365133553743362, -0.21370594203472137], [-0.034013208001852036, 0.004458148498088121, 0.1103970855474472], [-0.030747609212994576, 0.06556336581707001, 0.07195889949798584]], [[0.2242928445339203, 0.13774673640727997, 0.008356613107025623], [-0.016787931323051453, 0.0049194754101336, 0.0777800902724266], [0.027504628524184227, -0.03530438616871834, 0.13086028397083282]], [[0.11567171663045883, -0.16085578501224518, 0.06361186504364014], [-0.21557697653770447, -0.04011054337024689, -0.014663410373032093], [0.017058352008461952, 0.15016862750053406, -0.1761905401945114]], [[0.06543132662773132, -0.029003167524933815, -0.15000931918621063], [-0.12462741136550903, 0.0980328768491745, -0.12056504935026169], [-0.06120912730693817, 0.03172820433974266, -0.15474076569080353]], [[0.059458374977111816, 0.042470600455999374, 0.06675171107053757], [-0.14977188408374786, 0.08932334184646606, -0.21215267479419708], [0.2102654129266739, -0.015021169558167458, -0.09294728934764862]], [[-0.11277350038290024, 0.02714807540178299, -0.22733581066131592], [0.034512437880039215, 0.06742600351572037, 0.03351045027375221], [-0.06689043343067169, 0.057092901319265366, 0.049090150743722916]], [[-0.07343009859323502, 0.1557321548461914, -0.02613290585577488], [0.2325189858675003, -0.0029188315384089947, -0.09795203804969788], [-0.20883505046367645, -0.19895529747009277, 0.023518264293670654]], [[0.05313936248421669, 0.00970081053674221, 0.072447769343853], [0.037734683603048325, 0.05215200409293175, 0.01786748133599758], [-0.08973479270935059, -0.06752817332744598, 0.05165354907512665]], [[-0.09688089787960052, 0.03498394414782524, -0.004420682787895203], [0.00835906807333231, 0.022508103400468826, -0.10044422000646591], [-0.007938241586089134, -0.046767495572566986, 0.06582193076610565]], [[-0.07287601381540298, -0.15673890709877014, 0.08928631246089935], [0.013021542690694332, -0.009946697391569614, -0.19431863725185394], [-0.0817795991897583, 0.005839826073497534, -0.05037444829940796]], [[0.13612186908721924, 0.06839612871408463, 0.06783892959356308], [0.10561403632164001, 0.020808789879083633, 0.08554793894290924], [-0.19639812409877777, 0.16754046082496643, 0.032733093947172165]], [[-0.11489924043416977, 0.03335375711321831, 0.0963187888264656], [0.13540218770503998, -0.0036413336638361216, -0.0911366418004036], [-0.07899188995361328, -0.029271576553583145, -0.2974189221858978]], [[0.10620380192995071, -0.05211760848760605, -0.011730176396667957], [-0.03906366974115372, -0.05463866516947746, -0.03671141713857651], [-0.029236383736133575, -0.01495465636253357, -0.0706544890999794]], [[0.07631903141736984, -0.1228049248456955, 0.19258487224578857], [-0.09662432968616486, 0.10177457332611084, -0.05022149160504341], [-0.019446635618805885, -0.0410844050347805, -0.09623786807060242]], [[0.013513405807316303, 0.01820613443851471, -0.10816973447799683], [0.07065005600452423, 0.2110700011253357, 0.07690975815057755], [0.029854970052838326, -0.20727857947349548, -0.149305060505867]], [[0.15241356194019318, 0.1691577136516571, 0.189370259642601], [-0.11884938180446625, 0.008698261342942715, -0.04884761571884155], [0.08420678228139877, 0.04540982097387314, 0.14859630167484283]]], [[[0.0960448831319809, -0.02715110220015049, 0.042432308197021484], [0.06426186114549637, 0.1221497654914856, 0.15095268189907074], [-0.1748410314321518, 0.09578590095043182, 0.22946567833423615]], [[0.06080010160803795, 0.002464589197188616, -0.08440472185611725], [-0.20042245090007782, -0.07763528823852539, -0.03175646439194679], [-0.051205601543188095, 0.13977017998695374, -0.028451059013605118]], [[-0.13260866701602936, -0.13144423067569733, 0.15432091057300568], [0.003880212316289544, -0.11417415738105774, -0.06731557846069336], [-0.05233240872621536, -0.13492998480796814, 0.042486030608415604]], [[-0.07405702769756317, 0.12900520861148834, -0.01095846388489008], [0.03399142995476723, 0.0572853647172451, -0.03078984096646309], [-0.019395800307393074, -0.14283303916454315, 0.006293973419815302]], [[-0.012909420765936375, -0.0006019485299475491, 0.1177993044257164], [0.18659313023090363, 0.13619345426559448, 0.07904457300901413], [-0.10347069799900055, -0.07130473852157593, 0.13945382833480835]], [[0.2128458321094513, 0.1211727038025856, -0.005086742807179689], [-0.10541120171546936, 0.06117107346653938, -0.05924651399254799], [0.023381490260362625, -0.23752224445343018, 0.054570890963077545]], [[0.17033205926418304, -0.06601204723119736, -0.12289854139089584], [-0.1463679075241089, 0.17043446004390717, -0.05694844201207161], [-0.11826422810554504, -0.19926589727401733, -0.05950378626585007]], [[0.09100957214832306, 0.10405946522951126, -0.1780863106250763], [-0.0787891373038292, 0.06715400516986847, -0.028488369658589363], [0.01220655906945467, -0.12380777299404144, 0.0602162629365921]], [[0.019741451367735863, 0.046730563044548035, 0.00861147791147232], [0.18317660689353943, 0.05637957528233528, -0.03902817144989967], [-0.06503045558929443, -0.18082602322101593, 0.2726598083972931]], [[-0.06659543514251709, -0.20963995158672333, 0.07593722641468048], [-0.06794877350330353, -0.09557954221963882, -0.16740645468235016], [-0.2310411036014557, 0.11474163830280304, 0.0245681032538414]], [[-0.10660085082054138, 0.0838252529501915, 0.12826582789421082], [-0.03999309614300728, 0.08204729855060577, -0.0499378927052021], [0.07798104733228683, 0.03432215750217438, 0.19098171591758728]], [[0.009682328440248966, -0.009437919594347477, -0.11136873811483383], [-0.10000050812959671, -0.06943727284669876, 0.10563915967941284], [0.1354999989271164, -0.023647772148251534, -0.0875023677945137]], [[-0.16540396213531494, 0.04489641264081001, -0.20662765204906464], [-0.007823948748409748, -0.07578180730342865, -0.017609728500247], [0.1563371866941452, -0.016792897135019302, -0.12613534927368164]], [[-0.028826070949435234, -0.03709081560373306, 0.04988231137394905], [0.03759807348251343, 0.00900063943117857, 0.01782938651740551], [0.1815369576215744, 0.008022398687899113, 0.14878171682357788]], [[-0.04366767033934593, 0.08235982805490494, -0.051004353910684586], [0.05868585780262947, -0.07494780421257019, 0.019618960097432137], [0.17764122784137726, -0.052945103496313095, -0.09300476312637329]], [[0.09880449622869492, 0.11439462751150131, -0.1565476506948471], [-0.0030169785022735596, 0.24828775227069855, 0.1891997903585434], [-0.05142154172062874, -0.03359011933207512, -0.06850744038820267]]], [[[0.01769358664751053, -0.006806595716625452, 0.1382906585931778], [-0.0987652838230133, -0.21688391268253326, -0.033329468220472336], [-0.17371924221515656, -0.30843979120254517, -0.23152732849121094]], [[0.09080646932125092, 0.0018149173120036721, -0.12480086833238602], [-0.03497947007417679, 0.09218738228082657, 0.060730911791324615], [0.09969674795866013, -0.032470740377902985, 0.12022140622138977]], [[0.009430568665266037, -0.06954364478588104, -0.030183853581547737], [0.003931502811610699, -0.08025258779525757, -0.18961800634860992], [-0.23529522120952606, -0.053710758686065674, 0.1695040762424469]], [[-0.10113044828176498, 0.11031905561685562, 0.09023287892341614], [-0.00019286750466562808, -0.07883070409297943, -0.04497900605201721], [0.287475049495697, -0.19840580224990845, 0.06178806349635124]], [[0.013784762471914291, -0.17712858319282532, -0.0029568509198725224], [-0.15941733121871948, 0.09516230970621109, -0.021352563053369522], [0.08169277757406235, 0.1052461788058281, 0.10961402952671051]], [[-0.0721316784620285, -0.10717398673295975, -0.019630249589681625], [0.1261405199766159, -0.10652793198823929, 0.1059955507516861], [-0.02882377617061138, 0.04546916112303734, 0.0654945895075798]], [[0.028102891519665718, -0.22184798121452332, -0.00858065765351057], [0.06150989979505539, -0.07429534196853638, 0.09406857937574387], [-0.0006610554410144687, 0.008044674061238766, 0.2435779571533203]], [[0.03002149984240532, -0.08819574117660522, 0.054377924650907516], [-0.22860214114189148, -0.14304295182228088, -0.0651225671172142], [-0.09408370405435562, -0.11338108777999878, 0.019387247040867805]], [[0.2613718807697296, 0.0008813714957796037, 0.06527381390333176], [0.33865153789520264, 0.12846598029136658, -0.008117182180285454], [-0.013486667536199093, -0.11218061298131943, -0.1523476392030716]], [[-0.17734019458293915, 0.09931553900241852, -0.2083526998758316], [-0.020393328741192818, 0.018814677372574806, -0.05906601995229721], [-0.04360438138246536, -0.19223864376544952, 0.08081310242414474]], [[-0.013220670633018017, -0.1342482566833496, 0.12695631384849548], [0.1561174839735031, 0.0064372047781944275, 0.018735136836767197], [0.19466839730739594, -0.008685581386089325, 0.05279302969574928]], [[-0.055085133761167526, 0.04300926998257637, 0.17209213972091675], [0.11022232472896576, -0.042819682508707047, -0.13099245727062225], [0.05606458708643913, -0.2173973023891449, 