{"policy_state_dict": {"net.0.weight": [[0.08396046349436503, 0.027396530371421954, 0.13048754421663306, 0.026878625494264112, 0.010205217664294369, -0.06508732712471971, 0.13120090438760515, 0.03465069127079971, -0.08037212188782131, 0.025552327318709937, -0.18329023116626714, 0.05297936209119045, 0.05808596370047777, -0.12154530159368737, 0.012251786122738178, -0.004140505954917636, -0.05378200757251431, 0.061418528748705674, 0.11496423068566615, 0.05087303897456586, -0.02173594440076957, -0.003127696437478016, 0.059535830385685475, -0.010389654135705166, 0.09028466307552747, 0.13827048549617724, 0.009409463485541513, 0.03588157112924785, 0.023100375648440107, -0.006723929522976154, 0.0824560434943564, -0.13108144720131854, 0.09146726704273588, 0.056156551899377384, -0.052564316263487766, 0.027577894912224316, 0.04881340597730077, 0.041106071650176296, -0.01637506404900093, -0.051330390311718856, 0.19371154057108836, -0.07601420202644807, -0.025456196279624012, 0.006773896521637937, -0.0453138150066286, -0.0012508639086247, -0.20755457911348052, -0.0845960336339058, 0.10818304110857338, 0.0664336920016891, -0.001155429502043043, 0.09529945693271766, 0.017857819049960623, 0.049756739332815686, 0.022827130570755243, -0.0027608958650575635, 0.03932888378275524, 0.08912561512988507, -0.16886754012618563, 0.10036807509294027, 0.04860636095702498, -0.11846356465070497, -0.0790099598464496, 0.051402134924173074, 0.027797553501065428, -0.05734139384598166, -0.007173627476294984, 0.09916190264755705, 0.0251349427287341, 0.057695705647698034, 0.0172578598416759, 0.12805259474238137, -0.10646813232224085, 0.18470930545843386, 0.10589940586139741, -0.0819894066433101, 0.02927653707004653, 0.030385103650177506, 0.014772641959139913, -0.01189978742949515, 0.02713236400167952, -0.18898409749384115, 0.006281989638161108, -0.02413475196973105, -0.09280998558550765, -0.01039450903875805, 0.2340238297276368, -0.11302653500649917, -0.0002602449809642812, -0.0031219780789312596, 0.015798697638728477, -0.06241380007967274, 0.04848630083922515, 0.0418650943447951, -0.06827761094992303, 0.021808737932185466, 0.0639640441549045, -0.03082094905923847, 0.048067613091828824, -0.02316930496529697, 0.012967994598904601, -0.008361463072236288, 0.02877261231721857, 0.011470177810016352, -0.06490294408343189, -0.014764105279752084, 0.056252876999782236, -0.005588301940369998, -0.023120643637141936, -0.019015990375429583, 0.04139609833633289, 0.08793693912490222, -0.03366641817011452, -0.037111211388502395, 0.14583854783703779, -0.055600751990938155, 0.03644607784076509, 0.014228134765439736, -0.016069931355870353, 0.10821265796678135, -0.07154804173103795, -0.04020295737727897, 0.07884838876941526, 0.12261035945111658, 0.01510412156578874, -0.09238677173538942, -0.029356995945800657, -0.07536429166110345, -0.16682016937436422, -0.007732419465280071, -0.006743599769601136, 0.08402708486081843, -0.1233689691545534, -0.0832327250243789, 0.04369604851587635, -0.09205428441208521, -0.1337470695927416, -0.03920366509567062, 0.0558406615632982, -0.033942222549148686, 0.0036970423957601926, -0.036393599916215554, 0.02503410722720831, 0.12201009594837879, -0.022779507544811138, -0.07325657678106219, 0.05431082696655287, 0.004017246503630097, -0.016638146681740667, 0.017882395969697217, -0.014417086875061168, -0.1343135165273102, -0.009156930322763105, 0.0031490956126558043, -0.0629607034173297, -0.00803533572051541, 0.0504691226709044, -0.05256309438552193, 0.01756352007603974, -0.08478538281663084, 0.10298607167029084, 0.04027381084811921, 0.0035879813286905835, -0.04398505221320933, 0.08642115665430297, -0.0216850132510546, 0.11700542167268202, -0.07247595895087766, -0.049629810308108, -0.24952990226326396, 0.06638572367687837, 0.0186854674341114, -0.021615728364699056, -0.07477906769184448, 0.03276315855203257, 0.13925329041278167, 0.032057893616952965, -0.02803389865233537, -0.04646582641825782, 0.01482294758967035, 0.040175050870144065, -0.08975875007682001, 0.03596871426679969, -0.08738282831598787, 0.005866329050375014, 0.10610602777120792, 0.007163593938110528, 0.03105662998162603, -0.0717401575698337, 0.026549357894955387, 0.017767113099704204, 0.20277687827101695, -0.033358775637695376, -0.11797741501848127, 0.09396352789455722, 0.01117814731188154, -0.04261575810615907, -0.10260607217496015, -0.05837686354689298, 0.15201387619441872, -0.0049100807464228045, -0.052922055606067116, 0.16762512757841425, 0.11520393855615105, -0.04478952813424604, 0.019137650280636114, 0.00699863674025846, -0.10969597260897919, -0.012710434492695974, 0.051774820112662205, -0.06792287664741242, 0.055153445380170245, 0.03213242313914954, 0.022647484808914414, -0.02122944233426859, -0.10994869420967127, -0.02465935417715983, 0.10045774796080308, -0.07909494859412533, 0.039117679872453945, 0.09942585439264295, -0.010380995976491282, -0.017065269003896894, 0.08892872536035688, 0.02119662105081551, -0.12354691826734766, -0.005929309459064866, 0.005362986798636653, -0.2243104928333308, -0.03957700279511245, 0.22096898659325004, -0.00503678696640668, 0.020777554031055, 0.043732919357353975, 0.010762829358780533, -0.01869418560409797, -0.003298683424857025, 0.013125637222146092, 0.047597813035148234, -0.07077144770332466, 0.09376389714962131, -0.012583005699771735, 0.1060408994869424, 0.04482113228764746, 0.11273647737674981, 0.009890125697215658, -0.10669548586676873, 0.004103768347549234, 0.030739027753344098, -0.1017991451608943, 0.039557242224401275, 0.06404328822758353, -0.06267242634612018, -0.012863076956914568, -0.016228629026466098, -0.08736074089301814, -0.028305015244078167, 0.04847582001562749, -0.16418604327465852, -0.028922173614392383, -0.05686312004105274, -0.03870349647434814, -0.021387880017643583, 0.052081215442607506, -0.08227285508351156, -0.13106039775183392, -0.08449079753850287, 0.10033133199906495, -0.008032836536268654, -0.11044113535536829, 0.11634699143873144, -0.06442072445663757, -0.08923794332409922, 0.061673377886179596, 0.05681075862443364, 0.06496097477704033, 0.033169503419670135, -0.033517334620150475, -0.0263478181083727, -0.08885933624930142, -0.159630641665865, 0.11685406007541965, 0.006950127406548446, 0.07112098941668409, -0.14338535141041311, -0.021617659423579898, 0.029235946806328343, 0.007238474537079962, -0.007409872551958995, 0.07703571807230802, 0.137466590722103, -0.05669093712546178, -0.09732635982864246, -0.010043551315184394, -0.018557489416954055, 0.008502866168217986, -0.04263311019010789, 0.02384912455392054, 0.01794295495072096, -0.06925463700097642, -0.18041437075840486, 0.14247527312233957, -0.07707021630733973, 0.03149771970707323, 0.015494457118981257, 0.0737970927824168, -0.023251364161218865, 0.03476546674696489, -0.06627494731804841, -0.0480193710038599, -0.1319724357870527, 0.012393068506680063, 0.05092044290259559, 0.067445232552851, 0.07428847557260526, 0.05890494279477979, 0.057769507108215705, 0.05590517866993859, -0.11246299053006956, 0.10441969635211162, -0.154135473050802, 0.039791064188531705, 0.0174884564429852, 0.0021463929671203803, 0.14283591589665928, 0.021801491929003408, 0.15306012060661398, -0.0064646771314485945, 0.07072302491776798, -0.027157257371326633, -0.041015126113494234, -0.03435109265807314, 0.014078095429596926], [-0.01098279333551, 0.026885381603459345, 0.06266507438271758, -0.02085935398666817, -0.04822532568516015, -0.16132388362572217, -0.011891977784079669, 0.0021056852121865413, -0.05838905248454608, 0.10094241744173085, 0.04484561868640216, 0.11983276053063735, 0.02768651700782311, 0.09555619056922209, 0.09682923915791057, 0.056672108954759604, -0.1858551411863931, -0.03998349533555878, 0.10283698635076019, -0.03949080267534571, -0.0037559802966314953, 0.1210706109525411, 0.0827225089415365, -0.12194301818332468, -0.048040456167719126, -0.028022201090108258, 0.005612967000452253, -0.04581334722233431, 0.10936711512211589, 0.1105761826736681, -0.007325965483590767, -0.10411642801571067, 0.030401815186259108, 0.0733795726066937, -0.015070404748230664, 0.08856007861415878, 0.02319417191431693, 0.03658331923690249, 0.05863607794413664, 0.04579226451214969, -0.05785615003540137, 0.10332739916941554, 0.1921527775914252, -0.08063985126123947, -0.007025703278520149, -0.05668043045525778, 0.025216598306781492, -0.14261298351028343, -0.03773566253482337, 0.04023414967501562, 0.018550125906348774, -0.051808284100355755, -0.038390069644998207, 0.06025759170109325, -0.07128530713201961, 0.07306521743263739, -0.040041767783978034, 0.0019860370158755855, 0.06390535455451302, 0.012312626249209372, -0.005081812548785018, -0.13632267238752593, 0.035917897482805744, -0.1179367000687848, -0.09917311920152405, 0.057632944797275994, 0.06205163550868196, 0.10192774309637563, -0.056677406111411435, 0.06004110591404548, 0.1529941015409997, 0.016089615856314125, 0.08436226598470667, 0.07563850417976252, 0.000445180679783682, -0.012012417660338755, -0.03272005297200499, -0.04064153180570984, 0.030638911036558008, 0.0766103247671658, -0.10556544801323524, 0.22049354754900627, -0.05623719914611344, 0.19925992547269591, 0.041681424875345964, 0.0717453932379035, -0.021434461588021352, 0.07686670234856739, -0.15152407790066433, 0.03316487573521917, 0.057548805171508476, -0.03498105842452339, 0.1371436109894071, 0.004501966486315932, -0.09543841792649473, -0.09311068173274224, -0.07019085598883311, 0.04292416221000851, -0.08907247274417471, 0.10963885159804201, -0.031125549531160042, 0.1022920148927808, 0.05008417185222754, 0.13826792399236157, -0.003596692007492853, 0.05633829496757919, -0.05314268346264211, -0.019375939404375223, -0.03240548959374949, 0.040638895256037054, -0.06628117919626479, -0.05219363895532891, 0.03791121800155574, -0.06916612076940316, -0.06888765544250153, 0.06208289200244405, -0.05499832951384516, 0.028813166902515955, 0.03244410474959261, -0.02779120797257131, 0.013842537962147095, -0.026649624023558614, 0.10121095879562463, 0.07475845839034123, -0.1741874092466997, -0.05833993362895281, -0.011758043986672675, 0.10629100739208598, 0.03688271956548034, -0.04905171350270206, 0.18841830470842358, -0.11453146551408566, -0.08520170621168477, 0.012298602371627108, -0.08791937300750118, 0.08853066578077506, -0.03509461302014088, 0.018290841178554222, -0.03497739525445153, -0.05098229659028095, -0.05028641065120245, -0.08326150759348963, 0.03019551840001449, 0.05371692671827309, 0.0027803694100922453, 0.014511112272896158, -0.07945230892605949, 0.04728765927028761, 0.017892248135772174, -0.007700666043054796, 0.06359224982122827, -0.04424381559271412, 0.06905377796911523, -0.14295201460936777, -0.05499913765739364, 0.038461038234579775, -0.09541021863629438, 0.0803912970038304, -0.03795727649211074, 0.009614886652660457, -0.05600932405058649, 0.08190906505065242, 0.10090428904910977, 0.0689640791061575, 0.051333293962113585, 0.08309720694806459, 0.10431966214169444, -0.0688478635263008, 0.02816503313115663, 0.03756699593004758, -0.09753041799289808, -0.04113550059272169, 0.06063411617071063, -0.01631340245743469, -0.039935792298305926, -0.06078104052469817, 0.029805793963727966, -0.01902158111244774, -0.07534849067782923, -0.06095812164132436, 0.0959231037677017, 0.030431304519971565, -0.03539890864050224, -0.07022800211353677, 0.025990993255664924, -0.040728601308437654, -0.1413945770560908, -0.06520812599600412, -0.053289418712736875, -0.08572671433996232, 0.02332298378327892, -0.1381692285662663, -0.057018906822339815, -0.06509338832435409, -0.10471150614258085, 0.07614593862977677, -0.08731385150569376, -0.07230604069564475, -0.004490143125139325, -0.018124701390766263, 0.04641344912592104, -0.02000484897726161, 0.001436419697016389, -0.023457969256233772, 0.08689204047969172, -0.12672359443623554, -0.16655874761937034, -0.07820401239918055, -0.06494953586495948, 0.034225186928797904, -0.08573557277986087, -0.1324482962571425, -0.03061704872854472, -0.06784558031545224, 0.055070821612584524, -0.012560253726234013, 0.01808325867479029, 0.035966899478871356, 0.02621825394628535, -0.08739459064866352, 0.07715146115774836, 0.05702391518358052, 0.09299447666568825, 0.0733829404816322, -0.052711582575709306, 0.06395555544562438, 0.039174031721309344, 0.05665624358467135, -0.07080226703175459, 0.049062472907216596, -0.15742114325057033, -0.06403933695126277, -0.009299558212476173, 0.09771954758834217, 0.0347974889665028, -0.07882883055679815, -0.02211007002960948, 0.070072819649582, 0.06607667487313922, 0.11748033319044253, 0.07716094468296514, 0.11530630190770619, -0.058896087497385174, -0.09082326381060549, 0.02125867289521814, 0.09416283643181363, -0.04541213262437683, -0.10672285302096321, -0.041719644986321615, -0.06217978572514883, -0.014435931665712986, 0.029755910711810864, -0.06953810415884941, 0.14129735098459964, 0.0033101511833076016, -0.09803564977242668, -0.07973911139109131, -0.03192744786436092, 0.04443642127583434, 0.011453930447466041, -0.049407499686804565, 0.11085052079947803, -0.02832139119970737, -0.07918901117232448, 0.019038053604604265, 0.0707949213140523, 0.007452601387063783, -0.14065607392434146, 0.056565918333427265, -0.03944015695123956, 0.07507375929526829, 0.03451815594320868, 0.04322795548329593, 0.041416185845450273, 0.04469148201665922, 0.06128101087245206, 0.04485576445546944, -0.008194384466489162, 0.003466780397711842, -0.060903387957083666, 0.040569012920886556, 0.02233308748739371, -0.01741438857263524, 0.0975757913171713, 0.14678622571090133, 0.05181581302749127, 0.05841935850751309, -0.12659024367452634, -0.0019739876581467376, 0.005561030734547791, 0.025311040867462272, -0.029148762001740224, 0.034851618991426185, 0.046680034429696066, -0.016913148487371733, 0.0463436420481955, -0.03918991644757612, 0.17473704898941309, -0.06328389953051712, -0.05853308627708853, 0.15543009395153315, 0.024384640790975076, -0.07115098295909095, -0.112696708151867, 0.05929867435751707, -0.05225382862703195, 0.11435563172632794, -0.02017629382566416, -0.08144444433451202, 0.011869625573041805, -0.01712669889115492, 0.15077381906347853, -0.04536984465455241, 0.12601825124241592, 0.06638816093691095, -0.006148527525412842, 0.010843036332681974, -0.10103627030077886, -0.09011936836063378, -0.014244363604728402, -0.10327395270004265, 0.12096608821590535, 0.02368644601263847, 0.12816858184457589, -0.07144129607851896, -0.05345113100518236, -0.009425015464870817, -0.05961697399446835, 0.0031187346490134486, -0.030730139691445037, 0.13648788416150012, -0.06770547359721564, 0.03825727260285672], [0.06490165559710186, -0.015266485089074, 0.026449019124385863, 0.04968840744529526, 0.019271132419339115, 0.049987662990645644, 0.008265584783768043, -0.1450050217577378, -0.05270347485058287, 0.02420441316434916, -0.040257645839545934, 0.0575131700361976, -0.02928775552255284, 0.13181552752590078, 0.12571539539862422, 0.005222219139934004, 0.05818267433958221, -0.08337760831114577, -0.07494621138674389, -0.04438764828016607, -0.010013540215390932, -0.05399821969540057, -0.10644805256319805, 0.0159322350404279, 0.010852683663006452, -0.16745395972161004, -0.010679180467327201, 0.08874870676007152, -0.09797745672680516, 0.0024487010349091265, -0.04274232697533718, 0.007806750009765739, 0.06618958106457569, 0.014048860229352264, 0.03728580185401169, -0.11239998682455182, 0.09408506036042091, 0.09435233002308652, -0.11995095235572807, -0.07914759140002904, -0.03775741200011621, -0.041337186340937485, -0.003535137019199148, -0.01290071756398236, -0.004682176300672823, 0.08216916959079816, -0.007479862556041259, -0.03487617677204111, 0.03552506995008403, -0.019846673231665023, -0.06100168692117285, -0.07526897882603498, -0.0015811793396438537, 0.06553891352368456, -0.05282856128550349, 0.05501342206107608, -0.035523416784236775, -0.07160592159523851, 0.003628519248266029, 0.05866605042312603, -0.03102617107117622, 0.032075045968994964, -0.02032977876961889, 0.039967963727486774, 0.09561938860046723, 0.2304179664884351, 0.031173257193990066, 0.04243339651221161, -0.0061342577426221215, -0.0014964720956696421, 0.14357296557935303, -0.03181739862883564, -0.04244452156744738, 0.18436095926348237, 0.03127837549696606, -0.040166182053515756, 0.08877739215917552, 0.03717083736964571, 0.1449323018545329, 0.09149481708743563, -0.004364099910442245, 0.04393678897002709, 0.26235834355283805, -0.08039255999583622, 0.09326946995241124, 0.014620413410798241, 0.006451427447230913, 0.06924653043325665, 0.01563608602801663, -0.03127612791073265, -0.15057812527141454, 0.06897647948933881, -0.04773306941044367, 0.011333786629600778, -0.06821611674467228, -0.10216859640879139, 0.0067437149371216915, -0.19014254789087273, 0.042854398177877506, -0.07851804297318708, -0.036173323562004686, -0.025742763072198763, -0.03100449230415679, -0.07488233208897281, 0.049670032450981526, -0.0014730887583019052, -0.18054796700243275, -0.12608856719510855, 0.023943696015716304, 0.06482812389682302, 0.018430548709569238, 0.04712744861347113, -0.06839320322439231, 0.012649744288271293, -0.009403736314506177, 0.014383187088865235, -0.008827682107167407, 0.06398257629343068, -0.08452164328076651, -0.005147151458258032, 0.028418847269195205, -0.016397170386968415, -0.023013495200444493, 0.015368016334283165, 0.021624318876925397, 0.01709318290767756, 0.014441531203630285, -0.018853704916881226, 0.11652889556796152, 0.053292058583100314, -0.006164042261957385, 0.0009342360624321745, -0.02692954186337882, 0.03042495666705484, 0.009544266945435096, -0.004372532401627683, 0.010440764546730555, -0.054803163855905355, -0.0575745174814015, -0.04809069803812181, -0.0062207173716065595, 0.08231956717226921, -0.09471808182898371, 0.1793774691539491, -0.05927403212906754, -0.06600336773129392, -0.03932177576014739, 0.08034207770070437, -0.16211982546876016, -0.04806504211973514, 0.0841056934975908, -0.06613481222776792, 0.013091500593739877, 0.1520939658697528, -0.08403764898971262, 0.023916442304992947, -0.06030164956282899, 0.0950351020672135, -0.032497627818962475, 0.04303666239309534, 0.04454948109204544, -0.09635540012926017, 0.1320200480594669, 0.02809144250107294, -0.010140169140128196, -0.11069977104346868, 0.04897908837288418, 0.03489666734320905, -0.009344740644973861, 0.005615073098791439, -0.00603241754367641, -0.0007771058066579941, 0.05807582845971005, -0.03245625957388436, 0.058547504998287606, -0.021758903901509367, 0.11594492052459683, 0.11491896141913084, 0.008647158619189086, 0.1036294051992862, -0.1458641084505934, -0.04496425824556108, 0.07348398094941748, 0.11296751408138049, 0.01027910561698085, -0.08260571725715202, 0.005912053424240823, -0.07167270750241574, -0.07753129036509711, 0.31195796178697416, -0.0529325789177749, -0.022620494220560724, 0.018957159506561412, 0.05922431553457913, -0.017189906317872136, 0.06480161625442178, -0.012183548584279601, 0.09864280944000714, -0.18528089837276707, 0.10142947596221223, -0.12166002809168676, -0.07877120212331071, -0.0845121734744434, -0.0451124168406829, 0.04160784334429898, 0.0350048095747136, 0.11800583389410167, 0.041894380265206005, -0.05788869923949042, -0.04663098041950834, -0.1327375394369709, 0.09948381563116618, -0.03157077462724214, 0.05167430090340379, -0.07006775182566212, -0.06224677625676255, 0.01994733770059496, -0.03195025125301194, 0.007210463845905803, -0.06447769630371655, 0.08605816351074029, 0.13932575480352646, -0.08929945147156634, 0.034490126123943116, -0.0196602129384494, 0.051238149115017124, 0.05427753565691744, -0.09337385108142503, 0.11270328845481394, 0.09671059576356969, -0.008931649678547753, 0.15685157724175577, -0.11675083020345528, -0.14120270722617814, -0.02676693876503919, -0.024825067328853437, -0.003914854662227046, -0.09928140722931768, -0.044001545951101166, 0.03244008190247497, -0.08038296166848581, 0.054611241603316055, 0.017179342114754696, 0.04541532056273649, -0.02650493010951187, 0.13025345590591567, 0.09578471899265134, 0.05644762575518339, 0.06421264120215334, 0.15599869656858784, 0.08929834452121169, -0.07795088521487678, 0.022277325786469362, 0.057243186976269476, 0.006082786393811847, 0.15431810450865394, -0.011070527555914944, 0.14671743518553337, -0.1339948182360423, -0.10973307709340124, 0.052077627846963626, 0.03443619387354896, -0.0035015684560556534, 0.033051427467472354, -0.043977267394403406, -0.006340325717446288, 0.12877957808004556, -0.023802762587560294, 0.03823831619335889, -0.0928171808856917, 0.020361486960338685, 0.045940719984667214, 0.026382398523098285, 0.03996031518547537, -0.02306313796220434, -0.13945429877702112, -0.047801322140727416, 0.018323552428206737, 0.039759600503313515, 0.027974290042849438, -0.06237474690655902, 0.1555850791753813, -0.02633902565141671, 0.00684199641714121, -0.029511457842116957, 0.10312590991382925, -0.0503252097626419, 0.04166469273591045, 0.10195443142743553, -0.0606327826872862, 0.014089933636619595, -0.009987751702124773, -0.18841310524805022, 0.01351898032716714, -0.10914699390182288, 0.00475531492756315, 0.010993679011268834, -0.03474857004999998, 0.07854438763765995, 0.07914296868201356, 0.034294537075664024, -0.17601638544330786, -0.013201940148500665, -0.043321489200577, 0.07305350367080002, 0.02590998063277194, -0.03691429544889114, 0.07858826243019117, 0.09256856341223928, -0.017652814486309693, 0.01254099184043341, -0.04074776600991474, -0.1597138833412127, 0.09170231470459612, 0.11065359182029072, 0.1439918382468864, 0.1468714947471761, -0.0072697521903926235, 0.09256493215031683, 0.035064603104158716, 0.07340167665773639, -0.0023094686308245908, -0.039469419617738435, 0.11193782825815868, -0.06539007523424438, -0.08844335091650697, -0.0024412165395758145, 0.03188981734994062, -0.09370380852843882, 0.04169318617408308, 0.06273764840075187, -0.02175779373007012, -0.02079994381626093], [-0.01544776361584859, -0.03526166814054785, 0.1014932287354867, 0.09786826648424679, -0.12377255477403229, 0.013866763838419349, 0.020374432634487818, -0.050869310589303704, 0.014877972188067181, 0.04154831993591373, -0.09719347025840624, 0.059684230200104986, -0.008415460286170786, 0.048132441197859525, -0.012686396897825242, 0.017033800130917518, 0.018162448213417413, 0.04784853252868825, -0.02305273452802546, -0.015136507016820734, 0.0011086766132989245, -0.007951105575803927, -0.07030603217330217, -0.0646398516994108, 0.005564086179314039, 0.1554502495048677, 0.14515721913537996, 0.0879350589430558, -0.06703888732585833, 0.06482038165445557, 0.023555895453114848, -0.09089630157195504, 0.09435968446642308, -0.013962683026857112, -0.07442551498288277, -0.005767026677908849, -0.014765793849089869, -0.12919479228662611, 0.1352706062429048, 0.03302040139536088, -0.04290239676971744, 0.15770586624048924, 0.0746699344368939, 0.004546197202835568, 0.03979924223529196, 0.05505755630699041, 0.014543134557119758, -0.012225003486710679, 0.02450292358729107, -0.041720170088660954, -0.10215084407842348, 0.04687809710623536, -0.021035721168456475, -0.0788267238554722, -0.07644300864433104, -0.02771243830768741, -0.0502803554114666, -0.040987222919925737, 0.04598285869003368, -0.030990863416342804, 0.037361147696571194, -0.047851626828953484, 0.0649532299072792, 0.08680342688704125, -0.20614418899750678, -0.08555897533667087, 0.10524969526180447, -0.046509835773018905, -0.15701697554461969, -0.1341190408450066, 0.11194753163198505, 0.10715985435919213, -0.05598916679379729, -0.08185594814714704, 0.032786365046123964, 0.01163735456913179, 0.011504783095705767, 0.025758864746039084, 0.05793787768709692, -0.1165900294791544, -0.12270383099267465, 0.02960235030410249, 0.0617711263650214, -0.09638344645827034, 0.06651687095133395, -0.12184124021029698, 0.20472839210955213, 0.07154614431235866, 0.1708914325631406, 0.021457314970911103, 0.1357711655099166, -0.0060130614002071505, 0.09512204809157623, 0.13252305099400954, -0.11272098442587496, -0.020040352603524887, -0.1084908700534824, -0.035864435819540984, -0.06643985806167323, -0.010944967521924176, 0.031276773361178366, 0.016811222054246084, 0.13466814526452095, 0.007874817316092079, 0.09571235881502466, -0.024649492580238245, 0.041805165707846065, 0.06327082469098678, -0.0009658527756530804, 0.07239865951075454, 0.0221678689271981, 0.013770883786003395, -0.04296688320228981, 0.05338673641855313, 0.07900497082548966, -0.09390382234174165, -0.033525860577850654, -0.00038137890171860124, -0.07788204311438254, -0.014756527195027699, -0.03946912313540118, -0.0009642165434245139, 0.1902641296426724, -0.1152060017933033, 0.0448365519762094, -0.0407860330970339, 0.11256871246261108, -0.08554317292375631, 0.015102159168179741, -0.03843053033617651, 0.00548813894778352, -0.066034193968332, 0.042614894850257296, 0.0532828473871002, -0.02457822418565248, -0.04148321886828577, 0.07431907703387307, -0.04436978956187772, 0.015922658969205878, 0.08627257614104777, -0.020664173752892253, 0.047036191443287245, -0.11118704588214934, 0.08927797863668248, 0.008118563580937604, -0.007823563077356143, -0.14820559727915522, 0.05372139987306587, -0.08038276654932093, 0.04668448340321809, -0.13329644912951535, -0.2266303756173214, 0.1499087205043818, -0.005125716396083729, 0.0713446574429607, -0.10215722552323721, -0.019201615817630264, 0.005074132931796386, -0.0282669678742984, 0.04340209004158785, -0.002267293181656494, 0.00993401446822703, -0.028449055718030653, 0.026743672515695257, -0.04377753920172944, 0.015596579890221231, 0.027049608656225424, -0.03835302939163064, -0.09162377504852218, 0.005898399534436031, 0.0029591128039167308, -0.09308886336451119, 0.042909802567410435, -0.11557078816332125, -0.10198532172491172, -0.017760195660322876, -0.0791228055779776, -0.01828498809156579, 0.031539026207675874, 0.046816959088946966, 0.016705823875521508, 0.06590789454471883, -0.0076485257614336164, 0.06915231569925191, -0.016880286733233354, 0.04258232625998972, 0.017424893587536256, 0.010894773182922016, 0.12691472593989142, -0.1095544654478467, -0.06385092466633256, 0.0007093551541819704, -0.030801364792731167, 0.0359877361493177, 0.021363014963286214, 0.02889388554952534, 0.04704602715093084, -0.09365086462197894, -0.12820818141480309, 0.1027818201071599, -0.14494601931348547, 0.019718389005226218, 0.10078166057982217, -0.21536984823043107, -0.07165954683554818, 0.008952485469458966, 0.1313937368625179, -0.1011412341624652, -0.05544064394922871, 0.019141021101892114, -0.012574055646155997, 0.07125377936015326, 0.05179038054561992, -0.19224540474752602, 0.034452686719705646, -0.009982721967452486, -0.028512133224993883, -0.1042577708612324, 0.059362651355656465, -0.05639177793190903, -0.020802130763597007, -0.019988906026174657, 0.026332760748528722, 0.03957601824890353, -0.037915203749620915, -0.02111667250785483, 0.06589902884017844, -0.018077004675138418, -0.09365328116113629, -0.07570729839673891, -0.04950365140519867, 0.02936199672497292, -0.17865659478139914, 0.12895749871185, 0.03263560086263238, -0.0028639687739380033, 0.11599342593665327, 0.044814467903350905, -0.014266424761852617, 0.024000435884592726, 0.04498519705181138, -0.03814692770759979, -0.1031608603559553, -0.1076304158373796, 0.17456682461977255, -0.00834589275078865, 0.0049060631525488126, -0.004739011300930489, 0.07671699502747727, 0.1552886436895799, 0.03340391480952587, 0.05721908706900221, 0.05263382035995166, 0.024451957751570788, 0.133813745135102, 0.06670328335627951, 0.11382863948876944, -0.010584317179621001, -0.09535297830476874, 0.021794076725637886, 0.0026273372731804643, 0.032671744793038096, -0.06086890311132511, -0.19069477553584133, -0.010966902900038709, -0.08772906578907812, 0.04163332805640121, 0.09822116551169904, 0.14142900947364326, -0.09192741567077028, 0.006732202688913032, 0.0432195872418501, -0.1600785660402863, 0.07904864450110974, -0.00586564907032137, -0.009663576473982034, -0.1380661691067777, 0.06295246415980307, 0.014424666907260322, -0.07702897881684638, -0.06415490391341425, -0.013223185727784898, -0.018505834778505145, 0.07897766125745186, -0.007776236133150223, -0.024161485324731155, -0.026092224339673765, -0.013017527949366335, 0.11532377081526177, -0.05992353274102085, 0.03523447493977356, -0.029470996159531623, 0.06648217317062226, 0.06761334711003655, 0.030468148317358994, 0.029123438871188467, 0.08499091795135985, -0.0688423978753184, 0.11212967431363621, 0.061828939648427436, 0.023585977841640657, -0.06699425416418232, -0.01938667907588411, -0.15041323732034495, -0.07420921013271445, -0.05491746178115591, 0.02947717394826786, 0.025137077447127083, 0.16173943135299856, -0.0801817475950091, -0.04487234222447394, -0.05338747508503293, -0.03674589851432198, -0.0191843418939558, -0.006858543995340515, -0.09580061862035447, 0.09453888342585122, -0.10505986851122509, 0.0015663433830304713, 0.0388503777297308, 0.062007068868627654, -0.017339024440175665, 0.0676067649149672, -0.01944084707202108, -0.12735653018235069, -0.045899925719432695, -0.010044118081637451, 0.028441357537979158, 0.0409540287614411, 0.028662601728884855, -0.1838046795817927, 0.08626432500409303, -0.1716280289744721], [-0.02925428895135188, -0.10844060701628404, -0.08020928228846685, -0.09740475795877411, -0.08040661292908757, -0.11900840079949322, 0.09510602919920669, -0.05081616499608369, -0.00303278391729316, 0.08626768634271664, -0.008159077687918929, 0.07407789745003923, 0.17060922624489863, -0.0012432241217729928, -0.1857500253598662, -0.20538635802897323, 0.011594398564401672, -0.055801716007465904, -0.07728761372910241, 0.09322521729868946, -0.0976400855404212, -0.15126957321292586, -0.0028942670637649554, 0.003492525396543128, -0.05158434272023585, -0.08270903572290744, 0.011921838840167707, -0.033164601224438636, -0.08606385871749522, 0.12138220803368224, 0.05389669531879482, 0.06779742729666127, 0.02578944856468919, -0.050395784843080216, -0.0014649432457048848, -0.024313378656769465, 0.1817779682592783, 0.03864371424310336, -0.120487618568595, 0.017365890076081587, -0.028639145326987366, 0.006254738166673221, -0.08883309975111528, 0.02626506857832569, -0.018686180012171073, -0.11673156198042285, 0.016022830051365903, 0.2177978984425482, -0.018657312213364943, -0.08438469259545484, -0.18516741252267876, 0.07975625252654955, 0.025064551980794103, -0.030641000652443767, 0.05516863154349879, -0.13305758471153126, 0.0009608339747051411, 0.07322840755339932, 0.04845151147462645, 0.0686859966901409, 0.025750285945095912, 0.03214032169437829, 0.05139399261947772, -0.09166176384243799, 0.0038269785210906467, 0.014919185366912249, -0.01572227934434922, 0.005875758266113616, 0.06029165260651079, 0.08126172361464898, -0.04083669036800259, 0.09590819358077547, -0.036843976682214924, 0.06871033336672432, 0.03705098136518578, 0.13800974639046729, -0.03977472139358949, -0.013062248087919797, 0.08291586519527092, -0.01611824873412608, 0.007749011821970731, 0.0684454222703113, 0.016961563539747083, 0.03486702758375398, -0.08602251530255861, -0.08560725372161081, 0.14013968987710926, 0.022328689643521582, 0.024648974457670583, -0.006342028119927529, -0.011675279438706594, 0.02451184747301787, -0.044577503022099556, -0.05544633384082935, -0.005861036388317361, -0.030868233626958827, 0.016033418897378783, 0.012219595536288166, -0.1187446865583945, 0.09831786307530793, 0.12595574925360142, 0.014403542761418076, 0.07879980506547048, -0.12033874472654224, -0.13611354247497592, -0.07351821865295934, 0.0023596971078469536, 0.05009952746167831, 0.11141734724721765, 0.14331433951921557, -0.030871240352045033, 0.1708915382028726, -0.08497266259022752, 0.005816349711987217, -0.04839759591180904, -0.048269759159538767, -0.06196851869936084, 0.08086771993080182, -0.001922770670730205, -0.007071408843581851, -0.05336877749822726, -0.011745668886490023, -0.06680411247180452, -0.07958309664857693, -0.021255121700664785, -0.021332341258294765, -0.03985676973970342, -0.013820462556971102, -0.2144482809245775, -0.09777844738228907, -0.1745795285462242, -0.07061613926111213, 0.083552808367075, 0.06095146525021819, 0.07043383306378677, -0.06778921414354473, 0.0852846378260372, -0.06943954771741104, -0.05707576832818223, -0.06545175722632161, 0.11309123216371694, -0.03498316473711985, -0.05528312760993059, 0.0484707098974176, -0.0946249412843544, 0.09049128200644196, 0.023761390197535, -0.07051363442127001, 0.010357633617336501, 0.05438884152135852, 0.14629710422491324, -0.050305992732076116, -0.08512391718395312, -0.009953986521782374, -0.08511025528810427, 0.010408372402330947, -0.04355461244607677, -0.0019456194302410316, -0.08474318048388851, -0.029207389671619444, 0.03857984283821619, -0.051740300320759845, -0.012018005215865489, -0.046662565520541065, 0.025051475999236524, -0.13832523840657657, -0.03384063834055948, -0.16425919349433957, -0.04565962531521666, -0.0010268010962431954, 0.07376025455284207, -0.08066445723044359, -0.092302218726783, 0.006396208236554167, -0.10014397008988733, 0.005257853323495742, 0.011334437417059003, -0.0008047910493823456, 0.0811747784353988, -0.00519935073874002, 0.09931929522323261, 0.0364169223229063, -0.05411344694075078, 0.08134785174211202, 0.046983803907492946, -0.003063616795103146, 0.11490966057701424, 0.010677652644414596, 0.015418321457688452, 0.07306070016558894, 0.040947411961078505, 0.04159361456908399, 0.05548469522457424, -0.12776918944699805, -0.06607759447696872, -0.023868171328771223, -0.04140252004027896, 0.05851964584755047, 0.013542429034750331, 0.028424268270143868, 0.2071148089738317, -0.14436686906880508, -0.12561932893983538, 0.0736110455869192, -0.050441979295481, -0.04562711593730908, 0.08647475956609617, 0.033957091083041666, -0.03877678649170367, -0.03987972991277935, -0.012593447573555832, 0.10383364157341216, 0.09545473569415114, -0.10360324451536125, 0.012654180538380062, -0.09691656236142346, 0.10349937549400708, 0.10292530649539772, -0.0076431878159447676, -0.07200088046710638, -0.06721588098424582, 0.0538415373984454, -0.10201095836574749, -0.05629848685865219, -0.0009939706841067834, -0.08220055853812132, 0.11243716306238263, -0.07289356068833758, -0.017495052753120948, 0.014317990282311767, -0.0925119436699755, 0.1182412372683202, 0.05239627699820787, 0.0987520151448488, 0.009610466538572832, -0.017667773014413565, 0.0011432641151660006, -0.034137883679031984, 0.01307754614132611, 0.163554999488424, -0.01596282718626945, -0.08514187293833773, 0.03337933228609595, 0.1010553424479703, 0.1722159873007197, -0.026107230866691682, 0.013751472609489864, -0.10589615121451088, 0.05721044098667951, -0.17697350340563922, 0.10446330145296358, -0.03196591379311385, 0.0772923529263401, 0.08867647394883113, 0.12039692534545325, -0.053854030453911, -0.009308099929224914, 0.021076221239907243, -0.032025244447642646, -0.0421850056881431, -0.05926595376489042, 0.07238597170137465, -0.059731019536516806, 0.050040183637053516, -0.02913066214430894, 0.02765613812273349, -0.02419818933485142, 0.1548103839809881, -0.04609553798219443, -0.050659249215247226, -0.09076443292716438, 0.039596746924418405, -0.05600782695595429, 0.0993095053112816, -0.0009097182526495334, -0.03222175335064951, -0.07409048288863816, -0.05534419620991492, -0.0033841092948176917, 0.045292843276577927, -0.009958931944294987, -0.024218000509490273, 0.04416865914833965, 0.055977715591903905, 0.06406826513505541, -0.01730717373106379, -0.016622627755250533, -0.06132720990115121, -0.024315726863294015, 0.10904744613014054, -0.15044822489363643, 0.047969916792231, -0.1394203344488284, -0.025137848503831977, 0.04334550486464997, -0.042682960409261825, 0.042569590757948625, 0.06327584643132518, -0.03540259483714196, -0.06678922824319414, 0.0506085819204379, 0.048942742834988576, 0.12281517962460456, 0.0233221971288752, 0.03317659748138757, 0.006596319530451975, 0.024022246905046497, 0.04251206804436752, -0.07603251913408127, 0.024989454487356223, 0.04181242596082088, -0.140651456439451, -0.08668773997138038, 0.048432923437646734, -0.001660980924374001, -0.04559912460207316, -0.028873284016372177, -0.1381660158726736, 0.04380324246290977, 0.08396381765806138, -0.15786978201404508, -0.008495255392658274, 0.025056069094657536, -0.031380777653252784, 0.168796008161779, 0.026686332391819206, 0.1070777186103172, 0.04557901247387678, -0.02181702114051025, -0.05818958992533563, -0.02127352415169245, -0.20672804900720668, 0.01718076584561814], [-0.010637846812445652, -0.0386431830893214, -0.005898964256884821, 0.03649776683430884, -0.03773873822429545, -0.16980518455291047, 0.04452736304218076, 0.1226748966865648, -0.09646126049545034, -0.0776365954406735, -0.05048805107784162, 0.1345862740941079, -0.007947199374490689, -0.0622934599092331, 0.07850855404348654, -0.009509458602983186, -0.025837325330810384, -0.015736288515487692, 0.06025103895176352, -0.041522538920228516, -0.10186973464659027, 0.09149377044497281, -0.1161296616276081, 0.1570654308717762, 0.08558965962674248, 0.021035600520998492, 0.014232119300873296, -0.024024176268721834, 0.042554243515628205, 0.0680893330763456, 0.01339668184781604, 0.08373473683129645, -0.012358324454323664, 0.06726492110782535, -0.06175410074040907, -0.09382205961172524, -0.09035998894312666, -0.09888165857850567, 0.0031779079598877186, -0.012438691150697453, -0.05246532736039636, -0.032592813871438114, 0.20188505970616427, -0.1174921975535154, -0.021209099080470948, -0.007315853375583765, -0.005958104176462246, 0.011516514612306187, -0.10515312138964099, -0.01529747426179889, -0.07656113662750036, 0.015899212484504585, -0.03066515839273807, -0.11125889007983868, -0.024699010686463952, 0.09913373099376221, -0.10522552908468776, -0.03262675865771168, 0.0015452723070764286, -0.08327329215955878, 0.014102114245190367, 0.015805995594386568, -0.04984373284352977, -0.02132715971432629, -0.08992180611528235, 0.041497592133082746, -0.10808317266561679, -0.030328730608723403, 0.01122073126371064, -0.056542862763703974, 0.22209084169428592, -0.036120439119710496, -0.02054806025755897, 0.05148140499996781, -0.09151547753930149, -0.0714511227950219, 0.08859008999908226, -0.09101654805773236, 0.08033380343950274, -0.012305386713881285, -0.12306154369598848, -0.03785788056869476, 0.024091359719679926, -0.05264106455787701, 0.13057735988005673, 0.06690126559867525, -0.09591550502315095, 0.050653548950551436, -0.04227939171531125, 0.048025461323910945, 0.012502112885043565, 0.19171445773859588, 0.005148513004426991, -0.04785914983168196, -0.03672709027206559, -0.016914318351607907, -0.0425219344832188, -0.06084202841898051, -0.02512305978287803, 0.07885843981314772, -0.0386112659096963, 0.006737474125769925, 0.01827538673145024, 0.08173510872113246, 0.02245261687924646, -0.09444437419348542, -0.03797795359891033, -0.05105283785694143, -0.015391124150145943, 0.05898565846828071, 0.014070593255375484, 0.006768927228274914, -0.015395085506668542, 0.08778915610283826, -0.10403205875347869, -0.012913110476700984, -0.0535700833103937, 0.009933496203023513, 0.030195559708480115, -0.07375844049329601, 0.07746011398988786, -0.17686502824665482, -0.09108258887582298, 0.00023852059156957055, -0.024318709959984332, -0.10909148269393172, -0.098432135659906, 0.05879598127323683, -0.03978850083279259, -0.14745965122689358, 0.0610986480670623, 0.029124805660179588, 0.029971901102799497, -0.11091491445023899, 0.09026000108649433, -0.01753200882923905, -0.012247682440066703, 0.005512626653596015, -0.01787298103213983, 0.02929175497423354, 0.09434357037299827, -0.05172697233665707, -0.09761434163251673, 0.0010925355084362687, -0.04366120753489736, 0.07655585846824098, 0.0513708819139764, -0.04808473361854106, 0.03371281683650684, 0.011691148265275987, -0.036597474635762337, 0.023378739063242063, -0.03416463976662639, -0.015492064328570138, 0.15382448716152997, 0.04629441120145678, 0.08757006840517363, -0.09173659139152544, -0.04697942961808636, 0.004280086507950888, -0.1315414106983528, -0.06840114691082205, 0.06745350193436232, 0.10758190529638326, -0.007130503430669992, -0.15042135068144696, 0.01684082831114589, -0.003298047565587483, -0.10975379936798388, -0.06050177307614347, -0.06396544820522553, -0.1286250063015717, 0.0027863636105402963, 0.012165499799915765, -0.14002810433565432, -0.005063533311971883, 0.1406183719014947, 0.04998519399751779, 0.005785554086981207, 0.11861062416331168, -0.06215053219986118, -0.03523443047973382, 0.05822210507565605, -0.049803727216740104, -0.00890515458678158, 0.0656312102203504, 0.000805533159625187, 0.00712055360453608, 0.11620330620082273, -0.011313581871233614, -0.021282237419989893, 0.06863479058423042, -0.053068690437200236, -0.06393011007459484, -0.0825955023255258, 0.030585618758833685, -0.1322436765231343, 0.019210088460078104, -0.003833976189132758, -0.058732050299405855, 0.15319650385711855, 0.12462791652596308, -0.039926439906079476, 0.03466401941285472, -0.04143914804718213, -0.013979812705033968, -0.05003999151154494, -0.05251022473901875, 0.006200539163223506, 0.10279917386721654, 0.037174243253772145, -0.04251169594083658, -0.04862408259593137, 0.028914304507100717, -0.05878083416853419, 0.02429980817338104, 0.05059409836412323, -0.11327402156831326, 0.01959691582404803, -0.026778704675484998, 0.023036368597653383, 0.047599886564922145, 0.12695482270229685, 0.05125757390179811, 0.05174549780710065, 0.04339298115428227, -0.06255280431674962, 0.03163826771516676, -0.06829968435230846, -0.07575822886485173, -0.008360676768030128, 0.12031948020309483, -0.0009584112310064711, -0.08295918894487098, -0.02649009399495538, 0.22315865648814798, -0.0019987653122112755, 0.056657961859733506, -0.056231380337691865, 0.07893882601317506, -0.07157465661513207, 0.027544443828057322, -0.060051098367780366, -0.03476053229403144, -0.05787927455992053, 0.14365603707710672, -0.037893738372874027, -0.07736710347189939, 0.04675712054833725, -0.008811996670219308, 0.10105233656785341, 0.022909967346482207, -0.20949444821289182, 6.642284063222841e-05, -0.09539647853565754, -0.02193146505370566, 0.04417757248801018, -0.10082508535047041, 0.05639078428189044, 0.0570006564382781, -0.06695290398533486, 0.04458389451259694, 0.27341073253288045, 0.054791218600500805, -0.06810301543554494, -0.03502861540395892, -0.014757429720374493, 0.0034205833126631628, -0.04585467126198063, 0.2461078714444699, -0.03426978004698242, 0.06289575244269713, 0.010410816362092705, 0.0421117554232931, -0.029104008042381096, 0.1106064132489422, -0.03989962044548852, -0.07406590254487751, -0.08649694677968492, 0.14111652187442386, 0.014739263389076013, 0.0766207878313636, 0.10939142407031653, 0.0068612786189349495, -0.011427096626247841, 0.024006899604820844, 0.055350804749085075, -0.0731501350147012, -0.013974033453920467, -0.06474084231064735, 0.015480334740903792, 0.0021988594645643606, -0.08944149139072961, -0.061537881454947374, -0.1127470897043007, -0.10028748681182069, -0.05587202559858004, -0.036289131713598946, 0.07697520322705784, 0.15187082402445398, 0.03172752296731738, -0.044013654524695356, -0.003959712892065156, 0.005087929592951843, -0.017592018132510216, 0.08865904656417878, -0.08784933516043426, -0.027029286338869456, -0.16524977496001864, -0.11101352840690366, -0.02878009326893589, -0.15637587212133408, 0.10095936217095278, -0.01985438975361652, -0.06452910469448908, 0.072232544152076, -0.08657467353047188, -0.029987277656885317, -0.06939085221722545, -0.06363767949226869, -0.05559273169666854, 0.031711301770842214, 0.045053465133055054, 0.1506243296470964, -0.03259341605739787, 0.01534915321668732, -0.005928779991909799, 0.07877394822666563, -0.035012155443422927, 0.04061494640893083, -0.04137687618397599, 0.04862547775895743, -0.0541632656396466], [0.009777360113746698, 0.020793216586710732, 0.09000863682804709, 0.011171127106209624, -0.07181952471717452, -0.04875158416880868, -0.05173810721925269, 0.04413470913762472, -0.10001779303870241, -0.05283359346332635, -0.11515906032300298, -0.11284094019284845, -0.05861727880971666, -0.018057299015600277, -0.007394575126442955, 0.0054624311538780815, 0.00964923568428697, 0.08597376144422929, -0.1381771295460653, 0.0033719726818972123, -0.01783397768886872, -0.032552849963410124, 0.03936022058548349, 0.10510151536776087, -0.04414515028354551, -0.014957308420178622, -0.07180506009926632, 0.05068794705425952, -0.0107078290585913, 0.07197076356771678, 0.0005013148146278293, -0.04470721432639618, -0.020925214811479104, 0.09768565210450442, 0.03995742699566945, -0.0013173872454416739, 0.061596447354817924, -0.19957828984029877, -0.004309072364046992, 0.07806574189551911, 0.1595012205652514, 0.032838283843024174, -0.0257584972898932, 0.05184168652793181, 0.1574408417654813, -0.02155727369286216, -0.01773842765902987, 0.04907271844630967, -0.09153731062799055, -0.05199461314660935, -0.011444193086689477, 0.05898051474908343, -0.08876204494724395, -0.04034431950149894, 0.11244873899849277, -0.029588231556567653, -0.08170092081737165, -0.06511135878812843, -0.014626645251857601, -0.13861557746586997, -0.03875793176235133, 0.09304880827888738, -0.05256962222440028, 0.039868824424800026, -0.06723910381653164, -0.03852991336391544, -0.056263116623669666, 0.009869881337505982, -0.09715703625631388, 0.09479675700804895, 0.04430545463225736, -0.014720772023783246, -0.04128176362248021, 0.01565012793358654, 0.06308622768389256, -0.0515940665823361, -0.0876531295078475, 0.12272560629852886, -0.00873578078897894, 0.0696567394577098, 0.0035618030875306937, -0.16149441029569836, -0.026588550475729104, -0.01555412571857123, -0.004950028501006394, -0.03748128402462144, -0.061467288906279303, 0.022569425859744696, -0.06007669086097495, 0.031922403441309324, 0.030126830369529504, 0.10388150663838025, -0.025452268324555632, -0.036417380467747555, 0.06590670189471948, -0.15928563054713465, -0.11580799657830533, 0.014738491833400676, -0.08426317592824586, 0.006547381051761307, -0.035650691916274416, 0.0025074202309686815, -0.16999394847860086, 0.021229096171217758, -0.04413450251317194, -0.04836786077062026, 0.06365231836086628, 0.0199959169630661, -0.011659343464945585, 0.1377222302526164, -0.058407397298644505, -0.12690491074552765, -0.1918777059507621, 0.11964666141380131, -0.08926860524579176, -0.0029726004047435006, 0.0821502557697856, 0.16024124268255802, -0.04235741028600946, 0.018341993234724657, -0.1324341578617495, 0.07064139521699529, 0.0358841730533252, 0.06350323354970276, 0.06103647137512857, -0.07961907748989507, -0.05020169074081289, 0.15147758407221978, -0.05584400489685917, 0.1567183195924797, 0.020467057344302767, 0.00727951120919232, 0.02082153832467294, -0.029958584107260443, 0.016815236205441824, 0.08619707763752185, 0.020136766553308733, 0.013345517944099536, 0.05215709188116721, 0.07369375566890579, 0.08741204127017145, 0.03494730068617174, -0.06181606182612377, -0.05470630120166275, 0.0017478942870767246, 0.05730328019858281, 0.06243929395908612, 0.08104537935632437, -0.005329863706314715, -0.002748147533168452, -0.02941925846149128, -0.1306750356550173, 0.09604496803369572, -0.09792331075456628, -0.0304828843266623, -0.03713238212919416, 0.013550520527109327, 0.1098468600219607, -0.0440729619380892, -0.11596748201596963, 0.006347876222438379, -0.17767248172077635, 0.03414847284850686, -0.02032041984787651, 0.0771518410081471, -0.15425198860519393, 0.045560817767623434, -0.060369251674110974, 0.043099953432145725, 0.06129038304442517, -0.15367241982363636, 0.026158842829835653, 0.03634799974264489, -0.04148366118493027, -0.01659987155202056, -0.033993059369267394, 0.21919938904731673, 0.04177387846104101, -0.07905552754922249, -0.09972760429873093, 0.05803869462147242, 0.07990214345357631, 0.03247075701007803, 0.08892736238979153, -0.11920587180395005, -0.058397862115156025, 0.0264399538351302, 0.08517000272356087, -0.013453358734759524, -0.05656342758356127, 0.06874949292619091, 0.13867311392041407, 0.1347055516600455, -0.05555023988337981, -0.09366955165397046, 0.052026271204948134, -0.033253074123916294, -0.08166470699656776, -0.062415809558577624, -0.004606641012697072, -0.06253456136688129, -0.0010839885952097824, -0.06269168969561544, -0.007129330077993039, -0.020106495541498477, -0.12792796010547589, -0.07854678659829124, -0.05395914970169207, 0.06117688004217157, 0.06312525572390781, 0.05956956178399263, -0.046487764976030875, -0.0336670396148422, -0.09375551091344289, 0.09356848225880596, 0.044255659587252215, -0.013705355876795035, -0.06330060363375584, 0.04150002483325093, 0.02368692986366479, 0.015285423655192532, -0.07674969454397726, 0.09091450344900999, 0.04447059555568766, -0.006476886662728065, -0.023655813102030597, 0.03810079669302661, 0.0032824153228027115, 0.03228649739448685, -0.016462777702825032, 0.12370730521325325, -0.13937806764075664, 0.13636911209390384, -0.0868750952712718, -0.03358493031789559, 0.1898916098781641, -0.03657962538868599, 0.03607779644610941, -0.044504401277474674, 0.08771171794362571, 0.02155401680938243, 0.03638184002404371, -0.04369888472591922, 0.024732481805308376, 0.046724642460433806, -0.03472110663344022, 0.06461724835783039, -0.012746356497150575, -0.020419695070072623, -0.012574769939105928, -0.07377058951842834, 0.09321181866529549, -0.04099180237183374, -0.14539423993092576, -0.05399590546141371, 0.10030528771971554, -0.00326825148408678, 0.027135808406450825, 0.15731284958240813, -0.22559855410850058, 0.023542370854396463, 0.04267189097669337, 0.11689018605793983, 0.050176409074472864, -0.016632354780124037, -0.019199143426504438, 0.02800554526149279, -0.021826647720099, 0.11637812220500601, -0.1056855993703592, -0.0305714339592884, 0.0756847204871645, -0.09803097576370735, 0.06136801356139135, 0.11069336234566561, -0.036688857294791884, 0.08102419970418903, 0.04636084874123139, 0.024707226482096636, -0.024036825012939775, -0.16767431666582036, -0.005025623307280462, -0.07624647674921854, 0.024834671321214957, 0.09404380045425681, 0.04075704329602317, 0.016537670958250962, -0.023809967118376192, 0.07536653808943837, 0.10234394639172448, 0.05809194341138362, -0.01677416928498027, -0.02605314847178565, -0.25373525641989425, 0.03827497038188112, -0.01004436605152442, -0.012827660688668398, 0.17524154928414082, 0.13893351113702462, 4.5914983815826556e-05, 0.12888049063795773, 0.0620041652336283, 0.04997617208081229, 0.14398238079254772, 0.04414950091001294, 0.06370821387458533, 0.07134560131535395, -0.07902238159363117, -0.11051198878619148, 0.1812711850807219, -0.06742170128767111, 0.12048358620635716, -0.0011727606983421139, -0.0003230767827215276, 0.08018899407258091, -0.000968127353187297, -0.015310596810627975, -0.0044211606831099275, 0.07700897722540404, -0.06103519035852791, -0.032149996234944536, 0.06866868837655728, 0.10848326661458274, -0.10527998575266144, -0.015755105229223874, -0.060563087247880086, -0.07928994316194694, 0.043424213087753745, 0.030330284266769703, -0.03381576317249845, -0.19087661262567804, 0.009198005246288592, -0.0003381856587648986], [0.002781844023080629, -0.00528141670080322, 0.03301053744841722, 0.01207372391778678, 0.0990963346566876, -0.03163706823899632, 0.11695506093647409, -0.01992574183327141, -0.1026458632319756, -0.00048153300065442695, -0.013317574576238347, 0.07259387231688766, 0.03466604877016479, 0.21348355285443657, 0.06490881289222124, 0.07833411122625027, -0.009612307794438182, 0.09381101029983357, -0.04002664347283111, -0.029693438114527508, -0.005567895601519533, -0.04582487412306743, -0.03951663218047745, 0.03400515089440231, -0.005746846386949894, 0.07852818534061488, 0.07639549449002474, -0.0752262380707666, 0.11166672294554633, -0.025734334390171164, 0.19435191321128703, -0.10059415543609326, -0.029280751232483648, -0.04709134671139978, 0.010334956287264068, 0.11179372822559563, 0.0023816939573569227, -0.029461648368643976, -0.008144265850593852, 0.06444764318321902, -0.07730295722979037, 0.03786316704162215, -0.04543304460386217, -0.07280549502599516, 0.1356156879437186, 0.040200116917333883, 0.008195330355767354, 0.04811121804922896, -0.015074385543865601, 0.019380735237941957, 0.009134660205918051, 0.10854010654383771, 0.09356685485582077, -0.09715781418166157, -0.04114416535037998, -0.0352611693409698, 0.1133235898081992, -0.0667989535571962, 0.050456971039912715, 0.053116651734124797, -0.026756082817157384, -0.008987184298965393, -0.08701678436509479, -0.03630933556619538, 0.17239886238950614, 0.08496989931603546, 0.08495268565430353, -0.032688779577504226, 0.0876309839160972, -0.02874189604724429, -0.009886650880581098, -0.1223383376238187, 0.031467569068312884, 0.11406058429182737, 0.0015950908089600445, 0.05045363593623612, 0.03499525705994732, -0.0031768642325324856, -0.04102442141376591, 0.03330564141675668, -0.04244416212305571, 0.1466690569456808, 0.07630782948012363, 0.006310084001493934, -0.11365695990719943, -0.014378076801243889, -0.07745461946191651, -0.09638034755069662, 0.020076678255315936, 0.08030483820661106, -0.014501404572991247, 0.04004210480397716, 0.010589502970413223, -0.002218919131940703, -0.037623982825691245, -0.013709531825034416, -0.005582236004011922, -0.07285028883513048, 0.1436318360403886, -0.016407751943650278, -0.07873673830187491, 0.04451231946662141, -0.030051317263382428, -0.040456099637108445, 0.01894067378976658, 0.012481927980858577, 0.16344292212442732, -0.023464563713468882, -0.03934356375288626, -0.025537018822260296, -0.003346685645158363, -0.1757552409124099, 0.011345537394302468, -0.0021375069316689295, -0.13296822881477977, -0.07922133566904545, -0.18011083981533801, -0.026175507207219374, 0.06556575097679249, -0.004288513744813694, 0.016333438857535774, 0.06310190646603932, -0.05136075225680116, 0.00981954471732721, 0.022700183281812135, 0.09263172541958102, -0.007229104076761814, -0.0021887877683801848, -0.01720561167548131, 0.06573169733097786, -0.15718260276702425, -0.009474955020480517, 0.10753306630819325, 0.029282010078709654, 0.17998923613360468, 0.03223342048088838, -0.12261306378565816, 0.052863892152369744, 0.08076669506623145, 0.07827306141867064, 0.03265526226964317, -0.06531955402103978, 0.028619237682132318, 0.03293355303584046, -0.03927629393126259, -0.00821171360188393, -0.1293961283040464, 0.10945666388386131, 0.06462655167798313, 0.06050868780480694, 0.1459486262420075, 0.018829479560147987, -0.1095471335571879, -0.15593317500907944, 0.0012694102112771975, -0.04056848043662216, 0.044604381330861774, 0.09322646517970773, -0.06819966119834228, -0.14905207902008707, -0.04898691257384886, -0.06617335609403069, 0.0033481126627819976, -0.0515966772952067, -0.03745550089967417, -0.03629268674584867, -0.06855659786816834, 0.059509178606580435, 0.12705786906782243, 0.1118257247926913, -0.029397649195729583, 0.08255850024471423, -0.061667240458001364, -0.026897747129453118, 0.06431265438920324, 0.015913095780948048, -0.05385151913378461, -0.04699052680423712, -0.062290819928222316, 0.01160155339800079, 0.09477742085303453, -0.03988831195638429, -0.06936875196614108, 0.10003112782938024, -0.058300586464492085, 0.07444713430925445, 0.023552019479881513, 0.17075748822293355, 0.0960122808357777, -0.014963192012620778, 0.06627500943519912, 0.0014995266034824512, -0.011283717590426299, 0.124227641850182, -0.24375278752079974, 0.059612910569764255, -0.05171091366975232, 0.0036611991191075398, -0.06974323642013583, -0.058271883217018206, -0.05494894546954802, -0.10108652970262755, 0.02427070863197323, 0.054416047507369635, 0.07097199422708875, 0.05604317779657402, 0.0061396762799277365, 0.07039359529122638, -0.10206444294690457, -0.09407910192418309, -0.042779728420785916, -0.005281865779807408, 0.012897450008557276, -0.0292228230328538, 0.015268227269978684, -0.12497700482064772, -0.07948595701030972, -0.13761252283680508, -0.042466570993793716, 0.1492422175866917, -0.03366515646468415, 0.11193468579370776, -0.06110758511162054, -0.05902051301407528, -0.1887034420853698, -0.14566946718326468, -0.06419165797963164, 0.02361130826724714, 0.06233599040201378, 0.08540828298313234, -0.0013435032984052252, 0.010904195633973084, -0.058568123892671194, 0.06973701293449025, -0.12047584778807748, 0.05726394375614385, -0.0035147071871817945, -0.05259653084142536, 0.01769983260567741, 0.056787407580784106, 0.04090122039637931, -0.10639009320237415, -0.06608562690100954, -0.02966353274894157, -0.009337198451458303, 0.016173479688731215, 0.011531468145273777, 0.13667909327728553, 0.11123726372976475, 0.06319844665790011, 0.05456856557542761, -0.026642581145546993, 0.06281241712694911, 0.07328827624843294, 0.0876402467209793, 0.038996715873244006, 0.046728429568457165, -0.03557646491120507, -0.1451149441845515, 0.014424302733671391, 0.01627955896812293, 0.07764421309042814, -0.09339430071069904, 0.040054324881270226, 0.008232288191384544, -0.1273977161929654, -0.10003419936461448, 0.061141738294152245, -0.04109733112808293, 0.0064512512348253465, -0.15445391367871522, 0.017532368941000846, 0.06551559163696513, -0.011993938931694802, 0.05378059240675987, 0.025045953893837743, 0.0554977500297117, 0.0005087648557515592, -0.11939782221849518, 0.12730081465972462, 0.021750881737301102, -0.10385947024875887, -0.02821458664060822, 0.05108915206539297, -0.09865934637681044, 0.009507184429062034, -0.08063679650391507, -0.06174698596983631, -0.12773810210572914, 0.013148738226979461, -0.03957323644489937, 0.08476559921138685, -0.015487648545955864, 0.12391485579905284, -0.01748070025710093, -0.0172291092401956, 0.06420053905850939, 0.06945263054985845, 0.14817577870160523, -0.04762210200957911, -0.051893967952117835, 0.0450014047221413, -0.05060553751662718, -0.0010914514549440688, 0.09181243831321889, 0.04901224700217115, 0.023381586076452222, 0.06390013137180715, 0.02203921220986943, 0.013154550096529707, -0.01099603680870727, 0.028489236815004478, 0.013130029489066114, 0.04796815198072179, -0.11150531060376989, -0.024183370771753226, -0.03823779918046684, 0.14369092882193868, 0.07502418328154814, 0.03560756732525085, 0.1256134560632176, -0.02777883309964403, 0.0118713620633315, 0.010708769617038608, -0.15432374813994446, 0.10763400389450281, -0.03230987153910904, -0.013414647251377853, 0.10385063120320444, -0.019067584423938553, -0.004426007187551871, -0.00567559937280027, -0.09059171234953813], [0.06191402952601845, 0.1430402234311262, 0.09120479600319413, 0.03240873151394051, -0.04597207727893194, 0.006417807955572273, 0.014170075240709339, 0.14490806660359284, 0.10377706029227927, -0.012273583760941514, -0.06722104764970231, 0.014163635738171249, -0.026750008279270612, 0.0200161457552612, 0.02830951123590272, 0.033532316532801115, 0.046476442026924816, 0.08201407009329789, 0.17526847315805005, -0.038510935217148774, -0.031771123348992375, -0.16833356648168696, 0.08114627525210417, 0.06734101620728015, 0.032144156704230833, -0.10355207231205947, 0.07982813631503681, 0.045420083616393346, -0.035238786167987285, 0.09281332016236694, -0.067933597069868, -0.04585503041828843, 0.03794631891917394, 0.10515005109858856, 0.026754509075497594, -0.0010642843346135194, -0.03463088421696944, -0.06055239911211848, 0.006323992236395995, -0.058193423174733486, 0.03099857660089216, -0.03372423514053583, 0.06657687992392751, 0.16858862067809055, 0.04015403098132418, -0.15268262718181683, -0.13417472830487495, -0.008267378376610625, 0.02315001794436212, 0.005208633307758859, -0.05123726156833522, 0.07441109220241142, -0.0731262704912325, -0.045913530583565676, 0.07325813936076357, 0.08286996654045929, 0.06876103665895981, -0.0002454498538026344, -0.021505416890894916, 0.023292630000063402, -0.07135153520896116, -0.020586784314086292, -0.08239998266881567, 0.026163320556202532, 0.024158050354585382, 0.1098644792680019, -0.04244889666419179, -0.17613918240542553, 0.08312525620507792, -0.18463670641146382, -0.010213153869119187, -0.07018516301303183, -0.0021848114211330525, 0.13430117115680165, -0.03770314275009006, -0.049148300962323685, 0.024999316441161403, 0.015316158678809873, -0.033098285400723286, -0.014647695522897557, -0.004187831192390748, -0.022049109314480918, 0.05763941532493546, -0.061831995954527534, -0.03721906368016615, 0.09732753440004316, 0.05696580725791804, 0.03204661910999742, 0.12276133958118585, -0.16119873019152212, -0.10267679437573617, -0.14209187592170386, 0.0507383845004643, -0.18903264407131037, -0.000624332323315063, -0.13946744298733313, 0.01496825397296458, 0.052780024069817244, 0.061632177349225936, 0.02895567006176884, 0.0005750524518781172, 0.012421545084062452, -0.036449222553749785, -0.07765210294608668, 0.008621357569617568, -0.2318632333307762, 0.014575082465783335, -0.11301887836586443, -0.09930519955883514, 0.06017370120465766, 0.12472560183983629, -0.015422837189857002, -0.005466034600080447, -0.03677177194648264, 0.07364872188058189, 0.11889246364601584, 0.025946363024562883, 0.04404069661993174, -0.18484335675370658, -0.06319477094848672, -0.1305988939809206, -0.03185664515091655, -0.06512317587351225, 0.0624037655846878, 0.08824773015313264, -0.04003625814906689, 0.07749971660193111, -0.0973634300308589, 0.02395280205778915, 0.0870267969631517, 0.05954542679273819, 0.05821211775773515, 0.07459920067885832, -0.0037035173632072415, 0.027825249914844218, -0.025545995612486164, 0.04780431401215811, 0.017903007057594574, -0.007903136768345026, -0.0994297403370713, -0.016224737462212264, -0.08047316978679732, 0.07113451387173837, 0.003170057823570955, -0.036359900976755406, -0.010472287604983845, -0.03247378995285928, -0.09282839634837974, -0.038427843204064976, -0.10263887308638835, 0.07251950264354724, 0.040130638851270044, -0.02349368408698153, 0.0983494201211535, -0.08556801047400703, -0.03189862234608433, -0.009253899499276422, -0.013799222367343492, 0.014381836915869913, 0.039258601364395754, 0.038483201252452914, 0.19250892968858183, 0.11558656337953781, -0.030951871060593, -0.057329747304939574, 0.037331524438331536, -0.0073219572904345605, 0.004397299970539371, 0.12286434610348362, -0.03279233321583826, -0.018231408445557963, -0.0485863798033788, -0.02642908387437692, 0.12000036464061727, -0.0037217248943055845, -0.033773768539784366, -0.16774311164859632, 0.07093989195891506, -0.046680072214465525, 0.049771601086362804, -0.1091602369603156, 0.1535738543306104, -0.039805009370507224, 0.04149740318161702, 0.14693539810488493, 0.010724389351625695, 0.021088374382456854, 0.05229694211093405, -0.06092611088614375, -0.08902557447528232, -0.014920635682326171, 0.07695699080270661, 0.03224913810392113, 0.024267796815696022, 0.1046836118324481, -0.21597811138680806, 0.027958498742562475, 0.17900278500869723, -0.05673126787925201, 0.19387403323114918, -0.06525652862780001, 0.15058011187747408, 0.0906120070918605, -0.10064937814368756, 0.04983191664016737, -0.05032144827835171, -0.06869484849048256, -0.08968641332082232, -0.08167689299162018, 0.15298159632018324, -0.04607798760910296, -0.006919282103208232, 0.018291198561761462, -0.006577960176189048, -0.1511352074203098, -0.00590420408042086, -0.05991959003389395, -0.051161783018049564, -0.023278489874462637, -0.037005932037654746, 0.05235584889307335, -0.06173207748375775, -0.012602465609133763, -0.015934960973338862, -0.003718497533106963, -0.06820274876986956, 0.09005543118279238, -0.10563460903175458, 0.13553446421227897, -0.05016249798072114, -0.031089406418115223, -0.06241195422789746, 0.011731801740405825, 0.06785510889027427, 0.08594275939401912, -0.09289051789343002, 0.13564221966435772, -0.009638471632241838, -0.09409034140382962, 0.012595769548156846, -0.07550281501977202, 0.0570314916601666, -0.08550328803011162, 0.0227072630542229, -0.08686537856875172, -0.02156917364024575, -0.09577204636834431, 7.176204852076424e-05, 0.004732444189242972, -0.016581258496719174, 0.05595900648112274, 0.02948830686082897, -0.04616234850482549, 0.05074770411852621, 0.03254173078043601, -0.05859644793022834, 0.13539721096309615, 0.026836777229318515, 0.14119280619405686, 0.02000098863668195, -0.058939930115868136, -0.08179838680187157, 0.000443066703097917, 0.06546647717628698, 0.1475085121677771, -0.0366745978147074, -0.13548056025936353, 0.09517725401901223, 0.09968257731010954, -0.062125516952757684, -0.04943875417391696, -0.043761178784630594, -0.009048249688255497, -0.03235658939265245, 0.0016439730156864144, 0.1270647358621567, -0.01975851333806552, 0.01936698074577272, -0.128103088875952, -0.09202357535102366, -0.052946537717873825, -0.049238519637932916, -0.021099850316637307, -0.07090108348076798, -0.1093356840462129, 0.024584145327559925, -0.010510080335606738, 0.05847009311859984, -0.054295674000566146, -0.07298594115504613, -0.07217697010129673, -0.1645569333735199, 0.10241736158286086, 0.003735579279903524, 0.06270924319970068, -0.11198702762222636, 0.11825108597776221, -0.034798134527139424, -0.013187685165912908, -0.15627851887063374, -0.06256159949560719, 0.10471619275590875, -0.08212476202023024, -0.04908484993628972, -0.050338382807302615, -0.08837382437053971, -0.0438065752421757, -0.04995677902150948, 0.011202508756963141, -0.16242899932106086, 0.047824074021070716, 0.026363341271335317, -0.015386082635718579, -0.03300799100740368, 0.07665251868184225, -0.11255772224453564, -0.10305844823039871, -0.03475948716566413, 0.10412710371388825, -0.006024780831229444, -0.013074434995492554, 0.11135262781880612, 0.06284141671788494, 0.007026345631370429, 0.023237852712319814, -0.1437877493546452, -0.024049407859141777, 0.12149146451055018, 0.15831673543520505, 0.12370946124569696, -0.02557377723966087, 0.05208142692613175, 0.04328351283689314], [-0.07029110552109395, -0.06413593377618268, -0.12303265646228952, 0.08633284741363377, -0.025977391715917144, 0.007554559349150943, -0.024568846716135895, -0.08560824394109601, 0.043618857130625216, 0.008951916604317368, -0.003434798345530476, 0.10228786377268291, 0.010524995302461712, 0.10592826610985161, 0.019769624774670536, -0.016548862798909377, -0.046907234498534914, 0.052194491626193204, 0.061023273412570404, 0.06092235605286687, -0.015123918362212526, -0.020816019961031555, 0.11279959407919067, -0.030463526587552796, -0.029109774174579144, -0.044388140898714436, 0.0908377088043996, -0.12853857016081963, 0.016235777182738453, 0.083479660604933, -0.12315282203973331, -0.08097052156790394, 0.09103068983698584, 0.18885270068191518, -0.05931897929626386, 0.030891075807702926, -0.06891801297600725, -0.10325703365797358, 0.049585122745640586, 0.23802654937277096, -0.0834287089328243, -0.04086371979551334, -0.19750404309672362, -0.01354016585130598, -0.025285509618334742, -0.017742919217272772, 0.06907365479106316, 0.02965113912295066, -0.08931827438718971, -0.0355157784330285, -0.05884019126175366, -0.05387985439293093, 0.11010223804863216, 0.0457588529832746, 0.018018821530715833, -0.14749403304764533, -0.04529427381059519, 0.0008691857589275939, -0.023672976201492342, -0.0021861320967515746, 0.020374543766893655, 0.05070459116830984, -0.012266932069558626, -0.12969005968820924, -0.02613053518121957, 0.10130054812067935, 0.034697814997563955, 0.06175872089999823, 0.057355720251355574, 0.0039238127147310006, 0.14340166381568267, 0.08294163797270614, 0.11432289216782818, 0.0807371430717847, -0.13005894557998166, 0.12551889280590348, 0.01101641263091507, -0.05685623328786606, 0.025791987393547416, 0.09653885357772952, 0.07813990971006812, -0.03649444847751174, 0.012251678598236676, 0.12760140741701645, -0.10045376397772626, -0.03837340959025964, -0.032121172227059014, -0.10013286907611749, 0.08155395623323737, 0.12120723256440574, 0.08831171774952842, -0.008069181748440991, -0.12575881287662904, -0.078621384456655, -0.04975719175781032, -0.1944729928502464, -0.085559857691286, -0.03793665042738511, -0.11126984876242181, -0.09637317180507096, 0.14480767147724238, -0.08900646362511665, -0.01330743423414902, -0.03661586657716356, 0.21917515276688407, 0.032239431134191775, 0.07541685598796992, 0.06463698806654349, 0.0020302706120524892, -0.18751465911398715, -0.014925202557091717, 0.1396882708467881, 0.15903383374100713, 0.015447985048235274, 0.06285787488651187, -0.12968925650588176, -0.046995969424640884, -0.09468908061179578, -0.04541187584197491, -0.00017946143942906817, 0.09425533163984623, -0.06478586770778982, 0.009612453805342603, -0.03905017785497933, 0.07860460812505157, -0.1156998177830708, -0.018225432275955494, 0.15184957125828025, 0.11768404999258851, -0.04380408157887446, -0.08913073142055147, -0.0036838115815640117, -0.13287391326620232, 0.03995806268347589, 0.1091784907232536, -0.010154498660930121, -0.02148949766783807, -0.029403558154061933, -0.025583739912319478, 0.02120563627035414, -0.1410152028341981, 0.1773771613593569, 0.03118335964630659, 0.06263157339857163, 0.04377167743892658, 0.08524261197094794, -0.052214590793745984, -0.005928697514095443, 0.1841667414417751, -0.11151191412337054, 0.08870358822454141, -0.043937474313100265, -0.15885622398668092, 0.024523628716133745, 0.01837901198378859, -0.01882301023870337, 0.24352974703153366, 0.0536943069594906, 0.051055294880820015, -0.11268607026991594, -0.09715083011155573, 0.0024188677352114376, -0.0030466400257935567, 0.18017613790811376, -0.05248259565740332, -0.061430131155561236, 0.07829441168504814, -0.03512351660485401, 0.06996270699886362, -0.038519894946556554, -0.16614186165660785, -0.09928206175673104, 0.034140131224094095, -0.08875414683876731, -0.0301122118285266, -0.061343996449682026, -0.01644940625911941, 0.050386969217128146, -0.053035930261536086, -0.14278750005771815, -0.048594019131883305, -0.1236979026970213, -0.03074864135511476, 0.06866706099955731, -0.06773702275717515, 0.07612703049411065, -0.042861685297869635, -0.12221614284777817, 0.04490776858684584, 0.015909239536439197, 0.04879177275232385, -0.08733908298736867, 0.07768174244713089, 0.05898516520243967, -0.008828134369805262, 0.012079588149555036, 0.029971158178976606, -0.00017777901183582207, -0.003735719440348032, -0.11879450922899909, -0.019204361114509128, -0.06367981517111079, 0.06491392060854415, 0.0692017091021011, -0.06919860429810934, 0.1470653811010841, 0.04566068107112582, 0.05646013853253154, 0.062485749653701135, 0.06695679776358797, 0.048255079236278184, -0.08938845795980277, 0.06107404740455935, 0.060093043287117696, 0.06895616529790892, -0.05171316597510814, -0.07886472212122714, 0.061431279915233394, 0.010880905578643634, -0.06903396000183941, 0.015118868596462401, 0.04494032515228131, 0.011499536349323911, -0.006983085417151259, 0.019782902807978706, 0.10965057436720577, -0.04738514324641439, -0.026089530071191244, -0.10005461506669416, 0.013035357660933465, 0.035016198804786375, -0.014928824811379868, 0.05344020355871915, -0.1117044938764635, 0.028557696650760165, 0.0044148161100341435, 0.0467293677520454, 0.0521502332070183, 0.10986437258467592, -0.06858814425772697, -0.05955106516463114, -0.09328902523636907, 0.031900012621814355, -0.021544744561566125, 0.14539269841390712, -0.0001810844353926366, -0.03410138988278567, 0.10625811254932142, 0.018941712360135938, 0.10027658196455234, 0.006368056806989284, -0.03359175951470615, 0.07137780800408727, 0.022107169331637287, -0.08274440617394642, 0.036802599260797556, 0.05617376967330347, 0.015794607526290052, 0.1245319445038045, 0.019785378582220244, -0.13321400768631503, 0.004229561339514358, -0.006180541947984728, 0.08854300775351227, 0.047211310727789856, -0.07054753029076623, -0.050147234895547094, -0.06870474364477445, -0.049612523448127034, 0.05900424520636943, 0.07828828313715148, 0.11006132275632066, -0.045724603247737285, -0.16974456882891628, -0.10332119899824588, 0.07469428743576173, -0.11901883681879526, -0.12663909224905187, -0.06343963882446586, 0.029728604710553056, -0.0726044310982848, 0.08659682991216353, -0.011112955980929911, -0.03624392096046696, -0.07459218948035065, 0.06305563007954902, -0.011283779392003777, -0.09358183205057564, -0.1380115517184846, 0.034861390692587445, -0.08094273376075828, 0.0382519190403078, 0.12494844605001655, 0.12657944462552742, 0.03793145595958942, -0.09355156994725204, -0.07536288395322648, 0.09092477150913415, 0.04526967398591386, 0.11232095477241887, -0.15644983077692406, -0.13549272804998508, 0.25217835919647624, -0.09376562843644183, 0.09877181840175077, -0.018879431752307687, 0.03995953112792936, -0.08864877923307056, 0.08005423793559786, 0.15939850956744023, -0.00962190296174405, -0.004020618774049889, -0.05661480331557049, -0.03887865204103784, -0.05289468291356533, -0.08441110607654792, -0.10540041547491927, 0.05745891314062452, 0.012453502307339846, 0.02193763751941574, -0.004869764754043629, -0.06386295400246197, -0.1520575592637663, 0.13782962236053398, 0.08713000240333235, 0.050541402863525924, -0.025980879902737602, -0.0033095721637173784, -0.007099895793594911, 0.10340772780635824, -0.11099977018891428, -0.1012074502542473, 0.044608709949453436], [0.06440984041248451, 0.04341896591715754, 0.03259264869198723, -0.042111826979167724, 0.08928830244477605, 0.04569909280209174, -0.16846025910312262, 0.16160993228172257, -0.011620382649556555, 0.060392591101681846, -0.033021705974430514, 0.1312784676738842, -0.09243447963999829, 0.0863159528283027, -0.04028626971310843, -0.07958672755050293, 0.03202778709248091, -0.008465195649319492, 0.08869343416928915, 0.08048471584529283, -0.16735535306376614, -0.11817891824660083, -0.026582468029240455, -0.07268535476312227, 0.06992706188490812, -0.10347388337947182, -0.0878204146205836, -0.08577749190189458, 0.15154695000343685, -0.00036040949292503083, 0.050953895181059736, 0.062449827911060005, -0.0016628750320867186, 0.056695618496962585, -0.03730926799271192, 0.09631803600679462, 0.021101265052239367, -0.045912649177402606, -0.07974393239055405, -0.07111455841514415, -0.06955724244182677, 0.09265293162822574, -0.025365579321777017, -0.015269545463865304, 0.04329213748507467, 0.11508904970397232, -0.0639382620824142, -0.012601698722478145, -0.08927934080694426, -0.06353249624402954, -0.0430618050285434, 0.09870292822894741, 0.008444089006315261, 0.025341683050291493, -0.15508464181336443, -0.1229910540917362, -0.09987063420903641, -0.0973438045363477, 0.10311180364819018, 0.12168440211657468, 0.06018307546158538, -0.08627069137401819, -0.043101476371727294, -0.07785615533911913, -0.014442605619033435, -0.04541207466130434, 0.05956233387765225, -0.09687939471195843, -0.14786885616357592, 0.04980098488019633, 0.1416894659483581, 0.030181372158134132, -0.08153367722930753, -0.07813288298690904, 0.0018161341160972887, -0.012506891924540138, -0.15446072486391899, 0.014614771945729986, -0.0625130801548027, 0.02318948865318039, 0.12410122638123998, -0.07006329623180994, 0.10745126724181449, 0.0882350328594086, -0.040090992077460356, -0.055939542481085326, -0.1615623504907836, -0.09107297861280628, 0.05713824927717448, -0.12039323449578446, -0.015790792051184485, 0.11107607823858126, -0.07726422998840346, 0.0422621690018469, 0.02334486146243986, 0.0474992744739336, -0.07962664849595368, -0.12352626757769858, 0.006384178838313611, -0.11208142084067525, 0.017601277598723954, 0.08985906853297762, -0.04060512102326962, -0.07563934382323666, 0.023301117860471572, -0.12662675958489675, -0.181057506552911, 0.10425116858805841, -0.00882876266474395, -0.14079342379654355, 0.061889848677771725, -0.09410397954262309, -0.02298801006503034, 0.05696911980865058, 0.04492650741826732, 0.09624011719907287, -0.10481641827182545, -0.025984169870105468, -0.044549019144313286, 0.01716213875020775, -0.06145841774029554, 0.18248895321457453, -0.004071373219706853, 0.022498685585434875, -0.11979679716192562, 0.18479925142249182, 0.08785360455307473, -0.05252376028620904, 0.17321807549302448, 0.02969656644436832, 0.01538954840072335, 0.1482761130072053, 0.08160541867895267, -0.04392042421579896, -0.06238913134438072, -0.0800887933568699, -0.0707269519102122, 0.00921414816971038, 0.06485487466532461, 0.04991704240251895, -0.044807891400392603, 0.009210097966612091, -0.13150902303369066, -0.09815129961295865, 0.021452665919441564, 0.0765040874857338, -0.11673646038321879, 0.11212888287696547, -0.07680394979355593, 0.12720416658532271, 0.031111853166287774, -0.019890444754671693, 0.07548557436854564, -0.04964273660313284, 0.10225308049743732, -0.03876339717357193, -0.08951515589302342, -0.11439799078854161, 0.06544758204752024, 0.08639775304589153, -0.08175863480993732, 0.052088440042821954, 0.026702719033969202, -0.06278380424766164, -0.012306590887303544, -0.004466270615217697, 0.03808498273278369, -0.08099406676980629, -0.1261463920706104, 0.061443616886234904, -0.06707288568091874, -0.02182848743403361, -0.0521476430136226, -0.046836250614815104, -0.07220934384063032, 0.0370551751866781, 0.11092214379787259, 0.13099399866085637, -0.11052763350665382, -0.12322887502906765, -0.050085803426238876, 0.05766052954387557, -0.012550028361083751, -0.09406762633293263, -0.054785396405186905, 0.027627355943813645, 0.11638223759005255, -0.10493471878122605, 0.011306007936550597, 0.008376367915708336, -0.23147768658534013, 0.024958239259569425, -0.0049246791105281625, 0.006729720585038947, 0.02787027592523761, 0.10563720369174612, -0.029183608610103547, -0.12220470540331155, -0.019975946192419713, 0.03480501416434513, 0.031010340218051873, 0.1547648995978316, -0.013788911501028978, -0.01810273904003345, 0.023820575988793554, -0.1264970865409185, 0.029485235181978646, 0.028413691400249522, -0.0844904692276144, -0.06267102248779528, 0.03694636900602943, -0.09197948983760787, -0.02713146806448309, 0.0642353707549571, 0.053355760946113495, 0.00617062396960108, -0.07831259483154773, 0.003406647911965506, 0.02037031431568911, -0.0028197855535119906, 0.010922461712808921, -0.09402938124846348, 0.10099403186576462, 0.052712796273763074, 0.01655548769454312, 0.014759800621511918, -0.06922143795540966, -0.006033343614062625, -0.012642343972382444, -0.015178482032651831, -0.03079047002109095, 0.011191288266821264, -0.08558709285851773, 0.00016086510577027248, 0.010680004456060602, 0.10120189645050545, -0.07794106065332604, 0.01956413876013468, -0.16733077286988507, 0.13329077264930692, 0.00048617735706744453, -0.0872837740803954, -0.055895575045582645, 0.16293860472635754, -0.030264372422994255, -0.0226878914982223, -0.08508680822583188, 0.005683514938766958, 0.023368964882851916, -0.10612556084054334, 0.03485350742711063, 0.027765624203584558, 0.17510761867269348, -0.06173714494525353, -0.02061783864494808, 0.020205713618572443, 0.015902159873276495, -0.04525275416743582, 0.08760987420186814, 0.0433509504414321, -0.029719429309712955, 0.09010454704998162, -0.0019727100312830893, -0.05015511795795948, 0.05492314168168065, 0.12337016789239563, 0.03490158056145278, 0.00024109848985993089, 0.11211854703116604, 0.06157048921862867, -0.045402583323518354, 0.13927454129236158, -0.05355976043882017, 0.058110084117900626, -0.0766535970509137, 0.13258217229342462, -0.0688118204215902, -0.0011621287645031163, -0.0239133053599494, 0.008757873976278495, -0.0777830204668824, -0.013203483371014398, -0.14974771914796214, -0.1295700452749403, -0.08369885693223447, -0.13552009665664538, -0.0020248900618957933, -0.05835497148210335, -0.02122790555036103, 0.10529604923741066, 0.009428335562637953, 0.07709447578454705, 0.016007935412515117, -0.05008285562856439, 0.10560342997818027, -0.06602069600074097, -0.060933933992841645, 0.0005403954600788355, 0.05007798474710266, 0.0838818323749345, -0.060530130261193416, -0.025777808047735985, -0.18849283198594158, 0.0015985077318891269, -0.013341689116715879, -0.024970294638347264, -0.04688909351907715, 0.10210180995312235, 0.07420620836054762, -0.022713234934252244, -0.015747058053606978, 0.1335357729949604, 0.06774523597367303, 0.028049908505107624, 0.008726440710914841, 0.01934264011771998, -0.06256527250403407, 0.03153691205401603, 0.047994742949778776, -0.15099426989133327, 0.005283744159834412, 0.1674950351059056, -0.05559085806302277, -0.016507636411204493, -0.08231711225759573, -0.05892149741628287, 0.08569907904679745, -0.1891707066227194, -0.012898549937431834, 0.06777834162576661, -0.04302587567419249, 0.01985796727563011, 0.022036324231465978], [0.011806290029408938, 0.024471165741163925, -0.016438899233595324, 0.025116501515291625, -0.054016933323493825, -0.05128913520250025, -0.013034548862422021, 0.02835759295339521, -0.12089824961759074, -0.060032399065984864, 0.05031919247197547, 0.008443026862583745, -0.07389843178962353, 0.14689969742491268, -0.1319024369960881, 0.11421897949317404, -0.07064934588632439, -0.15170633950218607, 0.030681616727739256, -0.0621987485294445, 0.01397968214841365, 0.014909478811830263, 0.005577400842937878, -0.016799860903684315, -0.022911664015392873, -0.039754852299864606, 0.01339592929571441, -0.061886369732037365, 0.03244281409781018, 0.05129402119660235, -0.08355680112819247, -0.22137883612727235, 0.08437469949121204, 0.03170925924818935, -0.1378497283089299, -0.06660122950249693, -0.08140811146935194, -0.0814903727878726, 0.17686782938785264, -0.09139935120558386, 0.009384033593275849, -0.07845396518526589, 0.0529656983267388, 0.08256806606740871, -0.1722051701512101, -0.1010527440784073, 0.041715033494355166, -0.06131583556110295, 0.01551432095203516, 0.013464804243939452, 0.039636147163563014, 0.007965273155615297, 0.11622126587970492, -0.16878287348161378, 0.014762276520500162, 0.026457284432548443, 0.06793891802980019, 0.19530244427509147, -0.012034470549608798, 0.016544448391321267, -0.09304520108888038, 0.14015590291716493, -0.009421571024791749, 0.051365063446476775, -0.00800143114613863, 0.06239614313268682, 0.024208901871414515, -0.07152217292654464, 0.17924857224238835, 0.0665426536235246, -0.03028159628124364, 0.005640094413002777, 0.022708773976899212, -0.12378978070173054, -0.00268390576021875, 0.03905819362392203, 0.08879242226124066, 0.051116252629186405, 0.01733743493251953, 0.07500197847659017, 0.07180495161456346, 0.005974936071274302, 0.09605667284691015, 0.10636224103179473, 0.07347101915498791, 0.04802376213390987, 0.05347798433945831, -0.016075623024823436, 0.006085990413387488, -0.09822214239333873, -0.0008340738942403005, -0.015177873239602268, 0.05352251961419158, 0.1349107779436661, -0.07793950706690886, -0.015886571906137053, -0.06615216454722037, -0.02660098815481327, -0.0703806946826376, 0.04826487782843777, 0.003203994743238466, -0.038713704951074936, -0.05238475785313381, 0.06394183270626604, 0.20439273113322834, 0.06917327828077129, -0.0908220935115463, 0.15450978047452255, -0.0517176724430373, 0.0029314102162797608, 0.02425563276385151, 0.07635094535073415, -0.012619766732926465, 0.08048943698544232, 0.10603709354002198, -0.00016042623889347103, -0.005173906520552885, -0.03566033063108956, 0.027471159227930288, -0.12388176247066757, -0.041938777417701, 0.011735318787887259, -0.06442115327614509, -0.026120488746594003, -0.013990950247813147, -0.059229297667746435, -0.047835713957683476, 0.049935289649956034, 0.0041332231451885375, -0.06743427278636532, -0.08907859773890953, -0.00862605297516249, -0.03683289902485382, -0.16155026722542876, -0.00020043144540352344, 0.06154852585555959, 0.14715931765132956, -0.08716604392403202, -0.02086281503291962, -0.03983144230708628, -0.13622205746622545, -0.02132836889922497, 0.10056466758436008, -0.0992185667635752, -0.014326535817825246, -0.08274854508752967, 0.08779226476294269, -0.08807459754336697, -0.022174778487478054, -0.018496208565332337, -0.01969088360284936, 0.11694846418842857, -0.02327334169759167, -0.05581887921743507, 0.03941870138270175, 0.09206850758854386, 0.0175748029194756, -0.023985517888393825, -0.011300375923950676, -0.06942976477484279, 0.07129246999893844, 0.08214543634652478, -0.024459684000507454, 0.1304134157764284, -0.05999780986306317, 0.0753364710334978, -0.054749172034617793, -0.06134975054731237, 0.07728110746641878, -0.043645219784882006, -0.15480583655114913, -0.11547754738993984, -0.05119004383432423, -0.041140867462992704, 0.0069154427292497656, 0.04943013694570062, 0.09430006664605518, -0.08243504837145882, -0.01996069040721105, 0.033956658947547444, -0.036462211860141105, -0.1961361677754705, 0.005938415510419123, 0.05256016074118919, -0.04696900848923518, -0.045051663728591915, -0.06687944585789102, 0.025906980811653966, -0.004575582671465384, -0.0383157105588091, -0.02872220948894577, -0.0034140184150325565, 0.013801515528619853, -0.048177537063706186, 0.148606543957638, 0.05083837870333869, 0.035306771886859205, -0.07076177101211623, -0.041185599628896306, -0.10121863308776403, -0.024800643664103558, -0.06898225720686231, 0.04659337806615438, -0.03339433209836404, -0.12559291491183483, 0.09995354276710795, 0.03550659678827017, 0.06020844854283969, 0.02989525690888184, 0.10294270944057912, 0.1206488859103839, -0.0024103118290581273, 0.02454135715793648, -0.03889094920472734, -0.038707141511223196, -0.08133113606503137, 0.09212331070915526, -0.033668381815317706, 0.0013076183475590347, -0.0017296547723843502, -0.013819585725130843, 0.12307810111073009, 0.009828856491276091, -0.09393997530505323, 0.04588592431170445, -0.03751992749122283, -0.04400746385112431, 0.037904346278286524, 0.04345938956658522, 0.07256463422809056, 0.019231997127489686, -0.036708147509333336, 0.14491551517672124, 0.06034182462301706, -0.04657651986112213, -0.10463228704215646, 0.12007605514255013, 0.05963833579212719, 0.05224277383378832, 0.19662250445230312, 0.06978671283103323, -0.01677433380682921, -0.048209620790567856, -0.025193373395934797, 0.11544372014595594, -0.09831054325588585, 0.11342685686321324, 0.010092102857443486, -0.015660060912495017, 0.029109878121661454, 0.20568628124964594, -0.09703234916966048, -0.01718731017411478, 0.04346696882287847, 0.039900699460706034, -0.04415113229602463, -0.026775559221410058, -0.06909072442123129, 0.035625158516587485, -0.07649638443738678, 0.019336217736358744, -0.08661782921481329, 0.18868407686157723, 0.12318638060253861, 0.007105944136318244, -0.005385343938826819, -0.027889545559851674, -0.10920561109736021, 0.020352931875668133, -0.032841711782432545, -0.21988959581053516, 0.023630145430559007, -0.03281895467262788, -0.04094999167591517, -0.005899065632145782, 0.02783886309502726, 0.007774028370156381, 0.11555576749443493, -0.061082789396993624, -0.009933929126287681, 0.05704576962570699, 0.09798806354017699, 0.01026575517318181, 0.01586128588087336, -0.07231899642765742, -0.07799056899103785, 0.12313864633640487, -0.10802429192178875, 0.01885872808830443, 0.10304873422321283, -0.003894550562853165, 0.09513478383791064, 0.01525185418385858, 0.0376922702654464, 0.040015005472259904, -0.06136745263511646, 0.15004676013661117, -0.07024060212629296, -0.07977482527513328, 0.06345559923140867, 0.01710221491433508, -0.01357034987176295, 0.016368491648887075, 0.07456347001940038, 0.11852027175924125, -0.08594866596965535, 0.10860995651044258, 0.04027952863555597, 0.014674257915418858, -0.07804539173948552, 0.03434780405074114, -0.008988169509927375, -0.044734626867550906, 0.09080717523588709, -0.010335482033431922, -0.08901327433521732, 0.18092421899951683, -0.127720239877598, -0.00046449132302368114, -0.00782642943113507, 0.06280481881872638, -0.03354073646407269, 0.07873846235420534, 0.08858232965865408, -0.08275969600126235, 0.014315050049570744, 0.009567638457408227, 0.019035160306213453, 0.013865875857322888, 0.05440253545804524, 0.0012926965746341325, 0.14100543526345063, -0.015536634385911864], [0.027183918953379432, -0.06288500907921618, 0.0003086365602534131, -0.0648653218515436, 0.12121879191803205, 0.025412339410526327, 0.048523788896101205, 0.06704550054853876, -0.048438817301920574, 0.05589332666707139, 0.06868700061835746, 0.03889362472143346, -0.07634842005405035, -0.11756263092483991, 0.06069420243497683, -0.10030088420487242, 0.05031004231495367, 0.02825431438624295, 0.011362259577776963, 0.10229241077944062, -0.01004912360122347, -0.04455119461091562, -0.024709982063597678, 0.07374740784246339, 0.05481559505271617, 0.0898311943975045, 0.004940640945939679, -0.03713430999752214, -0.01954301500916812, -0.04479964775156194, 0.042005779631391495, -0.15265946963666815, 0.1331203735236262, 0.11641017720166223, 0.1296629619569132, 0.07175806141328192, -0.19458687971307081, 0.038356342488098244, 0.02732449260721984, -0.10647550794823166, 0.08319429590414966, -0.14131227161871512, 0.042904551077068975, 0.060143398351293065, -0.00023759456910404524, -0.03905635853307966, -0.07498641603286686, 0.08351787336352699, -0.06491802403207264, -0.1410936210296306, 0.03826486517862085, -0.025242074817408207, -0.03958663178684416, -0.0016054272315272412, 0.02609891133559899, -0.10230961052904272, 0.05440899017589353, -0.1646756403874268, 0.03291438237646043, 0.0350909581203073, -0.06627457184646916, -0.024191605504493903, 0.01144299767904353, 0.046896689547506996, 0.08054634123312648, 0.06192473790628755, -0.10415732847201516, -0.11092052003861487, -0.0051228006364604055, 0.05256841900466297, 0.0911040767280956, 0.050714520920121416, 0.0539683502200632, -0.08858523523521686, 0.008135555991282602, -0.11780250355676639, 0.01833505078150894, -0.01612132654695027, -0.19785048511080988, -0.009814110787911886, 0.028989306400071253, -0.1428090578011868, -0.004071766299915468, 0.05990155313096087, 0.01575761934321713, 0.0051753449432602365, 0.0969949441208376, -0.027540972379886012, -0.047635918077004194, -0.12693028560413458, -0.10321303094436823, 0.18973695290179945, -0.069267940202053, 0.01248569467925672, -0.10412531977958976, 0.020008329339769308, 0.026092353910221654, -0.06924856675748896, 0.01987265753428614, -0.0014759942242127918, 0.023551364788597675, -0.015931514676879345, 0.21122416341115033, -0.07089035754619004, -0.010463881568446116, -0.041907306075487503, 0.0287086366942441, 0.037175583434884286, 0.11182545507996312, 0.020117363036145558, 0.06554221919616526, 0.06426515656135989, 0.05744470658886461, -0.018603268724901065, 0.16203419474912475, 0.039258175323770746, 0.04575325106716244, -0.14408309200746575, -0.08907329469411224, 0.08474670732369972, -0.019385668706823882, -0.020033093940847374, -0.12012800757157288, -0.051260488179605886, 0.03417048010438475, 0.10728417916248066, -0.08371798479443444, 0.0021793634258999847, -0.022026256962913587, -0.005600011366114958, 0.08753352730271848, 0.02889978730251477, -0.050390459302137244, 0.02508039355072259, 0.08878762148209296, 0.07046300484672584, 0.017320657040756977, -0.03866261722461338, -0.08808922971455188, 0.04970074281847067, 0.03191667454193193, -0.05705567029779489, -0.16641316367092715, 0.006959665090800525, 0.06860501515777245, 0.07683724046065736, 0.031075370153899023, -0.011136783981961561, -0.06213563845063131, 0.04405334903367757, -0.041941309542271474, -0.014654080492437108, 0.0033110811046791287, -0.19901133740991064, -0.03359981411957442, 0.16144768005168963, -0.004432871623468112, 0.0554000188837572, 0.1187295585629953, 0.007048852826416991, -0.04907598678511198, 0.017542943827023635, -0.014638101545262058, 0.12411452515304122, 0.05822205756465004, -0.1410918700150814, -0.013243712102577262, 0.07046545189894778, 0.007529617742908148, -0.056696585351737556, -0.07494549888927492, 0.02629378798225037, -0.030042626019332636, -0.004817883398101617, 0.022220530883106205, 0.09474253276749112, -0.009834427285220207, 0.05730720023243655, 0.03534885707883648, -0.06972074562678772, -0.030420706833751938, -0.04378655711397328, 0.013175008360651748, 0.014087183666029995, -0.006467426463119658, 0.0739094600012871, 0.18579295384858932, 0.01281775196000608, 0.08753635908157631, -0.05729464144427037, 0.13500580656992706, -0.19357678663151512, -0.10926846587815796, -0.08263396072421858, -0.01955736506817667, 0.13891568495384782, 0.08218696930581328, -0.014453976790649591, -0.10814635510863557, 0.07230886268563756, -0.017630587687426015, -0.029428962795237677, 0.10550546156878782, -0.06496389848691222, 0.07582066711939849, 0.027334905834586393, 0.03531179943375935, -0.05785410952770289, 0.02470811439739436, 0.06650725116371457, -0.10580408571681868, 0.025784277153275113, -0.04706511160816541, 0.024732203498164372, -0.11505839031751057, 0.07943918011314145, -0.03263954981661089, 0.1601100451074494, 0.021746167657081577, -0.1337425214403444, 0.022359521280180532, 0.016795465578521865, -0.15458045124470432, 0.01430637591863468, -0.10933824980808453, -0.1431961974077879, 0.002861177164505539, -0.005819364611378429, 0.021059461561120214, -0.046037361062015635, -0.028339578787582163, -0.09980362756775073, -0.05469825425263432, -0.053334799510411576, 0.022285257506180323, -0.0767896758717836, 0.03456441238895928, -0.01072228830681422, -0.004571763460871335, 0.06637130703041953, -0.10386544473659212, -0.1213948761887401, -0.06400623543217462, -0.10279790121144755, -0.1695094296811512, -0.007649887046747089, 0.02985897428142804, 0.09401682873515416, -0.003290213721865932, 0.015925604811907704, 0.054040162504591586, 0.0025344383651441224, 0.07320226486110512, -0.048828718453217235, -0.020053280062716908, 0.08849709591074274, 0.06427832888748208, 0.16605557786158545, 0.19231947142422826, -0.0006267614575924976, 0.048754719367975916, 0.05688186882343536, -0.013633539109130515, 0.11872991883458237, 0.05688453214988956, 0.10005786383556359, 0.10006673384934107, -0.006131787753807191, -0.050217035230694436, -0.026269229634997015, -0.029680980195264575, -0.050128475963477644, -0.07496737508214146, 0.039375094813147375, -0.0708681032862038, -0.00792919257478817, -0.041076776762469874, 0.019064589770008543, -0.11359005954935208, -0.03281925444790508, 0.0485715184902415, -0.016810351994289718, -0.028298929108614247, -0.09518118228049866, -0.04233904189635206, 0.09970820437251425, 0.06192364094050021, -0.01764609705001396, -0.0575513691659259, 0.06010202574396157, -0.11397843156750058, 0.02292790190265281, -0.01447307551983585, -0.11663014794581784, 0.06031414305153677, -0.05381170603625588, -0.059750944257688184, 0.07612224210731891, 0.012776273638327956, -0.14006060856516114, -0.16374908326770518, -0.04008673195384144, -0.0475804047883992, 0.05795004366483005, -0.17293992525850935, 0.13646100816796514, -0.02657625172750573, -0.13902158676244347, 0.03172611856104762, 0.0124750744084882, -0.020434892969141007, -0.09276598099082013, 0.07277993801967822, -0.021379109015088358, -0.02380708937922234, 0.05806238788631128, -0.10919927412715509, 0.13491678372033578, -0.05617704047516393, -0.06193806202785196, -0.0446065189686406, 0.014600322758755911, 0.11145991168817342, -0.03808643540470484, -0.0811626971620605, 0.05950302604282041, -0.006711888756631248, 0.011503469315406698, -0.03412411691973266, 0.01537435628609651, -0.012903062612737706, 0.011758491523917216, 0.13608197086366466], [0.02254794752291709, 0.0770628287939346, 0.11826209907847789, 0.18347338574222188, -0.06580993194580446, 0.020754112919020455, -0.12722446101599785, -0.14561868986176235, 0.13294800459467135, -0.044557316013603625, -0.048874310734541015, 0.05550167526020362, 0.12275430421941166, 0.00619973418994446, 0.038447754961405116, 0.19654443356642756, 0.10571298741410719, 0.04327293726227208, -0.025896158389623173, 0.07434710989939049, -0.040759109101540174, 0.003068627372396302, 0.05377998666689104, 0.12125174332110013, 0.029110222649949058, -0.01996993714287636, -0.11616437901826664, 0.13925181322971872, 0.010152465326271981, 0.09249701501806375, 0.09118065425152622, 0.02040098623290096, 0.12428257776224517, 0.012440503870073132, -0.016072538513306363, 0.012975220403083519, 0.09394543290946814, 0.018710455146947497, -0.13581350103346224, 0.008317696685938885, 0.031532163230319495, -0.09719207939615603, -0.012638523975207773, 0.0918957334143372, -0.07810925473316489, 0.008714656379845658, 0.009024827220326048, -0.023893610731292182, -0.07411725170026259, -0.08953541256655131, 0.07878765358560792, -0.05647880745536013, -0.06275693187402412, -0.00895424485250065, -0.07622973738799596, 0.008459258867409438, -0.03694033505847271, -0.0949605978861165, 0.10328916452059153, 0.11672292805206856, 0.017099837253578852, -0.020823754716035505, -0.1026757010443774, 0.18631171923146408, 0.015985351068351698, -0.01482655050201186, -0.06826323831605564, 0.016009476339957092, 0.020893347355099998, -0.004275982719178128, -0.14841207926416125, -0.12925922949504903, -0.045273414153278284, -0.04894341157519328, 0.07558053548466719, -0.04426737423875395, -0.09363350510686662, 0.1581830197027411, 0.04677986324378358, 0.04301046648364227, -0.06096204226329766, 0.046796980597905026, 0.03718906035960746, 0.048361268794970116, -0.040758741285279045, 0.21507841678421089, -0.13222770779412446, -0.016179844544266526, -0.020359406391913727, -0.11562438411465141, 0.048802617756084375, -0.0903144359667325, 0.033278108456677655, 0.03209684078405038, -0.03527477353201064, -0.08692517559495684, 0.037943329323563306, -0.04148029677094175, -0.035700289367735144, 0.07601227745294264, -0.17186600325796192, -0.03604006270605197, 0.025035495130893228, -0.03968472175260314, 0.22664074212526678, -0.06532847479742149, -0.11545032697082645, 0.027491336569594918, 0.011205167494639056, 0.05124416749373631, 0.07150205855658004, 0.016835804209845297, -0.03314493034970979, 0.017722255453615724, 0.1046323294624057, -0.05150228023964121, -0.06506488853154753, 0.06389549895568264, -0.03856394123345347, -0.0599787893539721, 0.11058262160879269, -0.04718178893330532, 0.11452552610886434, 0.054249294747724205, -0.0684505854291392, 0.005976022060999872, -0.07202217247535979, 0.011064919385504558, -0.15530496034917673, -0.09276751107537037, -0.04759343557468129, 0.036218502766111355, -0.05379702019572618, -0.09792608228087554, -0.007279459218571862, 0.11365259945307528, -0.19966084759616035, -0.12742456100054775, -0.039687705113680916, 0.042142613585172226, 0.02951592030141993, 0.09518147565688337, 0.03273185162293307, 0.04011265746543798, -0.14324678678647587, -0.04157122940596906, 0.11081177681517375, 0.029941966850593128, -0.044453870053330916, 0.026780417756993188, 0.019119008604117416, -0.0051847443629828745, 0.0017717812351929069, -0.011517780666987868, -0.05777885795973497, 0.009967466535517238, -0.12891062750486082, -0.09722510957937977, 0.1048355344979232, 0.06078360606354681, 0.1497887974121966, 0.10445958426726172, 0.1053857196028267, 0.02354660917836898, -0.06760569652072775, -0.05086583952343235, -0.11633129207485367, -0.023119956862405644, -0.029667622959241906, -0.033026026922032055, 0.05980956420164123, -0.03600556469072542, 0.010085995182291847, 0.053026703213908816, 0.04470207517867741, 0.07009530369939566, -0.0722689428348187, 0.05263090699877822, -0.033018361001253105, -0.07834998031298349, -0.04283696864429058, -0.041476161426696856, 0.0054023829671813305, 0.09402963227181237, -0.03643722609948246, 0.0635456509171355, -0.036223983186170525, 0.05205785497059277, 0.13446899145485186, 0.06896877513272939, 0.04151307702148602, 0.047959623413273686, -0.153250938460089, -0.017310175404912895, -0.02594255302847488, -0.05586012999611086, -0.08104209036179426, -0.15348097250246934, 0.006100882094683853, 0.0026989754099588903, 0.07923751524742731, 0.03420304599926231, -0.10892598719984206, 0.07349453143225614, 0.13244531624842798, 0.03852545768799389, -0.1876076649500863, -0.06743708652604985, -0.07196349794254694, 0.04048158004624967, 0.03853075636716131, -0.030111534309749756, 0.011243278746375998, -0.015941845924009917, -0.07709233729622933, 0.08330704475615745, -0.02957742786252653, -0.11635206238977765, -0.08122781995077534, -0.09415425674037785, 0.10547121058943046, 0.0464111899462472, -0.043897602721001516, -0.07972299588977008, -0.06103755692953842, -0.038069500980362464, -0.028435060450512147, 0.06466527527099056, -0.04528153429140055, 0.04738775386353813, -0.12720396803335152, -0.11645655516138366, -0.14351357696234257, -0.021192802943020013, -0.011529648525869796, 0.07606877047748999, -0.10085766308274134, -0.12068594545436388, 0.05566020782084079, 0.0657118525113741, 0.06512341565788676, 0.04172526907424485, 0.04476772563920055, -0.015171176920846546, -0.035487558264839375, 0.022914072692808148, 0.05477097044542688, 0.0023055881378348598, -0.013223284641380761, 0.05625715508955602, -0.08896723274629253, 0.028497924965057764, -0.07860357627776439, -0.050026581147952526, -0.10040025924843508, -0.10748740261377333, -0.06536856054312719, 0.07860398244921334, 0.08436246710254017, 0.04330826904981377, 