{"policy_state_dict": {"net.0.weight": [[0.08459259532416948, 0.02936623243523595, 0.1308174863027368, 0.027040451743553486, 0.011679365655680786, -0.06277249913071337, 0.13385029170150206, 0.03696551926480595, -0.07826450590766798, 0.027325383978972193, -0.18118261518611398, 0.05592765807396329, 0.060101883025608135, -0.11913877694465806, 0.014359402102891263, -0.0018256779609114326, -0.05167439159236107, 0.06373335674271223, 0.11698015001079651, 0.053279563623594976, -0.019086557086872576, -0.0007211717884489927, 0.061009978377072116, -0.007441358152932285, 0.09175881106691385, 0.14121878147894998, 0.011425382810671823, 0.03765462778951037, 0.02511629497357043, -0.004317404873947128, 0.08447196281948675, -0.1293083905410563, 0.09411665435663319, 0.0585630765484065, -0.050548396938357394, 0.029984419561253244, 0.050921021957454016, 0.04287912831043881, -0.013725676735103947, -0.04838209432894602, 0.19518568856247476, -0.07424114536618572, -0.022806808965727017, 0.009088724515644157, -0.04329789568149823, 0.0005221927516376373, -0.20544696313332736, -0.08228120563989946, 0.11029065708872669, 0.06874851999569544, 0.0014939578118539512, 0.09770598158174697, 0.020507206363857618, 0.05207156732682193, 0.024843049895885566, -0.00035437121602853965, 0.04134480310788561, 0.09153213977891436, -0.16675992414603247, 0.10214113175320262, 0.050713976937178225, -0.11551526866793167, -0.07753581185506322, 0.05380865957320219, 0.02981347282619575, -0.05439309786320882, -0.00569947948490854, 0.10147673064156339, 0.025180194114121906, 0.05813354072689634, 0.018434154180760973, 0.12867301090526323, -0.10706705265604406, 0.18507399634995292, 0.10912596890988066, -0.0819894066433101, 0.031151022246535032, 0.031448178207444444, 0.01608053657511659, -0.011363289828330052, 0.02737738686217967, -0.18921099141672518, 0.006168267249262669, -0.023878260258086974, -0.09114477971758442, -0.009972951396097359, 0.23511627860304946, -0.11302653500649917, -0.00121154674820631, -0.0031219780789312596, 0.020597953270606113, -0.05787159491475839, 0.05101207519948624, 0.04301581511868705, -0.06719746388577152, 0.022733502921644808, 0.06387298228602714, -0.030410268084865764, 0.051997864579541926, -0.02479303894568237, 0.012581925339707214, -0.0065002348763449685, 0.029356697344909134, 0.011470177810016352, -0.06361780353281561, -0.01452648898711607, 0.0573779584616355, -0.005112129732449866, -0.02169876978062623, -0.015927542465153058, 0.04139030112610311, 0.0877686859267083, -0.03339884401308817, -0.03734399081400888, 0.14580081135636933, -0.055497200210364604, 0.0359365094343477, 0.013833366323176, -0.01624807123402346, 0.11124165223233515, -0.07172246428715008, -0.03826776442373029, 0.07896254084060998, 0.12382914988819864, 0.016958800351869315, -0.09238677173538942, -0.026535842626059094, -0.07532600067128592, -0.1669196864819056, -0.007732419465280071, -0.0031804895040910873, 0.08586640919016393, -0.12395572560042178, -0.08312088451951612, 0.04387441709875359, -0.09201022035151649, -0.13383553043887864, -0.03899755599885917, 0.05724080368175956, -0.033942222549148686, 0.0038798017408695133, -0.03624485419456113, 0.025287010860326337, 0.1221281099778637, -0.022883083422601803, -0.07328947700779966, 0.054275075550281444, 0.0040511910737388935, -0.01635326701175207, 0.01817444493368755, -0.014606963349376549, -0.1343135165273102, -0.00946877978185912, 0.0031490956126558043, -0.062119641761628375, -0.006271760069362342, 0.05099308182849122, -0.05265264768131275, 0.017739721338619133, -0.08448284328879314, 0.10288075382935445, 0.04030342990185778, 0.00410302674544822, -0.04455462986961922, 0.0862241358184742, -0.02119775738538571, 0.11717372893179111, -0.07247595895087766, -0.049533397951993755, -0.24949335704861217, 0.06667356355933333, 0.018801158490677514, -0.021325453180293795, -0.0740248068650603, 0.03291634839107665, 0.13930064905944306, 0.03220345989533884, -0.028151023733217786, -0.046492009193331726, 0.01486693282311717, 0.040080307077641646, -0.0897788548463366, 0.03592912606929422, -0.08684006631963699, 0.0057304046796431635, 0.10622489647024626, 0.0071479473002852385, 0.03138676673683405, -0.0716330488115459, 0.026549357894955387, 0.018629262514296974, 0.20298707651294443, -0.03337840790941833, -0.11797741501848127, 0.09436626748695966, 0.011879975978436532, -0.04261575810615907, -0.10213524876179944, -0.05906347357151941, 0.15275470925665185, -0.004258439040772384, -0.052989328964679734, 0.16949567910730212, 0.11510917449854316, -0.04436287068852236, 0.019426229021723224, 0.0064954043691444144, -0.10897578476636836, -0.012729588913620722, 0.052000289735407615, -0.06806227993629374, 0.05481311587174555, 0.032093608386480746, 0.022543665134978852, -0.02122944233426859, -0.10422479116257455, -0.02465935417715983, 0.09842732666459228, -0.0780439728017518, 0.040090698377021824, 0.09844180850758029, -0.009255074998722907, -0.016363629600535275, 0.08986430108485632, 0.022492436157642817, -0.12260662318321183, -0.005328759898719281, 0.006437539697579467, -0.22252942281864999, -0.0391770868778443, 0.2226593783527284, -0.0024200813654630263, 0.020777554031055, 0.043982272949599686, 0.011013486559450307, -0.019393559121222873, -0.003275491980763938, 0.01211072070053803, 0.047661515794876055, -0.0691965317927333, 0.09477012761744377, -0.010371539060868795, 0.10485445620252117, 0.04457708311196638, 0.11384923282415293, 0.009742306309799864, -0.10666192350076106, 0.007066249654477551, 0.03090059558093626, -0.10079276933221379, 0.039229773821119036, 0.06483068562692886, -0.0629695833888202, -0.012304877140814642, -0.016228629026466098, -0.08684640265158909, -0.02828485035542146, 0.049136962580660394, -0.16418604327465852, -0.026151940342031003, -0.05686312004105274, -0.03869156004420531, -0.021447744677672565, 0.05231839303690493, -0.0821292290540361, -0.13103589382219177, -0.08423038526999528, 0.10021461612374435, -0.007846195327384963, -0.11038311929232439, 0.11621507963210206, -0.06418367924923257, -0.08919366719592205, 0.061644861393778116, 0.05680312529748849, 0.0648099438213686, 0.033917416014108595, -0.033248140100890444, -0.0263478181083727, -0.08747002586915181, -0.159630641665865, 0.11638075795218396, 0.007070606007884444, 0.07067045144644865, -0.143540022983408, -0.021442290406821694, 0.029700473519336586, 0.007349619914055213, -0.007185011025182584, 0.07717337529841876, 0.13762777824554956, -0.056204234129742875, -0.0970832603594492, -0.01008571144210512, -0.018320656268950335, 0.009025604612287061, -0.04263311019010789, 0.023886398370216156, 0.018387008207750462, -0.06934120969913583, -0.18044251516579363, 0.14247478569938293, -0.07704910011717599, 0.03194296533473726, 0.015578897511119048, 0.07446355615082656, -0.02342931336368638, 0.034812977127292984, -0.06603892632002523, -0.047996054877726915, -0.13194397309107608, 0.013021022052186013, 0.05095439216134643, 0.06779073803736804, 0.07431743025392977, 0.05910161991944128, 0.057777915501098204, 0.056489226775499536, -0.11246299053006956, 0.10483999678020409, -0.15407370497281828, 0.03992382019224099, 0.0174884564429852, 0.003045564684658953, 0.1424395202970933, 0.02141367220714654, 0.1530428397031681, -0.005962817810822654, 0.07139814157750929, -0.025789542767083555, -0.040973924968428846, -0.03318719218010738, 0.010438190759235041], [-0.01029022729703796, 0.02567866428952841, 0.06253737459069389, -0.020850322623959743, -0.048331830729495956, -0.16088001001776508, -0.012616620225073687, 0.0025495588201434466, -0.05915244122550999, 0.1013475447497178, 0.04408222994543825, 0.11961975044196574, 0.027618758263457246, 0.0953044341805806, 0.09606585041694654, 0.0571159825627165, -0.18661852992735709, -0.039539621727601885, 0.10276922760639447, -0.039742559063986924, -0.004480622737625484, 0.12081885456389961, 0.0826160038972009, -0.12215602827199629, -0.04814696121205493, -0.028235211178779543, 0.005545208256086469, -0.04540821991434741, 0.10929935637775016, 0.11032442628502662, -0.00739372422795655, -0.10371130070772372, 0.029677172745265105, 0.07312781621805221, -0.015138163492596434, 0.0883083222255173, 0.0224307831733532, 0.036988446544889385, 0.057911435503142726, 0.04557925442347848, -0.05796265507973718, 0.10373252647740248, 0.19142813515043125, -0.08019597765328265, -0.007093462022885933, -0.05627530314727088, 0.02445320956581776, -0.14216910990232634, -0.03849905127578728, 0.040678023282972514, 0.017825483465354786, -0.05206004048899697, -0.039114712085992126, 0.06070146530905015, -0.07135306587638533, 0.0728134610439959, -0.04010952652834384, 0.001734280627234439, 0.06314196581354899, 0.012717753557196438, -0.005845201289748881, -0.13653568247619713, 0.03581139243846994, -0.11818845645742629, -0.09924087794588977, 0.057419934708604785, 0.061945130464346146, 0.10237161670433245, -0.05700009044502632, 0.05994137665051712, 0.15255420636077344, 0.01578851680569636, 0.08522750513890313, 0.07616789600440671, 0.0009401346891716006, -0.012012417660338755, -0.03486788957705287, -0.04095444113566623, 0.02871470986705056, 0.0756242697679811, -0.1051065488675986, 0.22064916786534486, -0.05662277087565648, 0.19932531165530926, 0.041137522678737985, 0.07267033429352104, -0.02067614598429384, 0.07686670234856739, -0.1498084637159424, 0.03316487573521917, 0.05508489612978767, -0.03691650209375672, 0.13480211563312205, 0.0038658837989929405, -0.09528981166813474, -0.09470295154120047, -0.06966707167323236, 0.04356749338738367, -0.08952681352819615, 0.11174951127716674, -0.030456839080470807, 0.10300762927785076, 0.05036751982564908, 0.13826792399236157, -0.006512183902282553, 0.05640610556698539, -0.052743082305382924, -0.020224740636616858, -0.032906506712284074, 0.04076192415519139, -0.06738035826683572, -0.05147040615892489, 0.03977491746385154, -0.06995645165675207, -0.06883286910620043, 0.06266958446012415, -0.054694434485907474, 0.028820287812825765, 0.032589556849810644, -0.028684512237883476, 0.01517837508516495, -0.027653985043978993, 0.1017835668206024, 0.07288598360327025, -0.1736593554663501, -0.05833993362895281, -0.011635571229035883, 0.10595218326885955, 0.03607818904287798, -0.04905171350270206, 0.1845442786856175, -0.11374838129075783, -0.08497565833555708, 0.012304681963325542, -0.08791328535924356, 0.08851110635494015, -0.03494362434881085, 0.018462463333775627, -0.0350564621331392, -0.05098229659028095, -0.050698053684200294, -0.0833433133319637, 0.029888649332845744, 0.05354675018736104, 0.00306546766055715, 0.014509341351538326, -0.07951896903430797, 0.047446414044469226, 0.01771939286003498, -0.007544689031890673, 0.06399302515009969, -0.04424381559271412, 0.06960089284215865, -0.14295201460936777, -0.054949924535966505, 0.03778223292758793, -0.0957249090989077, 0.08035455737476042, -0.03787165284033025, 0.009430947567468612, -0.055832431602498844, 0.08202395773052322, 0.10062776568241924, 0.06970471102123296, 0.05152408746604182, 0.08326580568662391, 0.10423274676827173, -0.0688478635263008, 0.027616603717476276, 0.03759417515759808, -0.09739017974445939, -0.04134315394722435, 0.060746500631488204, -0.01621765143100631, -0.04013099133645645, -0.060739110845358935, 0.029956648368844423, -0.019126440260763412, -0.07533259126135278, -0.060815896079070675, 0.09615242045918614, 0.030392325227096256, -0.03535719843903468, -0.07017152242235881, 0.026368355637184718, -0.040697199766266096, -0.14111345060448202, -0.06554516944584356, -0.05320067260638075, -0.08572671433996232, 0.0232065018228069, -0.13861055618025797, -0.05717201592879213, -0.06509338832435409, -0.10520338620439934, 0.07631030185678991, -0.08731385150569376, -0.07395497068713427, -0.005099604530377507, -0.018324641125064142, 0.04671750895363053, -0.018721670556804917, 0.0019441310231905384, -0.021211651804216483, 0.0871130616031091, -0.12684076659609173, -0.16652041356414674, -0.07810788517157036, -0.06419438735103584, 0.03446091754003674, -0.08479965137384553, -0.1321167163131156, -0.02871283523289481, -0.06775246440115877, 0.055070821612584524, -0.01282988393608423, 0.01808325867479029, 0.041141985276167366, 0.027401027904191532, -0.08717546967799648, 0.07845008357717395, 0.059048083327785744, 0.09265273426838193, 0.07410759112972645, -0.053123165637427326, 0.06315443038055256, 0.04167179020071379, 0.057490812478236404, -0.07308227150624715, 0.049691659477616605, -0.15887406360747486, -0.06305614981850716, -0.009299558212476173, 0.09813408945709999, 0.03488968937815511, -0.07933177235170132, -0.022223709757250788, 0.07013833269213132, 0.06586730920860952, 0.1183100553669539, 0.07725985648227952, 0.1130695650165093, -0.05775891870263072, -0.09088594645430229, 0.02293059481290593, 0.09304275973347108, -0.04465034254948383, -0.10688425718462863, -0.04042840899734391, -0.06220909667095735, -0.013798075870374899, 0.029958060300061744, -0.06887094078109693, 0.1427118510191539, 0.0033101511833076016, -0.10013627369411958, -0.07959712503461984, -0.03219870792268976, 0.04443642127583434, 0.014336545441027724, -0.049407499686804565, 0.11055434325243738, -0.028629044242476778, -0.07933808560003112, 0.019007608163481002, 0.07111911447175497, 0.007660216313220176, -0.13997529500691205, 0.05649367917494952, -0.03947734630366931, 0.07510061107717371, 0.034485406001171316, 0.04316336560680453, 0.0414237942860574, 0.04484322399144122, 0.06136046212527974, 0.045149064987827864, -0.008529034922453436, 0.003466780397711842, -0.061429638563217745, 0.040569012920886556, 0.023039259676165724, -0.016879315905043355, 0.09813187324415236, 0.1469960057096799, 0.05225824286888534, 0.05815747799658939, -0.1263568090742041, -0.0020650914422302062, 0.005414575911845774, 0.02558616062082732, -0.02920916829561184, 0.03449267034988445, 0.046864486455116955, -0.017317671220322135, 0.04627309529197135, -0.03918991644757612, 0.17487570910870567, -0.06345748991890221, -0.05875014476602324, 0.15536215550564889, 0.024173708776534453, -0.07109713114269678, -0.1127990397667269, 0.05924799546238084, -0.052494208360047964, 0.11452525432879045, -0.02034353042369348, -0.08108597606045889, 0.011516303933354817, -0.01699645636498977, 0.15043086803913372, -0.045243380458673293, 0.1261966456096732, 0.06649860228752691, -0.006262907922865567, 0.010979864182032308, -0.10134709759499212, -0.09011936836063378, -0.014911215941835478, -0.1033985212278177, 0.12111366579106143, 0.02368644601263847, 0.12898202685222826, -0.07041661527025574, -0.052817349449826516, -0.009350062213483992, -0.05911251993147784, 0.002443023520594032, -0.03304573038338547, 0.13733077602597504, -0.06800794340799875, 0.04420853418957446], [0.0647036853342388, -0.014418777242163366, 0.026672396054874852, 0.04982017420685971, 0.019779345869829264, 0.05086886912400027, 0.009067486216853271, -0.14412381562438345, -0.0520600406324669, 0.02492715208273447, -0.039614211621429966, 0.0585295969371779, -0.028621074857093348, 0.13267348721191227, 0.12635882961674041, 0.0061034252732886625, 0.05882610855769818, -0.08249640217779104, -0.07427953072128438, -0.04352968859415503, -0.009211638782305706, -0.053140260009389526, -0.10593983911270795, 0.016948661941408254, 0.011360897113496629, -0.16643753282062984, -0.010012499801867707, 0.08947144567845683, -0.09731077606134565, 0.003306660720920185, -0.04207564630987763, 0.008529488928151075, 0.06699148249766108, 0.014906819915363337, 0.03795248251947124, -0.11154202713854063, 0.0947284945785369, 0.09507506894147183, -0.11914905092264268, -0.07813116449904843, -0.03724919854962591, -0.0406144474225521, -0.0027332355861139288, -0.012019511430627702, -0.004015495635213305, 0.08289190850918347, -0.00683642833792534, -0.033994970638686485, 0.0361685041682, -0.01896546709831037, -0.06019978548808763, -0.07441101914002378, -0.0007792779065586376, 0.06642011965703928, -0.05216188062004394, 0.055871381747087126, -0.034856736118777217, -0.07074796190922732, 0.004271953466381941, 0.059388789341511414, -0.03038273685306037, 0.03309147286997526, -0.01982156531912874, 0.04082592341349782, 0.09628606926592674, 0.2314343933894153, 0.03168147064448041, 0.04331460264556624, -0.006045787310085157, -0.0010335930835743056, 0.14463791960063438, -0.032925763637824415, -0.04210679590391583, 0.18265622476589566, 0.033358867052420846, -0.040166182053515756, 0.08869878095088111, 0.037301163816953135, 0.14679119140631414, 0.09226237906789177, -0.004198085723805163, 0.04328051152023186, 0.2623707856698626, -0.07988004814432345, 0.09525350196502175, 0.015143799653414156, 0.006800476642450382, 0.06924653043325665, 0.015199136081501098, -0.03127612791073265, -0.14812657153797712, 0.07183873165840526, -0.04749053624743169, 0.011793722431649426, -0.0697359849718038, -0.10120327114760808, 0.005101364339062032, -0.19010941668817694, 0.041424459820814705, -0.0790193310887327, -0.03483523910326037, -0.025192976570025345, -0.029509165793068826, -0.07488233208897281, 0.05134693938395857, -0.000957103464405779, -0.17908111463227308, -0.12497675661991649, 0.02510388024147581, 0.06629430519084609, 0.02036220931495682, 0.04638997749298091, -0.06860447935181559, 0.011612528095090172, -0.008998678133943862, 0.014890018618532395, -0.009761499897465472, 0.06420525635777281, -0.08471728811809391, -0.00400535875754238, 0.028139227989239134, -0.016706908411338723, -0.02218195376959455, 0.016441486863615073, 0.021022014459639523, 0.01709318290767756, 0.015845810632125375, -0.018881257438441976, 0.11779727394897918, 0.053292058583100314, -0.004065923590178869, 0.003130324375226435, -0.02707498897732253, 0.03052920794683525, 0.009718243012187988, -0.0045886954183285795, 0.010517188190815813, -0.05520509776253151, -0.0567181202597292, -0.04809069803812181, -0.006138736892342244, 0.08235778856104385, -0.09439320232098498, 0.1796084520960747, -0.059274397367047586, -0.06604681249738335, -0.03941152965207384, 0.08042281033237307, -0.16128387926438162, -0.04779944820494426, 0.08426290329253544, -0.06613481222776792, 0.012819036622434289, 0.1520939658697528, -0.08395772912248001, 0.025657555140673294, -0.060174697564685235, 0.09498451469331688, -0.03275427622756727, 0.04306725523923024, 0.04417574565116916, -0.09636382797946151, 0.13239014481832684, 0.02793898617019563, -0.009830475293167574, -0.11057996132543065, 0.049357959572622914, 0.03489666734320905, -0.009183260867247437, 0.005739472811121737, -0.005862948067343745, -0.0004508366441771945, 0.058307715567817706, -0.03224318575790154, 0.05892899628681453, -0.021734879778347472, 0.11612896536856163, 0.11474247947007972, 0.008720390478288553, 0.10370598293693951, -0.14621224558005846, -0.045182248777226784, 0.07365417129723291, 0.1132030851808794, 0.01017238247947492, -0.08267852583509615, 0.006130637410399297, -0.0716952393739058, -0.07759004877235393, 0.31195796178697416, -0.05215991544962906, -0.022604855151236367, 0.019208446706238273, 0.05922431553457913, -0.01655448372235591, 0.06572875629312576, -0.012183548584279601, 0.10053547921595624, -0.18564163222751814, 0.09996797974373106, -0.1207474052984397, -0.07941146289034516, -0.08327321552074067, -0.04541661413126013, 0.042792529754509735, 0.035374568808072694, 0.11791265808059115, 0.0410730145745825, -0.05661332091077541, -0.046137572193752065, -0.1325450126364232, 0.10019132719982408, -0.03330871694819962, 0.05180376068375395, -0.07006775182566212, -0.05801221906329064, 0.01994733770059496, -0.03016500019798641, 0.009662589723606787, -0.06377265598713305, 0.08667256703098868, 0.14105347885520003, -0.08798733352999341, 0.034769442086872375, -0.017790156540313424, 0.05251096967843138, 0.05544285198955769, -0.09095037264534268, 0.11658005816100457, 0.09856314621516347, -0.010008702291361344, 0.15861169926871824, -0.11675083020345528, -0.14143268301034237, -0.02642235681556162, -0.025915484887255896, -0.0035094460163238106, -0.09932505897714958, -0.044178890264968, 0.03640053074837682, -0.08013480670326467, 0.05724642726877417, 0.016993068209798956, 0.047073203999492864, -0.02758497148331729, 0.130223334133097, 0.09530620824604681, 0.0546702803278626, 0.06397014261257661, 0.15543700330056678, 0.08878096973637749, -0.07848349130374294, 0.02136375316529795, 0.05736054469871577, 0.006082786393811847, 0.1581763847067656, -0.010553682659452739, 0.14711383583842358, -0.1339948182360423, -0.10920860802382716, 0.052077627846963626, 0.034695253287327345, -0.0033546786307463786, 0.03278036394671341, -0.04382742007829929, -0.006470054770461597, 0.12927101360371834, -0.02403011105158785, 0.03841602584662839, -0.0927653150036249, 0.020436216918432712, 0.04568728004143442, 0.026812840366732538, 0.039994775233230216, -0.023011687126767346, -0.13926051767947875, -0.04846392262126778, 0.018562518108203946, 0.039759600503313515, 0.028381020637103422, -0.06237474690655902, 0.15611918760221186, -0.025728570195701437, 0.006596088414938664, -0.029405757104347983, 0.10381375126556189, -0.04999350141740698, 0.04170792429537558, 0.10234974755525852, -0.06040344756131033, 0.014373698276721886, -0.009872950057295085, -0.18759159199317593, 0.013662162878483198, -0.1091642040012088, 0.004921401493859276, 0.010993679011268834, -0.034998141018562086, 0.0791073937497657, 0.0792020594076959, 0.03437779532624028, -0.17605550062901457, -0.013091011521629174, -0.042432023867867506, 0.07312347101234286, 0.026464788554914537, -0.03689377953700557, 0.07886321558806907, 0.0923114152903499, -0.017733905368964385, 0.012447218258377957, -0.04023324772341925, -0.15970349963837177, 0.09137240460964262, 0.11052049253200047, 0.14427095494396058, 0.1467967556251596, -0.0070348057611477905, 0.09256493215031683, 0.03592649588699516, 0.0735232322774593, -0.002338359290092766, -0.039469419617738435, 0.11184440414743205, -0.06563496352608206, -0.08817688602622938, -0.0022029900664268195, 0.032000958453208245, -0.09378073869616914, 0.042496302533624304, 0.06257842601723371, -0.02167927481223868, -0.024686563371101426], [-0.015003445939756157, -0.03660442724437108, 0.10137246252189312, 0.09791681513525637, -0.1240764639411733, 0.01351582708244946, 0.019725805996497182, -0.051220247345273695, 0.014317181442613437, 0.0412852190724806, -0.0977542610038599, 0.059076411865822506, -0.008807205345848883, 0.04761245875611391, -0.013247187643278986, 0.01668286337494762, 0.017601657467963664, 0.04749759577271826, -0.02344447958770358, -0.015656489458566288, 0.00046004997530829406, -0.008471088017549462, -0.0706099413404432, -0.06524767003369336, 0.005260177012172824, 0.15484243117058566, 0.14476547407570206, 0.08767195807962286, -0.06743063238553634, 0.06430039921271002, 0.023164150393436722, -0.09115940243538796, 0.09371105782843243, -0.014482665468602648, -0.0748172600425608, -0.00628700911965441, -0.015326584594543613, -0.12945789315005904, 0.13462197960491445, 0.0324125830610784, -0.04320630593685871, 0.15744276537705632, 0.07402130779890326, 0.004195260446865654, 0.039407497175613815, 0.05479445544355729, 0.013982343811666013, -0.012575940242680567, 0.02394213284183732, -0.042071106844630946, -0.10279947071641413, 0.04635811466448975, -0.021684347806447107, -0.07917766061144212, -0.07683475370400905, -0.028232420749432934, -0.05067210047114474, -0.04150720536167135, 0.04542206794457992, -0.03125396427977584, 0.036800356951117434, -0.04845944516323596, 0.06464932074013818, 0.0862834444452957, -0.20653593405718468, -0.08616679367095341, 0.10494578609466346, -0.046860772528988896, -0.15522756999937776, -0.13438556675870417, 0.11168428134804063, 0.10755409780982912, -0.05638373299473218, -0.08123308199128831, 0.03415335790497311, 0.01163735456913179, 0.008485472684578055, 0.025082110653187224, 0.056029623074263894, -0.11677120734243102, -0.12088120671436607, 0.02990018731530641, 0.061418222158049075, -0.09603367913449906, 0.06353851357865398, -0.11973235797575148, 0.20399768285917633, 0.07154614431235866, 0.17743436904840465, 0.021457314970911103, 0.13341796301416037, -0.006185037264022421, 0.09330249638714161, 0.13245978137170825, -0.11263452778745175, -0.020518041719365658, -0.10627591241351753, -0.03562186743604552, -0.0695192150718757, -0.007434141386953095, 0.03243272247395384, 0.015852266646127135, 0.13466723370861625, 0.007874817316092079, 0.09243431414223624, -0.025126819935114827, 0.042266743047756954, 0.06292737947896476, -0.0015886593838386274, 0.07234893251284354, 0.0214323236971968, 0.014486930881007007, -0.04045401293083013, 0.05220835428507284, 0.07878950708063874, -0.09445061620070785, -0.03209886626286832, 0.0002603935252423951, -0.07759403913351977, -0.015050411977107828, -0.04019353649178825, -0.0018402143815048012, 0.19055799541748802, -0.1159285409905786, 0.04689415991596368, -0.0407860330970339, 0.11417345960192893, -0.08428923637882915, 0.015069730782058333, -0.03843053033617651, 0.0039447186867285836, -0.06645739169609986, 0.04334665848880248, 0.0532169271039393, -0.02464623657194697, -0.04133698578951276, 0.07425951975384719, -0.04416297422152186, 0.015510940982236923, 0.08627257614104777, -0.021290846522489394, 0.04693677602706786, -0.11152409220070664, 0.0893024381570115, 0.008697652915244916, -0.007816182425741522, -0.14830853461734916, 0.05391961073659937, -0.08096186955595083, 0.0471072404387068, -0.13351153611627153, -0.2266303756173214, 0.15151262663368492, -0.005125716396083729, 0.07230702031197393, -0.1026266344205445, -0.01951298057713265, 0.005148192665872647, -0.02815643481852563, 0.04341033595680152, -0.0017540398265040906, 0.010068534515073342, -0.02910920223589231, 0.027540130024619264, -0.043678502015628125, 0.015362329827863511, 0.02702351130929026, -0.03835302939163064, -0.09240726572496623, 0.0058152215720594464, 0.003314891797270761, -0.0930054135553729, 0.04284229929631983, -0.11508141934295799, -0.10204014325696534, -0.017595983679176048, -0.07879255199173185, -0.01852354145719355, 0.0314777471417731, 0.04681634061962323, 0.017068115331292398, 0.06607459434208827, -0.007688080684833283, 0.06921554365754991, -0.016986871912266516, 0.04265769157578844, 0.017618517088958573, 0.011032771327979855, 0.12710199858955115, -0.1095544654478467, -0.06436108441781818, 0.0006713771283085614, -0.030798849396196246, 0.0359877361493177, 0.02127974571579058, 0.02854362767999777, 0.04704602715093084, -0.09605994261628913, -0.12788951532306245, 0.10351728742645973, -0.14541171691220497, 0.021249552695426114, 0.10084733336618847, -0.2141368755553464, -0.07157893221212286, 0.00923319814249794, 0.13168169283983358, -0.1017669384572662, -0.05579682714793115, 0.018248155604850654, -0.011840596338599487, 0.07072308137524524, 0.05694301159306761, -0.19211950358434424, 0.034452686719705646, -0.01269974331974448, -0.028512133224993883, -0.10076713683202214, 0.06067061823630891, -0.05645491931182007, -0.02007596592937783, -0.01802733143587657, 0.02693871728828622, 0.04001927412425696, -0.03941043595188446, -0.02210285595211601, 0.06708508391987526, -0.01725972828392145, -0.09433014884842686, -0.07476517258556438, -0.049034213221812124, 0.029378044220443787, -0.17865659478139914, 0.12954516236235986, 0.032821778550127544, 0.00039619505101664085, 0.1157979945075254, 0.044744824951161, -0.013040734421486204, 0.02407040584840454, 0.045362470288627145, -0.04143372826349036, -0.1028760687762875, -0.10834150244119484, 0.1750935524349782, -0.00874144764977153, 0.0061900755858588456, -0.005154711054201533, 0.07916273034513382, 0.15832176590526983, 0.03278904714998251, 0.057312744839382875, 0.05415849225354085, 0.025230975003153275, 0.133813745135102, 0.06357907468571995, 0.11332967289604166, -0.010209528086275404, -0.09535297830476874, 0.02705623820323386, 0.0026273372731804643, 0.032236463561190754, -0.06106500918923366, -0.19068568615705897, -0.011079110119268114, -0.08748305067208648, 0.041430222809058635, 0.09860334548303565, 0.14147918646667557, -0.09191607892601314, 0.006720850766231014, 0.0430116064934339, -0.1602840573301413, 0.07902104741232291, -0.005670387778448738, -0.009791636105431318, -0.13671547071590168, 0.062360174908172, 0.014424666907260322, -0.07766680529925231, -0.06415490391341425, -0.01287309882992688, -0.01861525202206226, 0.0792795423188148, -0.007695259321144908, -0.023879585769968657, -0.02621311380841153, -0.012913229066567344, 0.1150519059763953, -0.06007082741059823, 0.036391598997785005, -0.029179386695087923, 0.06619670416743445, 0.06800837016020782, 0.030368090364658328, 0.02904559756854179, 0.08499091795135985, -0.06866402135182816, 0.11163769823799383, 0.06262581857893924, 0.023667088356622526, -0.06694869898909375, -0.019242011442831407, -0.1508008083547388, -0.07426370501464152, -0.0555172406544244, 0.029448933701810835, 0.02485663216507755, 0.16187149741257562, -0.0802951468302684, -0.04463438115011253, -0.053600362301592465, -0.036330000531950526, -0.018542178129887423, -0.007035456500965191, -0.09602740778603816, 0.0945894778013946, -0.10504244067667368, 0.0015663433830304713, 0.038093024648281425, 0.061829216826213645, -0.017074849810110832, 0.0676067649149672, -0.01736715477010105, -0.1272668210394754, -0.04482155950273911, -0.00966298454899781, 0.02867129841384245, 0.04090806521682522, 0.026497005663569044, -0.18348495717214716, 0.08576919410202435, -0.16568317960230686], [-0.029074466773759466, -0.10836311294757602, -0.08015905762899235, -0.09738413159611471, -0.08022200799519663, -0.11870786882465352, 0.09550263047170071, -0.050515633021243934, -0.0027795010904603035, 0.08642489987189529, -0.007905794861086085, 0.07444710731782096, 0.17093714962445092, -0.0010173326996524264, -0.18549674253303355, -0.20508582605413322, 0.011847681391234518, -0.05550118403262615, -0.07695969034955041, 0.09345110872081014, -0.09724348426792717, -0.1510436817908055, -0.0027096621298740887, 0.003861735264324856, -0.05139973778634498, -0.08233982585512571, 0.01224976221971973, -0.03300738769526004, -0.08573593533794323, 0.12160809945580292, 0.05422461869834685, 0.06795464082583992, 0.026186049837183183, -0.050169893420959615, -0.0011370198661528582, -0.024087487234648902, 0.18203125108611096, 0.03880092777228195, -0.12009101729610097, 0.017735099943863287, -0.028454540393096483, 0.0064119516958518015, -0.08843649847862126, 0.026565600553165418, -0.018358256632619054, -0.1165743484512442, 0.01627611287819876, 0.21809843041738822, -0.018404029386532083, -0.08408416062061513, -0.1847708112501846, 0.07998214394867023, 0.0254611532532881, -0.030340468677604038, 0.05549655492305082, -0.13283169328941088, 0.0012887573542571674, 0.07345429897552, 0.048704794301459325, 0.06884321021931955, 0.02600356877192877, 0.032509531562160056, 0.051578597553368584, -0.09143587242031731, 0.0041549019006426775, 0.01528839523469398, -0.015537674410458334, 0.006176290240953361, 0.060649955912918906, 0.0812587767115307, -0.04083669036800259, 0.0959037970550557, -0.03674585722725751, 0.06897901148713491, 0.037249521641061704, 0.13800974639046729, -0.03986441248296583, -0.012995984167848335, 0.08269252028943316, -0.016131666750859645, 0.007228782001421742, 0.06845365817193719, 0.01659284479393578, 0.034759452772743664, -0.08603332242773898, -0.08501142993692133, 0.14067077985080947, 0.022328689643521582, 0.02545498482058436, -0.006342028119927529, -0.011642529234280455, 0.02533076468057422, -0.044605627351066775, -0.05565748678454041, -0.006205577721657486, -0.030991073963061225, 0.01603080211083761, 0.012341829399866906, -0.11865670066125399, 0.09865714608311132, 0.12673002003603406, 0.015016727345705678, 0.07876331797617991, -0.12033874472654224, -0.13601092081356103, -0.07361407918634846, 0.002278817369020209, 0.050099661170993966, 0.11086063897942655, 0.14302174756463473, -0.03105648855514699, 0.17155047127895817, -0.08466849902867689, 0.0056518636527685875, -0.04839759591180904, -0.04838106077575789, -0.06204067508974968, 0.08087803705895354, -0.0020462633972594666, -0.006319006739703682, -0.053261223508179904, -0.011312491791296751, -0.06674563562069726, -0.0796821327175056, -0.020859467998768946, -0.021332341258294765, -0.039433410125086554, -0.014064845713318988, -0.2144482809245775, -0.09777844738228907, -0.17407874490903363, -0.07033078898179368, 0.08369045403375505, 0.060948518347099925, 0.07043383306378677, -0.06779199083363334, 0.08530118718709634, -0.06938524625492895, -0.05703421023859515, -0.06545175722632161, 0.11306300423633342, -0.03497488174711092, -0.05532603109483779, 0.04846847356129534, -0.09472081758859756, 0.0904924427701925, 0.023693688191766742, -0.07051006496438461, 0.010350112270117695, 0.05452796061449903, 0.1462971477581398, -0.050305992732076116, -0.0849612298407926, -0.009953986521782374, -0.08520592602791073, 0.010753348554751449, -0.043539939667031104, -0.0019820051279878454, -0.08478567709003018, -0.029198890104737838, 0.038578534444945606, -0.0517076578682006, -0.01212388576218106, -0.04649046919851716, 0.025190749428889873, -0.1382111380401204, -0.03384305505860949, -0.16425919349433957, -0.04561834123259383, -0.0010404760465228399, 0.07372702075379403, -0.08066276789549814, -0.09236981180370041, 0.006420397272096437, -0.10017979922231622, 0.005346281759195654, 0.011431532024474765, -0.000839143283731672, 0.0811747784353988, -0.005159050552879275, 0.09930726915816782, 0.036426489838198385, -0.0541304702490893, 0.08155458788860226, 0.04702130423048414, -0.0030061409051554498, 0.11492468679399151, 0.010711580930792065, 0.015537687560437219, 0.07306070016558894, 0.041011377808931535, 0.04153346490347395, 0.05548469522457424, -0.12776918944699805, -0.06614406614351091, -0.02383551530363732, -0.04140252004027896, 0.058228642549157564, 0.01369373105280674, 0.02836455195664259, 0.207118296419134, -0.14438243613525256, -0.12581497037242992, 0.07383279169987825, -0.04968662767788274, -0.0456188773907527, 0.08672756630809457, 0.03406924311131978, -0.03883054573975818, -0.0397044799665632, -0.012154641146097118, 0.10387441039177467, 0.09657516494909509, -0.10347574495209443, 0.012654180538380062, -0.09677388961601958, 0.10349937549400708, 0.10342504354743798, -0.006928371264176733, -0.07207567644388876, -0.06694925082190338, 0.05392731429078683, -0.10213564549652086, -0.05635959254527019, -0.0008405683967069663, -0.08229659210863696, 0.11301274256919637, -0.07309965416996793, -0.017529149859131923, 0.014314068167392273, -0.09196878111086118, 0.11778394926831029, 0.05239627699820787, 0.09876321266459709, 0.010947384350553332, -0.016995687283360376, 0.0017416462825521487, -0.034137883679031984, 0.012733337786726542, 0.16367878274457737, -0.016012589477175022, -0.0851037963035674, 0.03358273730062952, 0.1008462075275324, 0.17204551803664675, -0.025542819307273618, 0.013965414448306875, -0.10597366818449676, 0.05759359411193089, -0.17698990030317308, 0.10469391516855553, -0.03205791832042363, 0.07720001922870416, 0.08927984371617584, 0.12039692534545325, -0.05375843255941223, -0.009310755054214028, 0.02098658348530555, -0.032025244447642646, -0.04157063969842452, -0.05926595376489042, 0.07233156391858094, -0.05972187221478556, 0.05004497348719939, -0.029126121275829957, 0.02765094910058433, -0.024246128050345313, 0.15490630895556276, -0.045989640343033225, -0.05065512994196904, -0.09071964651835487, 0.03960035878265094, -0.05603858613459952, 0.0993490399926734, -0.0008584385312461146, -0.03221526247695685, -0.07389909416952344, -0.05530250948524599, -0.0033841092948176917, 0.04522914378435921, -0.009958931944294987, -0.024039594703775525, 0.04438981008097306, 0.055953938891201996, 0.06409757052810139, -0.017305817331512912, -0.016624136520931598, -0.0613424863228057, -0.024294812169577896, 0.1090350800535396, -0.15047301926649778, 0.04788681252905738, -0.1394638484962293, -0.025139762159207543, 0.04340144735295833, -0.042797943634443204, 0.042569590757948625, 0.06327957893790795, -0.035062695658631564, -0.06666331041293781, 0.0507734672348691, 0.048942742834988576, 0.12271737357900483, 0.02327702555610735, 0.033155294049844845, 0.006590496361244887, 0.024052387221589682, 0.042485331106634876, -0.07600893708117774, 0.025056591148451567, 0.041830265737932054, -0.14070585503299116, -0.08664052054180747, 0.04843533291762725, -0.001603884949297153, -0.04561752550753512, -0.028884727712624125, -0.13815211408706402, 0.04380324246290977, 0.08394350178897048, -0.15789588824882522, -0.008479343729822283, 0.025056069094657536, -0.031341569466887466, 0.1688660022154214, 0.026764063107527634, 0.10717162791990936, 0.045577575308348654, -0.021770586438575778, -0.058179289113936904, -0.021284479427147562, -0.20664481629071796, 0.0176098397638291], [-0.0104884899061225, -0.039054698675071144, -0.0059080709437857315, 0.03654806141049135, -0.037778231821643075, -0.16977309375435962, 0.044492486773402846, 0.12270698748511508, -0.09661183208604313, -0.07772019996393827, -0.05063862266843456, 0.13450728689941338, -0.007870997650023125, -0.06248814242574315, 0.07835798245289376, -0.009477367804432792, -0.025987896921403145, -0.015704197716937325, 0.060327240676230916, -0.04171722143673858, -0.10190461091536801, 0.09129908792846252, -0.11616915522495536, 0.1569864436770817, 0.08555016602939522, 0.020956613326303632, 0.01430832102534087, -0.02410778079198651, 0.0426304452400956, 0.0678946505598353, 0.013472883572283614, 0.08365113230803169, -0.012393200723101417, 0.06707023859131506, -0.06167789901594167, -0.09401674212823553, -0.09051056053371945, -0.09896526310177044, 0.0031430316911099515, -0.012517678345392384, -0.05250482095774398, -0.03267641839470287, 0.20185018343738656, -0.11746010675496513, -0.021132897356003415, -0.0073994578988484175, -0.006108675767055019, 0.011548605410856583, -0.10530369298023377, -0.015265383463248494, -0.0765960128962781, 0.015704529967994672, -0.030700034661515777, -0.1112267992812884, -0.024622808961996423, 0.09893904847725192, -0.10514932736021997, -0.032821441174221755, 0.0013947007164836422, -0.08335689668282355, 0.01395154265459761, 0.01572700839969172, -0.04988322644087739, -0.021521842230836204, -0.08984560439081456, 0.0414186049383877, -0.10812266626296405, -0.030296639810173026, 0.010324661928962938, -0.05654491025511583, 0.22214812606792808, -0.0366239950242896, -0.02027032149332172, 0.05240474350259754, -0.09069103987934593, -0.0714511227950219, 0.08924340638863577, -0.09106069627952545, 0.07971091023094255, -0.012573028931281198, -0.1224361822645319, -0.03786684400824527, 0.024282231089134694, -0.05263309149901438, 0.12878060703705477, 0.06709698351285055, -0.09525645263521608, 0.050653548950551436, -0.04118305988429935, 0.048025461323910945, 0.012632309938818956, 0.19095626718839195, 0.003814174416588074, -0.047811604900419864, -0.0368463546608959, -0.01730778666387052, -0.04151984694771391, -0.06086703364198765, -0.02647459435817726, 0.079985497095604, -0.03752811460570949, 0.00730014473581053, 0.01865749898903669, 0.08173510872113246, 0.023373449275245525, -0.09455995455194714, -0.038749027114214456, -0.051056602160368864, -0.01613946445416332, 0.05957456650851862, 0.013419528579806321, 0.006554039825541653, -0.01479200436826398, 0.08746969986541021, -0.10397983772863051, -0.01260530004831212, -0.05175925393097992, 0.010004983074561238, 0.030440062353772546, -0.07370792596115228, 0.0775874221723345, -0.17712994023624384, -0.09050799145350898, 0.00016481500052064878, -0.023746983698013643, -0.10909148269393172, -0.0995443398180893, 0.05871805782500293, -0.04022016308424333, -0.14745965122689358, 0.06121254266526926, 0.02889640029192694, 0.029810515983909595, -0.11089052992469632, 0.09031855442008087, -0.017601957965303536, -0.01215326601167921, 0.0056521855878399535, -0.01752171557294625, 0.02929175497423354, 0.09439950943366178, -0.05173249086438121, -0.09769597650270094, 0.0010288594274500866, -0.04337450516874703, 0.07655436456164923, 0.05145788056448124, -0.04808927091295047, 0.033387723425981355, 0.011796047057924, -0.036369151933031474, 0.023378739063242063, -0.03396100228196191, -0.015492064328570138, 0.1545981846337025, 0.046376220321466766, 0.08730260808507079, -0.09172021383460811, -0.04687416011205635, 0.004225778288919034, -0.13130793488189127, -0.06839294426396028, 0.06734647118679886, 0.10796578586851958, -0.006982617745538218, -0.15029436971624394, 0.01684892633415886, -0.003298047565587483, -0.10955519973138617, -0.060520472122922706, -0.06387711167730133, -0.1286411194746682, 0.002678417242663072, 0.012245521503365737, -0.14008339097703043, -0.00511633669172638, 0.14072773162254526, 0.04990762816695199, 0.005798588354164128, 0.1186893831118044, -0.06156443797936149, -0.03523761855935985, 0.05827950984431933, -0.04991980472375159, -0.008803829441505324, 0.06564706177896934, 0.000916894656394295, 0.007067854037972884, 0.11636673329160303, -0.011313581871233614, -0.02124079327845058, 0.06851958399151796, -0.053091728919012315, -0.06393011007459484, -0.08297938665098029, 0.030888367546367063, -0.1322436765231343, 0.018094328545814494, -0.0029832536485330063, -0.058129485458434445, 0.15338097371222184, 0.12533189251283064, -0.03981924169366593, 0.03539828117249742, -0.04162492543042107, -0.014216239469659124, -0.05015114540416041, -0.05167171427231386, 0.0062488630668280235, 0.10286998174521374, 0.03755646840303155, -0.042684500856559435, -0.04850804854097783, 0.028265097513756582, -0.05878083416853419, 0.022925361144471856, 0.05059409836412323, -0.11174693525632859, 0.020574076899197807, -0.027127895293674566, 0.023196874614276646, 0.047986706206143766, 0.12664659538082873, 0.05177856352756905, 0.05142100781569832, 0.04405551876606497, -0.06187317645457007, 0.032909567735175255, -0.06845732444572901, -0.07594447651285742, -0.00856092270643921, 0.12077796413252057, -0.0009584112310064711, -0.08284874876915581, -0.02655743955721739, 0.22403958170596597, -0.001659118492213284, 0.05742963099155327, -0.05644476833164199, 0.07880599732886695, -0.07156935532316193, 0.02651903319199807, -0.05956460294549526, -0.03553320166179076, -0.05738765456327054, 0.14342618307875976, -0.037763010553681656, -0.07772953750461761, 0.04741129570922494, -0.007119865928021505, 0.10131313949017322, 0.022277332463910785, -0.20958635593772199, 0.000711713450607275, -0.09539647853565754, -0.02166072500013169, 0.044133319876823444, -0.10023713937974232, 0.05639078428189044, 0.05816017309888898, -0.06695290398533486, 0.044328140522604365, 0.27363344973292913, 0.05492110798937396, -0.06805850912543959, -0.034906368102625616, -0.014808224255701568, 0.003621948311201235, -0.04590866459918782, 0.24612603439383593, -0.034304257118991335, 0.06300808914685477, 0.010424293731915198, 0.04216098558871841, -0.029001257502713537, 0.11059380628011112, -0.039914576557942914, -0.07405597240947201, -0.08649694677968492, 0.14075341114621925, 0.014739263389076013, 0.0769965134236529, 0.10981320653111369, 0.007079588678547838, -0.0113447046981263, 0.024125075967743933, 0.05519553805726586, -0.07295715129494874, -0.014107209359284044, -0.06461798508853725, 0.016001075334934032, 0.002519118769403852, -0.0894600850792328, -0.061612250419931465, -0.11280702903719496, -0.10021531498463712, -0.05587202559858004, -0.03620293253934881, 0.07706310999967328, 0.15219318288549977, 0.03182890643092626, -0.04395061938341993, -0.003991158557568043, 0.004877098338419412, -0.017524782637099657, 0.08849190138692807, -0.08775995869883021, -0.027138402697620932, -0.16523962778713605, -0.11089127305334866, -0.028762167246978023, -0.15664241127804904, 0.10105811022823584, -0.019603559282545042, -0.06450145610580742, 0.0720121275371004, -0.08658579050728588, -0.029826322666491305, -0.06939085221722545, -0.063649463071588, -0.0555985058551036, 0.03199410744156525, 0.045053465133055054, 0.15122229374574417, -0.032334525865867235, 0.01534600701019698, -0.005962842919865671, 0.07875545869251432, -0.03525975747376941, 0.040473941982799355, -0.04134396419874122, 0.048698993512572564, -0.05277264304642122], [0.009609850325624631, 0.020344719362546764, 0.08993152234723634, 0.011090819426869618, -0.07219744812636694, -0.049484195081410054, -0.05230359441023991, 0.04340209822502335, -0.10041895235367838, -0.05340187649991699, -0.11556021963797895, -0.1135967870112339, -0.0591595300949201, -0.018648817957974587, -0.007795734441419294, 0.004729820241276588, 0.009248076369310604, 0.08524115053162741, -0.1387193808312682, 0.0027804537395228674, -0.018399464879855974, -0.033144368905784545, 0.038982297176290766, 0.10434566854937542, -0.044523073692738224, -0.015713155238563863, -0.07234731138447012, 0.050119664017668875, -0.011250080343794789, 0.07137924462534273, -4.093647057567288e-05, -0.045275497362986826, -0.021490702002466357, 0.09709413316213036, 0.039415175710466, -0.0019089061878160122, 0.06119528803984143, -0.20014657287688928, -0.004874559555034228, 0.07730989507713368, 0.15912329715605886, 0.03227000080643353, -0.026323984480880455, 0.051109075615330436, 0.15689859048027838, -0.022125556729452718, -0.018139586974006194, 0.0483401075337083, -0.09193846994296653, -0.05272722405921072, -0.012009680277676711, 0.05838899580670901, -0.08932753213823132, -0.041076930414100314, 0.11190648771328897, -0.030179750498941962, -0.08224317210257545, -0.06570287773050248, -0.01502780456683397, -0.13918386050246048, -0.03915909107732783, 0.09229296146050193, -0.052947545633592996, 0.039277305482425605, -0.06778135510173544, -0.03928576018230059, -0.05664104003286239, 0.00913727042490451, -0.09619962406196424, 0.09477480008611147, 0.04411089326200674, -0.014675134141051028, -0.041516112957642196, 0.01630775015318071, 0.06085446698839364, -0.0515940665823361, -0.08845760397410997, 0.12277389580612283, -0.009539261637051238, 0.06978751047169014, 0.002960004675628708, -0.16150623485316618, -0.02664708743380846, -0.015941251324617416, -0.005489131794324262, -0.03767138292887589, -0.06171123083480378, 0.022569425859744696, -0.06000976230275865, 0.031922403441309324, 0.028983757705106788, 0.10257163263776711, -0.026565408733465294, -0.03635988489002938, 0.06582127446531785, -0.15934977082233703, -0.11597688343097565, 0.01552490471836986, -0.08503974681694612, 0.0066618280961542944, -0.03553050205869002, 0.0018310667526759141, -0.1700477450074418, 0.021229096171217758, -0.04556058768403696, -0.04857714565916906, 0.06285745436528253, 0.019757752449519387, -0.011910841764575075, 0.1370876491184128, -0.05900804488484158, -0.12679294197629756, -0.19215598150138133, 0.11981842699570995, -0.08931376524538746, -0.0034287528726596496, 0.08201584547512156, 0.16002336181485557, -0.04238354785762705, 0.01709813758153776, -0.13244864363759676, 0.06990420392047804, 0.03563015472695532, 0.06322403208246682, 0.060328608266691695, -0.07961907748989507, -0.051113344644516265, 0.15117857539661542, -0.05594492883337713, 0.1567183195924797, 0.017777550169828998, 0.0067543050585855404, 0.02104509595828761, -0.029964851287513885, 0.01678951346779684, 0.08622455991725311, 0.020076012180609566, 0.013543986868098993, 0.05182425330964402, 0.07369375566890579, 0.08724881928127337, 0.034937952763174435, -0.06194241210520979, -0.05471083717304792, 0.001549884315830036, 0.057301802128899335, 0.06243297234587104, 0.08107324953973531, -0.005458810510794945, -0.002935879737142927, -0.029634860972192974, -0.1306750356550173, 0.09604146607861214, -0.09792331075456628, -0.03097608308461786, -0.037638860095268206, 0.013282580940758472, 0.10989264350782489, -0.04406883003556774, -0.11603012090410342, 0.006308225098333529, -0.17755218300021994, 0.03382228536295674, -0.020195747749335913, 0.07718409778076647, -0.1543978256072068, 0.04554236597229144, -0.060369251674110974, 0.043139922925696586, 0.06124700222715934, -0.15378200844882564, 0.02611226899677294, 0.03631875103949687, -0.04168048651934274, -0.016693753657210274, -0.033971028379440535, 0.21906996181263447, 0.04183898152530197, -0.07906305421582178, -0.09974779279425204, 0.05802051027887794, 0.07995835918063289, 0.03244803958456861, 0.08853792879717326, -0.11920831172545895, -0.05839604944393264, 0.026422571624877243, 0.08512930547978843, -0.013481134144010736, -0.05656342758356127, 0.06837634630776222, 0.1385290120840973, 0.1346719383767085, -0.05555023988337981, -0.09461614000464731, 0.0520087752387548, -0.033253074123916294, -0.08179409953215616, -0.06280884177287606, -0.004942592557687984, -0.06251739261841056, -0.0011815361004811967, -0.06289520985489, -0.007593298884307092, -0.02039605829167441, -0.12792184993379457, -0.07852639762573115, -0.05453521016960832, 0.06116338973598974, 0.06282991258984659, 0.05967467567115683, -0.04647217266925392, -0.032856625727039776, -0.09479220365695912, 0.09356848225880596, 0.04307450012353222, -0.013705355876795035, -0.06296435974737373, 0.04069809078653097, 0.022941292257912298, 0.015643178191560976, -0.07729874062092193, 0.0913665429065111, 0.043729802827911564, -0.006924669292768364, -0.023675076287064584, 0.0370519568503717, 0.002976678991510244, 0.03236813715610837, -0.016765204811556977, 0.12354457395318465, -0.14029639682839767, 0.13636911209390384, -0.08693018807285471, -0.03356866163011614, 0.1891886637113682, -0.03769672380221886, 0.03584755107000904, -0.04445029992719751, 0.08535475740554836, 0.02131543813346166, 0.03539560768304343, -0.043000663492098676, 0.02429472406273056, 0.04771104764993371, -0.035705115213478876, 0.0649332398578583, -0.013203330806298288, -0.0203139786256538, -0.012854461204257192, -0.07356316884308622, 0.09288680497985513, -0.04109899903663136, -0.14556847005555984, -0.05399590546141371, 0.10033827421207572, -0.0030710183089939207, 0.026744922637733943, 0.15731284958240813, -0.2271948294287622, 0.023542370854396463, 0.042659878858008364, 0.11669005569940699, 0.05002532138386372, -0.016628362219780153, -0.01923427254802662, 0.027971318102282466, -0.021899903691653528, 0.11638520699433297, -0.10568254428451855, -0.03056980762015179, 0.07554504728752176, -0.09806897083522167, 0.06132018107571434, 0.11077048990729964, -0.03667641906323375, 0.08094958012051742, 0.04619528337620926, 0.024707226482096636, -0.024218805021612628, -0.16767431666582036, -0.005043573581191277, -0.07623238544339668, 0.024341791030310766, 0.09416778416871269, 0.040680556461650655, 0.016600628515764652, -0.023901219537615512, 0.07532133795567557, 0.10233489873188836, 0.05803094786114819, -0.016805914941099922, -0.026096641005362055, -0.25380144052591525, 0.038220948158652485, -0.010287680525642637, -0.012827660688668398, 0.1752353865101321, 0.13883577071306838, -0.0002848144484534886, 0.1286398761164606, 0.06187345145747178, 0.049964585813052444, 0.14331399980821702, 0.04418135507456456, 0.06361322660085854, 0.07146692250771552, -0.07914969330308085, -0.11026812155490232, 0.18109723829215027, -0.06739686248013063, 0.11998065557872088, -0.0012592081653635128, -0.0003613721024810283, 0.08020683097105809, -0.0010448633023605212, -0.015364878345841845, -0.00445336380797926, 0.07700897722540404, -0.0610863030343855, -0.03210733353507941, 0.06861482064527633, 0.10848326661458274, -0.10575997952491077, -0.01589111434543883, -0.060524746772576694, -0.07925545198522349, 0.04321078613637009, 0.030313949503575972, -0.03412508416501071, -0.1910410645297968, 0.009208870503299655, 0.000707227825027772], [0.00258065281847927, -0.006115674750974077, 0.03284713792659517, 0.012120434997682327, 0.09867515844124894, -0.0322154157210637, 0.11578862935424324, -0.02050408931533872, -0.10333104439622556, -0.0005786300647409635, -0.014002755740488239, 0.07175151988600914, 0.03376362213674484, 0.21312245084154016, 0.06422363172797127, 0.07775576374418305, -0.010297488958688072, 0.09323266281776636, -0.04092907010625106, -0.030054540127424877, -0.006734327183750165, -0.04618597613596475, -0.03993780839591671, 0.033162798463524296, -0.006168022602388962, 0.07768583290973637, 0.07549306785660519, -0.07532333513485293, 0.11076429631212678, -0.026095436403068533, 0.19344948657786737, -0.10069125250017959, -0.0304471828147143, -0.047452448724297096, 0.0094325296538442, 0.111432626212698, 0.001696512793107052, -0.02955874543273049, -0.009310697432824528, 0.0636052907523405, -0.07772413344522903, 0.03776606997753546, -0.046599476186092746, -0.07338384250806237, 0.13471326131029893, 0.04010301985324719, 0.007510149191517497, 0.04753287056716157, -0.015759566708115475, 0.018802387755874648, 0.007968228623687377, 0.10817900453094008, 0.09240042327358991, -0.09773616166372878, -0.04204659198379993, -0.03562227135386712, 0.11242116317477965, -0.06716005557009383, 0.04977178987566283, 0.053019554670038105, -0.02744126398140724, -0.00982953672984353, -0.08743796058053345, -0.0366704375790927, 0.17149643575608647, 0.08412754688515695, 0.08453150943886487, -0.03326712705957161, 0.08964290512443397, -0.028683297274245654, -0.010215833114323575, -0.122167439724802, 0.03156145991077884, 0.11455922368158405, -0.00023961683800311807, 0.05045363593623612, 0.0342757295066976, -0.0032868673102536337, -0.04200132100227507, 0.033156048402467414, -0.04213147034694192, 0.1471112982628383, 0.07677688908834861, 0.005549790784315315, -0.11275029743795104, -0.015597078890755085, -0.08012904924367745, -0.09638034755069662, 0.021159170753111304, 0.08030483820661106, -0.013981091239518156, 0.03839136312288409, 0.008743778461890868, -0.002219732719543247, -0.03891843314900981, -0.01392874442801166, -0.005573532453517211, -0.0723612757552299, 0.14491355376229179, -0.016312300492622604, -0.07901877543313272, 0.043848814411389804, -0.02995678494679726, -0.040456099637108445, 0.017078089568939473, 0.01233176213118528, 0.16425257575512445, -0.022890726843248915, -0.039310869040931555, -0.026466020875127335, -0.002600903072232142, -0.17501182000335794, 0.011875793946418247, -0.0023733677093935733, -0.132990883334483, -0.07953307433445463, -0.17905920849944237, -0.02511223428273981, 0.06580298540144651, -0.0056834196657960055, 0.016779966794266726, 0.060983938031894926, -0.05106464420909942, 0.009730533015886375, 0.02187034885664996, 0.09263172541958102, -0.005382907669039035, -0.0024239928324913903, -0.01686825442005923, 0.06573169733097786, -0.15855464147754872, -0.011038533376479212, 0.10802726783324423, 0.029303245240942088, 0.17995086167434224, 0.03220293456889534, -0.12265311490064808, 0.05314024992926386, 0.08014723228202933, 0.07827306141867064, 0.03258656471816387, -0.0653520067772938, 0.02849521995559953, 0.03291284919947905, -0.03922764917877214, -0.008174757635325892, -0.12924157229859176, 0.1093001932773833, 0.06473263478617616, 0.06019289705093519, 0.14556313941552002, 0.018829479560147987, -0.10918708666779244, -0.15593317500907944, 0.002077675413892546, -0.04128996497044566, 0.04456918267651908, 0.0932620467404288, -0.06812651003515038, -0.14900416092411423, -0.04896395645924247, -0.06612988952857629, 0.004539222419644492, -0.05148281520259833, -0.03744143708889403, -0.03652050258781551, -0.0685637922636054, 0.059509178606580435, 0.127198088613546, 0.11178277631840791, -0.029081656051167366, 0.08273241243282915, -0.06157921289465251, -0.027011604608175907, 0.06454352711780871, 0.016042467370439822, -0.05378172058353083, -0.04699002057468919, -0.062293517563260445, 0.011553425003722688, 0.09502586813577499, -0.03959175981788776, -0.06935549882009863, 0.0993226918547132, -0.05820007612223057, 0.07389490619498479, 0.023674795541909897, 0.1709033454396965, 0.09578093063528913, -0.014963192012620778, 0.06684325381636978, 0.001393268395777861, -0.0112353305942127, 0.124227641850182, -0.24315881706407033, 0.05928841656070311, -0.05171091366975232, 0.0025518262926360414, -0.0699891695795953, -0.058079397885533256, -0.055300087666714605, -0.1006804954009436, 0.025554338550635814, 0.05455063354834246, 0.07016392681152625, 0.05653451796556226, 0.005872116382243047, 0.07073932830288089, -0.10140748401424343, -0.09446948157167094, -0.042960594251570686, -0.005106733700622306, 0.014383324665548586, -0.028494512940862977, 0.015268227269978684, -0.12519276657168532, -0.07948595701030972, -0.1361995074536021, -0.04430597494709379, 0.15141443081230085, -0.034227538814557014, 0.11377830593208466, -0.06113780542157452, -0.05891814328377607, -0.18848646502778338, -0.14577929291375735, -0.06561627751342206, 0.024137233079419833, 0.06182474940420788, 0.0864136135209705, -0.0014082975415765147, 0.010461169207739185, -0.058568123892671194, 0.07038498652986228, -0.12053321890119299, 0.058716770222674367, -0.004291239922367436, -0.05181748778387878, 0.018203312421655477, 0.05624111051295842, 0.04160194584935109, -0.10748402241148942, -0.06605124160528554, -0.02931402641163499, -0.00769600158223878, 0.015524819184027643, 0.01143357113494389, 0.1383357726386796, 0.11128982513379772, 0.06553942453666195, 0.055026004182228715, -0.02709783942881677, 0.06406925716607442, 0.07313661638028326, 0.0876402467209793, 0.03834728863074641, 0.046453427257104864, -0.03369222918259993, -0.1451149441845515, 0.01430564396184368, 0.01627955896812293, 0.07744223594281868, -0.09359681377094835, 0.040078365521313816, 0.008078281202021607, -0.12737602951720087, -0.09981945348056173, 0.06129773472274223, -0.0412045582894781, 0.006500921604488763, -0.15452179631434432, 0.01743356852859085, 0.06573172342232068, -0.011975672443745922, 0.053691429393023404, 0.025016402089457875, 0.055647741131899096, 0.0007092630923463437, -0.11939782221849518, 0.1276502270729152, 0.021750881737301102, -0.10373829676079784, -0.02851175664176645, 0.051761491733857024, -0.09876911498790387, 0.010145021282823546, -0.08074321801626916, -0.061637261181792725, -0.12764503890636947, 0.013106832650337397, -0.04019475349630099, 0.08524549953908296, -0.015553314031798382, 0.12410867925259461, -0.017537420909816102, -0.01734677996979331, 0.06420053905850939, 0.06961176036205698, 0.14792323248818137, -0.04752989976836312, -0.052072806827776735, 0.04526140217633022, -0.05053578896834378, -0.001414659283161016, 0.09189559235017368, 0.048754823752793594, 0.023457578349285864, 0.0638750768856745, 0.02262463890494976, 0.013034199606133718, -0.011028447096927768, 0.029182607152400897, 0.013103067540043976, 0.04851677550717651, -0.11146223214665402, -0.024257015554318077, -0.03798078226617077, 0.1436521092330199, 0.07502418328154814, 0.03531113558936753, 0.12558651030243478, -0.02736751400390377, 0.0118713620633315, 0.010669057170374887, -0.1538045936284647, 0.10766808707844655, -0.03262120813188615, -0.013569291369500823, 0.10381100101498236, -0.019654494464597078, -0.0040505710993700116, -0.006354104647503064, -0.08860825778177649], [0.06135811236816532, 0.1418921016780597, 0.09105460691652593, 0.03237365063066915, -0.04683807261772403, 0.004878856002209539, 0.012789489622233441, 0.14336911465023033, 0.10271802622926603, -0.013490984158841802, -0.06828008171271556, 0.012431645060587146, -0.027937555173525076, 0.01860570663313947, 0.02725047717288926, 0.03199336457943848, 0.045417407963911305, 0.0804751181399352, 0.17408092626379573, -0.03992137433927042, -0.033151708967468295, -0.16974400560380845, 0.08028027991331244, 0.06560902552969598, 0.031278161365438734, -0.10528406298964364, 0.07864058942078256, 0.04420268321849312, -0.03642633306224178, 0.09140288104024526, -0.06912114396412224, -0.04707243081618866, 0.03656573330069802, 0.10373961197646689, 0.02556696218124313, -0.0024747234567352285, -0.035689918279982955, -0.06176979951001871, 0.004943406617920107, -0.05992541385231754, 0.030132581262100132, -0.03494163553843605, 0.06519629430545178, 0.16704966872472804, 0.03896648408706969, -0.1539000275797173, -0.13523376236788825, -0.00980633032997331, 0.022090983881348662, 0.0036696813543961302, -0.05261784718681114, 0.07300065308028975, -0.07450685610970824, -0.04745248253692831, 0.07207059246650932, 0.08145952741833762, 0.06757348976470556, -0.0016558889759243443, -0.022564450953908376, 0.022075229602163102, -0.0724105692719744, -0.022318774991670457, -0.08326597800760742, 0.0247528814340808, 0.02297050346033092, 0.10813248859041771, -0.043314892002983885, -0.17767813435878801, 0.082664508270317, -0.18456312498014235, -0.010733590185484341, -0.07011578241586541, -0.0012255642344035666, 0.1344505867914054, -0.03797499660100886, -0.049148300962323685, 0.02417395486467222, 0.015244168880813314, -0.03471715242777851, -0.014610003165667157, -0.0030900415467695484, -0.02209092357496721, 0.05824150991346418, -0.0613098214926853, -0.03939568323772973, 0.09844249551722292, 0.05900952230810245, 0.03204661910999742, 0.126156384274924, -0.16119873019152212, -0.10292107397975336, -0.14413603679450432, 0.04978936790261106, -0.18895661402730637, -0.00033399021600941396, -0.14123806764831398, 0.016002399339683282, 0.05379292434347823, 0.05919599048865641, 0.030777689027803354, 0.0004912538145319643, 0.01229765633475761, -0.036434945265837015, -0.07765210294608668, 0.006923066740602644, -0.23183018049260487, 0.014425579926589332, -0.11328107911922072, -0.09849818471529859, 0.06094914675259235, 0.12335400878857077, -0.015158805648785863, -0.005709842154384387, -0.03686392857107386, 0.0733511508559577, 0.11863892538885994, 0.02654578176616026, 0.043826890544900896, -0.1850056826888473, -0.0640159767407585, -0.13059645704307535, -0.03226890502200912, -0.06472384071183475, 0.061483013834680376, 0.08940640613161435, -0.04003625814906689, 0.07847088406707993, -0.09676528353391078, 0.023046992542942693, 0.0870267969631517, 0.05753336103512393, 0.057880931973216566, 0.07482080421245328, -0.003690114657374879, 0.02772264572144706, -0.02554515832501276, 0.048035819181152746, 0.01794272483690189, -0.00785482657320992, -0.0994297403370713, -0.016437510906720014, -0.08045771945459959, 0.07088826741999503, 0.003228730968363797, -0.0361466864938851, -0.010483471004422654, -0.03238545635318304, -0.09264385561840058, -0.038710340506044785, -0.10246508055460947, 0.072661340674032, 0.040130638851270044, -0.022708617070649622, 0.0983494201211535, -0.08548139740582597, -0.032409225939401064, -0.009367106323285683, -0.01379380793470945, 0.014510472251551535, 0.038990926862544906, 0.03860724515920698, 0.1927405645751502, 0.11449407602395112, -0.030651368898859537, -0.0573727372653964, 0.037182088991859194, -0.007492313019716565, 0.004397299970539371, 0.12270733707616052, -0.03279513196032499, -0.018130020074391566, -0.04861648191158347, -0.026297560663864003, 0.12007892104161212, -0.003946313555273913, -0.03364890747060896, -0.1679357441139973, 0.07087406208802147, -0.046738951810077554, 0.04969830402962727, -0.10906435045686211, 0.15358627842688177, -0.03985269479268261, 0.041696755506247636, 0.14695841538895452, 0.010645427641001626, 0.02108974537069056, 0.0522001512934283, -0.060711768037581035, -0.08902557447528232, -0.015188004350840603, 0.07663058643323778, 0.03209177338234484, 0.024267796815696022, 0.1033519250221092, -0.2162277234164576, 0.027958498742562475, 0.17765374209666088, -0.05761098287106413, 0.19399763582837243, -0.06543987020287169, 0.1515368386859433, 0.0898562715249489, -0.10086307304837322, 0.050539037603425076, -0.0496938883322393, -0.06853846132999117, -0.09054432931546333, -0.08236157498123052, 0.15230406590487414, -0.04535512583641622, -0.007086841048300221, 0.01982758295818495, -0.008852888560761637, -0.1511352074203098, -0.007348199839776364, -0.05991959003389395, -0.05036696799360769, -0.023272481038711455, -0.037048927789193706, 0.05289407388549338, -0.06176377285721, -0.012965902664708304, -0.016809444543761196, -0.005880022421933228, -0.06826798063356031, 0.08907584022050788, -0.10577601815408105, 0.13513802135701575, -0.049927448684858496, -0.030916089348770666, -0.062224522873922106, 0.011731801740405825, 0.06820488595179595, 0.08644440824548395, -0.09177065534244601, 0.13420724434623182, -0.012447451656334154, -0.09408796958312828, 0.014048385300244076, -0.07610854071656144, 0.05516035279635611, -0.08581853213072213, 0.021800580816709086, -0.08643611724809523, -0.023284166255730758, -0.09560877746959258, 0.00040157188854829043, 0.005498230028951969, -0.015436653932044497, 0.05569512256433165, 0.030078263176066124, -0.04636172286358753, 0.04961955641731772, 0.03254173078043601, -0.06138909410593713, 0.1348053489165724, 0.026968561343002594, 0.14119280619405686, 0.02177177287465579, -0.058939930115868136, -0.08196735327640864, 0.00018387554232505586, 0.06548374666655433, 0.14745317729821272, -0.03653208132859415, -0.13562991679997485, 0.09518663935953825, 0.09975218984732104, -0.062061473722851056, -0.04939351003976573, -0.043978125753312454, -0.009234333112799135, -0.03250796534034405, 0.0017553425554237996, 0.12701653585240721, -0.019790598567041115, 0.018985344831452422, -0.128103088875952, -0.092331652603613, -0.052946537717873825, -0.04900376800288924, -0.02076223279268753, -0.06998168110780686, -0.10921246478822585, 0.024438800892096425, -0.010734585487871593, 0.058213976998023075, -0.05464165506992132, -0.07295387089736897, -0.07222939900391706, -0.16404870584094167, 0.1024211824440632, 0.00404952750009267, 0.06270876302342669, -0.11192885969876107, 0.11825108597776221, -0.03471127064897858, -0.01299671604694872, -0.15658517196441968, -0.06276826930292528, 0.10391479856892863, -0.08211718992254935, -0.04891117170691197, -0.05039735996413355, -0.08843111278823411, -0.043854961619196144, -0.05004826842594048, 0.011497458203699346, -0.16298489037615366, 0.047812747852408646, 0.026291729988467682, -0.015283016800827073, -0.03278329093654563, 0.0765846693621536, -0.11271084079760546, -0.10322540786453721, -0.03505016189430739, 0.10412710371388825, -0.0065445269042728755, -0.013190758981686802, 0.11165717319448734, 0.06284141671788494, 0.007548260818940827, 0.023319430996079027, -0.14374546491282153, -0.02478390382367264, 0.12171655980466221, 0.15807142757555684, 0.1227362236113152, -0.02527890126468777, 0.05165864371244092, 0.04620986413563542], [-0.06957971169608138, -0.06395417036092071, -0.12294400258835848, 0.0863615973749439, -0.02540723349743551, 0.008863578313740347, -0.023560030775178736, -0.08429922497650663, 0.044020312821480626, 0.009653575318804886, -0.0030333426546751393, 0.10342818020964621, 0.011702513771045158, 0.10646122229671325, 0.020171080465525883, -0.01523984383431992, -0.046505778807679504, 0.05350351059078271, 0.062200791881154044, 0.061455312239728145, -0.014115102421255292, -0.02028306377417021, 0.1133697522976723, -0.02932321015058964, -0.02853961595609751, -0.04324782446175117, 0.09201522727298289, -0.1278369114463323, 0.017413295651321898, 0.08401261679179464, -0.12197530357115002, -0.08026886285341622, 0.09203950577794305, 0.1893856568687761, -0.05814146082768022, 0.03142403199456434, -0.0685165572851517, -0.10255537494348586, 0.050593938686597985, 0.2391668658097342, -0.08285855071434267, -0.040162061081025824, -0.19649522715576648, -0.012231146886716596, -0.024107991149751297, -0.017041260502785142, 0.0694751104819187, 0.0309601580875401, -0.08891681869633417, -0.03420675946843899, -0.05783137532079626, -0.05334689820606965, 0.11111105398958937, 0.04706787194786411, 0.01919633999929928, -0.1469610768607844, -0.04411675534201155, 0.0014021419457888918, -0.023271520510636995, -0.0014844733822640228, 0.020775999457749002, 0.051844907605273105, -0.011696773851077048, -0.12915710350134832, -0.024953016712636125, 0.10244086455764265, 0.035267973216045606, 0.06306773986458777, 0.05831074012833208, 0.0037648909792711064, 0.14314130025247174, 0.082354219704199, 0.11389391190614741, 0.08320349735012553, -0.1281922961440366, 0.12551889280590348, 0.008000784168752486, -0.056672656517762446, 0.02638577679658257, 0.09592830711512985, 0.07851778705989211, -0.03634735080204886, 0.011311007993418217, 0.12776140891808946, -0.10122251367630024, -0.0372564673570956, -0.03399601765191142, -0.10013286907611749, 0.08053713514418943, 0.12120723256440574, 0.08739111343917383, -0.008513001993545858, -0.12730174768961902, -0.07816791058641981, -0.048015882504069705, -0.19531305296369486, -0.08703014158627592, -0.03775202315704747, -0.1136453894868292, -0.09499887805078645, 0.14643662471976474, -0.08874003051137835, -0.013146593563184256, -0.03661586657716356, 0.22040596847848262, 0.032244031165868624, 0.07520977195669147, 0.0646078497545927, 6.362060772788394e-05, -0.1862373433143126, -0.016161500001426424, 0.1387648693849318, 0.159620030386016, 0.015464958014407398, 0.06279176187112738, -0.12978451685224848, -0.047766849332593196, -0.09492246349786515, -0.04596732267858662, 6.372319770303668e-05, 0.0954112856658237, -0.06415423175337685, 0.010430712801242288, -0.03926560144118671, 0.07934212885401813, -0.1156998177830708, -0.0194532678634871, 0.1537266347068136, 0.11864912493876865, -0.04380408157887446, -0.09008100559485109, -0.0024181541656392606, -0.13269748523134087, 0.03993415626647685, 0.10916653798732318, -0.010227914618550256, -0.021541575090228134, -0.02889050212207052, -0.02472586232385415, 0.02120563627035414, -0.14162247720165055, 0.17739391038323743, 0.031310697331216567, 0.06249513487432633, 0.0439736734585003, 0.08525334868296926, -0.05258716730438938, -0.005868344720582363, 0.18405440363179607, -0.11113665925837672, 0.08815969842609096, -0.043937474313100265, -0.158985855340266, 0.024523628716133745, 0.01756771543516795, -0.019241740698732548, 0.24331676493333737, 0.05394253916535348, 0.05157983936916695, -0.1128346927641496, -0.09744790239777464, 0.0024932985973380676, -0.002934357444855848, 0.18063460127256623, -0.05216612227323992, -0.061414478167426775, 0.07836020388769334, -0.03512351660485401, 0.07003735036290541, -0.03853196131086765, -0.16625762673106181, -0.09922021475170825, 0.03387050126695933, -0.08842081111991201, -0.030234571906869154, -0.061553771753029216, -0.01600611717203962, 0.050342970050303616, -0.05305010916189816, -0.1428242946595448, -0.04875974114015997, -0.12368760506053524, -0.030784743297162385, 0.06911210677324495, -0.06731544364896089, 0.07628284003492647, -0.04257892477523875, -0.12224689467031893, 0.045177850020660396, 0.015909239536439197, 0.04870128586148769, -0.08717867675082754, 0.07781901209319769, 0.05898516520243967, -0.008981196799749822, 0.012568569194852136, 0.029971158178976606, 0.001017545426232851, -0.002833407788566039, -0.11956193339367192, -0.01988416113945922, -0.06428586343208453, 0.06384533063948712, 0.0703043920496996, -0.06819301530467475, 0.14664039452395083, 0.04542327921884163, 0.05609380612077244, 0.06367895143452115, 0.06869457572988152, 0.04919353255406199, -0.08884854300618993, 0.0647633247739276, 0.06085491018890398, 0.06895616529790892, -0.049889799920675854, -0.07886472212122714, 0.06552041823885285, 0.012404621282574784, -0.06949619697667556, 0.015912589813965546, 0.04214725710065603, 0.01215924349258298, -0.007401144815385147, 0.02071049388156211, 0.10848414217051876, -0.04633432404515609, -0.024081299964583674, -0.1013602435279247, 0.01306919455771858, 0.03493489411107862, -0.014919646286016516, 0.05344020355871915, -0.11145438834831986, 0.028123988729034075, 0.003091063028204826, 0.046838734397242995, 0.05074837425065085, 0.11082114287334537, -0.0674317620195113, -0.059813983336804794, -0.09120594820391432, 0.03362774073952147, -0.021095346301436897, 0.14769895379084053, -0.0005183282293782631, -0.033703109938807534, 0.10457817427463005, 0.019943603115882405, 0.10004437338915195, 0.006517970243590124, -0.03420701022311925, 0.0721475030583511, 0.02198036028616446, -0.08274440617394642, 0.036602103871295116, 0.05604204002016525, 0.01506441377956199, 0.1245319445038045, 0.02102301426363444, -0.13321400768631503, 0.0044636018209904, -0.006148670192527129, 0.08834987197024825, 0.04701809890828332, -0.07060225971319899, -0.050398449264502106, -0.06864279590717713, -0.049412783574814996, 0.05893436438422818, 0.07824594082430433, 0.1101032893328758, -0.04558585240677018, -0.16945780800387042, -0.10316844448223618, 0.07471490319675482, -0.11791441094472359, -0.12654710777039935, -0.06343963882446586, 0.029487486968646684, -0.0726044310982848, 0.08759892692728218, -0.010527803278731703, -0.03679136884517695, -0.07442150154857834, 0.062657016438154, -0.011202078216779321, -0.09363821591409847, -0.13789930856155874, 0.034616435514354026, -0.08040813446647327, 0.03803318354804412, 0.12469495164557101, 0.12654044833853273, 0.037669204670177016, -0.09371192797520408, -0.07536288395322648, 0.09090873173711034, 0.045144635234241975, 0.1127726434014376, -0.15642566036532654, -0.1356308705885735, 0.2523918918206802, -0.0938011755585654, 0.09868982285735765, -0.018543286442052765, 0.04028698582715545, -0.0887884501351312, 0.08052789067963201, 0.15927983795529366, -0.009594966414856323, -0.004789812931139676, -0.05652222239614199, -0.03894538767398815, -0.0529503689973887, -0.08438657944391202, -0.1051019620704027, 0.057585273351502875, 0.012453502307339846, 0.021972751478276722, -0.004877552978401951, -0.06425443474733546, -0.1520575592637663, 0.13784107472073462, 0.08802446915166998, 0.05132731129463427, -0.025548515442811982, -0.0031618107424088568, -0.007420987432966143, 0.1028925509770074, -0.11084872717792896, -0.10164240942022737, 0.04640082219390442], [0.06422657338801353, 0.04343256625447286, 0.03246672543969912, -0.042189316303748885, 0.08907571725250231, 0.04510275621365112, -0.1684717089873263, 0.16101359569328175, -0.011661801637936273, 0.059766285409064694, -0.033063124962810206, 0.13085329728933673, -0.09261709572809547, 0.08586081333957919, -0.040327688701488125, -0.0801830641389437, 0.031986368104101215, -0.009061532237760052, 0.08851081808119197, 0.08002957635656932, -0.16736680294796982, -0.11863405773532434, -0.026795053221513872, -0.07311052514766922, 0.06971447669263438, -0.10389905376401877, -0.08800303070868078, -0.08640379759451192, 0.15136433391533982, -0.0008155489816484221, 0.05077127909296279, 0.06182352221844285, -0.001674324916289944, 0.05624047900823922, -0.03749188408080886, 0.0958628965180711, 0.021059846063859633, -0.04653895487001976, -0.07975538227475741, -0.0715397287996911, -0.06976982763410051, 0.09202662593560841, -0.025377029205980232, -0.015865882052305835, 0.043109521396977726, 0.11446274401135499, -0.06397968107079412, -0.013198035310918703, -0.08932075979532418, -0.06412883283247031, -0.04307325491274656, 0.0982477887402239, 0.008432639122112052, 0.02474534646185099, -0.15526725790146145, -0.12344619358045972, -0.10005325029713359, -0.09779894402507121, 0.10307038465981026, 0.12105809642395735, 0.060141656473205685, -0.08669586175856514, -0.04331406156400077, -0.07831129482784265, -0.014625221707130334, -0.045837245045851176, 0.059349748685378775, -0.0974757313003992, -0.14840284657960526, 0.049821335336084516, 0.14210425490718084, 0.030356250966845442, -0.08155883898272791, -0.07817551405282643, 0.0013206615017006267, -0.012506891924540138, -0.15508813518201478, 0.01460401090630042, -0.06231451275554769, 0.023385789034967203, 0.12255537231487762, -0.07003908725828324, 0.10743049342922024, 0.08818956612176994, -0.04102736507944041, -0.05566078537287188, -0.16176624630592223, -0.09107297861280628, 0.056229957437777194, -0.12039323449578446, -0.017883150615248387, 0.11260783487693779, -0.07767728680230053, 0.042487855670031216, 0.021584977935305935, 0.04766352780296021, -0.07967523721989439, -0.12339975024178276, 0.00514699492624841, -0.11203064191583148, 0.018178209715320873, 0.08982600840993339, -0.041419772928905876, -0.07563934382323666, 0.023509306827853137, -0.12651591991861316, -0.18120151847881869, 0.10375223161853141, -0.009155900869626886, -0.14088285990832108, 0.060758843760051966, -0.09402959112560837, -0.0232078336458232, 0.05697186489710901, 0.0449566056904931, 0.09615627335928742, -0.10544037960804914, -0.025614215266981846, -0.04441774385560354, 0.01769531227678882, -0.06148842143186214, 0.182880859848229, -0.0047153833117017626, 0.02231455237089718, -0.11998099104286916, 0.18479925142249182, 0.08723672483886952, -0.05236053980760339, 0.1729774420369255, 0.02969656644436832, 0.014272674928172847, 0.14928319759814515, 0.0812036865684015, -0.04390924700966129, -0.062334397875923556, -0.08008241428443906, -0.0707242987612052, 0.009164208384366676, 0.06504073041483009, 0.04991704240251895, -0.04502844673461965, 0.009208560675265012, -0.13146795381430765, -0.09812907497222369, 0.021160273164499248, 0.07650892928043913, -0.11671070100041293, 0.11212248004055375, -0.0770464941501933, 0.1271955022132578, 0.03104801340448578, -0.019890444754671693, 0.07517862861704139, -0.04964273660313284, 0.10127077169171034, -0.038525498542453546, -0.08965082114373005, -0.11440817896759956, 0.06498938223200944, 0.08648100323046833, -0.08179120450053698, 0.05211374351000511, 0.026044340305064317, -0.06278389198305571, -0.012150278080268159, -0.004460353640215507, 0.03790413860085377, -0.08099406676980629, -0.12624306782091174, 0.06146520092495451, -0.06720188141659822, -0.021900878653525777, -0.05223772123143463, -0.0469414086455579, -0.07244005562299423, 0.037089141671915196, 0.11084247404791922, 0.13101849612611877, -0.11050998070981335, -0.12326416613407339, -0.05022824435689995, 0.057699507459275885, -0.012561239191483711, -0.09391168185997466, -0.05477859741340744, 0.027683937522454953, 0.11627548149875551, -0.10497303722660423, 0.01124532792711912, 0.008376367915708336, -0.23179888628453102, 0.025016406185231075, -0.0049849024672561975, 0.006729720585038947, 0.027166052721954926, 0.10573118841897866, -0.029183608610103547, -0.12223674820786462, -0.019735388972508705, 0.034670889086813435, 0.031113482684667564, 0.154480490914693, -0.013022268899751433, -0.018139122861717632, 0.023874168507057498, -0.12675878563938128, 0.02941196094268623, 0.02765059998829992, -0.08410592429655246, -0.06265485220270203, 0.03703003966083111, -0.09210063021532922, -0.026379804597623263, 0.06239756804074378, 0.053355760946113495, 0.004404097194354791, -0.07831259483154773, 0.002469881214745115, 0.020836708946752033, -0.004360391100883391, 0.010974068219238053, -0.095609826736828, 0.10138565470296902, 0.052311209488088393, 0.016591111570970235, 0.014875792484766693, -0.06887137539031132, -0.00602033239430021, -0.012675750507470837, -0.01545072682303191, -0.030597711093818855, 0.011029703523625478, -0.08558709285851773, -0.0004042613556684035, 0.010276269367583718, 0.09985211152106799, -0.07786499642485892, 0.018895276236222724, -0.16730929225344893, 0.1320911861378316, 0.000843078570120102, -0.0875648775467304, -0.0560308452301963, 0.1624016114234523, -0.02991861571475604, -0.023656975107337136, -0.08524261448418831, 0.004972088374629539, 0.02375034963804222, -0.10683958766606158, 0.034935079689046494, 0.027189593226008495, 0.1750773872089169, -0.06194342997193364, -0.02061783864494808, 0.020870247249357245, 0.01617068644763219, -0.04551060212872265, 0.08760987420186814, 0.04267858809766426, -0.029719429309712955, 0.09010242097120905, -0.0018609218805266347, -0.05027065029715898, 0.05493336537551789, 0.12328405711827327, 0.035042943774230347, 0.00015541270629403783, 0.11218369222369114, 0.06152273365876179, -0.045433145965292826, 0.13912022816191222, -0.053529306364086184, 0.05811222029707698, -0.07665451340520504, 0.13257215762810481, -0.06857699316926025, -0.0015500409356363038, -0.0239133053599494, 0.00839789478460962, -0.0777830204668824, -0.013419063103990634, -0.14972885696143204, -0.1304425780506069, -0.08370916629411229, -0.1359739074120261, -0.0019280595870669911, -0.05847801069945689, -0.02121473734223983, 0.10534118898831271, 0.009526675206240197, 0.0766864396166464, 0.015959124349886188, -0.050168047632857204, 0.10563505543851544, -0.06606730007830122, -0.060933933992841645, 0.0004793511012341761, 0.05017547743944477, 0.08344237197345908, -0.060498324671587556, -0.026044980503724228, -0.18847987610619948, 0.0012761629790317773, -0.013284508901004221, -0.02510132873223962, -0.04691214106740341, 0.10206382683449318, 0.07424987613177648, -0.022929948196306234, -0.015797212891088513, 0.13321869837777472, 0.0678149557940904, 0.02783284005221996, 0.00874952856171042, 0.019164796441952476, -0.06252709783666917, 0.03151073211867688, 0.047994742949778776, -0.15094651657098238, 0.0053370246098768765, 0.1673455981654137, -0.05559085806302277, -0.016719249164325302, -0.08244517001413232, -0.05898483203489515, 0.08560612841767345, -0.1890955020727842, -0.013017111457639315, 0.06781361500281992, -0.04335669606405003, 0.02005604387843232, 0.021476336521894273], [0.01178429441359652, 0.02449111939128473, -0.016399235135273072, 0.025094511023219523, -0.054087866002143506, -0.05144372337618631, -0.013230679553568745, 0.028203004779709308, -0.12095645947985394, -0.06004906641078719, 0.05026098260971248, 0.008301161505284416, -0.07410728529715667, 0.14689575289649714, -0.13196064685835113, 0.1140643913194883, -0.07070755574858759, -0.151860927675872, 0.030472763220205975, -0.062202693057860144, 0.013783551457266926, 0.014905534283414578, 0.005506468164288214, -0.01694172626098364, -0.022982596694042557, -0.039896717657163974, 0.013187075788181103, -0.06190303707683969, 0.032233960590276764, 0.05129007666818671, -0.0837656546357256, -0.22139550347207468, 0.08417856880006529, 0.03170531471977371, -0.1380585818164633, -0.06660517403091273, -0.08146632133161513, -0.08150704013267479, 0.17667169869670601, -0.09154121656288322, 0.009313100914626185, -0.07847063253006807, 0.052769567635592075, 0.08241347789372297, -0.1724140236587435, -0.10106941142320948, 0.04165682363209217, -0.061470423734789004, 0.015456111089772096, 0.01331021607025354, 0.03944001647241629, 0.007961328627199605, 0.11602513518855817, -0.16893746165529971, 0.014553423012966854, 0.026453339904132712, 0.06773006452226706, 0.19529849974667593, -0.012092680411871878, 0.01652778104651896, -0.09310341095114358, 0.14001403755986577, -0.009492503703441412, 0.05136111891806114, -0.008210284653671929, 0.062254277775387556, 0.02413796919276483, -0.07167676110023039, 0.179005167677182, 0.06675084484519897, -0.03026539244518119, 0.00564401403151673, 0.02301580652193301, -0.12383866373304021, -0.0036852102905804438, 0.03905819362392203, 0.0884934737411029, 0.051142659044043, 0.017376181331328344, 0.07477322223826734, 0.07115266001264534, 0.006220124807911094, 0.09556227889875618, 0.10587432624922878, 0.07400797429098843, 0.04805664768336478, 0.054154230242111426, -0.016075623024823436, 0.0063665863120197985, -0.09822214239333873, -0.0009546691878207124, -0.014996172418834506, 0.05398368921893664, 0.13476955968323154, -0.07895145087466474, -0.016476439868809534, -0.06611303520308764, -0.026545719673303474, -0.06937281058075581, 0.04782950531574026, 0.0025156712724657957, -0.03910495223504239, -0.05233068668435695, 0.06394183270626604, 0.20302939527569627, 0.06908090825575429, -0.09083637228835933, 0.15442749286382113, -0.05224810479333138, 0.0023688167417478647, 0.02449163318939545, 0.07601367884478187, -0.013014143370589135, 0.08022970191728791, 0.1061275150150502, -0.0004458437140155988, -0.005100604150257043, -0.03544932168280804, 0.027455396713185257, -0.12417166160866913, -0.04153768332190115, 0.011316693903815574, -0.06427621211535568, -0.026590994764997673, -0.01379582534360075, -0.059229297667746435, -0.04656426837130067, 0.04996963656166245, 0.0039288251704309475, -0.06743427278636532, -0.0892394045776482, -0.008555377571902376, -0.03694458428482976, -0.1615200561016929, -0.0001923030532224307, 0.061584923480557524, 0.14723640607783628, -0.08711929459949341, -0.021114599648893066, -0.03983144230708628, -0.13624354800828786, -0.021325068097367894, 0.10060678454338003, -0.09924669655018824, -0.014562954419247296, -0.0827200864998187, 0.08778998773876169, -0.0882349109102343, -0.022083556359243705, -0.018538089309066735, -0.019778391643270596, 0.11694846418842857, -0.023178641960949785, -0.05581887921743507, 0.039074922094638934, 0.09223605009833553, 0.0176753729953107, -0.02395416739007386, -0.011594877252688691, -0.06956257423782472, 0.07128826852160004, 0.08215416937876863, -0.024152327319081176, 0.13033138964517219, -0.060086241434190786, 0.07530385174941343, -0.054725881422877834, -0.06134975054731237, 0.07703213419120598, -0.043691802366774515, -0.15479169912272833, -0.11555160124404786, -0.05128392006317577, -0.041132129489352465, 0.006957782160164551, 0.049331091084198364, 0.09426031536903261, -0.08242706980922274, -0.01994379022727296, 0.03393322301584682, -0.03643523347090796, -0.19605771118640444, 0.005945531589222348, 0.052557717337439906, -0.046941770600667745, -0.04517084216218636, -0.06680529619758166, 0.025716541957746093, -0.004601276944282696, -0.0383157105588091, -0.02852629092863527, -0.0034404443711424405, 0.013769378989248687, -0.048177537063706186, 0.14869552666432556, 0.05085889049814602, 0.035306771886859205, -0.0706245736430534, -0.0419928725831763, -0.1014480631377077, -0.024879443574133086, -0.06871983232514442, 0.04647767709167864, -0.03432145850755873, -0.1257933918327229, 0.09984074129414984, 0.03525706772099395, 0.06011970386802948, 0.030586797772409954, 0.10284262695715601, 0.11980650278381585, -0.002297278801349161, 0.02362524010189926, -0.038818361434180125, -0.038707141511223196, -0.08124214293344333, 0.09212331070915526, -0.03529853061647725, 0.0006557488263596674, -0.0016067801511731226, -0.014092875083331981, 0.12455469875386227, 0.009976018854995787, -0.09392718497130531, 0.04541412278180162, -0.03751486704936077, -0.04544656876986448, 0.03768595085782415, 0.04380525420664916, 0.07276295248894221, 0.019422644220159657, -0.0377754828453917, 0.14491551517672124, 0.06049045207330407, -0.04697311718390258, -0.10503448745306528, 0.11963957448272781, 0.06011277569528507, 0.052332037873258894, 0.19617787844347354, 0.06988519473826868, -0.017059597719348254, -0.04893856622665143, -0.02508165135882736, 0.11648120044428603, -0.09867510459488332, 0.11279988267121059, 0.010667425850750237, -0.015931544524753535, 0.02925835275859893, 0.20547109499923152, -0.09707048472052332, -0.017092902164223666, 0.044271800848151105, 0.039900699460706034, -0.045334436272636544, -0.026691041302620316, -0.0687901015900804, 0.035625158516587485, -0.07642768317184596, 0.019336217736358744, -0.08660329484837126, 0.1884786618080513, 0.12310500679517905, 0.007063504944039313, -0.0053357266829808965, -0.027834359758922726, -0.10936956537896286, 0.02025390016333182, -0.03284469774068714, -0.21989349881446496, 0.023665817268265558, -0.032845461266007916, -0.04098389259164232, -0.00603743219537769, 0.02784368174181289, 0.0076735863818624414, 0.1154419370662062, -0.061082789396993624, -0.009960385723592797, 0.05704576962570699, 0.09774850629988623, 0.010111930164751771, 0.015708073866187243, -0.07240752551114288, -0.07768525332830194, 0.12318099299781717, -0.10801513464435412, 0.018790886251460952, 0.10304601814857191, -0.004118907825617602, 0.09509494355430426, 0.015323176503655023, 0.03768881469041984, 0.04013136235650934, -0.06165327176593999, 0.15004676013661117, -0.0702167986582409, -0.07967935301049991, 0.06340553237236382, 0.017050235940620037, -0.013518929760697075, 0.01634155823170584, 0.07452245449551026, 0.11844636812511906, -0.08598880351280665, 0.10853759325204752, 0.04028195863797176, 0.014851895221208566, -0.07813069817657968, 0.034276113659656784, -0.008591353892187098, -0.04479905844702196, 0.09089608916424462, -0.010412228416069477, -0.08898111163295652, 0.18096901935191115, -0.12758462391654876, -0.00046449132302368114, -0.008028291325039618, 0.06282528157480148, -0.03340067569108064, 0.07873846235420534, 0.08863132834425358, -0.08276057996419808, 0.014508697251977218, 0.00922411578627541, 0.018911319243757593, 0.013779746451402959, 0.05433920401829328, 0.0013831346443560811, 0.14119719317621904, -0.015701657204623236], [0.026967817666414103, -0.06375675176290208, 4.352768794600566e-05, -0.06493072594610866, 0.1205947719131102, 0.024484120910248514, 0.0474538594458607, 0.06611728204826083, -0.04938265881640873, 0.055091196102545786, 0.06774315910386941, 0.037645584711589415, -0.0770985279947245, -0.11868458299893175, 0.05975036092048868, -0.10122910270515036, 0.04936620080046551, 0.027326095885965136, 0.010612151637102753, 0.10117045870534878, -0.011119053051463839, -0.04567314668500731, -0.0253340020685197, 0.07249936783261926, 0.0541915750477941, 0.08858315438766037, 0.004190533005265488, -0.03793644056204775, -0.020293122949842316, -0.04592159982565363, 0.04125567169071707, -0.15346160020119348, 0.13205044407338626, 0.11528822512757039, 0.12891285401623975, 0.07063610933919008, -0.19553072122755888, 0.03755421192357264, 0.02625456315697948, -0.10772354795807579, 0.0825702758992278, -0.14211440218324045, 0.041834621626828467, 0.0592151798510151, -0.0009877025097782468, -0.039858489097605275, -0.07593025754735491, 0.08258965486324904, -0.06586186554656069, -0.14202183952990782, 0.03719493572838034, -0.02636402689150002, -0.04065656123708467, -0.002533645731805054, 0.025348803394924794, -0.10343156260313456, 0.053658882235219106, -0.16579759246151862, 0.03197054086197228, 0.03428882755578169, -0.06721841336095721, -0.025439645514337885, 0.010818977674121539, 0.0457747374734153, 0.07979623329245233, 0.060676697896443504, -0.10478134847693701, -0.11184873853889281, -0.004492611098288627, 0.052542000620771676, 0.09139261167733886, 0.05064008788667027, 0.05393520535402964, -0.08935992033952629, 0.008974357298250952, -0.11780250355676639, 0.017814515384567273, -0.016286263358546015, -0.19838782159520071, -0.010153241440897676, 0.027556227905869132, -0.14283293953017265, -0.0048078575585168, 0.059794763928156976, 0.015122244732365907, 0.005774004314751554, 0.09781911906214891, -0.027540972379886012, -0.047236103499529114, -0.12693028560413458, -0.10458392938595555, 0.18838363576637468, -0.0687844649849059, 0.013647393461961409, -0.10584802567037459, 0.019510588913952687, 0.025927983491768215, -0.06906389824434622, 0.018686687661130786, -0.0007056561947771813, 0.023787215898484808, -0.016793089429933433, 0.2107587824401139, -0.07089035754619004, -0.013177376265873652, -0.041747847425841325, 0.028319168010376292, 0.03692941229326249, 0.1103539416988253, 0.02008578930529498, 0.06464081065006952, 0.06445032620087322, 0.058489760228958396, -0.018511630397321226, 0.16176019285969107, 0.0388505373299476, 0.045425424557214454, -0.14442942713243329, -0.08935308219121084, 0.08401495046430106, -0.01906323923138534, -0.0198568633563926, -0.12072166009720482, -0.052928989946863514, 0.03405044358465299, 0.10728417916248066, -0.08489304771604761, 0.0016159311465918198, -0.021817672084016027, -0.005600011366114958, 0.08494578597860696, 0.029437173780746534, -0.05018472575311574, 0.025133127093004724, 0.08883765213985965, 0.07046049171770788, 0.017312351795939106, -0.038780418742074614, -0.08843871064104061, 0.04970074281847067, 0.03174456755956338, -0.05709548127460039, -0.16656071053801935, 0.006836717151919741, 0.06843125176255486, 0.07683246411486018, 0.030953359002201215, -0.0111662119705253, -0.06243923433418434, 0.044091770294891634, -0.041826089585661835, -0.014654080492437108, 0.0033721855815476236, -0.19901133740991064, -0.03396547540291772, 0.16101995149876375, -0.0043859376733317145, 0.05576658894633177, 0.11844837299015784, 0.006924125073351729, -0.04908737897974511, 0.017615749321180797, -0.015045112866673689, 0.12458023108509479, 0.058354348581656064, -0.14122848856187237, -0.013323554233750768, 0.07046545189894778, 0.007020218607136153, -0.05665987226873035, -0.074970313826996, 0.026391217613260094, -0.03021078187317924, -0.004792975191181552, 0.02202428761016554, 0.09470625523671239, -0.00970182511847125, 0.05734668983658029, 0.03530814255345035, -0.06981604487264773, -0.030512592617966124, -0.043794408298544835, 0.013100534704225337, 0.014399616025729275, -0.00644584372758297, 0.07407474272294015, 0.18568788707031292, 0.012477785485713612, 0.08760231879675467, -0.05729464144427037, 0.13429837840215628, -0.19391977033808877, -0.10922931109691653, -0.08263396072421858, -0.020410050758808272, 0.13886110923803377, 0.08218696930581328, -0.015393569714184083, -0.1077402726267043, 0.07174155169095561, -0.01722360775070169, -0.029781756935469306, 0.10439292403189679, -0.06293385539502235, 0.07605704309169034, 0.02749279907497889, 0.03644953574200668, -0.0587717634547477, 0.025221317545287905, 0.06626484556733025, -0.10487725030286035, 0.025332750154053525, -0.04767625339455885, 0.024192515692726707, -0.11505839031751057, 0.07718820944106954, -0.03263954981661089, 0.16126008824517293, 0.022495782000158327, -0.13444048047353532, 0.02221472796133627, 0.016571526707329465, -0.1548563617490548, 0.013861525492361795, -0.10860548802768545, -0.14376652566822684, 0.0030758688823517804, -0.005569393631588153, 0.019777123693780357, -0.04595905901429134, -0.02887165095526484, -0.10086074825581982, -0.05469825425263432, -0.05296895706293997, 0.023163788554072615, -0.07788598308141065, 0.034189082074769964, -0.011191239048966291, -0.0033442498316087334, 0.06605138803744055, -0.10424436058167132, -0.12123645727805528, -0.06410893604175501, -0.10326779802573115, -0.16894427573088433, -0.007595400214955042, 0.029940287374064425, 0.0910518358732838, -0.00330893396427425, 0.015412990380683958, 0.05297558637625724, 0.0029238830392702307, 0.07396614791783283, -0.04869513515252902, -0.020053280062716908, 0.08645853714734299, 0.06454587782328311, 0.16556066514673992, 0.19231947142422826, -0.000394505920226345, 0.048754719367975916, 0.05668864651259569, -0.013631022205418617, 0.11856015883621752, 0.05691762555140055, 0.09997713421383662, 0.09974048870336599, -0.005606601793061001, -0.050149127585846116, -0.026289318240617702, -0.02954847380847869, -0.05035320424178317, -0.07498548580948468, 0.039297652338694436, -0.07075489833791977, -0.007979877895261608, -0.04089938935383718, 0.01879125164630913, -0.11359005954935208, -0.03373281919646581, 0.0485715184902415, -0.016473003815131396, -0.027922877303224028, -0.09556436116193656, -0.042400081225370485, 0.09967490053162166, 0.06178790130123728, -0.017739148472463283, -0.05735735904565393, 0.059989539283293966, -0.11389508053492703, 0.022460419684703584, -0.014632428112334384, -0.11659450015001324, 0.06002407535155392, -0.05396750151864169, -0.059750944257688184, 0.076175043387797, 0.013103188278428124, -0.14036209997656088, -0.1638606299883506, -0.04020641634412827, -0.04744848562427601, 0.05766826993867412, -0.17301427127655514, 0.13633425361395546, -0.026556604260689395, -0.1391390466018226, 0.03186204197504117, 0.012460834680329219, -0.02042778057717974, -0.09359591273210495, 0.07278141161984225, -0.021497865615254293, -0.024025950117370742, 0.05801864677373193, -0.10908149247142984, 0.13478105318023925, -0.05617704047516393, -0.06223143852194138, -0.04463710359211978, 0.014501437122271666, 0.11145991168817342, -0.03785999556512243, -0.08078759414829159, 0.05951768441097909, -0.007155480518482521, 0.011082776708069262, -0.03394957754366434, 0.014329874119344674, -0.012776706873343067, 0.011728561552623333, 0.13830186485362328], [0.02324489233737847, 0.07638239213034675, 0.1182489048783957, 0.18351514278235476, -0.06559494815806874, 0.021177038314999567, -0.12727775066548852, -0.14519576446578372, 0.13317003056190027, -0.04385907500090475, -0.04865228476731224, 0.05593164283567566, 0.12269397239042773, 0.00690501738213595, 0.03866978092863389, 0.1969673589624062, 0.10593501338133583, 0.043695862658251275, -0.02595649021860678, 0.07505239309158201, -0.04081239875103108, 0.0037739105645878024, 0.05399497045462697, 0.121681710896572, 0.029325206437685075, -0.01953996956740451, -0.11622471084725057, 0.13995005424241694, 0.010092133497288243, 0.09320229821025527, 0.09112032242254228, 0.0210992272455997, 0.12422928811275416, 0.01314578706226467, -0.01613287034228997, 0.013680503595275057, 0.09416745887669678, 0.019408696159646233, -0.1358667906829529, 0.008747664261410763, 0.03174714701805545, -0.09649383838345742, -0.01269181362469871, 0.09231865881031615, -0.07816958656214883, 0.00941289739254439, 0.009246853187554775, -0.02347068533531307, -0.07389522573303395, -0.08911248717057237, 0.07873436393611691, -0.055773524263168416, -0.06281022152351526, -0.008531319456521582, -0.0762900692169799, 0.009164542059600976, -0.03700066688745646, -0.09425531469392497, 0.10351119048782018, 0.11742116906476717, 0.017321863220807598, -0.020393787140563654, -0.10246071725664167, 0.18701700242365513, 0.015925019239368062, -0.014396582926539985, -0.06804825452831992, 0.01643240173593617, 0.021804708767876626, -0.004207874479332348, -0.14857556819284384, -0.12891898818146375, -0.045019768007904755, -0.047185916537658266, 0.07489677040014801, -0.04426737423875395, -0.0944227429429239, 0.15848603568523345, 0.045863815883875746, 0.04275382389305955, -0.059685223212930814, 0.04757646668604711, 0.036166284247092735, 0.04765414611388143, -0.04185261800261689, 0.21581598425522247, -0.13414173834917803, -0.016179844544266526, -0.02011799371560567, -0.11562438411465141, 0.04837197185233706, -0.08923923443455166, 0.03073892368424307, 0.03253668606878792, -0.03623605488597325, -0.08944999504142478, 0.03832326616303173, -0.04054981473666994, -0.03484205124195451, 0.07632828400479151, -0.17083708769090303, -0.037264939283209654, 0.024623236718275033, -0.03968472175260314, 0.2245097325652343, -0.06531558495179225, -0.11555020724265441, 0.027691399117930365, 0.010452594857737805, 0.051326250036219274, 0.07189920827674438, 0.01707996576347337, -0.032713539869831366, 0.017272924211812316, 0.10456485995633592, -0.051435578912668166, -0.06498198190322083, 0.06378178685145047, -0.038056845489160586, -0.06190231247285894, 0.11259510584308918, -0.047413335429979435, 0.11402304614259291, 0.05444834695795063, -0.0691929940615191, 0.005976022060999872, -0.06981874406245317, 0.010555642004037134, -0.15543664683801692, -0.09276751107537037, -0.049094192958038234, 0.038512601376462265, -0.05328056376159019, -0.09784341817204024, -0.007314496301838125, 0.11359444580968671, -0.199664752283383, -0.12702388682429222, -0.0403484242478294, 0.042142613585172226, 0.02933663957950749, 0.09519657111038181, 0.03255948703229062, 0.04008321422114302, -0.14270717629742916, -0.041459656821985325, 0.110555341521825, 0.02994832862621029, -0.0447853845209352, 0.026848737739919526, 0.018850936246776334, -0.0051847443629828745, 0.0020141173132472985, -0.011517780666987868, -0.057379250762444434, 0.009581992744207428, -0.12938702033789107, -0.0971216987618701, 0.10500193344565124, 0.06037632926582733, 0.14989246120268046, 0.10462827991704524, 0.10607767827373367, 0.02368579416017528, -0.06742569423978198, -0.0510223623671262, -0.1165085061231048, -0.023119956862405644, -0.029729520720696533, -0.03299284036193423, 0.059851040548195136, -0.03583719641411126, 0.010160561551275966, 0.053360303983844386, 0.04474834033380321, 0.07013007949738644, -0.07229323607059268, 0.05266779266922604, -0.033040557134471356, -0.07824706509393893, -0.04261497947971803, -0.04138670813481809, 0.005492956029023629, 0.09358723244024914, -0.035871490481847186, 0.06356577926785005, -0.036292712652004504, 0.05204742532776249, 0.13437218760360164, 0.06896877513272939, 0.042128394740103714, 0.047708299159962844, -0.1532705121856784, -0.017310175404912895, -0.025654173248008668, -0.05553610493931962, -0.08104209036179426, -0.1528015284537461, 0.006153584118603698, 0.002654969243611972, 0.08006928645573119, 0.034969151142735605, -0.10920901532845417, 0.07410579506555964, 0.13268920843039164, 0.038525521685058566, -0.18767989285251918, -0.06708023018885693, -0.0711018500890411, 0.040270125300001014, 0.03864266050048013, -0.02954402812136648, 0.014959597528613217, -0.013415150371036468, -0.07709233729622933, 0.08478699570750116, -0.02957742786252653, -0.10991832614928845, -0.08224938171852782, -0.09393212728156981, 0.10583780042589015, 0.04743178518042945, -0.04325344039583032, -0.0784957770092589, -0.058618819444154445, -0.03859531662034309, -0.027938049784889007, 0.06832534351952947, -0.046175172078153, 0.04776151422997065, -0.12777351040441715, -0.11690770413526641, -0.14351357696234257, -0.020761000786885746, -0.010862433889183476, 0.07592502850337414, -0.10237734941614968, -0.12031679846202513, 0.056830671614940494, 0.0647487095975998, 0.06610177584342315, 0.03940477617070123, 0.046148772193913404, -0.014166392750406575, -0.03204294314222498, 0.020263685835606695, 0.05484129399659989, 0.003393219001850573, -0.012779988393305068, 0.05728872662554313, -0.08786599263514111, 0.028013528689237944, -0.0780305069972389, -0.049586752748909335, -0.10040025924843508, -0.10872993418454731, -0.06551768772955088, 0.07876167728542964, 0.08436246710254017, 0.04446695073341846, 