{"policy_state_dict": {"net.0.weight": [[0.08448669885343572, 0.029276411305805772, 0.13078024104611444, 0.027031584926999606, 0.011568953106814252, -0.06287391427918246, 0.13346000155259302, 0.03686410411633679, -0.07849432840579848, 0.027384436481281627, -0.18141243768424434, 0.05570683297623023, 0.05983100282596304, -0.11919913439161253, 0.014129579604760821, -0.0019270931093805818, -0.051904214090491486, 0.06363194159424314, 0.11670926981115139, 0.05321920617664049, -0.019476847235781608, -0.0007815292354034636, 0.0608995658282056, -0.007662183250665339, 0.09164839851804729, 0.14099795638121687, 0.011154502611026709, 0.03771368029181978, 0.02484541477392531, -0.004377762320901595, 0.08420108261984163, -0.12924933803874683, 0.09372636420772412, 0.058502719101452015, -0.05081927713800249, 0.029924062114298766, 0.0506911994593236, 0.04293818081274822, -0.01411596688401297, -0.048602919426679075, 0.1950752760136083, -0.07418209286387624, -0.02319709911463605, 0.008987309367175013, -0.04356877588114332, 0.0005812452539470739, -0.20567678563145772, -0.08238262078836855, 0.1100608345905962, 0.06864710484722635, 0.0011036676629449314, 0.0976456241347925, 0.020116916214948585, 0.05197015217835277, 0.024572169696240445, -0.00041472866298301127, 0.041073922908240516, 0.09147178233195989, -0.16698974664416283, 0.1022001842555121, 0.05048415443904781, -0.11573609376566471, -0.07764622440392978, 0.053748302126247705, 0.02954259262655063, -0.05461392296094188, -0.005809892033775066, 0.1013753154930943, 0.024825803533824044, 0.05813354072689634, 0.01840651078639538, 0.12878254724096622, -0.10706705265604406, 0.18487127378815407, 0.10825887227496818, -0.0819894066433101, 0.03175086722320199, 0.0316050162115395, 0.015571914121893024, -0.011399358465048814, 0.02654374792903318, -0.1891765942450333, 0.006197957258153077, -0.023878260258086974, -0.0902366860997726, -0.010511865984388502, 0.23579997008041667, -0.11302653500649917, -0.0015636088152652483, -0.0031219780789312596, 0.021061907301439312, -0.058813156771800545, 0.05145599298487018, 0.043253121799708964, -0.06728517338306186, 0.02243169690159621, 0.06382770434413404, -0.030410268084865764, 0.05221955245082884, -0.02464045370730934, 0.01224070661735886, -0.006439887340927816, 0.02953863037992461, 0.011470177810016352, -0.0639067710155814, -0.014704389243364077, 0.057557690387013125, -0.005155068958265911, -0.021835364071204476, -0.016619386398690587, 0.04160048903669348, 0.08775687300686981, -0.03295942455782142, -0.03723315375388695, 0.14580081135636933, -0.05553452681218939, 0.03600406738598047, 0.013805983151950611, -0.01620458498268615, 0.11074693676679787, -0.07155451151575677, -0.03794440076708868, 0.07902017963061514, 0.12383343348407244, 0.01700898710865316, -0.09238677173538942, -0.026421627363288538, -0.07544576264496407, -0.16733956076636672, -0.007732419465280071, -0.003601193781486793, 0.08560421780131966, -0.12403245927871671, -0.08312088451951612, 0.04386934781513837, -0.0919971745417311, -0.13383553043887864, -0.039066690061488836, 0.05705993670878088, -0.033942222549148686, 0.004019693317416675, -0.03620564469353737, 0.025186150957400257, 0.1221229573154753, -0.022999502576753535, -0.07327681849811041, 0.054285477963538754, 0.0040511910737388935, -0.016161108706319153, 0.017986334107030526, -0.014489368965418525, -0.1343135165273102, -0.009542926908259078, 0.0031490956126558043, -0.0619114599695316, -0.006415067172308168, 0.05113898900166914, -0.05262067178158993, 0.017739046264765176, -0.0845675878471105, 0.1028664248576835, 0.04030342990185778, 0.004128840941070574, -0.04458172620578924, 0.086260527904991, -0.021234762495239985, 0.11723547369460943, -0.07247595895087766, -0.04949550475143895, -0.24951559458064318, 0.0667354749929244, 0.018813212617865893, -0.02132262006797515, -0.07417749118755892, 0.032932468604846145, 0.13929474259952382, 0.03220619943824247, -0.02813576776919478, -0.046492009193331726, 0.014841451702265356, 0.04011647003087892, -0.08981482881085764, 0.03597261232063153, -0.08697639106522843, 0.005740904542105282, 0.10630105919416767, 0.0071653484519863765, 0.031384374031316976, -0.07164208777896178, 0.026549357894955387, 0.01866346821173909, 0.2029517217571904, -0.033485795730086934, -0.11797741501848127, 0.09406840787981247, 0.0117719735777444, -0.04261575810615907, -0.1018621029324227, -0.05920096425803451, 0.15279434188790975, -0.0043392996781793786, -0.05313176802407356, 0.1692885384076385, 0.11545236194236465, -0.04411677716588534, 0.019581197651379504, 0.006498324060479675, -0.10924146462586254, -0.012607428135142394, 0.05269672893099108, -0.0681012573383832, 0.055478979346547865, 0.03194987699544267, 0.022612930186161406, -0.02122944233426859, -0.10436275567903923, -0.02465935417715983, 0.09873107182861883, -0.07791471717228406, 0.0403749105655469, 0.09835263043952949, -0.008874070232660219, -0.01648592425608378, 0.09011257379502637, 0.02208735197502967, -0.12276229324827355, -0.0056495840275599405, 0.006442787665947426, -0.22256337270336377, -0.039122703995695625, 0.22261483227825216, -0.002070809057979714, 0.020777554031055, 0.044176663316749576, 0.010675320844954704, -0.018412035185760806, -0.003542940920440095, 0.012658090263326925, 0.04757557752437314, -0.06923284206358779, 0.094838934332067, -0.010989338416616954, 0.1049019105163734, 0.04476342125411141, 0.11364265917577025, 0.009544516862137, -0.1070496738163553, 0.007685430743436184, 0.030762145756482038, -0.10075238471102246, 0.03939464564665958, 0.06502460028225561, -0.06316640407993475, -0.012711706680475273, -0.016228629026466098, -0.08653437952950703, -0.028279910951020396, 0.048776209513046204, -0.16418604327465852, -0.025492975105303767, -0.05686312004105274, -0.03858393954015958, -0.021494859485948994, 0.05233627960785774, -0.08216384943453749, -0.13106438163407055, -0.08433188254208722, 0.10034126372642739, -0.007810733533488901, -0.11034957603235525, 0.11621591360663762, -0.06427154528639703, -0.08914380464084339, 0.06169871244205149, 0.05676414789539904, 0.06490789777418186, 0.03371103834703175, -0.03321863239543742, -0.0263478181083727, -0.08755737740889463, -0.159630641665865, 0.11642590851919926, 0.007026314785224834, 0.07089781005017079, -0.14356970432685176, -0.021369327814842593, 0.02968623960490956, 0.007388813638564412, -0.0073448454617254695, 0.07713058273172012, 0.13745209987800922, -0.05621511805538308, -0.09707232593345742, -0.010061473516403298, -0.018397369602235803, 0.009128634763311499, -0.04263311019010789, 0.023936803516003875, 0.018226739648764388, -0.06919863721141102, -0.18055965795120402, 0.14262292087825687, -0.07709897954357668, 0.03192947966673201, 0.015493830186380935, 0.07429758947606241, -0.02345685007604175, 0.034854694138755415, -0.0661425977447875, -0.04802856253382714, -0.13213088891320507, 0.013307890789407587, 0.0509114166805699, 0.06778762363053413, 0.07432605603401168, 0.059147610039383784, 0.05771875312350765, 0.05640454883450015, -0.11246299053006956, 0.10487765382069322, -0.1540687655684172, 0.039830985108831006, 0.0174884564429852, 0.0030912388809641424, 0.142382423303477, 0.021403963690409342, 0.15312618240543807, -0.006029733208669766, 0.07125925844338074, -0.0258418193430308, -0.04114734520661105, -0.03299305912365179, 0.010557381143683106], [-0.010193971010269913, 0.02557797275260726, 0.06265426873950473, -0.02082483615351207, -0.048271519926827614, -0.16083315498149753, -0.012513703745372882, 0.002596413856410943, -0.059018363853772515, 0.10142556067802193, 0.04421630731717572, 0.11974037204730244, 0.027647908174088912, 0.09545621667795386, 0.09619992778868405, 0.05716283759898398, -0.18648445255561955, -0.039492766691334405, 0.10279837751702628, -0.03959077656661363, -0.004377706257924679, 0.12097063706127287, 0.08267631469986929, -0.12203540666665959, -0.04808665040938659, -0.02811458957344292, 0.005574358166718144, -0.04533020398604324, 0.10932850628838198, 0.11047620878239987, -0.007364574317324875, -0.10363328477941959, 0.029780089224965892, 0.07327959871542547, -0.015109013581964762, 0.08846010472289055, 0.022564860545090624, 0.03706646247319355, 0.058014351982843514, 0.04569987602881509, -0.05790234427706883, 0.10381054240570661, 0.19153105163013218, -0.08014912261701508, -0.007064312112254258, -0.05619728721896671, 0.024587286937555186, -0.14212225486605878, -0.038364973904049804, 0.040724878319239995, 0.017928399945055573, -0.05190825799162368, -0.03901179560629134, 0.06074832034531763, -0.07132391596575352, 0.07296524354136916, -0.04008037661771218, 0.0018860631246077045, 0.0632760431852865, 0.012795769485500569, -0.005711123918011439, -0.13641506087086036, 0.03587170324113828, -0.11803667396005303, -0.09921172803525795, 0.05754055631394139, 0.062005441267014495, 0.10241847174060001, -0.05749821951724393, 0.05994137665051712, 0.15255420636077344, 0.01622826343446084, 0.08522750513890313, 0.07591072807671544, 0.002527756042092948, -0.012012417660338755, -0.0348386657445734, -0.04092959256272527, 0.028237695062087863, 0.0755065330655734, -0.10407264271837222, 0.22067712656633817, -0.056729309692127326, 0.19932531165530926, 0.04140233849911604, 0.07364772969424395, -0.02076015881098252, 0.07686670234856739, -0.15038980533593074, 0.03316487573521917, 0.05498145863232319, -0.037522306235935825, 0.13510547802926123, 0.0038778384643521984, -0.0953243014688392, -0.0940994113622959, -0.06969678055908406, 0.04356749338738367, -0.08960841173012146, 0.11236162873002309, -0.030566129221495222, 0.10232284640669913, 0.050526174338466665, 0.13826792399236157, -0.006229309612074427, 0.05594026039971096, -0.052670684807895725, -0.020339075232464743, -0.03285760333359983, 0.03951981223298302, -0.06732042773969739, -0.05148583078203038, 0.039283372779450626, -0.06907847160592571, -0.06883286910620043, 0.06301302964435164, -0.05486293409211322, 0.02945857910982626, 0.03262974226625073, -0.028674385553472174, 0.015458730151633189, -0.02825532329011811, 0.10156823190928642, 0.07377612172477832, -0.1738380583962095, -0.05833993362895281, -0.011774857975356035, 0.10661471774719296, 0.03564225053618228, -0.04905171350270206, 0.18518945934600398, -0.11392640329423036, -0.08491985634637708, 0.012304681963325542, -0.08791328535924356, 0.08859892751974775, -0.03494362434881085, 0.01849600075004408, -0.0348181947905663, -0.05098229659028095, -0.050649775350878654, -0.08333710118872846, 0.029764098033225696, 0.05352993065844566, 0.0031952716577937318, 0.014518645750890166, -0.07953135676591053, 0.047446414044469226, 0.017781018223591797, -0.007367810554333851, 0.06409394676135609, -0.04424381559271412, 0.06949462571183856, -0.14295201460936777, -0.05494533309819107, 0.03805930703598532, -0.0956643854368819, 0.0803048472863312, -0.03781495161156841, 0.009607266403805716, -0.05584004295214766, 0.08202395773052322, 0.10062559329958154, 0.0698296070337343, 0.05154267372763296, 0.08322359160084976, 0.10429510000955967, -0.0688478635263008, 0.027746669356618067, 0.037535944511688776, -0.09736275221792497, -0.04134720152819154, 0.06082129245736049, -0.016363041256347247, -0.04010421276654757, -0.060746823156911677, 0.02990623255373445, -0.019005145662991826, -0.07533259126135278, -0.06073128116657245, 0.0961264117308651, 0.03046225640261504, -0.035317013022594594, -0.07022275529153167, 0.026484915571979864, -0.04084355811886363, -0.1411798469429072, -0.06545912066704376, -0.05325118258480026, -0.08572671433996232, 0.023206865331221516, -0.13843087721323005, -0.057255066589055895, -0.06509338832435409, -0.1048957763519247, 0.07623910650231301, -0.08731385150569376, -0.07409181494635016, -0.004398331411118677, -0.018123198477117936, 0.04672055047556847, -0.018971508200028877, 0.0023143746290991384, -0.0213427366085373, 0.08673075860687755, -0.12688586664486706, -0.16635346764236442, -0.07825292077359261, -0.06412084901447526, 0.03488661911664591, -0.08482420782641896, -0.13175368804216506, -0.02643482680328723, -0.06750016379249926, 0.055070821612584524, -0.012265362031185702, 0.01808325867479029, 0.04136585786341825, 0.02753639162568049, -0.08716984002799007, 0.07830253856166669, 0.05928750094856512, 0.09301271741069224, 0.07420459085259692, -0.05264551965672651, 0.06325206266850152, 0.04220806740272161, 0.057892141152294754, -0.07313544463574481, 0.04959650433487237, -0.15906701202709947, -0.06332806432006347, -0.009299558212476173, 0.09822667689256574, 0.034886416073073384, -0.07948781645620517, -0.021566187221549307, 0.07032206654612015, 0.06592466200533179, 0.11862765144587654, 0.07737803607467282, 0.11227004588264977, -0.05793946857327767, -0.09077682791480385, 0.022497456405840097, 0.09255320743541337, -0.04455127394127771, -0.10724652477147108, -0.0403976483080288, -0.06236641202391316, -0.01339583141635319, 0.03009646849595636, -0.06913840981377538, 0.14180279233885237, 0.0033101511833076016, -0.09950762127262315, -0.07960691722944564, -0.031555229452898244, 0.04443642127583434, 0.01417460039937414, -0.049407499686804565, 0.11058079481342109, -0.02847454328514532, -0.07931142223829613, 0.019023299537699902, 0.07106914694311017, 0.007733132792634994, -0.1400061478327162, 0.05642154310439252, -0.03949859397112446, 0.07512843539747076, 0.034430533029022464, 0.04324702481382144, 0.04151911306545696, 0.0448186675388678, 0.06142521465230036, 0.04559340854753142, -0.008509031929630866, 0.003466780397711842, -0.0613303470294424, 0.040569012920886556, 0.023206198841289855, -0.01687677609302362, 0.09802073688840657, 0.14698404353514796, 0.052305065834209366, 0.058273031118796455, -0.12634648696008285, -0.0019067261838133856, 0.005421647017569498, 0.02568192983481108, -0.029066232200664403, 0.03448391375230523, 0.04685505744749415, -0.017412070837153085, 0.04622986735742909, -0.03918991644757612, 0.17490446685843652, -0.06338055636832218, -0.05872187884075331, 0.15554803986611723, 0.024223289118992884, -0.07111696501149331, -0.11269422507892733, 0.059203711048401525, -0.052439314501318085, 0.11451169516865159, -0.02032041346441589, -0.0811938990867357, 0.011426201738569036, -0.016957334965443983, 0.15039470265440932, -0.045230551400887165, 0.12618824213113747, 0.06655763401204103, -0.006236291188053893, 0.010901989611146497, -0.1014825237993139, -0.09011936836063378, -0.014845296434999685, -0.1034083134226435, 0.12122690317229862, 0.02368644601263847, 0.12888664588501364, -0.07009144508872757, -0.05279704623803791, -0.00907372381878987, -0.059223922652397364, 0.0024313749976963878, -0.03342335023241231, 0.13747749376003407, -0.06815518023188805, 0.04496036364313727], [0.06478656024424148, -0.014267408566023437, 0.026715366354167703, 0.049825651384431964, 0.019896221186718688, 0.050942315202747106, 0.009487904240932953, -0.14405036954563652, -0.051782860760545495, 0.02485736000932308, -0.03933703174950856, 0.05876334757095674, -0.028360961388045686, 0.13276399969353292, 0.12663600948866177, 0.006176871352035495, 0.05910328842961959, -0.08242295609904432, -0.07401941725223674, -0.04343917611253443, -0.008791220758226024, -0.05304974752776892, -0.10582296379581853, 0.017182412575187118, 0.01147777243038606, -0.166203782186851, -0.009752386332820048, 0.08940165360504533, -0.09705066259229801, 0.0033971732025408, -0.04181553284082999, 0.00845969685473967, 0.0674119005217408, 0.014997332396983955, 0.03821259598851888, -0.11145151465692005, 0.09500567445045839, 0.09500527686806033, -0.11872863289856296, -0.07789741386526963, -0.03713232323273651, -0.0406842394959635, -0.0023128175620342516, -0.011946065351880879, -0.003755382166165647, 0.08282211643577198, -0.006559248466003899, -0.03392152455993965, 0.036445684040121405, -0.01889202101956352, -0.059779367464007985, -0.0743205066584032, -0.00035885988247895954, 0.066493565735786, -0.0519017671509963, 0.055961894228707725, -0.034596622649729576, -0.07065744942760674, 0.004549133338303382, 0.059318997268100006, -0.030105556981138933, 0.03332522350375411, -0.01970469000223932, 0.04091643589511842, 0.09654618273497438, 0.23166814402319413, 0.03179834596136981, 0.04338804872431307, -0.005449936826715448, -0.0010335930835743056, 0.14465487170779878, -0.03312577499595677, -0.04210679590391583, 0.18286363497523672, 0.03349960104007627, -0.040166182053515756, 0.08810013508626136, 0.037321124296883355, 0.14708238089735248, 0.09243906088141883, -0.003821603836580139, 0.04318336281049697, 0.2618394742227411, -0.07988004814432345, 0.09450282167268109, 0.015301915651019083, 0.0065094033247273175, 0.06924653043325665, 0.015652282431751048, -0.03127612791073265, -0.14785566650584558, 0.07340862310179282, -0.047682623999280305, 0.011495930561181294, -0.06890510780299441, -0.10134234890177275, 0.005236728412548728, -0.19010941668817694, 0.041603236603134156, -0.0792187125594593, -0.03462430106591539, -0.02447988448140025, -0.02979696572714844, -0.07488233208897281, 0.050895097364677754, -0.0004788480283912317, -0.17941533027507228, -0.12477556805194721, 0.02520589956976764, 0.06734325510273477, 0.01971993664186148, 0.04641532085105242, -0.06853334370062923, 0.011499047493286741, -0.008998678133943862, 0.0148876261505563, -0.009973306166429231, 0.0645958167927805, -0.08482531706369574, -0.003364551183356598, 0.028270738112810518, -0.016735844632525664, -0.02158851723780991, 0.016335944880690463, 0.021420794132362902, 0.01709318290767756, 0.01657589463622807, -0.018828675595991724, 0.11838206746663178, 0.053292058583100314, -0.003923464354397809, 0.0037327367240665614, -0.02688983553099476, 0.03052920794683525, 0.009721937532303996, -0.0046344278230428465, 0.010517188190815813, -0.055153410561734964, -0.05658101688644285, -0.04809069803812181, -0.00624647685478575, 0.08236277868102641, -0.094336118641426, 0.17963369235515, -0.05927649757930224, -0.0660799236235369, -0.03951656478927587, 0.08042281033237307, -0.16143729351925448, -0.047699629731958924, 0.08416271072055703, -0.06613481222776792, 0.012904510242671422, 0.1520939658697528, -0.08417567868229693, 0.025846285120955714, -0.06022057686776419, 0.09499493818958792, -0.03269448182365127, 0.043011939432658075, 0.044221093095022444, -0.09636382797946151, 0.13238964336400194, 0.027903563093469447, -0.009892548088187894, -0.11045420192161595, 0.04922385006621738, 0.03489666734320905, -0.009319273212180824, 0.005799254740623557, -0.0059951229397625485, -0.00046604239019331555, 0.05826458201609075, -0.03210758828770406, 0.05887249166928825, -0.02172220809931172, 0.11608026219827663, 0.11470678159812207, 0.008720390478288553, 0.1037033132786106, -0.14632872523409263, -0.04508457654396187, 0.07354614235163108, 0.11331522500511196, 0.010199879325009199, -0.08267432303932853, 0.006151312508745365, -0.0717120941030245, -0.07747904513759407, 0.31195796178697416, -0.05199539681602884, -0.022587327870419616, 0.01931314574955043, 0.05922431553457913, -0.01644679922588881, 0.06596521838789987, -0.012183548584279601, 0.1007476347893513, -0.18559245204684474, 0.0999443831238071, -0.12068967647413716, -0.07926821682771618, -0.0830187287538957, -0.04566992519017026, 0.04274625223401314, 0.03545686035925411, 0.1180882105204265, 0.04152015944109437, -0.05663409888552096, -0.04632949115326814, -0.1324983352532252, 0.10034079143460702, -0.03326277694585275, 0.05105776920699588, -0.07006775182566212, -0.05783793342923944, 0.01994733770059496, -0.030279041768806643, 0.009843677990119096, -0.06430515056048021, 0.08686662922072055, 0.14101233329441118, -0.08790426681935314, 0.034766998922851476, -0.017733552266434097, 0.052371413380357744, 0.05574079122849762, -0.09131943068410915, 0.11653049399435468, 0.0982894197699008, -0.010428777323636371, 0.1585922161418916, -0.11675083020345528, -0.1415913426187969, -0.026344974872729444, -0.026946450866075864, -0.003501580260465312, -0.09972477020252209, -0.04378056825630776, 0.03574808993763487, -0.08023435928949992, 0.05751955083748281, 0.016855686740110044, 0.04727926325312231, -0.027120539675250764, 0.13012334355821661, 0.09569045123887981, 0.05417069111567772, 0.06397447675500467, 0.1563742260191577, 0.08815267231228058, -0.07817142952870536, 0.021871042742142178, 0.05789064538372716, 0.006082786393811847, 0.15647519779047872, -0.01054612926347588, 0.1468920551839084, -0.1339948182360423, -0.10940611102761078, 0.052077627846963626, 0.034608058674899043, -0.0033270048935172716, 0.03280432198442505, -0.0438089457960632, -0.0064414055579358, 0.12932793625850694, -0.024121235234606853, 0.03841320733053036, -0.09271946553746817, 0.02046306583530935, 0.04586564200660309, 0.026818789783668338, 0.03997201438764359, -0.022965009743569326, -0.13925229902691535, -0.04833743694824224, 0.018368354608722142, 0.039759600503313515, 0.02855895063260123, -0.06237474690655902, 0.15607270517292177, -0.02568987298261004, 0.006397697109359556, -0.02935152032420582, 0.10371144030261317, -0.049993842270966656, 0.04170934551285779, 0.10241864375868463, -0.06041605030518233, 0.014522606266600775, -0.009970499917721552, -0.18765132391964603, 0.0135755011296506, -0.10912567449410819, 0.0048830676462652154, 0.010993679011268834, -0.03507987090191851, 0.07917401539344515, 0.07908550332831595, 0.03438396404957247, -0.17619890045841669, -0.01292507652358783, -0.042510476763024954, 0.07327741553784985, 0.02656998405447349, -0.036840228287523695, 0.07889934584361591, 0.09248259594803518, -0.017774573193071706, 0.012589738911274276, -0.040600158063153716, -0.1597134134584653, 0.09163679490267673, 0.1104002416559875, 0.14435514858342377, 0.14693951605302202, -0.006855980564471994, 0.09256493215031683, 0.03565777072503657, 0.07353078567343616, -0.0024823573373127378, -0.039469419617738435, 0.11186560526184479, -0.06562441342743616, -0.08830986846690435, -0.002095606602927252, 0.032145878932374194, -0.09370828316265313, 0.042551654669602916, 0.06262185313295333, -0.021746630564310417, -0.025137900731524825], [-0.014979291373607765, -0.036692105586005684, 0.10136810144448408, 0.09794291253747603, -0.12407838558253739, 0.013399604066510867, 0.019675130636270462, -0.051336470361212284, 0.014427639534459566, 0.041330129508614824, -0.09764380291201373, 0.059072568583094204, -0.00897026043928588, 0.04776974892545842, -0.013136729551432857, 0.016566640359009028, 0.017712115559809796, 0.04738137275677967, -0.023607534681140584, -0.01549919928922175, 0.00040937461508158457, -0.008313797848204931, -0.07061186298180729, -0.06525151331642169, 0.005258255370808668, 0.15483858788785748, 0.14460241898226509, 0.08771686851575718, -0.06759368747897333, 0.0644576893820546, 0.02300109529999972, -0.09111449199925364, 0.0936603824682057, -0.014325375299258118, -0.07498031513599779, -0.0061297189503098735, -0.015216126502697491, -0.12941298271392498, 0.1345713042446879, 0.0324087397783501, -0.043208227578222874, 0.15748767581319037, 0.07397063243867652, 0.004079037430927068, 0.03924444208217684, 0.05483936587969151, 0.014092801903512142, -0.01269216325861916, 0.024052590933683452, -0.042187329860569535, -0.10285014607664086, 0.046515404833834255, -0.021735023166673827, -0.0792938836273807, -0.07699780879744604, -0.028075130580088387, -0.050835155564581715, -0.04134991519232684, 0.04553252603642604, -0.031209053843641563, 0.036910815042963556, -0.048463288445964266, 0.0646473990987741, 0.08644073461464027, -0.20669898915062165, -0.08617063695368174, 0.10494386445329937, -0.046976995544927486, -0.1553060307468717, -0.13438556675870417, 0.1116953381988368, 0.1084289818888385, -0.05638373299473218, -0.08144494069863577, 0.03432619620606443, 0.01163735456913179, 0.009395956423286245, 0.02505773049502189, 0.05534435175262372, -0.11663837421722269, -0.12169890911755339, 0.02991298960316686, 0.06150065952596408, -0.09603367913449906, 0.06384498155233054, -0.11966985492558156, 0.20387591756792398, 0.07154614431235866, 0.17755614256273142, 0.021457314970911103, 0.13410563396349176, -0.006986345780527918, 0.0945955721162621, 0.13243837748278212, -0.11276847983029338, -0.02066957446027707, -0.10642541447791966, -0.03562186743604552, -0.06978335296654387, -0.007597580247021843, 0.032579104786429586, 0.01508078808338243, 0.13491135377074417, 0.007874817316092079, 0.09291896801116968, -0.025875452796534804, 0.04317973018560976, 0.06325085309142076, -0.001564233729072325, 0.07142660598421818, 0.022378327649835616, 0.014480874250289271, -0.04108282825855523, 0.052997162224912145, 0.07878950708063874, -0.09443469935228166, -0.03208825892015583, 2.831631649654649e-05, -0.07755644087967786, -0.015847446440564142, -0.039939595823521315, -0.002161361576759459, 0.18955965845045333, -0.11549913821131316, 0.04541224208356296, -0.0407860330970339, 0.11308639363302862, -0.08422526758563327, 0.01473971284864358, -0.03843053033617651, 0.0045529849235563784, -0.06627324054291725, 0.04330919369070856, 0.0532169271039393, -0.024644549443324476, -0.04122762527963659, 0.07425951975384719, -0.04408981775588345, 0.015278369186735412, 0.08627257614104777, -0.020910704985641605, 0.04693068098752653, -0.11168818800209342, 0.08932141431775555, 0.008639554765631394, -0.007811412061997496, -0.1482951817831043, 0.05391961073659937, -0.0809064371317173, 0.047174814674558974, -0.1334963726904656, -0.2266303756173214, 0.15159964281893515, -0.005125716396083729, 0.0728409885683511, -0.10241349923736193, -0.019331173291620533, 0.005070599483568007, -0.028157045562686098, 0.04340746880398213, -0.0017988834117686247, 0.010068534515073342, -0.02884789967472264, 0.027493301744631715, -0.04350558052710932, 0.01529373513737536, 0.027071721870931608, -0.03835302939163064, -0.09236018405286929, 0.005721642464381949, 0.0035296209225353452, -0.09291950391978168, 0.04294395149178934, -0.11518444787751497, -0.10192293072902359, -0.017599011994534914, -0.07883292485487328, -0.01842088236973765, 0.0314777471417731, 0.04682695185190737, 0.0171876657583832, 0.06601657503990181, -0.007650482430991385, 0.06908863752867651, -0.016956251754725555, 0.0425753794077242, 0.017447718439365493, 0.011081258527210671, 0.12679656331670353, -0.1095544654478467, -0.06455293176980029, 0.0006927000593738502, -0.030871796016154248, 0.0359877361493177, 0.021587846289107756, 0.02859938733841146, 0.04704602715093084, -0.09613624350107015, -0.12768757221800256, 0.10360030706278997, -0.1453973755373274, 0.021191884735802004, 0.10091704360233268, -0.2140362708729034, -0.0717941166986404, 0.00949344723826313, 0.13180954515858737, -0.10257200690219208, -0.05550553636793366, 0.019438305398488336, -0.011849555587321717, 0.07173472132652875, 0.056944427490448035, -0.19172560897552793, 0.034452686719705646, -0.01338649700895241, -0.028512133224993883, -0.10042445299314595, 0.059863216874034245, -0.05572059834557617, -0.020040939973854463, -0.017483150782265047, 0.02684551574194932, 0.0397103282629738, -0.03946949922132905, -0.021997801380595716, 0.06669348154680536, -0.017030610000448317, -0.09432756624935461, -0.0747934791028331, -0.04907560431407607, 0.0290893775378406, -0.17865659478139914, 0.12967824046914567, 0.03297501591977913, 0.0013624930463463321, 0.11584703818997676, 0.045032541683632125, -0.013026007804751773, 0.0237038453460544, 0.045455122504236195, -0.04237193633455678, -0.10251904991253338, -0.1078976800745825, 0.1748306332983962, -0.009313239953896279, 0.005938420371164003, -0.0036678034491619527, 0.07944400039934768, 0.15850371478840067, 0.033084798617027, 0.057396692654443277, 0.05411561138095657, 0.024511717686294347, 0.133813745135102, 0.06457802469554422, 0.11330946217168, -0.009737492965114752, -0.09535297830476874, 0.027298913998877617, 0.0026273372731804643, 0.032253256575511806, -0.060996788303046175, -0.19076226899790005, -0.011077174972066705, -0.0874945842640113, 0.04149048400413836, 0.09863484869733621, 0.14145013775675816, -0.09186353487515285, 0.0067393202617223825, 0.04271268367168839, -0.16006151527570356, 0.07918691499847468, -0.005679347027170967, -0.009622762599491606, -0.1368142334167625, 0.06241210260440253, 0.014424666907260322, -0.07782924311562921, -0.06415490391341425, -0.012762025030576002, -0.01876970842753707, 0.07970324588669615, -0.007689237941969023, -0.02378145585671666, -0.02623227804649175, -0.012946781047879989, 0.11504317228798831, -0.060052281211098034, 0.036130057352257584, -0.028931181521964826, 0.06619844865122344, 0.06801197290826339, 0.03032511303878616, 0.02889611973478656, 0.08499091795135985, -0.0686460608756617, 0.1117471391071161, 0.06279461438541846, 0.02369161019784821, -0.0668508650697282, -0.019239648034530037, -0.15091736413230136, -0.07432835930301936, -0.05561209844153138, 0.029487263712526517, 0.025007470918396738, 0.16179342865019866, -0.08043010621852399, -0.04478308803145312, -0.05262785095113358, -0.03628343388380527, -0.018547446196961654, -0.0069938704624710095, -0.09601856387955478, 0.09457984836523468, -0.10508871091712296, 0.0015663433830304713, 0.03836319736167538, 0.06180900610185199, -0.01694731323798655, 0.0676067649149672, -0.017454525591185363, -0.12705321066292763, -0.04478245883634918, -0.009577427291247019, 0.02843397671112625, 0.04102951081204396, 0.026264370646572246, -0.1834134269573665, 0.08570406342832121, -0.16505261107152372], [-0.0290934252825818, -0.10839293647287765, -0.08016034414279735, -0.097387927095835, -0.08025391532826323, -0.11876197813140187, 0.09542744101245271, -0.050569742327992315, -0.002821113782911728, 0.08640436733194351, -0.007947407553537508, 0.07438329265168778, 0.17087166552458768, -0.0010475705989890195, -0.18553835522548495, -0.2051399353608816, 0.011806068698783095, -0.05555529333937453, -0.07702517444941358, 0.09342087082147352, -0.09731867372717518, -0.15107391969014203, -0.0027415694629406855, 0.003797920598191664, -0.051431645119411576, -0.0824036405212589, 0.01218427811985653, -0.03302792023521181, -0.08580141943780639, 0.1215778615564663, 0.05415913459848364, 0.06793410828588814, 0.02611086037793516, -0.05020013132029621, -0.0012025039660160544, -0.024117725133985506, 0.18198963839365956, 0.038780395232330185, -0.12016620675534898, 0.01767128527773009, -0.028486447726163086, 0.006391419155900037, -0.08851168793786926, 0.02651149124641705, -0.01842374073248225, -0.11659488099119598, 0.016234500185747326, 0.21804432111063984, -0.018445642078983516, -0.08413826992736348, -0.18484600070943266, 0.07995190604933361, 0.025385963794040074, -0.030394577984352404, 0.055431070823187614, -0.13286193118874742, 0.0012232732543939711, 0.07342406107618338, 0.048663181609007906, 0.06882267767936777, 0.025961956079477336, 0.03244571689602685, 0.05154669022030199, -0.09146611031965393, 0.00408941780077948, 0.01522458056856079, -0.015569581743524932, 0.006122180934204993, 0.06049083162536786, 0.0812587767115307, -0.04083669036800259, 0.0959037970550557, -0.03674585722725751, 0.06879358679653956, 0.037388083941901164, 0.13800974639046729, -0.03986441248296583, -0.012977855838351359, 0.08256890382903626, -0.016131666750859645, 0.007268189507274115, 0.06845365817193719, 0.01659284479393578, 0.034759452772743664, -0.08603332242773898, -0.084929544124832, 0.140714909268188, 0.022328689643521582, 0.025295975770192124, -0.006342028119927529, -0.011588655406742436, 0.02529192642441736, -0.044605627351066775, -0.05566285621289655, -0.006201810973640013, -0.030991073963061225, 0.01603080211083761, 0.012341829399866906, -0.11865670066125399, 0.09866410495598513, 0.12672252549529517, 0.015035986312795107, 0.07876331797617991, -0.12033874472654224, -0.13603983263549482, -0.07361407918634846, 0.002278817369020209, 0.050099661170993966, 0.11086063897942655, 0.14314972614564955, -0.03100533411389559, 0.17155047127895817, -0.08470216043877138, 0.0056518636527685875, -0.04839759591180904, -0.04838106077575789, -0.06204067508974968, 0.08079029059079211, -0.0020462633972594666, -0.006477421773297081, -0.053261223508179904, -0.011341198352832997, -0.06674563562069726, -0.07977673006466642, -0.02085574185363927, -0.021332341258294765, -0.039585989944072135, -0.014064845713318988, -0.2144482809245775, -0.09777844738228907, -0.17418470963817695, -0.07032709941355927, 0.0836611228008191, 0.060948518347099925, 0.07043383306378677, -0.06779199083363334, 0.08530118718709634, -0.06941615037002818, -0.0569980012581984, -0.06545175722632161, 0.11306300423633342, -0.03497034966473667, -0.05535693520993701, 0.04846847356129534, -0.09471142755549071, 0.0904924427701925, 0.023693688191766742, -0.07051006496438461, 0.010350112270117695, 0.05454194619732204, 0.14631544229648724, -0.050305992732076116, -0.08498836029300567, -0.009953986521782374, -0.08519245757102623, 0.010658363450002444, -0.043539939667031104, -0.0019960200481015243, -0.08478473540302582, -0.029198890104737838, 0.038578534444945606, -0.0517076578682006, -0.01212388576218106, -0.04648104470406956, 0.02518065699383341, -0.1382051493700601, -0.03384305505860949, -0.16425919349433957, -0.04563188397280017, -0.0010404760465228399, 0.07372702075379403, -0.08066276789549814, -0.09236981180370041, 0.006442056257640192, -0.10017078478805111, 0.005346281759195654, 0.011416266557144783, -0.000839143283731672, 0.0811747784353988, -0.005159050552879275, 0.09930726915816782, 0.03641301081592739, -0.0541304702490893, 0.08149868156591011, 0.04702130423048414, -0.003010890358903128, 0.11492468679399151, 0.010699408656383894, 0.015538929608813777, 0.07306070016558894, 0.04097468445241679, 0.04153346490347395, 0.05548469522457424, -0.12776918944699805, -0.06613432420474503, -0.023831825735402917, -0.04140252004027896, 0.05824640105254196, 0.013724521659150378, 0.028353753908446147, 0.207118296419134, -0.14438243613525256, -0.12581497037242992, 0.0737049066567877, -0.049718438203348966, -0.0456188773907527, 0.08672756630809457, 0.0340828965831459, -0.03881727544272905, -0.0397044799665632, -0.012137331201772223, 0.10387441039177467, 0.09634680667908566, -0.10352085212419772, 0.012654180538380062, -0.09679784314865562, 0.10349937549400708, 0.10334849314028113, -0.006989561442896959, -0.07207567644388876, -0.06688820937858232, 0.05392731429078683, -0.10212488853150962, -0.05635959254527019, -0.0008436320605781987, -0.08229659210863696, 0.11288379617453981, -0.07309965416996793, -0.017529149859131923, 0.014314068167392273, -0.09201622572837706, 0.11770045711853544, 0.05239627699820787, 0.09876321266459709, 0.010978393125562319, -0.016993315257973225, 0.0017416462825521487, -0.034137883679031984, 0.012733337786726542, 0.1636193136987058, -0.016011647790170655, -0.08541113901582667, 0.03356672801270678, 0.1008462075275324, 0.1719515451706317, -0.02571376135812458, 0.01405209992342524, -0.10597366818449676, 0.05748790321613239, -0.17698990030317308, 0.10469391516855553, -0.03205791832042363, 0.07719341254096868, 0.08904049258145573, 0.12039692534545325, -0.05375400912706919, -0.009310755054214028, 0.02085831970560736, -0.032025244447642646, -0.04149596752215028, -0.05926595376489042, 0.07233733804933173, -0.05971056518752617, 0.05003417543900295, -0.029126121275829957, 0.02765094910058433, -0.024246128050345313, 0.15487171269284014, -0.04599679703962444, -0.05065512994196904, -0.09071964651835487, 0.039617048704932205, -0.05603416270225648, 0.0993490399926734, -0.0008411285869212196, -0.03221526247695685, -0.07392366443521314, -0.05531378627827181, -0.0033841092948176917, 0.04521834325518699, -0.009958931944294987, -0.024054486439122343, 0.04434417665846944, 0.055953938891201996, 0.064116261611373, -0.017305817331512912, -0.016618639783417894, -0.0613424863228057, -0.024293471374958804, 0.1090350800535396, -0.15047932755975657, 0.04788681252905738, -0.1394638484962293, -0.025139762159207543, 0.04338859899816508, -0.04281464206439818, 0.042569590757948625, 0.06327957893790795, -0.035061697133933346, -0.06664404113505826, 0.0507734672348691, 0.048942742834988576, 0.12271737357900483, 0.02328240151775809, 0.03315717742385358, 0.006540952015477277, 0.02405038606059934, 0.042485331106634876, -0.07601361536929112, 0.025031189920094433, 0.04184835623862585, -0.14070585503299116, -0.08666146677765132, 0.04843533291762725, -0.001603884949297153, -0.04561752550753512, -0.02888692994186929, -0.13819748786984642, 0.04380324246290977, 0.08394792522131352, -0.15789588824882522, -0.008496325494592933, 0.025056069094657536, -0.03132313323298909, 0.1688375976116252, 0.026787318541607232, 0.10716053552021426, 0.045557177307740844, -0.02176020955776774, -0.05819909274319105, -0.02129331191907294, -0.20665373214646013, 0.017608922810208733], [-0.010396675963681877, -0.0389468253380855, -0.005861884679380805, 0.03658302660535247, -0.03761473977783083, -0.16956328479184038, 0.044833840384727416, 0.12291679644763417, -0.0963311649171254, -0.07757107744382596, -0.05035795549951685, 0.13483427098703804, -0.007646819163803998, -0.06222184478052551, 0.07863864962181148, -0.009267558841913713, -0.025707229752485454, -0.015494388754418255, 0.06055141916245002, -0.04145092379152094, -0.10156325730404349, 0.09156538557368021, -0.11600566318114303, 0.15731342776470636, 0.08571365807320755, 0.021283597413928115, 0.014532499511559991, -0.023958658271874333, 0.042854623726314704, 0.068160948205053, 0.013697062058502735, 0.08380025482814399, -0.012051847111776856, 0.06733653623653275, -0.06145372052972257, -0.09375044448301784, -0.09022989336480172, -0.09881614058165814, 0.0034843853024345115, -0.012190694257767865, -0.052341328913931735, -0.032527295874590696, 0.20219153704871126, -0.11725029779244603, -0.0209087188697843, -0.007250335378736225, -0.005828008598137318, 0.011758414373375662, -0.10502302581131605, -0.015055574500729415, -0.07625465928495358, 0.01597082761321229, -0.03035868105019122, -0.1110169903187693, -0.024398630475777307, 0.09920534612246962, -0.10492514887400084, -0.03255514352900411, 0.0016753678854013348, -0.08320777416271125, 0.014232209823515292, 0.016053992487316204, -0.049719734397065146, -0.021255544585618586, -0.08962142590459543, 0.0417455890260122, -0.10795917421915172, -0.030086830847653984, 0.01048272440612114, -0.05654491025511583, 0.22215870329023585, -0.03655891583005572, -0.02027032149332172, 0.05238936612068209, -0.09037604723963985, -0.0714511227950219, 0.08950354565417229, -0.0909926671879342, 0.07944750515909287, -0.012573028931281198, -0.12235365135034852, -0.03786684400824527, 0.024340715997098705, -0.05263309149901438, 0.12879395147200937, 0.0673804742079286, -0.0952250830531793, 0.050653548950551436, -0.04107841236880308, 0.048025461323910945, 0.012696545840124182, 0.19185378304325554, 0.0041413078399795775, -0.04771547099831781, -0.03663906059697582, -0.017102463941813605, -0.04161947794151714, -0.06086703364198765, -0.026319364820731175, 0.08028116522740628, -0.036893075650809404, 0.007290078129729038, 0.01856105402704976, 0.08173510872113246, 0.02367535144941703, -0.09460163455888092, -0.038653776384618456, -0.05089615654233755, -0.0160629478937257, 0.05960981280745484, 0.013397016353567177, 0.006554039825541653, -0.014667227742354782, 0.08778994137829235, -0.10397983772863051, -0.012397567827777069, -0.051737600555839765, 0.009976214465113098, 0.030440062353772546, -0.07352504620028903, 0.07755161244801174, -0.1771675905279774, -0.09075257355389062, 0.0003898350893733205, -0.024015005692205584, -0.10909148269393172, -0.09953292635100695, 0.05886328566814223, -0.04012085857579957, -0.14745965122689358, 0.06183444324597709, 0.02929970536051309, 0.02987692808854095, -0.11089052992469632, 0.09031986426358339, -0.017596391691867885, -0.01215326601167921, 0.005672553071420531, -0.01738134985428071, 0.02929175497423354, 0.09446531115507999, -0.0517154835914834, -0.09775884821366915, 0.0010288594274500866, -0.04335011493764537, 0.07655436456164923, 0.051467117576537304, -0.04808927091295047, 0.03335214628695401, 0.011876027030731451, -0.03633969895342351, 0.023378739063242063, -0.033914605846420955, -0.015492064328570138, 0.15471979112596967, 0.046754528224527366, 0.08737842958344848, -0.09170342733884702, -0.04687911226712431, 0.004277237009489782, -0.13133320382517802, -0.06839294426396028, 0.067462317599846, 0.10803268600996221, -0.006828721483905564, -0.15029901320625547, 0.016836308417619454, -0.003298047565587483, -0.10947808474932483, -0.06052568212378943, -0.06383872885480188, -0.12860954406927644, 0.0027080109679965742, 0.012308676707867929, -0.14012850451400072, -0.00511633669172638, 0.14077332006761295, 0.04994750367421671, 0.005798588354164128, 0.11874349422885903, -0.06153263286341663, -0.03524172836070959, 0.05827950984431933, -0.049879128565494445, -0.008788146382451246, 0.06564911232429865, 0.0008595960947820698, 0.007089133976635419, 0.1162949782518009, -0.011313581871233614, -0.02121677158369431, 0.06854862956014583, -0.053053923648986825, -0.06393011007459484, -0.08255405622773015, 0.03096025034875553, -0.1322436765231343, 0.018005734580638835, -0.0026787239066880697, -0.05797060069694479, 0.15340717751055943, 0.1253933917512489, -0.03957834603882244, 0.03543229571829305, -0.04160565660511706, -0.014025744319776112, -0.05015114540416041, -0.05161343587688589, 0.006267216333143862, 0.10338261430253022, 0.03757424376875126, -0.04251168114004745, -0.04770230181896454, 0.028239028401165347, -0.05878083416853419, 0.02329112183032466, 0.05059409836412323, -0.11152491792840206, 0.020750683632580876, -0.02706006569399816, 0.023254114536810026, 0.04799987023844634, 0.12680918888418327, 0.051663885919793165, 0.05151167918764578, 0.04400747072035219, -0.061773140912668736, 0.03310447831822732, -0.06845732444572901, -0.0759764044833634, -0.008515924129857733, 0.12059528327832411, -0.0009584112310064711, -0.08290043711469994, -0.026227177610441178, 0.22436117252917537, -0.0013869863245613869, 0.057519276127967776, -0.05642006071353309, 0.07840435665454645, -0.07156935532316193, 0.02672255384785741, -0.059549778374629915, -0.03555735777691805, -0.05732390540494165, 0.143272256972357, -0.03767639477848283, -0.07730464009750351, 0.047474870430257006, -0.007288434352271292, 0.10157256995905405, 0.021941970988746982, -0.20958635593772199, 0.0008854423517164929, -0.09539647853565754, -0.02109726394620255, 0.044133319876823444, -0.09997188077884805, 0.05639078428189044, 0.05834269113728988, -0.06695290398533486, 0.04433496109377088, 0.27370955675244013, 0.054959930976342865, -0.06804335232559594, -0.03489406825494196, -0.014723452402135849, 0.003638955584099052, -0.045888003985685134, 0.24618808905111766, -0.034304257118991335, 0.06304635056492223, 0.010442646998231034, 0.04223733422321494, -0.028983482136993834, 0.11060877382250359, -0.03962330302605709, -0.07408403834240013, -0.08649694677968492, 0.14084990225167535, 0.014739263389076013, 0.07708295347358247, 0.10985792081286354, 0.007179508880784061, -0.011321251561332608, 0.02414194491072103, 0.05526553517936418, -0.07297488115598481, -0.01408305603654492, -0.06463797972522345, 0.01610204668245294, 0.002652654441993733, -0.0894600850792328, -0.061620232412557964, -0.11277952414787479, -0.10026078319272878, -0.05587202559858004, -0.03621031658871225, 0.07717101272105914, 0.15226573314118558, 0.03189158541913385, -0.04391443680050754, -0.003986217033946261, 0.00484031226450095, -0.017524782637099657, 0.08853253067611175, -0.08775501717520842, -0.02712692060676011, -0.16516387941288788, -0.11092891100181222, -0.028736330014174954, -0.15637781647026505, 0.10108865515136148, -0.019653806026965665, -0.0644621174853538, 0.07194182455763591, -0.08658579050728588, -0.0297831909110642, -0.06939085221722545, -0.06352345008634935, -0.0555985058551036, 0.03203155313245144, 0.045053465133055054, 0.1512472946113259, -0.032265362537067806, 0.015323825085047397, -0.005920386312033412, 0.07873752524234301, -0.035216669226778644, 0.040569437156787506, -0.041271960089821876, 0.048743885508987984, -0.05264544012757743], [0.00971926291956689, 0.020405086366513957, 0.08997756908499428, 0.011116443476261497, -0.07205570949375514, -0.04919759809523299, -0.052071098494724036, 0.04368869521120041, -0.10028033344202, -0.05320915651759741, -0.11542160072632057, -0.11331330974601023, -0.058923914458450785, -0.018459217696608445, -0.007657115529760893, 0.005016417227453677, 0.009386695280969002, 0.0855277475178045, -0.13848376519479882, 0.0029700540008890126, -0.018166968964340058, -0.0329547686444184, 0.0391240358089026, 0.10462914581459909, -0.04438133506012639, -0.015429677973340205, -0.07211169574800075, 0.050312383999988455, -0.01101446470732544, 0.07156884488670882, 0.00019467916589367094, -0.045082777380667245, -0.02125820608695044, 0.09728373342349646, 0.03965079134693532, -0.0017193059264498669, 0.061333906951499824, -0.1999538528945696, -0.004642063639518313, 0.07759337234235734, 0.15926503578867085, 0.03246272078875311, -0.02609148856536454, 0.0513956726015075, 0.15713420611674775, -0.02193283674713315, -0.018000968062347807, 0.048626704519885364, -0.09179985103130815, -0.05244062707303366, -0.0117771843621608, 0.05857859606807515, -0.08909503622271536, -0.04079033342792325, 0.11214210334975834, -0.02999015023757582, -0.08200755646610608, -0.06551327746913639, -0.014889185655175571, -0.1389911405201408, -0.03902047216566944, 0.0925764387257256, -0.05280580700098116, 0.03946690574379175, -0.06754573946526607, -0.03900228291707696, -0.05649930140025056, 0.009423867411081603, -0.09583671916164488, 0.09477480008611147, 0.04411089326200674, -0.01461479810507848, -0.041516112957642196, 0.016334155347621126, 0.061782749221808035, -0.0515940665823361, -0.08849325680679215, 0.12278497883211748, -0.009447848747565555, 0.06978751047169014, 0.0035460553170728374, -0.16150623485316618, -0.02664708743380846, -0.015941251324617416, -0.005450148905467107, -0.037041057652085194, -0.06146451895770231, 0.022569425859744696, -0.05998154096132691, 0.031922403441309324, 0.029024350143672592, 0.10255692490947574, -0.026557684019624727, -0.03629094417337303, 0.06577102176660268, -0.1593022304316972, -0.11597688343097565, 0.01552490471836986, -0.08458178555182193, 0.006844515801067945, -0.035136570310201024, 0.0020399266442645727, -0.17002283882866517, 0.021229096171217758, -0.045585119548792026, -0.048660544873699904, 0.06281670923098123, 0.01971745219925006, -0.011909933691079413, 0.1370192908999561, -0.059035342192013604, -0.12679294197629756, -0.19215269765190005, 0.11991778468556079, -0.08931376524538746, -0.0034074069616988473, 0.08220087449278708, 0.16013789696528954, -0.04238354785762705, 0.01780612419074629, -0.13244864363759676, 0.06990016418922491, 0.03597181765880121, 0.06333111906066305, 0.060282230529092734, -0.07961907748989507, -0.050450288256035106, 0.15147529598676795, -0.05588928443620272, 0.1567183195924797, 0.017849307819522615, 0.0065471386556217185, 0.021194531038408678, -0.029964851287513885, 0.01678951346779684, 0.08624315847341786, 0.020076012180609566, 0.013549144461752113, 0.051952780431811445, 0.07369375566890579, 0.08724394003481911, 0.034940723519673096, -0.06192617288886005, -0.05471083717304792, 0.0016364283912628005, 0.057301802128899335, 0.06243297234587104, 0.08107324953973531, -0.005443340569968846, -0.0027983157737945475, -0.02957718623858282, -0.1306750356550173, 0.09604662367226525, -0.09792331075456628, -0.030944153525856905, -0.037562228723122, 0.013283949140129403, 0.1098922923441905, -0.04407346550267538, -0.11602366536916245, 0.006308225098333529, -0.17755218300021994, 0.033945527068334966, -0.020178002203329742, 0.07725993101536578, -0.154318250824191, 0.04556727215106808, -0.060369251674110974, 0.043145180224931606, 0.06123657732534299, -0.1537944727315428, 0.026107030717303414, 0.03631965911299253, -0.04171075437276072, -0.016692904750256147, -0.033971028379440535, 0.21912162968086374, 0.04185372757833579, -0.07906305421582178, -0.09974423514242525, 0.05807627095703295, 0.07997372510623957, 0.03244803958456861, 0.08864630348248669, -0.11920831172545895, -0.05839686160724487, 0.026517251020658203, 0.08514322254208265, -0.013492728578410476, -0.05656342758356127, 0.06848877697490913, 0.13862333356804973, 0.1347310874040306, -0.05555023988337981, -0.09452433634467476, 0.051981412996889506, -0.033253074123916294, -0.08190993172777972, -0.0626835916314422, -0.004954371942049794, -0.06252968532434094, -0.0011815361004811967, -0.06289757680455771, -0.007593298884307092, -0.020337563300074406, -0.12793047519180703, -0.07852639762573115, -0.054555828655956595, 0.06116567818711121, 0.06283450701836629, 0.05967619877624666, -0.046468540375271275, -0.03252696655799339, -0.09429516782440252, 0.09356848225880596, 0.04340675931483268, -0.013705355876795035, -0.06291256826223725, 0.04120367332019906, 0.023386921130596303, 0.015638153447169446, -0.07730590570228602, 0.09142623511477388, 0.043729802827911564, -0.006853435007310494, -0.023673624627558187, 0.037577554821856755, 0.002968230000968294, 0.03236363703191061, -0.016714377312962023, 0.12362126657785019, -0.14024251971807264, 0.13636911209390384, -0.08693018807285471, -0.03354507309461344, 0.189646116224739, -0.037641452560012056, 0.03580166043479552, -0.04445029992719751, 0.0861190226718703, 0.02131505925573776, 0.036059857698142045, -0.043014993654826875, 0.02429835635671321, 0.04773760807500821, -0.03518561975442918, 0.06488248399699463, -0.012814097096868513, -0.020227129578581266, -0.01285355313076153, -0.07356316884308622, 0.09288680497985513, -0.041105972707818565, -0.1455321394033456, -0.05399590546141371, 0.10076278684580993, -0.0030759133427395564, 0.026870977241371784, 0.15731284958240813, -0.227064349393837, 0.023542370854396463, 0.042642337352786795, 0.11671890030251701, 0.05001354199950191, -0.01663450857274534, -0.01923427254802662, 0.02795913614313859, -0.021899903691653528, 0.11641106457316344, -0.10568685691352478, -0.03056980762015179, 0.07552532544271623, -0.09806695407607124, 0.06132171255188758, 0.11077201301238944, -0.03667551098973809, 0.08100147509795617, 0.0463246135912881, 0.024707226482096636, -0.02414274868388465, -0.16767431666582036, -0.0050395928165631, -0.07605225750603462, 0.024467630297603647, 0.0941661648038235, 0.040678168101195955, 0.0166160912792992, -0.023901219537615512, 0.07539415840291175, 0.10233335198093466, 0.05809269432710013, -0.016821973902148506, -0.026097391026061678, -0.2537950870885909, 0.03822582570616333, -0.010277038423356867, -0.012827660688668398, 0.1752353865101321, 0.1388384890581226, -0.00020192277478149707, 0.12864908799016173, 0.06186689565244127, 0.049964585813052444, 0.14348593866662457, 0.04417735452021925, 0.06383037211708079, 0.07146453414726084, -0.07914878522958518, -0.1102687939279781, 0.18118085108978846, -0.06742957742400102, 0.12025121020638567, -0.0012323230735885105, -0.00036427970796913645, 0.08020683097105809, -0.0010448633023605212, -0.015367202902904244, -0.004446314235120698, 0.07700897722540404, -0.06104564489351468, -0.03211222856882505, 0.0686285448306767, 0.10848326661458274, -0.10571248415559713, -0.015857431652571873, -0.06045563502849395, -0.07920478246732728, 0.0432143322179821, 0.03032606998213723, -0.034081801927499926, -0.19096303167799283, 0.009201902164189332, 0.0007578219655437847], [0.0025789850283668894, -0.006218345509712783, 0.032869457459092706, 0.012135860359336004, 0.09865531106830498, -0.03209897971510269, 0.11539405986990628, -0.020387653309377706, -0.10350702252101848, -0.00024360269923596185, -0.014178733865281163, 0.07171182514012113, 0.03352518340425688, 0.21330134745519608, 0.06404765360317835, 0.077872199750144, -0.010473467083480997, 0.09334909882372731, -0.04116750883873902, -0.029875643513768816, -0.007128896668087071, -0.0460070795223087, -0.03995765576886071, 0.03312310371763639, -0.0061878699753329285, 0.07764613816384835, 0.07525462912411719, -0.07498830776934794, 0.11052585757963879, -0.025916539789412472, 0.19321104784537946, -0.1003562251346746, -0.03084175229905121, -0.04727355211064105, 0.009194090921356248, 0.11161152282635403, 0.0015205346683141315, -0.029223718067225474, -0.009705266917161434, 0.0635655960064525, -0.07774398081817299, 0.03810109734304042, -0.04699404567042962, -0.07326740650210142, 0.13447482257781102, 0.04043804721875215, 0.0073341710667245786, 0.04764930657312258, -0.015935544832908384, 0.018918823761835662, 0.007573659139350469, 0.1083579011445961, 0.09200585378925295, -0.09761972565776783, -0.04228503071628789, -0.03544337474021107, 0.11218272444229166, -0.0669811589564378, 0.04959581175086991, 0.053354582035543066, -0.02761724210620015, -0.009869231475731462, -0.0874578079534774, -0.03649154096543665, 0.17125799702359856, 0.08408785213926893, 0.08451166206592091, -0.033150691053610605, 0.08990124425422824, -0.028683297274245654, -0.010178013153650778, -0.12212455799995003, 0.03156145991077884, 0.11424837420729031, 0.00020832879619825533, 0.05045363593623612, 0.03511487686375474, -0.003416103320104262, -0.04249651573647297, 0.03309695101785554, -0.042420326185620146, 0.14710094964027065, 0.07666145746258571, 0.005549790784315315, -0.11176857790243264, -0.01575048421150858, -0.07913684201006471, -0.09638034755069662, 0.020694865155372694, 0.08030483820661106, -0.013208376012557296, 0.03678637903763548, 0.009136757919347926, -0.002092867626329888, -0.038653593517362715, -0.013927582047970464, -0.005694513026109979, -0.0723612757552299, 0.1448771050552672, -0.016613636821355714, -0.07906533441783924, 0.043437034897960594, -0.029402356676199313, -0.040456099637108445, 0.017833958796901358, 0.01223774202611152, 0.1652079744363443, -0.02301379426328252, -0.039157687541800386, -0.027724691669396836, -0.0018970620392534858, -0.1750189468653099, 0.011799706899492671, -0.002318462761092185, -0.132990883334483, -0.07953307433445463, -0.17872183534386873, -0.0251765013135558, 0.06587022319512377, -0.006399476430934203, 0.016715804765156286, 0.06085520262862704, -0.05144578133513812, 0.009553808729477618, 0.021362830614167043, 0.09263172541958102, -0.005788804627653206, -0.0024098130247786633, -0.017080969464575834, 0.06573169733097786, -0.159124139136429, -0.011211839244562712, 0.10810024900299424, 0.029303245240942088, 0.1799577150739741, 0.03221722847717933, -0.12265311490064808, 0.05307116150255082, 0.08016420901495222, 0.07827306141867064, 0.03275770835202275, -0.06538431577975645, 0.028385284729894354, 0.03290440671596307, -0.039221492281961486, -0.008178207176181777, -0.12926472480733042, 0.1093001932773833, 0.06499118209190058, 0.06011706333093675, 0.1458099776761493, 0.018829479560147987, -0.10928246117632909, -0.15593317500907944, 0.0026718477701171556, -0.041824947948329416, 0.04469801630106137, 0.09325771458502598, -0.06797966467182515, -0.14900859552068338, -0.0490016136809914, -0.06612988952857629, 0.0045026487262852105, -0.051586162737737175, -0.037312365761276924, -0.03660558191376363, -0.0684110432718319, 0.059509178606580435, 0.1274594639158351, 0.11177102380527369, -0.028817863998592326, 0.08267774291486717, -0.061542491582069925, -0.027217204188511902, 0.06464506818254977, 0.016038903939463847, -0.05370662195040232, -0.04698026620453859, -0.062293517563260445, 0.011553425003722688, 0.09525181254782916, -0.03960812724466633, -0.06928826102642137, 0.09916668363142217, -0.05825972455233444, 0.07386338169037615, 0.02364113194808747, 0.17086374524314646, 0.0956781596726971, -0.014963192012620778, 0.066821694221437, 0.00139799499834877, -0.011243132104465448, 0.124227641850182, -0.24316542518774964, 0.059202761521516496, -0.05171091366975232, 0.0028597671813979236, -0.07011852889408828, -0.05790523371210026, -0.05537115789857385, -0.10081316627980945, 0.0252361912379107, 0.05468896605824496, 0.06997734848188858, 0.05670380365080266, 0.005786503248999854, 0.07024052404779359, -0.10138436238260301, -0.09355449834825877, -0.04298985354864616, -0.004330452184036284, 0.013964541637457886, -0.02821841514802521, 0.015268227269978684, -0.1253473864493261, -0.07948595701030972, -0.13619788724885093, -0.04458052022650206, 0.15310205734812135, -0.0344135606667705, 0.1143903821980001, -0.06103364768819674, -0.05890729377729809, -0.18848061650171594, -0.14589813862429624, -0.06593003463275186, 0.024003029770532074, 0.06169765529099003, 0.08654686779590236, -0.0016112578581799278, 0.010402577144497044, -0.058568123892671194, 0.07049147713635635, -0.1208268122459198, 0.05977196478967204, -0.004291239922367436, -0.05103763503291986, 0.017923581338178774, 0.05626310563093216, 0.04154005093661273, -0.10735502034703508, -0.0664359586594558, -0.029175610110435554, -0.007912588397570051, 0.015217575300796676, 0.011250050708152867, 0.13984051291363628, 0.11137269477509351, 0.06561225558399099, 0.05490144012479655, -0.026749415078943253, 0.06370209218739505, 0.0723957929934613, 0.0876402467209793, 0.03992924394337165, 0.046455438006524956, -0.03377729515985263, -0.1451149441845515, 0.014979429759500926, 0.01627955896812293, 0.07756576977329696, -0.09365746356237398, 0.0401179261177699, 0.008067144324800614, -0.12740256369297406, -0.09986702497890242, 0.061344581072534474, -0.04125492703048033, 0.006534226204867971, -0.15453777933844534, 0.017304071597137545, 0.0657287586509168, -0.011855097830496998, 0.05366217009594793, 0.025117899801301566, 0.05545463355669768, 0.0006324837207773902, -0.11939782221849518, 0.12761593290835077, 0.021750881737301102, -0.1037746646546796, -0.02866299461437428, 0.05234545096395445, -0.09880866818707086, 0.010347982502635283, -0.08072973142220241, -0.061645782057998234, -0.12765318162958839, 0.013058692542578458, -0.04037712817350907, 0.0852138575661479, -0.015605165446630974, 0.12415566205709665, -0.01763162157728511, -0.017340588443205112, 0.06420053905850939, 0.06964644553125866, 0.14782033009751483, -0.04734818734822651, -0.052072806827776735, 0.045487388351660905, -0.05061603243934473, -0.0013736162797678155, 0.09182634639083243, 0.04878379375209958, 0.02338965964377699, 0.06394686975483914, 0.022574092957418353, 0.012939626448508065, -0.01109825398390481, 0.030020843653641268, 0.01307614153284543, 0.04846202078138661, -0.11147791654368969, -0.024185054177186246, -0.038050588065527094, 0.14350110897190446, 0.07502418328154814, 0.0355722373326559, 0.1255885210518549, -0.02733175696292478, 0.0118713620633315, 0.010733777478955698, -0.1537506558126854, 0.10777066628774278, -0.032695866752204025, -0.013638027635982907, 0.10397235373976049, -0.01982790669408429, -0.004030393915623794, -0.006415039210703717, -0.088183235983981], [0.06131583536195308, 0.1417380496124042, 0.0910217291601519, 0.032436184529774176, -0.0468476828110728, 0.004920016141615639, 0.012696438126088812, 0.1434102747896365, 0.10264803550981362, -0.013426763242743488, -0.06835007243216797, 0.012412424673889604, -0.02797022614356607, 0.018609547023134134, 0.027180486453436827, 0.032034524718844555, 0.04534741724445889, 0.08051627827934134, 0.1740482552937549, -0.039917533949275746, -0.03324476046361295, -0.16974016521381383, 0.0802706697199637, 0.06558980514299845, 0.03126855117208997, -0.10530328337634118, 0.07860791845074154, 0.04426690413459144, -0.03645900403228279, 0.09140672143024, -0.06915381493416325, -0.04700820990009034, 0.03647268180455336, 0.10374345236646164, 0.025534291211202136, -0.0024708830667405503, -0.03575990899943537, -0.06170557859392039, 0.0048503551217754706, -0.05994463423901511, 0.030122971068751347, -0.03487741462233773, 0.06510324280930709, 0.1670908288641342, 0.038933813117028676, -0.15383580666361904, -0.13530375308734063, -0.009765170190567211, 0.022020993161896228, 0.003710841493802229, -0.052710898682955795, 0.0730044934702845, -0.07459990760585293, -0.047411322397522236, 0.0720379214964683, 0.08146336780833237, 0.06754081879466454, -0.0016520485859296678, -0.02263444167336081, 0.022139450518261414, -0.0724805599914268, -0.022337995378368003, -0.08327558820095615, 0.024756721824075463, 0.022937832490289925, 0.10811326820372018, -0.04332450219633265, -0.17763697421938185, 0.08223540882345381, -0.18456312498014235, -0.010767137951206497, -0.07013526242660233, -0.0012255642344035666, 0.13425498290076648, -0.03691392926451037, -0.049148300962323685, 0.024417816650697578, 0.015098781922254584, -0.03515402221574394, -0.014867463626365908, -0.0032577781673982092, -0.022047688248401292, 0.058595728986795236, -0.0613098214926853, -0.039019903529889315, 0.09963817768061835, 0.05975575475360957, 0.03204661910999742, 0.12510144633069703, -0.16119873019152212, -0.10289791824828777, -0.14482957987291656, 0.0501143969993974, -0.18896187362447167, -0.0004709459044811946, -0.14005152325838988, 0.01594693190569082, 0.05379292434347823, 0.05909276800528017, 0.0320378799789725, 0.0014836636278603248, 0.011731561015261295, -0.036142157624319944, -0.07765210294608668, 0.007555650962088683, -0.2321519120730056, 0.014982244233175105, -0.11358559229374858, -0.09833694826413757, 0.05936315158048787, 0.12372482921395564, -0.015160961919483039, -0.005387286154254956, -0.036774366379503376, 0.0733511508559577, 0.11927195302334621, 0.02658066202862232, 0.043874337002049596, -0.18498960175945198, -0.06359817272462878, -0.13010464002262706, -0.03280201393175496, -0.06440707174506811, 0.06295699809585703, 0.08886825326444875, -0.04003625814906689, 0.07776394192950939, -0.09602797906591748, 0.02281758317960354, 0.0870267969631517, 0.059271220065121845, 0.05745694129303617, 0.07477127648331222, -0.003690114657374879, 0.027717054427160034, -0.025557315126233448, 0.048035819181152746, 0.017986147880341825, -0.007613003550002122, -0.0994297403370713, -0.016350349903565094, -0.0804940661942393, 0.0707670514437239, 0.0031919509025496898, -0.03618716524201799, -0.01046905922890068, -0.03232179393059494, -0.09264385561840058, -0.038617487642465774, -0.10229087719826248, 0.07289180113282463, 0.040130638851270044, -0.022873940205542457, 0.0983494201211535, -0.08524280373242982, -0.03219226631839973, -0.009209980426331065, -0.013830929966414707, 0.01457581708963417, 0.03931395468985123, 0.03857951144221075, 0.1927405645751502, 0.11457959026118031, -0.030386754904595647, -0.057046748964152474, 0.03710614389143739, -0.0074326078706677765, 0.004397299970539371, 0.12280980262348344, -0.03283534840787508, -0.018020946458028455, -0.04865495080566248, -0.026246960527652432, 0.11988156509663607, -0.0038896245251253563, -0.03364998560595755, -0.16783593914790737, 0.07090787028696516, -0.046738951810077554, 0.04984673889887705, -0.10908350537105142, 0.1535615279814174, -0.039836613863287317, 0.04184235239893223, 0.1470702478879142, 0.010550778886183219, 0.021203422694460045, 0.052374902387484136, -0.06077286380660682, -0.08902557447528232, -0.015132644760758103, 0.0767957111410727, 0.032047737241341696, 0.024267796815696022, 0.10426370040567923, -0.21639735716957442, 0.027958498742562475, 0.1774513458263006, -0.0564218048559395, 0.1944464749154068, -0.06526603726366419, 0.15150486563234283, 0.08995036256459787, -0.10086196935737213, 0.05052339647944999, -0.04952725527955636, -0.0682656626947609, -0.09048476440260912, -0.08223471744908906, 0.15340313657003307, -0.04538971558898652, -0.0068967029381333455, 0.021921164261030655, -0.008234811580811378, -0.1511352074203098, -0.007437308017754551, -0.05991959003389395, -0.05035470037053704, -0.022881745950970474, -0.03621859765774013, 0.05280193084772309, -0.06143655232728739, -0.012048779607453606, -0.017046564505861055, -0.005572119147459075, -0.06836861626485502, 0.09002308177299835, -0.10555594005634746, 0.13510135118762054, -0.04989954052757799, -0.03062216529312162, -0.06234647091194941, 0.011731801740405825, 0.06839066682954473, 0.08652377913524867, -0.09090926360447704, 0.1353816441785919, -0.012157986928775538, -0.0940085424303243, 0.015432029465519831, -0.07615646330171111, 0.054376472770280466, -0.08644417016177595, 0.0220461946782216, -0.08670627525477617, -0.0235028221241033, -0.09543634661125096, 0.001381305974398094, 0.005875192810939448, -0.015663686757157416, 0.05587808483942267, 0.030289751122560576, -0.04664982526593432, 0.048996433511117314, 0.03254173078043601, -0.06041296438634726, 0.13479595862001031, 0.028281021434444654, 0.14119280619405686, 0.02232642080743354, -0.058939930115868136, -0.0819915359174565, 0.00048281550952060045, 0.06559219174605316, 0.14748511736989942, -0.036538475939314245, -0.13556678640626962, 0.09517726125667449, 0.09975526155947465, -0.06203433978872549, -0.04934804360056068, -0.044016499165750726, -0.00922426232926219, -0.032298549355330594, 0.0017207528028534895, 0.1270461989382487, -0.019516291223641596, 0.0191141396433195, -0.128103088875952, -0.09239170184644786, -0.052946537717873825, -0.04892438707885281, -0.020705463138222996, -0.06959333578887532, -0.10922568886933051, 0.024473537711023036, -0.010462735366776485, 0.05820515399718178, -0.05454378379553825, -0.0729767077540476, -0.07190906010974604, -0.16396745458574544, 0.10241681646160337, 0.004061199939150948, 0.06271106222689513, -0.1119843479518674, 0.11825108597776221, -0.034677471401037656, -0.012911197455059588, -0.1563506931655315, -0.06245290313300518, 0.1039919501530084, -0.08217000722778493, -0.04867559027958467, -0.05054321297428256, -0.08846315096074847, -0.043946390930041025, -0.0499598508095424, 0.011386366264250726, -0.1630283474043511, 0.04792865651523773, 0.02677480637308509, -0.01520782708413999, -0.03280701522267175, 0.07663487621780306, -0.11268410856460745, -0.10333119162810654, -0.035164093784689765, 0.10412710371388825, -0.0064051983622409785, -0.013200149278248854, 0.11190897363368071, 0.06284141671788494, 0.007745715659948721, 0.02353151643345355, -0.14367099722986984, -0.02464456858691941, 0.12162025258995623, 0.15835029679298393, 0.12236918129283042, -0.025266514879972286, 0.051385628899712175, 0.04699880417174444], [-0.06962080522948758, -0.06402808167241505, -0.12293185634535332, 0.0863593041440894, -0.025479986920886592, 0.008673180142356806, -0.023645380537047594, -0.08448962314789023, 0.0439924507225109, 0.009520664810320479, -0.0030612047536448593, 0.10328267336274403, 0.011572272684694946, 0.1063732031127102, 0.020143218366556165, -0.01543024200570346, -0.04653364090664923, 0.053313112419399185, 0.06207055079480383, 0.06136729305572511, -0.014200452183124134, -0.020371082958173227, 0.11329699887422119, -0.029468716997491796, -0.028612369379548593, -0.04339333130865333, 0.09188498618663266, -0.12796982195481674, 0.017283054564971676, 0.0839245976077916, -0.12210554465750026, -0.08040177336190069, 0.09195415601607423, 0.18929763768477298, -0.05827170191403044, 0.031336012810561295, -0.06854441938412138, -0.10268828545197033, 0.050508588924729134, 0.239021358962832, -0.08293130413779377, -0.040294971589510224, -0.19658057691763545, -0.012421545058100137, -0.02423823223610152, -0.017174171011269522, 0.06944724838294902, 0.030769759916156582, -0.08894468079530385, -0.03439715763982252, -0.05791672508266511, -0.05343491739007269, 0.11102570422772055, 0.046877473776480584, 0.019066098912949057, -0.14704909604478753, -0.044246996428361766, 0.0013141227617858545, -0.023299382609606713, -0.001617383890748427, 0.020748137358779284, 0.05169940075837094, -0.011769527274528126, -0.12924512268535143, -0.025083257798986347, 0.10229535771074047, 0.03519521979259452, 0.06287734169320418, 0.05759363074921518, 0.0037648909792711064, 0.1431951056295294, 0.0826023276691773, 0.11389391190614741, 0.08332725487118832, -0.1283480172166726, 0.12551889280590348, 0.008387213373436642, -0.05686431187851644, 0.026782125829655848, 0.09575851059218608, 0.07859429177202308, -0.03634938979514721, 0.011439526749754597, 0.12776140891808946, -0.10195823642265693, -0.03712844555777312, -0.03417066100293256, -0.10013286907611749, 0.08057330535747305, 0.12120723256440574, 0.0877531482967324, -0.008814793711061218, -0.12668028130725636, -0.07825305309282689, -0.04799342787264775, -0.19530285184545215, -0.08680559194281808, -0.03775202315704747, -0.11410459547528812, -0.0949778984952437, 0.14651576384273932, -0.08890624021180149, -0.013554288763082716, -0.03661586657716356, 0.22026352293604903, 0.032244031165868624, 0.0744740320903582, 0.0646623396050068, 7.64279105004271e-05, -0.18648811970011658, -0.016684101041237777, 0.1387748788739201, 0.15963234711982308, 0.016127987160654982, 0.06279176187112738, -0.12971641264029315, -0.04804111768952272, -0.09480923199772653, -0.04602494609702999, 0.00040254955560706354, 0.09562142288785991, -0.06423165704477674, 0.010698802814405769, -0.03899605340931899, 0.07960535500167763, -0.1156998177830708, -0.018962582155211502, 0.1537507484107222, 0.11871519397861928, -0.04380408157887446, -0.08968721346200557, -0.0024235519150646065, -0.13283908777747133, 0.03993415626647685, 0.10917638859176036, -0.010194373350725273, -0.021541575090228134, -0.028827535277798442, -0.024705882345482034, 0.02120563627035414, -0.14160994004253824, 0.17734599654304894, 0.031386007746657084, 0.0624708782281915, 0.04393957323244034, 0.0852513096898709, -0.05256433060680832, -0.005868344720582363, 0.1838901710173895, -0.11111059737700578, 0.08813657554948373, -0.043937474313100265, -0.15896962221532598, 0.024523628716133745, 0.01737984069409195, -0.019043363848342064, 0.2434361611352236, 0.05393912151145492, 0.05163418132670137, -0.112816894022915, -0.09737827840237061, 0.0024932985973380676, -0.0030590841330006354, 0.18067876528634083, -0.05224806316586189, -0.061429283622022005, 0.07824715641292707, -0.03512351660485401, 0.07000027064081782, -0.03853196131086765, -0.16648662738301642, -0.09921298117461062, 0.03392658435171297, -0.08839792923937563, -0.03029591502093881, -0.06154876700853505, -0.016002572267656046, 0.050453907060832824, -0.05305010916189816, -0.14279567593631254, -0.04888040154764368, -0.1236672915717669, -0.030842366715605758, 0.06922278625203904, -0.06723684995172963, 0.07625914877978247, -0.04256312654142037, -0.12220734146493224, 0.04524293636990818, 0.015909239536439197, 0.04882613203766998, -0.08717385401004583, 0.07782821974239172, 0.05898516520243967, -0.009017639603896049, 0.012539582019136, 0.029971158178976606, 0.0009605130767589916, -0.0027667824986576345, -0.11935167883754057, -0.019843816604121132, -0.06426287671408212, 0.06370447296877109, 0.07014521428539018, -0.06821225376164498, 0.14647172776635387, 0.04530887087162048, 0.05640914208128938, 0.06390768187331079, 0.06893240699350651, 0.0492121812679392, -0.08822133228914593, 0.0654945139313192, 0.06081289773950843, 0.06895616529790892, -0.04943124815796863, -0.07886472212122714, 0.0653366904169622, 0.012328761870141668, -0.06999504550410074, 0.01588452661374116, 0.041718775120914445, 0.012199879777171917, -0.007445108769101142, 0.021084597375504367, 0.10857738234138459, -0.04611832365508536, -0.023928855550865477, -0.10138739037206904, 0.012921085609011371, 0.03506170709237172, -0.01522094239603571, 0.05344020355871915, -0.11154505992594688, 0.028484846799605196, 0.0026210154605525184, 0.046949241685033394, 0.050225949322962156, 0.11064259237333009, -0.06737928829343336, -0.05977670357877696, -0.09109282802674269, 0.033550413137866684, -0.020872513069123366, 0.1476866902282661, 0.0002755537689035579, -0.03362069603360102, 0.1036286131273678, 0.019962957150778768, 0.09996725751223993, 0.006705960499709188, -0.03409935799904017, 0.07222460626631462, 0.022164466304209342, -0.08274440617394642, 0.03579097421992123, 0.05604204002016525, 0.015572657805250653, 0.1245319445038045, 0.020673900346631788, -0.13321400768631503, 0.004359584729784141, -0.006119238191294322, 0.08842174804473665, 0.047038675032447616, -0.0705976623695985, -0.05044152645692926, -0.06870405040340152, -0.049415404463151145, 0.058895220518597226, 0.0782257413473172, 0.11015716394633171, -0.0455059783011188, -0.16941968100896576, -0.10314979576835896, 0.07480854973768032, -0.11774923241324424, -0.12647602556071036, -0.06343963882446586, 0.02962513469135488, -0.0726044310982848, 0.08765851832814464, -0.010442533706640118, -0.036940952245363264, -0.0744255105771818, 0.062443731497129146, -0.011194325593493638, -0.09364608335073217, -0.1378177229358946, 0.034663423606772915, -0.08026504738753783, 0.0381119438189205, 0.1246941983342559, 0.12648859127384054, 0.03772297667389225, -0.09378426850389976, -0.07536288395322648, 0.09086317532862795, 0.04523675533251824, 0.11268995855188432, -0.1563800522029948, -0.13582039582560734, 0.25234072865681145, -0.09385533762482258, 0.09870620318348199, -0.018555088550747247, 0.040263183031102455, -0.08877389463795714, 0.08054151148455031, 0.15939917562390282, -0.009537879090781015, -0.005353034287956045, -0.05650462699791915, -0.0389619420540386, -0.0529118552964057, -0.08437001668346496, -0.10507978727750579, 0.05763009644399138, 0.012453502307339846, 0.021728058905437303, -0.004877552978401951, -0.06419623885348859, -0.1520575592637663, 0.137826201781461, 0.08810653641154897, 0.051383459416183, -0.025525506637261424, -0.0032429236402562443, -0.007520270209717748, 0.10267010201197964, -0.11083922059265999, -0.10155580239974998, 0.046368531254484716], [0.06428957807876777, 0.043515513217637775, 0.0324599460047337, -0.04219360331348979, 0.08914365353182654, 0.045227237725471804, -0.16831736534762978, 0.16113807720510243, -0.011582474311784484, 0.05981575060734066, -0.03298379763665843, 0.1309891698479852, -0.09247414313522655, 0.08592166958468277, -0.04024836137533635, -0.080058582627123, 0.03206569543025299, -0.008937050725939364, 0.0886537706740609, 0.0800904326016729, -0.1672124593082733, -0.11857320149022077, -0.026727116942189707, -0.07297465258902096, 0.06978241297195861, -0.10376318120537051, -0.08786007811581185, -0.0863543323962359, 0.15150728650820855, -0.0007546927365448017, 0.050914231685831646, 0.061872987416718817, -0.0015199812765934533, 0.05630133525334283, -0.03734893148794001, 0.09592375276317468, 0.021139173390011427, -0.046489489671743794, -0.07960103863506093, -0.07140385624104284, -0.06970189135477628, 0.09207609113388443, -0.02522268556628374, -0.015741400540485145, 0.04325247398984658, 0.11451220920963101, -0.06390035374464233, -0.013073553799098015, -0.08924143246917239, -0.0640043513206496, -0.04291891127305006, 0.09830864498532747, 0.008586982761808536, 0.02486982797367168, -0.15512430530859272, -0.12338533733535614, -0.09991029770426467, -0.09773808777996763, 0.10314971198596205, 0.12110756162223336, 0.06022098379935746, -0.08655998919991688, -0.04324612528467664, -0.07825043858273907, -0.01448226911426148, -0.045701372487202845, 0.059417684964702906, -0.0973512497885785, -0.14828717881003164, 0.049821335336084516, 0.14210425490718084, 0.03027070760176408, -0.08155883898272791, -0.07818418945146839, 0.0012794722603840596, -0.012506891924540138, -0.15521758152458756, 0.01460401090630042, -0.06234509641507178, 0.023385789034967203, 0.12243848534351998, -0.07003830118017376, 0.10739707151866669, 0.08818956612176994, -0.04112824886051849, -0.05560290536469379, -0.16181105726504771, -0.09107297861280628, 0.05626544445239777, -0.12039323449578446, -0.018010492314991227, 0.11303943521979291, -0.0777080083145833, 0.04247421979921748, 0.021558860518747572, 0.04766251887360567, -0.07969752415015935, -0.12339975024178276, 0.00500629273446028, -0.11203064191583148, 0.018140989866735544, 0.0903709186128065, -0.04151104549386277, -0.07563934382323666, 0.023297911341117073, -0.12651591991861316, -0.1813916897944589, 0.10375202203214431, -0.009192896288001566, -0.14070424226159564, 0.06047386686136625, -0.09402959112560837, -0.02265588571517657, 0.05694678117391821, 0.0449566056904931, 0.09615627335928742, -0.1054631884871379, -0.025659540573027922, -0.04441774385560354, 0.018203015078499276, -0.06146539066697539, 0.18311175273349756, -0.0041899053362933715, 0.022264992824497443, -0.11995882878412799, 0.18479925142249182, 0.08751621040060778, -0.05236053980760339, 0.17306274216811834, 0.02969656644436832, 0.014477887339996286, 0.14941921330498728, 0.08123118284212587, -0.04390924700966129, -0.062334397875923556, -0.0801013710613109, -0.0707242987612052, 0.00915832125794525, 0.06503376760211321, 0.04991704240251895, -0.045060423622060135, 0.009208560675265012, -0.13147435063051813, -0.09812907497222369, 0.021121393785868373, 0.07650971535854861, -0.11671391118024374, 0.11212248004055375, -0.07709129976577422, 0.12720273721428008, 0.03105328540607165, -0.019890444754671693, 0.07519462262068254, -0.04964273660313284, 0.10116270924876979, -0.03848257818058086, -0.08965402986014616, -0.11441012694914438, 0.06494598831068422, 0.08647999430111378, -0.08180481685098182, 0.05211374351000511, 0.025938209533506253, -0.06278389198305571, -0.012163410857017535, -0.004397550176694601, 0.03787739773656073, -0.08099406676980629, -0.12626003420579895, 0.06146520092495451, -0.0672698650860614, -0.0219025751256457, -0.05226476134647102, -0.046903596728678706, -0.0725012381072663, 0.037089141671915196, 0.11089061070209819, 0.13101370788947259, -0.11050998070981335, -0.12326416613407339, -0.05026716113198847, 0.057698092760248385, -0.012561239191483711, -0.09384943649822634, -0.05477092049177852, 0.027760901817544474, 0.11633388279847348, -0.1049792321699042, 0.011250868491804416, 0.008376367915708336, -0.2317773443566829, 0.025016406185231075, -0.004976610386718153, 0.006729720585038947, 0.02708333998142626, 0.1057477221834967, -0.029183608610103547, -0.12223674820786462, -0.019743304906704146, 0.03465456695838902, 0.030978830874334985, 0.15452827620998918, -0.013044677493361518, -0.018139122861717632, 0.02425898998250509, -0.12669489003460344, 0.02941196094268623, 0.027637853914675364, -0.08422634081576595, -0.06265485220270203, 0.03703003966083111, -0.09213599138888348, -0.02646413783747791, 0.06203137238955475, 0.053355760946113495, 0.004750751024723168, -0.07831259483154773, 0.0023136027088310885, 0.021232341559988308, -0.00471635489209586, 0.010974068219238053, -0.09579143916959561, 0.10137591479524492, 0.05224075855795481, 0.01654720096395166, 0.014715528016535504, -0.06877103144036491, -0.006110998581099156, -0.012732940975316041, -0.01540129521456617, -0.03064933654758063, 0.011239850411459525, -0.08558709285851773, -0.0004042613556684035, 0.010322450175165622, 0.09988189131514165, -0.07786499642485892, 0.018600139823303847, -0.16730772009722997, 0.13187210225525547, 0.0007901234598633684, -0.08765953769051761, -0.05606801488999611, 0.1624703997009088, -0.02984623926969927, -0.023566522089198252, -0.08524261448418831, 0.004746829339717101, 0.023740609730318128, -0.10684121810133416, 0.034935079689046494, 0.027118540414928144, 0.17511279147645137, -0.061952468329330046, -0.02061783864494808, 0.020620562016848608, 0.01617068644763219, -0.045744347761949994, 0.08760987420186814, 0.04292681654933833, -0.029719429309712955, 0.09010242097120905, -0.0018648798476243547, -0.050274730829265084, 0.054907627482863125, 0.12329361417733252, 0.03506136186023997, 0.00015541270629403783, 0.11226065651878064, 0.0615546814611507, -0.045433145965292826, 0.13910891735447525, -0.053554555029417104, 0.05811222029707698, -0.07665451340520504, 0.13256331733471627, -0.06856135667097349, -0.0016272069287884706, -0.0239133053599494, 0.008454432517162694, -0.0777830204668824, -0.013468056078243187, -0.149672338016684, -0.13055074565412153, -0.08370916629411229, -0.13600606385874853, -0.0019300075686118098, -0.05848755922009303, -0.021216152041267335, 0.10530841849152422, 0.009541010056232542, 0.07666866014076368, 0.01594487232805578, -0.05015709015226937, 0.1056259124794595, -0.0660066689679955, -0.060933933992841645, 0.0004793511012341761, 0.05018557746732285, 0.08344500050467417, -0.060498324671587556, -0.026085260303883705, -0.18847909002809002, 0.001249260044045849, -0.013278074096178252, -0.02511316125021302, -0.04691833601070337, 0.10207360843072057, 0.07430292810632781, -0.022914284396510744, -0.015797212891088513, 0.133096519756145, 0.06781300781254558, 0.027829004218269324, 0.00874952856171042, 0.019147521383043133, -0.0625233848616599, 0.031512426204371925, 0.047994742949778776, -0.15097992000643373, 0.0053370246098768765, 0.16727271100093793, -0.05559085806302277, -0.01669240530821163, -0.08244607483954937, -0.05901963476389979, 0.08561554929743032, -0.18908922671248185, -0.01298657922209279, 0.06782038183003825, -0.04337668058814147, 0.02019461321276974, 0.021366245431953333], [0.011685976753598422, 0.024418566562772474, -0.01642169843289401, 0.02506728053948913, -0.05421006469567732, -0.0515319446945927, -0.013504475159907886, 0.02811478346130293, -0.12123483424204898, -0.06014186688504948, 0.049982607847517416, 0.008056764118216776, -0.07422490483483457, 0.1466467763535734, -0.13223902162054632, 0.1139761700010819, -0.07098593051078263, -0.15194914899427836, 0.030355143682528087, -0.06245166960078369, 0.013509755850927785, 0.014656557740491018, 0.0053842694707543935, -0.017186123648051263, -0.023104795387576378, -0.040141115044231616, 0.013069456250503212, -0.06199583755110198, 0.032116341052598855, 0.05104110012526317, -0.08388327417340351, -0.22148830394633715, 0.08390477319372616, 0.03145633817685017, -0.1381762013541411, -0.06685415057383627, -0.08174469609381017, -0.0815998406069371, 0.17639790309036693, -0.09178561394995084, 0.009190902221092374, -0.07856343300433039, 0.052495772029252916, 0.08232525657531657, -0.1725316431964213, -0.1011622118974718, 0.04137844886989711, -0.061558645053195395, 0.015177736327577036, 0.01322199475184715, 0.03916622086607713, 0.007712352084276041, 0.11575133958221905, -0.16902568297370607, 0.014435803475288963, 0.026204363361209158, 0.06761244498458915, 0.19504952320375218, -0.012371055174066939, 0.01643498057225665, -0.09338178571333862, 0.13976964017279814, -0.009614702396975223, 0.051112142375137594, -0.00832790419134982, 0.062009880388319914, 0.02401577049923101, -0.07176498241863678, 0.17899506973114163, 0.06675084484519897, -0.03026539244518119, 0.005564160997395907, 0.02301580652193301, -0.12403656731847114, -0.003669689069697243, 0.03905819362392203, 0.08856547588831555, 0.05118634125008984, 0.017175332979782732, 0.07471109267625056, 0.07110936797212983, 0.006174339887790487, 0.09540845386789686, 0.10587432624922878, 0.07391326269120432, 0.048164178327090405, 0.05346047234354258, -0.016075623024823436, 0.006073482357631001, -0.09822214239333873, -0.0010386801081626483, -0.015286632343324308, 0.05388620795913891, 0.13489835453266072, -0.07917154347557583, -0.016425680432807503, -0.06611632368285522, -0.026545719673303474, -0.06981701308448496, 0.047903520619287446, 0.0023914844698771317, -0.039237151745705946, -0.052353112873276646, 0.06394183270626604, 0.20287363550670343, 0.06896396005009948, -0.09059187290302904, 0.15405586359133705, -0.052275437204249854, 0.0022713455424798984, 0.024676789703529114, 0.07600730032557489, -0.012967927958054374, 0.07997211207763578, 0.1061275150150502, -0.00042352655341360614, -0.005062149114711999, -0.03538231734101364, 0.027455396713185257, -0.12422229574169336, -0.04183313236833037, 0.011461806592037735, -0.06416211513587701, -0.026852091069287463, -0.013727851917000242, -0.059229297667746435, -0.047016750979843695, 0.05012575245519066, 0.0039298440605983476, -0.06743427278636532, -0.0897143904557961, -0.008860080642642891, -0.03693507359815751, -0.1615200561016929, -0.0001923030532224307, 0.06158002855267918, 0.14723640607783628, -0.08721169984793448, -0.02111465497098397, -0.03983144230708628, -0.1362393579186572, -0.021314147545856185, 0.1005776221389067, -0.09925557220190491, -0.014545938208173497, -0.0827353481398589, 0.08776215545553757, -0.0882349109102343, -0.02208686681312751, -0.01856875450770989, -0.01994532382425433, 0.11694846418842857, -0.023242604331827975, -0.05581887921743507, 0.039109005299091344, 0.09210647252018102, 0.017654679829867716, -0.023943904078841963, -0.011668639941043786, -0.06958923953001134, 0.07128662428171625, 0.08215416937876863, -0.024197422443862495, 0.13027501568826447, -0.060114482764935626, 0.07527234885862043, -0.0547406784110776, -0.06134975054731237, 0.07695761247868575, -0.04370642089248137, -0.15472086529433293, -0.11568459307422836, -0.05131037344225317, -0.04121899990115722, 0.006975400818245602, 0.04932790182459487, 0.09423331616080705, -0.08247822929925418, -0.01994379022727296, 0.03390030401473769, -0.03638427058803291, -0.19604706414261994, 0.005945531589222348, 0.05248007559201721, -0.04700438116640979, -0.045157642382716676, -0.06676029721988337, 0.025635578922037265, -0.004586820473534163, -0.0383157105588091, -0.02872083634307843, -0.0034086116145903562, 0.013769937138440736, -0.048177537063706186, 0.1484594572430045, 0.05078984293461687, 0.035306771886859205, -0.07079378766096289, -0.04200649919312412, -0.10156223648795291, -0.025001088783808658, -0.06871493068125736, 0.04625974928123255, -0.03429961740453531, -0.1259211881567846, 0.09984893789812689, 0.03525121271802888, 0.060289722660090736, 0.03047704065484812, 0.10274880935049617, 0.11978854765689767, -0.002378160344255846, 0.023158643701437318, -0.038904164394845446, -0.038707141511223196, -0.08152099218798586, 0.09212331070915526, -0.03519906944894073, 0.000699828143928875, -0.0014291785678276115, -0.014218565416139235, 0.12451723966044355, 0.010045809095062827, -0.0939403351589773, 0.04523040167788751, -0.03741707271834791, -0.04546855176912724, 0.03740404627448959, 0.0435713560605098, 0.07276687380405186, 0.019220920734642644, -0.037638469858645, 0.14491551517672124, 0.060324796430127545, -0.04721432181097575, -0.10502068883023247, 0.1196498771597022, 0.060401974725362344, 0.052282422132260774, 0.1963541756379076, 0.06980113527316761, -0.016981980792193183, -0.04860325400661674, -0.025194549622403153, 0.11642661871954997, -0.09876602051281261, 0.11259942143368083, 0.010367638253803272, -0.016050997216466547, 0.028892948547888698, 0.20511351526605995, -0.09723127918221505, -0.01721350840798812, 0.04426514000108492, 0.039900699460706034, -0.0454268879355301, -0.02668846193923969, -0.06882591340997107, 0.035625158516587485, -0.07610369103352649, 0.019336217736358744, -0.08661872808226849, 0.1884776610430599, 0.12306343956336521, 0.007044202126831556, -0.005334746354203485, -0.027884874231440666, -0.10935864482745114, 0.020214471845213713, -0.03284466983199747, -0.21989119686720762, 0.023677312000166897, -0.03290381549649275, -0.041016522053078604, -0.00605538732229587, 0.02782558607877994, 0.007571541872106144, 0.11533567623484553, -0.061082789396993624, -0.010077280106983083, 0.05704576962570699, 0.09769662353688037, 0.01009113593711233, 0.01569900670841752, -0.07243582621836947, -0.07770124828019662, 0.12321638777814006, -0.10802229142793326, 0.018740999484284183, 0.10306766103178684, -0.004202133850227196, 0.09497212159177618, 0.015260986473127064, 0.03768979501919725, 0.04006689219930184, -0.061627094356968594, 0.15004676013661117, -0.0702452181290178, -0.07978213090028412, 0.06334631606864864, 0.017006381938086488, -0.013477605511246191, 0.01632343339091833, 0.07453642149373212, 0.11841822446568791, -0.08598763350493956, 0.10858206313863783, 0.040262098706949814, 0.01482585364027793, -0.07815534433139318, 0.03418603921037229, -0.008629858351637432, -0.04485061710569557, 0.09081506762118136, -0.01047432853128812, -0.08901410062868778, 0.18094952187567906, -0.12760429932870362, -0.00046449132302368114, -0.008038878009236227, 0.0628278609381821, -0.033420571502015606, 0.07873846235420534, 0.08859553731892147, -0.08282822569088574, 0.01448832186745592, 0.009064528048015505, 0.01885545299472521, 0.013755411933774697, 0.05438015227472092, 0.0014009349012038613, 0.14122185689200545, -0.01565445479814472], [0.02707737995996738, -0.06369885382538247, 8.865117431692129e-05, -0.06493767672454195, 0.12067391011559336, 0.024659201793852586, 0.04758893991859585, 0.06629236293186488, -0.04932032509256318, 0.05519353023726023, 0.0678054928277149, 0.037803861116555815, -0.07694664304335166, -0.11859905334285503, 0.05981269464433423, -0.1010540218215463, 0.04942853452431106, 0.02750117676956921, 0.010764036588475575, 0.1012559883614255, -0.010983972578728686, -0.045587617028930515, -0.025254863866036502, 0.07265764423758565, 0.0542707132502773, 0.08874143079262677, 0.004342417956638309, -0.03783410642733331, -0.020141237998469477, -0.04583607016957683, 0.041407556642089866, -0.153359266066479, 0.13218552454612126, 0.11537375478364711, 0.12906473896761236, 0.0707216389952668, -0.19546838750371334, 0.03765654605828708, 0.02638964362971464, -0.1075652715531094, 0.08264941410171096, -0.14201206804852598, 0.04196970209956362, 0.059390260734619144, -0.0008358175584054231, -0.03975615496289083, -0.07586792382350942, 0.0827647357468531, -0.0657995318227152, -0.1418467586463039, 0.03733001620111549, -0.026278497235423266, -0.04052148076434952, -0.002358564848200989, 0.025500688346297633, -0.10334603294705784, 0.053810767186591904, -0.16571206280544176, 0.03203287458581783, 0.034391161690496136, -0.06715607963711172, -0.025281369109371492, 0.010898115876604735, 0.0458602671294921, 0.07994811824382517, 0.060834974301409904, -0.10470221027445385, -0.11167365765528875, -0.004654669441260972, 0.052542000620771676, 0.09140500382011223, 0.050746246177521624, 0.05393520535402964, -0.08933064212211639, 0.009704360631483193, -0.11780250355676639, 0.01760283639567723, -0.0162960631649476, -0.19823727632712068, -0.010153490939371169, 0.02788825720652061, -0.14281711853388313, -0.004727454245184478, 0.059794763928156976, 0.015242481623867547, 0.006531090473326937, 0.09711446997838986, -0.027540972379886012, -0.0472787562587226, -0.12693028560413458, -0.1044520391306188, 0.1875765615575443, -0.06858602060698729, 0.01366324865740259, -0.10620551014906791, 0.019748721426436792, 0.025933975550804116, -0.06906389824434622, 0.018292827201654416, -0.00047885330508048047, 0.024264668839657, -0.017318357877447666, 0.21096946640922293, -0.07089035754619004, -0.013447345238359503, -0.04232793553528816, 0.028414137574666164, 0.03683557375609833, 0.11034545260287644, 0.01923405557291045, 0.06466457571344338, 0.06445457336982974, 0.058286405630184834, -0.018505616655368737, 0.16176019285969107, 0.0390022709829864, 0.045442941612209256, -0.14458973218399607, -0.0893495210409226, 0.08452007763183805, -0.019104937302865815, -0.02012516205252462, -0.12057779295334992, -0.052374358517757236, 0.03369387995425813, 0.10728417916248066, -0.08470207483507132, 0.0020650719898993894, -0.02192849699140909, -0.005600011366114958, 0.08539151600458077, 0.02889296858634506, -0.050189051055431776, 0.025133127093004724, 0.08883971749698855, 0.07047029665825674, 0.017312351795939106, -0.03873071093502087, -0.08847096976795756, 0.04970074281847067, 0.03172006277927591, -0.057097931226200785, -0.16653880126458712, 0.00683668150928067, 0.06845676207865257, 0.07683773778029003, 0.030972147532034693, -0.0111662119705253, -0.0624439800803147, 0.044183184373289434, -0.04191065736701822, -0.014654080492437108, 0.0033738893627232587, -0.19901133740991064, -0.03398827706711456, 0.16101683825047214, -0.004344788433718805, 0.05571040733082029, 0.11836786296569106, 0.0070175587170727225, -0.049084382950227164, 0.017615749321180797, -0.015130911867749855, 0.12461608817297527, 0.05845666950324702, -0.14124598254588647, -0.013299313788877927, 0.07046545189894778, 0.006883221949272366, -0.0567323832824112, -0.07492887246845291, 0.026371337176952333, -0.030196139176739974, -0.004917384489889631, 0.02202236246599819, 0.09470837882119064, -0.009737757686351678, 0.0573516069197139, 0.03530814255345035, -0.06976800775430021, -0.03050453911150752, -0.04383032674646643, 0.013104095854513572, 0.014392168225618068, -0.0064661963346888595, 0.07401901505911952, 0.18573743094479012, 0.012542716967401418, 0.08755933132349462, -0.05729464144427037, 0.13424917679455434, -0.19379271219880395, -0.1092602915248603, -0.08263396072421858, -0.020421000028199642, 0.1387447481943773, 0.08218696930581328, -0.015678674349605667, -0.1073224107918098, 0.07182763314782813, -0.01727357620237951, -0.029781756935469306, 0.10422897091367861, -0.06311824931448964, 0.07583464493580036, 0.027540981721430473, 0.03627011126221879, -0.05900226838179284, 0.025245705510192975, 0.0667099388560419, -0.10490142729717801, 0.025477867693104145, -0.04776469133973605, 0.02411778891937198, -0.11505839031751057, 0.07718880289302, -0.03263954981661089, 0.16119365863780075, 0.022432929118477104, -0.13426171387948255, 0.022098613003900324, 0.016725942845663016, -0.1547531877784759, 0.01374877670315688, -0.10854945021109567, -0.14377971221648086, 0.003516954757524245, -0.005796678879838338, 0.019812451978970573, -0.046018924407980055, -0.028874412746609374, -0.1009481292395362, -0.05469825425263432, -0.05299008784944046, 0.023245525676608883, -0.07800935431149691, 0.0345971064637807, -0.011089942023507106, -0.00334285005555103, 0.06679214872322287, -0.10422015228505513, -0.12145608377498532, -0.06430696610241755, -0.10314978388289665, -0.16933493467563024, -0.007607476158369439, 0.02980560312756766, 0.09105579000074947, -0.00311567374877565, 0.015404520124958231, 0.052854687464675004, 0.002904936769245145, 0.07383660599010324, -0.048802383226384125, -0.020053280062716908, 0.0861843067339755, 0.06453288380136836, 0.1660111498410619, 0.19231947142422826, -0.0005610556195108096, 0.048754719367975916, 0.05665584694695476, -0.01353881783487036, 0.11852256291412346, 0.05690934156192248, 0.09997713421383662, 0.09968318649011798, -0.005658279445349626, -0.050208300423853255, -0.026282489415920658, -0.029571195959519524, -0.05048629816690145, -0.07496045967099618, 0.03938696683954594, -0.07077907533223743, -0.007962697423375025, -0.0410499464454438, 0.018777506927030455, -0.11359005954935208, -0.033806833136252885, 0.0485715184902415, -0.016404342357587108, -0.027898455720447857, -0.09552944214648404, -0.04242311330716334, 0.09969533096286383, 0.06182123382832083, -0.017745594619418843, -0.05729848785459393, 0.059988263752328186, -0.11391693630640531, 0.022372337464115676, -0.014605868685260138, -0.11660857621086336, 0.0599331948099952, -0.05402313144013789, -0.059750944257688184, 0.07617354892975801, 0.013098950098086202, -0.14040652353589306, -0.1637373656473606, -0.040167502229365284, -0.047476731883056116, 0.05781486168488308, -0.1730594726105443, 0.13640556478469842, -0.0266038296037118, -0.1391084010261361, 0.031753374294637066, 0.012465743197071251, -0.020455610640965616, -0.09347872213123914, 0.07282305744849855, -0.021468806635751285, -0.024048186893716027, 0.05800333370849095, -0.10911202162269434, 0.1347685695643475, -0.05617704047516393, -0.062294087424872996, -0.04465009761403452, 0.014547364338144138, 0.11145991168817342, -0.03799521203476275, -0.08080229010249836, 0.059554082884059584, -0.007010526929387793, 0.010967397504286956, -0.03385770613894288, 0.014263497587378562, -0.01261832533120915, 0.01165168463851428, 0.13854425089499078], [0.023309725592687302, 0.07640922864061094, 0.11833962846662374, 0.18356177277033192, -0.06547313674644763, 0.0214040844137988, -0.12717182689520679, -0.1449687183669844, 0.13330841869796436, -0.043599564536323146, -0.048513896631248096, 0.05617526565891791, 0.12278331943626643, 0.007181104571160589, 0.038808169064698035, 0.1971944050612055, 0.10607340151740005, 0.04392290875705052, -0.02586714317276802, 0.07532848028060671, -0.040706474980749294, 0.004049997753612446, 0.05411678186624811, 0.12192533371981427, 0.0294470178493062, -0.019296346744162238, -0.11613536380141187, 0.1402095647069986, 0.01018148054312701, 0.09347838539927997, 0.09120966946838098, 0.0213587377101813, 0.12433521188303596, 0.013421874251289326, -0.01604352329645121, 0.013956590784299713, 0.094305847012761, 0.019668206624227833, -0.13576086691267117, 0.008991287084653049, 0.03186895842967659, -0.09623432791887583, -0.01258588985441691, 0.09254570490911532, -0.07808023951631013, 0.009672407857126015, 0.009385241323618941, -0.02324363923651384, -0.07375683759696973, -0.0888854410717732, 0.07884028770639871, -0.055497437074143806, -0.06270429775323345, -0.008304273357722327, -0.0762007221711412, 0.009440629248625633, -0.036911319841617676, -0.09397922750490027, 0.1036495786238844, 0.11768067952934876, 0.017460251356871764, -0.020150164317321383, -0.10233890584502056, 0.1872930896126797, 0.016014366285206822, -0.0141529601032977, -0.0679264431166988, 0.016659447834735403, 0.022119144019476112, -0.004207874479332348, -0.14860867615256582, -0.12838218370428744, -0.045019768007904755, -0.04709389553347292, 0.07565581080175557, -0.04426737423875395, -0.09374484481006301, 0.15846500752655576, 0.04577721940624577, 0.04245100935363986, -0.05894374103894055, 0.047659067876553024, 0.036870643897217004, 0.04765414611388143, -0.04163784092329295, 0.21685575568569726, -0.13364300645912852, -0.016179844544266526, -0.02057321566484402, -0.11562438411465141, 0.04899788091682804, -0.08975341214154259, 0.03144306046084861, 0.03257357548145139, -0.036358982660500534, -0.08892589696025838, 0.038284523640109876, -0.04054981473666994, -0.0350842970024609, 0.07715331799767115, -0.1703426191475532, -0.03762006846054727, 0.02466511776133575, -0.03968472175260314, 0.22495399212685865, -0.06531558495179225, -0.11534729786176724, 0.02741139061040748, 0.010495983941206242, 0.05072327937706299, 0.07219111818566785, 0.017077653033232457, -0.03306150585950688, 0.017825992733844817, 0.10456485995633592, -0.051278056396189625, -0.06503120313902741, 0.06419457952745082, -0.03800899681593402, -0.061615328838840376, 0.11277188194463314, -0.047514347167979934, 0.1141408862334002, 0.055703412312383016, -0.06918598874075074, 0.005976022060999872, -0.06986966384569739, 0.011028809578782302, -0.1554945435878559, -0.09276751107537037, -0.048221895837088, 0.0376648752257322, -0.053208983446229804, -0.09784341817204024, -0.007322773291768626, 0.11367644429964235, -0.199664752283383, -0.1269592164449672, -0.040169613716314966, 0.042142613585172226, 0.029531024427788995, 0.0951913140707124, 0.032531892192443755, 0.04003995500122592, -0.14257218634029262, -0.04143195155194045, 0.11068344523791125, 0.02994832862621029, -0.044741653637605995, 0.02694082027481175, 0.01897208147988813, -0.0051847443629828745, 0.0019796177729392173, -0.011517780666987868, -0.057205245978350285, 0.00992862835202116, -0.1292435097940035, -0.09711371973880417, 0.10508797750221982, 0.060517346142922784, 0.14988141666149918, 0.10462827991704524, 0.1060759639173055, 0.02379723187780242, -0.06730851654836646, -0.05104114557251254, -0.1164709362615159, -0.023119956862405644, -0.029618807553922284, -0.03299284036193423, 0.05987384930693326, -0.035823296032485304, 0.010238291106942975, 0.05329214985877072, 0.044781849936569924, 0.07012892313226597, -0.07228478531515219, 0.05275771920203808, -0.033040557134471356, -0.07820428263542825, -0.042598643948120414, -0.04132882187181662, 0.005540804702250199, 0.09360123739957013, -0.03583608942840669, 0.0635311439766505, -0.03626568160986286, 0.052230209527839515, 0.13436746477914743, 0.06896877513272939, 0.04223223015403817, 0.04783474968885859, -0.1532865899324101, -0.017310175404912895, -0.025455546389225696, -0.05571660552647711, -0.08104209036179426, -0.15246584798824608, 0.006498837420674005, 0.0028663360443496625, 0.0799912738665611, 0.03491510113353821, -0.10908107470553981, 0.07415598746194664, 0.13234041792291407, 0.03837112567211855, -0.18767989285251918, -0.06669214307649528, -0.07087074433096285, 0.04071232211910013, 0.03860142928151717, -0.028935803750917713, 0.016723647241575955, -0.012682547433407002, -0.07709233729622933, 0.08529338339222764, -0.02957742786252653, -0.10980025295791077, -0.08170017224999221, -0.09358087281034465, 0.10574163244084439, 0.04761070474890776, -0.04282069393405843, -0.07852095850954899, -0.058381967031218944, -0.03876552211378825, -0.0269650087590699, 0.06843211391318013, -0.045958134390864165, 0.047829061145695, -0.1273361273891413, -0.11725529547909018, -0.14351357696234257, -0.020693179416649658, -0.010322429674412138, 0.07623365581610192, -0.10205870245555768, -0.12031775707194006, 0.056665897729127127, 0.0649904495292981, 0.06619984051602902, 0.03952852920777211, 0.04646147537032145, -0.013953585550195609, -0.03229357850801343, 0.02033827106905714, 0.05468489384440039, 0.004020893884313039, -0.012918195126064892, 0.05682386947368493, -0.08764214798924731, 0.02806313493603964, -0.0784301534436581, -0.04937349528496758, -0.10040025924843508, -0.10841372533063738, -0.06551768772955088, 0.08006213098353045, 0.08436246710254017, 0.04492443240934809, 0.00901815769825187, 0.07960269975762002, 0.09161141970405239, -0.009285398843238396, 