{"policy_state_dict": {"conv1.weight": [[[[-0.08763474971055984, -0.044982537627220154, 0.07710812985897064], [0.14597590267658234, -0.005296011921018362, 0.1846957504749298], [-0.32626378536224365, -0.07602939754724503, -0.06778231263160706]], [[0.07301443815231323, -0.28084081411361694, -0.06661699712276459], [0.09100871533155441, 0.02763904444873333, 0.049571335315704346], [0.15244662761688232, -0.06919928640127182, -0.10282531380653381]], [[0.16467854380607605, -0.10656525194644928, 0.1129094809293747], [0.040076497942209244, 0.20367835462093353, 0.31869611144065857], [-0.18352338671684265, -0.12915506958961487, 0.2010771930217743]], [[-0.07109292596578598, 0.011067216284573078, -0.10798654705286026], [0.020700696855783463, -0.0853596106171608, 0.07188760489225388], [0.03083217144012451, -0.022404653951525688, 0.15345893800258636]], [[-0.04880398139357567, -0.2565675377845764, -0.1855214238166809], [0.08649275451898575, -0.09938900917768478, 0.06314172595739365], [-0.00791946891695261, -0.0320361852645874, -0.08964217454195023]], [[-0.2423311322927475, -0.17509350180625916, 0.31264728307724], [0.012151584960520267, 0.12554369866847992, -0.02218867465853691], [-0.06018369644880295, 0.2797352373600006, 0.07522648572921753]], [[0.030853383243083954, -0.10760851949453354, 0.2753700613975525], [0.171314999461174, 0.1055905669927597, 0.2020541876554489], [0.1580185890197754, 0.12641149759292603, 0.02129187621176243]], [[0.009567470289766788, -0.009953864850103855, -0.0687238797545433], [0.16253124177455902, 0.05736110359430313, 0.11582660675048828], [-0.019294681027531624, -0.034819986671209335, 0.06119154766201973]], [[0.2187839150428772, -0.13677936792373657, -0.07854577898979187], [-0.016015678644180298, 0.06611404567956924, -0.10315976291894913], [0.14185307919979095, -0.11763642728328705, -0.122612863779068]], [[0.16262827813625336, -0.24021798372268677, 0.011974798515439034], [0.16325226426124573, -0.3661758601665497, 0.0379745177924633], [0.027180735021829605, 0.004916684236377478, -0.10662879049777985]], [[-0.04865749180316925, -0.04205883666872978, -0.15084266662597656], [0.15504688024520874, -0.003194540971890092, 8.762853394728154e-05], [0.02188532054424286, -0.04156836122274399, 0.08465337008237839]], [[-0.10660511255264282, 0.06683789938688278, 0.18308156728744507], [-0.13008493185043335, -0.06695320457220078, 0.07947967201471329], [-0.10649816691875458, -0.15700295567512512, 0.019657166674733162]]], [[[-0.08075455576181412, -0.0836263969540596, 0.0058060018345713615], [0.07991044223308563, -0.19310347735881805, 0.08356337994337082], [0.06500747054815292, -0.04274426028132439, 0.1301720291376114]], [[-0.13378527760505676, -0.04378882795572281, -0.2648564577102661], [-0.10112819820642471, 0.2050110399723053, 0.031030381098389626], [0.029971005395054817, 0.026468226686120033, -0.05000351369380951]], [[0.03777853399515152, -0.23138198256492615, -0.20907500386238098], [0.0050535681657493114, -0.13987359404563904, -0.08158041536808014], [-0.1896463930606842, -0.218779057264328, -0.00985963735729456]], [[-0.05370406061410904, 0.048080284148454666, 0.2666303515434265], [-0.021814066916704178, -0.09561906009912491, -0.17645257711410522], [-0.014125414192676544, 0.0059872642159461975, -0.3516240417957306]], [[-0.052727483212947845, 0.1222698837518692, 0.07677778601646423], [-0.259994775056839, -0.1606225222349167, -0.06988004595041275], [0.011181232519447803, 0.03643608093261719, -0.14658614993095398]], [[0.07172319293022156, -0.08172304183244705, 0.008626416325569153], [-0.0084002073854208, -0.19955787062644958, -0.10900946706533432], [-0.10678178817033768, 0.21970994770526886, -0.1583470106124878]], [[0.10334386676549911, 0.05712683126330376, 0.19488781690597534], [0.13874481618404388, 0.022221023216843605, 0.04123443365097046], [0.061361219733953476, 0.20903971791267395, 0.05949125811457634]], [[0.0025381401646882296, 0.09649442136287689, 0.15420038998126984], [-0.22877050936222076, 0.3539646863937378, -0.04287811368703842], [-0.29894036054611206, -0.4161681830883026, -0.15327686071395874]], [[0.2007143646478653, -0.08669238537549973, -0.057272594422101974], [-0.13836179673671722, -0.038183052092790604, 0.2291756421327591], [0.007634464651346207, -0.1437235325574875, 0.038973014801740646]], [[0.015508760698139668, -0.3088630139827728, -0.22301238775253296], [-0.011458289809525013, -0.1599227488040924, -0.12214905768632889], [-0.03243253380060196, -0.16526460647583008, -0.11757000535726547]], [[0.1488780826330185, -0.31590962409973145, -0.1324024200439453], [0.075856052339077, -0.08554728329181671, -0.047677118331193924], [0.07520785182714462, -0.07171010971069336, 0.02553122118115425]], [[-0.35741499066352844, -0.33302024006843567, -0.0458996407687664], [-0.13886357843875885, -0.4270874261856079, 0.006923220120370388], [0.05710328370332718, -0.11173871904611588, -0.0625244751572609]]], [[[0.07305285334587097, -0.03473219275474548, 0.05746167153120041], [0.00804482214152813, 0.15468277037143707, 0.09645503014326096], [-0.10868962854146957, 0.2335944026708603, -0.039709098637104034]], [[0.16067442297935486, 0.16556969285011292, 0.03378338739275932], [0.21421445906162262, 0.10308025777339935, -0.24648335576057434], [0.43158572912216187, 0.15097367763519287, 0.23882471024990082]], [[-0.13942556083202362, 0.14010155200958252, -0.29151105880737305], [0.12525030970573425, -0.08436626940965652, -0.20674097537994385], [-0.027217715978622437, -0.3353789448738098, -0.1289752721786499]], [[-0.06306502968072891, -0.14655469357967377, -0.15784387290477753], [-0.050447624176740646, -0.19884219765663147, -0.02992016263306141], [0.12964701652526855, 0.005416552536189556, -0.009415476582944393]], [[0.23231181502342224, -0.21931490302085876, 0.03190325200557709], [0.18297572433948517, 0.12401080131530762, -0.03822246938943863], [0.2084980607032776, 0.12824487686157227, -0.09229221194982529]], [[-0.2633751630783081, -0.012114130891859531, -0.05634082481265068], [-0.19150058925151825, -0.08386509865522385, 0.06432118266820908], [-0.06924422830343246, 0.24260751903057098, -0.07562398165464401]], [[0.10653947293758392, 0.11224069446325302, 0.07629115134477615], [-0.02504001557826996, 0.005576043855398893, -0.05750512331724167], [-0.09115450829267502, -0.12200731784105301, -0.19628538191318512]], [[-0.0485864020884037, -0.14715811610221863, -0.0835474357008934], [-0.10018522292375565, -0.05289044231176376, -0.0506461039185524], [0.13914993405342102, -0.3032723367214203, 0.1633310765028]], [[0.20384398102760315, -0.0764654204249382, 0.17418403923511505], [-0.20211194455623627, 0.11563990265130997, -0.18274690210819244], [-0.05497580021619797, 0.19468438625335693, -0.054492682218551636]], [[0.15213316679000854, -0.18308307230472565, -0.007404952310025692], [-0.062738798558712, -0.033614300191402435, -0.07522167265415192], [-0.16648031771183014, 0.0601586177945137, 0.050042904913425446]], [[0.007094997446984053, 0.08985525369644165, -0.21679136157035828], [0.029342565685510635, -0.053901318460702896, -0.15780378878116608], [0.1460178792476654, 0.09351962804794312, -0.10490074753761292]], [[-0.1567903757095337, 0.11353623121976852, 0.34636232256889343], [0.09278514981269836, -0.04466351494193077, 0.11054152995347977], [0.020404500886797905, -0.03121049329638481, 0.037549328058958054]]], [[[0.0282441396266222, 0.11170559376478195, 0.0834820345044136], [0.014480888843536377, -0.2191985696554184, -0.14510315656661987], [0.13815926015377045, 0.18428437411785126, -0.020075885578989983]], [[-0.07175125181674957, -0.026448551565408707, 0.11979552358388901], [0.0829266756772995, -0.016579296439886093, -0.1316027194261551], [0.05403114855289459, -0.047330837696790695, -0.05331263691186905]], [[-0.055891167372465134, -0.0718291699886322, 0.05626853182911873], [0.24076983332633972, -0.18810325860977173, 0.19756901264190674], [-0.10048561543226242, 0.13970007002353668, 0.06502614915370941]], [[0.21600200235843658, -0.1121978834271431, -0.06489276885986328], [0.11806687712669373, 0.03262263163924217, 0.044640567153692245], [0.06647992134094238, 0.32699498534202576, -0.02664952538907528]], [[0.17798037827014923, 0.07767187058925629, 0.09810703247785568], [-0.115629181265831, 0.09510361403226852, -0.24710234999656677], [-0.03217675909399986, -0.004377068020403385, 0.11148981004953384]], [[0.17446956038475037, -0.15451593697071075, -0.13409937918186188], [0.09106920659542084, 0.045223418623209, -0.05417562276124954], [-0.09308192133903503, 0.0877823755145073, 0.08454746007919312]], [[0.033965058624744415, -0.031067397445440292, 0.07841518521308899], [-0.07030641287565231, -0.25889840722084045, -0.09247414022684097], [0.03721936047077179, -0.033956654369831085, 0.03532208502292633]], [[-0.0183824822306633, -0.02587079256772995, 0.3181660771369934], [0.04565178602933884, 0.037405598908662796, -0.056533332914114], [0.13782191276550293, -0.06217849627137184, -0.017598044127225876]], [[0.11181143671274185, 0.19600868225097656, 0.04900960251688957], [0.04381311684846878, -0.1734345406293869, -0.0901414006948471], [0.09879802912473679, -0.07424736022949219, 0.0247675571590662]], [[-0.015614751726388931, 0.18837907910346985, 0.011591870337724686], [-0.05673796311020851, -0.05790753290057182, 0.05949069932103157], [0.1557730883359909, 0.14725492894649506, -0.18479394912719727]], [[0.08436809480190277, 0.08344600349664688, 0.049947287887334824], [0.0013049417175352573, -0.019734449684619904, -0.12041043490171432], [-0.11784610897302628, -0.02330922894179821, -0.23986096680164337]], [[-0.056205928325653076, -0.04130692407488823, 0.009385672397911549], [-0.11669822782278061, -0.010735183954238892, 0.09822311997413635], [0.1487327218055725, 0.1244749203324318, -0.006665944587439299]]], [[[0.024037476629018784, 0.2003968507051468, 0.2004801630973816], [-0.06037529930472374, -0.1908711940050125, -0.07990147918462753], [0.08623030036687851, 0.034219421446323395, 0.10744315385818481]], [[0.09484287351369858, -0.04188520088791847, 0.009688599035143852], [-0.05975152179598808, -0.12013082951307297, -0.13946190476417542], [0.004766575992107391, 0.1951688528060913, 0.20741097629070282]], [[-0.0641612559556961, 0.029092393815517426, -0.11485003679990768], [-0.08976594358682632, 0.1510816365480423, -0.008645785972476006], [0.11502213776111603, 0.052790138870477676, 0.19791123270988464]], [[-0.014182471670210361, 0.19643421471118927, -0.36210861802101135], [0.15944884717464447, -0.023757802322506905, 0.244374081492424], [-0.006383524276316166, -0.08344610035419464, -0.20211748778820038]], [[-0.0697871670126915, -0.014766616746783257, -0.1882539987564087], [-0.3407617211341858, 0.003724018344655633, 0.10455970466136932], [0.051037464290857315, 0.14149171113967896, -0.019216356799006462]], [[-0.13677595555782318, -0.11515149474143982, 0.06163492798805237], [-0.09852571040391922, 0.1227433979511261, 0.17451231181621552], [-0.030365925282239914, -0.02395586669445038, -0.0029320036992430687]], [[0.0032232406083494425, 0.10313733667135239, -0.14006280899047852], [0.08667627722024918, 0.1765211969614029, 0.2510482668876648], [0.1955050379037857, -0.008570333011448383, 0.10413710027933121]], [[2.1958185243420303e-05, 0.26722508668899536, -0.20863211154937744], [0.042250268161296844, -0.0018948853248730302, -0.2602761387825012], [0.059418972581624985, 0.19609159231185913, 0.02339733950793743]], [[0.05390310287475586, 0.00740782218053937, -0.04689406603574753], [0.05745827779173851, -0.2582593858242035, -0.2737633287906647], [0.1931256800889969, -0.0616353303194046, -0.05752113461494446]], [[-0.09390190988779068, -0.021986890584230423, 0.04054513946175575], [0.1487734019756317, -0.03201428800821304, 0.03359876573085785], [-0.19020724296569824, -0.33169975876808167, -0.22462759912014008]], [[-0.08343928307294846, -0.04638312757015228, 0.07124807685613632], [-0.014584713615477085, -0.025373876094818115, 0.09641946852207184], [0.12707297503948212, 0.04983246698975563, 0.047740012407302856]], [[0.04118990898132324, 0.04226937144994736, -0.12741325795650482], [0.10911431163549423, -0.062919020652771, -0.044533733278512955], [0.020169110968708992, -0.015970051288604736, 0.03170481696724892]]], [[[-0.12937031686306, 0.16502508521080017, 0.15381576120853424], [-0.11528036743402481, 0.13242876529693604, 0.21858049929141998], [0.11427333950996399, 0.22076939046382904, -0.070002980530262]], [[0.2575777769088745, -0.0007159572560340166, -0.0799764022231102], [-0.054475050419569016, 0.017832748591899872, 0.23181073367595673], [0.03144166246056557, 0.2073604315519333, -0.16132861375808716]], [[-0.15040306746959686, -0.34755927324295044, -0.08435290306806564], [-0.11254116892814636, -0.19511856138706207, 0.04998307675123215], [0.10057439655065536, -0.06064748764038086, 0.18924176692962646]], [[0.25039809942245483, -0.16013161838054657, 0.148821160197258], [0.07136141508817673, -0.07451240718364716, -0.12707725167274475], [0.009380712173879147, -0.126153826713562, 0.035308223217725754]], [[0.08170054852962494, -0.25584352016448975, 0.06535171717405319], [-0.046099960803985596, -0.031039899215102196, 0.05515598878264427], [-0.12468348443508148, -0.021143117919564247, -0.10649602115154266]], [[0.11678630858659744, 0.12115361541509628, 0.03736481815576553], [-0.1270490288734436, 0.19290116429328918, 0.09138007462024689], [0.052292559295892715, -0.20768199861049652, -0.039238397032022476]], [[0.10158388316631317, -0.24525073170661926, -0.10629180073738098], [-0.20838387310504913, -0.10783366858959198, -0.14528842270374298], [-0.17283424735069275, 0.03621845692396164, -0.29839590191841125]], [[0.10764698684215546, 0.11367126554250717, 0.17389042675495148], [-0.03453116491436958, 0.18637704849243164, 0.11046047508716583], [-0.03579914942383766, 0.07086437195539474, 0.31469395756721497]], [[-0.05453062802553177, -0.22814802825450897, 0.21868440508842468], [0.055438607931137085, -0.04213679954409599, 0.05878719687461853], [0.03713630139827728, -0.08044438809156418, -0.03531692177057266]], [[0.04616314172744751, 0.30428019165992737, -0.10560256987810135], [-0.055175114423036575, 0.07820189744234085, 0.031966160982847214], [-0.03283081203699112, 0.08119694143533707, -0.18813647329807281]], [[-0.2940202057361603, -0.0923386663198471, 0.03562234714627266], [-0.4549010396003723, 0.010391036048531532, -0.04471924528479576], [0.013475751504302025, 0.19177702069282532, 0.0037894686684012413]], [[-0.10442689061164856, -0.040143486112356186, -0.013920423574745655], [-0.1512928009033203, 0.09862630069255829, -0.14908453822135925], [0.07494654506444931, 0.18540692329406738, -0.015654942020773888]]], [[[-0.11848918348550797, 0.180233895778656, 0.04636041820049286], [-0.20535480976104736, 0.03341556712985039, -0.13162896037101746], [-0.10088834911584854, 0.08921937644481659, 0.04876132309436798]], [[0.10765200108289719, 0.025540251284837723, -0.0009987703524529934], [-0.08469107747077942, 0.019189948216080666, -0.19240568578243256], [-0.17869006097316742, -0.12897543609142303, -0.04853324964642525]], [[0.0553637258708477, -0.17539480328559875, 0.024735772982239723], [-0.1288100779056549, -0.1606505662202835, 0.2509535849094391], [0.12947596609592438, 0.11076049506664276, 0.22663278877735138]], [[-0.15148858726024628, 0.04530653730034828, 0.13603486120700836], [0.07574541866779327, -0.07559192180633545, -0.17150618135929108], [-0.01390930823981762, -0.2118985950946808, -0.015430780127644539]], [[-0.2500970959663391, 0.02859049290418625, 0.012437003664672375], [0.020876852795481682, -0.3227123022079468, 0.006886214483529329], [-0.066752590239048, -0.171296626329422, 0.22232168912887573]], [[-0.039737336337566376, 0.0888439491391182, -0.061723995953798294], [0.07244402915239334, -0.07453729957342148, 0.03189011290669441], [0.03366716578602791, 0.11174113303422928, 0.008773047477006912]], [[-0.0685938373208046, 0.21464331448078156, -0.1529233157634735], [0.035592302680015564, 0.10791110247373581, 0.2583770751953125], [0.05472651124000549, -0.06354115158319473, -0.20552542805671692]], [[-0.036438532173633575, -0.14158999919891357, -0.13686692714691162], [0.16320352256298065, 0.18327537178993225, 0.1069047749042511], [0.07653117924928665, -0.05471109598875046, -0.06242046132683754]], [[0.05852409824728966, -0.11437185108661652, -0.29080164432525635], [-0.08713964372873306, -0.08401454240083694, -0.16083846986293793], [-0.12555460631847382, -0.22991526126861572, 0.3978893458843231]], [[0.16694508492946625, -0.09287551045417786, 0.11185275763273239], [-0.016556432470679283, -0.15181799232959747, 0.09452353417873383], [-0.0791160985827446, -0.09803006052970886, -0.10398653149604797]], [[0.1349111944437027, 0.09673165529966354, 0.2952466905117035], [0.2297956496477127, -0.038477640599012375, -0.16537581384181976], [0.05354282259941101, 0.10764672607183456, 0.07499022781848907]], [[0.24022918939590454, 0.041880086064338684, -0.10112176835536957], [0.18061143159866333, 0.08569833636283875, 0.0983947366476059], [0.13510333001613617, -0.0921177864074707, -0.09241139888763428]]], [[[-0.10108868032693863, -0.14230966567993164, -0.14059150218963623], [0.007916084490716457, 0.125544473528862, -0.12368202954530716], [0.49383875727653503, 0.12671737372875214, -0.047948069870471954]], [[0.1748034954071045, -0.11202485114336014, 0.31736060976982117], [-0.04983224719762802, 0.03603992238640785, 0.0032712998799979687], [-0.05977226048707962, -0.03539823740720749, 0.2554545998573303]], [[-0.05275290459394455, 0.06123088300228119, 0.024770250543951988], [0.018752267584204674, 0.03470313921570778, -0.13349692523479462], [-0.15341328084468842, 0.10825011134147644, 0.16936708986759186]], [[-0.1147897019982338, 0.021382277831435204, 0.012409915216267109], [0.07929334789514542, 0.17429213225841522, 0.04676944017410278], [-0.17329373955726624, -0.02760767750442028, -0.06948038190603256]], [[-0.14208529889583588, 0.07203131169080734, 0.0893034115433693], [-0.051400840282440186, 0.07261620461940765, 0.09025998413562775], [-0.0986640676856041, 0.21278992295265198, 0.04718201979994774]], [[-0.07831289619207382, -0.01549519132822752, 0.13530930876731873], [0.19963127374649048, -0.023922180756926537, 0.04441602900624275], [-0.10867061465978622, -0.058889951556921005, -0.05553243309259415]], [[-0.09703479707241058, 0.2351202368736267, -0.2154276818037033], [-0.046863753348588943, 0.0018317901995033026, -0.03629453480243683], [-0.0681714341044426, 0.16108323633670807, -0.07881109416484833]], [[-0.26089364290237427, -0.009656470268964767, -0.14176881313323975], [-0.13041651248931885, 0.03744378313422203, 0.0974285826086998], [0.06572385132312775, -0.1727924644947052, 0.32555246353149414]], [[-0.001690418110229075, 0.12501078844070435, 0.05110885202884674], [0.06405692547559738, 0.02518352121114731, -0.02961045689880848], [0.13939949870109558, -0.06503040343523026, 0.2587653398513794]], [[-0.049599986523389816, -0.13781435787677765, -0.11713956296443939], [0.007878885604441166, -0.1139921098947525, -0.13957920670509338], [0.024088481441140175, -0.12826357781887054, -0.10019302368164062]], [[-0.07362217456102371, 0.0499102920293808, 0.16234125196933746], [0.4066201150417328, 0.09522239863872528, -0.13603416085243225], [0.13965897262096405, 0.08564373105764389, 0.006687636952847242]], [[-0.06416593492031097, 0.08435194194316864, -0.14533555507659912], [-0.04167313873767853, 0.008415717631578445, -0.16229695081710815], [0.22372399270534515, -0.15361115336418152, -0.12150715291500092]]], [[[0.14467738568782806, -0.037083689123392105, 0.0954127162694931], [-0.17801585793495178, -0.049537066370248795, 0.03072318062186241], [-0.15714232623577118, -0.1348775178194046, 0.052009232342243195]], [[-0.02138064056634903, -0.0005813097232021391, -0.18405212461948395], [0.046272266656160355, -0.18453168869018555, 0.018329979851841927], [0.001982877729460597, 0.031232960522174835, 0.0355893112719059]], [[-0.043526019901037216, 0.061736803501844406, -0.036428578197956085], [0.03736729919910431, 0.036284755915403366, 0.00472215237095952], [0.011651428416371346, 0.2479032427072525, 0.17517077922821045]], [[-0.03137437254190445, 0.01739107072353363, 0.049615681171417236], [0.10992085933685303, -0.13613562285900116, -0.06721103191375732], [-0.06019185855984688, -0.031735941767692566, -0.15355205535888672]], [[0.010091494768857956, 0.030772771686315536, -0.18893030285835266], [0.2640760540962219, 0.10309972614049911, 0.20609831809997559], [-0.2062159776687622, -0.11794979125261307, 0.22082753479480743]], [[-0.017624134197831154, 0.2445324957370758, 0.008314753882586956], [0.055917445570230484, -0.062355346977710724, -0.375471830368042], [0.00666295550763607, -0.26681962609291077, 0.09513765573501587]], [[-0.022798778489232063, -0.30164211988449097, -0.06711601465940475], [0.18234817683696747, 0.06487852334976196, 0.07959753274917603], [-0.2787865698337555, 0.015322083607316017, 0.09609200805425644]], [[-0.0767076313495636, -0.10152067244052887, -0.06310908496379852], [-0.3132132291793823, -0.12737777829170227, 0.09449014067649841], [0.029092278331518173, 0.07873017340898514, 0.04795141518115997]], [[0.10394098609685898, 0.05187496170401573, -0.1300601065158844], [-0.13974922895431519, -0.11994830518960953, 0.0013790844241157174], [0.10285092890262604, -0.09395138174295425, 0.04268290847539902]], [[0.06632909178733826, 0.13244597613811493, -0.041767049580812454], [0.0820191353559494, 0.051555387675762177, 0.028260093182325363], [0.14500650763511658, 0.08896011859178543, 0.07068702578544617]], [[0.0005635371780954301, -0.09592422842979431, 0.058633700013160706], [-0.072153240442276, -0.27981510758399963, 0.030295398086309433], [-0.0717293992638588, -0.0063813356682658195, 0.024817021563649178]], [[0.0041041928343474865, 0.10289541631937027, -0.29462769627571106], [-0.04305865988135338, 0.17344941198825836, -0.1418314427137375], [-0.04586510732769966, 0.04460015892982483, -0.019265025854110718]]], [[[-0.03013886697590351, -0.20347371697425842, -0.2194635421037674], [-0.11064182221889496, -0.07014240324497223, -0.0950976088643074], [-0.1914019137620926, 0.0064346990548074245, 0.005569584667682648]], [[0.09949692338705063, 0.04214884713292122, -0.10876427590847015], [-0.021873489022254944, -0.13545528054237366, -0.00018278944480698556], [-0.21246503293514252, -0.021138012409210205, 0.08866573870182037]], [[-0.11821956187486649, -0.19641156494617462, -0.05773044377565384], [-0.006842695642262697, -0.030622689053416252, -0.04368823021650314], [0.10628422349691391, -0.03845610097050667, 0.15774671733379364]], [[-0.0709349736571312, -0.016176322475075722, 0.14044040441513062], [-0.04763815551996231, 0.027610065415501595, -0.030180620029568672], [0.12863366305828094, -0.12398084253072739, 0.04020516574382782]], [[0.050341904163360596, -0.344587117433548, -0.09733022004365921], [0.004867153242230415, -0.04823455587029457, 0.0063050310127437115], [-0.11461044102907181, 0.02618834376335144, -0.008838862180709839]], [[0.1657690852880478, -0.2891610264778137, 0.09726950526237488], [0.13799867033958435, -0.09663255512714386, -0.12688034772872925], [-0.12962166965007782, -0.06845930218696594, 0.1515072137117386]], [[0.18061025440692902, -0.04851647838950157, 0.07099828869104385], [0.07214702665805817, -0.39958709478378296, 0.024116123095154762], [-0.14249631762504578, -0.05710576847195625, -0.14004603028297424]], [[-0.009220458567142487, 0.3252009153366089, 0.15083995461463928], [0.0015714974142611027, 0.11782406270503998, 0.1552562266588211], [-0.0052163852378726006, 0.11939956992864609, -0.055076878517866135]], [[-0.09280680119991302, 0.024755559861660004, -0.044793181121349335], [-0.06271211057901382, -0.05084836855530739, -0.03730006515979767], [-0.14376892149448395, 0.11570428311824799, -0.09157834202051163]], [[-0.04694338142871857, 0.3528473675251007, -0.05132948234677315], [0.22862431406974792, -0.022343050688505173, -0.3341459035873413], [-0.022452926263213158, 0.1061740443110466, 0.045940250158309937]], [[0.15034322440624237, -0.032332420349121094, -0.08377878367900848], [0.06786318123340607, 0.01380185130983591, 0.09546495974063873], [-0.11133097857236862, -0.17946933209896088, -0.10840314626693726]], [[-0.014635463245213032, -0.12217380106449127, 0.15769413113594055], [-0.031453605741262436, -0.05434417724609375, 0.068337082862854], [0.16313669085502625, 0.05207066237926483, -0.2201785296201706]]], [[[0.13142544031143188, -0.06620411574840546, 0.0759112611413002], [-0.032076071947813034, -0.15200600028038025, 0.29932349920272827], [-0.014800758101046085, -0.019983192905783653, -0.11594520509243011]], [[-0.06839070469141006, -0.18638111650943756, -0.11349168419837952], [0.17750541865825653, 0.28920790553092957, -0.07359970360994339], [0.030816521495580673, -0.11613401025533676, -0.05176825821399689]], [[-0.04872870072722435, 0.38123807311058044, -0.21430478990077972], [0.14493536949157715, -0.16930361092090607, -0.07882925122976303], [0.008448953740298748, -0.008381498046219349, -0.0761050283908844]], [[-0.25417250394821167, -0.19372032582759857, -0.08049803227186203], [-0.20535044372081757, 0.015274589881300926, -0.12463841587305069], [0.037645913660526276, -0.027642570436000824, 0.020296184346079826]], [[0.11441095918416977, 0.17908990383148193, 0.09330276399850845], [-0.11881493777036667, 0.16873782873153687, -0.08778467029333115], [-0.042895350605249405, 0.16992048919200897, 0.1494525521993637]], [[0.1840183138847351, 0.16471436619758606, 0.07801660895347595], [0.17937715351581573, -0.05228697881102562, -0.1357860416173935], [0.1254420131444931, -0.3319768011569977, 0.025655869394540787]], [[0.03632590174674988, -0.15373148024082184, -0.15411481261253357], [0.0007818976882845163, 0.1021483764052391, 0.023835530504584312], [-0.11398215591907501, -0.16203179955482483, 0.22710369527339935]], [[-0.26207631826400757, -0.04515579715371132, 0.12701024115085602], [0.019822869449853897, 0.02982751466333866, 0.013154539279639721], [0.1631585657596588, 0.11151673644781113, -0.12999869883060455]], [[0.037271905690431595, 0.15705981850624084, -0.2172783464193344], [-0.07299735397100449, -0.10669537633657455, 0.03248046711087227], [-0.13945069909095764, -0.14828595519065857, -0.05731543153524399]], [[-0.04366403445601463, 0.09619428217411041, 0.05964846536517143], [0.07963711768388748, -0.1396920382976532, -0.052450429648160934], [-0.3654428720474243, -0.18777228891849518, -0.01397766638547182]], [[-0.22882626950740814, 0.30956149101257324, 0.1245407685637474], [0.04519818723201752, 0.038429275155067444, -0.261258989572525], [-0.21131397783756256, -0.11846796423196793, 0.04502581059932709]], [[-0.1530493199825287, -0.4294106066226959, 0.034704696387052536], [0.021972820162773132, 0.114133320748806, -0.02214374952018261], [-0.12297199666500092, 0.045692380517721176, -0.14580044150352478]]], [[[-0.11811664700508118, 0.13755089044570923, -0.03762071579694748], [-0.14100486040115356, 0.13770581781864166, 0.10198376327753067], [0.1629466712474823, -0.0616566501557827, 0.01001558918505907]], [[-0.3063957989215851, 0.04945559799671173, 0.02190186269581318], [-0.3670412600040436, 0.19723862409591675, -0.08610083907842636], [0.15858927369117737, -0.10488278418779373, -0.3735850751399994]], [[-0.23950663208961487, -0.04069170728325844, 0.02150939777493477], [0.08691462129354477, 0.04002847149968147, 0.28549811244010925], [-0.051728058606386185, -0.08682751655578613, 0.07015799731016159]], [[-0.036414045840501785, 0.021982640027999878, 0.13461124897003174], [0.019903894513845444, -0.02584540843963623, -0.2200961858034134], [-0.010668279603123665, 0.18554769456386566, 0.11049254983663559]], [[-0.11339616775512695, -0.13409045338630676, 0.03777524456381798], [0.2596343159675598, 0.019584206864237785, -0.04874148219823837], [0.10561387240886688, 0.029896661639213562, 0.06904293596744537]], [[0.13605059683322906, 0.02875267155468464, -0.21733781695365906], [-0.1756085753440857, -0.11284366995096207, 0.03054446168243885], [-0.2135961949825287, 0.2133995145559311, 0.02124304696917534]], [[-0.18114133179187775, -0.05858125910162926, -0.03286278247833252], [-0.14253775775432587, -0.0029528241138905287, -0.3856319785118103], [-0.01793634332716465, -0.061684634536504745, -0.043807756155729294]], [[-0.06638308614492416, 0.0065109157003462315, 0.0010544880060479045], [0.17437930405139923, -0.004695108160376549, 0.13711519539356232], [-0.08061875402927399, -0.14300474524497986, 0.03187144175171852]], [[0.1591339409351349, -0.014440113678574562, -0.012284060008823872], [-0.018843652680516243, 0.36055219173431396, -0.1626604199409485], [-0.08396321535110474, -0.07153128832578659, -0.14106205105781555]], [[0.09508764743804932, 0.14311206340789795, -0.20236046612262726], [0.03163231536746025, 0.16172188520431519, -0.0036680162884294987], [0.06444313377141953, -0.2354063242673874, 0.09749861806631088]], [[0.018715178593993187, 0.10522106289863586, 0.22515937685966492], [0.013981395401060581, 0.16284850239753723, -0.09025773406028748], [0.05493129789829254, 0.0352899469435215, 0.04025622829794884]], [[0.019723927602171898, 0.05444193258881569, -0.056401532143354416], [0.038872864097356796, 0.23097634315490723, 0.09583092480897903], [-0.21780256927013397, 0.02095959335565567, -0.13703599572181702]]], [[[0.05625353381037712, -0.056783828884363174, 0.09101361781358719], [-0.006410130765289068, -0.12637004256248474, 0.014778862707316875], [-0.010264378972351551, 0.010222544893622398, 0.029534904286265373]], [[0.08661767095327377, 0.19400042295455933, -0.15561659634113312], [0.17470800876617432, 0.035549525171518326, -0.15159805119037628], [-0.11154675483703613, 0.20527663826942444, -0.07868366688489914]], [[0.22080658376216888, 0.028409304097294807, 0.14828233420848846], [0.18816407024860382, -0.013758929446339607, -0.32633641362190247], [-0.04570873826742172, 0.12055069953203201, 0.17400629818439484]], [[-0.08835756033658981, 0.0962284579873085, -0.10326983034610748], [-0.2760652005672455, -0.10879413783550262, 0.01750032790005207], [0.006656130310148001, 0.046748723834753036, -0.12422847002744675]], [[-0.11666886508464813, -0.23011592030525208, 0.011775168590247631], [0.002678892109543085, 0.018373601138591766, -0.029566099867224693], [0.17524895071983337, -0.1539827287197113, -0.1328091323375702]], [[-0.061691563576459885, 0.07767947018146515, -0.061654865741729736], [0.08726593852043152, 0.08736666291952133, 0.12369605898857117], [0.19777947664260864, -0.12013091146945953, 0.05765756964683533]], [[-0.1976400911808014, -0.008235450834035873, -0.11246337741613388], [0.13187110424041748, 0.0021708232816308737, 0.0952969640493393], [0.3421708345413208, -0.0822518914937973, -0.2483607977628708]], [[0.07520847022533417, -0.07051040977239609, -0.07665251940488815], [0.11616051197052002, 0.06755457818508148, -0.22257886826992035], [-0.09048197418451309, 0.0029031613375991583, -0.2836088240146637]], [[0.08969929069280624, 0.09906463325023651, -0.03206561878323555], [-0.1622616946697235, 0.10223410278558731, 0.046953167766332626], [0.07173971831798553, 0.007374943234026432, -0.17717018723487854]], [[0.002653219737112522, 0.18037986755371094, 0.03803955763578415], [-0.06075486168265343, 0.2809167504310608, 0.049197904765605927], [-0.013047665357589722, 0.14072610437870026, -0.13877905905246735]], [[0.06602629274129868, -0.16424573957920074, 0.15310028195381165], [0.11237795650959015, -0.06593676656484604, 0.06068874150514603], [0.059891022741794586, -0.12461423873901367, 0.027527976781129837]], [[0.009742384776473045, -0.22111260890960693, 0.1736903041601181], [-0.35288652777671814, -0.1752251535654068, 0.08580350130796432], [0.01403363049030304, 0.291953980922699, -0.135196253657341]]], [[[0.09054736793041229, 0.14420874416828156, -0.07578658312559128], [0.08304436504840851, -0.14153602719306946, 0.05782836303114891], [-0.05260658636689186, -0.19502875208854675, -0.08207318931818008]], [[0.07384298741817474, -0.18575741350650787, -0.12223891168832779], [-0.05949754640460014, -0.01808522269129753, 0.10057073086500168], [-0.1086840033531189, 0.05204985290765762, 0.15509948134422302]], [[0.06223975494503975, 0.035584140568971634, -0.232182577252388], [-0.010421103797852993, 0.12115520983934402, 0.17722760140895844], [0.0781516507267952, -0.15969327092170715, 0.018626399338245392]], [[0.07015647739171982, 0.23316992819309235, 0.13965629041194916], [0.04249623045325279, 0.20049214363098145, -0.1215854063630104], [0.06624937802553177, 0.24268722534179688, -0.16555947065353394]], [[0.009404613636434078, -0.1409117430448532, -0.25215640664100647], [-0.02343369834125042, 0.16831907629966736, 0.11328787356615067], [-0.0069611649960279465, -0.03977683186531067, -0.08624860644340515]], [[0.0640164464712143, 0.08612176775932312, 0.3541409373283386], [-0.04764137044548988, 0.15838083624839783, -0.0073823449201881886], [0.23160813748836517, -0.2085270881652832, 0.10066160559654236]], [[0.08968612551689148, 0.096394844353199, 0.13722069561481476], [-0.22893042862415314, -0.1009972020983696, 0.0630900114774704], [0.28673699498176575, -0.016366885975003242, -0.14943158626556396]], [[-0.030146531760692596, 0.05953780189156532, -0.0575798861682415], [0.029694652184844017, -0.08830809593200684, 0.13042376935482025], [-0.022834978997707367, 0.06145631521940231, 0.20869797468185425]], [[-0.08195189386606216, 0.31725507974624634, 0.02275351993739605], [-0.04765509441494942, -0.014879508875310421, 0.12883172929286957], [0.10793214291334152, -0.05186690390110016, 0.22614391148090363]], [[-0.179611936211586, 0.14777538180351257, -0.14920929074287415], [-0.22916489839553833, -0.06155676394701004, 0.18250204622745514], [0.005390094593167305, -0.10936668515205383, 0.04837261512875557]], [[-0.1363828182220459, 0.09618715941905975, -0.125247523188591], [-0.11944127827882767, 0.0686655268073082, -0.0629655122756958], [0.02757481299340725, 0.03968898579478264, -0.08710232377052307]], [[0.00766759505495429, 0.04248597100377083, -0.05377231910824776], [0.185989648103714, -0.05325481668114662, 0.052217189222574234], [0.00016343951574526727, 0.10823503136634827, -0.03570543974637985]]], [[[0.03612400218844414, -0.0009845036547631025, -0.11013272404670715], [-0.044170744717121124, -0.15872296690940857, 0.051607340574264526], [-0.030399581417441368, 0.045088041573762894, 0.3250744044780731]], [[0.10811284184455872, 0.08909813314676285, 0.03602353110909462], [-0.04310609772801399, 0.17980244755744934, 0.057529471814632416], [-0.08618588745594025, -0.03066352754831314, 0.009611290879547596]], [[0.048938240855932236, -0.16624537110328674, 0.09743702411651611], [-0.00878620333969593, 0.03708450496196747, 0.2983163595199585], [0.04936040937900543, 0.0879116952419281, 0.15295596420764923]], [[-0.0580969899892807, 0.14077265560626984, -0.016104374080896378], [-0.05629603937268257, 0.039600010961294174, -0.13665176928043365], [0.057108428329229355, 0.1332595944404602, 0.15916986763477325]], [[0.10897627472877502, -0.04669030383229256, -0.020068958401679993], [-0.1682298481464386, -0.10977329313755035, 0.2292052060365677], [0.09313300251960754, -0.011387393809854984, 0.14928078651428223]], [[-0.17705866694450378, 0.19789795577526093, -0.24055998027324677], [0.07243267446756363, 0.10646354407072067, -0.3079264163970947], [0.22817488014698029, -0.18790297210216522, 0.11117634922266006]], [[0.008585774339735508, 0.03111075982451439, 0.01469510979950428], [0.2113853543996811, -0.1213826984167099, 0.10292890667915344], [0.33681559562683105, 0.07941097021102905, 0.33492812514305115]], [[-0.18599079549312592, -0.01456623524427414, -0.1311216652393341], [-0.05928758159279823, 0.032245706766843796, -0.20846280455589294], [-0.05633295327425003, -0.18105313181877136, -0.3338942229747772]], [[-0.06422332674264908, 0.023467950522899628, -0.0074004135094583035], [0.04024459421634674, 0.18568503856658936, 0.08199045807123184], [-0.16084852814674377, -0.3043840825557709, -0.07079750299453735]], [[0.1253552883863449, 0.047254178673028946, 0.11442374438047409], [-0.047293804585933685, -0.23884670436382294, 0.0676833763718605], [-0.055365778505802155, -0.0709277093410492, -0.055345214903354645]], [[-0.08373924344778061, -0.05665072426199913, -0.0951281189918518], [-0.10435675829648972, 0.1341247260570526, -0.10753007233142853], [-0.06314823031425476, -0.08324003964662552, -0.013738797046244144]], [[0.1300893872976303, -0.01594066061079502, 0.045914314687252045], [0.07429452240467072, -0.353781133890152, 0.07096990197896957], [0.15333011746406555, 0.04666036739945412, 0.11625483632087708]]], [[[-0.03760173171758652, -0.2585371434688568, 0.21333642303943634], [-0.012750380672514439, -0.10100089013576508, 0.1583394706249237], [0.08728112280368805, -0.07730862498283386, 0.046620987355709076]], [[0.14422455430030823, -0.03968555107712746, -0.0470258854329586], [0.055540889501571655, -0.15949033200740814, -0.27333226799964905], [0.16360405087471008, 0.16223782300949097, -0.09966643899679184]], [[0.2208607792854309, -0.06781525164842606, -0.2868306040763855], [0.031108304858207703, 0.10998941957950592, -0.00302401022054255], [-0.024300144985318184, 0.028569050133228302, 0.0647004023194313]], [[0.000490576378069818, 0.08334433287382126, 0.20396116375923157], [0.2670092284679413, -0.014042246155440807, -0.029910989105701447], [-0.00022118499327916652, -0.15242701768875122, -0.36101478338241577]], [[0.12126775085926056, -0.038681384176015854, -0.0783974826335907], [-0.1297636479139328, -0.09887269139289856, -0.09181135892868042], [0.07362773269414902, -0.04011363536119461, -0.17072899639606476]], [[0.0849650502204895, 0.06459153443574905, 0.2595474123954773], [-0.054552603513002396, -0.015198561362922192, 0.09456121921539307], [-0.027978669852018356, -0.17306995391845703, 0.23502930998802185]], [[0.19170351326465607, -0.1326063573360443, -0.040965884923934937], [0.2512645721435547, 0.26685836911201477, 0.010779386386275291], [0.12325596064329147, -0.22820062935352325, 0.11105803400278091]], [[0.0871039628982544, -0.1967601776123047, -0.08578678220510483], [-0.10483945161104202, -0.043955639004707336, -0.20081490278244019], [-0.021740397438406944, -0.2430628091096878, -0.1377967745065689]], [[-0.35650983452796936, -0.19458387792110443, 0.049183160066604614], [-0.20244278013706207, -0.19648972153663635, 0.08093991875648499], [0.12630213797092438, -0.00011597058619372547, -0.051338013261556625]], [[-0.012875936925411224, -0.20544636249542236, 0.09702147543430328], [0.05109250545501709, -0.07325025647878647, 0.07825625687837601], [0.05783938243985176, -0.24502113461494446, 0.13213174045085907]], [[0.05842764675617218, -0.14932319521903992, -0.06953778862953186], [-0.058064356446266174, -0.19180770218372345, 0.10746929794549942], [0.005685185547918081, -0.06974869221448898, -0.0649566799402237]], [[-0.017950410023331642, -0.027659980580210686, 0.009195167571306229], [-0.20409846305847168, -0.23849421739578247, -0.21677440404891968], [0.14417333900928497, -0.2236996293067932, 0.12446533143520355]]]], "conv1.bias": [-0.02835102193057537, -0.09130015969276428, 0.019096503034234047, 0.020969852805137634, 0.04222038388252258, 0.055449239909648895, 0.007034478709101677, 0.030188217759132385, 0.007178887724876404, 0.0007527284906245768, -0.017927076667547226, -0.00564250024035573, -0.02055472880601883, 0.02601194754242897, 0.011098349466919899, -0.029297539964318275], "conv2.weight": [[[[0.002707776380702853, 0.1402474343776703, -0.16225624084472656], [-0.09854987263679504, -0.10603736340999603, -0.06082098186016083], [-0.0027298980858176947, -0.055447857826948166, 0.0855797603726387]], [[-0.09756550192832947, -0.005187974311411381, 0.06424584984779358], [-0.004135229159146547, 0.15806472301483154, -0.30870383977890015], [-0.0707976296544075, -0.0035125853028148413, 0.23009419441223145]], [[0.02896755188703537, 0.12509475648403168, -0.1083853542804718], [0.23380380868911743, 0.12517306208610535, -0.09121890366077423], [-0.02906673401594162, 0.0982382744550705, 0.20059527456760406]], [[0.22644996643066406, -0.1070551723241806, -0.18960833549499512], [-0.05397220328450203, -0.046078260987997055, -0.14602035284042358], [0.1225675493478775, -0.08168774843215942, -0.0448891781270504]], [[0.27806681394577026, 0.03839203342795372, -0.03717971593141556], [0.005828063003718853, -0.051936935633420944, -0.10444571822881699], [-0.05116287246346474, 0.12216508388519287, -0.2191910296678543]], [[-0.05726427584886551, 0.1485927253961563, 0.016328347846865654], [0.01945195347070694, 0.049423642456531525, 0.0731406882405281], [0.03228060528635979, 0.029529448598623276, -0.13092519342899323]], [[-0.002666641026735306, 0.16241684556007385, -0.06321342289447784], [-0.04183872044086456, -0.13078264892101288, -0.16371582448482513], [-0.13073836266994476, -0.24242569506168365, 0.18556468188762665]], [[0.11719229817390442, 0.17861710488796234, 0.2240864485502243], [-0.07118897885084152, -0.07143764197826385, 0.09897798299789429], [-0.09480530768632889, 0.06999704241752625, -0.22634942829608917]], [[0.07613267004489899, 0.030628370121121407, 0.10475660115480423], [0.03645900636911392, -0.11086773872375488, -0.23524603247642517], [0.18672579526901245, 0.16856810450553894, -0.021650785580277443]], [[-0.0029434729367494583, 0.14865753054618835, 0.15133973956108093], [-0.008713769726455212, -0.0012279630172997713, -0.10771389305591583], [0.15157850086688995, -0.2851552665233612, -0.05343814194202423]], [[-0.08773167431354523, 0.10687727481126785, 0.13368801772594452], [0.1719915270805359, -0.045141953974962234, -0.16334736347198486], [-0.11173243075609207, -0.11731699109077454, -0.019239354878664017]], [[-0.12095285207033157, 0.09344837814569473, -0.023165108636021614], [0.08708331733942032, -0.023501813411712646, 0.005921388044953346], [-0.028908289968967438, 0.14813128113746643, -0.10899142920970917]], [[0.21384571492671967, -0.012053596787154675, -0.0944223627448082], [-0.013464837335050106, 0.196261927485466, -0.07360320538282394], [-0.1372102051973343, -0.09591424465179443, -0.04595356434583664]], [[-0.14480546116828918, -0.019448427483439445, -0.15260198712348938], [0.06617752462625504, -0.049569521099328995, -0.2242618352174759], [-0.032055098563432693, 0.07258380949497223, -0.13563282787799835]], [[-0.057528357952833176, 0.0010545487748458982, 0.14330098032951355], [-0.10981588065624237, -0.03763073310256004, -0.25326773524284363], [-0.04712024703621864, 0.10403142869472504, -0.010472326539456844]], [[-0.24867939949035645, 0.009631583467125893, -0.012913672253489494], [-0.27141401171684265, 0.0055356756784021854, 0.08436304330825806], [-0.007503467611968517, 0.06799538433551788, 0.04039742797613144]]], [[[0.1628028005361557, 0.18050159513950348, 0.024350130930542946], [0.003940558061003685, 0.03903254494071007, 0.17994992434978485], [0.11482509225606918, -0.011619963683187962, 0.12639227509498596]], [[-0.04439200833439827, -0.12279331684112549, -0.14150816202163696], [-0.22032836079597473, 0.19059038162231445, -0.2023414820432663], [0.10396929830312729, -0.0044884467497467995, 0.18745508790016174]], [[0.21718962490558624, -0.054135795682668686, 0.006982048507779837], [0.13011963665485382, -0.062279392033815384, -0.03511364385485649], [0.024750549346208572, 0.04680835083127022, 0.03192407637834549]], [[0.09765154868364334, 0.03325847536325455, 0.32837340235710144], [-0.06684371083974838, -0.12021015584468842, -0.04929662495851517], [-0.022888073697686195, 0.02483884058892727, -0.1676730066537857]], [[0.10024534910917282, 0.16400450468063354, 0.11508210003376007], [0.04078427702188492, -0.06301558762788773, -0.07937978208065033], [-0.29900383949279785, 0.15920494496822357, -0.023063041269779205]], [[0.03778501972556114, 0.035532526671886444, -0.10049337893724442], [0.06264432519674301, 0.2995806336402893, -0.1671086847782135], [-0.057865701615810394, -0.0449439100921154, 0.04330740496516228]], [[0.06935275346040726, 0.0769953578710556, -0.26852336525917053], [0.0622166246175766, -0.14745192229747772, -0.003851930145174265], [0.05422389134764671, -0.000624767504632473, -0.05928432568907738]], [[0.018048394471406937, 0.11739719659090042, 0.23106878995895386], [0.07316867262125015, -0.19428257644176483, 0.08434366434812546], [-0.037391141057014465, 0.011727014556527138, 0.26864442229270935]], [[0.2208167016506195, 0.021361155435442924, -0.06700349599123001], [0.10875959694385529, -0.018969278782606125, -0.07622548192739487], [0.08975724130868912, 0.1764778047800064, 0.18171510100364685]], [[-0.21319566667079926, -0.16020797193050385, -0.223128542304039], [0.19310703873634338, -0.15595774352550507, -0.030055182054638863], [0.04421905428171158, 0.07218743115663528, 0.06978239119052887]], [[0.03775917366147041, -0.04959898069500923, 0.11583748459815979], [-0.03745035454630852, 0.031800348311662674, -0.09740518033504486], [-0.08786462247371674, -0.02227129228413105, -0.08157262951135635]], [[-0.04877932369709015, -0.028696682304143906, -0.06438048928976059], [-0.0013866566587239504, -0.23829485476016998, -0.02912849932909012], [-0.01784643344581127, 0.0376543290913105, -0.016206704080104828]], [[0.004008993972092867, -0.14661310613155365, -0.14362165331840515], [-0.1818571388721466, -0.09907787293195724, 0.14199556410312653], [0.04232167452573776, -0.11155535280704498, 0.10896724462509155]], [[-0.2795451581478119, 0.007252614479511976, -0.07373645156621933], [-0.16282686591148376, 0.27013447880744934, 0.003259009215980768], [0.15962830185890198, -0.03195655718445778, 0.04918814077973366]], [[-0.02442356012761593, 0.09253688901662827, 0.0702679306268692], [-0.029685553163290024, 0.07107848674058914, -0.08298952877521515], [-0.0018870328785851598, -0.035360198467969894, -0.13672935962677002]], [[0.04445650801062584, 0.03167559579014778, 0.1646299958229065], [-0.03731226176023483, -0.17559994757175446, 0.07242988049983978], [-0.0595572404563427, 0.08916919678449631, 0.075412318110466]]], [[[0.05264131352305412, 0.1119624599814415, -0.03035053238272667], [-0.079613596200943, -0.10715479403734207, -0.006934229284524918], [-0.048279859125614166, 0.01497197151184082, -0.03641122952103615]], [[0.07619291543960571, 0.038228943943977356, 0.08021567761898041], [-0.0680549293756485, -0.10886116325855255, 0.0011178359854966402], [-0.022947417572140694, 0.021877169609069824, 0.10324671119451523]], [[0.02427820675075054, 0.08317411690950394, 0.020231172442436218], [0.15296709537506104, -0.01825367473065853, -0.06452779471874237], [0.003064928110688925, 0.030932845547795296, 0.12222053855657578]], [[-0.20606081187725067, 0.049871742725372314, 0.12473798543214798], [-0.05867580324411392, 0.04438450187444687, 0.09717445820569992], [0.1494138091802597, -0.0436672568321228, -0.18469610810279846]], [[-0.22074373066425323, -0.006451691035181284, -0.08041287958621979], [0.0457855761051178, 0.054926078766584396, -0.12198207527399063], [0.24632732570171356, 0.02795744128525257, -0.09711488336324692]], [[-0.003629425074905157, 0.033558521419763565, 0.018822569400072098], [0.16873151063919067, -0.10771951079368591, -0.04961659014225006], [-0.18511267006397247, 0.08495545387268066, 0.1577378511428833]], [[0.030712151899933815, 0.09442313015460968, 0.1991806924343109], [0.2703441381454468, 0.04123552143573761, -0.06572214514017105], [0.029105380177497864, 0.23240549862384796, -0.16576078534126282]], [[0.0434822253882885, -0.24891911447048187, 0.016373910009860992], [-0.030632613226771355, -0.010764123871922493, -0.19225989282131195], [0.056879352778196335, -0.0200765673071146, -0.02467145398259163]], [[0.04522965848445892, 0.14442776143550873, -0.0007669930928386748], [0.050555527210235596, -0.11009272933006287, -0.21677109599113464], [-0.011573572643101215, 0.08234698325395584, 0.24660207331180573]], [[-0.09197129309177399, -0.09684443473815918, -0.1451171338558197], [-0.0463876910507679, -0.09642748534679413, -0.11288662999868393], [0.061783384531736374, 0.07646442204713821, 0.09889398515224457]], [[-0.0019867282826453447, 0.05861300975084305, 0.08121311664581299], [0.03099280782043934, -0.23420771956443787, -0.02768230438232422], [-0.025458337739109993, -0.06597043573856354, 0.22887448966503143]], [[-0.10977019369602203, -0.07745712250471115, 0.0005360808572731912], [0.13163867592811584, -0.12224257737398148, 0.039266761392354965], [-0.016085797920823097, 0.1563369482755661, 0.24438196420669556]], [[-0.1393427848815918, -0.02018965221941471, -0.31454285979270935], [0.05398436635732651, -0.2759699821472168, 0.1328660249710083], [-0.16059038043022156, -0.14459417760372162, 0.13577674329280853]], [[-0.2892387807369232, -0.04868508130311966, -0.1354045569896698], [-0.005200768820941448, 0.1651868373155594, -0.21393665671348572], [0.049817316234111786, 0.021118154749274254, -0.030054597184062004]], [[-0.06959319859743118, 0.10758521407842636, 0.08705335855484009], [0.07640340179204941, 0.13889895379543304, -0.11180612444877625], [-0.22143025696277618, -0.030975567176938057, -0.007747325114905834]], [[0.027599472552537918, -0.00565929152071476, 0.04759436100721359], [0.08924082666635513, 0.041475072503089905, 0.11418226361274719], [-0.08845546841621399, -0.0743887722492218, -0.17890484631061554]]], [[[-0.054249782115221024, 0.007623845711350441, 0.03721694275736809], [-0.01797814853489399, 0.056279681622982025, 0.10726462304592133], [-0.0012037053238600492, -0.05563508719205856, -0.13413938879966736]], [[-0.1704612523317337, -0.0675210952758789, -0.1782158613204956], [-0.07802317291498184, -0.09109539538621902, 0.033554885536432266], [-0.10256119072437286, -0.16685593128204346, -0.14524750411510468]], [[-0.08584301918745041, -0.1492442786693573, 0.0967385470867157], [-0.008545692078769207, -0.10531003028154373, -0.008135553449392319], [-0.009907512925565243, -0.256143182516098, -0.04661484435200691]], [[0.04479735344648361, 0.056740567088127136, -0.0338929183781147], [-0.003651748178526759, 0.16079561412334442, -0.12057500332593918], [0.09502848237752914, 0.06645665317773819, 0.03598594665527344]], [[-0.050745438784360886, -0.1349986493587494, 0.06240304931998253], [-0.0928894653916359, -0.06308326870203018, -0.12918886542320251], [0.039574719965457916, 0.2535911500453949, 0.0030370191670954227]], [[0.06542288511991501, 0.12327928841114044, 0.10995175689458847], [0.02987673133611679, -0.005608675070106983, -0.033344801515340805], [0.17200398445129395, -0.06721705198287964, 0.04311046004295349]], [[-0.22000347077846527, -0.1272411197423935, -0.10294263809919357], [0.18683937191963196, -0.02103525772690773, -0.10643301904201508], [-0.10529810190200806, -0.12469177693128586, -0.08221795409917831]], [[0.044097092002630234, -0.04566806182265282, 0.11764270067214966], [0.16557489335536957, 0.03048686310648918, 0.07686136662960052], [-0.09293349087238312, 0.32362717390060425, -0.07425356656312943]], [[0.14133353531360626, 0.1206682026386261, -0.13688449561595917], [0.08126331120729446, -0.08615453541278839, -0.04508671164512634], [0.09711991995573044, -0.12530019879341125, -0.06473599374294281]], [[0.2885373830795288, 0.11622346937656403, -0.15188129246234894], [-0.044772397726774216, 0.01763882115483284, -0.05761365219950676], [0.08003086596727371, -0.21288369596004486, -0.07839739322662354]], [[-0.10214825719594955, -0.05156167969107628, -0.06651189178228378], [-0.06754663586616516, -0.07369910925626755, 0.09522813558578491], [-0.024554817005991936, -0.1306840032339096, 0.006274705287069082]], [[0.004787529353052378, 0.08120619505643845, -0.00130630808416754], [0.011763726361095905, 0.19904403388500214, 0.053960490971803665], [0.11318831890821457, 0.03468543291091919, -0.00776852248236537]], [[0.1415703296661377, -0.07323327660560608, -0.030053379014134407], [0.0453069731593132, 0.12418246269226074, -0.1516728699207306], [-0.05178319662809372, 0.13031001389026642, -0.1580701321363449]], [[-0.09715849906206131, 0.09151358902454376, -0.025811120867729187], [-0.01321375835686922, 0.05791356414556503, -0.17110233008861542], [0.27808573842048645, -0.04621361196041107, 0.07160494476556778]], [[-0.05819772556424141, 0.09012515842914581, -0.05539838597178459], [-0.03225678950548172, 0.21093957126140594, 0.2323170155286789], [-0.05649009719491005, -0.062402162700891495, 0.012125181965529919]], [[-0.09324560314416885, 0.05674184113740921, -0.17157596349716187], [0.09221848845481873, 0.04616973549127579, -0.03719209134578705], [0.13326705992221832, -0.26478278636932373, -0.09883372485637665]]], [[[-0.09092365205287933, -0.1860300600528717, 0.037729959934949875], [0.019853098317980766, 0.05206836760044098, -0.08158455789089203], [-0.057483334094285965, -0.18307557702064514, 0.059823643416166306]], [[0.10468312352895737, -0.12117217481136322, -0.08653950691223145], [-0.04525933787226677, -0.13477768003940582, 0.05901770293712616], [0.02149968035519123, -0.13152988255023956, 0.08191429078578949]], [[-0.13034561276435852, 0.0770699679851532, -0.19701547920703888], [-0.027498172596096992, -0.10949943214654922, -0.2875969111919403], [-0.26365146040916443, -0.0008422847022302449, 0.004975468385964632]], [[-0.02535289153456688, -0.011131638661026955, -0.1934373527765274], [-0.04186610132455826, -0.03670232743024826, -0.07313582301139832], [-0.17393550276756287, 0.07655416429042816, 0.06562565267086029]], [[0.07769666612148285, -0.11930224299430847, 0.11591237783432007], [-0.203419029712677, -0.07221917808055878, -0.055658008903265], [0.058728400617837906, -0.013541781343519688, -0.1346607506275177]], [[-0.11039537191390991, -0.20380015671253204, 0.11648190766572952], [-0.14028400182724, -0.10383952409029007, -0.05429574102163315], [-0.05399017035961151, 0.03786962479352951, 0.11479093134403229]], [[0.12106852233409882, 0.04026835784316063, -0.1091889962553978], [-0.14162848889827728, -0.027671460062265396, 0.2814503610134125], [0.07476861029863358, 0.020695535466074944, 0.18607273697853088]], [[0.0935264453291893, 0.09020884335041046, -0.3060123026371002], [0.1525271087884903, -0.01998426578938961, 0.2059849500656128], [-0.0293278805911541, 0.020688526332378387, 0.10213721543550491]], [[0.050945915281772614, 0.11876919120550156, -0.04229355230927467], [-0.0379079170525074, 0.03992455452680588, -0.02794879488646984], [-0.004764552228152752, -0.037536170333623886, 0.4377278685569763]], [[0.04656020179390907, -0.011543864384293556, -0.014487647451460361], [-0.29249516129493713, 0.1221109926700592, -0.07435400038957596], [-0.09647306054830551, -0.21752606332302094, 0.0444386750459671]], [[0.08605430275201797, 0.10173594206571579, -0.005300223361700773], [0.010981191881000996, -0.04623507708311081, -0.07167152315378189], [0.11927415430545807, 0.18133343756198883, 0.03977104276418686]], [[-0.10858293622732162, -0.14057417213916779, -0.03823551908135414], [0.036643460392951965, -0.16045919060707092, -0.017823640257120132], [0.17516517639160156, -0.0679730549454689, 0.033348094671964645]], [[0.011102420277893543, 0.034451063722372055, 0.07117591798305511], [-0.09512655436992645, -0.0005021971883252263, 0.03378291428089142], [-0.2677675783634186, -0.07264626771211624, -0.24432630836963654]], [[0.014795116148889065, 0.20856109261512756, -0.19538171589374542], [-0.21123884618282318, 0.18697363138198853, 0.004286095034331083], [0.028672998771071434, 0.07350335270166397, 0.0905177891254425]], [[-0.009853126481175423, 0.12024278938770294, -0.07035426795482635], [0.01224515400826931, -0.12297742068767548, -0.05524135008454323], [0.08811701834201813, 0.1358160376548767, 0.07188951224088669]], [[0.00967105571180582, 0.2049027532339096, 0.056494440883398056], [0.09076961129903793, -0.06087714433670044, -0.11876433342695236], [-0.10783389210700989, -0.26587921380996704, -0.17385908961296082]]], [[[0.11006830632686615, -0.12091685086488724, 0.1350836604833603], [0.15849913656711578, -0.06409434974193573, -0.17426197230815887], [-0.21672436594963074, 0.09155977517366409, 0.07290224730968475]], [[-0.037266068160533905, -0.044119942933321, -0.06304486840963364], [-0.0888519138097763, -0.006404940504580736, -0.014105144888162613], [-0.08022977411746979, 0.02588038705289364, -0.015633704140782356]], [[-0.09519469738006592, -0.030042022466659546, 0.04635139927268028], [0.04162435978651047, -0.10369101911783218, -0.09189757704734802], [-0.07039541751146317, -0.08880771696567535, -0.1619730442762375]], [[0.09122416377067566, -0.2510392367839813, 0.15983375906944275], [0.06861592084169388, 0.05178912356495857, -0.002998207462951541], [0.11382243782281876, 0.021258089691400528, 0.04689596965909004]], [[0.21602311730384827, -0.1122850701212883, -0.15001936256885529], [0.0619405172765255, -0.03826877102255821, 0.11241322010755539], [-0.10176005959510803, 0.00529024051502347, -0.21265646815299988]], [[-0.13859283924102783, 0.1017371416091919, -0.1180260181427002], [-0.08344236761331558, -0.0733310878276825, -0.18728269636631012], [0.0677909329533577, -0.007491374853998423, -0.019708139821887016]], [[0.08183147013187408, 0.05333588644862175, 0.022982681170105934], [-0.007755185477435589, 0.06395452469587326, 0.12057484686374664], [0.09480857849121094, -0.03693130984902382, -0.07929214835166931]], [[-0.09197171777486801, 0.01725715957581997, -0.1495416760444641], [0.08706537634134293, -0.18910937011241913, -0.2642820477485657], [0.2120935171842575, -0.13384559750556946, 0.08532310277223587]], [[-0.0048178802244365215, 0.1083165630698204, -0.19063439965248108], [-0.05525040253996849, 0.08284633606672287, -0.04733431339263916], [0.14985983073711395, 0.1832371950149536, -0.002086190041154623]], [[0.041196033358573914, 0.07124391198158264, 0.06745416671037674], [0.0938001200556755, 0.19622674584388733, 0.012289476580917835], [-0.07171624898910522, 0.029170120134949684, 0.04585737735033035]], [[0.030025728046894073, -0.04892415925860405, 0.1669016033411026], [0.022515734657645226, -0.18617485463619232, 0.0406351163983345], [0.24764710664749146, 0.1069289892911911, 0.04594957455992699]], [[0.08930239826440811, -0.22308258712291718, 0.12871518731117249], [-0.1902838498353958, -0.048414699733257294, -0.062148965895175934], [0.006566308438777924, 0.023461394011974335, -0.0013927745167165995]], [[0.03981398418545723, 0.07427294552326202, -0.08626639097929001], [-0.07257255911827087, -0.034850917756557465, -0.051555879414081573], [0.06349624693393707, -0.14097917079925537, -0.05692009627819061]], [[0.10171914845705032, -0.06208442151546478, 0.10809485614299774], [-0.09453239291906357, 0.1732943207025528, 0.09943322837352753], [0.04741520434617996, -0.007441349793225527, 0.02182985469698906]], [[-0.2488638013601303, 0.020627282559871674, 0.33360883593559265], [-0.019480956718325615, 0.32712551951408386, 0.01381914783269167], [-0.04994138330221176, -0.17744562029838562, -0.019743051379919052]], [[0.07213462889194489, -0.23005342483520508, -0.0018122148467227817], [0.13538986444473267, 0.02364998869597912, -0.07282378524541855], [-0.2714800536632538, -0.002312874421477318, 0.019175300374627113]]], [[[-0.04482275992631912, -0.2172611802816391, -0.20927439630031586], [-0.08985473960638046, -0.21291528642177582, -0.2092132270336151], [-0.13890591263771057, 0.012639005668461323, 0.02154095284640789]], [[0.02558388002216816, 0.07614604383707047, -0.08800804615020752], [0.1792188584804535, 0.05614098161458969, 0.03523469716310501], [-0.009724543429911137, 0.02075076662003994, -0.14203786849975586]], [[0.26258328557014465, -0.22279159724712372, -0.14175446331501007], [-0.157776340842247, 0.07528065145015717, -0.10513576120138168], [-0.20355822145938873, -0.05936726555228233, 0.0011366872349753976]], [[-0.01593421772122383, -0.060886893421411514, -0.040999773889780045], [0.01765546202659607, -0.08631029725074768, 0.15179343521595], [-0.07632844150066376, 0.18265686929225922, -0.006427713669836521]], [[0.0436861477792263, 0.11216519773006439, 0.03345142677426338], [-0.1318119466304779, 0.20909364521503448, 0.11554000526666641], [-0.10395380854606628, -0.03435025364160538, -0.03643130883574486]], [[-0.010022160597145557, 0.10267527401447296, -0.10396535694599152], [0.10208683460950851, -0.0652233213186264, -0.030348556116223335], [-0.185237854719162, 0.08685051649808884, -0.2667444050312042]], [[-0.13301703333854675, -0.014534683898091316, -0.00478237122297287], [-0.055786456912755966, 0.0573209747672081, 0.06411848962306976], [-0.13880540430545807, 0.12246448546648026, -0.11698820441961288]], [[0.05706638842821121, -0.16906455159187317, -0.08269595354795456], [0.132355734705925, 0.008278797380626202, -0.06464062631130219], [-0.1359342336654663, -0.015363325364887714, -0.09840332716703415]], [[-0.14428278803825378, 0.03856051340699196, -0.0034043460618704557], [-0.12370146065950394, -0.17416861653327942, 0.013273284770548344], [0.07699115574359894, 0.03149276599287987, -0.1422114074230194]], [[0.01984739676117897, -0.09482617676258087, 0.09771883487701416], [-0.18338581919670105, -0.0015929699875414371, -0.05254247039556503], [-0.011827204376459122, -0.09690072387456894, -0.0003935699351131916]], [[-0.06171249970793724, -0.09901726990938187, -0.022969581186771393], [0.28645673394203186, -0.05503670498728752, -0.06113748624920845], [-0.24863460659980774, -0.0063834646716713905, 0.22808115184307098]], [[-0.15995746850967407, -0.03356105834245682, -0.04045981913805008], [-0.07171867042779922, -0.14224296808242798, -0.15166035294532776], [0.043903324753046036, -0.18426664173603058, -0.2144099622964859]], [[-0.0029987432062625885, 0.0701821893453598, -0.07674302160739899], [0.07054857909679413, 0.1670900285243988, -0.04094656556844711], [-0.020191777497529984, -0.020331451669335365, -0.03836311027407646]], [[-0.11145266890525818, -0.022328540682792664, -0.06986795365810394], [-0.1693454533815384, -0.03865322098135948, -0.016831137239933014], [-0.22111590206623077, 0.19782109558582306, 0.13185171782970428]], [[-0.13832490146160126, 0.06887801736593246, 0.25818103551864624], [-0.07116902619600296, -0.09814378619194031, 0.11248654872179031], [-0.1420377939939499, 0.060692284256219864, 0.08455225825309753]], [[-0.05481307953596115, -0.1484605222940445, -0.22460322082042694], [-0.058195725083351135, 0.01648859865963459, 0.06726562231779099], [-0.12430625408887863, 0.2158186137676239, -0.2677886486053467]]], [[[-0.1835157871246338, 0.06211172044277191, -0.03842388466000557], [-0.11981517821550369, 0.053524333983659744, -0.09838476777076721], [0.036340486258268356, -0.08412305265665054, 0.03254323452711105]], [[-0.012860883958637714, 0.10271234810352325, -0.09423615038394928], [0.07033618539571762, -0.11774282157421112, 0.21870547533035278], [0.03804251179099083, -0.044256485998630524, -0.21685324609279633]], [[0.10388237237930298, -0.10623671859502792, -0.1435377299785614], [-0.21616527438163757, -0.01664234697818756, 0.085700623691082], [-0.10631253570318222, -0.15670935809612274, 0.13962939381599426]], [[0.03202221170067787, -0.06930843740701675, 0.07634487003087997], [0.0666317269206047, 0.05479826778173447, 0.11917899549007416], [-0.04371744766831398, -0.06627967208623886, 0.03693264350295067]], [[0.005418331827968359, 0.18181975185871124, -0.1934226006269455], [-0.06680510193109512, 0.013466945849359035, 0.010313032194972038], [0.24069912731647491, -0.06375600397586823, 0.06009048968553543]], [[0.014026044867932796, 0.23014429211616516, -0.05919414013624191], [-0.10844506323337555, 0.14968964457511902, 0.02828175574541092], [0.0076273540034890175, -0.0720238983631134, 0.09711634367704391]], [[-0.038435012102127075, 0.058701224625110626, 0.06388575583696365], [-0.07958102226257324, -0.045960988849401474, -0.1339692920446396], [0.08498472720384598, -0.1926742047071457, 0.10692920535802841]], [[0.08308316767215729, -0.1873382329940796, 0.005918119568377733], [-0.10223837196826935, -0.0662580281496048, -0.11032918840646744], [-0.09308557957410812, -0.0023451303131878376, -0.14607509970664978]], [[0.03940195217728615, 0.09533683210611343, -0.04759407788515091], [0.032278165221214294, 0.11699368059635162, -0.002825851086527109], [-0.004595888312906027, -0.09428420662879944, -0.03540423884987831]], [[-0.004954971373081207, 0.11785697937011719, 0.21461498737335205], [0.16689057648181915, -0.016877876594662666, -0.05467817932367325], [-0.028394296765327454, 0.17268140614032745, -0.11181791871786118]], [[-0.14859886467456818, -0.11291107535362244, -0.1297631710767746], [-0.11417713761329651, 0.03572949022054672, 0.18551315367221832], [-0.008743089623749256, -0.13544760644435883, -0.08636810630559921]], [[0.10879509896039963, 0.19761350750923157, -0.06058807671070099], [-0.1782895028591156, -0.1828581690788269, -0.09717803448438644], [-0.04222742095589638, -0.29037633538246155, 0.10198436677455902]], [[-0.10660866647958755, -0.08891961723566055, -0.1222713440656662], [-0.07946550101041794, 0.050559233874082565, -0.09871162474155426], [0.0653148964047432, 0.07329137623310089, -0.05081256106495857]], [[-0.16265951097011566, 0.08254654705524445, -0.15809834003448486], [-0.3669789135456085, 0.1499195396900177, -0.33344170451164246], [0.13541218638420105, -0.13670893013477325, 0.05375136435031891]], [[-0.1254323571920395, -0.21725501120090485, -0.02974317967891693], [-0.04719824716448784, 0.06220557540655136, -0.08782027661800385], [0.02118125557899475, 0.10131239891052246, -0.14906425774097443]], [[-0.04513382166624069, -0.045437928289175034, -0.1266009658575058], [0.045983899384737015, 0.10954172909259796, -0.012161601334810257], [-0.02491449937224388, -0.0905764102935791, 0.015859367325901985]]], [[[-0.1387663185596466, -0.02307349257171154, -0.004778494127094746], [0.1684739589691162, -0.004836688749492168, -0.04454577714204788], [0.0516948439180851, 0.030519520863890648, -0.08541574329137802]], [[0.11748281866312027, -0.1788945198059082, -0.05274322256445885], [-0.1408984661102295, -0.12055487930774689, -0.1306241750717163], [-0.19228242337703705, -0.0021022423170506954, -0.05976462364196777]], [[-0.06625084578990936, 0.14102452993392944, 0.07324358820915222], [0.074818916618824, 0.0702681913971901, -0.14726603031158447], [0.0013193930499255657, -0.06279034912586212, 0.07426032423973083]], [[0.05470189452171326, 0.0524362213909626, 0.06589139997959137], [-0.043795425444841385, -0.03948327898979187, 0.1255502700805664], [-0.01370619423687458, -0.13307404518127441, -0.0811285674571991]], [[-0.036562081426382065, -0.15722544491291046, -0.1084197536110878], [0.07416636496782303, 0.15525907278060913, 0.13173778355121613], [0.03579634428024292, -0.08464221656322479, 0.20234858989715576]], [[0.010387368500232697, 0.12319154292345047, 0.009617173112928867], [0.07996875792741776, 0.029883846640586853, -0.09816913306713104], [-0.22188962996006012, 0.09131737053394318, -0.23349033296108246]], [[-0.11164037138223648, -0.06435388326644897, -0.11947528272867203], [0.01451602391898632, 0.07631952315568924, -0.10064194351434708], [0.03065103106200695, 0.014194758608937263, 0.11969847232103348]], [[0.1068369522690773, 0.027475818991661072, -0.07053834199905396], [0.1902128905057907, -0.07335905730724335, 0.1462264358997345], [-0.08190186321735382, -0.08823540806770325, -0.10948590934276581]], [[0.0725235790014267, -0.04441538453102112, 0.1412278562784195], [-0.07626842707395554, -0.025148184970021248, -0.07554499059915543], [-0.14791609346866608, -0.1346590369939804, 0.07301214337348938]], [[-0.1168697327375412, 0.05117368325591087, 0.11894891411066055], [0.1134539544582367, -0.0390930101275444, -0.07281859964132309], [-0.0058044372126460075, 0.06880278140306473, -0.07674894481897354]], [[-0.05815098062157631, -0.10836950689554214, 0.04965817928314209], [-0.12918835878372192, -0.03602052107453346, 0.06270016729831696], [0.18986134231090546, 0.04868070408701897, -0.05775514617562294]], [[-0.022029029205441475, 0.048590026795864105, -0.1700419932603836], [0.0911843553185463, -0.14633041620254517, 0.07160863280296326], [0.10918888449668884, 0.12933635711669922, -0.0009269493166357279]], [[-0.01017789263278246, 0.1474895477294922, -0.07468058168888092], [0.04693036153912544, 0.036676887422800064, 0.01038870308548212], [0.133411705493927, -0.04513699188828468, -0.09821060299873352]], [[0.007442847825586796, 0.026632195338606834, 0.00393019150942564], [-0.07128334045410156, -0.04097908362746239, 0.043007008731365204], [-0.180898055434227, -0.20233939588069916, -0.05038411170244217]], [[0.08821339905261993, -0.1099129468202591, -0.19294732809066772], [0.0734456479549408, -0.1347559243440628, -0.0564793199300766], [-0.33711546659469604, 0.016360120847821236, -0.015120548196136951]], [[0.05734528228640556, -0.1926652491092682, -0.30197593569755554], [0.20541319251060486, 0.1884581595659256, 0.143541619181633], [-0.2190442681312561, -0.01727394200861454, -0.10460997372865677]]], [[[0.13960732519626617, -0.05973046272993088, -0.0804688036441803], [0.34618261456489563, 0.06575357913970947, 0.10241635888814926], [-0.07726777344942093, 0.021628839895129204, -0.052165497094392776]], [[0.03799803555011749, 0.011392286978662014, -0.0019248620374128222], [-0.05723606050014496, -0.20260977745056152, 0.057014573365449905], [-0.08625669777393341, -0.06419209390878677, 0.04533419758081436]], [[-0.1284218728542328, 0.3575473427772522, 0.06726900488138199], [-0.09327687323093414, -0.16225838661193848, -0.1356511116027832], [0.05961889773607254, -0.05345510318875313, -0.005736211780458689]], [[-0.060935452580451965, 0.15645693242549896, 0.06616388261318207], [-0.001425056834705174, 0.02874533087015152, 0.1390179544687271], [0.03406950831413269, 0.13794459402561188, 0.23202458024024963]], [[0.11017868667840958, 0.04913545027375221, 0.029799634590744972], [0.14349967241287231, 0.12874643504619598, 0.23134808242321014], [-0.16887255012989044, -0.14028489589691162, -0.2785792350769043]], [[-0.5184963345527649, -0.04679456725716591, -0.0640740618109703], [-0.09959721565246582, -0.04880925640463829, 0.20543086528778076], [0.013106167316436768, -0.04227190464735031, -0.10816090553998947]], [[1.3984681572765112e-06, -0.020946400240063667, -0.021233443170785904], [0.053216781467199326, -0.08569364249706268, -0.13758733868598938], [0.06804856657981873, -0.15277886390686035, -0.03829210624098778]], [[-0.016033891588449478, 0.29184722900390625, -0.15738369524478912], [-0.03203140199184418, 0.02267434634268284, 0.1253204345703125], [0.0031699954997748137, -0.137370303273201, 0.04065472260117531]], [[-0.00018929984071291983, 0.0015534103149548173, -0.07249549776315689], [-0.018010083585977554, 0.05228428170084953, 0.004746150225400925], [-0.15985684096813202, 0.08216430246829987, 0.060279667377471924]], [[0.15316353738307953, -0.06311095505952835, 0.09688615798950195], [-0.0373305082321167, 0.04110908880829811, 0.1964486986398697], [0.07157725095748901, -0.030442100018262863, 0.007881741039454937]], [[0.15962712466716766, 0.050825007259845734, 0.1479824334383011], [0.48382696509361267, 0.2152949720621109, -0.07828358560800552], [-0.08426791429519653, -0.08589806407690048, -0.008744481019675732]], [[0.029413940384984016, 0.1939612627029419, -0.24649791419506073], [0.028221014887094498, 0.10236834734678268, -0.0028454610146582127], [-0.07377675175666809, -0.2080950289964676, 0.14950653910636902]], [[0.1756969839334488, -0.05695844814181328, -0.10626454651355743], [0.061546847224235535, -0.002955583855509758, 0.1530350148677826], [-0.003478318452835083, -0.15406471490859985, 0.06470217555761337]], [[-0.16335837543010712, 0.038589417934417725, 0.13289213180541992], [0.0040924339555203915, 0.13886168599128723, -0.04552605748176575], [0.013920260593295097, -0.13174359500408173, 0.01133272610604763]], [[0.06083935871720314, -0.04126165062189102, -0.03072294220328331], [-0.0799575075507164, 0.017221003770828247, 0.0035627642646431923], [-0.2803063988685608, -0.028804320842027664, 0.09884970635175705]], [[-0.1324661523103714, 0.023572580888867378, -0.07205244898796082], [-0.017271896824240685, 0.025945603847503662, -0.03991346061229706], [-0.06233224272727966, 0.0018761145183816552, -0.09854260832071304]]], [[[0.008290046826004982, -0.2085893452167511, 0.05041641741991043], [-0.026050865650177002, 0.01915493980050087, 0.21845199167728424], [0.3234933614730835, 0.18474705517292023, -0.03049292415380478]], [[0.0073787556029856205, 0.08174826949834824, -0.045518118888139725], [0.056238990277051926, 0.047315385192632675, 0.08061426132917404], [0.1913977861404419, -0.046471621841192245, 0.07675791531801224]], [[0.19082523882389069, -0.1366761475801468, -0.07319702208042145], [0.0655859038233757, -0.1888362169265747, -0.1335049718618393], [0.08575232326984406, 0.0031136595644056797, 0.020841985940933228]], [[-0.08258727937936783, 0.04791179671883583, -0.2268475890159607], [-0.013684740290045738, 0.24653072655200958, 0.02243872731924057], [0.031454332172870636, -0.13001254200935364, 0.0776854157447815]], [[0.13537292182445526, 0.171894371509552, -0.16204051673412323], [-0.0898493230342865, -0.07798555493354797, 0.09678736329078674], [0.07503271847963333, 0.06371541321277618, 0.012364930473268032]], [[-0.15862786769866943, 0.09272687882184982, -0.034160055220127106], [-0.1135893240571022, -0.20663975179195404, -0.06747841835021973], [-0.054131925106048584, -0.097657710313797, -0.08775554597377777]], [[-0.17506708204746246, 0.07149069011211395, -0.17229902744293213], [0.268325537443161, -0.05906222015619278, -0.21121753752231598], [-0.07521162182092667, -0.1837611049413681, -0.1557585597038269]], [[-0.1483304351568222, 0.021063806489109993, 0.12364828586578369], [0.05356910824775696, 0.04836036264896393, 0.03560718148946762], [0.0762212872505188, 0.1187901496887207, 0.05415140837430954]], [[-0.173653244972229, 0.0341397188603878, 0.019253304228186607], [0.0549602173268795, 0.16607552766799927, -0.05741127207875252], [-0.10482050478458405, -0.047904595732688904, 0.041101641952991486]], [[0.09901705384254456, 0.055437494069337845, -0.07810802757740021], [0.1245613545179367, 0.04904836788773537, 0.021191243082284927], [0.03706499561667442, -0.055159103125333786, 0.0832134485244751]], [[0.0748329907655716, 0.09035227447748184, -0.029430944472551346], [-0.15499305725097656, 0.059381112456321716, 0.2659345865249634], [-0.0760665237903595, 0.1108933836221695, 0.0768771544098854]], [[-0.14484131336212158, 0.048319097608327866, -0.20908468961715698], [-0.07722412049770355, 0.1859877109527588, -0.017291080206632614], [0.018628092482686043, 0.18130630254745483, -0.11569388955831528]], [[0.04612986370921135, 0.11580650508403778, 0.13961036503314972], [-0.26101911067962646, -0.2677386999130249, 0.06498746573925018], [0.0036884029395878315, 0.010820766910910606, 0.18449755012989044]], [[-0.04308711737394333, 0.04109836369752884, 0.03295338526368141], [-0.07309457659721375, -0.032609064131975174, -0.11737062782049179], [-0.0008274138672277331, -0.08969028294086456, -0.24795597791671753]], [[0.03495587781071663, 0.012197570875287056, 0.04267880693078041], [-0.050972096621990204, 0.22215896844863892, -0.015364623628556728], [0.06352309882640839, 0.05381661280989647, 0.045010119676589966]], [[0.09679920226335526, 0.2649853825569153, 0.11262369900941849], [-0.14413726329803467, -0.011468258686363697, 0.22494499385356903], [-0.1372028887271881, -0.15062257647514343, 0.1837480068206787]]], [[[-0.11061074584722519, 0.16338098049163818, -0.0027007334865629673], [0.07810826599597931, -0.2926419973373413, 0.31085601449012756], [0.032864633947610855, 0.1481574922800064, 0.0615311935544014]], [[-0.23940029740333557, 0.014384143054485321, 0.06458737701177597], [0.16000016033649445, 0.04005162790417671, -0.012687982991337776], [0.15979397296905518, -0.158170685172081, 0.011244530789554119]], [[-0.06034504622220993, -0.12576521933078766, -0.0014387582195922732], [-0.039657775312662125, -0.09215210378170013, -0.1116279661655426], [0.010403061285614967, -0.2091466784477234, -0.07271796464920044]], [[0.12876103818416595, -0.1194789931178093, 0.059497661888599396], [-0.15423811972141266, 0.05999956279993057, -0.01574227400124073], [0.1245989128947258, -0.2823528051376343, 0.10908762365579605]], [[-0.07522943615913391, 0.09576725214719772, 0.06613922864198685], [0.09698403626680374, 0.061171602457761765, 0.04223988950252533], [0.05367257073521614, 0.09082141518592834, 0.24336916208267212]], [[-0.020745370537042618, -0.010082997381687164, -0.1475183218717575], [-0.012451079674065113, -0.03829270601272583, -0.16458795964717865], [-0.10041248053312302, -0.0854349210858345, 0.04599594697356224]], [[0.03953472524881363, -0.16425052285194397, -0.05691235885024071], [-0.054508209228515625, 0.04243186116218567, 0.04394182562828064], [-0.011673864908516407, 0.12874014675617218, -0.04974372684955597]], [[0.029814841225743294, 0.01994837448000908, 0.08581900596618652], [-0.06313354521989822, -0.00975262001156807, -0.12835471332073212], [-0.06469739228487015, -0.02627292461693287, -0.030277371406555176]], [[-0.16618402302265167, 0.17047768831253052, 0.04794654622673988], [-0.14087465405464172, 0.10482071340084076, 0.024833954870700836], [-0.03815975785255432, -0.11890418082475662, 0.05711503326892853]], [[-0.008696001954376698, -0.17993199825286865, 0.14370551705360413], [0.1105775460600853, 0.01963815465569496, 0.07209516316652298], [0.13679857552051544, -0.12926849722862244, 0.18170104920864105]], [[-0.08924172073602676, -0.02648128941655159, -0.09109023213386536], [-0.12127359956502914, 0.17261700332164764, 0.0987224206328392], [0.026227489113807678, 0.031081024557352066, 0.14605307579040527]], [[0.14957334101200104, -0.08062653988599777, 0.07571420073509216], [-0.06098620966076851, -0.18354754149913788, 0.08218839764595032], [0.10975959897041321, 0.08854694664478302, -0.06315965950489044]], [[0.14275431632995605, -0.06017042323946953, -0.006220810580998659], [0.16908569633960724, -0.17514757812023163, 0.062095046043395996], [0.04134594276547432, -0.18244579434394836, -0.05657580494880676]], [[-0.07856184244155884, 0.07340005785226822, 0.008341653272509575], [-0.06503748893737793, -0.063052237033844, -0.2414543330669403], [0.0833335816860199, -0.05240792781114578, 0.08677351474761963]], [[0.19528460502624512, -0.0010034111328423023, 0.09134943783283234], [0.17670033872127533, -0.03279842436313629, 0.02737782523036003], [-0.18661363422870636, 0.2822670042514801, 0.12296070158481598]], [[-0.10633189976215363, -0.13295026123523712, 0.11314509063959122], [0.008741720579564571, 0.27211901545524597, 0.06077200174331665], [0.09339632093906403, 0.08640483766794205, -0.020827600732445717]]], [[[0.10743894428014755, 0.05488039180636406, 0.09044943004846573], [0.03156052902340889, 0.10503821074962616, 0.05629630386829376], [0.006844125222414732, -0.004789003171026707, 0.002504137810319662]], [[-0.1008252501487732, -0.04843112453818321, 0.02862902171909809], [-0.008185308426618576, 0.17312656342983246, -0.1156730130314827], [-0.09077794849872589, -0.01894780993461609, -0.243281751871109]], [[-0.20022395253181458, -0.06882522255182266, 0.09362266212701797], [-0.02169523946940899, 0.10720779001712799, -0.03671605512499809], [0.1813812106847763, 0.06692712754011154, -0.17171454429626465]], [[-0.1348857581615448, 0.14576271176338196, -0.05285685509443283], [-0.035369060933589935, 0.0438816174864769, 0.029600875452160835], [0.09585673362016678, 0.07600965350866318, -0.1092141643166542]], [[-0.12455787509679794, 0.11531271040439606, -0.1366613507270813], [0.02947976626455784, 0.20029260218143463, 0.14937931299209595], [-0.169527068734169, -0.10512004792690277, -0.03498352691531181]], [[0.15768617391586304, 0.04699907824397087, -0.049520570784807205], [0.014429112896323204, -0.023609628900885582, -0.03309224545955658], [-0.18142308294773102, -0.050622835755348206, 0.10343216359615326]], [[-0.10020841658115387, 0.04370850697159767, -0.04133068397641182], [-0.06410474330186844, -0.010502790100872517, -0.37916409969329834], [-0.12704508006572723, -0.051454778760671616, 0.010877602733671665]], [[0.10658768564462662, -0.0328136645257473, -0.11596900969743729], [-0.09661025553941727, 0.10065731406211853, -0.06845049560070038], [0.0306519977748394, 0.25336796045303345, -0.24689209461212158]], [[0.04401114955544472, -0.07712581008672714, 0.11181876808404922], [-0.05968751758337021, 0.03776736930012703, 0.005735372193157673], [-0.0753108412027359, 0.05453353747725487, -0.13466301560401917]], [[0.14432662725448608, -0.01891363225877285, -0.012627354823052883], [0.021290132775902748, -0.1115906611084938, 0.1304623782634735], [0.13940683007240295, 0.08662739396095276, -0.08699477463960648]], [[-0.11975320428609848, -0.07723620533943176, 0.05832614377140999], [-0.17809376120567322, -0.024959005415439606, 0.018544184044003487], [-0.1590280681848526, 0.14900213479995728, 0.13091036677360535]], [[-0.03793896362185478, 0.11057738214731216, -0.17708919942378998], [0.005078142508864403, -0.07397117465734482, -0.07062093913555145], [-0.10168296843767166, 0.09790943562984467, 0.018263105303049088]], [[0.05346890166401863, -0.09140845388174057, 0.11307654529809952], [0.09894832968711853, -0.05090905725955963, 0.289144366979599], [0.0019059707410633564, 0.11765649914741516, 0.06375733762979507]], [[-0.0330294594168663, -0.29400473833084106, 0.004352634306997061], [-0.01788361370563507, 0.13310858607292175, -0.16034603118896484], [0.02555016428232193, 0.05116219446063042, 0.06663666665554047]], [[-0.0745907798409462, 0.1395169049501419, -0.07270105183124542], [-0.026750311255455017, -0.20103353261947632, 0.066541388630867], [-0.1556064784526825, -0.13095806539058685, 0.06372253596782684]], [[-0.22818805277347565, -0.1942078024148941, -0.11674627661705017], [0.27974733710289, 0.01158236712217331, 0.0373670756816864], [0.046620432287454605, -0.012236757203936577, 0.05451153963804245]]], [[[-0.02590402215719223, 0.08428101241588593, -0.04522034153342247], [0.09097845107316971, -0.12329932302236557, -0.20050372183322906], [-0.029242150485515594, 0.013994494453072548, -0.0924476832151413]], [[-0.020243413746356964, -0.07631319016218185, 0.15184661746025085], [-0.21969564259052277, -0.10925587266683578, -0.05436219647526741], [0.011268927715718746, 0.025116590782999992, 0.023336978629231453]], [[0.023359090089797974, -0.11960902810096741, 0.03914416581392288], [-0.04528122767806053, 0.2778792679309845, -0.0641176626086235], [0.13948722183704376, 0.036660902202129364, 0.02055615372955799]], [[0.20289844274520874, 0.1543164700269699, 0.22045359015464783], [0.17671041190624237, 0.047175705432891846, -0.04337099939584732], [-0.1380791962146759, -0.094907745718956, -0.013660022057592869]], [[-0.07022878527641296, -0.03201489523053169, -0.007608577609062195], [-0.0926433652639389, 0.23092269897460938, 0.07674816250801086], [-0.0521320179104805, -0.2914219796657562, -0.13548544049263]], [[-0.11757997423410416, -0.23702813684940338, 0.18648527562618256], [-0.20746445655822754, -0.09638196229934692, -0.057226721197366714], [-0.04077686741948128, 0.027676187455654144, -0.020419077947735786]], [[-0.1315525472164154, 0.13560344278812408, 0.009404701180756092], [0.11957164108753204, 0.05582307651638985, -0.12093249708414078], [-0.04445645958185196, -0.12486964464187622, 0.01966220512986183]], [[0.24424734711647034, -0.02971012331545353, -0.08525831252336502], [-0.15518753230571747, 0.15186293423175812, -0.16215939819812775], [-0.02823210507631302, -0.15555578470230103, 0.11755821108818054]], [[0.03213763236999512, -0.3167443573474884, -0.28475421667099], [0.05613001063466072, -0.06698600947856903, -0.09549769759178162], [0.16257481276988983, -0.17067623138427734, 0.032246533781290054]], [[0.2096395343542099, 0.18480417132377625, -0.13777075707912445], [-0.04777100309729576, -0.1277581751346588, 0.16937825083732605], [0.018878979608416557, 0.0775441825389862, 0.30522096157073975]], [[0.0010803270852193236, 0.2885798215866089, 0.24797223508358002], [-0.0038972562178969383, -0.1347750574350357, -0.09576466679573059], [0.17405539751052856, -0.0570179745554924, 0.0711289569735527]], [[0.1256033480167389, 0.17197653651237488, -0.15107333660125732], [-0.13239608705043793, 0.01344437524676323, 0.07317760586738586], [-0.3116168975830078, 0.11096365749835968, -0.10383743047714233]], [[-0.035732757300138474, 0.07797186076641083, -0.1916808933019638], [-0.010859417729079723, -0.015156310051679611, 0.381769061088562], [-0.011511409655213356, -0.04708004370331764, 0.02222266048192978]], [[0.0944969430565834, 0.15247854590415955, -0.11407496780157089], [-0.06672520935535431, 0.043170154094696045, 0.06302672624588013], [0.024177994579076767, -0.1738135665655136, -0.18461158871650696]], [[-0.1817518174648285, -0.1343325674533844, 0.09052648395299911], [0.13232363760471344, 0.1308976411819458, -0.026205342262983322], [0.056290462613105774, 0.08958787471055984, 0.05762282386422157]], [[0.17775647342205048, 0.013484538532793522, 0.036836422979831696], [-0.057436615228652954, 0.0020194712560623884, 0.2332771122455597], [0.14801858365535736, 0.0015678658382967114, -0.3037487268447876]]], [[[-0.25188130140304565, 0.008600796572864056, -0.06555960327386856], [0.12111390382051468, 0.12978842854499817, -0.1154298484325409], [0.04572955518960953, 0.20174777507781982, -0.05705216899514198]], [[0.16934730112552643, -0.10362763702869415, 0.07191844284534454], [-0.15575648844242096, -0.028114555403590202, -0.05012761801481247], [0.059540245682001114, -0.24590101838111877, -0.047094784677028656]], [[-0.13006483018398285, -0.08440712094306946, 0.02529929205775261], [0.011678310111165047, -0.08744122087955475, -0.07922463864088058], [0.16595706343650818, 0.025624964386224747, 0.004560227971524]], [[-0.19128923118114471, -0.2374412715435028, 0.06448753923177719], [0.09378015995025635, -0.2588804364204407, 0.04129709675908089], [0.009152870625257492, 0.16135981678962708, -0.027778267860412598]], [[0.17328518629074097, 0.09834536910057068, -0.05057179927825928], [0.19006454944610596, 0.014361456967890263, -0.21695776283740997], [0.1302102953195572, -0.01728959009051323, 0.20916910469532013]], [[-0.12165458500385284, 0.012773258611559868, -0.10632868856191635], [-0.08836758881807327, -0.0023550051264464855, 0.07627105712890625], [0.1022658422589302, -0.005408872850239277, 0.015498809516429901]], [[-0.03536808863282204, -0.011886280961334705, 0.13528457283973694], [0.09889168292284012, -0.13291163742542267, -0.2433379739522934], [0.2771821618080139, 0.13938963413238525, -0.06619112938642502]], [[0.1010771095752716, 0.02445635385811329, 0.061681367456912994], [-0.1333882063627243, -0.015549873933196068, -0.16773371398448944], [-0.2433231621980667, -0.015572826378047466, 0.003577770432457328]], [[-0.04648057743906975, 0.15806563198566437, 0.10090760141611099], [-0.09889687597751617, -0.19076956808567047, -0.004004328511655331], [-0.12863902747631073, 0.13448745012283325, -0.09632448107004166]], [[0.05996517091989517, 0.11350682377815247, 0.013534053228795528], [0.017152836546301842, -0.0493524894118309, 0.1065492182970047], [-0.0868099182844162, 0.04362190142273903, -0.037383463233709335]], [[0.03924879431724548, -0.19708125293254852, -0.21898701786994934], [0.15258574485778809, -0.19813492894172668, -0.042429517954587936], [0.05480799078941345, 0.07306502014398575, 0.07929272949695587]], [[-0.1006198301911354, -0.08412012457847595, -0.016371330246329308], [0.3397081792354584, 0.03941686078906059, -0.1360584944486618], [0.09047030657529831, -0.07809052616357803, 0.08215972781181335]], [[-0.10851654410362244, 0.017757650464773178, 0.032851506024599075], [0.11521246284246445, 0.2545046806335449, -0.07996490597724915], [0.05592857673764229, 0.028252864256501198, 0.03442858159542084]], [[-0.10757101327180862, 0.19332413375377655, -0.1648728996515274], [0.00397460674867034, 0.03951111435890198, -0.06581207364797592], [-0.09750492870807648, -0.18596185743808746, -0.06340635567903519]], [[0.014855293557047844, 0.11505015194416046, -0.1791437268257141], [-0.06931842863559723, -0.0663997158408165, 0.1858728975057602], [-0.07013209164142609, 0.06303863972425461, -0.001818528980948031]], [[0.061157092452049255, -0.08642390370368958, 0.1897341012954712], [-0.05560113117098808, 0.12465161830186844, 0.08907550573348999], [-0.025752795860171318, -0.124139703810215, 0.1788623183965683]]], [[[-0.06585870683193207, -0.05651601031422615, 0.3192334473133087], [-0.09494676440954208, -0.2348475456237793, 0.010279634967446327], [0.11308776587247849, -0.11376294493675232, -0.03972160443663597]], [[-0.05197266861796379, -0.064024917781353, 0.10336428135633469], [0.13244330883026123, -0.025517357513308525, -0.0465797483921051], [0.19508449733257294, -0.012999842874705791, 0.0338490754365921]], [[0.12001534551382065, 0.16871865093708038, 0.12293634563684464], [-0.10971157997846603, 0.06229960173368454, -0.08135143667459488], [0.14319021999835968, 0.051038481295108795, 0.16852791607379913]], [[-0.002232485916465521, -0.004644569009542465, 0.12560677528381348], [0.16703912615776062, -0.05636128410696983, -0.0645417794585228], [-0.05167536810040474, 0.07376696914434433, -0.14554645121097565]], [[-0.26064416766166687, -0.21631616353988647, 0.02389681339263916], [-0.07017002999782562, 0.1377764642238617, -0.04386768862605095], [-0.014417732134461403, -0.05237299203872681, -0.026757899671792984]], [[-0.08269832283258438, -0.038745176047086716, -0.03070574626326561], [-0.15475967526435852, -0.10602295398712158, -0.28245672583580017], [0.16397079825401306, 0.023994995281100273, -0.0028978518676012754]], [[-0.09955725818872452, -0.10894232243299484, 0.07383665442466736], [-0.06780979037284851, -0.1194101870059967, -0.04700346663594246], [0.05376381054520607, 0.0810999646782875, -0.15215203166007996]], [[0.18403726816177368, 0.043555330485105515, -0.16205823421478271], [0.018429014831781387, -0.17125900089740753, 0.002186656929552555], [-0.10733602195978165, 0.09808540344238281, -0.014422126114368439]], [[-0.06471152603626251, 0.1535627841949463, 0.12827838957309723], [-0.1535080522298813, -0.1164364293217659, 0.0532798133790493], [-0.04305156692862511, -0.07070773094892502, -0.03350897878408432]], [[-0.11623359471559525, 0.0818031057715416, -0.1209745705127716], [-0.11836827546358109, -0.14027944207191467, 0.08718422055244446], [-0.012254846282303333, 0.058103300631046295, 0.025420216843485832]], [[0.034003399312496185, -0.012692387215793133, 0.0024200407788157463], [-0.07096222788095474, -0.10785876214504242, -0.026660384610295296], [-0.2153143286705017, -0.020668992772698402, 0.18891309201717377]], [[0.03338504210114479, -0.09373918175697327, -0.0012075378326699138], [0.03227502852678299, 0.33032143115997314, 0.059500932693481445], [-0.1690477430820465, 0.011734656989574432, 0.051749393343925476]], [[-0.0796031653881073, -0.0301628727465868, -0.023746924474835396], [-0.07328782230615616, 0.06593689322471619, 0.2557373344898224], [0.13969583809375763, 0.004299012944102287, 0.08575063198804855]], [[0.28819090127944946, 0.10948412120342255, -0.0743693858385086], [-0.01966119185090065, -0.05950535833835602, -0.07025221735239029], [-0.20469142496585846, -0.18461324274539948, 0.07406990230083466]], [[-0.010388960130512714, 0.09258661419153214, -0.07185997068881989], [0.06416886299848557, 0.054561883211135864, -0.05338801443576813], [-0.09143326431512833, 0.10285868495702744, -0.038864053785800934]], [[0.016029084101319313, -0.055983271449804306, 0.11134888231754303], [-0.18159258365631104, -0.09251228719949722, 0.034919027239084244], [-0.07558640092611313, -0.03305564820766449, -0.03892352059483528]]], [[[-0.04963897541165352, 0.01861589588224888, -0.21361656486988068], [-0.03323769196867943, 0.00535168731585145, 0.11117284744977951], [-0.0301107969135046, 0.06647108495235443, 0.07267431169748306]], [[0.22462500631809235, 0.13808834552764893, 0.00867930706590414], [-0.01634596474468708, 0.00547813531011343, 0.0784207135438919], [0.027662474662065506, -0.03511875867843628, 0.13113175332546234]], [[0.11810429394245148, -0.15783220529556274, 0.06577927619218826], [-0.21255731582641602, -0.03654833137989044, -0.012834776192903519], [0.019174017012119293, 0.15307824313640594, -0.1743379831314087]], [[0.06654570251703262, -0.0275557991117239, -0.14882595837116241], [-0.12333015352487564, 0.0996166244149208, -0.11943983286619186], [-0.06057174131274223, 0.03337530791759491, -0.15372736752033234]], [[0.06224251538515091, 0.046631909906864166, 0.06951981037855148], [-0.14679741859436035, 0.09341971576213837, -0.20911946892738342], [0.2127605676651001, -0.011418753303587437, -0.09063005447387695]], [[-0.10875041782855988, 0.0320945680141449, -0.22483037412166595], [0.03997322544455528, 0.07404610514640808, 0.03753954544663429], [-0.06301455199718475, 0.061808958649635315, 0.05196589604020119]], [[-0.07298721373081207, 0.15655545890331268, -0.02583002671599388], [0.2336403727531433, -0.0022610907908529043, -0.09773379564285278], [-0.2083101123571396, -0.19833585619926453, 0.02375493198633194]], [[0.05427902936935425, 0.011252508498728275, 0.07307553291320801], [0.03940766677260399, 0.0541793592274189, 0.01969343237578869], [-0.08915576338768005, -0.06625112891197205, 0.0523173063993454]], [[-0.09667524695396423, 0.0351259708404541, -0.0043106055818498135], [0.00871772225946188, 0.022741960361599922, -0.10035157948732376], [-0.007613691501319408, -0.04650988429784775, 0.06595892459154129]], [[-0.07287629693746567, -0.15673890709877014, 0.08928631246089935], [0.013021440245211124, -0.009946520440280437, -0.19431863725185394], [-0.0817795991897583, 0.005839826073497534, -0.05037444829940796]], [[0.13753435015678406, 0.07007850706577301, 0.06912058591842651], [0.10734321177005768, 0.023140428587794304, 0.08717479556798935], [-0.19488409161567688, 0.16937114298343658, 0.03428668528795242]], [[-0.11351190507411957, 0.03470310941338539, 0.0969032496213913], [0.13744784891605377, -0.0015039854915812612, -0.09011901170015335], [-0.07782185822725296, -0.02808251604437828, -0.2968498170375824]], [[0.10684574395418167, -0.05119330435991287, -0.011122412048280239], [-0.03835050016641617, -0.05355270206928253, -0.03594742715358734], [-0.02853679284453392, -0.013951228931546211, -0.07014773041009903]], [[0.07625444233417511, -0.12229498475790024, 0.1926950216293335], [-0.09633026272058487, 0.10257071256637573, -0.04952835291624069], [-0.019435910508036613, -0.040577009320259094, -0.0958123654127121]], [[0.01569248177111149, 0.02073480933904648, -0.10650249570608139], [0.07315534353256226, 0.21456612646579742, 0.07917001843452454], [0.0314454585313797, -0.20548580586910248, -0.14812901616096497]], [[0.15372078120708466, 0.17096170783042908, 0.19080229103565216], [-0.11701249331235886, 0.010951478965580463, -0.04715728759765625], [0.08551573753356934, 0.04707646369934082, 0.1497795730829239]]], [[[0.09554315358400345, -0.027739187702536583, 0.042024727910757065], [0.06343303620815277, 0.1212027445435524, 0.1501721888780594], [-0.17533156275749207, 0.09501799941062927, 0.22880274057388306]], [[0.06071203202009201, 0.002350626513361931, -0.08451177179813385], [-0.20053324103355408, -0.07770934700965881, -0.03183909133076668], [-0.05125761032104492, 0.13969561457633972, -0.028486711904406548]], [[-0.13407175242900848, -0.1336977183818817, 0.15228548645973206], [0.002197560155764222, -0.11650516837835312, -0.0688946545124054], [-0.053250014781951904, -0.136147603392601, 0.04144879803061485]], [[-0.07552825659513474, 0.12678402662277222, -0.012678383849561214], [0.03261319175362587, 0.055385522544384, -0.0321500338613987], [-0.020028457045555115, -0.1436358094215393, 0.005727629642933607]], [[-0.0149495555087924, -0.0029131898190826178, 0.11610729992389679], [0.1846473067998886, 0.1337278187274933, 0.07727969437837601], [-0.10435491800308228, -0.07235214859247208, 0.13855820894241333]], [[0.2082882523536682, 0.11569326370954514, -0.009021427482366562], [-0.1098371297121048, 0.05585278943181038, -0.06284257024526596], [0.02103261649608612, -0.23996880650520325, 0.05264470353722572]], [[0.17002440989017487, -0.06634067744016647, -0.1229204386472702], [-0.1465560644865036, 0.1701991856098175, -0.05698587745428085], [-0.11840347945690155, -0.19937114417552948, -0.059592198580503464]], [[0.0894647166132927, 0.10189923644065857, -0.17958179116249084], [-0.07980289310216904, 0.06566818058490753, -0.029772337526082993], [0.011913278140127659, -0.12431277334690094, 0.0598200224339962]], [[0.019630102440714836, 0.046619679778814316, 0.0085923932492733], [0.18298280239105225, 0.05616815388202667, -0.039160169661045074], [-0.06515456736087799, -0.1809798777103424, 0.2725384831428528]], [[-0.06659543514251709, -0.20963995158672333, 0.07593722641468048], [-0.06794877350330353, -0.09557956457138062, -0.16740645468235016], [-0.2310411036014557, 0.11474163830280304, 0.0245681032538414]], [[-0.10685457289218903, 0.08347578346729279, 0.1278526335954666], [-0.0406210832297802, 0.08126158267259598, -0.05058160051703453], [0.07748924195766449, 0.03380928188562393, 0.1904580295085907]], [[0.008592391386628151, -0.010668480768799782, -0.11229326575994492], [-0.10078780353069305, -0.07057704031467438, 0.10462804138660431], [0.1349838823080063, -0.024203533306717873, -0.08794952929019928]], [[-0.16585934162139893, 0.04425027593970299, -0.2072666436433792], [-0.008276707492768764, -0.076319120824337, -0.018094977363944054], [0.15595883131027222, -0.01713682897388935, -0.1263630986213684]], [[-0.02931853011250496, -0.03764350712299347, 0.04956446960568428], [0.0368417426943779, 0.008100639097392559, 0.017045097425580025], [0.18098799884319305, 0.007312694098800421, 0.14832325279712677]], [[-0.04434474557638168, 0.08172304183244705, -0.051487997174263], [0.057973794639110565, -0.07560814172029495, 0.019043127074837685], [0.17732299864292145, -0.05335671827197075, -0.09328263998031616]], [[0.09832631051540375, 0.11394747346639633, -0.15693797171115875], [-0.0033460932318121195, 0.24787750840187073, 0.18890872597694397], [-0.05167558416724205, -0.033713601529598236, -0.06869752705097198]]], [[[0.017757927998900414, -0.006741728633642197, 0.13831759989261627], [-0.09859800338745117, -0.2168116718530655, -0.033327795565128326], [-0.17359818518161774, -0.3083648085594177, -0.23146596550941467]], [[0.0908934697508812, 0.0019515694584697485, -0.1246754378080368], [-0.03482342138886452, 0.09243206679821014, 0.06096598505973816], [0.09976198524236679, -0.03234821557998657, 0.12038431316614151]], [[0.009713243693113327, -0.06922539323568344, -0.02993323840200901], [0.00464124558493495, -0.07957150787115097, -0.18896198272705078], [-0.23458629846572876, -0.05298556387424469, 0.17013752460479736]], [[-0.1010189801454544, 0.11057072132825851, 0.09051568806171417], [9.126886288868263e-05, -0.07836876809597015, -0.04457319527864456], [0.2877623438835144, -0.1979009360074997, 0.06236553192138672]], [[0.014208986423909664, -0.17662854492664337, -0.0024637728929519653], [-0.15862472355365753, 0.09621192514896393, -0.020449766889214516], [0.08267092704772949, 0.10642607510089874, 0.11078927665948868]], [[-0.07144082337617874, -0.10642518103122711, -0.019052723422646523], [0.12743139266967773, -0.1050947979092598, 0.10717235505580902], [-0.02731100283563137, 0.046984173357486725, 0.06667351722717285]], [[0.028226757422089577, -0.22184015810489655, -0.008538668043911457], [0.06161751225590706, -0.07418450713157654, 0.0941396951675415], [-0.0004973316099494696, 0.008173235692083836, 0.24367021024227142]], [[0.03024035133421421, -0.08792448043823242, 0.0547993965446949], [-0.22832714021205902, -0.14252668619155884, -0.06448108702898026], [-0.09399069100618362, -0.11308165639638901, 0.019612878561019897]], [[0.26142263412475586, 0.0008967106696218252, 0.06527291983366013], [0.3387242257595062, 0.12852127850055695, -0.008116946555674076], [-0.013392130844295025, -0.11211051791906357, -0.15234149992465973]], [[-0.17734016478061676, 0.09931552410125732, -0.2083526998758316], [-0.020393379032611847, 0.01881464011967182, -0.05906601995229721], [-0.04360438138246536, -0.19223864376544952, 0.08081310242414474]], [[-0.013056103140115738, -0.13408000767230988, 0.12709073722362518], [0.1565433293581009, 0.006893252953886986, 0.019096219912171364], [0.1951598972082138, -0.008137006312608719, 0.05333639308810234]], [[-0.0548064187169075, 0.04318802058696747, 0.17228816449642181], [0.11063793301582336, -0.04238751158118248, -0.13059400022029877], [0.05657269433140755, -0.2171148806810379, 0.11331422626972198]], [[-0.13371095061302185, 0.14271830022335052, 