{"policy_state_dict": {"net.0.weight": [[-0.08874619030863384, -0.035115492503106055, 0.06381628000176848, -0.06077851605243115, 0.06479213573323309, 0.03569895504228835, 0.03687344644246787, 0.037173275656863326, -0.097873422086789, -0.009524618586775764, -0.16824389363794845, 0.02668718034936518, 0.04224476469957242, -0.15853448202654843, 0.10126106285596191, 0.07132510468141866, 0.056545145173840385, 0.009539465714824487, -0.029064453724046736, -0.07485470354968578, 0.00777639352197696, -0.013028286913494691, 0.038325269210919506, -0.08537076562744383, -0.017668509425545376, 0.0454035797152528, -0.09145325862211721, -0.09280643993337882, 0.02545010141840005, 0.060757808836050885, 0.03198074483133542, 0.009073591300508431, -0.09159676456296391, 0.1513537364881921, 0.02550946202117613, -0.07369872581045724, -0.04494275601575418, -0.053863864701083765, -0.0719999857731092, -0.1546787031541263, 0.010715394341123868, 0.07280292830908563, 0.07731016352553126, 0.07951020880380656, -0.0007757630990959979, 0.009624434044230504, -0.0060250292506854285, -0.11761579296219632, 0.110885277938592, 0.012386319471451709, -0.011579992965857029, -0.07580344213502857, -0.004655188948180355, 0.2022510240275494, -0.09271635940620306, -0.09846497319894727, -0.21415302637076178, 0.0010821242109183991, -0.0023083170049591935, -0.008050250196491983, 0.03706900352053016, -0.027393317091645736, 0.0026789868552409544, 0.012715209361686746, 0.007510155640882712, 0.0823815697538906, 0.10241360408836728, 0.05744053252455554, 0.028311400273869282, -0.019899070675103096, -0.03573842390572155, 0.053299876928177975, 0.0797179484773516, 0.13405683488389253, 0.09949864219975683, 0.01604083810099522, 0.09528776873576324, 0.010455141017313346, 0.005758275767976113, 0.05641443987842365, 0.06847229258549002, 0.028700561176705407, 0.04002164459638234, -0.08979189262351865, 0.05000528746154698, 0.0496348139309769, -0.0011097795554656463, 0.15979100701981963, 0.009992743509380607, -0.08414086859241644, 0.08885012991341448, 0.003397447540298906, 0.01994509491025689, -0.013090477397903567, 0.0920838343281203, 0.09997436273146046, -0.12065982704515885, -0.0109449117480303, -0.17446273193663042, 0.004318524368918386, -0.09597413596054709, 0.13949227397874353, -0.017693095451503275, -0.012732465436891936, -0.025676726590338518, -0.1010471947865696, -0.07479261005761059, 0.03737436548771434, 0.019562222569319238, -0.039492449047075065, -0.1762558325700067, -0.10077202052888908, -0.046209374285414266, -0.07376662701532354, 0.09253543189279247, -0.019818724388391905, 0.05824130103088333, 0.03300021757433871, 0.11450217667369955, 0.042539549749077005, -0.09565731189256588, 0.0981608028680457, -0.01637955896726423, -0.03916664910312584, 0.08749110905905173, -0.08683777617549139, 0.024952044610386654, -0.05574659094045634, 0.021444993172370638, -0.050228197784183005, -0.05886760899943177, -0.09009080914515469, -0.11447647988206759, -0.06709417040086911, 0.06331572331158412, -0.0245988623477291, 0.09747797896495675, 0.04400849327269916, 0.21394126136572852, -0.018898722514971964, 0.03551293643955036, -0.050718086777194235, -0.06328393344808304, 0.0912818646540513, -0.07045910518017141, -0.09606630985297337, -0.09026847206340306, 0.15392863234656814, 0.03409293705703569, -0.2261677194533741, 0.09918801934840532, -0.04629468786203972, 0.10836259291680363, 0.00019700111326882082, 0.05204959046973624, 0.003094325657501014, -0.010473791622290802, -0.036337426821767806, -0.04537314933344401, 0.027100389321348665, -0.05048851280037281, -0.11771830676899601, 0.08898251282411118, -0.10388209600322468, -0.09056662778733637, -0.10344511401158704, 0.09401202784550308, -0.013437561405560924, -0.051555780899591196, -0.015020945401603467, -0.030977422480145, -0.10725532104435653, 0.20475117540886245, 0.08165275001972017, -0.056563123445076725, -0.06345522112112593, 0.052842897415198604, -0.01881516368656866, 0.06191097219941993, 0.07389846713854448, -0.0815469767221472, 0.08062267330549219, -0.041267781176245154, 0.12053258146178135, 0.08131849506476672, 0.06193020953645037, -0.005432580756553796, -0.06645542321738894, -0.10230466401032419, -0.049593088028402885, -0.04380888991772562, 0.015544375869364694, -0.07580468856757776, 0.08495215089145279, 0.0711123771047691, 0.06679139308174603, 0.13657572354080857, -0.07435910332419776, -0.12470715775011205, -0.011231560138234113, -0.09656193030464384, -0.006668384558915037, -0.010640555993724128, -0.017267189634113875, -0.10722503615293366, -0.14443102548312187, -0.05061076799300971, 0.026752197963449777, 0.022603746181516, -0.008639636238079102, -0.031596473642859904, -0.11556405495611213, 0.04497563019666527, -0.08800734428560751, -0.1115170409517172, 0.08883452759962422, -0.05823913524236679, 0.0936954559575282, -0.06178667628390304, 0.08225429803718058, 0.019016399972899587, 0.07020905575111043, 0.06513168016198774, 0.05234023020570076, 0.10590534612735415, 0.13990675478228856, -0.062026157607505475, -0.02444905595565656, -0.00522738287072896, 0.0335998730454555, -0.08182969472723789, -0.1272141615172735, -0.025112438774102325, -0.06461232584330168, -0.013982984602540495, 0.06288973538109428, 0.09250113989475667, 0.16774770551416818, 0.017750202224257876, 0.0040317103545748955, 0.022701057199480106, -0.11436059214286906, -0.05063417899774482, 0.08720351629166903, 0.05635635481579016, 0.07414029862290326, 0.028313270687955708, -0.010052399201822996, 0.080607192274459, -0.024066647859700252, 0.12879466124490316, 0.01342833042451845, 0.03942132641962818, 0.10987765308953355, 0.002628764846072429, -0.10366703190044134, -0.009595944449341904, -0.006522420115831283, 0.13461176400203936, 0.08566088300514833, -0.0287907698569707, 0.00952060482802632, 0.007838967530059825, -0.06394098809022095, 0.09063025220247971, 0.004351980559868881, -0.025886383022886643, -0.0370366822967308, -0.0368115063143244, -0.03856546437024448, -0.08588495003990271, -0.14862873677148708, 0.14911241677479523, -0.03255551398943383, 0.04249828013224537, 0.023864395603065653, 0.1041778533768859, 0.028197741093985113, 0.00045056490592884423, -0.12504032269914012, -0.04626316593565721, 0.05397907178757314, -0.024587343927485482, -0.07346299010922606, 0.10391964751302828, 0.02814648177184636, -0.03146606811619063, 0.10192714599037574, 0.08562092148438612, -0.04821199414370339, 0.09890034230609282, 0.06237276535034599, -0.04699626706196669, 0.05750872284521541, 0.0705579534949949, -0.015739385562735263, 0.020605714929992094, -0.05498052310497563, 0.013079178223379279, -0.08446322725284088, -0.06369117841507362, -0.02748452007232195, -0.22486163116701544, -0.018222761434109083, 0.0046090821570709825, 0.07469985561384912, 0.0018541752602591996, -0.07174665598559264, -0.127158636664323, 0.09910112448935142, -0.022819518612072952, -0.14899593244629342, 0.029498888814511313, -0.08641604346750098, -0.11091274821611045, -0.0654498489085721, -0.04830850677696934, 0.043829222951051024, -0.02644247533095692, -0.17495917772595337, -0.03834229906189049, 0.01927864832393206, -0.007538071279533375, 0.07623845589879458, -0.04730952709339716, 0.05948465757597596, -0.07178474481298715, -0.08739054280667134, 0.06672155676323865, -0.050547922057432214, 0.07234907985801992, -0.13957224201111565, 0.15804004024634177], [-4.296175763029169e-05, 0.11253037688116868, -0.010800079753308526, 0.010661589699656741, 0.1255654908451109, -0.214535396845809, 0.05286317017010015, -0.16338328612962116, 0.09305741677865946, -0.0892068589375893, -0.19697042632144832, 0.08526950891784707, -0.07926596910887544, 0.11793748676002029, -0.06813418431065633, -0.019138178314891306, -0.021035486083822812, -0.05702400730168978, 0.05350091653880414, -0.0008915340042676234, 0.003844933395047965, 0.08207147897760808, 0.023350225596253674, -0.1204513985543817, 0.07877293391928761, -0.051187761929298886, -0.11187832860306589, -0.07618224348919309, -0.08382746401265015, -0.008108413376918285, -0.050216406613548724, -0.035384348972854446, 0.1635972390187813, 0.015719651195055105, 0.12210354062399573, 0.10969403496702201, -0.06240958744824565, -0.1527412180318529, 0.03247514757537586, -0.09553606730447997, -0.142674937596592, -0.04923834107255818, -0.10931617164983456, 0.062223003428242295, -0.10261274703217108, 0.011956475689507442, -0.012561340082315046, -0.08251411554197587, -0.007781504393207611, 0.14159663486735877, 0.10357067401394358, 0.04211855539299764, -0.09204566058113674, 0.14484643154633844, -0.011067559212110516, -0.022984116700210545, -0.05190466485840921, 0.04058987099879618, -0.10655126832595896, 0.020431837252088792, 0.0856007676991699, -0.07522243569878201, -0.05763506742847187, 0.05431865763424272, -0.019026765702432172, 0.0542311199326952, -0.06357296669279666, 0.032968770374141886, -0.024771888023709932, -0.07648058064653009, 0.0996830876291027, -0.058489815995687165, 0.06482321637331576, 0.027724702767005335, -0.02938946057760039, 0.12920266720333556, -0.07516333031534181, 0.06500318799734833, -0.0971956435946989, 0.008847318755317636, 0.03691827594581186, -0.032263811175620674, -0.01770682899091886, 0.016793384713492197, -0.07735400753657053, -0.007965070179373928, 0.01712478424159564, 0.022589653746108756, 0.022430557030037147, 0.07359520011163566, 0.045084385274675634, 0.1347631349253445, 0.01071379381201347, -0.006639966413828151, 0.1267321735959621, -0.09984975984553553, -0.06541689491801454, -0.06282060965453978, -0.06378845335890146, 0.01627768490295402, -0.06180732345396269, -0.03072212128971466, -0.02194271408035678, 0.07199488289078385, -0.004210540291889366, 0.09230885353915957, -0.11880328407970053, 0.031232385080941828, -0.07667291847803293, 0.06792607816997787, -0.08030354422776874, -0.06708502735850308, -0.018786106724302778, 0.053184646340973765, -0.04300249262876737, -0.042208683485206455, -0.012072378282182921, -0.13114054802450179, 0.012443521963400839, -0.008395754226312072, -0.019224488943592168, 0.05806612667684699, -0.09565602898100403, 0.058285015560434784, -0.06749246468418393, 0.0754151937820706, 0.14705336140406158, 0.12697840090498203, -0.08598601684662387, 0.047272778151676735, -0.03596772217365118, -0.07634583252937405, 0.12479439436745657, 0.10934889858140678, -0.00493276674707983, -0.06327406134189525, 0.12305008741053998, -0.07240664416841147, 0.05530344878363422, -0.042460687582373514, 0.0010307091013730379, 0.022015367187600634, 0.1074750634905179, -0.08310808955065237, -0.07752078246246946, -0.07442529282925117, -0.16244875420076804, -0.02173791779937506, 0.14940852381602113, 0.1306525180462842, -0.11190837630885889, 0.04887977918755809, 0.14629176510518463, 0.11131159285924822, -0.05405579712100136, 0.049371456343493984, -0.04706485215877174, -0.25095953160332796, -0.12387867714460078, -0.11254474365032943, 0.028231947951887378, 0.019015336791743224, -0.10341716512511918, 0.0031757914364726946, -0.052714891004715284, -0.018475201755706532, 0.037115153608854326, 0.13583191541784537, -0.07625395388941285, -0.019207832963267564, -0.07090051793909133, -0.04651990626621813, 0.024742620241477713, -0.0964632622101433, -0.08471003621721451, 0.014006306347522847, 0.15587153016202596, 0.03426545776989658, -0.14945171596693843, -0.038964070688149624, -0.09750963744273691, -0.03982802791888739, -0.013575962263147202, 0.023254815112986698, 0.06995219571335191, -0.0401788660587248, 0.0728836392970328, -0.11484145680972516, -0.04915570021654209, -0.07222917610276819, -0.017051063177327148, -0.01619618833093631, -0.15207938339519464, -0.017897531950172442, -0.09099058816175187, -0.0860759609314173, -0.010115679618038692, 0.19136006138226536, -0.018047751146164165, 0.054457023465908506, 0.04613541000884714, 0.08034393938672858, -0.18348887928249502, -0.13013666632696572, 0.1951668342077579, -0.08609900475557508, -0.0391246604675836, -0.05181323548687134, -0.061380947056621595, -0.1655325739059176, -0.13139504029777835, 0.03282391663869986, -0.08121007416004516, 0.16983218370185793, 0.04696968806294638, 0.10200447177778353, -0.12279516614484627, 0.039503043398166834, 0.10189924629512122, 0.09165633148210099, -0.04426122973329345, -0.07545667582586417, 0.029142635424130654, 0.010137555879093244, -0.007791369320492122, 0.0011664349105505497, -0.03911802677772812, -0.12584595270039853, 0.07045387486540211, -0.08803080542483414, 0.12283780175428276, -0.08895162582323225, -0.019615615107128545, -0.06687562622003333, 0.07113782569203532, -0.04396653988498864, 0.035778155226911655, -0.05902022775754298, -0.12466771901417137, -0.054596394660419, -0.14692077447789326, -0.05826665028163964, 0.11309515072453409, -0.0712349744147283, -0.05814884614899051, -0.054114000319176694, -0.13377977996786056, 0.06402594830524413, 0.03930134782678572, -0.04492730949725413, 0.049976928973108674, 0.08935422456417341, 0.025007080935696924, -0.040887801804807694, -0.14264786336834748, -0.17459512495527413, 0.15087609759666448, 0.00018566201164641502, -0.0028939226868805673, -0.0032903227543845826, 0.10403391505260823, 0.014663015740182368, 0.000900801846120659, 0.0016898976082402352, -0.03747975382547388, -0.050439423768153024, -0.07378133781282627, 0.052926372410797534, -0.10368235414328035, 0.006495057378133847, 0.023774746809570094, 0.03635808608025731, -0.000304170073793201, -0.13499102525343748, -0.020279962862815065, -0.08955448642308488, 0.022433098603739533, -0.015674962425700437, 0.11264192739172241, 0.14899115818768266, 0.11795871238432361, 0.0875459561624886, -0.0797990712195184, -0.2224518066556943, -0.028709924365682964, 0.09876370091981959, -0.02637308943131719, -0.02775157534636013, 0.06010987588559554, 0.055694409345854186, -0.016908036553709586, 0.011793047764534721, 0.21352166062187264, -0.06458649849630621, -0.13812721345411041, 0.015304851173714416, 0.04182529978129614, 0.010910184553667815, -0.034953491557607796, 0.08516827336169858, -0.04900823634999784, 0.024820243179926364, 0.09181362129799607, -0.09538213689555124, 0.060095784949646104, -0.061073729804608796, -0.027071170582096758, -0.011410529752616265, 0.08468140464246565, 0.07154080266148649, -0.02525145900509271, 0.039071324834745264, -0.13949395102572967, -0.03481520455089842, -0.004294536623618841, -0.03131720907264732, 0.025572478743684717, 0.034383646258414176, -0.07422089076918602, -0.027119274327953895, 0.00494576382750607, 0.01735903318808657, 0.12682507113260585, 0.0624305956030964, -0.08222562744166065, 0.009940708203907724, 0.11595029366343619, -0.06487077140905873, -0.016081363424842954, -0.10104736483579807, -0.026459296955458098, 0.04777901474646843, 0.11570783694176115], [-0.056344310992303484, 0.027835942973438364, -0.09831838768773113, 0.04960836622973141, -0.12958963295770723, -0.16404223916012886, -0.1378156034694665, -0.044847770565391236, 0.06994467423712646, -0.027858516269693975, 0.12214848527149795, 0.031896278314114526, -0.02704114026901652, -0.021944980700794342, -0.04359476111838876, -0.18177863165878552, 0.003455166184481365, -0.0018096621371032095, 0.07336658550581386, 0.02031369010940685, 0.11978806087638343, -0.03601351523278686, -0.03053674500749414, -0.043112176611985124, -0.10223566970498367, -0.03515881817446667, -0.06054367536567262, 0.08492119119103617, -0.07055040331345476, 0.03943590404966309, -0.030609277904647226, -0.0459768903953742, 0.09718268190428098, 0.037379044676797646, 0.07212287926926031, -0.04333159837848663, 0.020957184314886457, 0.07587015229504332, -0.002047290820670573, 0.04735201876680298, 0.0330750891152893, -0.11949121731501945, -0.050557274026763944, -0.013999106306668462, 0.09044860317144886, 0.009213703731750131, -0.02997120677287348, -0.023907874496153052, -0.013334699904810258, 0.054567687678478055, -0.07407077608629627, -0.004915883387988657, -0.25284059803125614, -0.04068441702631154, -0.026050574082325213, -0.06236848869283768, 0.012379362392770196, 0.029904871553503583, 0.12574806756044885, -0.09202172252455125, -0.03598593595269964, -0.07905031526238054, -0.029791900948954002, -0.10333271702896157, -0.005004925178105971, 0.10183417314622577, -0.08465852900746197, -0.11685855891066156, 0.03921801790763835, -0.03217268242111126, -0.07217545022722184, 0.12301063581510355, -0.04607079380652033, -0.0210434997431389, -0.09582754179442603, -0.02838562494751747, 0.07903555331899793, -0.10531179521191854, 0.06287831178768785, 0.015366108041747805, 0.0651950257399082, 0.05775010485522784, 0.0680598349078729, -0.049758634466208415, 0.07248209163711722, 0.13046768633243166, 0.08920245003823674, 0.07574360551146042, 0.07697827731547374, 0.04152999058374007, 0.014710780715242344, -0.08013358597025745, -0.010901196863557262, 0.029594595226120356, -0.05223139292306698, -0.1069693895715021, 0.05006391675474775, -0.01326935916488314, -0.10116998740631336, 0.006390171677455295, -0.12115759759855732, 0.01975875134009281, 0.1421350980010883, 0.06699963925929824, 0.045435725562131137, -0.12276528499378309, -0.04940372414230457, -0.022646112499173966, -0.023774773415169138, -0.05171558086933519, 0.07239530015369577, -0.15334175995124985, 0.20736889608280706, -0.006175403173404881, -0.0021579910044676027, -0.07121602473366713, 0.0035792293853618433, 0.04741586804644761, 0.08174714846639997, -0.1250361344327578, 0.0051572260844791155, -0.10608748197069959, -0.007647376854620259, 0.1494389062469237, -0.06696739806026324, 0.040856942242110096, 0.0044348079674474345, -0.1288638523261225, 0.03830066129759819, -0.06801241398331423, 0.027462940143999207, -0.10124162895261511, 0.037914019772460235, 0.05204030728160356, 0.00539044064275724, 0.06409552858822164, -0.0829786404753199, -0.1786561319689126, 0.12037849033432814, -0.018105808230533482, -0.19617021208477564, 0.008955751625508363, -0.04434681272648994, 0.00846854019289948, 0.0917229249715186, -0.02205576404388954, 0.12701808615835755, -0.10466160880554758, 0.16962467186713143, -0.007584131556470138, -0.11437556127623691, 0.08286680336568202, 0.013401147938249267, -0.04991869746902997, 0.0028788983937381163, 0.07429975704610181, -0.11912859877191709, -0.014058408426492492, 0.01710632291052577, 0.06489460829563272, -0.008272508084170354, 0.07616919160581435, -0.0631564189536863, 0.03496654100434469, 0.005289198137936516, 0.06154590579097246, -0.0386879909217168, -0.02338642846299936, 0.033677576107071235, 0.24568835948522807, -0.02011986408036512, 0.09530313540720518, -0.016140808235445326, 0.08049951726392117, -0.017710372836519786, -0.0429876235525406, -0.08998237970266756, 0.0828527049932915, 0.09429825689595316, -0.09445853082404582, 0.0017686135708989243, -0.06599711131509546, 0.020044196181228408, 0.01635659004271901, -0.02188450618338578, 0.09118942948044462, -0.10532021903599478, 0.1698489216924814, 0.10614361107416367, -0.02649829198708743, 0.0022478126638166415, -0.08625905733357438, 0.07885398319054122, -0.05467807691582009, 0.011377266852659839, 0.0005326095725583368, -0.004335154958181816, -0.14118179199865924, -0.15205981114486444, -0.06425970634382548, -0.008538389493526834, -0.13418505588982693, -0.031016334351295853, 0.04053559714286973, -0.10867293259790921, 0.10674333794776196, -0.07324718188967304, -0.025759623755774615, -0.014516632183509435, -0.13052069398913735, 0.05875391002265705, -0.031128385990968097, 0.03486658653083757, 0.0016741616692545385, -0.10074117789245181, 0.045528278257186805, -0.087062978334737, 0.02514977641760581, 0.049262677579619975, 0.045200025620005434, -0.029031670056546777, 0.11281529512978511, 0.07077146288488406, -0.030828239394397623, 0.016785198179558244, 0.03751055335206397, 0.028362084463981044, -0.1417671834696917, -0.21452963375283315, -0.12074346311494143, -0.10020237911005564, 0.042605833759325425, 0.027318334989794024, 0.03358826917760287, 0.024985428531774514, 0.07386083729797618, 0.07624375106990547, -0.10431937122017175, -0.0288625324637329, 0.02142632722529957, -0.08247538762642885, -0.0456281198691317, -0.06232302305320076, 0.03999305766523423, 0.03232680114906927, 0.07958017024057915, 0.04286007289030357, 0.10552340413021365, 0.01944214850774636, 0.02221636572446321, -0.021832017728546222, -0.013495696437633542, 0.012266763378915167, -0.01579761348747468, 0.07733198555260816, 0.02932750291880126, 0.016472987476485578, 0.002136266206552881, 0.05138131034698932, -0.0523760223890988, -0.19412208476717313, -0.07060024651528646, 0.016878192620420583, 0.09820018418482235, 0.07803649481868183, 0.05567314591031555, 0.04696202436756797, -0.00835414616913179, 0.09782212926551487, -0.034460629190045604, 0.02421065582250914, -0.17979779397785184, -0.058453368945744696, 0.15189786897598653, -0.09585465994552475, -0.009322277203437316, -0.018969957577611676, -0.05173875871711134, -0.02666968958329265, -0.027898147576517592, -0.05874998150945893, -0.07900780356408224, 0.0010917632077352348, 0.017901291906378392, -0.09438092352098588, 0.11580418970325825, 0.06611656921110579, 0.007920410266870244, 0.03136339245406379, -0.0227869905864251, -0.11646278209094288, 0.08090937495602926, -0.0013876762690510313, -0.01815412410359496, 0.1300080959482342, -0.002958794788713252, -0.035333371689726556, 0.08677403382311182, -0.16473846665431668, -0.043455516789415845, -0.02956713288762636, -0.07887172070378463, -0.005933027301747223, -0.1686910510343747, -0.11798932727396404, -0.03725986284824461, 0.00183584248391936, 0.03465668722829419, 0.07373333286618082, 0.021252385127277985, 0.05392112810017876, -0.0334111581245314, -0.026159946259389402, -0.0052994837343361845, -0.17432366105787342, 0.03449711247007268, -0.07790290089207239, -0.06710210352519828, -0.0426754283299863, 0.009463542972745306, -0.11492499101392602, 0.10633801379778099, 0.08575049911776367, -0.08784821092456085, 0.01869385909945405, -0.10287284366722504, 0.04741432948514427, -0.04519214311381618, -0.015162337263109001, -0.12519260519955705, 0.017492521564961262, 0.042574638997913104, -0.01475974208372611], [0.06455123649106183, 0.05941727143554583, -0.1119277016322844, 0.05888951038570563, 0.023345840083904917, -0.011156370841699202, 0.02472675267041072, 0.015018176146761989, 0.1299111144293415, -0.054770363961468296, 0.023724770560976, 0.048158009555585884, 0.015073695304638243, 0.020410863724101974, -0.0008664348282660572, -0.0826843969558724, -0.04726841421378583, 0.1499192822893706, 0.010709096881931255, -0.12231860113334901, -0.07430445355612729, -0.001150537055766166, -0.09179456044861942, 0.0029089797595588363, -0.01296319025215015, 0.04312280984172681, -0.1509763735148241, 0.06287155009296255, -0.08480020571841476, -0.05109883125406146, 0.053194173686756024, -0.1233767332265475, 0.13818525072038243, -0.06804654367656236, -0.1069873696826977, -0.04263986760914246, 0.034338660258057416, -0.06769668846061981, -0.07579510688828008, 0.07419981611103597, 0.11387878492461093, 0.05942838559482833, -0.06704957047254252, 0.12018697821767627, 0.0541294211378037, -0.011463491361107697, 0.03298330709289147, -0.023790906333717048, 0.011176512302471067, -0.05287100642488292, 0.04059662746436196, -0.06189380162702781, -0.08990128438978819, -0.0746238316118789, 0.10520761343168164, -0.14926921565670198, -0.1162322272801931, 0.03625483541733577, -0.09919205763993598, -0.09856415100088517, 0.09665609421516123, 0.024704933624209568, 0.11771035045201003, 0.042379269525261574, 0.02658470487684744, 0.052177532094893696, 0.005986506556708606, 0.06393101848021329, 0.05269951066781043, 0.0540503759430379, 0.03487911000996065, 0.08532566489320934, -0.13489666671413073, -0.07796433231549664, -0.014332862100658449, -0.007505850974255149, -0.1478070743489886, -0.11515244967526017, 0.11197934549047396, 0.15203427648544462, -0.0025881984665289616, 0.03515292030761571, -0.1278723459289504, -0.029022855373182225, 0.06675928603547462, -0.03924997053050639, -0.1411898018092184, 0.04719559757462214, 0.07741211969801716, 0.11790896048130384, -0.062348249921438906, -0.01131087218102946, -0.163658513028018, 0.13073976058871256, 0.11511969623683707, -0.013466410951702196, -0.057285623159151686, -0.05358037583494136, 0.04978325056188059, -0.0005659080047011803, 0.05084687423074152, 0.04228626860165199, -0.16618937695387737, 0.1023217645675512, 0.06062427277045829, 0.05718997749134199, 0.12658675416726467, 0.052137746578784006, -0.040048857831901985, -0.002551007663052997, 0.01933619109016008, -0.05046672412011848, 0.06720754117559556, -0.020434563816347222, 0.009066334193419573, 0.011021236780473186, 0.05648522157746315, 0.10364483956697876, -0.06440247517699695, -0.0918343309886292, -0.056055272704314, 0.08204869516221157, 0.09918892596075934, 0.17092972622311728, 0.08247819803482992, 0.00737826371896055, 0.009648608674813685, -0.0023070946048584996, -0.04702543374706903, 0.03483251056130282, 0.08071454109179464, -0.04468109785652002, -0.12014323268852826, 0.12509050852452713, 0.014792331203487732, 0.10057366390184348, 0.002771441675430601, 0.09352353694109643, 0.06667933076421023, -0.003560364920540222, -0.0490919476074937, 0.08041469399138716, -0.20883141553898596, -0.01881588698915374, -0.10603058759902, -0.28497811874207096, -0.053141134553732754, 0.0725229721888939, 0.10405510893635292, -0.10625938784051872, 0.004954312639050879, -0.05989538978577601, 0.11204971750052689, 0.05365927436267933, -0.10160489468067901, 0.16738911538785314, 0.02626527992045349, -0.10573938936863575, -0.02813241639512159, -0.019292911016039308, 0.1113200370822477, -0.0960835870337026, 0.06975102574653745, -0.02154694711947476, 0.0026367390230414628, -0.014378128805976973, -0.03375295557958194, -0.05791829083405128, 0.04348536173695467, -0.008103069663561347, -0.15962480972043197, 0.06530165676916135, 0.028015909800037785, 0.04524461088582164, 0.11834061429509442, -0.10094550091710264, -0.06746918293090085, -0.012243482532712376, -0.053540588344838436, 0.01969399676927954, -0.1929081846277478, 0.13350079251270874, 0.15506490568812611, -0.04150714359366277, 0.04758312677630322, 0.06060009474833361, 0.012770588790884437, -0.04537322928453024, -0.07192318864257098, -0.03084524770243211, -0.036070600949780686, 0.017332127083763048, -0.019587256662505433, 0.028761748890198086, 0.13645835664096256, -0.04859516358539406, 0.03223805608510386, -0.09535092089600815, -0.049424032216680604, -0.048092826081029896, -0.06655883301241668, -0.0011981982990800005, -0.06284355644702909, -0.01215537695217882, -0.0877906721912995, -0.1366371713680775, -0.06941804808161954, 0.07006786928200939, -0.02665900011383066, -0.03505684628285075, -0.1160396769504237, 0.01910024752911066, 0.06150661207952089, 0.03695215947057959, 0.018409309058417853, 0.051499505767952924, -0.09327916595506291, 0.031140342571751377, 0.08860316457033558, -0.07320640821119292, -0.010494388080272173, 0.023050089437765233, 0.04574338134024674, 0.0804428860991051, 0.049498167713748625, -0.015302196433140808, 0.007346984633241262, 0.11532625521971869, 0.0047217857893592325, -0.06045301326534186, 0.09136467599553122, 0.048657698427508896, 0.04321881766041857, -0.09305497358924145, 0.07142653631849112, -0.018962039847202263, -0.08374808105772398, 0.0008072749865764844, 0.06229948537610695, 0.08070636250307264, -0.03212852111686542, -0.07504083435972793, -0.002417319019294322, -0.1881266732778607, 0.23363440594805984, -0.04879405251863753, 0.12190286130317057, 0.005674048734261623, 0.035559290317943505, 0.02784631218554806, -0.0662471641632745, -0.1149336458599984, 0.06330622620871834, -0.016814364520057624, -0.07658703505360018, -0.0016280454896172789, 0.05317731942506323, -0.010722287231134879, -0.08828735900353743, -0.004524853004927795, -0.06115569819985306, -0.0373212394383587, -0.046399653628493985, -0.06862200164425007, 0.004189302432973475, -0.05946679441430004, -0.09669866997752868, -0.051209764750528214, -0.020326132318303748, -0.009137101970092334, 0.0886467925296349, -0.10582038938625622, -0.056171803325668235, 0.03018516014518396, -0.0037586233895013574, 0.11884112137688291, 0.03543694497217923, -0.04319039475203976, 0.04521415819443937, 0.027504983418818574, -0.03135287835742546, 0.06323314568722856, 0.025885844303187997, -0.038720067792209684, -0.033947589565431854, -0.017236350686946674, 0.031030103412117774, 0.13525964616247077, 0.028980605022768717, -0.011982730887845057, -0.02093979837465833, 0.019806719016104972, 0.0290510422581413, -0.0019403322360102499, 0.1092436418850716, 0.24446320965271592, -0.08604031160103183, -0.008446396603854437, -0.09182100092587547, 0.09067227931134135, 0.03496272364286635, 0.06016785488670616, -0.07260504283061396, -0.02787290601317961, -0.143819248879751, 0.03185549151777049, -0.021168768775952466, 0.11527470539383129, 0.11343514272557319, -0.166344938564772, 0.0671120181816435, 0.03210734319656963, -0.03948275041624048, -0.04112607581451132, 0.12145494403420354, 0.07766167856521251, 0.0330038582998278, -0.01591985903963834, 0.12501843424387468, 0.04319015107503382, -0.05035409868909847, -0.018248239025575194, -0.07480233453954173, -0.10378487411760394, -0.19798100724620868, 0.0021442086162218954, -0.14103969410881473, 0.023879998090004823, -0.02855189234146602, -0.006837012128086469, -0.05960502775004822, -0.12688732416817922, 0.06326574165896529], [-0.005636434675487198, 0.022550275572782354, -0.007010585304700862, 0.06758964016472001, 0.11322753975183789, 0.09547132149488381, -0.14435823025186797, 0.12850388184716774, 0.048418569808015906, -0.0017739929979697022, 0.06613683041065355, -0.006766326560399755, 0.034784368917684494, 0.016204788824012707, 0.029673038554704625, -0.05375314189367023, 0.020105287288009532, -0.055985979961223134, -0.008635521582965147, 0.06961348901888281, -0.07316949442284218, 0.01106469448148633, -0.09867725107486644, 0.0051434924234112405, 0.11537037255586077, -0.13643163001135877, 0.036518099079338, 0.035280152200963324, 0.05955668861892737, 0.04594807864711035, 0.018769658499113735, 0.011844120581261074, 0.06155236659918385, -0.03795521671619618, 0.09895159248761054, -0.01865027303712141, 0.17488945103366782, 0.016345791929544655, -0.005039706917749554, -0.10606628676148318, 0.04309749961036952, -0.01004651034916175, 0.11872554765712967, 0.09562586063679848, 0.118919908638073, 0.026847101130321724, 0.0042847942670038485, -0.10560020328881728, 0.16416914317639478, -0.0052055559247394245, -0.004495042348119414, -0.09052019407561793, -0.007095741064478523, 0.015447121405142825, -0.10024962691891445, -0.12953537390945913, 0.02272802835504195, -0.0035735717024227825, 0.042337619319543274, 0.019673181536820034, 0.0009607744638339521, 0.06671888300069188, -0.014464858862922194, -0.019264472133511634, -0.0021553282013080815, 0.07180238533513349, 0.13614583008688366, 0.04194192092005379, 0.04061594353744485, -0.047105041927268144, 0.08460140552536445, 0.024087522430301968, -0.0001430619182299927, -8.815151884076846e-05, -0.06778152546192626, -0.09070443819386768, -0.05306621735317505, -0.14231448362396204, 0.027478542849602362, 0.01856211343630026, 0.004616756463955684, 0.13882276674751184, 0.09676005217380186, -0.004553096915195929, 0.03460695518158384, -0.06726287449052844, -0.12806954069693177, 0.01243191616622242, 0.0026476783353438205, -0.12460267007364556, 0.030833322519674244, 0.01533134758872711, -0.09346107570054779, 0.032760727076855, -0.09308057809621209, 0.11856091476816467, -0.0068128943311608885, -0.0984065778543458, 0.14133279551155178, 0.06764842177162576, 0.07322725674313778, 0.07391744507766208, 0.016364593169121644, 0.07850187812399176, -0.009070680827586733, 0.04303809177401737, 0.002264078102792951, -0.00626407075717156, 0.03131305119424188, 0.2653205642241871, 0.08882443499774913, 0.19462512957908237, -5.476866765912501e-05, -0.07900815913548183, 0.027996198752653963, 0.13845940366318607, -0.0474204292331929, -0.049594784439269735, 0.03194786882104588, 0.0511644588151282, 0.027524452703038445, -0.014804199769206813, -0.013294633438922435, 0.0844892335801217, -0.004884170086717262, 0.09642531807529078, 0.03637808455838807, 0.0695872847462423, -0.06096071642501082, 0.06099795702525851, -0.08740136992146748, 0.03967559763050461, -0.09570331681085831, -0.08498004521794543, 0.04515099323512018, -0.1459666967922711, 0.010510034661458995, -0.06046515846006133, -0.06365573787987505, 0.008945870052373, -0.06380137372067742, 0.005929775305664264, -0.11768305318666895, 0.017548944623753504, 0.03657369660864183, -0.07807641439320206, -0.032771851498540366, -0.10205577383169302, -0.09079901133388997, 0.10440179304505623, 0.004141848903319766, -0.026161097218652042, -0.031106360731205165, 0.0009391802236898186, 0.12956140964416593, 0.16402607184792678, 0.057345058591036654, 0.03210419813632476, -0.03946483304349414, -0.017340929887650052, 0.0117314314891246, -0.018879475204260764, -0.06841893023645812, -0.017391650663271408, -0.014128029741002957, -0.005934696882273038, 0.05806202523398665, 0.014510461650974924, 0.012017405192717533, -0.04957762188241845, -0.01212953341909056, 0.1498841061535976, -0.028947061038758104, 0.11521909959853675, -0.04778607665282772, 0.1298585340669331, 0.00694864652849848, -0.08861457628309087, -0.004648775567041237, -0.04989256118832173, 0.03467057436321168, 0.10455696013912473, 0.01747521826078136, -0.12695777598816108, -0.07087505003846492, -0.15067220667848838, 0.07413325864233451, 0.07204910933648463, 0.047141013351061654, 0.03685465307492449, -0.019719611728241083, 0.015107392451640656, 0.02603915777831078, 0.001833930373036928, -0.12607269722656272, 0.09109813443975132, 0.004166851351548805, -0.03582893092844749, -0.06411736911511941, -0.006336682869982521, 0.11311458884971169, -0.07146128260410395, -0.07478413406600866, -0.12420777236623684, 0.060740952791455735, 0.06458410114136551, 0.050775196112509344, 0.008882974125304801, 0.029351140574525272, 0.10418144909063443, 0.005622368425644231, 0.07976455509801705, -0.1098819581028788, -0.08793748288047237, -0.02698109969188472, -0.032447812405949274, 0.04220165267812156, 0.12635009445211595, 0.054911995417841565, 0.011225284853599112, -0.014477566708543244, 0.03692683580966798, 0.02429256498202674, -0.10530274424893131, -0.05410200011765173, 0.023435420163456334, -0.0022762933488008324, -0.015614945415925723, -0.08822112127121934, -0.0510748987940962, 0.065201534647412, -0.08132842069360252, -0.026616993102596246, -0.026765220938495184, 0.001991504815303875, -0.038725490373745015, 0.040642453788978045, -0.08278570473629313, -0.027882385188187135, 0.04609963815537132, 0.07266396434969569, -0.03275972634412314, 0.1670213405984788, 0.07606769278331177, 0.031153912386337863, 0.03626542632189135, -0.0687843387348217, -0.005729659208376776, -0.10179432529501126, 0.04240308540801972, 0.018912381070951494, -0.011902927333813686, 0.07371058152668926, 0.052070015946580464, -0.0531806916329551, -0.07945243946523921, -0.06531168932114848, -0.19782216807157407, -0.026600148370171783, -0.03220009875988998, 0.11254226498218811, 0.15143291203291775, 0.054370398685364085, -0.11320891692825531, -0.0121808659217326, 0.09478904259072554, -0.08167481224954407, -0.1556306310865317, -0.14515303550307282, 0.08664958983800922, 0.07090716410590985, 0.036095617961219954, 0.01105774074358096, -0.14266416226586223, -0.16950269117915645, -0.00975012723198868, -0.06375919333088653, -0.002481814637577946, -0.007114643736243303, -0.0025070431733008047, -0.010296149853720711, -0.22860959873673165, -0.11513057967159966, 0.043022515186906383, 0.1366415592710669, -0.08705664410900495, 0.0617960593711831, -0.010350300198162297, 0.15028161837665654, -0.005258878074111974, -0.1381269483245804, -0.0040865892242221485, 0.07991569371454002, -0.029297365022976474, 0.11809084041541594, -0.020722870219935272, -0.06124290913073345, 0.1603243856128666, 0.03627964763480894, -0.020065123730496313, -0.09837330964048994, -0.016760269415564615, 0.03923245910123107, -0.014078976587436495, 0.05411488321459571, 0.013903411069089157, -0.03010823610655396, -0.05073237956090932, 0.04360277851111857, -0.13062339361033154, -0.053396980767725956, 0.0973993864320904, 0.061382811192136205, -0.07516767569261527, 0.04600894486970066, 0.08763722393327236, -0.003540887046523436, 0.016977448737755665, -0.06900735386981169, 0.03973277677465575, 0.047631030023524416, -0.021823188110986956, 0.009488426846407456, -0.08763448053674264, 0.006828580241035139, 0.08882889394538725, -0.02023778104033693, 0.0472225555439646, -0.07082972658950175, 0.09968717924526467, -0.1646710756226725, 0.010341093059474886, -0.0017871443017552413], [-0.031171326980156216, 0.11878946878307593, 0.12968286825225386, 0.0916216495287258, 0.05690255795108476, 0.048926497459661676, -0.017166501311431437, -0.037543124409577154, 0.06265113252835612, -0.05168138367099922, 0.038469870741006634, 0.023719148331532006, -0.09378184033219891, -0.03595105540852165, 0.03706993328627482, 0.009498599184225626, -0.046863029981285706, 0.09363132637947351, -0.046804680955604715, -0.0291588501156887, -0.05511676055568109, -0.009492844997320147, 0.011882531197732022, -0.12890417388291392, -0.08635898932483788, -0.04145817294196566, 0.08122643508565391, -0.017639408606417342, -0.05732875439794811, 0.019797585240357615, -0.018431954090860483, -0.05055419639564734, -0.069329426591298, -0.05072005914285629, -0.0005370680026370559, 0.07868994410301572, -0.07026543066681669, -0.11037193497057074, 0.042934312400179954, 0.12391730793486716, -0.03465054768231629, 0.04723857459068502, 0.1299768683447429, 0.09485039155153167, 0.08864974776164317, 0.044200277679873494, 0.09671937161287995, -0.02643813094800443, 0.0975514918072488, -0.045615578390215634, 0.02874068192914652, -0.1111763133525663, 0.09295784984629445, 0.019657986009000847, 0.004214008553595012, 0.030985433976150507, 0.08975594223138189, -0.0177780160328127, 0.038369257592984755, 0.06573369220831486, -0.11854879444038889, 0.012525653860772278, -0.07017666676584922, 0.09455417250363325, 0.005559317677252908, 0.0942889542445575, 0.007862372253369164, -0.03793796625185559, 0.02300074954918735, 0.1403250509582526, -0.04057241037975033, 0.10512471006841989, 0.02971582708954196, -0.029368096057117675, -0.0855010210978783, -0.036232282334511194, -0.12435378307967664, -0.029228674999057232, 0.025213671310845894, 0.014886138968188216, 0.030050492914533218, -0.051625541617576653, -0.030332006831522682, 0.041406158818506664, -0.018267818658122974, 0.08234099586380801, 0.048607058251812774, -0.03477488860763407, 0.009693000078505149, 0.1355885832916416, 0.056476153225023536, -0.026221204872510406, 0.08799492723342459, -0.06867026480825382, 0.025497210351399128, -0.23250991752072658, 0.17985469906932314, -0.05929350842338488, 0.12026132033393021, 0.012399691553147397, 0.0019498653212499297, -0.08245301829454461, -0.05798278110141497, 0.06860047092032645, -0.03772591927841286, 0.0054141442294466284, 0.012755078176466603, -0.10854729091241082, 0.14792632473460265, -0.07038231835709823, -0.09671881775692341, -0.03348032023589491, 0.08794984181063435, 0.013226037033332269, 0.030377472271057825, 0.02256564104796471, -0.023460512125299336, -0.03665432992250073, 0.012818392227783623, -0.11402604103519155, 0.009636369535850267, -0.039809992744356336, -0.12859762970215366, 0.020991422637614627, 0.018288978711043093, -0.04338752337991958, 0.007336142650172726, -0.09158354594403531, -0.01365382806714275, 0.014702611182119662, 0.08261319285321736, 0.1418628197698419, -0.02832982279349829, -0.1199640435821213, 0.027309070159149833, 0.023660753097593128, 0.037006719134003094, 0.024520682050599586, 0.125844513693975, 0.028550256885789306, -0.009112471413504629, -0.01758219587386886, 0.009446912073130346, 0.051810561544229104, 0.17127913918231152, -0.036720735033822366, -0.030573725368736936, -0.12207270421323482, 0.0374077449989319, 0.026986676983839976, 0.07233961957487899, -0.019040969228121457, 0.008850764141781858, 0.03696346898861021, -0.02342028822976674, 0.012735888684120254, 0.0345304561845423, -0.10067751433306521, 0.06589167119283254, -0.04135509854382104, 0.10800459868676272, -0.05427866526351796, -0.005907786562866755, -0.002940705926986168, -0.01802529836174187, 0.07282426443073937, 0.04559383710726372, 0.0036953190066557396, 0.11080667938592113, -0.1318969796342073, -0.08325413584407608, -0.029739014531646644, 0.16012543270556392, -0.010006872760195252, 0.014593222599784624, -0.007559592525075882, 0.09655913535941778, -0.017219278700128977, -0.0898849678760842, -0.09805779716950011, 0.10255396315319788, -0.0005906147075896589, -0.01555114774988429, 0.01408914987806723, -0.0554520031069151, -0.07353696514632374, 0.08033838176800194, 0.05340141693586715, -0.026855586759416253, -0.018879117810139304, -0.10075933267850486, 0.21464705911011842, -0.10264766716166895, -0.052120243877410495, 0.03989404724599454, 0.04278635371565005, -0.049618683802556025, 0.086407592167202, -0.058588570899926765, -0.002242215834930952, 0.026467945682389846, 0.0841410808405526, 0.05313659887567927, -0.002635688187046613, 0.011228804857861322, -0.040748458199091675, -0.04909149851514245, 0.17360913708427733, 0.06476836915900298, -0.002134991060374509, -0.11125708216889456, 0.03528333586489803, 0.02515813119987556, 0.06318572453698487, -0.05844266423403744, -0.02439695588756164, -0.04092179961873451, 0.1098951294585462, -0.060354027066336365, -0.10477869432769514, 0.004084920670576272, 0.09322822890786923, -0.10763895786830849, 0.02316604427838892, 0.05079412007978806, 0.01573032450660664, -0.001863349187602599, -0.052390196837102346, 0.059061841196781435, 0.05146561582280342, -0.07677838991008631, -0.06167274097433692, -0.14396403832018545, -0.008492309147482406, -0.09705221953632541, 0.04139682362685857, -0.007299875464751492, 0.045673871273268135, -0.018280911677301018, 0.0008409625963037504, 0.04560605232400801, -0.028012422982342137, 0.03528215754365485, 0.103450682095092, 0.015604474598733499, -0.023906331373987125, -0.22728321378431632, 0.001881517178104104, 0.0692360268753362, -0.027012395297306938, -0.0424785753284009, -0.014541643195936801, -0.19089043557670135, -0.014716492838384037, -0.014338189388262495, 0.02035628964050882, -0.07964711887836175, 0.11870605860653825, 0.10138297071076019, -0.05827584111188487, 0.09504798366636967, -0.03374259277587238, -0.07865703609440054, 0.03175696458564367, 0.07420491951315138, 0.03150943998623252, 0.14879765138670295, 0.10011968260294193, 0.0981329808510029, 0.012376975038405928, 0.02028190021327671, 0.1808568715751466, 0.007630013697929918, -0.01943414662211925, 0.04872892530685374, -0.057551652674419196, 0.0518804771959784, 0.11011823134769541, 0.05738232158451514, 0.18288897762098086, -0.017513202369257835, -0.06301189155532354, -0.059992974772908894, 0.06817497687818558, -0.07043331423799977, -0.07309111939273144, 0.017404143108441673, 0.028708360492668276, 0.008434739183570232, -0.24666867798176906, -0.0291854149409348, 0.07721577797784805, -0.04546805346465874, 0.0557412981317079, -0.014332864017916044, 0.07672259273722032, -0.05740979031654807, 0.06894432351490709, 0.10408369635661002, -0.06463507762128244, -0.07206647835636883, -0.02364696384346181, -0.10103052758672246, -0.08727176058856054, 0.011189412840385457, 0.028001120741919523, 0.01940850148357217, -0.006352026056797916, -0.04427351488003235, 0.03463669923686651, 0.0024538944175745573, 0.0783661523802142, -0.0012339007242552305, 0.008934452988394114, -0.03532029943782418, 0.02965923227029401, -0.0761349925509707, 0.02558606515681131, -0.08516552358768263, -0.013176488935747301, 0.03961026820894716, 0.10155757235656625, 0.002857337107080049, -0.21024089162180504, 0.033760460187551244, 0.07102153840171084, 0.04758570237703358, -0.08154419623837503, -0.014651048825887062, 0.029375748097851782, 0.029371447717533857, 0.04854022795390983, -0.11232027793293599], [-0.033303186740831596, 0.020296116237880878, 0.04505465837784957, -0.21294240341831647, -0.00878081404396603, 0.054133295116850076, 0.022741299569527185, 0.16165786530571957, -0.13426910411080095, -0.022403817255657096, -0.05403123316630778, -0.14206773403068196, -0.059783458435864315, 0.03530462571298908, -0.01550060040170318, -0.005605746881456428, 0.049895152891923304, 0.011381973711727479, 0.04935495603028608, -0.016979328737066215, -0.0015495987747928418, -0.02048072073487795, -0.025047346568686468, 0.14498695397370384, -0.015873519607751987, -0.03207471179960568, -0.07420726308971079, 0.16331464948284058, 0.03371506570668138, 0.03037790103929229, -0.07074098454527679, -0.07120403589592134, 0.07106036055136522, -0.03256096480355253, -0.07420642708508793, -0.0822835896470196, -0.0923581767722157, 0.12613673061241956, -0.005998260002991416, 0.045212470995999614, 0.05006903530233501, 0.042815611499381845, 0.02025716127458748, 0.025406743971804046, -0.15495948474429105, -0.05726266787176625, -0.11342807963847544, 0.12212093407428783, -0.0415623723953396, -0.16106544557639896, -0.04058148567814932, 0.06303086444353398, 0.07077328476924147, -0.058536225393482674, -0.06717676616178489, 0.06972047142057224, 0.03474057201943165, 0.06783013332442528, 0.05872518572859169, 0.030182504339645314, -0.004153944256845328, -0.0078427348155907, 0.046042469770082056, 0.05349890040838087, 0.04780091268569201, 0.0132457130805034, -0.050224583987236913, -0.04099625976813014, -0.044750342945199716, -0.12621955429894333, 0.04586613683235338, 0.027495525737325797, -0.036217604627637304, 0.05626775334736011, -0.05164212299890689, -0.0827644269423962, -0.06461030803228657, 0.2542385149650289, 0.01879985529129345, -0.028179441655369186, 0.023559418702886505, -0.056641066111900604, -0.016009624296943126, 0.01543932107141885, 0.026744974368925565, -0.02866246263268051, -0.01971673716766566, -0.04216181294603731, 0.02825825011643765, -0.1456753067710071, -0.07551534615053847, -0.21928074052894103, -0.06440743084329088, -0.004959915086456783, 0.023868618455379728, 0.07309357194396147, -0.04647167130811565, -0.06692332553414843, -0.0065127791133349254, -0.004092612203136288, -0.062327972112950394, -0.11819425284676545, -0.0057661561129885, -0.03461384084793882, 0.04202321368073538, -0.0031300609537304206, -0.050729228173400615, 0.03873561204605544, 0.02660470991863495, 0.047895171198120035, 0.03889844104481196, 0.07720942472421995, -0.01438009272868115, -0.022726878656607684, -0.08049012945071111, 0.03237066300350709, -0.0722903078098021, 0.1840426808467574, -0.0681823289786106, -0.12640128699202216, -0.07093496045097258, -0.049937331522159775, 0.018394566456210685, -0.04436180852257173, -0.07973004071578303, -0.062327762718762135, 0.0220053100572191, -0.07832913299973049, 0.009458328125530793, -0.08827956240911856, -0.042703008602404766, 0.04515325494790909, 0.11437012607425551, -0.0024036697813840427, -0.14238207679482032, 0.005851785952652715, -0.04328884317986851, 0.059771799229285494, 0.02229692008791043, 0.001964271096873614, 0.04992161993926598, 0.07151571888069586, -0.10822803042038462, 0.13093000868604596, -0.08463138157800887, -0.12936706255950514, -0.024040445256563483, -0.06230155560112391, -0.19311105212638946, -0.09553346998874616, -0.05351735161896036, 0.14624291704255177, -0.03461961956387123, 0.0038261415461129846, 0.0604427907330978, -0.18278667603383306, -0.031052779950641405, 0.0718077026384058, -0.03344176774148599, 0.020532630315290287, 0.017551798600409146, 0.005420986592004213, 0.06961276760459152, 0.02143428541108546, 0.07592665925258654, 0.008950924479169812, -0.022159156731156815, -0.04222542173621208, 0.086545409580349, 0.10914314011070522, 0.012125325301645853, 0.12563259076803177, 0.0660401013477692, -0.03874721739208202, -0.12825872649771333, -0.2076514329011891, 0.001076934083951682, -0.03618595542732756, 0.06788588249268174, 0.10038019273140301, -0.0014040344034402248, -0.048206686667432636, -0.042166286818512616, -0.08128663633445046, -0.019420447324499993, 0.057305697185075576, 0.011839742867517173, -0.019277965670233124, 0.06511570988213482, -0.19701234292802222, 0.006501508585344513, 0.014914415977760111, 0.11975880364313692, -0.07448937437772421, -0.05502877163392578, 0.11270425917433698, -0.03434162716072169, -0.03824677328132786, -0.10653632708787156, -0.0015377040373590332, 0.03940875097455967, -0.039161498502139715, 0.002407063130389788, 0.16768951554708367, -0.12760266184532357, -0.019574884317405783, -0.11536096487042802, 0.0399226535410752, -0.022482626919057842, -0.10559907716742545, -0.00771435151577502, -0.012896541664307643, 0.11326012866766272, 0.013252473437325272, -0.12306587293272735, -0.0313889624010505, 0.04660465986079932, -0.04325752432527257, -0.09922817367469484, -0.04433636295822739, -0.04787913172461678, -0.17735216795663852, 0.019567701776270464, 0.0757245307685708, 0.0702149422783394, -0.20597176494539632, 0.045751095512990635, -0.051693737837154204, 0.06028327125572736, 0.10493048121757438, 0.12616699862756894, 0.06864229960007501, -0.06516047486002764, -0.005110643571587717, 0.02253839539329574, -0.09516211469553607, 0.1954001051926894, -0.10551195100124325, 0.001389804968397419, -0.08704322613116916, -0.08821987108731348, 0.014972953919733568, -0.04090224349319279, -0.011271624928081028, -0.058144164372944306, 0.03827133541226887, 0.09074310312189048, -0.10708533952256674, 0.033986547402721785, -0.07729911115135617, 0.08299766691276533, -0.1455624109266513, -0.041600277301903736, -0.0007897195375842311, 0.024847859703710562, 0.07042801031538433, -0.048466218659790394, -0.03132883517965837, -0.08714725150177588, -0.10293146414780961, 0.07135680195457311, -0.13651868690248659, -0.03092809952425624, 0.010772517829308069, -0.04358015617934256, 0.02299719236895108, -0.01805210376828487, 0.041456026501066744, -0.06356239112892621, 0.09289101929530741, 0.015955141315737414, 1.6254371156269727e-05, 0.004859476809198768, 0.0963327909006548, 0.039543380223587776, -0.0009614643831807862, -0.087229837231425, 0.0025593397266861903, -0.0679742044432624, 0.10607844216927581, -0.020867836247482324, -0.1461401224927771, -0.015324373974644355, -0.10563754490593918, -0.1369745764516367, 0.01002394037354824, 0.10006237165656615, 0.1032712185094702, -0.11228063080381366, 0.03521243348743905, 0.12286175776450459, -0.012178547543241774, 0.030041986348193543, -0.012480769310311736, 0.03446087300789642, 0.04391229004828273, -0.05743635500959056, 0.1357164879490626, -0.09091728770769555, 0.031343011331229166, -0.008634113067242955, 0.03381135394829947, 0.08451369820667254, 0.07851612563769356, -0.0436440853549434, -0.044697523367051684, 0.052724802492756746, -0.012996463535799512, -0.07793119878182307, 0.11063695649821595, -0.1479624014523714, -0.02359781159819373, 0.020361832225766992, 0.045259597212907156, -0.11425666996637146, -0.025527816545982733, -0.13462908478263405, -0.008763907897396122, -0.048065754244900546, 0.08942668143900447, -0.011760481750499801, 0.11248176500987687, -0.054933811209532085, 0.07496439228301346, -0.055734129995197286, -0.009469366109106064, 0.061253406026520234, -0.12698427637715595, 0.026625678478144038, 0.06396425272053348, 0.06477559804954049, -0.06673617274191947, -0.020474110813907848], [-0.006274936527348349, -0.0594712834022456, 0.020704593989374197, 0.04459249408843231, -0.03947611137642988, 0.05356201258895858, 0.12072806874288088, -0.012870375716714264, -0.10224369599054013, -0.09153914122192511, 0.012649993566606194, -0.06266443696600231, 0.16741989676742555, -0.053348409325555644, 0.044943087320444226, -0.007418603512042962, 0.1472579907376964, -0.05275515907460586, 0.040256149988816284, 0.0993734047243495, -0.04614682864947557, -0.0377991341360882, 0.12993393224837044, -0.04523402973403923, -0.1231539706637469, -0.10216104281806285, 0.11252829131338286, -0.04923125400670673, 0.00632105983586647, 0.05759823571222296, -0.01022515936882911, 0.018276497697321654, 0.03801085370083316, 0.07799012755232763, 0.0003922410554692695, 0.08578696622482017, 0.011819142274124669, 0.07829836302017379, 0.01967347365569984, 0.010829998097794077, 0.12251529281322382, -0.016758656371834595, 0.028760129565439094, 0.06263805755412696, -0.032133482324906135, -0.08215786131184197, -0.027379656073874582, 0.055444436717559706, -0.08995604537269884, 0.10479370567899811, -0.11249379118303933, 0.000526900747940566, -0.17125221489014802, -0.0027097491505374454, -0.01315997237800566, 0.03547621234971865, 0.012190982398406618, -0.04239677669825763, -0.10170884590624302, -0.05094916729503848, -0.08512724481820784, 0.024520238558457575, -0.10499257055859698, -0.05380752575859947, -0.03771638732116505, 0.03072769819251863, 0.12203750869488968, 0.010554439574653199, 0.0010180532357127394, -0.14865595246453428, -0.06199358440210584, -0.11719643007161121, -0.13681566236836026, -0.18696724889598768, 0.09357847080602487, 0.017418278355184426, 0.009481726633739715, -0.07054694281017479, 0.10195001540344902, -0.07417177113229331, -0.02517037459341935, 0.11151218061325893, -0.06898962934699922, 0.02563631866070322, -0.1786967170785279, 0.10025144733760796, -0.06036360546722071, 0.1444432068361068, -0.06555569819521323, 0.04738050163743629, -0.03422292755381858, -0.14072574735588403, 0.033460203845694876, -0.11272287936848441, -0.09572614313892919, 0.04498736308679321, 0.08693841425978223, -0.05603713678100609, -0.018682980619948365, -0.15024144570353332, 0.012521374318926793, 0.006360377413885792, 0.12546150159854355, -0.0014931456085150745, 0.1590322063964863, -0.014904416387995927, -0.05851203290396037, -0.008640763390185793, 0.027797758150860715, 0.04579877504111898, -0.03433057436944195, -0.034783744652050586, -0.13725056644350095, 0.0021957536333416456, -0.034980560668076636, 0.02548361570930492, 0.004384341460495416, 0.04265415454269564, 0.0040296951680508925, -0.028399777390288372, -0.029355834159517723, -0.02561406717335076, -0.04668903496029964, 0.04807163133563932, 0.008601371828752938, 0.016240401603851668, 0.03724679568001284, 0.10313966143333919, -0.08479962018927768, 0.01205193100045203, 0.007949125077742052, 0.11729081360401762, 0.11804034215456133, -0.015070348676917653, -0.03744222710477651, -0.11741758303597237, -0.029201126395273492, -0.07921750616347939, -0.018737290919565046, 0.07098791188748346, -0.09007325915523952, 0.11892676936255646, -0.041899219257105026, 0.026586368982978982, 0.19533091271714936, -0.06633820703339628, 0.11988221865050654, 0.12173143096144168, 0.10719221912445864, 0.08086026115203498, -0.19574492778118097, 0.013122761245317317, -0.05023093029462785, -0.04111078278872195, -0.08072256163826827, -0.028859192008674744, -0.013465953717906957, 0.09544902464605279, -0.028242855048247088, 0.03390820709501235, -0.10755880076405391, 0.010867211355675553, -0.0024194460416039555, 0.00696632670289019, 0.085698166955925, -0.1117969225890868, -0.11062426950650438, -0.06358463191439066, -0.15980447641443968, 0.061856643035705657, -0.029236442385762534, 0.08398833994951799, -0.061139125236146105, 0.005344264669093122, -0.04462050509919105, 0.1862552993336298, 0.013993768242732055, 0.056428470717548036, 0.03652400900960563, -0.07175673739856087, 0.08851444967326635, -0.002954488433719217, 0.03720171169792742, 0.02552612589487714, -0.02999633548978353, -0.07719024022234153, -0.09580989983835693, 0.017251330169072335, 0.049340493917928246, 0.06920502385620855, 0.08960484854479063, -0.0467089050124418, -0.0002628545244255841, -0.23415587100832552, -0.039534440972562236, 0.04605326594622344, 0.011160217109631648, 0.0856490444597247, -0.16360629164800494, -0.09174229736224693, -0.08966351996618033, -0.010175137873910473, -0.11935375599960495, 0.05411403681502863, 0.16317310588716472, -0.054127875918894695, 0.05002224927580342, 0.0680540249001736, 0.11932536036605126, -0.006319867771598638, 0.08918961344358652, -0.04873739360390784, -0.02255984714770592, 0.06357840982211267, -0.09500896474251068, -0.11102508734434535, 0.10108871919763389, 0.020234591130947208, -0.05343869203671286, -0.04975338703155575, 0.0490313454437489, 0.10198814544430801, -0.17172539159513622, 0.08563189823519572, -0.015802621084860812, -0.0005716322991852401, -0.07749186178676168, -0.000906189162876393, -0.10535092367978917, 0.05915973436942198, -0.13332179636547004, -0.08409482083909525, -0.12985940926026301, -0.008305218445129967, 0.05496993766775868, -0.12998950288365776, 0.09543785399268756, -0.10382947303168533, 0.11110562650477492, -0.18545625636542634, -0.05677869365089835, 0.040167432264144085, -0.0017427216129780525, -0.03771702695924119, -0.08527071343999745, -0.029265130181565284, -0.08667740850994296, 0.14464211120818007, -0.12812832309523267, 0.07235148747383613, -0.12171976630699939, -0.09937930665716158, 0.07330422831374374, -0.02069928976169923, 0.006552701349727397, 0.002440679975331338, -0.07871940527655774, -0.12517284627860029, -0.13645846284346755, -0.08641356339281092, 0.018253040228080494, -0.010373123896569858, 0.006480587838061534, -0.027389009330875777, -0.07900824124322328, 0.16538343442979933, -0.13640629281034047, 0.09074196720344875, -0.028434060314544228, 0.009616822492031525, 0.05687698060116113, -0.023942575737674315, 0.022466459801415768, -0.04286851791916857, -0.07406063589832287, -0.021216803518739183, -0.013570625761158065, -0.1604131976468979, -0.008811244996725358, 0.04230885305640611, 0.10490342679634193, 0.05798744717151633, 0.0007975850079158048, 0.0057184061523317415, -0.021891649081247116, 0.10604423735498662, -0.02932428481592057, 0.0022645341923318812, -0.1640790359360611, -0.053170090995951526, 0.0019003455562578652, -0.011234922099207371, 0.042347633114440994, -0.08621244788858586, -0.041609844127340416, 0.024879486718178946, 0.10609277505400312, -0.09867096869577023, 0.04833783985520876, 0.038801924589269794, -0.027534342465120848, 0.036863724348525785, 0.07013545066822807, -0.1548723765890467, -0.11987487496663535, 0.05114545308963223, 0.03500607101420865, 0.004908780989116723, 0.050769944318480906, 0.024874451937913787, 0.027347722458957967, 0.11429525625419415, -0.004900709436411589, 0.057577880333843215, -0.05791236811216167, 0.025048896033962396, 0.0067265467858710305, -0.03048871189780834, -0.129124371635034, -0.09877432276055917, 0.022891258519260653, 0.06612764675069742, 0.006166767452534461, 0.13232463355204882, 0.06390463465255838, 0.04668529530116578, -0.009547898665390844, -0.0021009370316601456, 0.18182132115062097, -0.16587187346771426, -0.013670116166358298, -0.10062093007719033, -0.060412613072113756], [-0.07977864140684417, -0.04679584795487135, 0.03907790392045772, -0.03400513261590485, -0.1389169916496176, 0.024972517987129673, -0.0023057288911738933, 0.045849016150610614, -0.14546936138160765, -0.006098693735846386, -0.010767376379535369, -0.004646450183277736, 0.06022964896805315, 0.0503249398042071, 0.04325223939347219, 0.053613605081483516, -0.04465675602230964, 0.10294294556160662, -0.009699494914367253, 0.005557121912150092, -0.06065797160485077, 0.13687788108998775, -0.05376863146010096, 0.030852390569026424, -0.08892186520276056, -0.1413151985801892, 0.019120332871522372, -0.020182323540758194, 0.0853602405476296, -0.03093698635944243, 0.15554288297372482, -0.10934954054984634, 0.006009837593067469, -0.07442110225239647, 0.03208501628991826, 0.09647896546339223, -0.024607489931122682, -0.05445769992507031, 0.04476490329333757, 0.09722585797290693, 0.11094768207563831, -0.06663430103470087, -0.13347132724441743, -0.020267118708856544, -0.04478962528964833, 0.14269888533806874, -0.1036808583901275, -0.0656677732973282, -0.04583429673144562, 0.09606453655592957, -0.028765003556314086, -0.007455991994619749, -0.05161021532755435, 0.03269470251622759, 0.024684941168318243, -0.006547851396350953, -0.01771248677775947, -0.03689942883748405, 0.03598369970463241, 0.051252093277403654, 0.0248086332693278, 0.0891058355878526, -0.10620625447370251, 0.010128806575149613, -0.011926328172653631, -0.01931414324829178, 0.04537468214399421, 0.10451075120618854, 0.08092226048919199, 0.04209931833308698, 0.022820546125273348, -0.017545828358424113, -0.014222537601121434, 0.09615240807513936, 0.11053857549533667, 0.0612653369436039, -0.0090663944343357, 0.009255311654742948, 0.03938859156561829, -0.06156678295933205, -0.13535292930095394, 0.12029592667103504, -0.0988481237222733, 0.03398731712696037, 0.1413733509196591, 0.1321696245639033, -0.011015582330676617, -0.058719658585249544, 0.07065609997904951, 0.0035911185213325487, 0.02619255522254371, 0.002570066398361536, -0.044588514740527635, -0.05079680520383717, 0.06444787630022529, 0.07526927047443716, 0.07107455487032663, 0.028095842209718246, -0.10323055944588498, -0.051243542890864587, 0.03388550825321071, -0.08471935865041907, -0.10304543405038749, -0.0030711453079481457, -0.16810593781736083, -0.01113756041056976, 0.019169948534459653, -0.05465133827295355, -0.0462738064005621, 0.013793322933570702, -0.0717767554947114, -0.012640102746493145, 0.03187105490747931, -0.006560886182066504, 0.025061999671187482, 0.004533826034504677, -0.020901958380418115, -0.02854247297529896, -0.11160513208605238, 0.052299058228028134, 0.01730001027518088, 0.004490915083376998, 0.062128670210248996, 0.09110796463729406, -0.08206805235646296, 0.011047565931521197, 0.10316048398116617, -0.04666784235948735, -0.05830963410240024, -0.09162947242345428, -0.1259002177924143, 0.017939744683571762, 0.00758321675871564, 0.07076937956572892, -0.107873025433695, 0.03957473808507638, 0.09068241658746314, 0.156037834591921, -0.005255970760908732, 0.11068693305777004, -0.039179788639606035, -0.03161163878526429, -0.0316886577086336, 0.10449151731952515, -0.10780289103140368, -0.05885751007086168, -0.021044212737218286, -0.09568178137618877, -0.059199812687319456, 0.017543223420694237, -0.0007766542890624092, -0.08152543651287524, 0.0744980920562113, 0.05557382761485443, -0.12760501912906402, 0.038285563518988375, 0.053873202334439645, -0.18811163883334173, 0.059307979255482986, -0.011308408618829278, 0.04849595097053939, -0.03749254854344449, -0.03373439618382218, -0.038552098053875654, -0.019895946189006426, 0.012183326091793146, 0.0611147094226967, -0.05647427625987403, 0.017601273724657616, -0.05215724072883247, 0.008854452172737962, -0.023056452583073473, -0.10245133064500436, -0.033982060812369985, 0.08487323734261167, -0.06826078653183935, 0.06429622685784901, -0.1155368300101144, 0.05162978875604949, 0.0020364145587636155, 0.19603262849434164, 0.0009498868397029178, -0.14460950174588857, -0.07283177277064136, 0.0010332583746633854, 0.10441509497700545, 0.13184639688242167, 0.06884656554258207, 0.12652212941528496, 0.030949562019062474, 0.024720451235314075, -0.04603864010978173, -0.02947431031436548, 0.004052759928037194, 0.041859085036279824, 0.027744904141396947, -0.008442947099787082, -0.05480008911587908, -0.0061208447870593355, -0.1287943261332023, 0.1096580534485184, -0.04030099638568979, 0.14687376019300238, 0.01644554616464532, 0.14362610843376108, 0.08575673131876518, 0.013341316682013969, -0.04086950479211396, -0.09575898737996262, -0.04869487684793552, -0.002944389703829075, -0.07821645044288478, 0.027022413437139185, 0.029679143275554615, 0.12274975032871445, -0.007072121880988626, -0.1210118729999608, -0.028633363405969166, -0.02600319216688882, 0.05524313130248508, 0.07940006726204919, -0.0861242210952946, 0.05442740378924641, -0.032200285086137474, -0.10745174269645452, -0.033250869487020836, -0.05907934108560337, -0.11641434713256955, -0.162234405806861, -0.05525467895776998, -0.054504103541181896, -0.005259258785285664, -0.04763742338091263, 0.10448203779892964, -0.0851183260096734, 0.004180897764809632, -0.008114802460293277, -0.005534652451453312, 0.03852453392349824, -0.015611423436195695, 0.08042595021007233, -0.019148828195554815, 0.11096341253177372, 0.0684656524953265, -0.05185152730550897, 0.06402825105893456, -0.08951790532608907, 0.04125167290201286, 0.013299868698995146, -0.13052666311502809, -0.03833001335894175, 0.08693520512869476, 0.06101563476018062, -0.027078443033684212, -0.045945400979959757, -0.10901842269876942, -0.06752849132652415, 0.03174556956989133, 0.04022647933899344, -0.043721542067413584, -0.0023532547082590815, 0.10119955430988582, 0.0356741284160214, -0.10690144806964956, 0.050544436411148266, 0.016824291888227868, 0.1176916609739729, -0.016646242700290904, -0.07373123072298357, 0.07913086661256359, 0.07583767757890064, -0.1510715465551961, 0.015655196073248053, -0.06787065893337442, 0.17638195309093815, 0.0021921314069283516, 0.04658093322316199, -0.053210114703035785, -0.03781545568884589, 0.049296618613143536, 0.07342174303142414, 0.04878059049381291, 0.022912233110704113, 0.02564045770511104, 0.08967748800129859, -0.04424623683259177, -0.07975409223099099, -0.13967752006371043, -0.005615899144330097, 0.0006134203255559929, -0.06509583859135366, 0.10122393959934675, -0.05425824303599131, -0.06659149257958487, -0.11193902254596284, 0.08148184114274673, -0.1519507598422461, 0.03837275214171517, 0.07605008910666604, -0.07144439825437432, -0.07163689667325221, 0.020256931803873182, 0.02784707036694696, -0.0766558028859366, 0.03747593894272149, -0.05406218867653297, -0.021453374459748435, 0.03299355419081689, 0.04005560066629705, -0.022134579282811297, -0.008025146708415434, -0.13156962520604693, -0.08921238205952087, 0.0020974359761480824, 0.017363688971425227, -0.07613990519009058, -0.05199791565646463, -0.016044892112653454, -0.01759543210932774, 0.12467530488849107, 0.018865465300880267, -0.020433943346308645, 0.031945615594023404, 0.008107129716959264, -0.1499203372958611, -0.04304342124154433, -0.03491139981572377, 0.03858151002001347, 0.032306763149491886, -0.03186363274222605, 0.011931445974894182, 0.04246909348606694, 0.08210842078538381], [0.03327523856657412, -0.11239908470093032, -0.0560430507233813, 0.000350739114113485, -0.03582446351518604, 0.17777182088077856, -0.08414996178080844, -0.020322927729717746, -0.00024342764073883593, 0.005474826276795198, -0.10844051196372359, 0.07072984006351139, 0.17947165910840407, 0.13810576307845546, 0.06367218824786562, 0.04083273568666763, -0.061361468708935156, 0.16970365749381194, -0.0766924350774315, -0.11551244005575541, 0.11515747772267976, 0.006746263905721778, -0.10317021820670383, 0.017355266010557594, 0.07348726395137296, 0.12681167639342075, 0.10255354451369451, -0.0016422787983747435, -0.04167775048035075, 0.017896706012356257, -0.024599806462376556, -0.07862596819055676, 0.008562447728138627, 0.11958874955411837, 0.009354319708229518, -0.03352871597081272, -0.03254348790486637, 0.07999007369540864, -0.12044334991693582, 0.2661401783702445, 0.015967139271599474, 0.11452330422201841, 0.007851276161380713, -0.05531214282637927, 0.05516759182977021, -0.03372829130103762, -0.040636020484072506, -0.0755325415710772, 0.0683591707483679, -0.06203256196100641, 0.006123742539539233, 0.008978190531744219, -0.04810501869257762, -0.024563752367322843, 0.05265599326403986, 0.022928273598529555, -0.01535028960269528, 0.00194840963601926, -0.039161128868953565, 0.05843437689261713, 0.032340694320174876, 0.1767496443786954, -0.08549822858272957, 0.05799742397678721, -0.0005141778169763967, 0.028181953897219548, -0.016165133040345014, -0.039857377582904786, 0.03922670899595429, -0.0168160314754936, 0.0017393505963161475, -0.006568806763554662, 0.02763982846756891, 0.06476373474359762, -0.04427058209012868, 0.020954751500116775, -0.0035075545616756773, -0.037298486662513015, -0.09815861082112844, 0.09428669638155922, 0.06881110225714121, -0.07503855056971614, -0.0931065238783719, 0.03454432132465099, 0.03931506380895258, 0.010915503634968498, 0.0744670311161978, 0.10850291508498068, -0.0546135946323577, 0.024985931632190518, 0.032096373375843125, -0.006558935039161764, -0.0508463741967079, -0.03655342042833159, -0.09647497254412322, -0.09116204850636947, -0.038357580530807824, 0.05386457672545716, -0.03285578955383522, 0.08974129371795483, 0.0315293588965529, -0.13170981857268296, 0.08651521849402742, 0.012796379805466251, 0.038624001903555805, -0.013856620867647667, -0.13436652073933686, -0.05361671345356513, 0.01310768793860865, 0.0195979226656362, 0.08089035166895668, -0.09922386992152316, 0.010469777603782376, -0.11548259902166416, 0.005697120141841659, -0.1698229309392123, 0.056705242533598835, -0.0867179589755187, -0.05593759003310392, -0.12275969126718089, -0.09110729761350336, -0.0844699880256884, 0.013813243350071645, -0.10868302744757805, 0.011407288713726604, 0.10771195455448118, -0.0789806452779313, -0.06481352158372265, 0.10115865179379428, -0.09656862194021666, 0.07047098426885111, -0.035302671128410006, 0.009021900506730709, 0.03353038748680036, 0.09495146535751194, 0.02343660005593477, 0.1461576367386386, -0.028660806310539532, 0.03410596690594491, 0.10073600164947408, -0.08339648085278195, -0.023129312730081317, -0.025110840587369534, -0.020915938253360123, -0.006763041864439912, 0.14105957968400196, -0.04961156782400667, 0.023256430270839065, 0.13064313757966067, -0.12691185453721507, 0.0917555088664537, -0.07178931491088184, -0.05982185067002785, 0.031579862292642216, 0.03668825143000661, 0.04645346791638112, 0.05616196466771668, 0.001083350848596564, -0.010285832243051416, 0.03818319468064303, -0.10228660017488993, -0.008123011182471301, -0.019589920328591894, -0.033151781394660906, -0.06543435070102034, 0.10218099345851205, -0.039584511187115125, 0.022149122625216112, -0.011338366129157715, 0.03410641378668377, -0.034904161547332516, -0.0344861965118318, 0.08245913736778655, 0.16069380712273798, 0.010622668918305036, -0.20082991140820744, -0.00305033730832831, -0.04362256385590204, 0.12201360748467016, 0.03781493030722848, -0.04642175462188314, -0.08111897208683053, -0.03407424630110829, -0.07131922533053811, 0.042002536087684145, 0.02126176031794103, -0.012126735952894915, -0.03835569772530109, 0.10783989131963476, -0.04011652786973234, -0.009695713939550406, -0.021267599199233985, 0.023780938848800556, -0.1196954973121616, -0.0672104399424392, -0.06512946158560887, -0.052137134018011025, -0.07060627065827846, 0.023943848544261553, -0.10738116435387206, -0.038338145043449054, -0.11172781141114597, 0.18339202056138765, -0.06413117977493944, 0.0052209817584894826, 0.05079431112578711, -0.11756219146169972, -0.053354525623925945, 0.029118258673305447, -0.0610440218971971, -0.06235901327224862, 0.00483787294283386, -0.07042859062450751, 0.17979439572451075, -0.03921859237885881, -0.018418108687140892, -0.05963353257676737, 0.10486863189881034, 0.0842666366479919, -0.09542212841026373, -0.003701531127842049, -0.05993056055597997, -0.09308524794390502, -0.03203045433148786, 0.0037171994256932008, -0.012202187705425192, -0.09451011520155836, -0.042206330267494166, 0.059620386607595985, -0.12661731356490252, -0.05311165921435975, 0.11372934175279262, 0.04901470649764274, 0.11989046298320769, 0.1560063348390441, 0.09610190245096281, -0.022212484518090155, -0.05930703705823841, 0.017042559178664585, -0.10502443593514878, -0.03880032683824313, 0.06935325940084855, -0.08996915526473678, 0.0733157867662128, 0.05459580850427459, -0.007601583232410551, 0.049815096231685604, -0.11115481512689776, 0.0565955224271922, -0.01429588622323752, -0.001616329268920787, 0.2162727566004883, -0.04135633912301436, -0.06289281724805601, -0.0024617888229764707, -0.0034745859974630727, 0.12197875735544317, 0.00033498206757970436, 0.0029040748444598176, 0.07475332576416209, -0.09155568935343578, -0.13549836129357143, -0.07828379089829801, -0.021502664093809073, 0.060744438690079644, 0.002375351559356835, -0.06319699995415447, -0.029014233614608288, 0.011972168133976625, 0.003334192195645558, -0.1040762888175505, 0.06612143000339647, -0.059420530603922696, -0.07261075049337434, 0.024596590539858167, 0.031291831065549953, -0.04918611141468187, 0.07385156220241504, 0.13252686106492662, -0.09068341763535286, -0.09845294618829006, -0.06682002439599372, 0.06408670713046227, 0.032510049968710326, 0.015393077602196222, -0.09920347121875532, -0.049073865628865565, 0.05048133678585398, -0.08627736686978048, 0.1265624230467234, -0.050120350677077596, 0.031863485175720144, -0.013156946736678774, 0.002260277484330193, 0.056033727563591165, -0.003544393116292641, 0.07820005373308817, 0.06817894718826512, -0.11975895987836008, 0.04437407502402292, 0.0005681555689188115, 0.02836631672534569, -0.04960452114711225, -0.04707239149884348, -0.10469759383041592, -0.11260693961273792, -0.017854664754185404, 0.11136487055959725, -0.001274680865646882, 0.012272594005026487, -0.11537785158168438, -0.030985441061966025, 0.11201708281010546, 0.16090296231013881, -0.08728704829978692, 0.11715604601976584, -0.009107509356996913, 0.04472207388294758, 0.05057708532663069, -0.09606341889085634, -0.05749383684665772, 0.015522755580710429, 0.10269661357837445, -0.053371926059596925, -0.040467161811253816, 0.04762852466771537, 0.05592742446872574, -0.016376352544004463, -0.1128623080704595, 0.1198291174336043, 0.06218432311987247, 0.0044740319137987995, -0.015310864526215898], [-0.06968391502110595, 0.09551459893688334, 0.0688762606593248, 0.0011568717303493648, 0.01755712650284155, 0.04890389771308803, 0.04343732913534736, -0.019828165673616942, 0.06504828515835064, -0.20303322414915811, -0.04948219629418384, 0.15550799639218743, 0.04519064259284835, -0.04647422117824046, 0.007791675147157735, -0.02663280616682854, -0.11902194027117592, -0.10971593736141819, 0.04446449276822424, 0.05824028516667023, -0.042363620656584895, 0.11186918237254752, 0.049850064645509146, -0.07938836366128942, -0.12973083098333735, 0.0731223643518104, -0.0012581068280380313, -0.10788211089375667, -0.0464961404168854, 0.14270332077087947, 0.021676207168696986, 0.1189631876794632, -0.06034626370788622, -0.03521028937155306, 0.021043634243944887, 0.017451587140663565, -0.0901451909015992, 0.035912458827483375, 0.021232348199981346, -0.08734387325772995, 0.02570319290080846, 0.044221728336504576, -0.04173693828581944, 0.007692250297702994, 0.06139813447917937, -0.013422974069258005, -0.05653882729207154, -0.04231219911610057, 0.02401696045583788, 0.0240125982068893, 0.00553183777137954, -0.012997990323294063, 0.03749652024516045, -0.0035850691944459495, -0.0012600233550481349, -0.09234275551327938, 0.10246592308529458, -0.03184078490059493, -0.15302302846595411, 0.06361367137347182, 0.06332140214018786, 0.01513587360564353, 0.03905686260738284, 0.034744629813780514, 0.09270707339419049, 0.01354469875710717, 0.0027312376297966273, -0.09049893353518222, -0.05660586435179175, 0.05388164677355928, -0.11684198823760857, 0.017572497681523858, -0.049978797624861765, 0.08629832848505777, -0.16870000430680132, -0.06137633555819508, -0.012246173966070055, -0.2297527994175692, 0.041386136963934346, -0.00029592824492204314, -0.05815528480209215, -0.055109305738346256, -0.00453579674040999, -0.009581438707252976, -0.017169378146090476, -0.08959557518516947, 0.22253414355686674, -0.04362438468674816, 0.09363092736584634, 0.031501304845190155, -0.02295890045574503, -0.12408602735554228, -0.010492339112793092, -0.009715005616869598, -0.11610159233049763, -0.025218983228596746, -0.10231903587946169, -0.039525322312182275, -0.22014526286571975, 0.009789871021646364, 0.16080127889214882, 0.007962083073104432, 0.04954663612365208, 0.031464083827665766, -0.04775400543827638, 0.0914093111301338, 0.07999686855662913, 0.07863401626400707, 0.06662520878474848, -0.04811763352715997, -0.1271404043453075, -0.047053366558919466, 0.08862200205063543, -0.02074811198515065, 0.042934790564350456, 0.050291268021331256, -0.11900604467064979, -0.03177470042250071, -0.0392779852601297, 0.1543326837677403, -0.10104864034637626, 0.04286649370843402, 0.07167796077676447, -0.045252911713367, 0.033292612516110626, -0.18377251690206425, -0.007158325799141199, -0.011754478775169042, 0.01700467919615964, 0.10906099410672905, 0.02832978799240752, 0.12033408875119848, -0.030904950472836097, 0.07085194204229098, -0.06523847824597441, -0.012204622466503038, -0.042725174279623405, -0.037379926865966806, 0.05089664576864985, 0.027338408788544807, -0.07077662228170334, 0.008694792139880331, -0.007106435532487292, -0.045568611863825215, -0.18288432996771714, 0.07893950367075807, 0.03726909093200923, 0.03454698565586216, -0.07802224727054183, 0.012544804860424872, -0.09875160891444303, 0.0225911112350964, 0.0033360287491050675, 0.11734223055682082, -0.1014585644613938, -0.03458103968120544, -0.02570177428287901, -0.06582342249416043, -0.04412439294947407, -0.03403295339705062, -0.004487620262201031, -0.013183615570880734, 0.04918899983336864, 0.043172189188219995, 0.008685453343129554, 0.1457346497361552, -0.07124145180259092, 0.02146282006099809, 0.027702347566449327, 0.005122352227462365, -0.10713244796126173, -0.07447556024112205, -0.04557448855391582, -0.12320003434800254, -0.004792744133911949, 0.0769832901179047, 0.0485315784329493, -0.018308665623485768, -0.0007440523694252957, -0.051592567341667984, 0.013882343760042663, -0.060414927706868876, 0.07474599164416298, 0.10977925638553056, 0.013186997036841577, -0.04426764167283917, -0.08420955821264663, 0.04067770328698635, -0.04820242849850882, 0.0713426725020218, -0.032048115551051165, 0.012626751861188567, -0.03481254627101228, -0.062091204867430506, 0.06106824113534941, -0.0759675289098831, 0.11475113870166129, 0.10815215834692922, 0.10257199575466455, -0.004536282608373028, -0.02752452883918863, -0.208456157011837, 0.08295944281199895, -0.03716886228503184, 0.007532455484273892, 0.09592944795365198, 0.02820816118066708, -0.018104406358392257, -0.066575408881396, 0.10556470506585203, 0.07269391614401895, 0.031955664606386686, 0.1252932703210966, 0.06411070284432728, -0.034468580075771436, 0.0066590067640336335, 0.13948701173118971, 0.1335442794201013, 0.028319109476052852, -0.024359606336745842, 0.028240476119433398, -0.05314372939425605, 0.049924691894429975, -0.014258880709187419, 0.07711897667771507, 0.027906503634382393, 0.0005282851983447524, -0.130272169652316, 0.13664394402035124, 0.014208650583093271, 0.10191999461292214, 0.07411614001259906, 0.10493360586464466, -0.14915584416605118, -0.15939601910780712, -0.13694352514442845, 0.08071865708033484, -0.04767741125373807, -0.10703624059354327, -0.05126458983877185, 0.10263302232667812, 0.12180233724288513, -0.014353937362001426, 0.15114696069693134, 0.06000118288613317, 0.13928170286684194, 0.005154720343427883, 0.04449916223707104, 0.04860983247219726, -0.11380193551173794, 0.16946134231070306, 0.03864876346410714, 0.06404557998137846, 0.031071238097537448, -0.015388084677194113, -0.07743532095497685, 0.06654370159608358, -0.14930164936595014, 0.06480586663286103, 0.05119255028011337, -0.02087159134768032, 0.15584880114763205, -0.10081676285985047, -0.01190747400076508, 0.020439938202741422, -0.04767795106867953, -0.04060303742120362, -0.015392578812630163, 0.16182634324051323, -0.027125959947251622, 0.008107672523451298, -0.038096366765515435, 0.06122857571752612, -0.06249243423255274, 0.21864515764437065, -0.12744633091237448, 0.1855921355817296, 0.008405464743106333, -0.044449679779202146, 0.09604021048454339, -0.03384114559629625, -0.023307718019402145, -0.05592315143584754, -0.05785218272480623, -0.17769243283510353, 0.06336383118186678, 0.05208370688854316, -0.10574512479776083, 0.14443335515844785, -0.0137950643051753, 0.07141088406026092, -0.036985812483428845, -0.02001382184923599, -0.14489493310117163, -0.014386131914667677, 0.11150235509942716, -0.005213897856432668, -0.07366203996023629, -0.12528875323404515, 0.0701533049260453, -0.10131782908198948, 0.0650877758272291, -0.04317917285817657, -0.030939730271334658, 0.0018470657131384042, 0.012126831331913229, 0.019646472268802697, 0.05353631816196401, 0.08114638024150116, -0.02693861604883393, -0.07458333587242989, -0.03238568676479609, 0.02755378574775698, 0.00290325164791664, 0.10095073221477921, 0.045066869058670356, -0.06857716576735595, -0.16043293640332815, 0.00574604113341126, -0.004652211938306533, 0.10448171892638275, -0.10732986101867982, -0.09737150379877235, 0.020100259297197682, 0.006896963947565455, -0.16740465482563605, -0.0787720724011915, 0.08629678519473913, -0.03808907095858602, -0.006762821988909096, -0.04467419501515384, 0.07647685922519994, 0.07492169449741852], [0.038170529311668484, -0.056194874488481726, 0.12709376513898143, -0.008452719059651873, 0.02600671267823551, 0.04044971970767084, 0.023562294450927668, -0.04258788228482479, -0.0099656110617672, -0.0011482587945367407, 0.09558359824399854, 0.11409529776306508, -0.018160145888983518, 0.09022996103629438, 0.12025181684654845, 0.02028566767506847, 0.11782401376235269, -0.1211064087495176, -0.08860400678163816, -0.11495318020579616, 0.04983684669078333, 0.007205867284548984, -0.03467213217434829, -0.05294390947952077, 0.0275983953169928, 0.11068770101540797, -0.13471832501976605, -0.17211468231484198, 0.0629635466944049, 0.059758873516190227, 0.030385665023072925, -0.06895019791964908, -0.05964362644744965, 0.07737730923428292, -0.0847985503122306, 0.06658838589934243, -0.03264333488303354, -0.12462634977000504, 0.030389256360881918, 0.15316455884869257, 0.04582832289502695, -0.03602322057436912, -0.0906940750488428, 0.04008350508220681, 0.010843668067774124, 0.07546444170026466, -0.029056028027765732, -0.04818598084794824, 0.005567040194077327, -0.05834999736043435, 0.132112231053707, -0.013894846654771692, -0.08640819863448959, -0.0651247855279019, -0.012506111111483715, 0.04595001064368822, -0.07132608665491448, 0.04979949874225511, -0.10664850913716875, -0.09754095834635215, -0.027386254906150355, 0.0008031170508941598, 0.05804644633963982, -0.02785822491778607, 0.04095304372700084, 0.00458643507614354, 0.0608160686791554, 0.08560715022037509, -0.02290565136610584, 0.04980699492553495, 0.0057032924049073945, -0.062357303091932374, -0.061752021821274414, 0.033729180765191054, 0.006946686198296185, -0.1066595096755332, -0.06059601530713757, 0.01745887761082365, -0.1185481948779136, 0.20654815103511306, 0.04086176375957411, -0.1612138458361205, 0.017031152429051545, 0.03650559837311166, 0.04652849143513459, -0.0002231472808095267, 0.008672255877939104, 0.06240330849051541, 0.02400886350632191, -0.004537404081299286, -0.1558168858695546, -0.01107975779043861, 0.044585379492913045, -0.09692550080975847, 0.02961550927620975, -0.09814469979018955, -0.004758638188601785, -0.076806032300833, 0.0617423220388579, -0.030460279129145593, 0.02589995783232186, -0.023343349242646298, 0.12360857111227566, 0.018604610818806978, -0.04095014953034382, 0.012780958386692213, 0.054664109291672015, -0.11550778871882292, -0.11994522827640948, 0.061317315930952875, -0.04115326352205983, 0.05915047907047197, -0.03824752300699661, 0.04874480644974155, -0.016612510562508287, -0.04618916842989331, 0.022292061152459318, 0.13036972604647615, 0.008345033125946583, 0.09294938242437313, 0.1074939298497274, 0.10962573920523865, 0.040545984511691016, -0.01538817808194832, -0.09427281924397195, 0.0007589633766237126, -0.03256063040565723, -0.005136065258752767, 0.040762506634756904, 0.13238965030689193, -0.01050715532230329, -0.06168627683433535, 0.0038304083551446875, 0.01731277778071852, -0.059472381187229646, 0.1067090010887481, 0.0727312116549374, -0.037253497635010194, -0.00585451193652216, -0.015615749388780013, -0.0956465698139991, 0.01796613450180456, 0.058067341524883, 0.035299881952378986, -0.050000503530112664, -0.13774065377483488, -0.03398464304992165, -0.00609528573990326, 0.02163290674049293, 0.041054838664595736, -0.03459059338474135, 0.023725703731701995, -0.03143485053866363, 0.020897093959441348, 0.08944991113880821, -0.0030646037612251597, 0.006067621861782374, -0.040535065687980355, 0.04908208623409761, 0.10592461349897363, -0.12532281560925304, -0.07083966742192929, 0.07514403051578959, 0.19318468209118192, 0.043526247303629535, 0.07848571868924961, -0.05365704489679685, -0.03966204233694101, -0.042455420942668846, 0.07799692555774686, 0.08626720676778733, 0.05154448559812164, -0.08205679329310103, 0.04610646679611305, 0.029687486934702426, -0.16842136564801796, -0.024654400717043504, 0.07708259024375944, -0.018635799773885766, -0.08261432171252106, -0.10643127591077886, -0.01724424709746806, 0.012262737514539546, -0.005269879267982717, -0.11715239750142845, 0.05741671640171021, -0.025138750189543105, -0.11276185860971856, -0.011779281437750942, -0.0153048013853406, 0.09517266779241564, -0.0424792396524286, 0.06286636018449676, -0.007718871156007016, -0.029376103975470576, -0.03701793768523578, -0.07035525878299223, 0.13824324421567727, -0.06999101442823925, 0.028931197680190444, -0.07153701302959369, -0.029870255157235907, 0.010758815920500054, 0.1157227105355833, -0.024472388695605952, -0.07790841766650805, -0.027016654752913708, 0.14152118800530814, 0.04866734955494834, 0.051024915908017554, -0.0024977306495748684, -0.003894801165839872, 0.06482854550746482, 0.07905912477105506, 0.08406074549119621, 0.012112807094723158, 0.04665584148624628, 0.10036615188571447, 0.014055937908634804, 0.049657518086516944, -0.1304259467589992, 0.029912424328003007, 0.03531910227845322, -0.023336686534867368, -0.03790199367779549, -0.06000201299612135, -0.12713991444373188, -0.00677481119462688, 0.01651852426928493, 0.038218903540181495, 0.0002589096253166517, 0.03948405328257845, 0.0016704493995004413, 0.03578990104430917, -0.03596392910382603, 0.03325569872773025, 0.03766645094664465, 0.1553071765204399, -0.034586255641198306, 0.003859816394669121, -0.0009350342435120794, -0.05985687634166809, -0.03643972753436914, 0.2415854664454949, 0.10792281998043249, -0.17361077864701205, -0.0351573589182419, 0.023170292255334735, 0.03199266981613984, 0.04258122826916079, -0.11409732733490476, -0.00998171800173327, 0.012014705278800211, 0.12224576500040106, -0.02565128301143403, 0.058674193987833495, -0.07458293467429183, 0.05008092403016704, 0.09997008592307612, -0.0023580973430948108, 0.034294792160273965, 0.055768348561058896, 0.05722293648958551, -0.0017903296050025457, 0.07106323926190199, -0.04161702739998793, -0.031055297207780896, 0.10229661316040055, -0.007443289304060059, 0.1842122009303816, 0.046716380288220186, -0.06363283098684885, -0.04764350731078529, -0.11309602928296095, 0.010164432979703373, -0.10394140067055958, -0.05392529640456349, -0.02310775784279324, -0.03826605238121066, -0.09502018986615615, -0.05229903299258914, 0.03396735540214067, 0.024218205382044385, -0.09615716323912483, 0.0007691425603439797, 0.03603407113301666, 0.1470996627592089, 0.06718674202144384, -0.005404617910714613, -0.06826423879455219, -0.04408351494559167, 0.0559952170632069, 0.07073335117946256, 0.019792946248084916, -0.05858570688473204, 0.07786077237159973, 0.1942058871657636, 0.15743530737709896, 0.019380811267979543, -0.037446591290674826, 0.06097714766937062, -0.007175193874440704, 0.04624967958890657, 0.09381308512457763, -0.011756536474903774, -0.06508491127453056, 0.12624595631330918, 0.011573039701864695, 0.05361952687628755, 0.030108547908948513, 0.1024803577819784, -0.008588086178554008, -0.04343177951155082, -0.08714457626816774, 0.037124402173958494, -0.027726934071507676, 0.1104955959915319, 0.07614276175887287, 0.003600531471963448, 0.037367400698591034, 0.07654341280680732, 0.024750211868310213, 0.09881604993315943, 0.05532809910992172, 0.10681341706534674, 0.025574824063069122, 0.033983876476293765, -0.028220764495522684, 0.08247391577098927, -0.00627663410930123, -0.23151980724802365, 0.15640607230148063, -0.11239950695063816], [0.03668684964571271, 0.008884641469597861, 0.03354722684796172, -0.006664039482332624, 0.01998644220613747, -0.09549927443725446, 0.12499872906705058, -0.006592353944731291, -0.07802179099822067, -0.05453233109602079, 0.08056772406021152, 0.029096751912121094, -0.06399263665902084, 0.11288704730670975, -0.007749106267867832, 0.11483240365513149, -0.05473055210977294, -0.03167511162129561, -0.016474275306509304, -0.06877783078429021, -0.02433160688878307, -0.06314619190499024, 0.07919323709155324, 0.019261884798756037, 0.08618348165081864, 0.1273305778893132, 0.047341702574375394, -0.034479075655396596, 0.013641940067181259, 0.015323982024971906, -0.0822996724238441, -0.07756892193448858, -0.03593077636949705, 0.02173184772854162, -0.08158942473814706, -0.08837084723714356, 0.028008343828187458, 0.15438615260623584, 0.05050471703977943, -0.035017794110938895, 0.11216090786223187, 0.07169284037216277, -0.016837943447145693, -0.00024687308570428866, -0.12661694520190064, 0.15034263811764584, -0.05683033744793361, 0.08568354171376248, 0.04779481181436019, 0.030977469222954676, -0.20086394526367143, 0.07026069993076536, 0.060971910420070045, 0.01928378329758013, 0.05618723723698506, 0.10575450095671084, -0.06079966247392712, -0.08618771366236971, -0.009414201449954099, -0.08570040700057771, -0.08037187622615231, -0.038441136589349584, 0.029354573831160025, -0.11363526722648891, 0.03570516890986842, 0.058405091115978414, -0.06456641528540692, 0.031221287906739614, 0.005652498955525639, -0.01132920800083296, 0.12002850186864394, 0.08768225317009441, -0.09752650135861515, -0.001577289481761071, 0.03814080713854062, 0.12429953140918819, 0.06690527801148302, -0.031969369903686706, -0.02145168546520337, 0.04776713234648757, 0.08627105102928512, -0.031962597246057024, 0.1946034268627754, -0.005718391357315192, -0.07208615936974483, 0.1865022254023462, -0.07934315541958455, 0.013123291392926216, -0.04733998276592764, -0.040988026334752986, -0.19693335017752517, -0.050804689205534305, 0.015236207705731449, 0.03063771909522935, -0.09118916383175839, -0.13229804828375455, -0.15556062691063763, -0.10098664273441134, -0.09611566814827227, 0.12650929075975054, -0.0035802150803057663, -0.0598429332371376, -0.0932103636308664, 0.04020450111471137, -0.1559793117755631, -0.010344338670543322, -0.026624590731203664, 0.09531595265266735, -0.06001818718881131, -0.13567929138453255, 0.13232512727415607, -0.08737556719303499, -0.0484176573532533, 0.002680176285958091, 0.13225122102300857, -0.07582033380801362, -0.017634244723767192, 0.04969096079549718, -0.04792758953453455, 0.1501460954985354, 0.04756270170823013, 0.12774638829081264, -0.08813717693584712, 0.04659755081635259, 0.12499453011330076, 0.12725671902673355, 0.04398366218333461, 0.08716993263113014, -0.07266343086760532, 0.003740476369911306, 0.02855037856183076, 0.10833239079133937, 0.02257881335695928, -0.004295271688661775, 0.03455117889852011, 0.002071138801457656, -0.09330832304308365, 0.0908575168312835, -0.10810740847028891, 0.017880103914907335, -0.06129856287343543, 0.038494384277862066, 0.06588596400448811, -0.04799975526344131, -0.067665460277954, -0.13069861233939273, 0.13525855315491586, -0.013261192076412843, -0.07051532202894428, -0.0895890771532439, -0.032874134293858166, 0.1381092097638406, 0.06430924021793961, 0.03667345549285101, 0.10997468453979745, -0.006387023525813526, 0.029606143414194968, 0.06210569132793027, -0.04390964913791183, -0.02477350695587127, 0.003232122180935312, 0.0025581663976212174, 0.08204575243393435, 0.10954228817839146, -0.06446648736249558, 0.012343153290935552, -0.060968659442923526, -0.05149298934780533, -0.0429380881202292, -0.04381763309908042, -0.14832162357483916, -0.042953100530758494, -0.05928321136831065, 0.040828852423759, 0.16237964267994573, -0.026805603752600018, -0.035031855249708546, -0.04429468913919013, -0.009364702150340446, -0.05279400370076432, 0.03705140451464732, 0.03986158563538001, -0.04592419713777869, -0.006915624154236427, -0.1893919912889375, 0.038157905857747615, -0.023097564987484522, -0.12199902751455381, -0.15266321473638292, -0.04244608466529784, 0.061442666461087224, -0.027012651093978646, 0.04136670885727196, -0.01474967676124113, -0.033786264744830624, -0.10148725277501595, 0.1676260185544122, 0.07695034389985092, 0.06508058871675486, -0.021589329968534153, 0.21274142525842388, -0.005412467660728935, 0.025412549347945974, 0.07670014758654205, 0.013962799579703158, 0.002462315177249847, 0.08423380755623963, -0.026846049863905593, 0.015059629321927738, -0.11911134465721068, -0.03795469407377803, -0.07602989414772197, -0.07262109439213453, 0.1890384788492163, -0.022027930269822013, 0.0930260166305925, -0.09838208697035872, -0.036996542330934856, -0.13852971540009262, -0.019868996408230807, -0.026141310200111983, 0.05123994174109199, 0.008743409841824215, -0.16019996556883512, 0.007693764132748548, 0.05257191760590695, -0.02667312058633879, -0.1146674638695931, 0.0779888440204996, 0.07817375070192975, -0.09137059050069377, -0.09763268696321767, 0.10375473067100945, -0.05818903094478697, 0.05084950964915167, 0.14684106714276596, -0.10666753318288867, -0.0743514991757705, -0.11868964220391996, -0.004938691279674785, 0.02034009033711924, -0.03953498602605279, 0.05572301329555989, -0.18976540432199593, 0.004720266569213922, -0.011374818244487467, -0.16221967403346793, -0.05530371194996375, -0.06950361090897249, 0.013320569509485137, -0.022012447785201998, 0.028342337489450198, 0.0637478213309276, -0.08643998080819697, -0.14995121164146138, -0.04583412441757068, -0.16671962185512765, 0.10522823387432607, -0.04899719772305941, -0.1650436626732477, -0.1088296015520142, 0.08980788130422218, -0.045007317111802385, -0.0675952806660435, -0.029689583920509986, 0.09758420822219777, -0.06949709942922312, 0.005450781388896556, 0.04862446459255925, 0.11161175634756927, -0.04756767096650042, 0.057399128033703735, -0.021037633319046404, 0.04762168993382082, 0.07553850545304515, -0.004749410277980782, 0.0306114282096755, -0.0767550325018432, 0.14084285641647232, 0.06193697841186418, -0.11554464661533095, -0.19969823546782794, 0.05062869791667417, -0.059719698411721714, -0.08238659715220029, -0.030050126546723198, -0.03271432331189846, 0.05468275948519115, 0.01789270935713475, -0.034515309965967814, -0.06888732485528565, 0.06674157514298451, 0.04753580961452523, -0.0887386615117119, -0.04555238832335043, -0.08614396929667308, -0.040837392488720155, -0.028940948240316993, 0.015749561312294588, -0.0063998078140862545, 0.049631880569205054, 0.1337836826735593, -0.03318010730322122, 0.10043555677412612, -0.03430084776187464, -0.0711958680201431, -0.08400448278915738, -0.015640546924915302, -0.001873074829689852, -0.09922774334819039, -0.09072519741958748, 0.05381555766267728, 0.05160726663044824, -0.10533865290738322, -0.01792727839114307, 0.04708797372994042, -0.03673478031067358, 0.04169895258641535, 0.0448966263235263, 0.05200759815148243, -0.023879705288358304, -0.01805076652149208, 0.006869595306091424, -0.1544656268698665, -0.10478889951872551, -0.042559193353842395, -0.02126803031032179, -0.039601780900528995, 0.013393983961896066, 0.08567990262101932, 0.04471018633054159, -0.0202881512423548, 0.036442515003477796], [0.1483279726215986, 0.022523180779334576, 0.12265129706817576, -0.12654355714917986, 0.018859790090001372, -0.08866535958031384, -0.04665329276479371, -0.07016937938589775, 0.010351722219035011, 0.16898957636390707, 0.06679943414165206, -0.008282978551888682, 0.009806657699709566, 0.07578233771846773, 0.08980180681265892, -0.04947932176839566, -0.025447928943023498, 0.059071616172663606, -0.048585325150702935, 0.009257762371570645, -0.0009347484331509205, -0.03651746349662703, 0.32871804156492895, 0.008255405391240313, -0.0712691684634485, -0.08402675987873362, -0.05915301481361129, -0.13400399364027593, 0.050528671746165564, -0.13003858515913141, 0.02864359510069663, -0.019413515360128638, 0.06713354936742748, -0.1247997736692081, -0.05415076785566713, -0.07843517118289392, -0.062155431367204306, 0.008881263437776966, 0.019402775360193813, -0.07534173579114928, 0.0365869112099787, 0.0513000169359654, -0.034541637507460775, 0.23402333844433168, -0.034325447899650405, 0.15064790039361226, -0.13253333107848891, -0.07844398468302677, -0.13913048837751782, 0.048031269380483584, 0.0743576152940171, 0.19107114614181578, -0.07391679164915961, -0.06193106579479349, 0.14308877518178253, -0.06576655245764047, 0.1947704748705589, 0.1807911303985986, 0.015891631585871382, -0.030478623175093176, 0.050329026438054036, -0.00756510724302042, 0.03159633103110285, -0.17684711893921273, -0.028924328907581266, -0.09275084742467755, 0.0010647244013464656, -0.04786423503018284, -0.05676662897040584, -0.10134038757204743, -0.06618866627690961, 0.14956707370849057, 0.04340986460762166, -0.10197296426750123, -0.06296604093912617, -0.043536355382057884, 0.05403845085033064, -0.054059260897726884, -0.10531311847380267, 0.005497570922779995, -0.09747340469512426, 0.02032774295450087, 0.14240690720363006, 0.07551859156697868, 0.047523938318898, 0.001943556072908812, 0.03235515388385761, -0.03671013294827057, -0.012846098865777885, 0.2000565207495689, -0.006105636684815665, 0.06874784142552369, -0.029208964556615293, 0.2330709386670403, -0.1307721282552184, 0.027765046764172574, 0.018643256859212972, 0.02876375791206114, -0.10195184700260673, 0.07280493538632207, -0.10032828173713557, 0.1482383338128304, 0.02805478910870137, 0.07910968999705295, 0.0551934608095409, 0.009970038190641309, 0.12349314693879844, 0.06800162215427694, -0.026561507172516124, -0.06337770218460458, 0.009466988585944266, 0.03146602329470906, -0.0219945779959385, -0.11398424901929223, -0.00981945659554602, -0.012693498655173852, -0.007490597557501187, 0.12532580381789013, 0.05802158946660657, -0.03586265205116147, 0.05103371513449436, -0.08430965009850921, -0.1482729473873708, 0.07422482260899069, 0.06615514579054346, -0.00034246907795308954, 0.1355001206779572, -0.0780243938363381, -0.029324239738582617, -0.13369883414173334, 0.049110545962832534, -0.10751805884041273, -0.015000507802674827, 0.06929276744504752, 0.08120545226781005, -0.0477516356179367, -0.049318542942291536, -0.012979731504299666, 0.06528510984922853, -0.13734532479715408, -0.040713339736934466, -0.06955736183520278, 0.16178903639728665, 0.14964984974687295, 0.00848448487537197, 0.04918653318333071, -0.07414258718708558, -0.07679500350383428, 0.049465648645323566, 0.0708738116039974, 0.07402626553318947, 0.12307008909934043, 0.045176860267111145, -0.1953242186862963, 0.036299421890483775, -0.08489698579302359, -0.11030669679285295, 0.07959820063714194, -0.07563339540404464, 0.013560927304195728, -0.02060759782156029, -0.03196741488974495, 0.05899640426985034, 0.021648795339907167, -0.10231650072624343, -0.05418603342461659, 0.0794252203118432, -0.06874989913303774, -0.026908315975530908, -0.05300203624048981, -0.05341996400232238, -0.03829008527100306, 0.0693782062164099, 0.045204201563640044, -0.06457740790292897, -0.10278513400677641, 0.039413676926094994, 0.02243678568923565, -0.12079070289325337, -0.0716800380327419, -0.0008313622269644778, -0.17294157514569394, 0.0129117021974882, -0.11865831154428458, -0.006261735861354803, -0.034687269555557634, -0.0028014396932024275, 0.05122875833574695, 0.12841618054666437, -0.0495524731501974, 0.16682569750440002, -0.12509059501916425, 0.009663420341645195, -0.0020524299660169376, 0.06750388393505469, -0.0014409702157508373, -0.08010340104774628, 0.1132453579314099, 0.16221631446091334, 0.021381234199702188, -0.05973082830083531, 0.04820906989957583, -0.06365202478837804, -0.007714952666263574, 0.10290406341958151, -0.012689671226390604, -0.005567039902341023, -0.12178651154774682, -0.06298638056065525, -0.009404692678525405, 0.19013335164654768, 0.008198117232440735, -0.18963223929279524, 0.018455246709201067, -0.04366038786046732, 0.13294447407427612, -0.1064761518982855, -0.03625391674831076, -0.11995306736556326, -0.0472449369904157, -0.011427212144593161, 0.0753679829767507, 0.04703551119299971, 0.1480349272389927, -0.030997925362906752, -0.007341760447377612, -0.028507266844993422, 0.023591885375928844, 0.0866040182362096, -0.04787757405514773, 0.10312897824699217, -0.11316875405541678, 0.01930839213854957, -0.05700932204010339, 0.12049173326031455, 0.03521502602558852, -0.0036610761440089954, 0.026044423402703222, 0.19781971276841528, 0.0075623539029591996, -0.10454556442350747, 0.1501371515282447, 0.04075375607791981, 0.14731410109682785, -0.1375116115352515, -0.014155649574256184, 0.009340219433249693, 0.08472450837214826, 0.016159747585342204, 0.018354672261353153, -0.16438084800229386, 0.0007340002128366218, 0.008753643724500592, -0.05247317390771753, 0.07231855561005579, -0.012288482527857844, 0.018368859154507578, 0.04622241264578505, 0.03855852299402666, -0.04999857584004493, 